FANN_FLO_2.1
num_layers=3
learning_rate=0.100000
connection_rate=1.000000
network_type=0
learning_momentum=0.000000
training_algorithm=1
train_error_function=1
train_stop_function=0
cascade_output_change_fraction=0.010000
quickprop_decay=-0.000100
quickprop_mu=1.750000
rprop_increase_factor=1.200000
rprop_decrease_factor=0.500000
rprop_delta_min=0.000000
rprop_delta_max=50.000000
rprop_delta_zero=0.100000
cascade_output_stagnation_epochs=12
cascade_candidate_change_fraction=0.010000
cascade_candidate_stagnation_epochs=12
cascade_max_out_epochs=150
cascade_min_out_epochs=50
cascade_max_cand_epochs=150
cascade_min_cand_epochs=50
cascade_num_candidate_groups=2
bit_fail_limit=3.49999994039535522461e-01
cascade_candidate_limit=1.00000000000000000000e+03
cascade_weight_multiplier=4.00000005960464477539e-01
cascade_activation_functions_count=10
cascade_activation_functions=3 5 7 8 10 11 14 15 16 17 
cascade_activation_steepnesses_count=4
cascade_activation_steepnesses=2.50000000000000000000e-01 5.00000000000000000000e-01 7.50000000000000000000e-01 1.00000000000000000000e+00 
layer_sizes=4 6 4 
scale_included=1
scale_mean_in=0.098030 0.046445 0.156114 
scale_deviation_in=0.015233 0.014419 0.006789 
scale_new_min_in=-0.900000 -0.900000 -0.900000 
scale_factor_in=0.900000 0.900000 0.900000 
scale_mean_out=-1.127693 1.925585 -2.655091 
scale_deviation_out=0.134907 0.193669 0.305585 
scale_new_min_out=-0.900000 -0.900000 -0.900000 
scale_factor_out=0.900000 0.900000 0.900000 
neurons (num_inputs, activation_function, activation_steepness)=(0, 0, 0.00000000000000000000e+00) (0, 0, 0.00000000000000000000e+00) (0, 0, 0.00000000000000000000e+00) (0, 0, 0.00000000000000000000e+00) (4, 5, 5.00000000000000000000e-01) (4, 5, 5.00000000000000000000e-01) (4, 5, 5.00000000000000000000e-01) (4, 5, 5.00000000000000000000e-01) (4, 5, 5.00000000000000000000e-01) (0, 5, 0.00000000000000000000e+00) (6, 5, 5.00000000000000000000e-01) (6, 5, 5.00000000000000000000e-01) (6, 5, 5.00000000000000000000e-01) (0, 5, 0.00000000000000000000e+00) 
connections (connected_to_neuron, weight)=(0, -1.41083037853240966797e+00) (1, -7.42629110813140869141e-01) (2, 9.78813111782073974609e-01) (3, -3.31470990180969238281e+00) (0, -1.78848102688789367676e-01) (1, -9.02379453182220458984e-01) (2, 2.83820718526840209961e-01) (3, -9.69265922904014587402e-02) (0, 4.69651490449905395508e-01) (1, 1.50103557109832763672e+00) (2, 1.01139724254608154297e+00) (3, 1.81721663475036621094e+00) (0, 1.09192013740539550781e+00) (1, -2.66310840845108032227e-01) (2, 1.70187249779701232910e-01) (3, 9.42705869674682617188e-01) (0, 4.97880363464355468750e+00) (1, 2.41164231300354003906e+00) (2, 3.43452215194702148438e+00) (3, 2.61787104606628417969e+00) (4, -5.94752848148345947266e-01) (5, -2.65744495391845703125e+00) (6, 2.56502699851989746094e+00) (7, -5.04075479507446289062e+00) (8, 1.47867813706398010254e-01) (9, -3.93020331859588623047e-01) (4, 5.22461462020874023438e+00) (5, 5.74419736862182617188e-01) (6, -6.60417258739471435547e-01) (7, -1.47601819038391113281e+00) (8, 4.35755681991577148438e+00) (9, 2.17327928543090820312e+00) (4, 5.33706474304199218750e+00) (5, -1.22444868087768554688e+00) (6, -1.48235499858856201172e+00) (7, -5.55608160793781280518e-02) (8, 4.58257722854614257812e+00) (9, 1.92628407478332519531e+00) 
