FANN_FLO_2.1
num_layers=3
learning_rate=0.100000
connection_rate=1.000000
network_type=0
learning_momentum=0.000000
training_algorithm=1
train_error_function=1
train_stop_function=0
cascade_output_change_fraction=0.010000
quickprop_decay=-0.000100
quickprop_mu=1.750000
rprop_increase_factor=1.200000
rprop_decrease_factor=0.500000
rprop_delta_min=0.000000
rprop_delta_max=50.000000
rprop_delta_zero=0.100000
cascade_output_stagnation_epochs=12
cascade_candidate_change_fraction=0.010000
cascade_candidate_stagnation_epochs=12
cascade_max_out_epochs=150
cascade_min_out_epochs=50
cascade_max_cand_epochs=150
cascade_min_cand_epochs=50
cascade_num_candidate_groups=2
bit_fail_limit=3.49999994039535522461e-01
cascade_candidate_limit=1.00000000000000000000e+03
cascade_weight_multiplier=4.00000005960464477539e-01
cascade_activation_functions_count=10
cascade_activation_functions=3 5 7 8 10 11 14 15 16 17 
cascade_activation_steepnesses_count=4
cascade_activation_steepnesses=2.50000000000000000000e-01 5.00000000000000000000e-01 7.50000000000000000000e-01 1.00000000000000000000e+00 
layer_sizes=4 6 4 
scale_included=1
scale_mean_in=0.097279 0.085806 0.146409 
scale_deviation_in=0.012677 0.009635 0.006555 
scale_new_min_in=-0.900000 -0.900000 -0.900000 
scale_factor_in=0.900000 0.900000 0.900000 
scale_mean_out=-0.845586 1.847083 -2.585685 
scale_deviation_out=0.082213 0.212344 0.322896 
scale_new_min_out=-0.900000 -0.900000 -0.900000 
scale_factor_out=0.900000 0.900000 0.900000 
neurons (num_inputs, activation_function, activation_steepness)=(0, 0, 0.00000000000000000000e+00) (0, 0, 0.00000000000000000000e+00) (0, 0, 0.00000000000000000000e+00) (0, 0, 0.00000000000000000000e+00) (4, 5, 5.00000000000000000000e-01) (4, 5, 5.00000000000000000000e-01) (4, 5, 5.00000000000000000000e-01) (4, 5, 5.00000000000000000000e-01) (4, 5, 5.00000000000000000000e-01) (0, 5, 0.00000000000000000000e+00) (6, 5, 5.00000000000000000000e-01) (6, 5, 5.00000000000000000000e-01) (6, 5, 5.00000000000000000000e-01) (0, 5, 0.00000000000000000000e+00) 
connections (connected_to_neuron, weight)=(0, -1.24537479132413864136e-02) (1, -2.32540518045425415039e-02) (2, 2.39168238639831542969e+00) (3, 1.03471028804779052734e+00) (0, -1.64650166034698486328e+00) (1, -1.12858355045318603516e+00) (2, 1.56327307224273681641e-01) (3, 1.18812084197998046875e+00) (0, -5.44429123401641845703e-01) (1, 2.89454489946365356445e-01) (2, 3.20036649703979492188e-01) (3, -1.07640206813812255859e-01) (0, 6.43801689147949218750e-01) (1, -6.52893662452697753906e-01) (2, 6.33559465408325195312e-01) (3, -1.84365868568420410156e-01) (0, 3.25490713119506835938e+00) (1, 2.18368124961853027344e+00) (2, 5.42240095138549804688e+00) (3, 1.20025789737701416016e+00) (4, -3.55689488351345062256e-02) (5, -6.73194155097007751465e-02) (6, 5.66894721984863281250e+00) (7, -3.73189377784729003906e+00) (8, 1.55497178435325622559e-01) (9, -1.03163324296474456787e-01) (4, -5.01072216033935546875e+00) (5, 5.08397674560546875000e+00) (6, 2.86978065967559814453e-01) (7, 5.90460598468780517578e-02) (8, 2.26305294036865234375e+00) (9, -1.18455111980438232422e+00) (4, -4.75315523147583007812e+00) (5, 4.59348249435424804688e+00) (6, -1.22705268859863281250e+00) (7, -8.53431046009063720703e-01) (8, 2.31236100196838378906e+00) (9, -1.24171829223632812500e+00) 
