FANN_FLO_2.1
num_layers=3
learning_rate=0.100000
connection_rate=1.000000
network_type=0
learning_momentum=0.000000
training_algorithm=1
train_error_function=1
train_stop_function=0
cascade_output_change_fraction=0.010000
quickprop_decay=-0.000100
quickprop_mu=1.750000
rprop_increase_factor=1.200000
rprop_decrease_factor=0.500000
rprop_delta_min=0.000000
rprop_delta_max=50.000000
rprop_delta_zero=0.100000
cascade_output_stagnation_epochs=12
cascade_candidate_change_fraction=0.010000
cascade_candidate_stagnation_epochs=12
cascade_max_out_epochs=150
cascade_min_out_epochs=50
cascade_max_cand_epochs=150
cascade_min_cand_epochs=50
cascade_num_candidate_groups=2
bit_fail_limit=3.49999994039535522461e-01
cascade_candidate_limit=1.00000000000000000000e+03
cascade_weight_multiplier=4.00000005960464477539e-01
cascade_activation_functions_count=10
cascade_activation_functions=3 5 7 8 10 11 14 15 16 17 
cascade_activation_steepnesses_count=4
cascade_activation_steepnesses=2.50000000000000000000e-01 5.00000000000000000000e-01 7.50000000000000000000e-01 1.00000000000000000000e+00 
layer_sizes=4 6 4 
scale_included=1
scale_mean_in=0.151265 0.046798 -0.028811 
scale_deviation_in=0.014539 0.014437 0.010120 
scale_new_min_in=-0.900000 -0.900000 -0.900000 
scale_factor_in=0.900000 0.900000 0.900000 
scale_mean_out=-1.270189 1.948685 -0.730606 
scale_deviation_out=0.093461 0.166484 0.211210 
scale_new_min_out=-0.900000 -0.900000 -0.900000 
scale_factor_out=0.900000 0.900000 0.900000 
neurons (num_inputs, activation_function, activation_steepness)=(0, 0, 0.00000000000000000000e+00) (0, 0, 0.00000000000000000000e+00) (0, 0, 0.00000000000000000000e+00) (0, 0, 0.00000000000000000000e+00) (4, 5, 5.00000000000000000000e-01) (4, 5, 5.00000000000000000000e-01) (4, 5, 5.00000000000000000000e-01) (4, 5, 5.00000000000000000000e-01) (4, 5, 5.00000000000000000000e-01) (0, 5, 0.00000000000000000000e+00) (6, 5, 5.00000000000000000000e-01) (6, 5, 5.00000000000000000000e-01) (6, 5, 5.00000000000000000000e-01) (0, 5, 0.00000000000000000000e+00) 
connections (connected_to_neuron, weight)=(0, -1.72849321365356445312e+00) (1, -2.82643549144268035889e-02) (2, 1.27206206321716308594e+00) (3, 3.37912179529666900635e-02) (0, 3.21214497089385986328e-01) (1, 1.43739616870880126953e+00) (2, -1.26943632960319519043e-01) (3, 7.23646283149719238281e-02) (0, -9.37350273132324218750e-01) (1, -5.54092347621917724609e-01) (2, -5.21292626857757568359e-01) (3, -7.51924440264701843262e-02) (0, -4.08767729997634887695e-01) (1, 1.74853885173797607422e+00) (2, -4.79691684246063232422e-01) (3, -2.40718364715576171875e-01) (0, 1.68721413612365722656e+00) (1, 1.58091768622398376465e-01) (2, 5.16407452523708343506e-02) (3, -4.44467067718505859375e-01) (4, 1.09971976280212402344e+00) (5, 1.49909305572509765625e+00) (6, -2.89377450942993164062e-01) (7, 2.40999436378479003906e+00) (8, -1.48722931742668151855e-01) (9, 8.01968723535537719727e-02) (4, 2.85713076591491699219e+00) (5, -6.22278034687042236328e-01) (6, -1.57089367508888244629e-01) (7, -6.48270428180694580078e-01) (8, -1.16962671279907226562e+00) (9, -3.41997385025024414062e-01) (4, 1.12354278564453125000e+00) (5, -5.39849758148193359375e-01) (6, 1.55637013912200927734e+00) (7, -7.01523646712303161621e-02) (8, -2.02615451812744140625e+00) (9, -3.02255243062973022461e-01) 
