FANN_FLO_2.1
num_layers=3
learning_rate=0.100000
connection_rate=1.000000
network_type=0
learning_momentum=0.000000
training_algorithm=1
train_error_function=1
train_stop_function=0
cascade_output_change_fraction=0.010000
quickprop_decay=-0.000100
quickprop_mu=1.750000
rprop_increase_factor=1.200000
rprop_decrease_factor=0.500000
rprop_delta_min=0.000000
rprop_delta_max=50.000000
rprop_delta_zero=0.100000
cascade_output_stagnation_epochs=12
cascade_candidate_change_fraction=0.010000
cascade_candidate_stagnation_epochs=12
cascade_max_out_epochs=150
cascade_min_out_epochs=50
cascade_max_cand_epochs=150
cascade_min_cand_epochs=50
cascade_num_candidate_groups=2
bit_fail_limit=3.49999994039535522461e-01
cascade_candidate_limit=1.00000000000000000000e+03
cascade_weight_multiplier=4.00000005960464477539e-01
cascade_activation_functions_count=10
cascade_activation_functions=3 5 7 8 10 11 14 15 16 17 
cascade_activation_steepnesses_count=4
cascade_activation_steepnesses=2.50000000000000000000e-01 5.00000000000000000000e-01 7.50000000000000000000e-01 1.00000000000000000000e+00 
layer_sizes=4 6 4 
scale_included=1
scale_mean_in=0.162312 0.048498 0.006876 
scale_deviation_in=0.008922 0.014520 0.010365 
scale_new_min_in=-0.900000 -0.900000 -0.900000 
scale_factor_in=0.900000 0.900000 0.900000 
scale_mean_out=-1.280632 2.073713 -0.921641 
scale_deviation_out=0.087723 0.107297 0.144668 
scale_new_min_out=-0.900000 -0.900000 -0.900000 
scale_factor_out=0.900000 0.900000 0.900000 
neurons (num_inputs, activation_function, activation_steepness)=(0, 0, 0.00000000000000000000e+00) (0, 0, 0.00000000000000000000e+00) (0, 0, 0.00000000000000000000e+00) (0, 0, 0.00000000000000000000e+00) (4, 5, 5.00000000000000000000e-01) (4, 5, 5.00000000000000000000e-01) (4, 5, 5.00000000000000000000e-01) (4, 5, 5.00000000000000000000e-01) (4, 5, 5.00000000000000000000e-01) (0, 5, 0.00000000000000000000e+00) (6, 5, 5.00000000000000000000e-01) (6, 5, 5.00000000000000000000e-01) (6, 5, 5.00000000000000000000e-01) (0, 5, 0.00000000000000000000e+00) 
connections (connected_to_neuron, weight)=(0, 7.55888283252716064453e-01) (1, 1.38535249233245849609e+00) (2, 5.57472646236419677734e-01) (3, -7.63442143797874450684e-02) (0, 1.38996124267578125000e+00) (1, 2.38260701298713684082e-01) (2, -1.28942477703094482422e+00) (3, 1.17761000990867614746e-01) (0, -3.24254661798477172852e-01) (1, -1.53290617465972900391e+00) (2, 4.23000872135162353516e-01) (3, -2.03686058521270751953e-01) (0, 1.77626287937164306641e+00) (1, -5.93166202306747436523e-02) (2, -3.67020182311534881592e-02) (3, -7.07370489835739135742e-02) (0, -9.12509918212890625000e-01) (1, 3.41795086860656738281e-01) (2, -6.10231637954711914062e-01) (3, -5.81700623035430908203e-01) (4, 1.62529408931732177734e+00) (5, -7.44045794010162353516e-01) (6, -2.73772239685058593750e+00) (7, -8.90051960945129394531e-01) (8, 1.08530771732330322266e+00) (9, 3.64656224846839904785e-02) (4, -8.98040473461151123047e-01) (5, -2.57469797134399414062e+00) (6, 1.20120036602020263672e+00) (7, -1.72048878669738769531e+00) (8, -7.24393203854560852051e-02) (9, 1.37026339769363403320e-01) (4, -2.54215764999389648438e+00) (5, -3.79917830228805541992e-01) (6, -6.26175627112388610840e-02) (7, -1.73081195354461669922e+00) (8, 1.23154306411743164062e+00) (9, 2.55141794681549072266e-01) 
