FANN_FLO_2.1
num_layers=3
learning_rate=0.100000
connection_rate=1.000000
network_type=0
learning_momentum=0.000000
training_algorithm=1
train_error_function=1
train_stop_function=0
cascade_output_change_fraction=0.010000
quickprop_decay=-0.000100
quickprop_mu=1.750000
rprop_increase_factor=1.200000
rprop_decrease_factor=0.500000
rprop_delta_min=0.000000
rprop_delta_max=50.000000
rprop_delta_zero=0.100000
cascade_output_stagnation_epochs=12
cascade_candidate_change_fraction=0.010000
cascade_candidate_stagnation_epochs=12
cascade_max_out_epochs=150
cascade_min_out_epochs=50
cascade_max_cand_epochs=150
cascade_min_cand_epochs=50
cascade_num_candidate_groups=2
bit_fail_limit=3.49999994039535522461e-01
cascade_candidate_limit=1.00000000000000000000e+03
cascade_weight_multiplier=4.00000005960464477539e-01
cascade_activation_functions_count=10
cascade_activation_functions=3 5 7 8 10 11 14 15 16 17 
cascade_activation_steepnesses_count=4
cascade_activation_steepnesses=2.50000000000000000000e-01 5.00000000000000000000e-01 7.50000000000000000000e-01 1.00000000000000000000e+00 
layer_sizes=4 6 4 
scale_included=1
scale_mean_in=0.186943 -0.003014 -0.130703 
scale_deviation_in=0.006163 0.014513 0.007982 
scale_new_min_in=-0.900000 -0.900000 -0.900000 
scale_factor_in=0.900000 0.900000 0.900000 
scale_mean_out=-1.586773 0.229644 -2.421431 
scale_deviation_out=0.077478 0.212626 0.327796 
scale_new_min_out=-0.900000 -0.900000 -0.900000 
scale_factor_out=0.900000 0.900000 0.900000 
neurons (num_inputs, activation_function, activation_steepness)=(0, 0, 0.00000000000000000000e+00) (0, 0, 0.00000000000000000000e+00) (0, 0, 0.00000000000000000000e+00) (0, 0, 0.00000000000000000000e+00) (4, 5, 5.00000000000000000000e-01) (4, 5, 5.00000000000000000000e-01) (4, 5, 5.00000000000000000000e-01) (4, 5, 5.00000000000000000000e-01) (4, 5, 5.00000000000000000000e-01) (0, 5, 0.00000000000000000000e+00) (6, 5, 5.00000000000000000000e-01) (6, 5, 5.00000000000000000000e-01) (6, 5, 5.00000000000000000000e-01) (0, 5, 0.00000000000000000000e+00) 
connections (connected_to_neuron, weight)=(0, 9.83384490013122558594e-01) (1, -2.81662631034851074219e+00) (2, -2.47831702232360839844e-01) (3, 4.80812549591064453125e+00) (0, -1.05094417929649353027e-01) (1, 2.93887943029403686523e-01) (2, 1.08443832397460937500e+00) (3, 2.79035758972167968750e+00) (0, 1.51647284626960754395e-01) (1, -1.32067835330963134766e+00) (2, 7.45272785425186157227e-02) (3, -1.88624179363250732422e+00) (0, -5.66018867492675781250e+00) (1, 3.36097389459609985352e-01) (2, 4.14069318771362304688e+00) (3, -3.31751012802124023438e+00) (0, 2.62433588504791259766e-01) (1, 6.53294622898101806641e-01) (2, 1.46282895002514123917e-03) (3, -2.51458495855331420898e-01) (4, -4.39948034286499023438e+00) (5, 1.42692521214485168457e-01) (6, -4.73504638671875000000e+00) (7, 1.24816885218024253845e-02) (8, 2.88315844535827636719e+00) (9, 1.09409105777740478516e+00) (4, 2.54601550102233886719e+00) (5, 5.11818599700927734375e+00) (6, -4.16172184050083160400e-02) (7, 1.01585168838500976562e+01) (8, 3.51586103439331054688e-01) (9, 2.39102649688720703125e+00) (4, 1.65818953514099121094e+00) (5, 3.44435572624206542969e+00) (6, -1.86089503765106201172e+00) (7, 1.04127788543701171875e+01) (8, -1.86322462558746337891e+00) (9, 3.47856974601745605469e+00) 
