FANN_FLO_2.1
num_layers=3
learning_rate=0.100000
connection_rate=1.000000
network_type=0
learning_momentum=0.000000
training_algorithm=1
train_error_function=1
train_stop_function=0
cascade_output_change_fraction=0.010000
quickprop_decay=-0.000100
quickprop_mu=1.750000
rprop_increase_factor=1.200000
rprop_decrease_factor=0.500000
rprop_delta_min=0.000000
rprop_delta_max=50.000000
rprop_delta_zero=0.100000
cascade_output_stagnation_epochs=12
cascade_candidate_change_fraction=0.010000
cascade_candidate_stagnation_epochs=12
cascade_max_out_epochs=150
cascade_min_out_epochs=50
cascade_max_cand_epochs=150
cascade_min_cand_epochs=50
cascade_num_candidate_groups=2
bit_fail_limit=3.49999994039535522461e-01
cascade_candidate_limit=1.00000000000000000000e+03
cascade_weight_multiplier=4.00000005960464477539e-01
cascade_activation_functions_count=10
cascade_activation_functions=3 5 7 8 10 11 14 15 16 17 
cascade_activation_steepnesses_count=4
cascade_activation_steepnesses=2.50000000000000000000e-01 5.00000000000000000000e-01 7.50000000000000000000e-01 1.00000000000000000000e+00 
layer_sizes=4 6 4 
scale_included=1
scale_mean_in=0.187428 -0.018521 0.041015 
scale_deviation_in=0.015412 0.021410 0.016454 
scale_new_min_in=-0.900000 -0.900000 -0.900000 
scale_factor_in=0.900000 0.900000 0.900000 
scale_mean_out=-1.669096 1.810448 -1.496864 
scale_deviation_out=0.114190 0.275002 0.372108 
scale_new_min_out=-0.900000 -0.900000 -0.900000 
scale_factor_out=0.900000 0.900000 0.900000 
neurons (num_inputs, activation_function, activation_steepness)=(0, 0, 0.00000000000000000000e+00) (0, 0, 0.00000000000000000000e+00) (0, 0, 0.00000000000000000000e+00) (0, 0, 0.00000000000000000000e+00) (4, 5, 5.00000000000000000000e-01) (4, 5, 5.00000000000000000000e-01) (4, 5, 5.00000000000000000000e-01) (4, 5, 5.00000000000000000000e-01) (4, 5, 5.00000000000000000000e-01) (0, 5, 0.00000000000000000000e+00) (6, 5, 5.00000000000000000000e-01) (6, 5, 5.00000000000000000000e-01) (6, 5, 5.00000000000000000000e-01) (0, 5, 0.00000000000000000000e+00) 
connections (connected_to_neuron, weight)=(0, 4.66674715280532836914e-01) (1, -5.57266026735305786133e-02) (2, -3.52070003747940063477e-01) (3, -4.13847774267196655273e-01) (0, -2.01963305473327636719e+00) (1, -6.02170050144195556641e-01) (2, -5.23274779319763183594e-01) (3, 3.02994400262832641602e-01) (0, -1.24675869941711425781e-01) (1, 6.29084646701812744141e-01) (2, 2.09953859448432922363e-01) (3, 1.15515184402465820312e+00) (0, 1.86324849724769592285e-01) (1, -1.72696685791015625000e+00) (2, 5.44811189174652099609e-01) (3, -4.57528948783874511719e-01) (0, 1.32420885562896728516e+00) (1, -1.25677716732025146484e+00) (2, -1.48649709299206733704e-02) (3, -5.02384901046752929688e-01) (4, -2.83245444297790527344e-01) (5, -1.29729998111724853516e+00) (6, 2.47466221451759338379e-01) (7, -1.72418177127838134766e+00) (8, -1.40597164630889892578e+00) (9, -5.88569819927215576172e-01) (4, -6.39261662960052490234e-01) (5, 1.83769905567169189453e+00) (6, -5.71624934673309326172e-01) (7, -1.18996813893318176270e-01) (8, -1.64597249031066894531e+00) (9, -2.31561228632926940918e-01) (4, -1.21726393699645996094e-01) (5, 2.01367950439453125000e+00) (6, 2.73094266653060913086e-01) (7, -4.78785306215286254883e-01) (8, -8.35649490356445312500e-01) (9, -5.03211319446563720703e-01) 
