FANN_FLO_2.1
num_layers=3
learning_rate=0.100000
connection_rate=1.000000
network_type=0
learning_momentum=0.000000
training_algorithm=1
train_error_function=1
train_stop_function=0
cascade_output_change_fraction=0.010000
quickprop_decay=-0.000100
quickprop_mu=1.750000
rprop_increase_factor=1.200000
rprop_decrease_factor=0.500000
rprop_delta_min=0.000000
rprop_delta_max=50.000000
rprop_delta_zero=0.100000
cascade_output_stagnation_epochs=12
cascade_candidate_change_fraction=0.010000
cascade_candidate_stagnation_epochs=12
cascade_max_out_epochs=150
cascade_min_out_epochs=50
cascade_max_cand_epochs=150
cascade_min_cand_epochs=50
cascade_num_candidate_groups=2
bit_fail_limit=3.49999994039535522461e-01
cascade_candidate_limit=1.00000000000000000000e+03
cascade_weight_multiplier=4.00000005960464477539e-01
cascade_activation_functions_count=10
cascade_activation_functions=3 5 7 8 10 11 14 15 16 17 
cascade_activation_steepnesses_count=4
cascade_activation_steepnesses=2.50000000000000000000e-01 5.00000000000000000000e-01 7.50000000000000000000e-01 1.00000000000000000000e+00 
layer_sizes=4 6 4 
scale_included=1
scale_mean_in=0.057518 0.177391 0.083627 
scale_deviation_in=0.015892 0.006972 0.008797 
scale_new_min_in=-0.900000 -0.900000 -0.900000 
scale_factor_in=0.900000 0.900000 0.900000 
scale_mean_out=-0.312510 1.718394 -1.990519 
scale_deviation_out=0.084255 0.156625 0.235600 
scale_new_min_out=-0.900000 -0.900000 -0.900000 
scale_factor_out=0.900000 0.900000 0.900000 
neurons (num_inputs, activation_function, activation_steepness)=(0, 0, 0.00000000000000000000e+00) (0, 0, 0.00000000000000000000e+00) (0, 0, 0.00000000000000000000e+00) (0, 0, 0.00000000000000000000e+00) (4, 5, 5.00000000000000000000e-01) (4, 5, 5.00000000000000000000e-01) (4, 5, 5.00000000000000000000e-01) (4, 5, 5.00000000000000000000e-01) (4, 5, 5.00000000000000000000e-01) (0, 5, 0.00000000000000000000e+00) (6, 5, 5.00000000000000000000e-01) (6, 5, 5.00000000000000000000e-01) (6, 5, 5.00000000000000000000e-01) (0, 5, 0.00000000000000000000e+00) 
connections (connected_to_neuron, weight)=(0, -1.10184741020202636719e+00) (1, -1.48054635524749755859e+00) (2, 1.16425463929772377014e-02) (3, 5.24635672569274902344e-01) (0, -1.15713447332382202148e-01) (1, -1.27839827537536621094e+00) (2, -7.84613966941833496094e-01) (3, -2.71147161722183227539e-01) (0, 5.98340570926666259766e-01) (1, -1.22297763824462890625e+00) (2, -1.14648091793060302734e+00) (3, 4.40238118171691894531e-01) (0, -1.51396095752716064453e+00) (1, -1.13869929313659667969e+00) (2, -1.14427363872528076172e+00) (3, 8.58684182167053222656e-02) (0, -1.46238052845001220703e+00) (1, 2.73760825395584106445e-01) (2, -6.92773759365081787109e-01) (3, 4.12865012884140014648e-01) (4, 4.93056595325469970703e-01) (5, -4.49929803609848022461e-01) (6, -1.37277913093566894531e+00) (7, 1.24662780761718750000e+00) (8, 1.30313885211944580078e+00) (9, -1.21658995747566223145e-01) (4, 1.70416522026062011719e+00) (5, 7.55085170269012451172e-01) (6, 7.79984712600708007812e-01) (7, 1.21001422405242919922e+00) (8, 7.80306756496429443359e-01) (9, -4.01923179626464843750e-01) (4, 5.72956681251525878906e-01) (5, 1.05678606033325195312e+00) (6, 1.07448136806488037109e+00) (7, 1.86425399780273437500e+00) (8, 8.95860493183135986328e-01) (9, -1.94888979196548461914e-01) 
