FANN_FLO_2.1
num_layers=3
learning_rate=0.100000
connection_rate=1.000000
network_type=0
learning_momentum=0.000000
training_algorithm=1
train_error_function=1
train_stop_function=0
cascade_output_change_fraction=0.010000
quickprop_decay=-0.000100
quickprop_mu=1.750000
rprop_increase_factor=1.200000
rprop_decrease_factor=0.500000
rprop_delta_min=0.000000
rprop_delta_max=50.000000
rprop_delta_zero=0.100000
cascade_output_stagnation_epochs=12
cascade_candidate_change_fraction=0.010000
cascade_candidate_stagnation_epochs=12
cascade_max_out_epochs=150
cascade_min_out_epochs=50
cascade_max_cand_epochs=150
cascade_min_cand_epochs=50
cascade_num_candidate_groups=2
bit_fail_limit=3.49999994039535522461e-01
cascade_candidate_limit=1.00000000000000000000e+03
cascade_weight_multiplier=4.00000005960464477539e-01
cascade_activation_functions_count=10
cascade_activation_functions=3 5 7 8 10 11 14 15 16 17 
cascade_activation_steepnesses_count=4
cascade_activation_steepnesses=2.50000000000000000000e-01 5.00000000000000000000e-01 7.50000000000000000000e-01 1.00000000000000000000e+00 
layer_sizes=4 6 4 
scale_included=1
scale_mean_in=0.202335 -0.013178 -0.047141 
scale_deviation_in=0.013866 0.012489 0.009126 
scale_new_min_in=-1.000000 -1.000000 -1.000000 
scale_factor_in=1.000000 1.000000 1.000000 
scale_mean_out=-1.636023 1.178605 -1.615434 
scale_deviation_out=0.062161 0.228080 0.355059 
scale_new_min_out=-1.000000 -1.000000 -1.000000 
scale_factor_out=1.000000 1.000000 1.000000 
neurons (num_inputs, activation_function, activation_steepness)=(0, 0, 0.00000000000000000000e+00) (0, 0, 0.00000000000000000000e+00) (0, 0, 0.00000000000000000000e+00) (0, 0, 0.00000000000000000000e+00) (4, 5, 5.00000000000000000000e-01) (4, 5, 5.00000000000000000000e-01) (4, 5, 5.00000000000000000000e-01) (4, 5, 5.00000000000000000000e-01) (4, 5, 5.00000000000000000000e-01) (0, 5, 0.00000000000000000000e+00) (6, 5, 5.00000000000000000000e-01) (6, 5, 5.00000000000000000000e-01) (6, 5, 5.00000000000000000000e-01) (0, 5, 0.00000000000000000000e+00) 
connections (connected_to_neuron, weight)=(0, 9.79565560817718505859e-01) (1, 6.54199779033660888672e-01) (2, 3.89102607965469360352e-01) (3, 6.58825516700744628906e-01) (0, 4.82005327939987182617e-01) (1, -4.22827273607254028320e-01) (2, 8.55112373828887939453e-01) (3, 4.63817924261093139648e-01) (0, 1.04563903808593750000e+00) (1, -1.29615950584411621094e+00) (2, -5.67358434200286865234e-01) (3, 5.22390864789485931396e-02) (0, 3.12759131193161010742e-01) (1, 1.67049121856689453125e+00) (2, -4.44646209478378295898e-01) (3, 2.75728076696395874023e-01) (0, -1.73408269882202148438e+00) (1, -2.40568116307258605957e-01) (2, 4.69908595085144042969e-01) (3, 5.98771512508392333984e-01) (4, 9.77274835109710693359e-01) (5, -1.82982757687568664551e-01) (6, -2.28722596168518066406e+00) (7, 2.36127018928527832031e+00) (8, -8.65512549877166748047e-01) (9, -2.77482360601425170898e-01) (4, -3.58443468809127807617e-01) (5, 2.55823209881782531738e-02) (6, -2.26143169403076171875e+00) (7, -1.01292586326599121094e+00) (8, 2.67367219924926757812e+00) (9, -1.27004817128181457520e-01) (4, -1.60271775722503662109e+00) (5, -3.88148695230484008789e-01) (6, -1.31324577331542968750e+00) (7, 2.44141921401023864746e-01) (8, 2.73389482498168945312e+00) (9, 1.89021065831184387207e-01) 
