FANN_FLO_2.1
num_layers=3
learning_rate=0.100000
connection_rate=1.000000
network_type=0
learning_momentum=0.000000
training_algorithm=1
train_error_function=1
train_stop_function=0
cascade_output_change_fraction=0.010000
quickprop_decay=-0.000100
quickprop_mu=1.750000
rprop_increase_factor=1.200000
rprop_decrease_factor=0.500000
rprop_delta_min=0.000000
rprop_delta_max=50.000000
rprop_delta_zero=0.100000
cascade_output_stagnation_epochs=12
cascade_candidate_change_fraction=0.010000
cascade_candidate_stagnation_epochs=12
cascade_max_out_epochs=150
cascade_min_out_epochs=50
cascade_max_cand_epochs=150
cascade_min_cand_epochs=50
cascade_num_candidate_groups=2
bit_fail_limit=3.49999994039535522461e-01
cascade_candidate_limit=1.00000000000000000000e+03
cascade_weight_multiplier=4.00000005960464477539e-01
cascade_activation_functions_count=10
cascade_activation_functions=3 5 7 8 10 11 14 15 16 17 
cascade_activation_steepnesses_count=4
cascade_activation_steepnesses=2.50000000000000000000e-01 5.00000000000000000000e-01 7.50000000000000000000e-01 1.00000000000000000000e+00 
layer_sizes=4 6 4 
scale_included=1
scale_mean_in=0.205711 -0.013150 -0.047270 
scale_deviation_in=0.009386 0.012605 0.009090 
scale_new_min_in=-1.000000 -1.000000 -1.000000 
scale_factor_in=1.000000 1.000000 1.000000 
scale_mean_out=-1.634665 1.132319 -1.689377 
scale_deviation_out=0.061292 0.190510 0.293878 
scale_new_min_out=-1.000000 -1.000000 -1.000000 
scale_factor_out=1.000000 1.000000 1.000000 
neurons (num_inputs, activation_function, activation_steepness)=(0, 0, 0.00000000000000000000e+00) (0, 0, 0.00000000000000000000e+00) (0, 0, 0.00000000000000000000e+00) (0, 0, 0.00000000000000000000e+00) (4, 5, 5.00000000000000000000e-01) (4, 5, 5.00000000000000000000e-01) (4, 5, 5.00000000000000000000e-01) (4, 5, 5.00000000000000000000e-01) (4, 5, 5.00000000000000000000e-01) (0, 5, 0.00000000000000000000e+00) (6, 5, 5.00000000000000000000e-01) (6, 5, 5.00000000000000000000e-01) (6, 5, 5.00000000000000000000e-01) (0, 5, 0.00000000000000000000e+00) 
connections (connected_to_neuron, weight)=(0, 2.99902986735105514526e-02) (1, 1.68536937236785888672e+00) (2, 8.67139771580696105957e-02) (3, -4.42949980497360229492e-01) (0, -3.59322041273117065430e-01) (1, 1.07308447360992431641e+00) (2, 7.40822181105613708496e-02) (3, 8.25334489345550537109e-01) (0, -1.81541311740875244141e+00) (1, -6.21599256992340087891e-01) (2, 3.07978868484497070312e-01) (3, 3.38750779628753662109e-01) (0, -1.67953908443450927734e+00) (1, 3.10339510440826416016e-01) (2, 6.36200129985809326172e-01) (3, 2.37085253000259399414e-01) (0, 3.49474465474486351013e-03) (1, -1.04390299320220947266e+00) (2, -1.67143970727920532227e-01) (3, 3.25498074293136596680e-01) (4, 1.75139486789703369141e+00) (5, 9.51284468173980712891e-01) (6, -5.23398220539093017578e-01) (7, 2.88692057132720947266e-01) (8, -1.47499907016754150391e+00) (9, 2.17129930853843688965e-01) (4, 5.00899832695722579956e-03) (5, 7.56367027759552001953e-01) (6, 1.61371386051177978516e+00) (7, 1.53035199642181396484e+00) (8, -3.49314838647842407227e-01) (9, -3.55470269918441772461e-01) (4, 1.67977213859558105469e-01) (5, -3.84771749377250671387e-02) (6, 1.48058986663818359375e+00) (7, 1.89601218700408935547e+00) (8, -3.62396210432052612305e-01) (9, -3.32618243992328643799e-02) 
