FANN_FLO_2.1
num_layers=3
learning_rate=0.100000
connection_rate=1.000000
network_type=0
learning_momentum=0.000000
training_algorithm=1
train_error_function=1
train_stop_function=0
cascade_output_change_fraction=0.010000
quickprop_decay=-0.000100
quickprop_mu=1.750000
rprop_increase_factor=1.200000
rprop_decrease_factor=0.500000
rprop_delta_min=0.000000
rprop_delta_max=50.000000
rprop_delta_zero=0.100000
cascade_output_stagnation_epochs=12
cascade_candidate_change_fraction=0.010000
cascade_candidate_stagnation_epochs=12
cascade_max_out_epochs=150
cascade_min_out_epochs=50
cascade_max_cand_epochs=150
cascade_min_cand_epochs=50
cascade_num_candidate_groups=2
bit_fail_limit=3.49999994039535522461e-01
cascade_candidate_limit=1.00000000000000000000e+03
cascade_weight_multiplier=4.00000005960464477539e-01
cascade_activation_functions_count=10
cascade_activation_functions=3 5 7 8 10 11 14 15 16 17 
cascade_activation_steepnesses_count=4
cascade_activation_steepnesses=2.50000000000000000000e-01 5.00000000000000000000e-01 7.50000000000000000000e-01 1.00000000000000000000e+00 
layer_sizes=4 6 4 
scale_included=1
scale_mean_in=0.202335 -0.013178 -0.047141 
scale_deviation_in=0.013866 0.012489 0.009126 
scale_new_min_in=-1.000000 -1.000000 -1.000000 
scale_factor_in=1.000000 1.000000 1.000000 
scale_mean_out=-1.636023 1.178605 -1.615434 
scale_deviation_out=0.062161 0.228080 0.355059 
scale_new_min_out=-1.000000 -1.000000 -1.000000 
scale_factor_out=1.000000 1.000000 1.000000 
neurons (num_inputs, activation_function, activation_steepness)=(0, 0, 0.00000000000000000000e+00) (0, 0, 0.00000000000000000000e+00) (0, 0, 0.00000000000000000000e+00) (0, 0, 0.00000000000000000000e+00) (4, 5, 5.00000000000000000000e-01) (4, 5, 5.00000000000000000000e-01) (4, 5, 5.00000000000000000000e-01) (4, 5, 5.00000000000000000000e-01) (4, 5, 5.00000000000000000000e-01) (0, 5, 0.00000000000000000000e+00) (6, 5, 5.00000000000000000000e-01) (6, 5, 5.00000000000000000000e-01) (6, 5, 5.00000000000000000000e-01) (0, 5, 0.00000000000000000000e+00) 
connections (connected_to_neuron, weight)=(0, -1.59556329250335693359e+00) (1, -2.82250523567199707031e-01) (2, -1.15664988756179809570e-01) (3, 6.99959874153137207031e-01) (0, 1.14059782028198242188e+00) (1, -1.01163196563720703125e+00) (2, 2.95731902122497558594e-01) (3, -6.02568946778774261475e-02) (0, -1.21477580070495605469e+00) (1, -8.84272277355194091797e-01) (2, 3.63068401813507080078e-01) (3, -1.22839994728565216064e-02) (0, 1.02951538562774658203e+00) (1, 3.34970861673355102539e-01) (2, -9.93217766284942626953e-01) (3, -5.92096745967864990234e-01) (0, 3.46574813127517700195e-01) (1, -1.74125933647155761719e+00) (2, -5.00531673431396484375e-01) (3, 1.31000131368637084961e-01) (4, -4.93170648813247680664e-01) (5, -1.20661282539367675781e+00) (6, -1.49065124988555908203e+00) (7, 6.13425195217132568359e-01) (8, -2.74620842933654785156e+00) (9, 3.36858779191970825195e-01) (4, 1.58416533470153808594e+00) (5, -5.09073138236999511719e-01) (6, 1.87301909923553466797e+00) (7, -1.54402279853820800781e+00) (8, -1.69929850101470947266e+00) (9, -4.40369784832000732422e-01) (4, 1.68326592445373535156e+00) (5, -1.63377797603607177734e+00) (6, 1.78173661231994628906e+00) (7, -8.04334104061126708984e-01) (8, -7.77665615081787109375e-01) (9, -3.14319759607315063477e-01) 
