FANN_FLO_2.1
num_layers=3
learning_rate=0.100000
connection_rate=1.000000
network_type=0
learning_momentum=0.000000
training_algorithm=1
train_error_function=1
train_stop_function=0
cascade_output_change_fraction=0.010000
quickprop_decay=-0.000100
quickprop_mu=1.750000
rprop_increase_factor=1.200000
rprop_decrease_factor=0.500000
rprop_delta_min=0.000000
rprop_delta_max=50.000000
rprop_delta_zero=0.100000
cascade_output_stagnation_epochs=12
cascade_candidate_change_fraction=0.010000
cascade_candidate_stagnation_epochs=12
cascade_max_out_epochs=150
cascade_min_out_epochs=50
cascade_max_cand_epochs=150
cascade_min_cand_epochs=50
cascade_num_candidate_groups=2
bit_fail_limit=3.49999994039535522461e-01
cascade_candidate_limit=1.00000000000000000000e+03
cascade_weight_multiplier=4.00000005960464477539e-01
cascade_activation_functions_count=10
cascade_activation_functions=3 5 7 8 10 11 14 15 16 17 
cascade_activation_steepnesses_count=4
cascade_activation_steepnesses=2.50000000000000000000e-01 5.00000000000000000000e-01 7.50000000000000000000e-01 1.00000000000000000000e+00 
layer_sizes=4 6 4 
scale_included=1
scale_mean_in=0.205617 -0.013129 -0.047114 
scale_deviation_in=0.009434 0.012484 0.009131 
scale_new_min_in=-1.000000 -1.000000 -1.000000 
scale_factor_in=1.000000 1.000000 1.000000 
scale_mean_out=-1.634541 1.135917 -1.685094 
scale_deviation_out=0.060725 0.190902 0.292327 
scale_new_min_out=-1.000000 -1.000000 -1.000000 
scale_factor_out=1.000000 1.000000 1.000000 
neurons (num_inputs, activation_function, activation_steepness)=(0, 0, 0.00000000000000000000e+00) (0, 0, 0.00000000000000000000e+00) (0, 0, 0.00000000000000000000e+00) (0, 0, 0.00000000000000000000e+00) (4, 5, 5.00000000000000000000e-01) (4, 5, 5.00000000000000000000e-01) (4, 5, 5.00000000000000000000e-01) (4, 5, 5.00000000000000000000e-01) (4, 5, 5.00000000000000000000e-01) (0, 5, 0.00000000000000000000e+00) (6, 5, 5.00000000000000000000e-01) (6, 5, 5.00000000000000000000e-01) (6, 5, 5.00000000000000000000e-01) (0, 5, 0.00000000000000000000e+00) 
connections (connected_to_neuron, weight)=(0, -1.48718267679214477539e-01) (1, -1.56045198440551757812e+00) (2, -1.84961944818496704102e-01) (3, 1.14273853600025177002e-01) (0, 6.78943872451782226562e-01) (1, -1.05388665199279785156e+00) (2, 4.31560784578323364258e-01) (3, -1.27282932400703430176e-01) (0, 1.28467905521392822266e+00) (1, -6.46704956889152526855e-02) (2, -1.04262447357177734375e+00) (3, 2.98113673925399780273e-01) (0, -1.84185481071472167969e+00) (1, 3.25841695070266723633e-01) (2, 2.54871428012847900391e-01) (3, 4.08533662557601928711e-01) (0, 1.03571915626525878906e+00) (1, 4.24372881650924682617e-01) (2, -6.84814080595970153809e-02) (3, 6.58296868205070495605e-02) (4, -2.08893585205078125000e+00) (5, -1.21590220928192138672e+00) (6, -2.09880601614713668823e-02) (7, -2.05965247005224227905e-02) (8, 5.96851825714111328125e-01) (9, 2.09473669528961181641e-02) (4, 4.17870849370956420898e-01) (5, -9.70478635281324386597e-03) (6, -1.90176093578338623047e+00) (7, 1.64007878303527832031e+00) (8, -2.37808823585510253906e-01) (9, 1.66873320937156677246e-01) (4, -1.82926848530769348145e-01) (5, -7.99959838390350341797e-01) (6, -1.11376619338989257812e+00) (7, 1.47718667984008789062e+00) (8, -1.01195788383483886719e+00) (9, 7.57896155118942260742e-02) 
