FANN_FLO_2.1
num_layers=3
learning_rate=0.100000
connection_rate=1.000000
network_type=0
learning_momentum=0.000000
training_algorithm=1
train_error_function=1
train_stop_function=0
cascade_output_change_fraction=0.010000
quickprop_decay=-0.000100
quickprop_mu=1.750000
rprop_increase_factor=1.200000
rprop_decrease_factor=0.500000
rprop_delta_min=0.000000
rprop_delta_max=50.000000
rprop_delta_zero=0.100000
cascade_output_stagnation_epochs=12
cascade_candidate_change_fraction=0.010000
cascade_candidate_stagnation_epochs=12
cascade_max_out_epochs=150
cascade_min_out_epochs=50
cascade_max_cand_epochs=150
cascade_min_cand_epochs=50
cascade_num_candidate_groups=2
bit_fail_limit=3.49999994039535522461e-01
cascade_candidate_limit=1.00000000000000000000e+03
cascade_weight_multiplier=4.00000005960464477539e-01
cascade_activation_functions_count=10
cascade_activation_functions=3 5 7 8 10 11 14 15 16 17 
cascade_activation_steepnesses_count=4
cascade_activation_steepnesses=2.50000000000000000000e-01 5.00000000000000000000e-01 7.50000000000000000000e-01 1.00000000000000000000e+00 
layer_sizes=4 6 4 
scale_included=1
scale_mean_in=0.202335 -0.013178 -0.047141 
scale_deviation_in=0.013866 0.012489 0.009126 
scale_new_min_in=-1.000000 -1.000000 -1.000000 
scale_factor_in=1.000000 1.000000 1.000000 
scale_mean_out=-1.636023 1.178605 -1.615434 
scale_deviation_out=0.062161 0.228080 0.355059 
scale_new_min_out=-1.000000 -1.000000 -1.000000 
scale_factor_out=1.000000 1.000000 1.000000 
neurons (num_inputs, activation_function, activation_steepness)=(0, 0, 0.00000000000000000000e+00) (0, 0, 0.00000000000000000000e+00) (0, 0, 0.00000000000000000000e+00) (0, 0, 0.00000000000000000000e+00) (4, 5, 5.00000000000000000000e-01) (4, 5, 5.00000000000000000000e-01) (4, 5, 5.00000000000000000000e-01) (4, 5, 5.00000000000000000000e-01) (4, 5, 5.00000000000000000000e-01) (0, 5, 0.00000000000000000000e+00) (6, 5, 5.00000000000000000000e-01) (6, 5, 5.00000000000000000000e-01) (6, 5, 5.00000000000000000000e-01) (0, 5, 0.00000000000000000000e+00) 
connections (connected_to_neuron, weight)=(0, 6.57672524452209472656e-01) (1, -1.16797649860382080078e+00) (2, 1.69703572988510131836e-01) (3, -5.28907179832458496094e-01) (0, 1.60530638694763183594e+00) (1, 2.24079396575689315796e-02) (2, -1.01869881153106689453e+00) (3, -2.57264375686645507812e-01) (0, -6.04006111621856689453e-01) (1, -1.38640940189361572266e+00) (2, -1.06899730861186981201e-01) (3, -3.39131474494934082031e-01) (0, 1.82528185844421386719e+00) (1, -2.77564913034439086914e-01) (2, 5.52995741367340087891e-01) (3, -5.45955777168273925781e-01) (0, -8.74148905277252197266e-02) (1, 1.62409877777099609375e+00) (2, 5.35575635731220245361e-02) (3, -2.55628377199172973633e-01) (4, -5.83382427692413330078e-01) (5, 1.78493976593017578125e-01) (6, -1.89157772064208984375e+00) (7, -2.28516757488250732422e-01) (8, 2.38689017295837402344e+00) (9, -1.50799289345741271973e-01) (4, -7.46707677841186523438e-01) (5, -3.12847924232482910156e+00) (6, 2.86507338285446166992e-01) (7, -1.02986419200897216797e+00) (8, -1.45970925688743591309e-01) (9, -3.16537052392959594727e-01) (4, -1.21383756399154663086e-01) (5, -2.23254251480102539062e+00) (6, 5.32413065433502197266e-01) (7, -2.21544599533081054688e+00) (8, 3.16673547029495239258e-01) (9, -2.43036597967147827148e-01) 
