FANN_FLO_2.1
num_layers=3
learning_rate=0.100000
connection_rate=1.000000
network_type=0
learning_momentum=0.000000
training_algorithm=1
train_error_function=1
train_stop_function=0
cascade_output_change_fraction=0.010000
quickprop_decay=-0.000100
quickprop_mu=1.750000
rprop_increase_factor=1.200000
rprop_decrease_factor=0.500000
rprop_delta_min=0.000000
rprop_delta_max=50.000000
rprop_delta_zero=0.100000
cascade_output_stagnation_epochs=12
cascade_candidate_change_fraction=0.010000
cascade_candidate_stagnation_epochs=12
cascade_max_out_epochs=150
cascade_min_out_epochs=50
cascade_max_cand_epochs=150
cascade_min_cand_epochs=50
cascade_num_candidate_groups=2
bit_fail_limit=3.49999994039535522461e-01
cascade_candidate_limit=1.00000000000000000000e+03
cascade_weight_multiplier=4.00000005960464477539e-01
cascade_activation_functions_count=10
cascade_activation_functions=3 5 7 8 10 11 14 15 16 17 
cascade_activation_steepnesses_count=4
cascade_activation_steepnesses=2.50000000000000000000e-01 5.00000000000000000000e-01 7.50000000000000000000e-01 1.00000000000000000000e+00 
layer_sizes=4 6 4 
scale_included=1
scale_mean_in=0.205615 -0.013132 -0.047110 
scale_deviation_in=0.009434 0.012486 0.009126 
scale_new_min_in=-1.000000 -1.000000 -1.000000 
scale_factor_in=1.000000 1.000000 1.000000 
scale_mean_out=-1.634553 1.135966 -1.685048 
scale_deviation_out=0.060733 0.190954 0.292373 
scale_new_min_out=-1.000000 -1.000000 -1.000000 
scale_factor_out=1.000000 1.000000 1.000000 
neurons (num_inputs, activation_function, activation_steepness)=(0, 0, 0.00000000000000000000e+00) (0, 0, 0.00000000000000000000e+00) (0, 0, 0.00000000000000000000e+00) (0, 0, 0.00000000000000000000e+00) (4, 5, 5.00000000000000000000e-01) (4, 5, 5.00000000000000000000e-01) (4, 5, 5.00000000000000000000e-01) (4, 5, 5.00000000000000000000e-01) (4, 5, 5.00000000000000000000e-01) (0, 5, 0.00000000000000000000e+00) (6, 5, 5.00000000000000000000e-01) (6, 5, 5.00000000000000000000e-01) (6, 5, 5.00000000000000000000e-01) (0, 5, 0.00000000000000000000e+00) 
connections (connected_to_neuron, weight)=(0, -1.65272331237792968750e+00) (1, -2.26658716797828674316e-01) (2, 6.95970654487609863281e-01) (3, 5.65304279327392578125e-01) (0, -4.78234589099884033203e-01) (1, 3.26571971178054809570e-01) (2, -5.02643108367919921875e-01) (3, 8.00141870975494384766e-01) (0, 6.74827396869659423828e-01) (1, -1.55546438694000244141e+00) (2, 3.55816632509231567383e-01) (3, -3.48375290632247924805e-02) (0, 1.45542883872985839844e+00) (1, 7.03618764877319335938e-01) (2, -2.37900912761688232422e-01) (3, 2.73259848356246948242e-01) (0, -9.81074988842010498047e-01) (1, 1.05484712123870849609e+00) (2, 9.91267442703247070312e-01) (3, 6.03602409362792968750e-01) (4, -6.73256993293762207031e-01) (5, 2.50326097011566162109e-01) (6, -1.79930138587951660156e+00) (7, 1.35310089588165283203e+00) (8, 1.62397634983062744141e+00) (9, -4.35947209596633911133e-01) (4, 1.11912822723388671875e+00) (5, 3.01297485828399658203e-01) (6, -1.99878349900245666504e-01) (7, -1.38075447082519531250e+00) (8, 1.36351728439331054688e+00) (9, -3.49552929401397705078e-01) (4, 1.61922883987426757812e+00) (5, 2.00193747878074645996e-01) (6, -8.57942342758178710938e-01) (7, -1.46090221405029296875e+00) (8, 2.84235894680023193359e-01) (9, -1.11608222126960754395e-01) 
