FANN_FLO_2.1
num_layers=3
learning_rate=0.100000
connection_rate=1.000000
network_type=0
learning_momentum=0.000000
training_algorithm=1
train_error_function=1
train_stop_function=0
cascade_output_change_fraction=0.010000
quickprop_decay=-0.000100
quickprop_mu=1.750000
rprop_increase_factor=1.200000
rprop_decrease_factor=0.500000
rprop_delta_min=0.000000
rprop_delta_max=50.000000
rprop_delta_zero=0.100000
cascade_output_stagnation_epochs=12
cascade_candidate_change_fraction=0.010000
cascade_candidate_stagnation_epochs=12
cascade_max_out_epochs=150
cascade_min_out_epochs=50
cascade_max_cand_epochs=150
cascade_min_cand_epochs=50
cascade_num_candidate_groups=2
bit_fail_limit=3.49999994039535522461e-01
cascade_candidate_limit=1.00000000000000000000e+03
cascade_weight_multiplier=4.00000005960464477539e-01
cascade_activation_functions_count=10
cascade_activation_functions=3 5 7 8 10 11 14 15 16 17 
cascade_activation_steepnesses_count=4
cascade_activation_steepnesses=2.50000000000000000000e-01 5.00000000000000000000e-01 7.50000000000000000000e-01 1.00000000000000000000e+00 
layer_sizes=4 6 4 
scale_included=1
scale_mean_in=0.202335 -0.013178 -0.047141 
scale_deviation_in=0.013866 0.012489 0.009126 
scale_new_min_in=-1.000000 -1.000000 -1.000000 
scale_factor_in=1.000000 1.000000 1.000000 
scale_mean_out=-1.636023 1.178605 -1.615434 
scale_deviation_out=0.062161 0.228080 0.355059 
scale_new_min_out=-1.000000 -1.000000 -1.000000 
scale_factor_out=1.000000 1.000000 1.000000 
neurons (num_inputs, activation_function, activation_steepness)=(0, 0, 0.00000000000000000000e+00) (0, 0, 0.00000000000000000000e+00) (0, 0, 0.00000000000000000000e+00) (0, 0, 0.00000000000000000000e+00) (4, 5, 5.00000000000000000000e-01) (4, 5, 5.00000000000000000000e-01) (4, 5, 5.00000000000000000000e-01) (4, 5, 5.00000000000000000000e-01) (4, 5, 5.00000000000000000000e-01) (0, 5, 0.00000000000000000000e+00) (6, 5, 5.00000000000000000000e-01) (6, 5, 5.00000000000000000000e-01) (6, 5, 5.00000000000000000000e-01) (0, 5, 0.00000000000000000000e+00) 
connections (connected_to_neuron, weight)=(0, -4.86022680997848510742e-01) (1, -1.71627056598663330078e+00) (2, -2.12116628885269165039e-01) (3, -2.80089557170867919922e-01) (0, -1.57507181167602539062e+00) (1, -3.73392850160598754883e-01) (2, 7.72089540958404541016e-01) (3, 2.76431232690811157227e-01) (0, 1.30126893520355224609e+00) (1, 1.94247975945472717285e-01) (2, 3.29418778419494628906e-01) (3, 9.66392457485198974609e-02) (0, -1.41562581062316894531e+00) (1, 8.97423267364501953125e-01) (2, 6.24011814594268798828e-01) (3, 1.00816093385219573975e-01) (0, 6.09812676906585693359e-01) (1, -1.43655502796173095703e+00) (2, 4.68397021293640136719e-01) (3, 2.18825951218605041504e-01) (4, -2.61446595191955566406e+00) (5, -3.06908249855041503906e-01) (6, 4.94628190994262695312e-01) (7, 5.66412448883056640625e-01) (8, -1.75301826000213623047e+00) (9, -1.54253050684928894043e-01) (4, 1.57291725277900695801e-01) (5, 2.74726486206054687500e+00) (6, -5.89279174804687500000e-01) (7, 1.42182266712188720703e+00) (8, -4.35244232416152954102e-01) (9, 4.02814671397209167480e-02) (4, 6.56425714492797851562e-01) (5, 1.56527817249298095703e+00) (6, -1.89179074764251708984e+00) (7, 1.42224478721618652344e+00) (8, -8.77223551273345947266e-01) (9, 3.39979052543640136719e-01) 
