FANN_FLO_2.1
num_layers=3
learning_rate=0.100000
connection_rate=1.000000
network_type=0
learning_momentum=0.000000
training_algorithm=1
train_error_function=1
train_stop_function=0
cascade_output_change_fraction=0.010000
quickprop_decay=-0.000100
quickprop_mu=1.750000
rprop_increase_factor=1.200000
rprop_decrease_factor=0.500000
rprop_delta_min=0.000000
rprop_delta_max=50.000000
rprop_delta_zero=0.100000
cascade_output_stagnation_epochs=12
cascade_candidate_change_fraction=0.010000
cascade_candidate_stagnation_epochs=12
cascade_max_out_epochs=150
cascade_min_out_epochs=50
cascade_max_cand_epochs=150
cascade_min_cand_epochs=50
cascade_num_candidate_groups=2
bit_fail_limit=3.49999994039535522461e-01
cascade_candidate_limit=1.00000000000000000000e+03
cascade_weight_multiplier=4.00000005960464477539e-01
cascade_activation_functions_count=10
cascade_activation_functions=3 5 7 8 10 11 14 15 16 17 
cascade_activation_steepnesses_count=4
cascade_activation_steepnesses=2.50000000000000000000e-01 5.00000000000000000000e-01 7.50000000000000000000e-01 1.00000000000000000000e+00 
layer_sizes=4 6 4 
scale_included=1
scale_mean_in=0.202335 -0.013178 -0.047141 
scale_deviation_in=0.013866 0.012489 0.009126 
scale_new_min_in=-1.000000 -1.000000 -1.000000 
scale_factor_in=1.000000 1.000000 1.000000 
scale_mean_out=-1.636023 1.178605 -1.615434 
scale_deviation_out=0.062161 0.228080 0.355059 
scale_new_min_out=-1.000000 -1.000000 -1.000000 
scale_factor_out=1.000000 1.000000 1.000000 
neurons (num_inputs, activation_function, activation_steepness)=(0, 0, 0.00000000000000000000e+00) (0, 0, 0.00000000000000000000e+00) (0, 0, 0.00000000000000000000e+00) (0, 0, 0.00000000000000000000e+00) (4, 5, 5.00000000000000000000e-01) (4, 5, 5.00000000000000000000e-01) (4, 5, 5.00000000000000000000e-01) (4, 5, 5.00000000000000000000e-01) (4, 5, 5.00000000000000000000e-01) (0, 5, 0.00000000000000000000e+00) (6, 5, 5.00000000000000000000e-01) (6, 5, 5.00000000000000000000e-01) (6, 5, 5.00000000000000000000e-01) (0, 5, 0.00000000000000000000e+00) 
connections (connected_to_neuron, weight)=(0, 1.73017418384552001953e+00) (1, 1.40025898814201354980e-01) (2, -2.32024386525154113770e-01) (3, -4.06231880187988281250e-01) (0, -7.62340009212493896484e-01) (1, -1.31172108650207519531e+00) (2, 8.82674455642700195312e-02) (3, 1.42261952161788940430e-01) (0, -8.81930828094482421875e-01) (1, 2.93270826339721679688e-01) (2, -2.63572543859481811523e-01) (3, -2.79204845428466796875e-01) (0, 1.15452623367309570312e+00) (1, -9.79177176952362060547e-01) (2, -9.61923241615295410156e-01) (3, 3.73573452234268188477e-02) (0, -8.53313431143760681152e-02) (1, -1.68349111080169677734e+00) (2, 3.26247811317443847656e-01) (3, -2.07123458385467529297e-01) (4, 4.53824132680892944336e-01) (5, -1.64335644245147705078e+00) (6, 2.60081470012664794922e-01) (7, -1.29714560508728027344e+00) (8, -2.38908362388610839844e+00) (9, -4.20475378632545471191e-03) (4, -2.34289431571960449219e+00) (5, 7.03237295150756835938e-01) (6, 2.97763466835021972656e-01) (7, -2.16859602928161621094e+00) (8, 3.24685335159301757812e-01) (9, -1.68805718421936035156e-02) (4, -2.58221030235290527344e+00) (5, 8.37202548980712890625e-01) (6, 1.40389549732208251953e+00) (7, -9.54095780849456787109e-01) (8, -3.90134096145629882812e-01) (9, 6.17665015161037445068e-02) 
