FANN_FLO_2.1
num_layers=3
learning_rate=0.100000
connection_rate=1.000000
network_type=0
learning_momentum=0.000000
training_algorithm=1
train_error_function=1
train_stop_function=0
cascade_output_change_fraction=0.010000
quickprop_decay=-0.000100
quickprop_mu=1.750000
rprop_increase_factor=1.200000
rprop_decrease_factor=0.500000
rprop_delta_min=0.000000
rprop_delta_max=50.000000
rprop_delta_zero=0.100000
cascade_output_stagnation_epochs=12
cascade_candidate_change_fraction=0.010000
cascade_candidate_stagnation_epochs=12
cascade_max_out_epochs=150
cascade_min_out_epochs=50
cascade_max_cand_epochs=150
cascade_min_cand_epochs=50
cascade_num_candidate_groups=2
bit_fail_limit=3.49999994039535522461e-01
cascade_candidate_limit=1.00000000000000000000e+03
cascade_weight_multiplier=4.00000005960464477539e-01
cascade_activation_functions_count=10
cascade_activation_functions=3 5 7 8 10 11 14 15 16 17 
cascade_activation_steepnesses_count=4
cascade_activation_steepnesses=2.50000000000000000000e-01 5.00000000000000000000e-01 7.50000000000000000000e-01 1.00000000000000000000e+00 
layer_sizes=4 6 4 
scale_included=1
scale_mean_in=0.205636 -0.013080 -0.047108 
scale_deviation_in=0.009391 0.012518 0.009097 
scale_new_min_in=-1.000000 -1.000000 -1.000000 
scale_factor_in=1.000000 1.000000 1.000000 
scale_mean_out=-1.634299 1.135976 -1.684995 
scale_deviation_out=0.060859 0.189238 0.290773 
scale_new_min_out=-1.000000 -1.000000 -1.000000 
scale_factor_out=1.000000 1.000000 1.000000 
neurons (num_inputs, activation_function, activation_steepness)=(0, 0, 0.00000000000000000000e+00) (0, 0, 0.00000000000000000000e+00) (0, 0, 0.00000000000000000000e+00) (0, 0, 0.00000000000000000000e+00) (4, 5, 5.00000000000000000000e-01) (4, 5, 5.00000000000000000000e-01) (4, 5, 5.00000000000000000000e-01) (4, 5, 5.00000000000000000000e-01) (4, 5, 5.00000000000000000000e-01) (0, 5, 0.00000000000000000000e+00) (6, 5, 5.00000000000000000000e-01) (6, 5, 5.00000000000000000000e-01) (6, 5, 5.00000000000000000000e-01) (0, 5, 0.00000000000000000000e+00) 
connections (connected_to_neuron, weight)=(0, 9.81759130954742431641e-01) (1, 1.05273747444152832031e+00) (2, -3.15183162689208984375e-01) (3, 4.56503629684448242188e-01) (0, -2.70236015319824218750e-01) (1, 1.48754727840423583984e+00) (2, 5.04114508628845214844e-01) (3, 2.74583190679550170898e-01) (0, 2.00170493125915527344e+00) (1, -1.19387842714786529541e-01) (2, -5.93118190765380859375e-01) (3, -5.53760290145874023438e-01) (0, -1.09754025936126708984e-01) (1, 9.83031690120697021484e-01) (2, -5.12124776840209960938e-01) (3, -4.18747901916503906250e-01) (0, 8.99940490722656250000e-01) (1, -6.65189206600189208984e-01) (2, -3.02922606468200683594e-01) (3, 5.82809150218963623047e-01) (4, 1.67582643032073974609e+00) (5, 1.64919400215148925781e+00) (6, -1.90121039748191833496e-01) (7, 9.01059269905090332031e-01) (8, -6.92963659763336181641e-01) (9, -1.85019090771675109863e-01) (4, -1.10348331928253173828e+00) (5, 9.40620064735412597656e-01) (6, -2.02642250061035156250e+00) (7, -1.30806133151054382324e-01) (8, -2.60976314544677734375e-01) (9, -9.55522581934928894043e-02) (4, -6.61666989326477050781e-01) (5, 1.19707383215427398682e-01) (6, -2.06282544136047363281e+00) (7, 3.00120592117309570312e-01) (8, -6.93667769432067871094e-01) (9, 6.29014447331428527832e-02) 
