FANN_FLO_2.1
num_layers=3
learning_rate=0.100000
connection_rate=1.000000
network_type=0
learning_momentum=0.000000
training_algorithm=1
train_error_function=1
train_stop_function=0
cascade_output_change_fraction=0.010000
quickprop_decay=-0.000100
quickprop_mu=1.750000
rprop_increase_factor=1.200000
rprop_decrease_factor=0.500000
rprop_delta_min=0.000000
rprop_delta_max=50.000000
rprop_delta_zero=0.100000
cascade_output_stagnation_epochs=12
cascade_candidate_change_fraction=0.010000
cascade_candidate_stagnation_epochs=12
cascade_max_out_epochs=150
cascade_min_out_epochs=50
cascade_max_cand_epochs=150
cascade_min_cand_epochs=50
cascade_num_candidate_groups=2
bit_fail_limit=3.49999994039535522461e-01
cascade_candidate_limit=1.00000000000000000000e+03
cascade_weight_multiplier=4.00000005960464477539e-01
cascade_activation_functions_count=10
cascade_activation_functions=3 5 7 8 10 11 14 15 16 17 
cascade_activation_steepnesses_count=4
cascade_activation_steepnesses=2.50000000000000000000e-01 5.00000000000000000000e-01 7.50000000000000000000e-01 1.00000000000000000000e+00 
layer_sizes=4 6 4 
scale_included=1
scale_mean_in=0.202335 -0.013178 -0.047141 
scale_deviation_in=0.013866 0.012489 0.009126 
scale_new_min_in=-1.000000 -1.000000 -1.000000 
scale_factor_in=1.000000 1.000000 1.000000 
scale_mean_out=-1.636023 1.178605 -1.615434 
scale_deviation_out=0.062161 0.228080 0.355059 
scale_new_min_out=-1.000000 -1.000000 -1.000000 
scale_factor_out=1.000000 1.000000 1.000000 
neurons (num_inputs, activation_function, activation_steepness)=(0, 0, 0.00000000000000000000e+00) (0, 0, 0.00000000000000000000e+00) (0, 0, 0.00000000000000000000e+00) (0, 0, 0.00000000000000000000e+00) (4, 5, 5.00000000000000000000e-01) (4, 5, 5.00000000000000000000e-01) (4, 5, 5.00000000000000000000e-01) (4, 5, 5.00000000000000000000e-01) (4, 5, 5.00000000000000000000e-01) (0, 5, 0.00000000000000000000e+00) (6, 5, 5.00000000000000000000e-01) (6, 5, 5.00000000000000000000e-01) (6, 5, 5.00000000000000000000e-01) (0, 5, 0.00000000000000000000e+00) 
connections (connected_to_neuron, weight)=(0, 1.61880001425743103027e-01) (1, 1.44295978546142578125e+00) (2, -2.25095987319946289062e-01) (3, 2.75978446006774902344e-01) (0, -1.12442851066589355469e+00) (1, 4.90983396768569946289e-01) (2, 1.12229609489440917969e+00) (3, -3.01073074340820312500e-01) (0, -1.82836401462554931641e+00) (1, 3.07833641767501831055e-01) (2, -4.71471026539802551270e-02) (3, 5.37393987178802490234e-01) (0, -5.84273099899291992188e-01) (1, -1.52435529232025146484e+00) (2, 1.62258997559547424316e-01) (3, -1.19077987968921661377e-01) (0, -1.28147602081298828125e+00) (1, 3.96903544664382934570e-01) (2, 1.26682028174400329590e-01) (3, 3.24697047472000122070e-01) (4, 2.26323509216308593750e+00) (5, 9.31360721588134765625e-01) (6, 1.92039385437965393066e-01) (7, -2.22181725502014160156e+00) (8, 1.87371484935283660889e-02) (9, -2.92202025651931762695e-01) (4, -1.79783880710601806641e-01) (5, 2.18386960029602050781e+00) (6, 1.89612555503845214844e+00) (7, 8.91022205352783203125e-01) (8, 7.45897114276885986328e-01) (9, 1.27888768911361694336e-01) (4, -5.56545853614807128906e-01) (5, 7.17996180057525634766e-01) (6, 2.30680084228515625000e+00) (7, 4.21548157930374145508e-01) (8, 1.67603588104248046875e+00) (9, -2.04464390873908996582e-01) 
