FANN_FLO_2.1
num_layers=3
learning_rate=0.100000
connection_rate=1.000000
network_type=0
learning_momentum=0.000000
training_algorithm=1
train_error_function=1
train_stop_function=0
cascade_output_change_fraction=0.010000
quickprop_decay=-0.000100
quickprop_mu=1.750000
rprop_increase_factor=1.200000
rprop_decrease_factor=0.500000
rprop_delta_min=0.000000
rprop_delta_max=50.000000
rprop_delta_zero=0.100000
cascade_output_stagnation_epochs=12
cascade_candidate_change_fraction=0.010000
cascade_candidate_stagnation_epochs=12
cascade_max_out_epochs=150
cascade_min_out_epochs=50
cascade_max_cand_epochs=150
cascade_min_cand_epochs=50
cascade_num_candidate_groups=2
bit_fail_limit=3.49999994039535522461e-01
cascade_candidate_limit=1.00000000000000000000e+03
cascade_weight_multiplier=4.00000005960464477539e-01
cascade_activation_functions_count=10
cascade_activation_functions=3 5 7 8 10 11 14 15 16 17 
cascade_activation_steepnesses_count=4
cascade_activation_steepnesses=2.50000000000000000000e-01 5.00000000000000000000e-01 7.50000000000000000000e-01 1.00000000000000000000e+00 
layer_sizes=4 6 4 
scale_included=1
scale_mean_in=0.202335 -0.013178 -0.047141 
scale_deviation_in=0.013866 0.012489 0.009126 
scale_new_min_in=-1.000000 -1.000000 -1.000000 
scale_factor_in=1.000000 1.000000 1.000000 
scale_mean_out=-1.636023 1.178605 -1.615434 
scale_deviation_out=0.062161 0.228080 0.355059 
scale_new_min_out=-1.000000 -1.000000 -1.000000 
scale_factor_out=1.000000 1.000000 1.000000 
neurons (num_inputs, activation_function, activation_steepness)=(0, 0, 0.00000000000000000000e+00) (0, 0, 0.00000000000000000000e+00) (0, 0, 0.00000000000000000000e+00) (0, 0, 0.00000000000000000000e+00) (4, 5, 5.00000000000000000000e-01) (4, 5, 5.00000000000000000000e-01) (4, 5, 5.00000000000000000000e-01) (4, 5, 5.00000000000000000000e-01) (4, 5, 5.00000000000000000000e-01) (0, 5, 0.00000000000000000000e+00) (6, 5, 5.00000000000000000000e-01) (6, 5, 5.00000000000000000000e-01) (6, 5, 5.00000000000000000000e-01) (0, 5, 0.00000000000000000000e+00) 
connections (connected_to_neuron, weight)=(0, 1.51348054409027099609e+00) (1, -8.13489838037639856339e-04) (2, -5.81619620323181152344e-01) (3, -2.90625959634780883789e-01) (0, 8.59906017780303955078e-01) (1, 1.14093267917633056641e+00) (2, -3.32111448049545288086e-01) (3, 3.84800694882869720459e-02) (0, 9.15359914302825927734e-01) (1, -1.34692060947418212891e+00) (2, 8.04857537150382995605e-03) (3, 5.58113642036914825439e-02) (0, 1.16279864311218261719e+00) (1, 1.08805410563945770264e-01) (2, -1.07722863554954528809e-01) (3, 5.07473535835742950439e-02) (0, -1.65783643722534179688e-01) (1, -1.07537388801574707031e+00) (2, -6.75129055976867675781e-01) (3, -1.21549129486083984375e-01) (4, 4.59605962038040161133e-01) (5, 2.08310699462890625000e+00) (6, -2.72905802726745605469e+00) (7, 2.94644176959991455078e-01) (8, -1.36241173744201660156e+00) (9, 3.69386863894760608673e-03) (4, -2.17634654045104980469e+00) (5, -1.85854232311248779297e+00) (6, -1.40839171409606933594e+00) (7, -1.06987512111663818359e+00) (8, -8.69057416915893554688e-01) (9, 9.56052690744400024414e-02) (4, -1.54994499683380126953e+00) (5, -1.54087853431701660156e+00) (6, -2.50338935852050781250e+00) (7, -1.25926446914672851562e+00) (8, 8.82715821266174316406e-01) (9, 2.88729339838027954102e-01) 
