FANN_FLO_2.1
num_layers=3
learning_rate=0.100000
connection_rate=1.000000
network_type=0
learning_momentum=0.000000
training_algorithm=1
train_error_function=1
train_stop_function=0
cascade_output_change_fraction=0.010000
quickprop_decay=-0.000100
quickprop_mu=1.750000
rprop_increase_factor=1.200000
rprop_decrease_factor=0.500000
rprop_delta_min=0.000000
rprop_delta_max=50.000000
rprop_delta_zero=0.100000
cascade_output_stagnation_epochs=12
cascade_candidate_change_fraction=0.010000
cascade_candidate_stagnation_epochs=12
cascade_max_out_epochs=150
cascade_min_out_epochs=50
cascade_max_cand_epochs=150
cascade_min_cand_epochs=50
cascade_num_candidate_groups=2
bit_fail_limit=3.49999994039535522461e-01
cascade_candidate_limit=1.00000000000000000000e+03
cascade_weight_multiplier=4.00000005960464477539e-01
cascade_activation_functions_count=10
cascade_activation_functions=3 5 7 8 10 11 14 15 16 17 
cascade_activation_steepnesses_count=4
cascade_activation_steepnesses=2.50000000000000000000e-01 5.00000000000000000000e-01 7.50000000000000000000e-01 1.00000000000000000000e+00 
layer_sizes=4 6 4 
scale_included=1
scale_mean_in=0.202335 -0.013178 -0.047141 
scale_deviation_in=0.013866 0.012489 0.009126 
scale_new_min_in=-1.000000 -1.000000 -1.000000 
scale_factor_in=1.000000 1.000000 1.000000 
scale_mean_out=-1.636023 1.178605 -1.615434 
scale_deviation_out=0.062161 0.228080 0.355059 
scale_new_min_out=-1.000000 -1.000000 -1.000000 
scale_factor_out=1.000000 1.000000 1.000000 
neurons (num_inputs, activation_function, activation_steepness)=(0, 0, 0.00000000000000000000e+00) (0, 0, 0.00000000000000000000e+00) (0, 0, 0.00000000000000000000e+00) (0, 0, 0.00000000000000000000e+00) (4, 5, 5.00000000000000000000e-01) (4, 5, 5.00000000000000000000e-01) (4, 5, 5.00000000000000000000e-01) (4, 5, 5.00000000000000000000e-01) (4, 5, 5.00000000000000000000e-01) (0, 5, 0.00000000000000000000e+00) (6, 5, 5.00000000000000000000e-01) (6, 5, 5.00000000000000000000e-01) (6, 5, 5.00000000000000000000e-01) (0, 5, 0.00000000000000000000e+00) 
connections (connected_to_neuron, weight)=(0, -3.43047045171260833740e-02) (1, -1.70172894001007080078e+00) (2, -1.25572666525840759277e-01) (3, -3.73391509056091308594e-01) (0, -7.39492475986480712891e-01) (1, -1.46999907493591308594e+00) (2, 5.08004963397979736328e-01) (3, 1.29035457968711853027e-01) (0, 1.13319480419158935547e+00) (1, -1.24116495251655578613e-01) (2, 2.94702827930450439453e-01) (3, -3.97844612598419189453e-02) (0, 1.81608450412750244141e+00) (1, -5.03604076802730560303e-02) (2, -1.66186079382896423340e-01) (3, -6.02914273738861083984e-01) (0, 1.23771476745605468750e+00) (1, -9.06877100467681884766e-01) (2, -1.03474819660186767578e+00) (3, -2.35016077756881713867e-01) (4, -2.04174613952636718750e+00) (5, -2.18449401855468750000e+00) (6, -1.76911041140556335449e-01) (7, 4.20361310243606567383e-02) (8, -9.92313742637634277344e-01) (9, -2.58927822113037109375e-01) (4, -7.89823606610298156738e-02) (5, 1.16852819919586181641e+00) (6, -6.14117801189422607422e-01) (7, -1.91543388366699218750e+00) (8, -1.95499789714813232422e+00) (9, -3.93577873706817626953e-01) (4, -2.89891988039016723633e-01) (5, 7.28298544883728027344e-01) (6, -1.37448656558990478516e+00) (7, -2.39775609970092773438e+00) (8, -7.95500874519348144531e-01) (9, -3.83092135190963745117e-01) 
