FANN_FLO_2.1
num_layers=3
learning_rate=0.100000
connection_rate=1.000000
network_type=0
learning_momentum=0.000000
training_algorithm=1
train_error_function=1
train_stop_function=0
cascade_output_change_fraction=0.010000
quickprop_decay=-0.000100
quickprop_mu=1.750000
rprop_increase_factor=1.200000
rprop_decrease_factor=0.500000
rprop_delta_min=0.000000
rprop_delta_max=50.000000
rprop_delta_zero=0.100000
cascade_output_stagnation_epochs=12
cascade_candidate_change_fraction=0.010000
cascade_candidate_stagnation_epochs=12
cascade_max_out_epochs=150
cascade_min_out_epochs=50
cascade_max_cand_epochs=150
cascade_min_cand_epochs=50
cascade_num_candidate_groups=2
bit_fail_limit=3.49999994039535522461e-01
cascade_candidate_limit=1.00000000000000000000e+03
cascade_weight_multiplier=4.00000005960464477539e-01
cascade_activation_functions_count=10
cascade_activation_functions=3 5 7 8 10 11 14 15 16 17 
cascade_activation_steepnesses_count=4
cascade_activation_steepnesses=2.50000000000000000000e-01 5.00000000000000000000e-01 7.50000000000000000000e-01 1.00000000000000000000e+00 
layer_sizes=4 6 4 
scale_included=1
scale_mean_in=0.202335 -0.013178 -0.047141 
scale_deviation_in=0.013866 0.012489 0.009126 
scale_new_min_in=-1.000000 -1.000000 -1.000000 
scale_factor_in=1.000000 1.000000 1.000000 
scale_mean_out=-1.636023 1.178605 -1.615434 
scale_deviation_out=0.062161 0.228080 0.355059 
scale_new_min_out=-1.000000 -1.000000 -1.000000 
scale_factor_out=1.000000 1.000000 1.000000 
neurons (num_inputs, activation_function, activation_steepness)=(0, 0, 0.00000000000000000000e+00) (0, 0, 0.00000000000000000000e+00) (0, 0, 0.00000000000000000000e+00) (0, 0, 0.00000000000000000000e+00) (4, 5, 5.00000000000000000000e-01) (4, 5, 5.00000000000000000000e-01) (4, 5, 5.00000000000000000000e-01) (4, 5, 5.00000000000000000000e-01) (4, 5, 5.00000000000000000000e-01) (0, 5, 0.00000000000000000000e+00) (6, 5, 5.00000000000000000000e-01) (6, 5, 5.00000000000000000000e-01) (6, 5, 5.00000000000000000000e-01) (0, 5, 0.00000000000000000000e+00) 
connections (connected_to_neuron, weight)=(0, -1.09080433845520019531e+00) (1, -1.23920738697052001953e+00) (2, 1.63349688053131103516e-01) (3, -7.96201676130294799805e-02) (0, -2.58323609828948974609e-01) (1, 1.75434446334838867188e+00) (2, -1.74259915947914123535e-01) (3, -4.94212716817855834961e-01) (0, 1.36942136287689208984e+00) (1, -1.09490489959716796875e+00) (2, -3.94075155258178710938e-01) (3, -2.58025050163269042969e-01) (0, -1.79348266124725341797e+00) (1, -1.65388897061347961426e-01) (2, 2.06572696566581726074e-01) (3, 6.18945121765136718750e-01) (0, 5.96080958843231201172e-01) (1, 6.05956539511680603027e-02) (2, -1.14136886596679687500e+00) (3, -3.78670752048492431641e-01) (4, -1.97736406326293945312e+00) (5, 2.07771635055541992188e+00) (6, -1.53840863704681396484e+00) (7, -6.97010934352874755859e-01) (8, -2.13391497731208801270e-01) (9, 3.08168053627014160156e-01) (4, 1.25097942352294921875e+00) (5, 4.79529917240142822266e-01) (6, -1.46257126331329345703e+00) (7, 1.90417635440826416016e+00) (8, -1.31434786319732666016e+00) (9, -3.98193448781967163086e-01) (4, 1.68498742580413818359e+00) (5, 6.81362330913543701172e-01) (6, -1.64375245571136474609e+00) (7, 2.07744884490966796875e+00) (8, 1.68542787432670593262e-01) (9, -1.68721958994865417480e-01) 
