FANN_FLO_2.1
num_layers=3
learning_rate=0.100000
connection_rate=1.000000
network_type=0
learning_momentum=0.000000
training_algorithm=1
train_error_function=1
train_stop_function=0
cascade_output_change_fraction=0.010000
quickprop_decay=-0.000100
quickprop_mu=1.750000
rprop_increase_factor=1.200000
rprop_decrease_factor=0.500000
rprop_delta_min=0.000000
rprop_delta_max=50.000000
rprop_delta_zero=0.100000
cascade_output_stagnation_epochs=12
cascade_candidate_change_fraction=0.010000
cascade_candidate_stagnation_epochs=12
cascade_max_out_epochs=150
cascade_min_out_epochs=50
cascade_max_cand_epochs=150
cascade_min_cand_epochs=50
cascade_num_candidate_groups=2
bit_fail_limit=3.49999994039535522461e-01
cascade_candidate_limit=1.00000000000000000000e+03
cascade_weight_multiplier=4.00000005960464477539e-01
cascade_activation_functions_count=10
cascade_activation_functions=3 5 7 8 10 11 14 15 16 17 
cascade_activation_steepnesses_count=4
cascade_activation_steepnesses=2.50000000000000000000e-01 5.00000000000000000000e-01 7.50000000000000000000e-01 1.00000000000000000000e+00 
layer_sizes=4 4 4 
scale_included=1
scale_mean_in=0.117925 0.128656 -0.100359 
scale_deviation_in=0.004172 0.004857 0.010385 
scale_new_min_in=-0.900000 -0.900000 -0.900000 
scale_factor_in=0.900000 0.900000 0.900000 
scale_mean_out=-0.741852 1.006132 -1.385941 
scale_deviation_out=0.018066 0.142521 0.152009 
scale_new_min_out=-0.900000 -0.900000 -0.900000 
scale_factor_out=0.900000 0.900000 0.900000 
neurons (num_inputs, activation_function, activation_steepness)=(0, 0, 0.00000000000000000000e+00) (0, 0, 0.00000000000000000000e+00) (0, 0, 0.00000000000000000000e+00) (0, 0, 0.00000000000000000000e+00) (4, 5, 5.00000000000000000000e-01) (4, 5, 5.00000000000000000000e-01) (4, 5, 5.00000000000000000000e-01) (0, 5, 0.00000000000000000000e+00) (4, 5, 5.00000000000000000000e-01) (4, 5, 5.00000000000000000000e-01) (4, 5, 5.00000000000000000000e-01) (0, 5, 0.00000000000000000000e+00) 
connections (connected_to_neuron, weight)=(0, 1.82139307260513305664e-01) (1, -4.54601228237152099609e-01) (2, 6.68368816375732421875e-01) (3, 5.00014245510101318359e-01) (0, -1.37627995014190673828e+00) (1, 1.67966854572296142578e+00) (2, 3.65584075450897216797e-01) (3, 7.88077950477600097656e-01) (0, -1.21517646312713623047e+00) (1, 4.39112007617950439453e-01) (2, 2.87275791168212890625e-01) (3, 1.83211658149957656860e-02) (4, -3.90536022186279296875e+00) (5, 9.09362697601318359375e+00) (6, 3.04393863677978515625e+00) (7, -4.95296287536621093750e+00) (4, 8.01831340789794921875e+00) (5, 1.26346957683563232422e+00) (6, 8.29992592334747314453e-01) (7, -2.23154258728027343750e+00) (4, 5.99096250534057617188e+00) (5, -1.20125603675842285156e+00) (6, 3.83293676376342773438e+00) (7, -1.01661944389343261719e+00) 
