FANN_FLO_2.1
num_layers=3
learning_rate=0.100000
connection_rate=1.000000
network_type=0
learning_momentum=0.000000
training_algorithm=1
train_error_function=1
train_stop_function=0
cascade_output_change_fraction=0.010000
quickprop_decay=-0.000100
quickprop_mu=1.750000
rprop_increase_factor=1.200000
rprop_decrease_factor=0.500000
rprop_delta_min=0.000000
rprop_delta_max=50.000000
rprop_delta_zero=0.100000
cascade_output_stagnation_epochs=12
cascade_candidate_change_fraction=0.010000
cascade_candidate_stagnation_epochs=12
cascade_max_out_epochs=150
cascade_min_out_epochs=50
cascade_max_cand_epochs=150
cascade_min_cand_epochs=50
cascade_num_candidate_groups=2
bit_fail_limit=3.49999994039535522461e-01
cascade_candidate_limit=1.00000000000000000000e+03
cascade_weight_multiplier=4.00000005960464477539e-01
cascade_activation_functions_count=10
cascade_activation_functions=3 5 7 8 10 11 14 15 16 17 
cascade_activation_steepnesses_count=4
cascade_activation_steepnesses=2.50000000000000000000e-01 5.00000000000000000000e-01 7.50000000000000000000e-01 1.00000000000000000000e+00 
layer_sizes=4 4 4 
scale_included=1
scale_mean_in=0.133454 -0.038050 0.141791 
scale_deviation_in=0.006150 0.006280 0.003804 
scale_new_min_in=-0.900000 -0.900000 -0.900000 
scale_factor_in=0.900000 0.900000 0.900000 
scale_mean_out=-1.848279 1.808603 -2.563122 
scale_deviation_out=0.044578 0.204934 0.314588 
scale_new_min_out=-0.900000 -0.900000 -0.900000 
scale_factor_out=0.900000 0.900000 0.900000 
neurons (num_inputs, activation_function, activation_steepness)=(0, 0, 0.00000000000000000000e+00) (0, 0, 0.00000000000000000000e+00) (0, 0, 0.00000000000000000000e+00) (0, 0, 0.00000000000000000000e+00) (4, 5, 5.00000000000000000000e-01) (4, 5, 5.00000000000000000000e-01) (4, 5, 5.00000000000000000000e-01) (0, 5, 0.00000000000000000000e+00) (4, 5, 5.00000000000000000000e-01) (4, 5, 5.00000000000000000000e-01) (4, 5, 5.00000000000000000000e-01) (0, 5, 0.00000000000000000000e+00) 
connections (connected_to_neuron, weight)=(0, -1.66372075676918029785e-01) (1, -8.21020960807800292969e-01) (2, -2.60038431733846664429e-02) (3, 1.34789586067199707031e-01) (0, 4.96574699878692626953e-01) (1, 7.04281628131866455078e-01) (2, -2.65043247491121292114e-02) (3, -4.50609177350997924805e-01) (0, 9.90684127807617187500e+00) (1, -3.15040230751037597656e+00) (2, 3.07596135139465332031e+00) (3, 5.87783288955688476562e+00) (4, -5.83552932739257812500e+00) (5, 1.76751673221588134766e+00) (6, -3.85510809719562530518e-02) (7, 7.31957614421844482422e-01) (4, 1.47270783782005310059e-01) (5, -8.66370350122451782227e-02) (6, -7.89131999015808105469e-01) (7, 3.38779985904693603516e-01) (4, 2.20612597465515136719e+00) (5, 2.11275386810302734375e+00) (6, -7.65567421913146972656e-01) (7, 6.21844887733459472656e-01) 
