FANN_FLO_2.1
num_layers=3
learning_rate=0.100000
connection_rate=1.000000
network_type=0
learning_momentum=0.000000
training_algorithm=1
train_error_function=1
train_stop_function=0
cascade_output_change_fraction=0.010000
quickprop_decay=-0.000100
quickprop_mu=1.750000
rprop_increase_factor=1.200000
rprop_decrease_factor=0.500000
rprop_delta_min=0.000000
rprop_delta_max=50.000000
rprop_delta_zero=0.100000
cascade_output_stagnation_epochs=12
cascade_candidate_change_fraction=0.010000
cascade_candidate_stagnation_epochs=12
cascade_max_out_epochs=150
cascade_min_out_epochs=50
cascade_max_cand_epochs=150
cascade_min_cand_epochs=50
cascade_num_candidate_groups=2
bit_fail_limit=3.49999994039535522461e-01
cascade_candidate_limit=1.00000000000000000000e+03
cascade_weight_multiplier=4.00000005960464477539e-01
cascade_activation_functions_count=10
cascade_activation_functions=3 5 7 8 10 11 14 15 16 17 
cascade_activation_steepnesses_count=4
cascade_activation_steepnesses=2.50000000000000000000e-01 5.00000000000000000000e-01 7.50000000000000000000e-01 1.00000000000000000000e+00 
layer_sizes=4 4 4 
scale_included=1
scale_mean_in=0.169277 -0.004275 0.082956 
scale_deviation_in=0.004493 0.014620 0.010673 
scale_new_min_in=-0.900000 -0.900000 -0.900000 
scale_factor_in=0.900000 0.900000 0.900000 
scale_mean_out=-1.596185 2.129802 -1.506780 
scale_deviation_out=0.086188 0.072320 0.143576 
scale_new_min_out=-0.900000 -0.900000 -0.900000 
scale_factor_out=0.900000 0.900000 0.900000 
neurons (num_inputs, activation_function, activation_steepness)=(0, 0, 0.00000000000000000000e+00) (0, 0, 0.00000000000000000000e+00) (0, 0, 0.00000000000000000000e+00) (0, 0, 0.00000000000000000000e+00) (4, 5, 5.00000000000000000000e-01) (4, 5, 5.00000000000000000000e-01) (4, 5, 5.00000000000000000000e-01) (0, 5, 0.00000000000000000000e+00) (4, 5, 5.00000000000000000000e-01) (4, 5, 5.00000000000000000000e-01) (4, 5, 5.00000000000000000000e-01) (0, 5, 0.00000000000000000000e+00) 
connections (connected_to_neuron, weight)=(0, -2.69185096025466918945e-01) (1, 2.82545715570449829102e-01) (2, -9.87275362014770507812e-01) (3, 5.26265263557434082031e-01) (0, -8.74369502067565917969e-01) (1, -1.52954950928688049316e-01) (2, -1.17640003561973571777e-01) (3, -7.38721936941146850586e-02) (0, 1.63014888763427734375e-01) (1, -8.10901224613189697266e-01) (2, -2.26781696081161499023e-01) (3, 1.27690777182579040527e-01) (4, 1.98623895645141601562e+00) (5, -2.00277709960937500000e+00) (6, -6.70860338211059570312e+00) (7, -1.04416526854038238525e-01) (4, 3.63144230842590332031e+00) (5, 5.71560335159301757812e+00) (6, -6.62081003189086914062e-01) (7, -5.12621760368347167969e-01) (4, 6.08578252792358398438e+00) (5, 2.51035809516906738281e+00) (6, 1.27886331081390380859e+00) (7, -1.31987667083740234375e+00) 
