FANN_FLO_2.1
num_layers=3
learning_rate=0.100000
connection_rate=1.000000
network_type=0
learning_momentum=0.000000
training_algorithm=1
train_error_function=1
train_stop_function=0
cascade_output_change_fraction=0.010000
quickprop_decay=-0.000100
quickprop_mu=1.750000
rprop_increase_factor=1.200000
rprop_decrease_factor=0.500000
rprop_delta_min=0.000000
rprop_delta_max=50.000000
rprop_delta_zero=0.100000
cascade_output_stagnation_epochs=12
cascade_candidate_change_fraction=0.010000
cascade_candidate_stagnation_epochs=12
cascade_max_out_epochs=150
cascade_min_out_epochs=50
cascade_max_cand_epochs=150
cascade_min_cand_epochs=50
cascade_num_candidate_groups=2
bit_fail_limit=3.49999994039535522461e-01
cascade_candidate_limit=1.00000000000000000000e+03
cascade_weight_multiplier=4.00000005960464477539e-01
cascade_activation_functions_count=10
cascade_activation_functions=3 5 7 8 10 11 14 15 16 17 
cascade_activation_steepnesses_count=4
cascade_activation_steepnesses=2.50000000000000000000e-01 5.00000000000000000000e-01 7.50000000000000000000e-01 1.00000000000000000000e+00 
layer_sizes=4 4 4 
scale_included=1
scale_mean_in=0.205023 -0.003561 0.045031 
scale_deviation_in=0.013085 0.013780 0.010417 
scale_new_min_in=-0.900000 -0.900000 -0.900000 
scale_factor_in=0.900000 0.900000 0.900000 
scale_mean_out=-1.588064 1.455234 -2.097205 
scale_deviation_out=0.067751 0.395044 0.577540 
scale_new_min_out=-0.900000 -0.900000 -0.900000 
scale_factor_out=0.900000 0.900000 0.900000 
neurons (num_inputs, activation_function, activation_steepness)=(0, 0, 0.00000000000000000000e+00) (0, 0, 0.00000000000000000000e+00) (0, 0, 0.00000000000000000000e+00) (0, 0, 0.00000000000000000000e+00) (4, 5, 5.00000000000000000000e-01) (4, 5, 5.00000000000000000000e-01) (4, 5, 5.00000000000000000000e-01) (0, 5, 0.00000000000000000000e+00) (4, 5, 5.00000000000000000000e-01) (4, 5, 5.00000000000000000000e-01) (4, 5, 5.00000000000000000000e-01) (0, 5, 0.00000000000000000000e+00) 
connections (connected_to_neuron, weight)=(0, 3.70469778776168823242e-01) (1, -6.47647380828857421875e-01) (2, -3.32912474870681762695e-01) (3, 1.72424972057342529297e-01) (0, -2.94898182153701782227e-01) (1, -6.67602062225341796875e-01) (2, 2.67296075820922851562e-01) (3, -1.35958790779113769531e-01) (0, -2.15084409713745117188e+00) (1, -2.98279374837875366211e-02) (2, -7.64655411243438720703e-01) (3, 2.76648998260498046875e-01) (4, -4.22807359695434570312e+00) (5, -5.29071331024169921875e+00) (6, -4.91561889648437500000e-02) (7, -6.16558594629168510437e-03) (4, -2.16103839874267578125e+00) (5, 1.56148934364318847656e+00) (6, 3.44978451728820800781e+00) (7, 5.00137269496917724609e-01) (4, -8.75708043575286865234e-01) (5, 3.26313793659210205078e-01) (6, 4.01782274246215820312e+00) (7, 3.69525134563446044922e-01) 
