FANN_FLO_2.1
num_layers=3
learning_rate=0.100000
connection_rate=1.000000
network_type=0
learning_momentum=0.000000
training_algorithm=1
train_error_function=1
train_stop_function=0
cascade_output_change_fraction=0.010000
quickprop_decay=-0.000100
quickprop_mu=1.750000
rprop_increase_factor=1.200000
rprop_decrease_factor=0.500000
rprop_delta_min=0.000000
rprop_delta_max=50.000000
rprop_delta_zero=0.100000
cascade_output_stagnation_epochs=12
cascade_candidate_change_fraction=0.010000
cascade_candidate_stagnation_epochs=12
cascade_max_out_epochs=150
cascade_min_out_epochs=50
cascade_max_cand_epochs=150
cascade_min_cand_epochs=50
cascade_num_candidate_groups=2
bit_fail_limit=3.49999994039535522461e-01
cascade_candidate_limit=1.00000000000000000000e+03
cascade_weight_multiplier=4.00000005960464477539e-01
cascade_activation_functions_count=10
cascade_activation_functions=3 5 7 8 10 11 14 15 16 17 
cascade_activation_steepnesses_count=4
cascade_activation_steepnesses=2.50000000000000000000e-01 5.00000000000000000000e-01 7.50000000000000000000e-01 1.00000000000000000000e+00 
layer_sizes=4 4 4 
scale_included=1
scale_mean_in=0.206083 0.045888 -0.063308 
scale_deviation_in=0.012642 0.014620 0.010507 
scale_new_min_in=-0.900000 -0.900000 -0.900000 
scale_factor_in=0.900000 0.900000 0.900000 
scale_mean_out=-1.351311 0.798732 -2.148521 
scale_deviation_out=0.070698 0.366519 0.579200 
scale_new_min_out=-0.900000 -0.900000 -0.900000 
scale_factor_out=0.900000 0.900000 0.900000 
neurons (num_inputs, activation_function, activation_steepness)=(0, 0, 0.00000000000000000000e+00) (0, 0, 0.00000000000000000000e+00) (0, 0, 0.00000000000000000000e+00) (0, 0, 0.00000000000000000000e+00) (4, 5, 5.00000000000000000000e-01) (4, 5, 5.00000000000000000000e-01) (4, 5, 5.00000000000000000000e-01) (0, 5, 0.00000000000000000000e+00) (4, 5, 5.00000000000000000000e-01) (4, 5, 5.00000000000000000000e-01) (4, 5, 5.00000000000000000000e-01) (0, 5, 0.00000000000000000000e+00) 
connections (connected_to_neuron, weight)=(0, 1.98396667838096618652e-01) (1, -6.57153666019439697266e-01) (2, -2.20487952232360839844e-01) (3, -3.11093270778656005859e-01) (0, -4.76709127426147460938e+00) (1, -1.17429113388061523438e+00) (2, 9.54007387161254882812e-01) (3, 1.89909413456916809082e-01) (0, 3.49499355070292949677e-03) (1, 7.12989330291748046875e-01) (2, -3.65929603576660156250e-01) (3, -5.39162993431091308594e-01) (4, -5.54101276397705078125e+00) (5, 4.85832206904888153076e-02) (6, 3.57019352912902832031e+00) (7, 6.62906616926193237305e-02) (4, -2.37890815734863281250e+00) (5, 2.44337534904479980469e+00) (6, -2.65249300003051757812e+00) (7, -3.33393007516860961914e-01) (4, -4.93235558271408081055e-01) (5, 2.88715553283691406250e+00) (6, -6.19063198566436767578e-01) (7, 6.46086096763610839844e-01) 
