FANN_FLO_2.1
num_layers=3
learning_rate=0.100000
connection_rate=1.000000
network_type=0
learning_momentum=0.000000
training_algorithm=1
train_error_function=1
train_stop_function=0
cascade_output_change_fraction=0.010000
quickprop_decay=-0.000100
quickprop_mu=1.750000
rprop_increase_factor=1.200000
rprop_decrease_factor=0.500000
rprop_delta_min=0.000000
rprop_delta_max=50.000000
rprop_delta_zero=0.100000
cascade_output_stagnation_epochs=12
cascade_candidate_change_fraction=0.010000
cascade_candidate_stagnation_epochs=12
cascade_max_out_epochs=150
cascade_min_out_epochs=50
cascade_max_cand_epochs=150
cascade_min_cand_epochs=50
cascade_num_candidate_groups=2
bit_fail_limit=3.49999994039535522461e-01
cascade_candidate_limit=1.00000000000000000000e+03
cascade_weight_multiplier=4.00000005960464477539e-01
cascade_activation_functions_count=10
cascade_activation_functions=3 5 7 8 10 11 14 15 16 17 
cascade_activation_steepnesses_count=4
cascade_activation_steepnesses=2.50000000000000000000e-01 5.00000000000000000000e-01 7.50000000000000000000e-01 1.00000000000000000000e+00 
layer_sizes=4 6 4 
scale_included=1
scale_mean_in=0.088157 0.182308 -0.039101 
scale_deviation_in=0.015095 0.013577 0.013627 
scale_new_min_in=-0.900000 -0.900000 -0.900000 
scale_factor_in=0.900000 0.900000 0.900000 
scale_mean_out=-0.450679 1.246358 -1.585101 
scale_deviation_out=0.078528 0.232666 0.341150 
scale_new_min_out=-0.900000 -0.900000 -0.900000 
scale_factor_out=0.900000 0.900000 0.900000 
neurons (num_inputs, activation_function, activation_steepness)=(0, 0, 0.00000000000000000000e+00) (0, 0, 0.00000000000000000000e+00) (0, 0, 0.00000000000000000000e+00) (0, 0, 0.00000000000000000000e+00) (4, 5, 5.00000000000000000000e-01) (4, 5, 5.00000000000000000000e-01) (4, 5, 5.00000000000000000000e-01) (4, 5, 5.00000000000000000000e-01) (4, 5, 5.00000000000000000000e-01) (0, 5, 0.00000000000000000000e+00) (6, 5, 5.00000000000000000000e-01) (6, 5, 5.00000000000000000000e-01) (6, 5, 5.00000000000000000000e-01) (0, 5, 0.00000000000000000000e+00) 
connections (connected_to_neuron, weight)=(0, 4.99388426542282104492e-01) (1, -1.73191046714782714844e+00) (2, 3.68058443069458007812e-01) (3, 2.52676337957382202148e-01) (0, -6.39701783657073974609e-01) (1, -7.16862320899963378906e-01) (2, 5.69651544094085693359e-01) (3, -7.69357562065124511719e-01) (0, 1.38642776012420654297e+00) (1, -6.45083367824554443359e-01) (2, -7.43983507156372070312e-01) (3, -5.30417919158935546875e-01) (0, 8.19533467292785644531e-01) (1, 1.32936477661132812500e+00) (2, -8.25316607952117919922e-01) (3, -3.17940384149551391602e-01) (0, -1.23126149177551269531e+00) (1, -9.93639290332794189453e-01) (2, -3.64168882369995117188e-01) (3, -3.28020364046096801758e-01) (4, -1.49616515636444091797e+00) (5, 1.63938373327255249023e-01) (6, -1.63787424564361572266e+00) (7, 8.13306048512458801270e-02) (8, 1.26487314701080322266e+00) (9, 6.66852071881294250488e-02) (4, 1.32928609848022460938e+00) (5, 3.91616910696029663086e-01) (6, -6.86402857303619384766e-01) (7, -1.65785646438598632812e+00) (8, 8.01760554313659667969e-01) (9, -9.56420674920082092285e-02) (4, 1.10113143920898437500e+00) (5, 5.87255358695983886719e-01) (6, 2.51668971031904220581e-02) (7, -1.20497977733612060547e+00) (8, 1.08541655540466308594e+00) (9, 1.55305743217468261719e-01) 
