FANN_FLO_2.1
num_layers=3
learning_rate=0.100000
connection_rate=1.000000
network_type=0
learning_momentum=0.000000
training_algorithm=1
train_error_function=1
train_stop_function=0
cascade_output_change_fraction=0.010000
quickprop_decay=-0.000100
quickprop_mu=1.750000
rprop_increase_factor=1.200000
rprop_decrease_factor=0.500000
rprop_delta_min=0.000000
rprop_delta_max=50.000000
rprop_delta_zero=0.100000
cascade_output_stagnation_epochs=12
cascade_candidate_change_fraction=0.010000
cascade_candidate_stagnation_epochs=12
cascade_max_out_epochs=150
cascade_min_out_epochs=50
cascade_max_cand_epochs=150
cascade_min_cand_epochs=50
cascade_num_candidate_groups=2
bit_fail_limit=3.49999994039535522461e-01
cascade_candidate_limit=1.00000000000000000000e+03
cascade_weight_multiplier=4.00000005960464477539e-01
cascade_activation_functions_count=10
cascade_activation_functions=3 5 7 8 10 11 14 15 16 17 
cascade_activation_steepnesses_count=4
cascade_activation_steepnesses=2.50000000000000000000e-01 5.00000000000000000000e-01 7.50000000000000000000e-01 1.00000000000000000000e+00 
layer_sizes=4 6 4 
scale_included=1
scale_mean_in=0.144560 -0.002277 0.008033 
scale_deviation_in=0.015414 0.018809 0.013577 
scale_new_min_in=-0.900000 -0.900000 -0.900000 
scale_factor_in=0.900000 0.900000 0.900000 
scale_mean_out=-1.586345 2.371577 -0.542408 
scale_deviation_out=0.131032 0.236412 0.225332 
scale_new_min_out=-0.900000 -0.900000 -0.900000 
scale_factor_out=0.900000 0.900000 0.900000 
neurons (num_inputs, activation_function, activation_steepness)=(0, 0, 0.00000000000000000000e+00) (0, 0, 0.00000000000000000000e+00) (0, 0, 0.00000000000000000000e+00) (0, 0, 0.00000000000000000000e+00) (4, 5, 5.00000000000000000000e-01) (4, 5, 5.00000000000000000000e-01) (4, 5, 5.00000000000000000000e-01) (4, 5, 5.00000000000000000000e-01) (4, 5, 5.00000000000000000000e-01) (0, 5, 0.00000000000000000000e+00) (6, 5, 5.00000000000000000000e-01) (6, 5, 5.00000000000000000000e-01) (6, 5, 5.00000000000000000000e-01) (0, 5, 0.00000000000000000000e+00) 
connections (connected_to_neuron, weight)=(0, -4.85376745462417602539e-01) (1, -1.06635785102844238281e+00) (2, 3.24775189161300659180e-01) (3, 6.67944133281707763672e-01) (0, 7.59308993816375732422e-01) (1, 9.47570979595184326172e-01) (2, -1.60512760281562805176e-01) (3, 2.86806911230087280273e-01) (0, -9.86342489719390869141e-01) (1, 1.10003209114074707031e+00) (2, 4.11744654178619384766e-01) (3, -3.27447295188903808594e-01) (0, -1.46689224243164062500e+00) (1, 1.53589442372322082520e-01) (2, -5.36185979843139648438e-01) (3, 7.34388589859008789062e-01) (0, 1.78189265727996826172e+00) (1, 1.21913745999336242676e-01) (2, 6.80394247174263000488e-02) (3, 5.29666125774383544922e-01) (4, -1.57637536525726318359e+00) (5, 1.26626980304718017578e+00) (6, 1.56599009037017822266e+00) (7, 1.06426708400249481201e-01) (8, 9.42766591906547546387e-02) (9, 4.44784671068191528320e-01) (4, 6.89039766788482666016e-01) (5, -5.52041888236999511719e-01) (6, 1.11019110679626464844e+00) (7, 5.92120289802551269531e-01) (8, -1.16350948810577392578e+00) (9, 3.22697833180427551270e-02) (4, 4.37546461820602416992e-01) (5, -3.25438439846038818359e-01) (6, 3.40767741203308105469e-01) (7, 1.28452324867248535156e+00) (8, -1.46211087703704833984e+00) (9, -1.02019734680652618408e-01) 
