FANN_FLO_2.1
num_layers=3
learning_rate=0.100000
connection_rate=1.000000
network_type=0
learning_momentum=0.000000
training_algorithm=1
train_error_function=1
train_stop_function=0
cascade_output_change_fraction=0.010000
quickprop_decay=-0.000100
quickprop_mu=1.750000
rprop_increase_factor=1.200000
rprop_decrease_factor=0.500000
rprop_delta_min=0.000000
rprop_delta_max=50.000000
rprop_delta_zero=0.100000
cascade_output_stagnation_epochs=12
cascade_candidate_change_fraction=0.010000
cascade_candidate_stagnation_epochs=12
cascade_max_out_epochs=150
cascade_min_out_epochs=50
cascade_max_cand_epochs=150
cascade_min_cand_epochs=50
cascade_num_candidate_groups=2
bit_fail_limit=3.49999994039535522461e-01
cascade_candidate_limit=1.00000000000000000000e+03
cascade_weight_multiplier=4.00000005960464477539e-01
cascade_activation_functions_count=10
cascade_activation_functions=3 5 7 8 10 11 14 15 16 17 
cascade_activation_steepnesses_count=4
cascade_activation_steepnesses=2.50000000000000000000e-01 5.00000000000000000000e-01 7.50000000000000000000e-01 1.00000000000000000000e+00 
layer_sizes=4 11 4 
scale_included=1
scale_mean_in=0.184798 0.052429 0.040649 
scale_deviation_in=0.014093 0.021309 0.016282 
scale_new_min_in=-0.900000 -0.900000 -0.900000 
scale_factor_in=0.900000 0.900000 0.900000 
scale_mean_out=-1.294933 1.748823 -1.573114 
scale_deviation_out=0.111801 0.254458 0.349505 
scale_new_min_out=-0.900000 -0.900000 -0.900000 
scale_factor_out=0.900000 0.900000 0.900000 
neurons (num_inputs, activation_function, activation_steepness)=(0, 0, 0.00000000000000000000e+00) (0, 0, 0.00000000000000000000e+00) (0, 0, 0.00000000000000000000e+00) (0, 0, 0.00000000000000000000e+00) (4, 5, 5.00000000000000000000e-01) (4, 5, 5.00000000000000000000e-01) (4, 5, 5.00000000000000000000e-01) (4, 5, 5.00000000000000000000e-01) (4, 5, 5.00000000000000000000e-01) (4, 5, 5.00000000000000000000e-01) (4, 5, 5.00000000000000000000e-01) (4, 5, 5.00000000000000000000e-01) (4, 5, 5.00000000000000000000e-01) (4, 5, 5.00000000000000000000e-01) (0, 5, 0.00000000000000000000e+00) (11, 5, 5.00000000000000000000e-01) (11, 5, 5.00000000000000000000e-01) (11, 5, 5.00000000000000000000e-01) (0, 5, 0.00000000000000000000e+00) 
connections (connected_to_neuron, weight)=(0, -9.35571253299713134766e-01) (1, 2.10082843899726867676e-01) (2, -4.68100458383560180664e-01) (3, 3.80172520875930786133e-01) (0, 4.66691881418228149414e-01) (1, 6.03063046932220458984e-01) (2, 1.82905018329620361328e-01) (3, 8.54073047637939453125e-01) (0, -3.20601642131805419922e-01) (1, -9.11511778831481933594e-01) (2, -2.60900110006332397461e-01) (3, 1.86730980873107910156e-01) (0, 3.38166952133178710938e-01) (1, -8.55796039104461669922e-01) (2, 6.24530136585235595703e-01) (3, -5.09600460529327392578e-01) (0, 1.42592221498489379883e-01) (1, 1.23462760448455810547e+00) (2, -7.30798959732055664062e-01) (3, -9.09739494323730468750e-01) (0, 5.32885134220123291016e-01) (1, 6.70822858810424804688e-01) (2, -1.04095481336116790771e-01) (3, 6.31556332111358642578e-01) (0, 4.65515822172164916992e-01) (1, -7.12347805500030517578e-01) (2, -5.11993288993835449219e-01) (3, 3.10413032770156860352e-01) (0, 1.18883860111236572266e+00) (1, -6.60569250583648681641e-01) (2, -4.79203969240188598633e-01) (3, -1.30906760692596435547e+00) (0, 1.14212632179260253906e+00) (1, 7.25262820720672607422e-01) (2, 5.39117515087127685547e-01) (3, -1.03613615036010742188e+00) (0, -7.37231254577636718750e-01) (1, 1.94714948534965515137e-01) (2, -5.21671950817108154297e-01) (3, -9.36893224716186523438e-02) (4, 1.24197483062744140625e+00) (5, 8.91864001750946044922e-01) (6, -1.74905097484588623047e+00) (7, -6.04701578617095947266e-01) (8, 1.01362776756286621094e+00) (9, 8.33238959312438964844e-01) (10, -1.95735156536102294922e+00) (11, -4.18259143829345703125e-01) (12, 4.05284821987152099609e-01) (13, 6.36998951435089111328e-01) (14, -1.27907320857048034668e-01) (4, 1.52107381820678710938e+00) (5, -3.97063195705413818359e-01) (6, 5.35336256027221679688e-01) (7, 2.21428275108337402344e-01) (8, -1.23323309421539306641e+00) (9, -1.75420320034027099609e+00) (10, -7.59671866893768310547e-01) (11, -1.34573996067047119141e+00) (12, -1.85451936721801757812e+00) (13, 4.76328492164611816406e-01) (14, -1.12950491905212402344e+00) (4, 1.04221737384796142578e+00) (5, -1.66200196743011474609e+00) (6, 1.23167943954467773438e+00) (7, -1.35004937648773193359e+00) (8, -1.03475642204284667969e+00) (9, -3.01302015781402587891e-01) (10, 9.05607581138610839844e-01) (11, -1.19901251792907714844e+00) (12, -1.72339963912963867188e+00) (13, 1.64496695995330810547e+00) (14, -1.20742499828338623047e+00) 
