FANN_FLO_2.1
num_layers=3
learning_rate=0.100000
connection_rate=1.000000
network_type=0
learning_momentum=0.000000
training_algorithm=1
train_error_function=1
train_stop_function=0
cascade_output_change_fraction=0.010000
quickprop_decay=-0.000100
quickprop_mu=1.750000
rprop_increase_factor=1.200000
rprop_decrease_factor=0.500000
rprop_delta_min=0.000000
rprop_delta_max=50.000000
rprop_delta_zero=0.100000
cascade_output_stagnation_epochs=12
cascade_candidate_change_fraction=0.010000
cascade_candidate_stagnation_epochs=12
cascade_max_out_epochs=150
cascade_min_out_epochs=50
cascade_max_cand_epochs=150
cascade_min_cand_epochs=50
cascade_num_candidate_groups=2
bit_fail_limit=3.49999994039535522461e-01
cascade_candidate_limit=1.00000000000000000000e+03
cascade_weight_multiplier=4.00000005960464477539e-01
cascade_activation_functions_count=10
cascade_activation_functions=3 5 7 8 10 11 14 15 16 17 
cascade_activation_steepnesses_count=4
cascade_activation_steepnesses=2.50000000000000000000e-01 5.00000000000000000000e-01 7.50000000000000000000e-01 1.00000000000000000000e+00 
layer_sizes=4 11 4 
scale_included=1
scale_mean_in=0.078734 0.067684 -0.079036 
scale_deviation_in=0.012731 0.014633 0.012199 
scale_new_min_in=-0.900000 -0.900000 -0.900000 
scale_factor_in=0.900000 0.900000 0.900000 
scale_mean_out=-0.862514 1.680405 -0.301139 
scale_deviation_out=0.101761 0.222755 0.170381 
scale_new_min_out=-0.900000 -0.900000 -0.900000 
scale_factor_out=0.900000 0.900000 0.900000 
neurons (num_inputs, activation_function, activation_steepness)=(0, 0, 0.00000000000000000000e+00) (0, 0, 0.00000000000000000000e+00) (0, 0, 0.00000000000000000000e+00) (0, 0, 0.00000000000000000000e+00) (4, 5, 5.00000000000000000000e-01) (4, 5, 5.00000000000000000000e-01) (4, 5, 5.00000000000000000000e-01) (4, 5, 5.00000000000000000000e-01) (4, 5, 5.00000000000000000000e-01) (4, 5, 5.00000000000000000000e-01) (4, 5, 5.00000000000000000000e-01) (4, 5, 5.00000000000000000000e-01) (4, 5, 5.00000000000000000000e-01) (4, 5, 5.00000000000000000000e-01) (0, 5, 0.00000000000000000000e+00) (11, 5, 5.00000000000000000000e-01) (11, 5, 5.00000000000000000000e-01) (11, 5, 5.00000000000000000000e-01) (0, 5, 0.00000000000000000000e+00) 
connections (connected_to_neuron, weight)=(0, -8.46625030040740966797e-01) (1, 4.85212206840515136719e-01) (2, 8.06994557380676269531e-01) (3, -8.99206161499023437500e-01) (0, 1.84655740857124328613e-01) (1, -7.77931690216064453125e-01) (2, 8.16005825996398925781e-01) (3, -1.21904075145721435547e+00) (0, 1.06519766151905059814e-01) (1, -3.01088869571685791016e-01) (2, 6.21090769767761230469e-01) (3, -8.78699719905853271484e-01) (0, 5.19110858440399169922e-01) (1, 1.23121403157711029053e-01) (2, -3.48643034696578979492e-01) (3, -1.44744485616683959961e-01) (0, -7.15571045875549316406e-01) (1, 1.14980161190032958984e+00) (2, -5.88311672210693359375e-01) (3, -1.19825208187103271484e+00) (0, 9.83773767948150634766e-01) (1, 3.55860926210880279541e-02) (2, 5.12885987758636474609e-01) (3, 1.68871235847473144531e+00) (0, 1.07878971099853515625e+00) (1, 9.44297134876251220703e-01) (2, 2.10790351033210754395e-01) (3, -1.52891910076141357422e+00) (0, -4.59991782903671264648e-01) (1, 3.60636442899703979492e-01) (2, 1.28156566619873046875e+00) (3, 1.01128566265106201172e+00) (0, 8.19785952568054199219e-01) (1, -1.33994507789611816406e+00) (2, 4.11335267126560211182e-02) (3, -1.69007897377014160156e+00) (0, 9.33174267411231994629e-02) (1, -1.34817051887512207031e+00) (2, -3.90067666769027709961e-01) (3, -1.08335900306701660156e+00) (4, 2.23052120208740234375e+00) (5, -1.26916360855102539062e+00) (6, -7.31988668441772460938e-01) (7, 1.18925869464874267578e-01) (8, 1.65731585025787353516e+00) (9, -1.74742364883422851562e+00) (10, -1.24392233788967132568e-01) (11, 5.04573941230773925781e-01) (12, -2.34811019897460937500e+00) (13, -1.69319403171539306641e+00) (14, -6.99492037296295166016e-01) (4, 1.43310678005218505859e+00) (5, 1.60589694976806640625e+00) (6, 2.35867023468017578125e+00) (7, -1.21206057071685791016e+00) (8, -1.06407892704010009766e+00) (9, 1.56133532524108886719e+00) (10, -8.24184477329254150391e-01) (11, 1.56855046749114990234e+00) (12, 3.19210946559906005859e-01) (13, -1.35050332546234130859e+00) (14, -6.22643232345581054688e-01) (4, 1.74215745925903320312e+00) (5, 5.14691710472106933594e-01) (6, 1.53769063949584960938e+00) (7, -1.68472754955291748047e+00) (8, -2.43283271789550781250e+00) (9, -1.07150363922119140625e+00) (10, -3.20296883583068847656e+00) (11, 1.42099118232727050781e+00) (12, 1.13480240106582641602e-01) (13, -5.19903041422367095947e-02) (14, -1.26818931102752685547e+00) 
