FANN_FLO_2.1
num_layers=3
learning_rate=0.100000
connection_rate=1.000000
network_type=0
learning_momentum=0.000000
training_algorithm=1
train_error_function=1
train_stop_function=0
cascade_output_change_fraction=0.010000
quickprop_decay=-0.000100
quickprop_mu=1.750000
rprop_increase_factor=1.200000
rprop_decrease_factor=0.500000
rprop_delta_min=0.000000
rprop_delta_max=50.000000
rprop_delta_zero=0.100000
cascade_output_stagnation_epochs=12
cascade_candidate_change_fraction=0.010000
cascade_candidate_stagnation_epochs=12
cascade_max_out_epochs=150
cascade_min_out_epochs=50
cascade_max_cand_epochs=150
cascade_min_cand_epochs=50
cascade_num_candidate_groups=2
bit_fail_limit=3.49999994039535522461e-01
cascade_candidate_limit=1.00000000000000000000e+03
cascade_weight_multiplier=4.00000005960464477539e-01
cascade_activation_functions_count=10
cascade_activation_functions=3 5 7 8 10 11 14 15 16 17 
cascade_activation_steepnesses_count=4
cascade_activation_steepnesses=2.50000000000000000000e-01 5.00000000000000000000e-01 7.50000000000000000000e-01 1.00000000000000000000e+00 
layer_sizes=4 11 4 
scale_included=1
scale_mean_in=0.204188 -0.045026 0.013418 
scale_deviation_in=0.017664 0.016781 0.012964 
scale_new_min_in=-0.900000 -0.900000 -0.900000 
scale_factor_in=0.900000 0.900000 0.900000 
scale_mean_out=-1.787769 1.340587 -2.000450 
scale_deviation_out=0.079191 0.451727 0.660379 
scale_new_min_out=-0.900000 -0.900000 -0.900000 
scale_factor_out=0.900000 0.900000 0.900000 
neurons (num_inputs, activation_function, activation_steepness)=(0, 0, 0.00000000000000000000e+00) (0, 0, 0.00000000000000000000e+00) (0, 0, 0.00000000000000000000e+00) (0, 0, 0.00000000000000000000e+00) (4, 5, 5.00000000000000000000e-01) (4, 5, 5.00000000000000000000e-01) (4, 5, 5.00000000000000000000e-01) (4, 5, 5.00000000000000000000e-01) (4, 5, 5.00000000000000000000e-01) (4, 5, 5.00000000000000000000e-01) (4, 5, 5.00000000000000000000e-01) (4, 5, 5.00000000000000000000e-01) (4, 5, 5.00000000000000000000e-01) (4, 5, 5.00000000000000000000e-01) (0, 5, 0.00000000000000000000e+00) (11, 5, 5.00000000000000000000e-01) (11, 5, 5.00000000000000000000e-01) (11, 5, 5.00000000000000000000e-01) (0, 5, 0.00000000000000000000e+00) 
connections (connected_to_neuron, weight)=(0, 9.78134796023368835449e-02) (1, -3.33043038845062255859e-01) (2, -3.61732155084609985352e-01) (3, 5.27373731136322021484e-01) (0, -3.45962548255920410156e+00) (1, 9.06248092651367187500e-01) (2, 1.54523812234401702881e-02) (3, -4.11129903793334960938e+00) (0, -1.85082126408815383911e-02) (1, -1.34324562549591064453e+00) (2, -2.48264707624912261963e-02) (3, -2.34657597541809082031e+00) (0, 6.81610524654388427734e-01) (1, 1.35316014289855957031e-01) (2, -4.09195363521575927734e-01) (3, -1.67015612125396728516e+00) (0, -8.59424412250518798828e-01) (1, -1.74768674373626708984e+00) (2, 1.01502299308776855469e-01) (3, -2.23550581932067871094e+00) (0, -2.82914209365844726562e+00) (1, 7.84858644008636474609e-01) (2, 2.31326147913932800293e-01) (3, -3.40399432182312011719e+00) (0, -5.45162498950958251953e-01) (1, -2.79086971282958984375e+00) (2, 6.02873377501964569092e-02) (3, 3.39953398704528808594e+00) (0, 7.77584612369537353516e-01) (1, -1.76499471068382263184e-01) (2, -6.66521370410919189453e-01) (3, -1.53942167758941650391e+00) (0, 1.96669673919677734375e+00) (1, -2.23517283797264099121e-01) (2, 4.91358757019042968750e-01) (3, -1.53274846076965332031e+00) (0, -8.58113646507263183594e-01) (1, 2.58750557899475097656e-01) (2, -8.90376627445220947266e-01) (3, 6.54605448246002197266e-01) (4, -1.28743600845336914062e+00) (5, 7.72448301315307617188e-01) (6, -1.90562939643859863281e+00) (7, 1.66411352157592773438e+00) (8, -3.33835101127624511719e+00) (9, -6.07703149318695068359e-01) (10, -3.59287810325622558594e+00) (11, -5.49317300319671630859e-01) (12, -2.86533176898956298828e-01) (13, -1.27078229561448097229e-02) (14, 2.17874661087989807129e-01) (4, -6.42242908477783203125e-01) (5, 3.21065735816955566406e+00) (6, -2.22132086753845214844e+00) (7, -2.38303852081298828125e+00) (8, 7.41014599800109863281e-01) (9, 3.38379287719726562500e+00) (10, 1.98303073644638061523e-01) (11, -1.87941479682922363281e+00) (12, -2.35603046417236328125e+00) (13, 9.73455011844635009766e-01) (14, 1.41615796089172363281e+00) (4, 6.59921705722808837891e-01) (5, 4.11877822875976562500e+00) (6, -2.08484601974487304688e+00) (7, -2.00022983551025390625e+00) (8, 4.84870761632919311523e-01) (9, 2.58024525642395019531e+00) (10, 1.33158341050148010254e-01) (11, -2.70247626304626464844e+00) (12, -2.19423890113830566406e+00) (13, 2.27759099006652832031e+00) (14, 8.86244118213653564453e-01) 
