FANN_FLO_2.1
num_layers=3
learning_rate=0.100000
connection_rate=1.000000
network_type=0
learning_momentum=0.000000
training_algorithm=1
train_error_function=1
train_stop_function=0
cascade_output_change_fraction=0.010000
quickprop_decay=-0.000100
quickprop_mu=1.750000
rprop_increase_factor=1.200000
rprop_decrease_factor=0.500000
rprop_delta_min=0.000000
rprop_delta_max=50.000000
rprop_delta_zero=0.100000
cascade_output_stagnation_epochs=12
cascade_candidate_change_fraction=0.010000
cascade_candidate_stagnation_epochs=12
cascade_max_out_epochs=150
cascade_min_out_epochs=50
cascade_max_cand_epochs=150
cascade_min_cand_epochs=50
cascade_num_candidate_groups=2
bit_fail_limit=3.49999994039535522461e-01
cascade_candidate_limit=1.00000000000000000000e+03
cascade_weight_multiplier=4.00000005960464477539e-01
cascade_activation_functions_count=10
cascade_activation_functions=3 5 7 8 10 11 14 15 16 17 
cascade_activation_steepnesses_count=4
cascade_activation_steepnesses=2.50000000000000000000e-01 5.00000000000000000000e-01 7.50000000000000000000e-01 1.00000000000000000000e+00 
layer_sizes=4 11 4 
scale_included=1
scale_mean_in=0.046862 0.153067 0.025456 
scale_deviation_in=0.014639 0.017341 0.013246 
scale_new_min_in=-0.900000 -0.900000 -0.900000 
scale_factor_in=0.900000 0.900000 0.900000 
scale_mean_out=-0.297935 2.236896 -0.844321 
scale_deviation_out=0.093610 0.247430 0.273424 
scale_new_min_out=-0.900000 -0.900000 -0.900000 
scale_factor_out=0.900000 0.900000 0.900000 
neurons (num_inputs, activation_function, activation_steepness)=(0, 0, 0.00000000000000000000e+00) (0, 0, 0.00000000000000000000e+00) (0, 0, 0.00000000000000000000e+00) (0, 0, 0.00000000000000000000e+00) (4, 5, 5.00000000000000000000e-01) (4, 5, 5.00000000000000000000e-01) (4, 5, 5.00000000000000000000e-01) (4, 5, 5.00000000000000000000e-01) (4, 5, 5.00000000000000000000e-01) (4, 5, 5.00000000000000000000e-01) (4, 5, 5.00000000000000000000e-01) (4, 5, 5.00000000000000000000e-01) (4, 5, 5.00000000000000000000e-01) (4, 5, 5.00000000000000000000e-01) (0, 5, 0.00000000000000000000e+00) (11, 5, 5.00000000000000000000e-01) (11, 5, 5.00000000000000000000e-01) (11, 5, 5.00000000000000000000e-01) (0, 5, 0.00000000000000000000e+00) 
connections (connected_to_neuron, weight)=(0, -4.02230769395828247070e-01) (1, 1.81067392230033874512e-01) (2, -4.97096478939056396484e-01) (3, 4.24353927373886108398e-01) (0, 5.58542847633361816406e-01) (1, 1.72554230690002441406e+00) (2, 2.77934461832046508789e-01) (3, 1.31745249032974243164e-01) (0, 1.07405716553330421448e-02) (1, -8.38596582412719726562e-01) (2, 1.21212922036647796631e-01) (3, 3.05983889847993850708e-02) (0, -6.52575910091400146484e-01) (1, 4.61761891841888427734e-01) (2, 6.68073832988739013672e-01) (3, -8.53660255670547485352e-02) (0, -4.73004281520843505859e-01) (1, 1.42736148834228515625e+00) (2, -2.70425289869308471680e-01) (3, -1.30998983979225158691e-01) (0, 8.50098013877868652344e-01) (1, -3.66123020648956298828e-01) (2, -8.67592096328735351562e-01) (3, -9.04935956001281738281e-01) (0, -8.74787569046020507812e-01) (1, 9.35823678970336914062e-01) (2, 5.47176420688629150391e-01) (3, -8.95173192024230957031e-01) (0, 7.00167715549468994141e-01) (1, 5.39550036191940307617e-02) (2, 1.13792428746819496155e-02) (3, 6.71112716197967529297e-01) (0, 1.78733766078948974609e+00) (1, 4.80524748563766479492e-01) (2, 2.83918559551239013672e-01) (3, 2.08075582981109619141e-01) (0, -4.63812559843063354492e-01) (1, 1.17042231559753417969e+00) (2, -1.01784491539001464844e+00) (3, 2.73391664028167724609e-01) (4, 1.46235167980194091797e-01) (5, 1.29116261377930641174e-02) (6, -6.69665813446044921875e-01) (7, 8.10512006282806396484e-01) (8, 3.28872382640838623047e-01) (9, -1.02022814750671386719e+00) (10, 3.86318325996398925781e-01) (11, -7.31608927249908447266e-01) (12, -1.95773506164550781250e+00) (13, 8.94070863723754882812e-01) (14, 1.15133821964263916016e-01) (4, 5.83790063858032226562e-01) (5, -1.26712715625762939453e+00) (6, 9.89922463893890380859e-01) (7, 4.56025898456573486328e-01) (8, -8.91946196556091308594e-01) (9, 2.50432401895523071289e-01) (10, -5.78996688127517700195e-02) (11, -3.41260403394699096680e-01) (12, -9.18166637420654296875e-01) (13, -1.53183889389038085938e+00) (14, 2.73534953594207763672e-01) (4, -4.81040984392166137695e-01) (5, -2.18242001533508300781e+00) (6, 2.80677556991577148438e-01) (7, -4.90334570407867431641e-01) (8, -5.53055703639984130859e-01) (9, 6.14547431468963623047e-01) (10, -5.02514123916625976562e-01) (11, -2.11360365152359008789e-01) (12, -1.10384273529052734375e+00) (13, 1.68809771537780761719e-01) (14, 3.84275853633880615234e-01) 
