FANN_FLO_2.1
num_layers=3
learning_rate=0.100000
connection_rate=1.000000
network_type=0
learning_momentum=0.000000
training_algorithm=1
train_error_function=1
train_stop_function=0
cascade_output_change_fraction=0.010000
quickprop_decay=-0.000100
quickprop_mu=1.750000
rprop_increase_factor=1.200000
rprop_decrease_factor=0.500000
rprop_delta_min=0.000000
rprop_delta_max=50.000000
rprop_delta_zero=0.100000
cascade_output_stagnation_epochs=12
cascade_candidate_change_fraction=0.010000
cascade_candidate_stagnation_epochs=12
cascade_max_out_epochs=150
cascade_min_out_epochs=50
cascade_max_cand_epochs=150
cascade_min_cand_epochs=50
cascade_num_candidate_groups=2
bit_fail_limit=3.49999994039535522461e-01
cascade_candidate_limit=1.00000000000000000000e+03
cascade_weight_multiplier=4.00000005960464477539e-01
cascade_activation_functions_count=10
cascade_activation_functions=3 5 7 8 10 11 14 15 16 17 
cascade_activation_steepnesses_count=4
cascade_activation_steepnesses=2.50000000000000000000e-01 5.00000000000000000000e-01 7.50000000000000000000e-01 1.00000000000000000000e+00 
layer_sizes=4 6 4 
scale_included=1
scale_mean_in=0.197088 -0.002586 -0.039099 
scale_deviation_in=0.014796 0.018668 0.013626 
scale_new_min_in=-0.700000 -0.700000 -0.700000 
scale_factor_in=0.700000 0.700000 0.700000 
scale_mean_out=-1.583909 1.320010 -1.468036 
scale_deviation_out=0.095100 0.253630 0.372408 
scale_new_min_out=-0.700000 -0.700000 -0.700000 
scale_factor_out=0.700000 0.700000 0.700000 
neurons (num_inputs, activation_function, activation_steepness)=(0, 0, 0.00000000000000000000e+00) (0, 0, 0.00000000000000000000e+00) (0, 0, 0.00000000000000000000e+00) (0, 0, 0.00000000000000000000e+00) (4, 5, 5.00000000000000000000e-01) (4, 5, 5.00000000000000000000e-01) (4, 5, 5.00000000000000000000e-01) (4, 5, 5.00000000000000000000e-01) (4, 5, 5.00000000000000000000e-01) (0, 5, 0.00000000000000000000e+00) (6, 5, 5.00000000000000000000e-01) (6, 5, 5.00000000000000000000e-01) (6, 5, 5.00000000000000000000e-01) (0, 5, 0.00000000000000000000e+00) 
connections (connected_to_neuron, weight)=(0, 2.53248810768127441406e-02) (1, -3.63113656640052795410e-02) (2, -8.77964258193969726562e-01) (3, 9.90188419818878173828e-01) (0, 1.20592796802520751953e+00) (1, 1.69422185420989990234e+00) (2, 1.29981219768524169922e-01) (3, 1.91863119602203369141e-01) (0, -1.37370550632476806641e+00) (1, 3.82440328598022460938e-01) (2, 1.27961647510528564453e+00) (3, -4.46089208126068115234e-02) (0, -1.09786772727966308594e+00) (1, 1.26303744316101074219e+00) (2, -2.64177888631820678711e-01) (3, -4.66403603553771972656e-01) (0, -1.10336375236511230469e+00) (1, 2.35346183180809020996e-01) (2, -1.52238443493843078613e-01) (3, 3.10690999031066894531e-01) (4, -3.38317453861236572266e-01) (5, 1.94670224189758300781e+00) (6, -1.23234756756573915482e-03) (7, 1.44479858875274658203e+00) (8, 5.72928249835968017578e-01) (9, 1.93095505237579345703e-01) (4, -6.52252316474914550781e-01) (5, -1.14571022987365722656e+00) (6, 1.73476004600524902344e+00) (7, 9.27505195140838623047e-01) (8, 1.84040799736976623535e-01) (9, 5.82544684410095214844e-01) (4, -1.92295819520950317383e-01) (5, -1.12990927696228027344e+00) (6, 1.02648651599884033203e+00) (7, 1.04606592655181884766e+00) (8, 1.56529688835144042969e+00) (9, 2.66826152801513671875e-01) 
