FANN_FLO_2.1
num_layers=3
learning_rate=0.100000
connection_rate=1.000000
network_type=0
learning_momentum=0.000000
training_algorithm=1
train_error_function=1
train_stop_function=0
cascade_output_change_fraction=0.010000
quickprop_decay=-0.000100
quickprop_mu=1.750000
rprop_increase_factor=1.200000
rprop_decrease_factor=0.500000
rprop_delta_min=0.000000
rprop_delta_max=50.000000
rprop_delta_zero=0.100000
cascade_output_stagnation_epochs=12
cascade_candidate_change_fraction=0.010000
cascade_candidate_stagnation_epochs=12
cascade_max_out_epochs=150
cascade_min_out_epochs=50
cascade_max_cand_epochs=150
cascade_min_cand_epochs=50
cascade_num_candidate_groups=2
bit_fail_limit=3.49999994039535522461e-01
cascade_candidate_limit=1.00000000000000000000e+03
cascade_weight_multiplier=4.00000005960464477539e-01
cascade_activation_functions_count=10
cascade_activation_functions=3 5 7 8 10 11 14 15 16 17 
cascade_activation_steepnesses_count=4
cascade_activation_steepnesses=2.50000000000000000000e-01 5.00000000000000000000e-01 7.50000000000000000000e-01 1.00000000000000000000e+00 
layer_sizes=4 6 4 
scale_included=1
scale_mean_in=0.197117 -0.002646 -0.039047 
scale_deviation_in=0.014769 0.018704 0.013615 
scale_new_min_in=-0.700000 -0.700000 -0.700000 
scale_factor_in=0.700000 0.700000 0.700000 
scale_mean_out=-1.584264 1.320013 -1.468466 
scale_deviation_out=0.095317 0.252811 0.371754 
scale_new_min_out=-0.700000 -0.700000 -0.700000 
scale_factor_out=0.700000 0.700000 0.700000 
neurons (num_inputs, activation_function, activation_steepness)=(0, 0, 0.00000000000000000000e+00) (0, 0, 0.00000000000000000000e+00) (0, 0, 0.00000000000000000000e+00) (0, 0, 0.00000000000000000000e+00) (4, 5, 5.00000000000000000000e-01) (4, 5, 5.00000000000000000000e-01) (4, 5, 5.00000000000000000000e-01) (4, 5, 5.00000000000000000000e-01) (4, 5, 5.00000000000000000000e-01) (0, 5, 0.00000000000000000000e+00) (6, 5, 5.00000000000000000000e-01) (6, 5, 5.00000000000000000000e-01) (6, 5, 5.00000000000000000000e-01) (0, 5, 0.00000000000000000000e+00) 
connections (connected_to_neuron, weight)=(0, 1.68130695819854736328e+00) (1, 1.05267500877380371094e+00) (2, -7.13425457477569580078e-01) (3, 2.15020608156919479370e-02) (0, 6.20867133140563964844e-01) (1, -6.77691698074340820312e-01) (2, 2.43424594402313232422e-01) (3, 5.96130609512329101562e-01) (0, -1.42834746837615966797e+00) (1, 8.85766565799713134766e-01) (2, -4.28991883993148803711e-01) (3, 1.46290019154548645020e-01) (0, -1.19032883644104003906e+00) (1, -7.33826577663421630859e-01) (2, -1.23553313314914703369e-01) (3, 3.05993497371673583984e-01) (0, 8.81582260131835937500e-01) (1, -1.35417628288269042969e+00) (2, -9.94217455387115478516e-01) (3, 4.06342111527919769287e-02) (4, 1.23514652252197265625e+00) (5, -8.75085055828094482422e-01) (6, 9.09328043460845947266e-01) (7, -8.92134606838226318359e-01) (8, -1.47022533416748046875e+00) (9, 2.97182500362396240234e-01) (4, -1.87948369979858398438e+00) (5, -4.82083946466445922852e-01) (6, 1.83708563446998596191e-01) (7, 1.36340305209159851074e-01) (8, -1.24655640125274658203e+00) (9, 1.95097967982292175293e-01) (4, -9.98155117034912109375e-01) (5, 2.90051214396953582764e-02) (6, 1.33465039730072021484e+00) (7, 1.08699917793273925781e+00) (8, -6.80838167667388916016e-01) (9, -1.15746855735778808594e-01) 
