FANN_FLO_2.1
num_layers=3
learning_rate=0.100000
connection_rate=1.000000
network_type=0
learning_momentum=0.000000
training_algorithm=1
train_error_function=1
train_stop_function=0
cascade_output_change_fraction=0.010000
quickprop_decay=-0.000100
quickprop_mu=1.750000
rprop_increase_factor=1.200000
rprop_decrease_factor=0.500000
rprop_delta_min=0.000000
rprop_delta_max=50.000000
rprop_delta_zero=0.100000
cascade_output_stagnation_epochs=12
cascade_candidate_change_fraction=0.010000
cascade_candidate_stagnation_epochs=12
cascade_max_out_epochs=150
cascade_min_out_epochs=50
cascade_max_cand_epochs=150
cascade_min_cand_epochs=50
cascade_num_candidate_groups=2
bit_fail_limit=3.49999994039535522461e-01
cascade_candidate_limit=1.00000000000000000000e+03
cascade_weight_multiplier=4.00000005960464477539e-01
cascade_activation_functions_count=10
cascade_activation_functions=3 5 7 8 10 11 14 15 16 17 
cascade_activation_steepnesses_count=4
cascade_activation_steepnesses=2.50000000000000000000e-01 5.00000000000000000000e-01 7.50000000000000000000e-01 1.00000000000000000000e+00 
layer_sizes=4 6 4 
scale_included=1
scale_mean_in=0.194463 -0.002574 -0.039082 
scale_deviation_in=0.018678 0.018688 0.013643 
scale_new_min_in=-1.000000 -1.000000 -1.000000 
scale_factor_in=1.000000 1.000000 1.000000 
scale_mean_out=-1.584112 1.351286 -1.420912 
scale_deviation_out=0.097281 0.285281 0.417881 
scale_new_min_out=-1.000000 -1.000000 -1.000000 
scale_factor_out=1.000000 1.000000 1.000000 
neurons (num_inputs, activation_function, activation_steepness)=(0, 0, 0.00000000000000000000e+00) (0, 0, 0.00000000000000000000e+00) (0, 0, 0.00000000000000000000e+00) (0, 0, 0.00000000000000000000e+00) (4, 5, 5.00000000000000000000e-01) (4, 5, 5.00000000000000000000e-01) (4, 5, 5.00000000000000000000e-01) (4, 5, 5.00000000000000000000e-01) (4, 5, 5.00000000000000000000e-01) (0, 5, 0.00000000000000000000e+00) (6, 5, 5.00000000000000000000e-01) (6, 5, 5.00000000000000000000e-01) (6, 5, 5.00000000000000000000e-01) (0, 5, 0.00000000000000000000e+00) 
connections (connected_to_neuron, weight)=(0, -1.31965494155883789062e+00) (1, 4.90922369062900543213e-02) (2, 1.08297795057296752930e-01) (3, 2.97796463966369628906e+00) (0, -9.92900943756103515625e+00) (1, 6.08641505241394042969e-02) (2, 3.53700327873229980469e+00) (3, -1.00116567611694335938e+01) (0, -2.59487390518188476562e-01) (1, 5.00503897666931152344e-01) (2, 3.34359884262084960938e-01) (3, 4.49056237936019897461e-01) (0, -4.00266945362091064453e-01) (1, -1.22952505946159362793e-01) (2, -3.17391812801361083984e-01) (3, 1.39189636707305908203e+00) (0, 1.79467499256134033203e-01) (1, 7.72165775299072265625e-01) (2, -4.09340709447860717773e-01) (3, -5.14820516109466552734e-01) (4, 7.60995149612426757812e-01) (5, 3.17383408546447753906e-02) (6, 4.97345972061157226562e+00) (7, -2.42891693115234375000e+00) (8, 5.62720632553100585938e+00) (9, 1.06450569629669189453e+00) (4, 7.84423446655273437500e+00) (5, 2.36261062622070312500e+01) (6, 8.47164726257324218750e+00) (7, 7.24532508850097656250e+00) (8, -4.99547958374023437500e+00) (9, 9.97081565856933593750e+00) (4, 8.87536621093750000000e+00) (5, 1.43481082916259765625e+01) (6, 3.89085984230041503906e+00) (7, 6.69915676116943359375e+00) (8, -1.91905832290649414062e+00) (9, 1.62787854671478271484e+00) 
