FANN_FLO_2.1
num_layers=3
learning_rate=0.100000
connection_rate=1.000000
network_type=0
learning_momentum=0.000000
training_algorithm=1
train_error_function=1
train_stop_function=0
cascade_output_change_fraction=0.010000
quickprop_decay=-0.000100
quickprop_mu=1.750000
rprop_increase_factor=1.200000
rprop_decrease_factor=0.500000
rprop_delta_min=0.000000
rprop_delta_max=50.000000
rprop_delta_zero=0.100000
cascade_output_stagnation_epochs=12
cascade_candidate_change_fraction=0.010000
cascade_candidate_stagnation_epochs=12
cascade_max_out_epochs=150
cascade_min_out_epochs=50
cascade_max_cand_epochs=150
cascade_min_cand_epochs=50
cascade_num_candidate_groups=2
bit_fail_limit=3.49999994039535522461e-01
cascade_candidate_limit=1.00000000000000000000e+03
cascade_weight_multiplier=4.00000005960464477539e-01
cascade_activation_functions_count=10
cascade_activation_functions=3 5 7 8 10 11 14 15 16 17 
cascade_activation_steepnesses_count=4
cascade_activation_steepnesses=2.50000000000000000000e-01 5.00000000000000000000e-01 7.50000000000000000000e-01 1.00000000000000000000e+00 
layer_sizes=4 6 4 
scale_included=1
scale_mean_in=0.194463 -0.002574 -0.039082 
scale_deviation_in=0.018678 0.018688 0.013643 
scale_new_min_in=-1.000000 -1.000000 -1.000000 
scale_factor_in=1.000000 1.000000 1.000000 
scale_mean_out=-1.584112 1.351286 -1.420912 
scale_deviation_out=0.097281 0.285281 0.417881 
scale_new_min_out=-1.000000 -1.000000 -1.000000 
scale_factor_out=1.000000 1.000000 1.000000 
neurons (num_inputs, activation_function, activation_steepness)=(0, 0, 0.00000000000000000000e+00) (0, 0, 0.00000000000000000000e+00) (0, 0, 0.00000000000000000000e+00) (0, 0, 0.00000000000000000000e+00) (4, 5, 5.00000000000000000000e-01) (4, 5, 5.00000000000000000000e-01) (4, 5, 5.00000000000000000000e-01) (4, 5, 5.00000000000000000000e-01) (4, 5, 5.00000000000000000000e-01) (0, 5, 0.00000000000000000000e+00) (6, 5, 5.00000000000000000000e-01) (6, 5, 5.00000000000000000000e-01) (6, 5, 5.00000000000000000000e-01) (0, 5, 0.00000000000000000000e+00) 
connections (connected_to_neuron, weight)=(0, 2.54650712013244628906e-01) (1, -5.91999828815460205078e-01) (2, -3.41542005538940429688e-01) (3, -4.00367349386215209961e-01) (0, -2.65389621257781982422e-01) (1, -7.17719018459320068359e-01) (2, 3.76101255416870117188e-01) (3, 3.17828565835952758789e-01) (0, 1.99830985069274902344e+00) (1, 7.37662687897682189941e-02) (2, -5.69628238677978515625e-01) (3, -3.68554019927978515625e+00) (0, -9.80431938171386718750e+00) (1, 1.01027034223079681396e-01) (2, 3.52164411544799804688e+00) (3, -9.94470405578613281250e+00) (0, 4.38201636075973510742e-01) (1, 1.14150089211761951447e-03) (2, 3.54668498039245605469e-01) (3, -1.55743575096130371094e+00) (4, -5.13046836853027343750e+00) (5, -5.42461538314819335938e+00) (6, -6.33943080902099609375e-01) (7, 7.48069956898689270020e-02) (8, 8.25934529304504394531e-01) (9, -1.28911748528480529785e-01) (4, -6.78885173797607421875e+00) (5, 5.42726755142211914062e+00) (6, -8.71641159057617187500e+00) (7, 2.30460071563720703125e+01) (8, -7.11177921295166015625e+00) (9, 8.74127006530761718750e+00) (4, -3.56569433212280273438e+00) (5, 2.73565006256103515625e+00) (6, -5.97496366500854492188e+00) (7, 1.46672859191894531250e+01) (8, -9.03401660919189453125e+00) (9, 2.65639591217041015625e+00) 
