FANN_FLO_2.1
num_layers=3
learning_rate=0.100000
connection_rate=1.000000
network_type=0
learning_momentum=0.000000
training_algorithm=1
train_error_function=1
train_stop_function=0
cascade_output_change_fraction=0.010000
quickprop_decay=-0.000100
quickprop_mu=1.750000
rprop_increase_factor=1.200000
rprop_decrease_factor=0.500000
rprop_delta_min=0.000000
rprop_delta_max=50.000000
rprop_delta_zero=0.100000
cascade_output_stagnation_epochs=12
cascade_candidate_change_fraction=0.010000
cascade_candidate_stagnation_epochs=12
cascade_max_out_epochs=150
cascade_min_out_epochs=50
cascade_max_cand_epochs=150
cascade_min_cand_epochs=50
cascade_num_candidate_groups=2
bit_fail_limit=3.49999994039535522461e-01
cascade_candidate_limit=1.00000000000000000000e+03
cascade_weight_multiplier=4.00000005960464477539e-01
cascade_activation_functions_count=10
cascade_activation_functions=3 5 7 8 10 11 14 15 16 17 
cascade_activation_steepnesses_count=4
cascade_activation_steepnesses=2.50000000000000000000e-01 5.00000000000000000000e-01 7.50000000000000000000e-01 1.00000000000000000000e+00 
layer_sizes=4 6 4 
scale_included=1
scale_mean_in=0.197051 -0.002551 -0.039074 
scale_deviation_in=0.014833 0.018688 0.013643 
scale_new_min_in=-1.000000 -1.000000 -1.000000 
scale_factor_in=1.000000 1.000000 1.000000 
scale_mean_out=-1.583762 1.320669 -1.467141 
scale_deviation_out=0.095229 0.253274 0.372286 
scale_new_min_out=-1.000000 -1.000000 -1.000000 
scale_factor_out=1.000000 1.000000 1.000000 
neurons (num_inputs, activation_function, activation_steepness)=(0, 0, 0.00000000000000000000e+00) (0, 0, 0.00000000000000000000e+00) (0, 0, 0.00000000000000000000e+00) (0, 0, 0.00000000000000000000e+00) (4, 5, 5.00000000000000000000e-01) (4, 5, 5.00000000000000000000e-01) (4, 5, 5.00000000000000000000e-01) (4, 5, 5.00000000000000000000e-01) (4, 5, 5.00000000000000000000e-01) (0, 5, 0.00000000000000000000e+00) (6, 5, 5.00000000000000000000e-01) (6, 5, 5.00000000000000000000e-01) (6, 5, 5.00000000000000000000e-01) (0, 5, 0.00000000000000000000e+00) 
connections (connected_to_neuron, weight)=(0, -2.87160813808441162109e-01) (1, 8.62705945968627929688e-01) (2, 2.59504556655883789062e-01) (3, -6.65211737155914306641e-01) (0, 1.05727291107177734375e+00) (1, 3.27448695898056030273e-01) (2, -1.65714472532272338867e-01) (3, 1.23299348354339599609e+00) (0, 5.09512042999267578125e+00) (1, 6.65986686944961547852e-02) (2, -1.01125788688659667969e+00) (3, -5.97838258743286132812e+00) (0, -2.88286924362182617188e-01) (1, -4.43236440420150756836e-01) (2, 7.12754249572753906250e-01) (3, -9.15988087654113769531e-02) (0, -5.82538664340972900391e-01) (1, 5.75538933277130126953e-01) (2, -6.35003522038459777832e-02) (3, 9.95266065001487731934e-02) (4, 4.58335638046264648438e+00) (5, 3.59582400321960449219e+00) (6, 5.66282868385314941406e-01) (7, -4.53552544116973876953e-01) (8, 3.68174648284912109375e+00) (9, -7.13114961981773376465e-02) (4, 1.05590678751468658447e-01) (5, -1.20210123062133789062e+00) (6, -4.90972995758056640625e+00) (7, 4.03785514831542968750e+00) (8, 3.63508224487304687500e+00) (9, -3.82464218139648437500e+00) (4, -3.78097116947174072266e-01) (5, -3.64136195182800292969e+00) (6, -6.11844730377197265625e+00) (7, 5.22268414497375488281e-01) (8, 2.62755274772644042969e+00) (9, -3.90628194808959960938e+00) 
