FANN_FLO_2.1
num_layers=3
learning_rate=0.100000
connection_rate=1.000000
network_type=0
learning_momentum=0.000000
training_algorithm=1
train_error_function=1
train_stop_function=0
cascade_output_change_fraction=0.010000
quickprop_decay=-0.000100
quickprop_mu=1.750000
rprop_increase_factor=1.200000
rprop_decrease_factor=0.500000
rprop_delta_min=0.000000
rprop_delta_max=50.000000
rprop_delta_zero=0.100000
cascade_output_stagnation_epochs=12
cascade_candidate_change_fraction=0.010000
cascade_candidate_stagnation_epochs=12
cascade_max_out_epochs=150
cascade_min_out_epochs=50
cascade_max_cand_epochs=150
cascade_min_cand_epochs=50
cascade_num_candidate_groups=2
bit_fail_limit=3.49999994039535522461e-01
cascade_candidate_limit=1.00000000000000000000e+03
cascade_weight_multiplier=4.00000005960464477539e-01
cascade_activation_functions_count=10
cascade_activation_functions=3 5 7 8 10 11 14 15 16 17 
cascade_activation_steepnesses_count=4
cascade_activation_steepnesses=2.50000000000000000000e-01 5.00000000000000000000e-01 7.50000000000000000000e-01 1.00000000000000000000e+00 
layer_sizes=4 6 4 
scale_included=1
scale_mean_in=0.000887 0.194173 0.077929 
scale_deviation_in=0.017215 0.002853 0.004611 
scale_new_min_in=-0.900000 -0.900000 -0.900000 
scale_factor_in=0.900000 0.900000 0.900000 
scale_mean_out=-0.004641 1.581717 -2.127404 
scale_deviation_out=0.088381 0.095395 0.158810 
scale_new_min_out=-0.900000 -0.900000 -0.900000 
scale_factor_out=0.900000 0.900000 0.900000 
neurons (num_inputs, activation_function, activation_steepness)=(0, 0, 0.00000000000000000000e+00) (0, 0, 0.00000000000000000000e+00) (0, 0, 0.00000000000000000000e+00) (0, 0, 0.00000000000000000000e+00) (4, 5, 5.00000000000000000000e-01) (4, 5, 5.00000000000000000000e-01) (4, 5, 5.00000000000000000000e-01) (4, 5, 5.00000000000000000000e-01) (4, 5, 5.00000000000000000000e-01) (0, 5, 0.00000000000000000000e+00) (6, 5, 5.00000000000000000000e-01) (6, 5, 5.00000000000000000000e-01) (6, 5, 5.00000000000000000000e-01) (0, 5, 0.00000000000000000000e+00) 
connections (connected_to_neuron, weight)=(0, -3.16828221082687377930e-01) (1, -7.69313037395477294922e-01) (2, -1.32923936843872070312e+00) (3, -1.50334596633911132812e-01) (0, -9.72174033522605895996e-02) (1, 1.32289516925811767578e+00) (2, 8.76690804958343505859e-01) (3, -2.03461140394210815430e-01) (0, -1.74506568908691406250e+00) (1, -3.06121826171875000000e-01) (2, 3.37894201278686523438e-01) (3, 4.20457869768142700195e-02) (0, 4.16931211948394775391e-01) (1, 1.57088756561279296875e+00) (2, 1.36502528190612792969e+00) (3, -4.98858064413070678711e-01) (0, 1.14331352710723876953e+00) (1, -8.72567534446716308594e-01) (2, -3.59637558460235595703e-01) (3, -3.24944466352462768555e-01) (4, 8.58812153339385986328e-01) (5, 4.36159938573837280273e-01) (6, 2.06185102462768554688e+00) (7, -4.30148899555206298828e-01) (8, -1.56631803512573242188e+00) (9, -2.29602754116058349609e-01) (4, 5.25761127471923828125e-01) (5, -1.25567209720611572266e+00) (6, 2.96251475811004638672e-01) (7, -1.78016960620880126953e+00) (8, 7.96451628208160400391e-01) (9, -1.93192839622497558594e-01) (4, 1.37160575389862060547e+00) (5, -1.02313733100891113281e+00) (6, -1.70498237013816833496e-01) (7, -1.66946756839752197266e+00) (8, 3.18773210048675537109e-01) (9, -1.41558274626731872559e-01) 
