FANN_FLO_2.1
num_layers=3
learning_rate=0.100000
connection_rate=1.000000
network_type=0
learning_momentum=0.000000
training_algorithm=1
train_error_function=1
train_stop_function=0
cascade_output_change_fraction=0.010000
quickprop_decay=-0.000100
quickprop_mu=1.750000
rprop_increase_factor=1.200000
rprop_decrease_factor=0.500000
rprop_delta_min=0.000000
rprop_delta_max=50.000000
rprop_delta_zero=0.100000
cascade_output_stagnation_epochs=12
cascade_candidate_change_fraction=0.010000
cascade_candidate_stagnation_epochs=12
cascade_max_out_epochs=150
cascade_min_out_epochs=50
cascade_max_cand_epochs=150
cascade_min_cand_epochs=50
cascade_num_candidate_groups=2
bit_fail_limit=3.49999994039535522461e-01
cascade_candidate_limit=1.00000000000000000000e+03
cascade_weight_multiplier=4.00000005960464477539e-01
cascade_activation_functions_count=10
cascade_activation_functions=3 5 7 8 10 11 14 15 16 17 
cascade_activation_steepnesses_count=4
cascade_activation_steepnesses=2.50000000000000000000e-01 5.00000000000000000000e-01 7.50000000000000000000e-01 1.00000000000000000000e+00 
layer_sizes=4 6 4 
scale_included=1
scale_mean_in=0.002328 0.074439 0.146679 
scale_deviation_in=0.018312 0.020856 0.010375 
scale_new_min_in=-0.900000 -0.900000 -0.900000 
scale_factor_in=0.900000 0.900000 0.900000 
scale_mean_out=-0.031297 2.669772 -1.677070 
scale_deviation_out=0.263724 0.245249 0.311387 
scale_new_min_out=-0.900000 -0.900000 -0.900000 
scale_factor_out=0.900000 0.900000 0.900000 
neurons (num_inputs, activation_function, activation_steepness)=(0, 0, 0.00000000000000000000e+00) (0, 0, 0.00000000000000000000e+00) (0, 0, 0.00000000000000000000e+00) (0, 0, 0.00000000000000000000e+00) (4, 5, 5.00000000000000000000e-01) (4, 5, 5.00000000000000000000e-01) (4, 5, 5.00000000000000000000e-01) (4, 5, 5.00000000000000000000e-01) (4, 5, 5.00000000000000000000e-01) (0, 5, 0.00000000000000000000e+00) (6, 5, 5.00000000000000000000e-01) (6, 5, 5.00000000000000000000e-01) (6, 5, 5.00000000000000000000e-01) (0, 5, 0.00000000000000000000e+00) 
connections (connected_to_neuron, weight)=(0, -9.73501443862915039062e-01) (1, 1.15837872028350830078e+00) (2, -1.13354280591011047363e-01) (3, 6.60112202167510986328e-01) (0, 7.90411531925201416016e-01) (1, 6.80651426315307617188e-01) (2, 1.56089138984680175781e+00) (3, -4.99789506196975708008e-01) (0, 6.39515280723571777344e-01) (1, 1.10084784030914306641e+00) (2, 7.61383473873138427734e-01) (3, -3.52879673242568969727e-01) (0, 1.77317821979522705078e+00) (1, 1.73840299248695373535e-01) (2, -6.36321663856506347656e-01) (3, 7.19236731529235839844e-01) (0, 5.09980082511901855469e-01) (1, -7.34990298748016357422e-01) (2, -1.14478206634521484375e+00) (3, 2.36059769988059997559e-01) (4, 1.17312049865722656250e+00) (5, -6.04534983634948730469e-01) (6, -7.01305150985717773438e-01) (7, -1.96540772914886474609e+00) (8, -2.47392103075981140137e-01) (9, 2.28641480207443237305e-02) (4, -8.26594233512878417969e-01) (5, -1.18918240070343017578e+00) (6, -1.59841525554656982422e+00) (7, 3.52154612541198730469e-01) (8, 1.12335753440856933594e+00) (9, -3.97182375192642211914e-01) (4, 2.64976710081100463867e-01) (5, -1.59180760383605957031e+00) (6, -8.92263412475585937500e-01) (7, 7.03903317451477050781e-01) (8, 1.39935803413391113281e+00) (9, -6.23333036899566650391e-01) 
