FANN_FLO_2.1
num_layers=3
learning_rate=0.100000
connection_rate=1.000000
network_type=0
learning_momentum=0.000000
training_algorithm=1
train_error_function=1
train_stop_function=0
cascade_output_change_fraction=0.010000
quickprop_decay=-0.000100
quickprop_mu=1.750000
rprop_increase_factor=1.200000
rprop_decrease_factor=0.500000
rprop_delta_min=0.000000
rprop_delta_max=50.000000
rprop_delta_zero=0.100000
cascade_output_stagnation_epochs=12
cascade_candidate_change_fraction=0.010000
cascade_candidate_stagnation_epochs=12
cascade_max_out_epochs=150
cascade_min_out_epochs=50
cascade_max_cand_epochs=150
cascade_min_cand_epochs=50
cascade_num_candidate_groups=2
bit_fail_limit=3.49999994039535522461e-01
cascade_candidate_limit=1.00000000000000000000e+03
cascade_weight_multiplier=4.00000005960464477539e-01
cascade_activation_functions_count=10
cascade_activation_functions=3 5 7 8 10 11 14 15 16 17 
cascade_activation_steepnesses_count=4
cascade_activation_steepnesses=2.50000000000000000000e-01 5.00000000000000000000e-01 7.50000000000000000000e-01 1.00000000000000000000e+00 
layer_sizes=4 6 4 
scale_included=1
scale_mean_in=0.127526 0.128035 0.042209 
scale_deviation_in=0.017792 0.020806 0.016357 
scale_new_min_in=-0.900000 -0.900000 -0.900000 
scale_factor_in=0.900000 0.900000 0.900000 
scale_mean_out=-0.785190 1.938338 -1.347396 
scale_deviation_out=0.112086 0.298513 0.386920 
scale_new_min_out=-0.900000 -0.900000 -0.900000 
scale_factor_out=0.900000 0.900000 0.900000 
neurons (num_inputs, activation_function, activation_steepness)=(0, 0, 0.00000000000000000000e+00) (0, 0, 0.00000000000000000000e+00) (0, 0, 0.00000000000000000000e+00) (0, 0, 0.00000000000000000000e+00) (4, 5, 5.00000000000000000000e-01) (4, 5, 5.00000000000000000000e-01) (4, 5, 5.00000000000000000000e-01) (4, 5, 5.00000000000000000000e-01) (4, 5, 5.00000000000000000000e-01) (0, 5, 0.00000000000000000000e+00) (6, 5, 5.00000000000000000000e-01) (6, 5, 5.00000000000000000000e-01) (6, 5, 5.00000000000000000000e-01) (0, 5, 0.00000000000000000000e+00) 
connections (connected_to_neuron, weight)=(0, -3.00279408693313598633e-01) (1, -1.13758575916290283203e+00) (2, -8.65893781185150146484e-01) (3, -2.05679282546043395996e-01) (0, 4.42910343408584594727e-02) (1, -1.11347222328186035156e+00) (2, -1.40920490026473999023e-01) (3, 7.34715014696121215820e-02) (0, 1.73826181888580322266e+00) (1, 6.61192685365676879883e-02) (2, 5.25874674320220947266e-01) (3, -2.62629151344299316406e-01) (0, -2.02838271856307983398e-01) (1, -1.86490750312805175781e+00) (2, -2.35817164182662963867e-01) (3, 4.20113205909729003906e-02) (0, -1.27203774452209472656e+00) (1, -5.00462591648101806641e-01) (2, 4.44320768117904663086e-01) (3, 1.06335341930389404297e-01) (4, -3.96458625793457031250e-01) (5, -1.22145032882690429688e+00) (6, -1.57046163082122802734e+00) (7, -1.19599843025207519531e+00) (8, 3.38791012763977050781e-01) (9, -1.13527536392211914062e-01) (4, -4.80993427336215972900e-02) (5, 2.19642862677574157715e-01) (6, -7.51316189765930175781e-01) (7, 1.86404073238372802734e+00) (8, 1.50455045700073242188e+00) (9, -1.34319514036178588867e-01) (4, 1.32746112346649169922e+00) (5, 1.19344425201416015625e+00) (6, -1.17900621891021728516e+00) (7, 4.77393686771392822266e-01) (8, 6.30384206771850585938e-01) (9, 1.89673155546188354492e-02) 
