FANN_FLO_2.1
num_layers=3
learning_rate=0.100000
connection_rate=1.000000
network_type=0
learning_momentum=0.000000
training_algorithm=1
train_error_function=1
train_stop_function=0
cascade_output_change_fraction=0.010000
quickprop_decay=-0.000100
quickprop_mu=1.750000
rprop_increase_factor=1.200000
rprop_decrease_factor=0.500000
rprop_delta_min=0.000000
rprop_delta_max=50.000000
rprop_delta_zero=0.100000
cascade_output_stagnation_epochs=12
cascade_candidate_change_fraction=0.010000
cascade_candidate_stagnation_epochs=12
cascade_max_out_epochs=150
cascade_min_out_epochs=50
cascade_max_cand_epochs=150
cascade_min_cand_epochs=50
cascade_num_candidate_groups=2
bit_fail_limit=3.49999994039535522461e-01
cascade_candidate_limit=1.00000000000000000000e+03
cascade_weight_multiplier=4.00000005960464477539e-01
cascade_activation_functions_count=10
cascade_activation_functions=3 5 7 8 10 11 14 15 16 17 
cascade_activation_steepnesses_count=4
cascade_activation_steepnesses=2.50000000000000000000e-01 5.00000000000000000000e-01 7.50000000000000000000e-01 1.00000000000000000000e+00 
layer_sizes=4 6 4 
scale_included=1
scale_mean_in=0.205711 -0.013150 -0.047270 
scale_deviation_in=0.009386 0.012605 0.009090 
scale_new_min_in=-1.000000 -1.000000 -1.000000 
scale_factor_in=1.000000 1.000000 1.000000 
scale_mean_out=-1.634665 1.132319 -1.689377 
scale_deviation_out=0.061292 0.190510 0.293878 
scale_new_min_out=-1.000000 -1.000000 -1.000000 
scale_factor_out=1.000000 1.000000 1.000000 
neurons (num_inputs, activation_function, activation_steepness)=(0, 0, 0.00000000000000000000e+00) (0, 0, 0.00000000000000000000e+00) (0, 0, 0.00000000000000000000e+00) (0, 0, 0.00000000000000000000e+00) (4, 5, 5.00000000000000000000e-01) (4, 5, 5.00000000000000000000e-01) (4, 5, 5.00000000000000000000e-01) (4, 5, 5.00000000000000000000e-01) (4, 5, 5.00000000000000000000e-01) (0, 5, 0.00000000000000000000e+00) (6, 5, 5.00000000000000000000e-01) (6, 5, 5.00000000000000000000e-01) (6, 5, 5.00000000000000000000e-01) (0, 5, 0.00000000000000000000e+00) 
connections (connected_to_neuron, weight)=(0, 8.75139310956001281738e-02) (1, 1.37228399515151977539e-01) (2, -2.31360673904418945312e-01) (3, -5.95780193805694580078e-01) (0, 5.87852776050567626953e-01) (1, -7.19340622425079345703e-01) (2, -4.99243378639221191406e-01) (3, -2.95977830886840820312e-01) (0, -8.72604548931121826172e-01) (1, 4.13019537925720214844e-01) (2, 4.10264134407043457031e-01) (3, 7.43094325065612792969e-01) (0, 1.06330990791320800781e+00) (1, 6.25148236751556396484e-01) (2, -8.33671271800994873047e-01) (3, 2.98358142375946044922e-01) (0, -1.25706183910369873047e+00) (1, 2.63996541500091552734e-01) (2, -1.91969737410545349121e-01) (3, 2.59319037199020385742e-01) (4, 3.36625456809997558594e-01) (5, -1.01539659500122070312e+00) (6, 9.68804478645324707031e-01) (7, 7.95655906200408935547e-01) (8, -3.07706534862518310547e-01) (9, -5.05112349987030029297e-01) (4, 7.35844314098358154297e-01) (5, -1.27810269594192504883e-01) (6, 6.49724423885345458984e-01) (7, -1.15363252162933349609e+00) (8, 1.08657205104827880859e+00) (9, -1.47260069847106933594e-01) (4, -5.13672828674316406250e-02) (5, -6.98514401912689208984e-01) (6, 1.06989130377769470215e-01) (7, -8.86545002460479736328e-01) (8, 8.55500817298889160156e-01) (9, -1.28533825278282165527e-01) 
