FANN_FLO_2.1
num_layers=3
learning_rate=0.100000
connection_rate=1.000000
network_type=0
learning_momentum=0.000000
training_algorithm=1
train_error_function=1
train_stop_function=0
cascade_output_change_fraction=0.010000
quickprop_decay=-0.000100
quickprop_mu=1.750000
rprop_increase_factor=1.200000
rprop_decrease_factor=0.500000
rprop_delta_min=0.000000
rprop_delta_max=50.000000
rprop_delta_zero=0.100000
cascade_output_stagnation_epochs=12
cascade_candidate_change_fraction=0.010000
cascade_candidate_stagnation_epochs=12
cascade_max_out_epochs=150
cascade_min_out_epochs=50
cascade_max_cand_epochs=150
cascade_min_cand_epochs=50
cascade_num_candidate_groups=2
bit_fail_limit=3.49999994039535522461e-01
cascade_candidate_limit=1.00000000000000000000e+03
cascade_weight_multiplier=4.00000005960464477539e-01
cascade_activation_functions_count=10
cascade_activation_functions=3 5 7 8 10 11 14 15 16 17 
cascade_activation_steepnesses_count=4
cascade_activation_steepnesses=2.50000000000000000000e-01 5.00000000000000000000e-01 7.50000000000000000000e-01 1.00000000000000000000e+00 
layer_sizes=4 6 4 
scale_included=1
scale_mean_in=0.205617 -0.013129 -0.047114 
scale_deviation_in=0.009434 0.012484 0.009131 
scale_new_min_in=-1.000000 -1.000000 -1.000000 
scale_factor_in=1.000000 1.000000 1.000000 
scale_mean_out=-1.634541 1.135917 -1.685094 
scale_deviation_out=0.060725 0.190902 0.292327 
scale_new_min_out=-1.000000 -1.000000 -1.000000 
scale_factor_out=1.000000 1.000000 1.000000 
neurons (num_inputs, activation_function, activation_steepness)=(0, 0, 0.00000000000000000000e+00) (0, 0, 0.00000000000000000000e+00) (0, 0, 0.00000000000000000000e+00) (0, 0, 0.00000000000000000000e+00) (4, 5, 5.00000000000000000000e-01) (4, 5, 5.00000000000000000000e-01) (4, 5, 5.00000000000000000000e-01) (4, 5, 5.00000000000000000000e-01) (4, 5, 5.00000000000000000000e-01) (0, 5, 0.00000000000000000000e+00) (6, 5, 5.00000000000000000000e-01) (6, 5, 5.00000000000000000000e-01) (6, 5, 5.00000000000000000000e-01) (0, 5, 0.00000000000000000000e+00) 
connections (connected_to_neuron, weight)=(0, 7.47144371271133422852e-02) (1, 2.94253796339035034180e-01) (2, 7.76436984539031982422e-01) (3, -8.62384378910064697266e-01) (0, 7.35512852668762207031e-01) (1, 1.04750335216522216797e+00) (2, -8.47418367862701416016e-01) (3, -6.00864030420780181885e-02) (0, 1.47829329967498779297e+00) (1, 1.87777370214462280273e-01) (2, 6.96406662464141845703e-01) (3, 5.27581214904785156250e-01) (0, -1.13324379920959472656e+00) (1, -2.19128787517547607422e-01) (2, 8.68050992488861083984e-01) (3, 3.16743165254592895508e-01) (0, 1.76344186067581176758e-01) (1, 6.42930090427398681641e-01) (2, -7.64174520969390869141e-01) (3, 2.17697262763977050781e-01) (4, 1.04509878158569335938e+00) (5, 1.07196557521820068359e+00) (6, 9.89251881837844848633e-02) (7, -1.11327273771166801453e-04) (8, 7.46869385242462158203e-01) (9, 4.30574059486389160156e-01) (4, 3.31308484077453613281e-01) (5, -2.52503424882888793945e-01) (6, -9.38808858394622802734e-01) (7, 1.03766667842864990234e+00) (8, -8.62155914306640625000e-01) (9, 2.39107534289360046387e-01) (4, -5.26968896389007568359e-01) (5, -1.07544827461242675781e+00) (6, -1.08976197242736816406e+00) (7, 1.18091034889221191406e+00) (8, 8.91340255737304687500e-01) (9, -4.21052604913711547852e-01) 
