FANN_FLO_2.1
num_layers=3
learning_rate=0.100000
connection_rate=1.000000
network_type=0
learning_momentum=0.000000
training_algorithm=1
train_error_function=1
train_stop_function=0
cascade_output_change_fraction=0.010000
quickprop_decay=-0.000100
quickprop_mu=1.750000
rprop_increase_factor=1.200000
rprop_decrease_factor=0.500000
rprop_delta_min=0.000000
rprop_delta_max=50.000000
rprop_delta_zero=0.100000
cascade_output_stagnation_epochs=12
cascade_candidate_change_fraction=0.010000
cascade_candidate_stagnation_epochs=12
cascade_max_out_epochs=150
cascade_min_out_epochs=50
cascade_max_cand_epochs=150
cascade_min_cand_epochs=50
cascade_num_candidate_groups=2
bit_fail_limit=3.49999994039535522461e-01
cascade_candidate_limit=1.00000000000000000000e+03
cascade_weight_multiplier=4.00000005960464477539e-01
cascade_activation_functions_count=10
cascade_activation_functions=3 5 7 8 10 11 14 15 16 17 
cascade_activation_steepnesses_count=4
cascade_activation_steepnesses=2.50000000000000000000e-01 5.00000000000000000000e-01 7.50000000000000000000e-01 1.00000000000000000000e+00 
layer_sizes=4 6 4 
scale_included=1
scale_mean_in=0.202335 -0.013178 -0.047141 
scale_deviation_in=0.013866 0.012489 0.009126 
scale_new_min_in=-1.000000 -1.000000 -1.000000 
scale_factor_in=1.000000 1.000000 1.000000 
scale_mean_out=-1.636023 1.178605 -1.615434 
scale_deviation_out=0.062161 0.228080 0.355059 
scale_new_min_out=-1.000000 -1.000000 -1.000000 
scale_factor_out=1.000000 1.000000 1.000000 
neurons (num_inputs, activation_function, activation_steepness)=(0, 0, 0.00000000000000000000e+00) (0, 0, 0.00000000000000000000e+00) (0, 0, 0.00000000000000000000e+00) (0, 0, 0.00000000000000000000e+00) (4, 5, 5.00000000000000000000e-01) (4, 5, 5.00000000000000000000e-01) (4, 5, 5.00000000000000000000e-01) (4, 5, 5.00000000000000000000e-01) (4, 5, 5.00000000000000000000e-01) (0, 5, 0.00000000000000000000e+00) (6, 5, 5.00000000000000000000e-01) (6, 5, 5.00000000000000000000e-01) (6, 5, 5.00000000000000000000e-01) (0, 5, 0.00000000000000000000e+00) 
connections (connected_to_neuron, weight)=(0, 8.49465429782867431641e-02) (1, -1.29530167579650878906e+00) (2, -2.76165962219238281250e-01) (3, -4.74820077419281005859e-01) (0, -1.02752602100372314453e+00) (1, 8.39028894901275634766e-01) (2, 3.49329888820648193359e-01) (3, -1.75027817487716674805e-01) (0, 7.59613037109375000000e-01) (1, 5.22171072661876678467e-02) (2, 1.16881303489208221436e-01) (3, 4.54430222511291503906e-01) (0, 1.03947806358337402344e+00) (1, -3.68804812431335449219e-01) (2, -2.92716354131698608398e-01) (3, -6.04596674442291259766e-01) (0, 1.13964402675628662109e+00) (1, -1.67740330100059509277e-01) (2, -4.76323574781417846680e-01) (3, 7.49169886112213134766e-01) (4, -1.25500166416168212891e+00) (5, 5.29561758041381835938e-01) (6, 5.38216710090637207031e-01) (7, -9.35548692941665649414e-02) (8, -2.26203426718711853027e-02) (9, -3.64894837141036987305e-01) (4, -4.40832898020744323730e-02) (5, 9.90681588649749755859e-01) (6, -1.53141647577285766602e-01) (7, -1.30151307582855224609e+00) (8, -2.12819337844848632812e-01) (9, -2.88817286491394042969e-01) (4, -3.45077544450759887695e-01) (5, -1.76093369722366333008e-01) (6, -8.36294531822204589844e-01) (7, -6.26126527786254882812e-01) (8, -1.55552220344543457031e+00) (9, 3.69144469499588012695e-01) 
