FANN_FLO_2.1
num_layers=3
learning_rate=0.100000
connection_rate=1.000000
network_type=0
learning_momentum=0.000000
training_algorithm=1
train_error_function=1
train_stop_function=0
cascade_output_change_fraction=0.010000
quickprop_decay=-0.000100
quickprop_mu=1.750000
rprop_increase_factor=1.200000
rprop_decrease_factor=0.500000
rprop_delta_min=0.000000
rprop_delta_max=50.000000
rprop_delta_zero=0.100000
cascade_output_stagnation_epochs=12
cascade_candidate_change_fraction=0.010000
cascade_candidate_stagnation_epochs=12
cascade_max_out_epochs=150
cascade_min_out_epochs=50
cascade_max_cand_epochs=150
cascade_min_cand_epochs=50
cascade_num_candidate_groups=2
bit_fail_limit=3.49999994039535522461e-01
cascade_candidate_limit=1.00000000000000000000e+03
cascade_weight_multiplier=4.00000005960464477539e-01
cascade_activation_functions_count=10
cascade_activation_functions=3 5 7 8 10 11 14 15 16 17 
cascade_activation_steepnesses_count=4
cascade_activation_steepnesses=2.50000000000000000000e-01 5.00000000000000000000e-01 7.50000000000000000000e-01 1.00000000000000000000e+00 
layer_sizes=4 6 4 
scale_included=1
scale_mean_in=0.203066 -0.013160 -0.047137 
scale_deviation_in=0.013090 0.012487 0.009129 
scale_new_min_in=-1.000000 -1.000000 -1.000000 
scale_factor_in=1.000000 1.000000 1.000000 
scale_mean_out=-1.635651 1.169046 -1.630999 
scale_deviation_out=0.061836 0.221084 0.343423 
scale_new_min_out=-1.000000 -1.000000 -1.000000 
scale_factor_out=1.000000 1.000000 1.000000 
neurons (num_inputs, activation_function, activation_steepness)=(0, 0, 0.00000000000000000000e+00) (0, 0, 0.00000000000000000000e+00) (0, 0, 0.00000000000000000000e+00) (0, 0, 0.00000000000000000000e+00) (4, 5, 5.00000000000000000000e-01) (4, 5, 5.00000000000000000000e-01) (4, 5, 5.00000000000000000000e-01) (4, 5, 5.00000000000000000000e-01) (4, 5, 5.00000000000000000000e-01) (0, 5, 0.00000000000000000000e+00) (6, 5, 5.00000000000000000000e-01) (6, 5, 5.00000000000000000000e-01) (6, 5, 5.00000000000000000000e-01) (0, 5, 0.00000000000000000000e+00) 
connections (connected_to_neuron, weight)=(0, 7.42182731628417968750e-01) (1, 3.54965716600418090820e-01) (2, 3.94494891166687011719e-01) (3, 8.11982929706573486328e-01) (0, 1.20750415325164794922e+00) (1, -7.70139694213867187500e-01) (2, 1.01422563195228576660e-01) (3, 6.02621734142303466797e-01) (0, -7.08971202373504638672e-01) (1, 1.41771644353866577148e-01) (2, 1.82819992303848266602e-01) (3, 2.43760839104652404785e-01) (0, -9.93013560771942138672e-01) (1, -4.27416920661926269531e-01) (2, 6.45761430263519287109e-01) (3, -8.03985819220542907715e-02) (0, 4.44341957569122314453e-01) (1, -1.27295267581939697266e+00) (2, -1.90607711672782897949e-01) (3, 6.47793889045715332031e-01) (4, -1.76313012838363647461e-01) (5, -6.84161901473999023438e-01) (6, -1.64755523204803466797e-01) (7, -9.01170551776885986328e-01) (8, -1.14029729366302490234e+00) (9, 3.56800049543380737305e-01) (4, -8.37217628955841064453e-01) (5, -8.06383609771728515625e-01) (6, 2.71484881639480590820e-01) (7, 5.66185772418975830078e-01) (8, -6.54807031154632568359e-01) (9, 5.91069638729095458984e-01) (4, -8.70670795440673828125e-01) (5, -8.36081802845001220703e-01) (6, 7.32262551784515380859e-01) (7, 1.19889402389526367188e+00) (8, -1.63462638854980468750e-01) (9, 3.51406097412109375000e-01) 
