FANN_FLO_2.1
num_layers=3
learning_rate=0.100000
connection_rate=1.000000
network_type=0
learning_momentum=0.000000
training_algorithm=1
train_error_function=1
train_stop_function=0
cascade_output_change_fraction=0.010000
quickprop_decay=-0.000100
quickprop_mu=1.750000
rprop_increase_factor=1.200000
rprop_decrease_factor=0.500000
rprop_delta_min=0.000000
rprop_delta_max=50.000000
rprop_delta_zero=0.100000
cascade_output_stagnation_epochs=12
cascade_candidate_change_fraction=0.010000
cascade_candidate_stagnation_epochs=12
cascade_max_out_epochs=150
cascade_min_out_epochs=50
cascade_max_cand_epochs=150
cascade_min_cand_epochs=50
cascade_num_candidate_groups=2
bit_fail_limit=3.49999994039535522461e-01
cascade_candidate_limit=1.00000000000000000000e+03
cascade_weight_multiplier=4.00000005960464477539e-01
cascade_activation_functions_count=10
cascade_activation_functions=3 5 7 8 10 11 14 15 16 17 
cascade_activation_steepnesses_count=4
cascade_activation_steepnesses=2.50000000000000000000e-01 5.00000000000000000000e-01 7.50000000000000000000e-01 1.00000000000000000000e+00 
layer_sizes=4 6 4 
scale_included=1
scale_mean_in=0.202335 -0.013178 -0.047141 
scale_deviation_in=0.013866 0.012489 0.009126 
scale_new_min_in=-1.000000 -1.000000 -1.000000 
scale_factor_in=1.000000 1.000000 1.000000 
scale_mean_out=-1.636023 1.178605 -1.615434 
scale_deviation_out=0.062161 0.228080 0.355059 
scale_new_min_out=-1.000000 -1.000000 -1.000000 
scale_factor_out=1.000000 1.000000 1.000000 
neurons (num_inputs, activation_function, activation_steepness)=(0, 0, 0.00000000000000000000e+00) (0, 0, 0.00000000000000000000e+00) (0, 0, 0.00000000000000000000e+00) (0, 0, 0.00000000000000000000e+00) (4, 5, 5.00000000000000000000e-01) (4, 5, 5.00000000000000000000e-01) (4, 5, 5.00000000000000000000e-01) (4, 5, 5.00000000000000000000e-01) (4, 5, 5.00000000000000000000e-01) (0, 5, 0.00000000000000000000e+00) (6, 5, 5.00000000000000000000e-01) (6, 5, 5.00000000000000000000e-01) (6, 5, 5.00000000000000000000e-01) (0, 5, 0.00000000000000000000e+00) 
connections (connected_to_neuron, weight)=(0, -1.17549145221710205078e+00) (1, -3.08679819107055664062e-01) (2, 5.01829445362091064453e-01) (3, -3.25126618146896362305e-01) (0, 1.03853547573089599609e+00) (1, -6.27396643161773681641e-01) (2, 7.85580992698669433594e-01) (3, -9.17970061302185058594e-01) (0, -9.45186495780944824219e-01) (1, 2.46635109186172485352e-01) (2, 7.24503576755523681641e-01) (3, 3.53051751852035522461e-01) (0, -5.16912460327148437500e-01) (1, -8.08382332324981689453e-01) (2, -2.25090980529785156250e-01) (3, -2.33825787901878356934e-01) (0, 3.48744213581085205078e-01) (1, -3.48337799310684204102e-01) (2, -3.92179846763610839844e-01) (3, 1.88973233103752136230e-01) (4, -9.07099485397338867188e-01) (5, -8.37408721446990966797e-01) (6, 6.94355070590972900391e-01) (7, -1.24893736839294433594e+00) (8, -2.06419244408607482910e-01) (9, -6.81033194065093994141e-01) (4, 4.85661447048187255859e-01) (5, -5.78726410865783691406e-01) (6, 1.63599491119384765625e+00) (7, 3.64333838224411010742e-02) (8, 3.35853368043899536133e-01) (9, -3.68790000677108764648e-01) (4, 1.16719830036163330078e+00) (5, -2.75543957948684692383e-01) (6, 1.50554388761520385742e-01) (7, 8.49305093288421630859e-01) (8, -1.05867528915405273438e+00) (9, 1.25176548957824707031e-01) 
