FANN_FLO_2.1
num_layers=3
learning_rate=0.100000
connection_rate=1.000000
network_type=0
learning_momentum=0.000000
training_algorithm=1
train_error_function=1
train_stop_function=0
cascade_output_change_fraction=0.010000
quickprop_decay=-0.000100
quickprop_mu=1.750000
rprop_increase_factor=1.200000
rprop_decrease_factor=0.500000
rprop_delta_min=0.000000
rprop_delta_max=50.000000
rprop_delta_zero=0.100000
cascade_output_stagnation_epochs=12
cascade_candidate_change_fraction=0.010000
cascade_candidate_stagnation_epochs=12
cascade_max_out_epochs=150
cascade_min_out_epochs=50
cascade_max_cand_epochs=150
cascade_min_cand_epochs=50
cascade_num_candidate_groups=2
bit_fail_limit=3.49999994039535522461e-01
cascade_candidate_limit=1.00000000000000000000e+03
cascade_weight_multiplier=4.00000005960464477539e-01
cascade_activation_functions_count=10
cascade_activation_functions=3 5 7 8 10 11 14 15 16 17 
cascade_activation_steepnesses_count=4
cascade_activation_steepnesses=2.50000000000000000000e-01 5.00000000000000000000e-01 7.50000000000000000000e-01 1.00000000000000000000e+00 
layer_sizes=4 6 4 
scale_included=1
scale_mean_in=0.205620 -0.013086 -0.047136 
scale_deviation_in=0.009412 0.012541 0.009103 
scale_new_min_in=-1.000000 -1.000000 -1.000000 
scale_factor_in=1.000000 1.000000 1.000000 
scale_mean_out=-1.634334 1.135832 -1.684958 
scale_deviation_out=0.060990 0.189638 0.291350 
scale_new_min_out=-1.000000 -1.000000 -1.000000 
scale_factor_out=1.000000 1.000000 1.000000 
neurons (num_inputs, activation_function, activation_steepness)=(0, 0, 0.00000000000000000000e+00) (0, 0, 0.00000000000000000000e+00) (0, 0, 0.00000000000000000000e+00) (0, 0, 0.00000000000000000000e+00) (4, 5, 5.00000000000000000000e-01) (4, 5, 5.00000000000000000000e-01) (4, 5, 5.00000000000000000000e-01) (4, 5, 5.00000000000000000000e-01) (4, 5, 5.00000000000000000000e-01) (0, 5, 0.00000000000000000000e+00) (6, 5, 5.00000000000000000000e-01) (6, 5, 5.00000000000000000000e-01) (6, 5, 5.00000000000000000000e-01) (0, 5, 0.00000000000000000000e+00) 
connections (connected_to_neuron, weight)=(0, 1.08862131834030151367e-01) (1, 6.57881259918212890625e-01) (2, -3.02795767784118652344e-01) (3, 8.13135743141174316406e-01) (0, 1.62338125705718994141e+00) (1, 6.24615788459777832031e-01) (2, 3.98700684309005737305e-02) (3, 8.60293433070182800293e-02) (0, 1.16237425804138183594e+00) (1, -5.48292100429534912109e-01) (2, -7.08761453628540039062e-01) (3, 5.43709754943847656250e-01) (0, 4.33201700448989868164e-01) (1, 4.61045920848846435547e-01) (2, 1.00959444046020507812e+00) (3, 2.18854248523712158203e-02) (0, 4.12686675786972045898e-01) (1, 3.32158058881759643555e-01) (2, 6.08546912670135498047e-01) (3, 8.61356914043426513672e-01) (4, 8.79024505615234375000e-01) (5, 6.28455340862274169922e-01) (6, -5.37916183471679687500e-01) (7, -2.28782109916210174561e-02) (8, 5.32561004161834716797e-01) (9, -3.91960263252258300781e-01) (4, -5.30541360378265380859e-01) (5, -1.06190967559814453125e+00) (6, -1.57983517646789550781e+00) (7, -2.00600147247314453125e-01) (8, 7.35580384731292724609e-01) (9, 2.78285503387451171875e-01) (4, 4.58301842212677001953e-01) (5, -1.34760951995849609375e+00) (6, -6.66566789150238037109e-01) (7, 2.40357711911201477051e-01) (8, -7.11219251155853271484e-01) (9, 1.00645795464515686035e-01) 
