FANN_FLO_2.1
num_layers=3
learning_rate=0.100000
connection_rate=1.000000
network_type=0
learning_momentum=0.000000
training_algorithm=1
train_error_function=1
train_stop_function=0
cascade_output_change_fraction=0.010000
quickprop_decay=-0.000100
quickprop_mu=1.750000
rprop_increase_factor=1.200000
rprop_decrease_factor=0.500000
rprop_delta_min=0.000000
rprop_delta_max=50.000000
rprop_delta_zero=0.100000
cascade_output_stagnation_epochs=12
cascade_candidate_change_fraction=0.010000
cascade_candidate_stagnation_epochs=12
cascade_max_out_epochs=150
cascade_min_out_epochs=50
cascade_max_cand_epochs=150
cascade_min_cand_epochs=50
cascade_num_candidate_groups=2
bit_fail_limit=3.49999994039535522461e-01
cascade_candidate_limit=1.00000000000000000000e+03
cascade_weight_multiplier=4.00000005960464477539e-01
cascade_activation_functions_count=10
cascade_activation_functions=3 5 7 8 10 11 14 15 16 17 
cascade_activation_steepnesses_count=4
cascade_activation_steepnesses=2.50000000000000000000e-01 5.00000000000000000000e-01 7.50000000000000000000e-01 1.00000000000000000000e+00 
layer_sizes=4 6 4 
scale_included=1
scale_mean_in=0.202335 -0.013178 -0.047141 
scale_deviation_in=0.013866 0.012489 0.009126 
scale_new_min_in=-1.000000 -1.000000 -1.000000 
scale_factor_in=1.000000 1.000000 1.000000 
scale_mean_out=-1.636023 1.178605 -1.615434 
scale_deviation_out=0.062161 0.228080 0.355059 
scale_new_min_out=-1.000000 -1.000000 -1.000000 
scale_factor_out=1.000000 1.000000 1.000000 
neurons (num_inputs, activation_function, activation_steepness)=(0, 0, 0.00000000000000000000e+00) (0, 0, 0.00000000000000000000e+00) (0, 0, 0.00000000000000000000e+00) (0, 0, 0.00000000000000000000e+00) (4, 5, 5.00000000000000000000e-01) (4, 5, 5.00000000000000000000e-01) (4, 5, 5.00000000000000000000e-01) (4, 5, 5.00000000000000000000e-01) (4, 5, 5.00000000000000000000e-01) (0, 5, 0.00000000000000000000e+00) (6, 5, 5.00000000000000000000e-01) (6, 5, 5.00000000000000000000e-01) (6, 5, 5.00000000000000000000e-01) (0, 5, 0.00000000000000000000e+00) 
connections (connected_to_neuron, weight)=(0, 8.86347591876983642578e-01) (1, -1.31517720222473144531e+00) (2, 2.18127533793449401855e-01) (3, 4.62359637022018432617e-01) (0, -1.34149122238159179688e+00) (1, -6.17675743997097015381e-02) (2, 3.12316566705703735352e-01) (3, 6.77747189998626708984e-01) (0, -6.37710094451904296875e-01) (1, -7.34483301639556884766e-01) (2, -1.06702908873558044434e-01) (3, 8.95874276757240295410e-02) (0, -1.01392853260040283203e+00) (1, 3.41347545385360717773e-01) (2, 4.32562351226806640625e-01) (3, 6.35531187057495117188e-01) (0, -1.02571201324462890625e+00) (1, 2.59108155965805053711e-01) (2, 1.56645014882087707520e-01) (3, -4.50753301382064819336e-01) (4, -1.47700405120849609375e+00) (5, -1.00102603435516357422e-01) (6, -8.89463186264038085938e-01) (7, -6.34236514568328857422e-01) (8, -3.61361682415008544922e-01) (9, 4.40084487199783325195e-01) (4, -6.52598440647125244141e-01) (5, 1.42503872513771057129e-01) (6, 7.24868059158325195312e-01) (7, 5.95447719097137451172e-01) (8, 1.12623608112335205078e+00) (9, 1.62952467799186706543e-01) (4, -3.94439131021499633789e-01) (5, 9.32031989097595214844e-01) (6, 1.37529417872428894043e-01) (7, 6.20796859264373779297e-01) (8, 3.20326119661331176758e-01) (9, -1.13375438377261161804e-03) 
