FANN_FLO_2.1
num_layers=3
learning_rate=0.100000
connection_rate=1.000000
network_type=0
learning_momentum=0.000000
training_algorithm=1
train_error_function=1
train_stop_function=0
cascade_output_change_fraction=0.010000
quickprop_decay=-0.000100
quickprop_mu=1.750000
rprop_increase_factor=1.200000
rprop_decrease_factor=0.500000
rprop_delta_min=0.000000
rprop_delta_max=50.000000
rprop_delta_zero=0.100000
cascade_output_stagnation_epochs=12
cascade_candidate_change_fraction=0.010000
cascade_candidate_stagnation_epochs=12
cascade_max_out_epochs=150
cascade_min_out_epochs=50
cascade_max_cand_epochs=150
cascade_min_cand_epochs=50
cascade_num_candidate_groups=2
bit_fail_limit=3.49999994039535522461e-01
cascade_candidate_limit=1.00000000000000000000e+03
cascade_weight_multiplier=4.00000005960464477539e-01
cascade_activation_functions_count=10
cascade_activation_functions=3 5 7 8 10 11 14 15 16 17 
cascade_activation_steepnesses_count=4
cascade_activation_steepnesses=2.50000000000000000000e-01 5.00000000000000000000e-01 7.50000000000000000000e-01 1.00000000000000000000e+00 
layer_sizes=4 6 4 
scale_included=1
scale_mean_in=0.150743 0.153191 0.012483 
scale_deviation_in=0.007405 0.007254 0.010734 
scale_new_min_in=-0.900000 -0.900000 -0.900000 
scale_factor_in=0.900000 0.900000 0.900000 
scale_mean_out=-0.777330 1.305748 -1.958933 
scale_deviation_out=0.040644 0.154571 0.226613 
scale_new_min_out=-0.900000 -0.900000 -0.900000 
scale_factor_out=0.900000 0.900000 0.900000 
neurons (num_inputs, activation_function, activation_steepness)=(0, 0, 0.00000000000000000000e+00) (0, 0, 0.00000000000000000000e+00) (0, 0, 0.00000000000000000000e+00) (0, 0, 0.00000000000000000000e+00) (4, 5, 5.00000000000000000000e-01) (4, 5, 5.00000000000000000000e-01) (4, 5, 5.00000000000000000000e-01) (4, 5, 5.00000000000000000000e-01) (4, 5, 5.00000000000000000000e-01) (0, 5, 0.00000000000000000000e+00) (6, 5, 5.00000000000000000000e-01) (6, 5, 5.00000000000000000000e-01) (6, 5, 5.00000000000000000000e-01) (0, 5, 0.00000000000000000000e+00) 
connections (connected_to_neuron, weight)=(0, 3.51685225963592529297e-01) (1, 1.06986522674560546875e+00) (2, 3.17225188016891479492e-01) (3, -7.40430474281311035156e-01) (0, 2.73309922218322753906e+00) (1, 2.34103059768676757812e+00) (2, 9.54512059688568115234e-01) (3, -3.45300602912902832031e+00) (0, 5.33020019531250000000e-01) (1, 3.46660912036895751953e-01) (2, -8.48710894584655761719e-01) (3, -5.08966147899627685547e-01) (0, -5.99011182785034179688e-02) (1, -6.89351916313171386719e-01) (2, -4.62397009134292602539e-01) (3, -4.24880564212799072266e-01) (0, -1.01167678833007812500e+00) (1, -3.09543520212173461914e-01) (2, -4.74644452333450317383e-01) (3, -2.49749243259429931641e-01) (4, 3.97955107688903808594e+00) (5, -1.09891343116760253906e+00) (6, 2.52037867903709411621e-02) (7, -2.82371544837951660156e+00) (8, 4.57197475433349609375e+00) (9, 3.77790600061416625977e-01) (4, -3.06350541114807128906e+00) (5, -2.97777843475341796875e+00) (6, -3.24207568168640136719e+00) (7, -1.02719895541667938232e-01) (8, 1.58704805374145507812e+00) (9, -3.83035659790039062500e+00) (4, -2.59241294860839843750e+00) (5, -3.20574426651000976562e+00) (6, -1.39668262004852294922e+00) (7, 1.28390347957611083984e+00) (8, 2.81087374687194824219e+00) (9, -3.06844687461853027344e+00) 
