FANN_FLO_2.1
num_layers=3
learning_rate=0.100000
connection_rate=1.000000
network_type=0
learning_momentum=0.000000
training_algorithm=1
train_error_function=1
train_stop_function=0
cascade_output_change_fraction=0.010000
quickprop_decay=-0.000100
quickprop_mu=1.750000
rprop_increase_factor=1.200000
rprop_decrease_factor=0.500000
rprop_delta_min=0.000000
rprop_delta_max=50.000000
rprop_delta_zero=0.100000
cascade_output_stagnation_epochs=12
cascade_candidate_change_fraction=0.010000
cascade_candidate_stagnation_epochs=12
cascade_max_out_epochs=150
cascade_min_out_epochs=50
cascade_max_cand_epochs=150
cascade_min_cand_epochs=50
cascade_num_candidate_groups=2
bit_fail_limit=3.49999994039535522461e-01
cascade_candidate_limit=1.00000000000000000000e+03
cascade_weight_multiplier=4.00000005960464477539e-01
cascade_activation_functions_count=10
cascade_activation_functions=3 5 7 8 10 11 14 15 16 17 
cascade_activation_steepnesses_count=4
cascade_activation_steepnesses=2.50000000000000000000e-01 5.00000000000000000000e-01 7.50000000000000000000e-01 1.00000000000000000000e+00 
layer_sizes=4 6 4 
scale_included=1
scale_mean_in=0.118732 0.017719 0.052334 
scale_deviation_in=0.012254 0.014490 0.011026 
scale_new_min_in=-0.900000 -0.900000 -0.900000 
scale_factor_in=0.900000 0.900000 0.900000 
scale_mean_out=-1.423103 2.875794 -0.504133 
scale_deviation_out=0.121197 0.194217 0.171575 
scale_new_min_out=-0.900000 -0.900000 -0.900000 
scale_factor_out=0.900000 0.900000 0.900000 
neurons (num_inputs, activation_function, activation_steepness)=(0, 0, 0.00000000000000000000e+00) (0, 0, 0.00000000000000000000e+00) (0, 0, 0.00000000000000000000e+00) (0, 0, 0.00000000000000000000e+00) (4, 5, 5.00000000000000000000e-01) (4, 5, 5.00000000000000000000e-01) (4, 5, 5.00000000000000000000e-01) (4, 5, 5.00000000000000000000e-01) (4, 5, 5.00000000000000000000e-01) (0, 5, 0.00000000000000000000e+00) (6, 5, 5.00000000000000000000e-01) (6, 5, 5.00000000000000000000e-01) (6, 5, 5.00000000000000000000e-01) (0, 5, 0.00000000000000000000e+00) 
connections (connected_to_neuron, weight)=(0, -1.02544391155242919922e+00) (1, 1.40646553039550781250e+00) (2, -2.70383715629577636719e-01) (3, -1.04991588741540908813e-02) (0, 4.85818386077880859375e-01) (1, 1.76954257488250732422e+00) (2, -1.62093833088874816895e-01) (3, -2.07388639450073242188e-01) (0, -1.51618623733520507812e+00) (1, -6.97755515575408935547e-01) (2, -5.58994352817535400391e-01) (3, 2.77535855770111083984e-01) (0, -8.54705274105072021484e-01) (1, 5.51133036613464355469e-01) (2, 1.11596095561981201172e+00) (3, 2.24937438964843750000e-01) (0, 1.32551598548889160156e+00) (1, -8.39175060391426086426e-02) (2, 9.59292769432067871094e-01) (3, 3.23609322309494018555e-01) (4, 1.77022826671600341797e+00) (5, 2.08855247497558593750e+00) (6, -8.21186542510986328125e-01) (7, 7.58209407329559326172e-01) (8, -4.98983860015869140625e-01) (9, 2.35229387879371643066e-01) (4, 6.79158091545104980469e-01) (5, -9.89925146102905273438e-01) (6, 2.01846337318420410156e+00) (7, 1.54259586334228515625e+00) (8, -1.12639689445495605469e+00) (9, -3.49584698677062988281e-01) (4, 8.18404138088226318359e-01) (5, -3.55412840843200683594e-01) (6, 1.63217401504516601562e+00) (7, -1.07338452339172363281e+00) (8, -2.01174831390380859375e+00) (9, 1.25293925404548645020e-01) 
