FANN_FLO_2.1
num_layers=3
learning_rate=0.100000
connection_rate=1.000000
network_type=0
learning_momentum=0.000000
training_algorithm=1
train_error_function=1
train_stop_function=0
cascade_output_change_fraction=0.010000
quickprop_decay=-0.000100
quickprop_mu=1.750000
rprop_increase_factor=1.200000
rprop_decrease_factor=0.500000
rprop_delta_min=0.000000
rprop_delta_max=50.000000
rprop_delta_zero=0.100000
cascade_output_stagnation_epochs=12
cascade_candidate_change_fraction=0.010000
cascade_candidate_stagnation_epochs=12
cascade_max_out_epochs=150
cascade_min_out_epochs=50
cascade_max_cand_epochs=150
cascade_min_cand_epochs=50
cascade_num_candidate_groups=2
bit_fail_limit=3.49999994039535522461e-01
cascade_candidate_limit=1.00000000000000000000e+03
cascade_weight_multiplier=4.00000005960464477539e-01
cascade_activation_functions_count=10
cascade_activation_functions=3 5 7 8 10 11 14 15 16 17 
cascade_activation_steepnesses_count=4
cascade_activation_steepnesses=2.50000000000000000000e-01 5.00000000000000000000e-01 7.50000000000000000000e-01 1.00000000000000000000e+00 
layer_sizes=4 6 4 
scale_included=1
scale_mean_in=0.118041 0.017815 0.128173 
scale_deviation_in=0.011974 0.014341 0.010682 
scale_new_min_in=-0.900000 -0.900000 -0.900000 
scale_factor_in=0.900000 0.900000 0.900000 
scale_mean_out=-1.421760 2.437423 -1.596934 
scale_deviation_out=0.120344 0.206516 0.292947 
scale_new_min_out=-0.900000 -0.900000 -0.900000 
scale_factor_out=0.900000 0.900000 0.900000 
neurons (num_inputs, activation_function, activation_steepness)=(0, 0, 0.00000000000000000000e+00) (0, 0, 0.00000000000000000000e+00) (0, 0, 0.00000000000000000000e+00) (0, 0, 0.00000000000000000000e+00) (4, 5, 5.00000000000000000000e-01) (4, 5, 5.00000000000000000000e-01) (4, 5, 5.00000000000000000000e-01) (4, 5, 5.00000000000000000000e-01) (4, 5, 5.00000000000000000000e-01) (0, 5, 0.00000000000000000000e+00) (6, 5, 5.00000000000000000000e-01) (6, 5, 5.00000000000000000000e-01) (6, 5, 5.00000000000000000000e-01) (0, 5, 0.00000000000000000000e+00) 
connections (connected_to_neuron, weight)=(0, 1.16095960140228271484e+00) (1, -1.04554140567779541016e+00) (2, 4.06370073556900024414e-01) (3, 2.23220992088317871094e+00) (0, -9.90614295005798339844e-01) (1, -1.15870440006256103516e+00) (2, -6.29412710666656494141e-01) (3, 2.01410150527954101562e+00) (0, -1.74835056066513061523e-01) (1, 7.14478641748428344727e-02) (2, 1.09432148933410644531e+00) (3, -8.24921905994415283203e-01) (0, 7.55644083023071289062e-01) (1, 1.01607084274291992188e+00) (2, 3.16810816526412963867e-01) (3, 1.84042489528656005859e+00) (0, 8.98129820823669433594e-01) (1, -8.23300838470458984375e-01) (2, 5.35159528255462646484e-01) (3, -1.65041935443878173828e+00) (4, -3.53641557693481445312e+00) (5, -1.64086925983428955078e+00) (6, 3.18860948085784912109e-01) (7, 4.18314218521118164062e+00) (8, -2.77836966514587402344e+00) (9, -6.94875240325927734375e-01) (4, -1.48372673988342285156e+00) (5, 2.87557077407836914062e+00) (6, -1.49755191802978515625e+00) (7, -2.60636305809020996094e+00) (8, -3.22891736030578613281e+00) (9, -1.46316874027252197266e+00) (4, -1.16893744468688964844e+00) (5, 2.17089557647705078125e+00) (6, -3.47104978561401367188e+00) (7, -1.77362346649169921875e+00) (8, -2.60074067115783691406e+00) (9, -1.96233868598937988281e+00) 
