FANN_FLO_2.1
num_layers=3
learning_rate=0.100000
connection_rate=1.000000
network_type=0
learning_momentum=0.000000
training_algorithm=1
train_error_function=1
train_stop_function=0
cascade_output_change_fraction=0.010000
quickprop_decay=-0.000100
quickprop_mu=1.750000
rprop_increase_factor=1.200000
rprop_decrease_factor=0.500000
rprop_delta_min=0.000000
rprop_delta_max=50.000000
rprop_delta_zero=0.100000
cascade_output_stagnation_epochs=12
cascade_candidate_change_fraction=0.010000
cascade_candidate_stagnation_epochs=12
cascade_max_out_epochs=150
cascade_min_out_epochs=50
cascade_max_cand_epochs=150
cascade_min_cand_epochs=50
cascade_num_candidate_groups=2
bit_fail_limit=3.49999994039535522461e-01
cascade_candidate_limit=1.00000000000000000000e+03
cascade_weight_multiplier=4.00000005960464477539e-01
cascade_activation_functions_count=10
cascade_activation_functions=3 5 7 8 10 11 14 15 16 17 
cascade_activation_steepnesses_count=4
cascade_activation_steepnesses=2.50000000000000000000e-01 5.00000000000000000000e-01 7.50000000000000000000e-01 1.00000000000000000000e+00 
layer_sizes=4 6 4 
scale_included=1
scale_mean_in=0.071615 0.062320 0.153962 
scale_deviation_in=0.011171 0.012674 0.003782 
scale_new_min_in=-0.900000 -0.900000 -0.900000 
scale_factor_in=0.900000 0.900000 0.900000 
scale_mean_out=-0.856341 2.339992 -2.043916 
scale_deviation_out=0.132319 0.150995 0.187129 
scale_new_min_out=-0.900000 -0.900000 -0.900000 
scale_factor_out=0.900000 0.900000 0.900000 
neurons (num_inputs, activation_function, activation_steepness)=(0, 0, 0.00000000000000000000e+00) (0, 0, 0.00000000000000000000e+00) (0, 0, 0.00000000000000000000e+00) (0, 0, 0.00000000000000000000e+00) (4, 5, 5.00000000000000000000e-01) (4, 5, 5.00000000000000000000e-01) (4, 5, 5.00000000000000000000e-01) (4, 5, 5.00000000000000000000e-01) (4, 5, 5.00000000000000000000e-01) (0, 5, 0.00000000000000000000e+00) (6, 5, 5.00000000000000000000e-01) (6, 5, 5.00000000000000000000e-01) (6, 5, 5.00000000000000000000e-01) (0, 5, 0.00000000000000000000e+00) 
connections (connected_to_neuron, weight)=(0, -8.44826757907867431641e-01) (1, -5.40087997913360595703e-01) (2, -7.59826302528381347656e-01) (3, 7.47667551040649414062e-01) (0, 1.10940766334533691406e+00) (1, 1.34076967835426330566e-01) (2, -2.28014916181564331055e-01) (3, -1.91644847393035888672e-01) (0, 2.56801247596740722656e-01) (1, -1.15053546428680419922e+00) (2, 6.52627885341644287109e-01) (3, -1.31241917610168457031e+00) (0, -3.61577272415161132812e-01) (1, -1.03909981250762939453e+00) (2, 1.97946771979331970215e-01) (3, 5.73165774345397949219e-01) (0, -3.52739125490188598633e-01) (1, 6.78789019584655761719e-01) (2, 7.85801231861114501953e-01) (3, -7.27822482585906982422e-01) (4, 1.20627117156982421875e+00) (5, -2.81518363952636718750e+00) (6, -1.89753544330596923828e+00) (7, -3.22084140777587890625e+00) (8, 2.33686685562133789062e+00) (9, -2.96921711415052413940e-02) (4, 4.14059638977050781250e+00) (5, -2.31816339492797851562e+00) (6, -1.06483650207519531250e+00) (7, 2.23310995101928710938e+00) (8, -3.15808606147766113281e+00) (9, -3.22273778915405273438e+00) (4, 5.77745771408081054688e+00) (5, -4.32645022869110107422e-01) (6, -1.64620256423950195312e+00) (7, 1.40342760086059570312e+00) (8, -2.88453602790832519531e+00) (9, -3.51074123382568359375e+00) 
