FANN_FLO_2.1
num_layers=3
learning_rate=0.100000
connection_rate=1.000000
network_type=0
learning_momentum=0.000000
training_algorithm=1
train_error_function=1
train_stop_function=0
cascade_output_change_fraction=0.010000
quickprop_decay=-0.000100
quickprop_mu=1.750000
rprop_increase_factor=1.200000
rprop_decrease_factor=0.500000
rprop_delta_min=0.000000
rprop_delta_max=50.000000
rprop_delta_zero=0.100000
cascade_output_stagnation_epochs=12
cascade_candidate_change_fraction=0.010000
cascade_candidate_stagnation_epochs=12
cascade_max_out_epochs=150
cascade_min_out_epochs=50
cascade_max_cand_epochs=150
cascade_min_cand_epochs=50
cascade_num_candidate_groups=2
bit_fail_limit=3.49999994039535522461e-01
cascade_candidate_limit=1.00000000000000000000e+03
cascade_weight_multiplier=4.00000005960464477539e-01
cascade_activation_functions_count=10
cascade_activation_functions=3 5 7 8 10 11 14 15 16 17 
cascade_activation_steepnesses_count=4
cascade_activation_steepnesses=2.50000000000000000000e-01 5.00000000000000000000e-01 7.50000000000000000000e-01 1.00000000000000000000e+00 
layer_sizes=4 6 4 
scale_included=1
scale_mean_in=0.074971 0.113891 0.124886 
scale_deviation_in=0.012041 0.013441 0.009576 
scale_new_min_in=-0.900000 -0.900000 -0.900000 
scale_factor_in=0.900000 0.900000 0.900000 
scale_mean_out=-0.583133 2.230376 -1.771224 
scale_deviation_out=0.092828 0.204894 0.280422 
scale_new_min_out=-0.900000 -0.900000 -0.900000 
scale_factor_out=0.900000 0.900000 0.900000 
neurons (num_inputs, activation_function, activation_steepness)=(0, 0, 0.00000000000000000000e+00) (0, 0, 0.00000000000000000000e+00) (0, 0, 0.00000000000000000000e+00) (0, 0, 0.00000000000000000000e+00) (4, 5, 5.00000000000000000000e-01) (4, 5, 5.00000000000000000000e-01) (4, 5, 5.00000000000000000000e-01) (4, 5, 5.00000000000000000000e-01) (4, 5, 5.00000000000000000000e-01) (0, 5, 0.00000000000000000000e+00) (6, 5, 5.00000000000000000000e-01) (6, 5, 5.00000000000000000000e-01) (6, 5, 5.00000000000000000000e-01) (0, 5, 0.00000000000000000000e+00) 
connections (connected_to_neuron, weight)=(0, 8.64621624350547790527e-02) (1, -1.05452334880828857422e+00) (2, 2.50037848949432373047e-01) (3, 3.39659154415130615234e-01) (0, 1.78616002202033996582e-01) (1, -4.44541275501251220703e-01) (2, 7.35704898834228515625e-01) (3, -9.35242533683776855469e-01) (0, -1.13289833068847656250e+00) (1, -2.24168434739112854004e-01) (2, 4.65793833136558532715e-02) (3, -1.85996498912572860718e-02) (0, -6.01683378219604492188e-01) (1, -1.55441784858703613281e+00) (2, -1.26488399505615234375e+00) (3, -1.92273902893066406250e+00) (0, 1.25868749618530273438e+00) (1, 2.72081756591796875000e+00) (2, 2.67816972732543945312e+00) (3, -3.68612027168273925781e+00) (4, -2.38711690902709960938e+00) (5, -1.92390859127044677734e+00) (6, 4.95466232299804687500e+00) (7, -1.49913883209228515625e+00) (8, 6.25761926174163818359e-01) (9, -7.79089450836181640625e-01) (4, 2.32715439796447753906e+00) (5, -2.11989545822143554688e+00) (6, 1.48704087734222412109e+00) (7, 2.48650670051574707031e+00) (8, -3.34542250633239746094e+00) (9, -2.14218425750732421875e+00) (4, 9.83194172382354736328e-01) (5, -2.84240150451660156250e+00) (6, 3.86064112186431884766e-01) (7, 3.15506219863891601562e+00) (8, -3.83186793327331542969e+00) (9, -2.15087103843688964844e+00) 
