FANN_FLO_2.1
num_layers=3
learning_rate=0.100000
connection_rate=1.000000
network_type=0
learning_momentum=0.000000
training_algorithm=1
train_error_function=1
train_stop_function=0
cascade_output_change_fraction=0.010000
quickprop_decay=-0.000100
quickprop_mu=1.750000
rprop_increase_factor=1.200000
rprop_decrease_factor=0.500000
rprop_delta_min=0.000000
rprop_delta_max=50.000000
rprop_delta_zero=0.100000
cascade_output_stagnation_epochs=12
cascade_candidate_change_fraction=0.010000
cascade_candidate_stagnation_epochs=12
cascade_max_out_epochs=150
cascade_min_out_epochs=50
cascade_max_cand_epochs=150
cascade_min_cand_epochs=50
cascade_num_candidate_groups=2
bit_fail_limit=3.49999994039535522461e-01
cascade_candidate_limit=1.00000000000000000000e+03
cascade_weight_multiplier=4.00000005960464477539e-01
cascade_activation_functions_count=10
cascade_activation_functions=3 5 7 8 10 11 14 15 16 17 
cascade_activation_steepnesses_count=4
cascade_activation_steepnesses=2.50000000000000000000e-01 5.00000000000000000000e-01 7.50000000000000000000e-01 1.00000000000000000000e+00 
layer_sizes=4 6 4 
scale_included=1
scale_mean_in=-0.008401 0.018003 0.052499 
scale_deviation_in=0.012263 0.014405 0.011110 
scale_new_min_in=-0.900000 -0.900000 -0.900000 
scale_factor_in=0.900000 0.900000 0.900000 
scale_mean_out=0.374431 4.510713 0.015594 
scale_deviation_out=0.930587 0.283174 0.172367 
scale_new_min_out=-0.900000 -0.900000 -0.900000 
scale_factor_out=0.900000 0.900000 0.900000 
neurons (num_inputs, activation_function, activation_steepness)=(0, 0, 0.00000000000000000000e+00) (0, 0, 0.00000000000000000000e+00) (0, 0, 0.00000000000000000000e+00) (0, 0, 0.00000000000000000000e+00) (4, 5, 5.00000000000000000000e-01) (4, 5, 5.00000000000000000000e-01) (4, 5, 5.00000000000000000000e-01) (4, 5, 5.00000000000000000000e-01) (4, 5, 5.00000000000000000000e-01) (0, 5, 0.00000000000000000000e+00) (6, 5, 5.00000000000000000000e-01) (6, 5, 5.00000000000000000000e-01) (6, 5, 5.00000000000000000000e-01) (0, 5, 0.00000000000000000000e+00) 
connections (connected_to_neuron, weight)=(0, -3.09058141708374023438e+00) (1, -6.58296251296997070312e+00) (2, 2.42779925465583801270e-01) (3, -7.32743549346923828125e+00) (0, 3.67736905813217163086e-01) (1, 1.82692691683769226074e-01) (2, 6.88199400901794433594e-01) (3, 5.04087626934051513672e-01) (0, -1.89238935708999633789e-01) (1, 9.52229678630828857422e-01) (2, 1.00312694907188415527e-01) (3, 2.38345041871070861816e-01) (0, -1.08771495819091796875e+01) (1, 4.74856805801391601562e+00) (2, -2.70610332489013671875e-01) (3, 1.40703287124633789062e+01) (0, -3.88606637716293334961e-01) (1, -6.68135359883308410645e-02) (2, 7.62707173824310302734e-01) (3, 1.88837274909019470215e-01) (4, 1.16513948440551757812e+01) (5, -2.43736815452575683594e+00) (6, 6.65981844067573547363e-02) (7, 1.78692817687988281250e+01) (8, 2.08905553817749023438e+00) (9, -5.90438127517700195312e+00) (4, -7.90168523788452148438e-01) (5, -3.37019538879394531250e+00) (6, -3.27344918251037597656e+00) (7, 6.18733286857604980469e-01) (8, -4.13971281051635742188e+00) (9, 3.00529897212982177734e-01) (4, 4.36518520116806030273e-01) (5, -4.76365280151367187500e+00) (6, 2.52437281608581542969e+00) (7, -1.90688833594322204590e-01) (8, -4.07632303237915039062e+00) (9, 1.56749510765075683594e+00) 
