FANN_FLO_2.1
num_layers=3
learning_rate=0.100000
connection_rate=1.000000
network_type=0
learning_momentum=0.000000
training_algorithm=1
train_error_function=1
train_stop_function=0
cascade_output_change_fraction=0.010000
quickprop_decay=-0.000100
quickprop_mu=1.750000
rprop_increase_factor=1.200000
rprop_decrease_factor=0.500000
rprop_delta_min=0.000000
rprop_delta_max=50.000000
rprop_delta_zero=0.100000
cascade_output_stagnation_epochs=12
cascade_candidate_change_fraction=0.010000
cascade_candidate_stagnation_epochs=12
cascade_max_out_epochs=150
cascade_min_out_epochs=50
cascade_max_cand_epochs=150
cascade_min_cand_epochs=50
cascade_num_candidate_groups=2
bit_fail_limit=3.49999994039535522461e-01
cascade_candidate_limit=1.00000000000000000000e+03
cascade_weight_multiplier=4.00000005960464477539e-01
cascade_activation_functions_count=10
cascade_activation_functions=3 5 7 8 10 11 14 15 16 17 
cascade_activation_steepnesses_count=4
cascade_activation_steepnesses=2.50000000000000000000e-01 5.00000000000000000000e-01 7.50000000000000000000e-01 1.00000000000000000000e+00 
layer_sizes=4 6 4 
scale_included=1
scale_mean_in=-0.008844 0.018736 0.157875 
scale_deviation_in=0.012295 0.014529 0.005581 
scale_new_min_in=-0.900000 -0.900000 -0.900000 
scale_factor_in=0.900000 0.900000 0.900000 
scale_mean_out=0.413544 2.848025 -1.869304 
scale_deviation_out=0.891096 0.154662 0.224689 
scale_new_min_out=-0.900000 -0.900000 -0.900000 
scale_factor_out=0.900000 0.900000 0.900000 
neurons (num_inputs, activation_function, activation_steepness)=(0, 0, 0.00000000000000000000e+00) (0, 0, 0.00000000000000000000e+00) (0, 0, 0.00000000000000000000e+00) (0, 0, 0.00000000000000000000e+00) (4, 5, 5.00000000000000000000e-01) (4, 5, 5.00000000000000000000e-01) (4, 5, 5.00000000000000000000e-01) (4, 5, 5.00000000000000000000e-01) (4, 5, 5.00000000000000000000e-01) (0, 5, 0.00000000000000000000e+00) (6, 5, 5.00000000000000000000e-01) (6, 5, 5.00000000000000000000e-01) (6, 5, 5.00000000000000000000e-01) (0, 5, 0.00000000000000000000e+00) 
connections (connected_to_neuron, weight)=(0, 3.53111885488033294678e-02) (1, -1.09412252902984619141e-01) (2, 7.55712413787841796875e+00) (3, -8.17759704589843750000e+00) (0, 2.43463840484619140625e+01) (1, -3.01103520393371582031e+00) (2, -1.96908101439476013184e-01) (3, -2.06667938232421875000e+01) (0, 2.85169538110494613647e-02) (1, -1.27657994627952575684e-01) (2, -1.39834105968475341797e+00) (3, -2.19546031951904296875e+00) (0, 3.43752652406692504883e-01) (1, -6.60631656646728515625e-01) (2, 4.86046187579631805420e-02) (3, 3.41799855232238769531e-01) (0, 9.88642311096191406250e+00) (1, 1.24356584548950195312e+01) (2, 2.85736232995986938477e-01) (3, 1.10831327438354492188e+01) (4, 6.72892183065414428711e-02) (5, -2.08906707763671875000e+01) (6, 2.01842024922370910645e-01) (7, -3.67861926555633544922e-01) (8, -1.27824153900146484375e+01) (9, -7.98289871215820312500e+00) (4, -8.42935276031494140625e+00) (5, -2.10330083966255187988e-01) (6, 5.81525659561157226562e+00) (7, 2.14299678802490234375e+00) (8, 1.49351134896278381348e-01) (9, -4.08586311340332031250e+00) (4, -8.75464248657226562500e+00) (5, 1.66156128048896789551e-01) (6, 6.17406463623046875000e+00) (7, -1.89334082603454589844e+00) (8, -1.52912706136703491211e-01) (9, -3.11709260940551757812e+00) 
