FANN_FLO_2.1
num_layers=3
learning_rate=0.100000
connection_rate=1.000000
network_type=0
learning_momentum=0.000000
training_algorithm=1
train_error_function=1
train_stop_function=0
cascade_output_change_fraction=0.010000
quickprop_decay=-0.000100
quickprop_mu=1.750000
rprop_increase_factor=1.200000
rprop_decrease_factor=0.500000
rprop_delta_min=0.000000
rprop_delta_max=50.000000
rprop_delta_zero=0.100000
cascade_output_stagnation_epochs=12
cascade_candidate_change_fraction=0.010000
cascade_candidate_stagnation_epochs=12
cascade_max_out_epochs=150
cascade_min_out_epochs=50
cascade_max_cand_epochs=150
cascade_min_cand_epochs=50
cascade_num_candidate_groups=2
bit_fail_limit=3.49999994039535522461e-01
cascade_candidate_limit=1.00000000000000000000e+03
cascade_weight_multiplier=4.00000005960464477539e-01
cascade_activation_functions_count=10
cascade_activation_functions=3 5 7 8 10 11 14 15 16 17 
cascade_activation_steepnesses_count=4
cascade_activation_steepnesses=2.50000000000000000000e-01 5.00000000000000000000e-01 7.50000000000000000000e-01 1.00000000000000000000e+00 
layer_sizes=4 6 4 
scale_included=1
scale_mean_in=-0.008437 0.067921 0.090920 
scale_deviation_in=0.012163 0.014358 0.011073 
scale_new_min_in=-0.900000 -0.900000 -0.900000 
scale_factor_in=0.900000 0.900000 0.900000 
scale_mean_out=0.124904 3.400661 -0.585425 
scale_deviation_out=0.185699 0.201235 0.168778 
scale_new_min_out=-0.900000 -0.900000 -0.900000 
scale_factor_out=0.900000 0.900000 0.900000 
neurons (num_inputs, activation_function, activation_steepness)=(0, 0, 0.00000000000000000000e+00) (0, 0, 0.00000000000000000000e+00) (0, 0, 0.00000000000000000000e+00) (0, 0, 0.00000000000000000000e+00) (4, 5, 5.00000000000000000000e-01) (4, 5, 5.00000000000000000000e-01) (4, 5, 5.00000000000000000000e-01) (4, 5, 5.00000000000000000000e-01) (4, 5, 5.00000000000000000000e-01) (0, 5, 0.00000000000000000000e+00) (6, 5, 5.00000000000000000000e-01) (6, 5, 5.00000000000000000000e-01) (6, 5, 5.00000000000000000000e-01) (0, 5, 0.00000000000000000000e+00) 
connections (connected_to_neuron, weight)=(0, 2.69563798792660236359e-03) (1, -2.79913216829299926758e-01) (2, -1.03851461410522460938e+00) (3, -3.72826278209686279297e-01) (0, -1.20184421539306640625e+00) (1, -1.23414397239685058594e+00) (2, 1.61942690610885620117e-01) (3, -1.38556730747222900391e+00) (0, 9.64252471923828125000e-01) (1, -8.77736389636993408203e-01) (2, 4.41545754671096801758e-01) (3, -7.35359728336334228516e-01) (0, 5.88849782943725585938e-01) (1, 9.32438790798187255859e-01) (2, 4.75313425064086914062e-01) (3, -2.42522925138473510742e-01) (0, -8.53599786758422851562e-01) (1, 5.91775119304656982422e-01) (2, 6.90685570240020751953e-01) (3, 3.68272848427295684814e-02) (4, -2.19598084688186645508e-01) (5, 2.74292469024658203125e+00) (6, -2.39736151695251464844e+00) (7, -1.58484911918640136719e+00) (8, 1.64846658706665039062e+00) (9, 4.27051037549972534180e-01) (4, 1.04973292350769042969e+00) (5, 2.71928608417510986328e-01) (6, 1.06915926933288574219e+00) (7, -3.12454247474670410156e+00) (8, -2.10951876640319824219e+00) (9, 1.97974324226379394531e-01) (4, 2.59684944152832031250e+00) (5, -6.58764421939849853516e-01) (6, -1.70400488376617431641e+00) (7, -2.01744008064270019531e+00) (8, -2.55798745155334472656e+00) (9, -4.44807112216949462891e-01) 
