FANN_FLO_2.1
num_layers=3
learning_rate=0.100000
connection_rate=1.000000
network_type=0
learning_momentum=0.000000
training_algorithm=1
train_error_function=1
train_stop_function=0
cascade_output_change_fraction=0.010000
quickprop_decay=-0.000100
quickprop_mu=1.750000
rprop_increase_factor=1.200000
rprop_decrease_factor=0.500000
rprop_delta_min=0.000000
rprop_delta_max=50.000000
rprop_delta_zero=0.100000
cascade_output_stagnation_epochs=12
cascade_candidate_change_fraction=0.010000
cascade_candidate_stagnation_epochs=12
cascade_max_out_epochs=150
cascade_min_out_epochs=50
cascade_max_cand_epochs=150
cascade_min_cand_epochs=50
cascade_num_candidate_groups=2
bit_fail_limit=3.49999994039535522461e-01
cascade_candidate_limit=1.00000000000000000000e+03
cascade_weight_multiplier=4.00000005960464477539e-01
cascade_activation_functions_count=10
cascade_activation_functions=3 5 7 8 10 11 14 15 16 17 
cascade_activation_steepnesses_count=4
cascade_activation_steepnesses=2.50000000000000000000e-01 5.00000000000000000000e-01 7.50000000000000000000e-01 1.00000000000000000000e+00 
layer_sizes=4 6 4 
scale_included=1
scale_mean_in=-0.007201 0.103136 0.152449 
scale_deviation_in=0.011508 0.007092 0.002929 
scale_new_min_in=-0.900000 -0.900000 -0.900000 
scale_factor_in=0.900000 0.900000 0.900000 
scale_mean_out=0.069433 2.262228 -2.094197 
scale_deviation_out=0.111218 0.120834 0.162069 
scale_new_min_out=-0.900000 -0.900000 -0.900000 
scale_factor_out=0.900000 0.900000 0.900000 
neurons (num_inputs, activation_function, activation_steepness)=(0, 0, 0.00000000000000000000e+00) (0, 0, 0.00000000000000000000e+00) (0, 0, 0.00000000000000000000e+00) (0, 0, 0.00000000000000000000e+00) (4, 5, 5.00000000000000000000e-01) (4, 5, 5.00000000000000000000e-01) (4, 5, 5.00000000000000000000e-01) (4, 5, 5.00000000000000000000e-01) (4, 5, 5.00000000000000000000e-01) (0, 5, 0.00000000000000000000e+00) (6, 5, 5.00000000000000000000e-01) (6, 5, 5.00000000000000000000e-01) (6, 5, 5.00000000000000000000e-01) (0, 5, 0.00000000000000000000e+00) 
connections (connected_to_neuron, weight)=(0, -3.32827866077423095703e-01) (1, -1.01065337657928466797e+00) (2, -9.37325239181518554688e-01) (3, 7.04758584499359130859e-01) (0, -9.82386887073516845703e-01) (1, 8.76886129379272460938e-01) (2, 6.65210902690887451172e-01) (3, -7.74246931076049804688e-01) (0, -6.41726315021514892578e-01) (1, -7.06868886947631835938e-01) (2, -2.65567362308502197266e-01) (3, 1.86678826808929443359e-01) (0, -1.05983686447143554688e+00) (1, -7.33117461204528808594e-01) (2, 7.21067428588867187500e-01) (3, -7.28210985660552978516e-01) (0, -9.12227809429168701172e-01) (1, 7.44061589241027832031e-01) (2, -3.15552979707717895508e-01) (3, 5.54087519645690917969e-01) (4, 1.04374623298645019531e+00) (5, 2.04632878303527832031e+00) (6, 2.16423463821411132812e+00) (7, 1.54809272289276123047e+00) (8, 2.30341601371765136719e+00) (9, 8.81674513220787048340e-02) (4, 3.85866641998291015625e+00) (5, -2.66145086288452148438e+00) (6, 1.43338811397552490234e+00) (7, -2.05793038010597229004e-01) (8, -5.94064295291900634766e-01) (9, -1.77666151523590087891e+00) (4, 4.34427499771118164062e+00) (5, -2.85373210906982421875e+00) (6, 9.12737727165222167969e-01) (7, -9.53434228897094726562e-01) (8, 8.10464620590209960938e-01) (9, -2.33283138275146484375e+00) 
