FANN_FLO_2.1
num_layers=3
learning_rate=0.100000
connection_rate=1.000000
network_type=0
learning_momentum=0.000000
training_algorithm=1
train_error_function=1
train_stop_function=0
cascade_output_change_fraction=0.010000
quickprop_decay=-0.000100
quickprop_mu=1.750000
rprop_increase_factor=1.200000
rprop_decrease_factor=0.500000
rprop_delta_min=0.000000
rprop_delta_max=50.000000
rprop_delta_zero=0.100000
cascade_output_stagnation_epochs=12
cascade_candidate_change_fraction=0.010000
cascade_candidate_stagnation_epochs=12
cascade_max_out_epochs=150
cascade_min_out_epochs=50
cascade_max_cand_epochs=150
cascade_min_cand_epochs=50
cascade_num_candidate_groups=2
bit_fail_limit=3.49999994039535522461e-01
cascade_candidate_limit=1.00000000000000000000e+03
cascade_weight_multiplier=4.00000005960464477539e-01
cascade_activation_functions_count=10
cascade_activation_functions=3 5 7 8 10 11 14 15 16 17 
cascade_activation_steepnesses_count=4
cascade_activation_steepnesses=2.50000000000000000000e-01 5.00000000000000000000e-01 7.50000000000000000000e-01 1.00000000000000000000e+00 
layer_sizes=4 6 4 
scale_included=1
scale_mean_in=-0.000707 0.194407 -0.109637 
scale_deviation_in=0.000008 0.000402 0.001169 
scale_new_min_in=-0.900000 -0.900000 -0.900000 
scale_factor_in=0.900000 0.900000 0.900000 
scale_mean_out=-1.895138 -0.087266 -3.105772 
scale_deviation_out=0.026855 0.000000 0.010716 
scale_new_min_out=-0.900000 -0.900000 -0.900000 
scale_factor_out=0.900000 0.900000 0.900000 
neurons (num_inputs, activation_function, activation_steepness)=(0, 0, 0.00000000000000000000e+00) (0, 0, 0.00000000000000000000e+00) (0, 0, 0.00000000000000000000e+00) (0, 0, 0.00000000000000000000e+00) (4, 5, 5.00000000000000000000e-01) (4, 5, 5.00000000000000000000e-01) (4, 5, 5.00000000000000000000e-01) (4, 5, 5.00000000000000000000e-01) (4, 5, 5.00000000000000000000e-01) (0, 5, 0.00000000000000000000e+00) (6, 5, 5.00000000000000000000e-01) (6, 5, 5.00000000000000000000e-01) (6, 5, 5.00000000000000000000e-01) (0, 5, 0.00000000000000000000e+00) 
connections (connected_to_neuron, weight)=(0, -9.13984239101409912109e-01) (1, 1.75636872649192810059e-01) (2, -7.64271378517150878906e-01) (3, -9.09323990345001220703e-01) (0, 4.26456868648529052734e-01) (1, 3.25561672449111938477e-01) (2, -3.04206132888793945312e-01) (3, 8.84838327765464782715e-02) (0, -4.01102662086486816406e-01) (1, 5.51008164882659912109e-01) (2, -1.09173603355884552002e-01) (3, -6.85929298400878906250e-01) (0, 3.63376051187515258789e-01) (1, -8.63061964511871337891e-01) (2, -6.15297138690948486328e-01) (3, 6.82315111160278320312e-01) (0, 4.69902694225311279297e-01) (1, -1.49532091617584228516e+00) (2, -6.56709551811218261719e-01) (3, 2.78599202632904052734e-01) (4, -8.22156965732574462891e-01) (5, 8.36483657360076904297e-01) (6, -7.22473263740539550781e-01) (7, 6.52692437171936035156e-01) (8, 9.25271153450012207031e-01) (9, -7.93488502502441406250e-01) (4, 7.92257666587829589844e-01) (5, 3.30970793962478637695e-01) (6, -6.73444628715515136719e-01) (7, 1.24981033802032470703e+00) (8, 1.09652793407440185547e+00) (9, -3.20381283760070800781e-01) (4, 8.45199465751647949219e-01) (5, -5.72961807250976562500e-01) (6, -1.07389517128467559814e-01) (7, 1.85922458767890930176e-01) (8, 1.35572981834411621094e+00) (9, 2.49436080455780029297e-01) 
