FANN_FLO_2.1
num_layers=3
learning_rate=0.100000
connection_rate=1.000000
network_type=0
learning_momentum=0.000000
training_algorithm=1
train_error_function=1
train_stop_function=0
cascade_output_change_fraction=0.010000
quickprop_decay=-0.000100
quickprop_mu=1.750000
rprop_increase_factor=1.200000
rprop_decrease_factor=0.500000
rprop_delta_min=0.000000
rprop_delta_max=50.000000
rprop_delta_zero=0.100000
cascade_output_stagnation_epochs=12
cascade_candidate_change_fraction=0.010000
cascade_candidate_stagnation_epochs=12
cascade_max_out_epochs=150
cascade_min_out_epochs=50
cascade_max_cand_epochs=150
cascade_min_cand_epochs=50
cascade_num_candidate_groups=2
bit_fail_limit=3.49999994039535522461e-01
cascade_candidate_limit=1.00000000000000000000e+03
cascade_weight_multiplier=4.00000005960464477539e-01
cascade_activation_functions_count=10
cascade_activation_functions=3 5 7 8 10 11 14 15 16 17 
cascade_activation_steepnesses_count=4
cascade_activation_steepnesses=2.50000000000000000000e-01 5.00000000000000000000e-01 7.50000000000000000000e-01 1.00000000000000000000e+00 
layer_sizes=4 6 4 
scale_included=1
scale_mean_in=-0.000388 0.183792 -0.130377 
scale_deviation_in=0.000056 0.004834 0.007931 
scale_new_min_in=-0.900000 -0.900000 -0.900000 
scale_factor_in=0.900000 0.900000 0.900000 
scale_mean_out=-1.587267 -0.087265 -2.903814 
scale_deviation_out=0.285875 0.000005 0.080390 
scale_new_min_out=-0.900000 -0.900000 -0.900000 
scale_factor_out=0.900000 0.900000 0.900000 
neurons (num_inputs, activation_function, activation_steepness)=(0, 0, 0.00000000000000000000e+00) (0, 0, 0.00000000000000000000e+00) (0, 0, 0.00000000000000000000e+00) (0, 0, 0.00000000000000000000e+00) (4, 5, 5.00000000000000000000e-01) (4, 5, 5.00000000000000000000e-01) (4, 5, 5.00000000000000000000e-01) (4, 5, 5.00000000000000000000e-01) (4, 5, 5.00000000000000000000e-01) (0, 5, 0.00000000000000000000e+00) (6, 5, 5.00000000000000000000e-01) (6, 5, 5.00000000000000000000e-01) (6, 5, 5.00000000000000000000e-01) (0, 5, 0.00000000000000000000e+00) 
connections (connected_to_neuron, weight)=(0, -1.68225243687629699707e-01) (1, 4.01558399200439453125e+00) (2, -1.36747014522552490234e+00) (3, -1.94969201087951660156e+00) (0, 5.15268333256244659424e-02) (1, -3.17599511146545410156e+00) (2, 8.99536514282226562500e+00) (3, 4.24218463897705078125e+00) (0, -5.67928738892078399658e-02) (1, -6.81114339828491210938e+00) (2, 8.78301334381103515625e+00) (3, 1.41094470024108886719e+00) (0, -1.68436914682388305664e-01) (1, 1.41690330505371093750e+01) (2, -1.17886686325073242188e+01) (3, 1.12207269668579101562e+00) (0, 1.00486087799072265625e+00) (1, 2.23410534858703613281e+00) (2, -1.95320463180541992188e+00) (3, 9.60782915353775024414e-02) (4, 5.52553176879882812500e+00) (5, -6.60283231735229492188e+00) (6, -7.58404874801635742188e+00) (7, 9.96113204956054687500e+00) (8, 5.69323348999023437500e+00) (9, 4.56107091903686523438e+00) (4, 3.50251865386962890625e+00) (5, -1.36945743560791015625e+01) (6, -1.05697984695434570312e+01) (7, 1.81271457672119140625e+01) (8, 8.12122762203216552734e-01) (9, 5.37884426116943359375e+00) (4, -1.67392063140869140625e+00) (5, -5.78249275684356689453e-01) (6, -2.36421322822570800781e+00) (7, -5.33386111259460449219e-01) (8, -5.25515735149383544922e-01) (9, 8.25531780719757080078e-01) 
