FANN_FLO_2.1
num_layers=3
learning_rate=0.100000
connection_rate=1.000000
network_type=0
learning_momentum=0.000000
training_algorithm=1
train_error_function=1
train_stop_function=0
cascade_output_change_fraction=0.010000
quickprop_decay=-0.000100
quickprop_mu=1.750000
rprop_increase_factor=1.200000
rprop_decrease_factor=0.500000
rprop_delta_min=0.000000
rprop_delta_max=50.000000
rprop_delta_zero=0.100000
cascade_output_stagnation_epochs=12
cascade_candidate_change_fraction=0.010000
cascade_candidate_stagnation_epochs=12
cascade_max_out_epochs=150
cascade_min_out_epochs=50
cascade_max_cand_epochs=150
cascade_min_cand_epochs=50
cascade_num_candidate_groups=2
bit_fail_limit=3.49999994039535522461e-01
cascade_candidate_limit=1.00000000000000000000e+03
cascade_weight_multiplier=4.00000005960464477539e-01
cascade_activation_functions_count=10
cascade_activation_functions=3 5 7 8 10 11 14 15 16 17 
cascade_activation_steepnesses_count=4
cascade_activation_steepnesses=2.50000000000000000000e-01 5.00000000000000000000e-01 7.50000000000000000000e-01 1.00000000000000000000e+00 
layer_sizes=4 6 4 
scale_included=1
scale_mean_in=-0.000396 0.194083 -0.110304 
scale_deviation_in=0.000059 0.001128 0.002772 
scale_new_min_in=-0.900000 -0.900000 -0.900000 
scale_factor_in=0.900000 0.900000 0.900000 
scale_mean_out=-1.110240 -0.087266 -3.099449 
scale_deviation_out=0.168319 0.000000 0.025933 
scale_new_min_out=-0.900000 -0.900000 -0.900000 
scale_factor_out=0.900000 0.900000 0.900000 
neurons (num_inputs, activation_function, activation_steepness)=(0, 0, 0.00000000000000000000e+00) (0, 0, 0.00000000000000000000e+00) (0, 0, 0.00000000000000000000e+00) (0, 0, 0.00000000000000000000e+00) (4, 5, 5.00000000000000000000e-01) (4, 5, 5.00000000000000000000e-01) (4, 5, 5.00000000000000000000e-01) (4, 5, 5.00000000000000000000e-01) (4, 5, 5.00000000000000000000e-01) (0, 5, 0.00000000000000000000e+00) (6, 5, 5.00000000000000000000e-01) (6, 5, 5.00000000000000000000e-01) (6, 5, 5.00000000000000000000e-01) (0, 5, 0.00000000000000000000e+00) 
connections (connected_to_neuron, weight)=(0, -1.35018855333328247070e-01) (1, -1.42999601364135742188e+00) (2, -1.97253572940826416016e+00) (3, 1.18090391159057617188e+00) (0, -9.77953225374221801758e-02) (1, -2.27728772163391113281e+00) (2, -1.66989099979400634766e+00) (3, -2.12253022193908691406e+00) (0, -1.22641670703887939453e+00) (1, 3.52987885475158691406e-01) (2, 3.20119480602443218231e-03) (3, -6.00729405879974365234e-01) (0, 9.14286553859710693359e-01) (1, -6.94087207317352294922e-01) (2, 1.15860819816589355469e+00) (3, 3.81682038307189941406e-01) (0, 1.43166196346282958984e+00) (1, 8.39001774787902832031e-01) (2, -1.06725358963012695312e+00) (3, -8.35894420742988586426e-02) (4, -1.66887491941452026367e-01) (5, -7.11057364940643310547e-01) (6, -1.26640915870666503906e+00) (7, 1.39612805843353271484e+00) (8, 1.83778774738311767578e+00) (9, -6.58988595008850097656e-01) (4, 1.97440862655639648438e+00) (5, -2.34114027023315429688e+00) (6, 2.88849413394927978516e-01) (7, -1.27003443241119384766e+00) (8, 8.83956611156463623047e-01) (9, -8.42377424240112304688e-01) (4, 1.31722104549407958984e+00) (5, 1.95993089675903320312e+00) (6, -9.36358809471130371094e-01) (7, -6.67403042316436767578e-01) (8, -1.22737817466259002686e-01) (9, 7.60465800762176513672e-01) 
