FANN_FLO_2.1
num_layers=3
learning_rate=0.100000
connection_rate=1.000000
network_type=0
learning_momentum=0.000000
training_algorithm=1
train_error_function=1
train_stop_function=0
cascade_output_change_fraction=0.010000
quickprop_decay=-0.000100
quickprop_mu=1.750000
rprop_increase_factor=1.200000
rprop_decrease_factor=0.500000
rprop_delta_min=0.000000
rprop_delta_max=50.000000
rprop_delta_zero=0.100000
cascade_output_stagnation_epochs=12
cascade_candidate_change_fraction=0.010000
cascade_candidate_stagnation_epochs=12
cascade_max_out_epochs=150
cascade_min_out_epochs=50
cascade_max_cand_epochs=150
cascade_min_cand_epochs=50
cascade_num_candidate_groups=2
bit_fail_limit=3.49999994039535522461e-01
cascade_candidate_limit=1.00000000000000000000e+03
cascade_weight_multiplier=4.00000005960464477539e-01
cascade_activation_functions_count=10
cascade_activation_functions=3 5 7 8 10 11 14 15 16 17 
cascade_activation_steepnesses_count=4
cascade_activation_steepnesses=2.50000000000000000000e-01 5.00000000000000000000e-01 7.50000000000000000000e-01 1.00000000000000000000e+00 
layer_sizes=4 6 4 
scale_included=1
scale_mean_in=0.000013 0.012636 0.160790 
scale_deviation_in=0.000033 0.004389 0.001293 
scale_new_min_in=-0.900000 -0.900000 -0.900000 
scale_factor_in=0.900000 0.900000 0.900000 
scale_mean_out=-1.342199 2.190397 -3.085422 
scale_deviation_out=0.359382 0.029143 0.040176 
scale_new_min_out=-0.900000 -0.900000 -0.900000 
scale_factor_out=0.900000 0.900000 0.900000 
neurons (num_inputs, activation_function, activation_steepness)=(0, 0, 0.00000000000000000000e+00) (0, 0, 0.00000000000000000000e+00) (0, 0, 0.00000000000000000000e+00) (0, 0, 0.00000000000000000000e+00) (4, 5, 5.00000000000000000000e-01) (4, 5, 5.00000000000000000000e-01) (4, 5, 5.00000000000000000000e-01) (4, 5, 5.00000000000000000000e-01) (4, 5, 5.00000000000000000000e-01) (0, 5, 0.00000000000000000000e+00) (6, 5, 5.00000000000000000000e-01) (6, 5, 5.00000000000000000000e-01) (6, 5, 5.00000000000000000000e-01) (0, 5, 0.00000000000000000000e+00) 
connections (connected_to_neuron, weight)=(0, -6.80034980177879333496e-02) (1, -3.52956581115722656250e+00) (2, 2.11686778068542480469e+00) (3, -1.16026294231414794922e+00) (0, 1.31114587783813476562e+01) (1, 2.53309059143066406250e+00) (2, -2.14145588874816894531e+00) (3, -8.22190761566162109375e+00) (0, 4.13574613630771636963e-02) (1, -8.02839472889900207520e-02) (2, 3.01837944984436035156e+00) (3, -3.10190749168395996094e+00) (0, -1.20814204216003417969e-01) (1, -4.53597545623779296875e+00) (2, 3.81173658370971679688e+00) (3, -2.11000204086303710938e-01) (0, 1.58223164081573486328e+00) (1, -4.65921354293823242188e+00) (2, 3.93297719955444335938e+00) (3, 3.00570178031921386719e+00) (4, -5.97892761230468750000e-01) (5, -1.22746448516845703125e+01) (6, -2.15103611350059509277e-01) (7, -6.82672917842864990234e-01) (8, -8.48864841461181640625e+00) (9, -3.06919407844543457031e+00) (4, 9.95070266723632812500e+00) (5, 4.86656278371810913086e-01) (6, 6.29259586334228515625e+00) (7, 1.23468265533447265625e+01) (8, 4.86356925964355468750e+00) (9, -8.44059085845947265625e+00) (4, -4.56645393371582031250e+00) (5, -2.09214225411415100098e-01) (6, 7.48516702651977539062e+00) (7, 3.13025975227355957031e+00) (8, 2.68779325485229492188e+00) (9, 3.58330655097961425781e+00) 
