FANN_FLO_2.1
num_layers=3
learning_rate=0.100000
connection_rate=1.000000
network_type=0
learning_momentum=0.000000
training_algorithm=1
train_error_function=1
train_stop_function=0
cascade_output_change_fraction=0.010000
quickprop_decay=-0.000100
quickprop_mu=1.750000
rprop_increase_factor=1.200000
rprop_decrease_factor=0.500000
rprop_delta_min=0.000000
rprop_delta_max=50.000000
rprop_delta_zero=0.100000
cascade_output_stagnation_epochs=12
cascade_candidate_change_fraction=0.010000
cascade_candidate_stagnation_epochs=12
cascade_max_out_epochs=150
cascade_min_out_epochs=50
cascade_max_cand_epochs=150
cascade_min_cand_epochs=50
cascade_num_candidate_groups=2
bit_fail_limit=3.49999994039535522461e-01
cascade_candidate_limit=1.00000000000000000000e+03
cascade_weight_multiplier=4.00000005960464477539e-01
cascade_activation_functions_count=10
cascade_activation_functions=3 5 7 8 10 11 14 15 16 17 
cascade_activation_steepnesses_count=4
cascade_activation_steepnesses=2.50000000000000000000e-01 5.00000000000000000000e-01 7.50000000000000000000e-01 1.00000000000000000000e+00 
layer_sizes=4 6 4 
scale_included=1
scale_mean_in=0.000021 0.097897 -0.153186 
scale_deviation_in=0.000011 0.014810 0.020749 
scale_new_min_in=-0.900000 -0.900000 -0.900000 
scale_factor_in=0.900000 0.900000 0.900000 
scale_mean_out=-1.474792 0.446748 -1.303779 
scale_deviation_out=0.377150 0.320627 0.405791 
scale_new_min_out=-0.900000 -0.900000 -0.900000 
scale_factor_out=0.900000 0.900000 0.900000 
neurons (num_inputs, activation_function, activation_steepness)=(0, 0, 0.00000000000000000000e+00) (0, 0, 0.00000000000000000000e+00) (0, 0, 0.00000000000000000000e+00) (0, 0, 0.00000000000000000000e+00) (4, 5, 5.00000000000000000000e-01) (4, 5, 5.00000000000000000000e-01) (4, 5, 5.00000000000000000000e-01) (4, 5, 5.00000000000000000000e-01) (4, 5, 5.00000000000000000000e-01) (0, 5, 0.00000000000000000000e+00) (6, 5, 5.00000000000000000000e-01) (6, 5, 5.00000000000000000000e-01) (6, 5, 5.00000000000000000000e-01) (0, 5, 0.00000000000000000000e+00) 
connections (connected_to_neuron, weight)=(0, 7.14170157909393310547e-01) (1, 6.00363969802856445312e-01) (2, -4.52670156955718994141e-01) (3, 4.13756012916564941406e-01) (0, -3.11156940460205078125e+00) (1, -1.53599724173545837402e-01) (2, -7.90066480636596679688e-01) (3, 4.29994702339172363281e-01) (0, 4.22353625297546386719e-01) (1, 5.39215862751007080078e-01) (2, 9.18980419635772705078e-01) (3, 3.67212057113647460938e-01) (0, -5.38439393043518066406e-01) (1, 5.21596729755401611328e-01) (2, -7.74045169353485107422e-01) (3, -3.01236569881439208984e-01) (0, 8.08941173553466796875e+00) (1, 1.12388255074620246887e-02) (2, -2.37209618091583251953e-01) (3, -1.18860876560211181641e+00) (4, 2.48413038253784179688e+00) (5, 2.00105500221252441406e+00) (6, 2.81631183624267578125e+00) (7, -2.69528102874755859375e+00) (8, -7.84900951385498046875e+00) (9, -1.86645686626434326172e+00) (4, 4.13133352994918823242e-01) (5, -1.79935109615325927734e+00) (6, 2.15917468070983886719e+00) (7, -3.17872142791748046875e+00) (8, 3.86560410261154174805e-01) (9, -9.08431410789489746094e-01) (4, -1.31862747669219970703e+00) (5, -2.35782742500305175781e+00) (6, 4.36364501714706420898e-01) (7, -3.29556131362915039062e+00) (8, -6.07798323035240173340e-02) (9, -1.25881001353263854980e-01) 
