FANN_FLO_2.1
num_layers=3
learning_rate=0.100000
connection_rate=1.000000
network_type=0
learning_momentum=0.000000
training_algorithm=1
train_error_function=1
train_stop_function=0
cascade_output_change_fraction=0.010000
quickprop_decay=-0.000100
quickprop_mu=1.750000
rprop_increase_factor=1.200000
rprop_decrease_factor=0.500000
rprop_delta_min=0.000000
rprop_delta_max=50.000000
rprop_delta_zero=0.100000
cascade_output_stagnation_epochs=12
cascade_candidate_change_fraction=0.010000
cascade_candidate_stagnation_epochs=12
cascade_max_out_epochs=150
cascade_min_out_epochs=50
cascade_max_cand_epochs=150
cascade_min_cand_epochs=50
cascade_num_candidate_groups=2
bit_fail_limit=3.49999994039535522461e-01
cascade_candidate_limit=1.00000000000000000000e+03
cascade_weight_multiplier=4.00000005960464477539e-01
cascade_activation_functions_count=10
cascade_activation_functions=3 5 7 8 10 11 14 15 16 17 
cascade_activation_steepnesses_count=4
cascade_activation_steepnesses=2.50000000000000000000e-01 5.00000000000000000000e-01 7.50000000000000000000e-01 1.00000000000000000000e+00 
layer_sizes=4 6 4 
scale_included=1
scale_mean_in=0.163276 -0.025230 -0.064265 
scale_deviation_in=0.001491 0.018845 0.003184 
scale_new_min_in=-0.900000 -0.900000 -0.900000 
scale_factor_in=0.900000 0.900000 0.900000 
scale_mean_out=-1.719094 2.176095 -0.718530 
scale_deviation_out=0.112825 0.038968 0.381219 
scale_new_min_out=-0.900000 -0.900000 -0.900000 
scale_factor_out=0.900000 0.900000 0.900000 
neurons (num_inputs, activation_function, activation_steepness)=(0, 0, 0.00000000000000000000e+00) (0, 0, 0.00000000000000000000e+00) (0, 0, 0.00000000000000000000e+00) (0, 0, 0.00000000000000000000e+00) (4, 5, 5.00000000000000000000e-01) (4, 5, 5.00000000000000000000e-01) (4, 5, 5.00000000000000000000e-01) (4, 5, 5.00000000000000000000e-01) (4, 5, 5.00000000000000000000e-01) (0, 5, 0.00000000000000000000e+00) (6, 5, 5.00000000000000000000e-01) (6, 5, 5.00000000000000000000e-01) (6, 5, 5.00000000000000000000e-01) (0, 5, 0.00000000000000000000e+00) 
connections (connected_to_neuron, weight)=(0, -2.05500650405883789062e+00) (1, -7.42774665355682373047e-01) (2, -7.26679372787475585938e+00) (3, -2.70557260513305664062e+00) (0, 3.19310092926025390625e+00) (1, 5.27971935272216796875e+00) (2, -5.83253049850463867188e+00) (3, 2.31460046768188476562e+00) (0, 3.99991488456726074219e+00) (1, -7.12562465667724609375e+00) (2, -1.91129064559936523438e+00) (3, 3.44768548011779785156e+00) (0, 4.60399007797241210938e+00) (1, -3.12495160102844238281e+00) (2, 1.89975380897521972656e+00) (3, -7.54980742931365966797e-01) (0, -1.11122655868530273438e+00) (1, 9.07636833190917968750e+00) (2, 2.25932288169860839844e+00) (3, 9.82742118835449218750e+00) (4, -4.86860126256942749023e-01) (5, 1.01114714145660400391e+00) (6, -1.76479089260101318359e+00) (7, 6.29867687821388244629e-02) (8, 6.48552036285400390625e+00) (9, -5.58921241760253906250e+00) (4, -1.85695648193359375000e+01) (5, -2.00695743560791015625e+01) (6, -5.74458479881286621094e-01) (7, -2.31827297210693359375e+01) (8, 3.02120990753173828125e+01) (9, -1.65246410369873046875e+01) (4, 1.39322900772094726562e+00) (5, -3.51356565952301025391e-01) (6, 8.78391861915588378906e-01) (7, 1.14256715774536132812e+00) (8, 1.32994973659515380859e+00) (9, -9.62945818901062011719e-01) 
