FANN_FLO_2.1
num_layers=3
learning_rate=0.100000
connection_rate=1.000000
network_type=0
learning_momentum=0.000000
training_algorithm=1
train_error_function=1
train_stop_function=0
cascade_output_change_fraction=0.010000
quickprop_decay=-0.000100
quickprop_mu=1.750000
rprop_increase_factor=1.200000
rprop_decrease_factor=0.500000
rprop_delta_min=0.000000
rprop_delta_max=50.000000
rprop_delta_zero=0.100000
cascade_output_stagnation_epochs=12
cascade_candidate_change_fraction=0.010000
cascade_candidate_stagnation_epochs=12
cascade_max_out_epochs=150
cascade_min_out_epochs=50
cascade_max_cand_epochs=150
cascade_min_cand_epochs=50
cascade_num_candidate_groups=2
bit_fail_limit=3.49999994039535522461e-01
cascade_candidate_limit=1.00000000000000000000e+03
cascade_weight_multiplier=4.00000005960464477539e-01
cascade_activation_functions_count=10
cascade_activation_functions=3 5 7 8 10 11 14 15 16 17 
cascade_activation_steepnesses_count=4
cascade_activation_steepnesses=2.50000000000000000000e-01 5.00000000000000000000e-01 7.50000000000000000000e-01 1.00000000000000000000e+00 
layer_sizes=4 6 4 
scale_included=1
scale_mean_in=0.176644 0.111149 0.058813 
scale_deviation_in=0.007933 0.012019 0.010240 
scale_new_min_in=-0.900000 -0.900000 -0.900000 
scale_factor_in=0.900000 0.900000 0.900000 
scale_mean_out=-1.006996 1.442942 -2.027777 
scale_deviation_out=0.058526 0.249575 0.680365 
scale_new_min_out=-0.900000 -0.900000 -0.900000 
scale_factor_out=0.900000 0.900000 0.900000 
neurons (num_inputs, activation_function, activation_steepness)=(0, 0, 0.00000000000000000000e+00) (0, 0, 0.00000000000000000000e+00) (0, 0, 0.00000000000000000000e+00) (0, 0, 0.00000000000000000000e+00) (4, 5, 5.00000000000000000000e-01) (4, 5, 5.00000000000000000000e-01) (4, 5, 5.00000000000000000000e-01) (4, 5, 5.00000000000000000000e-01) (4, 5, 5.00000000000000000000e-01) (0, 5, 0.00000000000000000000e+00) (6, 5, 5.00000000000000000000e-01) (6, 5, 5.00000000000000000000e-01) (6, 5, 5.00000000000000000000e-01) (0, 5, 0.00000000000000000000e+00) 
connections (connected_to_neuron, weight)=(0, -8.56707274913787841797e-01) (1, -6.83110654354095458984e-02) (2, -6.16243481636047363281e-01) (3, -9.01510238647460937500e-01) (0, 6.08871030807495117188e+00) (1, 5.76868104934692382812e+00) (2, 6.27304983139038085938e+00) (3, 4.84184741973876953125e+00) (0, -1.31165264174342155457e-02) (1, 8.37243437767028808594e-01) (2, -3.36778372526168823242e-01) (3, -6.45683854818344116211e-02) (0, 2.49088823795318603516e-01) (1, 8.50675761699676513672e-01) (2, 4.97743397951126098633e-01) (3, -2.20079481601715087891e-01) (0, -7.47146010398864746094e-02) (1, 4.91363286972045898438e-01) (2, 3.95619541406631469727e-01) (3, 1.35901403427124023438e+00) (4, 3.93040204048156738281e+00) (5, 1.06959544122219085693e-01) (6, 1.49943220615386962891e+00) (7, 3.60586214065551757812e+00) (8, 2.88743877410888671875e+00) (9, 2.73538976907730102539e-01) (4, -1.74109029769897460938e+00) (5, -8.48666191101074218750e+00) (6, -9.54293847084045410156e-01) (7, 1.67234790325164794922e+00) (8, 2.03509163856506347656e+00) (9, 5.92873144149780273438e+00) (4, -3.65600198507308959961e-01) (5, -3.79814743995666503906e-01) (6, -5.73788397014141082764e-02) (7, 8.83986413478851318359e-01) (8, -4.63650822639465332031e-01) (9, 5.07826149463653564453e-01) 
