FANN_FLO_2.1
num_layers=3
learning_rate=0.100000
connection_rate=1.000000
network_type=0
learning_momentum=0.000000
training_algorithm=1
train_error_function=1
train_stop_function=0
cascade_output_change_fraction=0.010000
quickprop_decay=-0.000100
quickprop_mu=1.750000
rprop_increase_factor=1.200000
rprop_decrease_factor=0.500000
rprop_delta_min=0.000000
rprop_delta_max=50.000000
rprop_delta_zero=0.100000
cascade_output_stagnation_epochs=12
cascade_candidate_change_fraction=0.010000
cascade_candidate_stagnation_epochs=12
cascade_max_out_epochs=150
cascade_min_out_epochs=50
cascade_max_cand_epochs=150
cascade_min_cand_epochs=50
cascade_num_candidate_groups=2
bit_fail_limit=3.49999994039535522461e-01
cascade_candidate_limit=1.00000000000000000000e+03
cascade_weight_multiplier=4.00000005960464477539e-01
cascade_activation_functions_count=10
cascade_activation_functions=3 5 7 8 10 11 14 15 16 17 
cascade_activation_steepnesses_count=4
cascade_activation_steepnesses=2.50000000000000000000e-01 5.00000000000000000000e-01 7.50000000000000000000e-01 1.00000000000000000000e+00 
layer_sizes=4 11 4 
scale_included=1
scale_mean_in=0.053691 0.127087 -0.011684 
scale_deviation_in=0.005848 0.000498 0.005309 
scale_new_min_in=-0.900000 -0.900000 -0.900000 
scale_factor_in=0.900000 0.900000 0.900000 
scale_mean_out=-0.402228 2.393412 -0.402052 
scale_deviation_out=0.039105 0.014061 0.039028 
scale_new_min_out=-0.900000 -0.900000 -0.900000 
scale_factor_out=0.900000 0.900000 0.900000 
neurons (num_inputs, activation_function, activation_steepness)=(0, 0, 0.00000000000000000000e+00) (0, 0, 0.00000000000000000000e+00) (0, 0, 0.00000000000000000000e+00) (0, 0, 0.00000000000000000000e+00) (4, 5, 5.00000000000000000000e-01) (4, 5, 5.00000000000000000000e-01) (4, 5, 5.00000000000000000000e-01) (4, 5, 5.00000000000000000000e-01) (4, 5, 5.00000000000000000000e-01) (4, 5, 5.00000000000000000000e-01) (4, 5, 5.00000000000000000000e-01) (4, 5, 5.00000000000000000000e-01) (4, 5, 5.00000000000000000000e-01) (4, 5, 5.00000000000000000000e-01) (0, 5, 0.00000000000000000000e+00) (11, 5, 5.00000000000000000000e-01) (11, 5, 5.00000000000000000000e-01) (11, 5, 5.00000000000000000000e-01) (0, 5, 0.00000000000000000000e+00) 
connections (connected_to_neuron, weight)=(0, -2.13087959289550781250e+01) (1, -2.12114639282226562500e+01) (2, -2.08657493591308593750e+01) (3, 9.56369972229003906250e+00) (0, 1.56877355575561523438e+01) (1, 1.60321617126464843750e+01) (2, 1.55927820205688476562e+01) (3, -2.15009422302246093750e+01) (0, 2.06627998352050781250e+01) (1, 2.05043277740478515625e+01) (2, 2.19918270111083984375e+01) (3, -9.46158313751220703125e+00) (0, 1.54166784286499023438e+01) (1, 1.55411024093627929688e+01) (2, 1.63362884521484375000e+01) (3, -2.14927768707275390625e+01) (0, 1.52447242736816406250e+01) (1, 1.62017612457275390625e+01) (2, 1.67470664978027343750e+01) (3, -2.18642692565917968750e+01) (0, 1.66822013854980468750e+01) (1, 1.52575550079345703125e+01) (2, 1.57358131408691406250e+01) (3, -2.16497745513916015625e+01) (0, 2.01578788757324218750e+01) (1, 1.98238124847412109375e+01) (2, 1.96376609802246093750e+01) (3, -9.81127548217773437500e+00) (0, 2.21701488494873046875e+01) (1, 2.22802982330322265625e+01) (2, 2.19910774230957031250e+01) (3, -9.77807521820068359375e+00) (0, -2.17080154418945312500e+01) (1, -2.16517219543457031250e+01) (2, -2.14101085662841796875e+01) (3, 1.03162193298339843750e+01) (0, 1.72068138122558593750e+01) (1, 1.70097637176513671875e+01) (2, 1.73856143951416015625e+01) (3, -2.32624206542968750000e+01) (4, 1.93064918518066406250e+01) (5, -1.69269638061523437500e+01) (6, -1.94483795166015625000e+01) (7, -1.76583023071289062500e+01) (8, -1.79363842010498046875e+01) (9, -1.69620723724365234375e+01) (10, -1.81142978668212890625e+01) (11, -1.90656833648681640625e+01) (12, 1.84521331787109375000e+01) (13, -1.80272502899169921875e+01) (14, 1.93365001678466796875e+01) (4, -1.94110946655273437500e+01) (5, 1.78774299621582031250e+01) (6, 1.79613685607910156250e+01) (7, 1.71441650390625000000e+01) (8, 1.71394176483154296875e+01) (9, 1.76858406066894531250e+01) (10, 1.74889907836914062500e+01) (11, 1.95329608917236328125e+01) (12, -1.96008396148681640625e+01) (13, 1.77936954498291015625e+01) (14, -1.88368339538574218750e+01) (4, 1.78210563659667968750e+01) (5, -1.74867115020751953125e+01) (6, -1.89897251129150390625e+01) (7, -1.74496345520019531250e+01) (8, -1.77444972991943359375e+01) (9, -1.78029346466064453125e+01) (10, -1.93368701934814453125e+01) (11, -1.92788829803466796875e+01) (12, 1.88343505859375000000e+01) (13, -1.86182365417480468750e+01) (14, 1.78594512939453125000e+01) 
