FANN_FLO_2.1
num_layers=3
learning_rate=0.100000
connection_rate=1.000000
network_type=0
learning_momentum=0.000000
training_algorithm=1
train_error_function=1
train_stop_function=0
cascade_output_change_fraction=0.010000
quickprop_decay=-0.000100
quickprop_mu=1.750000
rprop_increase_factor=1.200000
rprop_decrease_factor=0.500000
rprop_delta_min=0.000000
rprop_delta_max=50.000000
rprop_delta_zero=0.100000
cascade_output_stagnation_epochs=12
cascade_candidate_change_fraction=0.010000
cascade_candidate_stagnation_epochs=12
cascade_max_out_epochs=150
cascade_min_out_epochs=50
cascade_max_cand_epochs=150
cascade_min_cand_epochs=50
cascade_num_candidate_groups=2
bit_fail_limit=3.49999994039535522461e-01
cascade_candidate_limit=1.00000000000000000000e+03
cascade_weight_multiplier=4.00000005960464477539e-01
cascade_activation_functions_count=10
cascade_activation_functions=3 5 7 8 10 11 14 15 16 17 
cascade_activation_steepnesses_count=4
cascade_activation_steepnesses=2.50000000000000000000e-01 5.00000000000000000000e-01 7.50000000000000000000e-01 1.00000000000000000000e+00 
layer_sizes=4 11 4 
scale_included=1
scale_mean_in=0.108398 -0.034795 -0.065023 
scale_deviation_in=0.010006 0.004149 0.010011 
scale_new_min_in=-0.900000 -0.900000 -0.900000 
scale_factor_in=0.900000 0.900000 0.900000 
scale_mean_out=-1.881956 1.901362 -0.272286 
scale_deviation_out=0.031792 0.171707 0.122546 
scale_new_min_out=-0.900000 -0.900000 -0.900000 
scale_factor_out=0.900000 0.900000 0.900000 
neurons (num_inputs, activation_function, activation_steepness)=(0, 0, 0.00000000000000000000e+00) (0, 0, 0.00000000000000000000e+00) (0, 0, 0.00000000000000000000e+00) (0, 0, 0.00000000000000000000e+00) (4, 5, 5.00000000000000000000e-01) (4, 5, 5.00000000000000000000e-01) (4, 5, 5.00000000000000000000e-01) (4, 5, 5.00000000000000000000e-01) (4, 5, 5.00000000000000000000e-01) (4, 5, 5.00000000000000000000e-01) (4, 5, 5.00000000000000000000e-01) (4, 5, 5.00000000000000000000e-01) (4, 5, 5.00000000000000000000e-01) (4, 5, 5.00000000000000000000e-01) (0, 5, 0.00000000000000000000e+00) (11, 5, 5.00000000000000000000e-01) (11, 5, 5.00000000000000000000e-01) (11, 5, 5.00000000000000000000e-01) (0, 5, 0.00000000000000000000e+00) 
connections (connected_to_neuron, weight)=(0, -9.71531510353088378906e-01) (1, -5.65207421779632568359e-01) (2, 1.17733025550842285156e+00) (3, 2.25266098976135253906e-01) (0, -4.07028615474700927734e-01) (1, 7.96390235424041748047e-01) (2, 9.27339255809783935547e-01) (3, 2.89669305086135864258e-01) (0, -9.66608375310897827148e-02) (1, -9.30068135261535644531e-01) (2, 9.26646947860717773438e-01) (3, -4.41885888576507568359e-01) (0, -4.03460919857025146484e-01) (1, -1.27245771884918212891e+00) (2, -7.99045085906982421875e-01) (3, -2.52426892518997192383e-01) (0, -1.00150179862976074219e+00) (1, -1.34415125846862792969e+00) (2, -5.02326488494873046875e-01) (3, -8.44238325953483581543e-02) (0, 5.46608030796051025391e-01) (1, 2.89328515529632568359e-01) (2, -5.81831812858581542969e-01) (3, -2.40798532962799072266e-01) (0, 1.11211276054382324219e+00) (1, 2.77034133672714233398e-01) (2, 2.26520106196403503418e-01) (3, -1.90226063132286071777e-01) (0, -1.21576154232025146484e+00) (1, 1.43767803907394409180e-01) (2, 7.68352627754211425781e-01) (3, 1.61989152431488037109e-01) (0, -9.76865947246551513672e-01) (1, 2.61290043592453002930e-01) (2, 7.54362493753433227539e-02) (3, 5.50408661365509033203e-01) (0, -1.74811407923698425293e-01) (1, 2.43026912212371826172e-01) (2, -8.83104562759399414062e-01) (3, -8.76470148563385009766e-01) (4, -8.84817600250244140625e-01) (5, 1.67475402355194091797e-01) (6, -9.50936615467071533203e-01) (7, -1.29225337505340576172e+00) (8, -1.66736626625061035156e+00) (9, 5.28730332851409912109e-01) (10, 8.56946051120758056641e-01) (11, -3.53469669818878173828e-01) (12, 3.28762471675872802734e-01) (13, -3.72962981462478637695e-01) (14, -3.23121309280395507812e-01) (4, 1.23732411861419677734e+00) (5, 5.65246820449829101562e-01) (6, 1.33241653442382812500e+00) (7, -1.06271350383758544922e+00) (8, -4.49152886867523193359e-01) (9, -7.83895730972290039062e-01) (10, 4.57182317972183227539e-01) (11, 8.31675529479980468750e-01) (12, 4.08521354198455810547e-01) (13, -6.57021760940551757812e-01) (14, -5.34985780715942382812e-01) (4, 6.82534873485565185547e-01) (5, 1.00655519962310791016e+00) (6, 3.74350789934396743774e-03) (7, -4.03387278318405151367e-01) (8, 1.38241425156593322754e-01) (9, -1.92489981651306152344e-01) (10, -1.09400367736816406250e+00) (11, 1.52561652660369873047e+00) (12, 8.35942685604095458984e-01) (13, -4.29229319095611572266e-01) (14, -7.88218140602111816406e-01) 
