FANN_FLO_2.1
num_layers=3
learning_rate=0.100000
connection_rate=1.000000
network_type=0
learning_momentum=0.000000
training_algorithm=1
train_error_function=1
train_stop_function=0
cascade_output_change_fraction=0.010000
quickprop_decay=-0.000100
quickprop_mu=1.750000
rprop_increase_factor=1.200000
rprop_decrease_factor=0.500000
rprop_delta_min=0.000000
rprop_delta_max=50.000000
rprop_delta_zero=0.100000
cascade_output_stagnation_epochs=12
cascade_candidate_change_fraction=0.010000
cascade_candidate_stagnation_epochs=12
cascade_max_out_epochs=150
cascade_min_out_epochs=50
cascade_max_cand_epochs=150
cascade_min_cand_epochs=50
cascade_num_candidate_groups=2
bit_fail_limit=3.49999994039535522461e-01
cascade_candidate_limit=1.00000000000000000000e+03
cascade_weight_multiplier=4.00000005960464477539e-01
cascade_activation_functions_count=10
cascade_activation_functions=3 5 7 8 10 11 14 15 16 17 
cascade_activation_steepnesses_count=4
cascade_activation_steepnesses=2.50000000000000000000e-01 5.00000000000000000000e-01 7.50000000000000000000e-01 1.00000000000000000000e+00 
layer_sizes=4 11 4 
scale_included=1
scale_mean_in=0.116150 0.055222 -0.039805 
scale_deviation_in=0.005743 0.012068 0.004039 
scale_new_min_in=-0.900000 -0.900000 -0.900000 
scale_factor_in=0.900000 0.900000 0.900000 
scale_mean_out=-1.128382 2.169811 -0.320754 
scale_deviation_out=0.095569 0.050529 0.069119 
scale_new_min_out=-0.900000 -0.900000 -0.900000 
scale_factor_out=0.900000 0.900000 0.900000 
neurons (num_inputs, activation_function, activation_steepness)=(0, 0, 0.00000000000000000000e+00) (0, 0, 0.00000000000000000000e+00) (0, 0, 0.00000000000000000000e+00) (0, 0, 0.00000000000000000000e+00) (4, 5, 5.00000000000000000000e-01) (4, 5, 5.00000000000000000000e-01) (4, 5, 5.00000000000000000000e-01) (4, 5, 5.00000000000000000000e-01) (4, 5, 5.00000000000000000000e-01) (4, 5, 5.00000000000000000000e-01) (4, 5, 5.00000000000000000000e-01) (4, 5, 5.00000000000000000000e-01) (4, 5, 5.00000000000000000000e-01) (4, 5, 5.00000000000000000000e-01) (0, 5, 0.00000000000000000000e+00) (11, 5, 5.00000000000000000000e-01) (11, 5, 5.00000000000000000000e-01) (11, 5, 5.00000000000000000000e-01) (0, 5, 0.00000000000000000000e+00) 
connections (connected_to_neuron, weight)=(0, 1.44804298877716064453e-01) (1, 8.55250433087348937988e-02) (2, 1.31399571895599365234e+00) (3, -1.23632095754146575928e-01) (0, -6.78217947483062744141e-01) (1, -3.11449193954467773438e+00) (2, 5.58118045330047607422e-01) (3, 2.17067599296569824219e+00) (0, -2.81512427330017089844e+00) (1, -9.70296204090118408203e-01) (2, 1.34777438640594482422e+00) (3, 2.33307838439941406250e+00) (0, -4.98726731166243553162e-03) (1, -1.81389339268207550049e-02) (2, -1.03075422346591949463e-01) (3, -3.11645364761352539062e+00) (0, -1.11793076992034912109e+00) (1, 6.94251954555511474609e-02) (2, 3.58753278851509094238e-02) (3, -1.42077291011810302734e+00) (0, 7.57991373538970947266e-01) (1, -1.57035589218139648438e+00) (2, -2.27954134345054626465e-01) (3, 3.62662792205810546875e+00) (0, -2.43668586015701293945e-01) (1, 1.13502003252506256104e-01) (2, -9.50301885604858398438e-02) (3, -2.89673328399658203125e+00) (0, -3.16089600324630737305e-01) (1, -1.31157302856445312500e+00) (2, -1.76394477486610412598e-01) (3, -1.31141734123229980469e+00) (0, -5.49201583862304687500e+00) (1, -5.61388492584228515625e+00) (2, 5.07213115692138671875e+00) (3, 5.24788522720336914062e+00) (0, 9.87341582775115966797e-01) (1, -5.30533742904663085938e+00) (2, 3.85416932404041290283e-02) (3, -6.30160522460937500000e+00) (4, -5.99532909691333770752e-02) (5, -6.93406999111175537109e-01) (6, 9.24560725688934326172e-02) (7, 1.12968945503234863281e+00) (8, 1.29366850852966308594e+00) (9, -4.45636224746704101562e+00) (10, 2.92770481109619140625e+00) (11, -2.05460882186889648438e+00) (12, 3.02690453827381134033e-03) (13, -1.03985395431518554688e+01) (14, -2.39187288284301757812e+00) (4, 2.58773541450500488281e+00) (5, 3.07600641250610351562e+00) (6, 2.84686446189880371094e+00) (7, 4.63569784164428710938e+00) (8, 1.16295802593231201172e+00) (9, -2.73191475868225097656e+00) (10, 2.95750093460083007812e+00) (11, 9.51741456985473632812e-01) (12, 1.25093383789062500000e+01) (13, 1.95383638143539428711e-01) (14, -4.87090349197387695312e+00) (4, -7.62330174446105957031e-01) (5, 3.22156929969787597656e+00) (6, 2.54790687561035156250e+00) (7, 6.40303134918212890625e-01) (8, 3.43344402313232421875e+00) (9, -1.24778032302856445312e+00) (10, 2.38939118385314941406e+00) (11, 2.12662887573242187500e+00) (12, 4.17577075958251953125e+00) (13, 1.92781627178192138672e-01) (14, -8.67691934108734130859e-01) 
