FANN_FLO_2.1
num_layers=3
learning_rate=0.100000
connection_rate=1.000000
network_type=0
learning_momentum=0.000000
training_algorithm=1
train_error_function=1
train_stop_function=0
cascade_output_change_fraction=0.010000
quickprop_decay=-0.000100
quickprop_mu=1.750000
rprop_increase_factor=1.200000
rprop_decrease_factor=0.500000
rprop_delta_min=0.000000
rprop_delta_max=50.000000
rprop_delta_zero=0.100000
cascade_output_stagnation_epochs=12
cascade_candidate_change_fraction=0.010000
cascade_candidate_stagnation_epochs=12
cascade_max_out_epochs=150
cascade_min_out_epochs=50
cascade_max_cand_epochs=150
cascade_min_cand_epochs=50
cascade_num_candidate_groups=2
bit_fail_limit=3.49999994039535522461e-01
cascade_candidate_limit=1.00000000000000000000e+03
cascade_weight_multiplier=4.00000005960464477539e-01
cascade_activation_functions_count=10
cascade_activation_functions=3 5 7 8 10 11 14 15 16 17 
cascade_activation_steepnesses_count=4
cascade_activation_steepnesses=2.50000000000000000000e-01 5.00000000000000000000e-01 7.50000000000000000000e-01 1.00000000000000000000e+00 
layer_sizes=4 11 4 
scale_included=1
scale_mean_in=0.100770 0.090678 -0.099445 
scale_deviation_in=0.014055 0.013403 0.010464 
scale_new_min_in=-0.900000 -0.900000 -0.900000 
scale_factor_in=0.900000 0.900000 0.900000 
scale_mean_out=-0.837318 1.248635 -0.840670 
scale_deviation_out=0.078948 0.166325 0.224469 
scale_new_min_out=-0.900000 -0.900000 -0.900000 
scale_factor_out=0.900000 0.900000 0.900000 
neurons (num_inputs, activation_function, activation_steepness)=(0, 0, 0.00000000000000000000e+00) (0, 0, 0.00000000000000000000e+00) (0, 0, 0.00000000000000000000e+00) (0, 0, 0.00000000000000000000e+00) (4, 5, 5.00000000000000000000e-01) (4, 5, 5.00000000000000000000e-01) (4, 5, 5.00000000000000000000e-01) (4, 5, 5.00000000000000000000e-01) (4, 5, 5.00000000000000000000e-01) (4, 5, 5.00000000000000000000e-01) (4, 5, 5.00000000000000000000e-01) (4, 5, 5.00000000000000000000e-01) (4, 5, 5.00000000000000000000e-01) (4, 5, 5.00000000000000000000e-01) (0, 5, 0.00000000000000000000e+00) (11, 5, 5.00000000000000000000e-01) (11, 5, 5.00000000000000000000e-01) (11, 5, 5.00000000000000000000e-01) (0, 5, 0.00000000000000000000e+00) 
connections (connected_to_neuron, weight)=(0, 4.71055507659912109375e-01) (1, -7.97717869281768798828e-01) (2, 8.21438789367675781250e-01) (3, -8.25236737728118896484e-01) (0, 4.77022796869277954102e-01) (1, -6.83520972728729248047e-01) (2, 6.72283232212066650391e-01) (3, 1.30816733837127685547e+00) (0, 3.96692216396331787109e-01) (1, 5.21525144577026367188e-01) (2, 1.24248909950256347656e+00) (3, 3.69368374347686767578e-01) (0, 6.16443276405334472656e-01) (1, -4.74462866783142089844e-01) (2, -5.60090124607086181641e-01) (3, 1.24677646160125732422e+00) (0, -1.04754233360290527344e+00) (1, -1.22282654047012329102e-01) (2, -4.28764492273330688477e-01) (3, 4.61629256606101989746e-02) (0, -7.21050143241882324219e-01) (1, 1.57505303621292114258e-01) (2, 2.41095036268234252930e-01) (3, 1.68093219399452209473e-01) (0, -2.18422460556030273438e+00) (1, 3.24901461601257324219e+00) (2, 1.73562899231910705566e-01) (3, 3.92412781715393066406e+00) (0, -4.17340040206909179688e-01) (1, -1.02002823352813720703e+00) (2, -3.46848547458648681641e-01) (3, 7.92842328548431396484e-01) (0, -2.68091946840286254883e-01) (1, 4.68599975109100341797e-01) (2, -5.17366826534271240234e-01) (3, 2.33414053916931152344e-01) (0, -5.58126084506511688232e-02) (1, 8.53752419352531433105e-02) (2, 2.94747978448867797852e-01) (3, -1.56243419647216796875e+00) (4, -1.51898574829101562500e+00) (5, -1.56646215915679931641e+00) (6, 4.06959444284439086914e-01) (7, -2.35796046257019042969e+00) (8, 1.59267497062683105469e+00) (9, 2.17194962501525878906e+00) (10, 4.39504718780517578125e+00) (11, -1.60000741481781005859e+00) (12, 4.21830266714096069336e-01) (13, 9.52608227729797363281e-01) (14, -1.77833068370819091797e+00) (4, 1.64336264133453369141e+00) (5, 1.82847559452056884766e+00) (6, 2.60903000831604003906e+00) (7, -2.38948154449462890625e+00) (8, 1.28083860874176025391e+00) (9, 1.42000758647918701172e+00) (10, 1.99841320514678955078e-01) (11, 1.69345235824584960938e+00) (12, -6.19307935237884521484e-01) (13, 6.11445546150207519531e-01) (14, 1.34068548679351806641e-01) (4, 1.64629447460174560547e+00) (5, 2.26562047004699707031e+00) (6, 8.61354053020477294922e-01) (7, -2.34321713447570800781e+00) (8, 2.76543283462524414062e+00) (9, 1.17936742305755615234e+00) (10, 2.88035780191421508789e-01) (11, 2.01241183280944824219e+00) (12, -8.40158104896545410156e-01) (13, -2.85783022642135620117e-01) (14, -5.45078158378601074219e-01) 
