FANN_FLO_2.1
num_layers=3
learning_rate=0.100000
connection_rate=1.000000
network_type=0
learning_momentum=0.000000
training_algorithm=1
train_error_function=1
train_stop_function=0
cascade_output_change_fraction=0.010000
quickprop_decay=-0.000100
quickprop_mu=1.750000
rprop_increase_factor=1.200000
rprop_decrease_factor=0.500000
rprop_delta_min=0.000000
rprop_delta_max=50.000000
rprop_delta_zero=0.100000
cascade_output_stagnation_epochs=12
cascade_candidate_change_fraction=0.010000
cascade_candidate_stagnation_epochs=12
cascade_max_out_epochs=150
cascade_min_out_epochs=50
cascade_max_cand_epochs=150
cascade_min_cand_epochs=50
cascade_num_candidate_groups=2
bit_fail_limit=3.49999994039535522461e-01
cascade_candidate_limit=1.00000000000000000000e+03
cascade_weight_multiplier=4.00000005960464477539e-01
cascade_activation_functions_count=10
cascade_activation_functions=3 5 7 8 10 11 14 15 16 17 
cascade_activation_steepnesses_count=4
cascade_activation_steepnesses=2.50000000000000000000e-01 5.00000000000000000000e-01 7.50000000000000000000e-01 1.00000000000000000000e+00 
layer_sizes=4 11 4 
scale_included=1
scale_mean_in=0.109203 0.097618 -0.031317 
scale_deviation_in=0.009638 0.013026 0.009474 
scale_new_min_in=-0.900000 -0.900000 -0.900000 
scale_factor_in=0.900000 0.900000 0.900000 
scale_mean_out=-0.842848 2.062168 -0.554588 
scale_deviation_out=0.080304 0.119801 0.154798 
scale_new_min_out=-0.900000 -0.900000 -0.900000 
scale_factor_out=0.900000 0.900000 0.900000 
neurons (num_inputs, activation_function, activation_steepness)=(0, 0, 0.00000000000000000000e+00) (0, 0, 0.00000000000000000000e+00) (0, 0, 0.00000000000000000000e+00) (0, 0, 0.00000000000000000000e+00) (4, 5, 5.00000000000000000000e-01) (4, 5, 5.00000000000000000000e-01) (4, 5, 5.00000000000000000000e-01) (4, 5, 5.00000000000000000000e-01) (4, 5, 5.00000000000000000000e-01) (4, 5, 5.00000000000000000000e-01) (4, 5, 5.00000000000000000000e-01) (4, 5, 5.00000000000000000000e-01) (4, 5, 5.00000000000000000000e-01) (4, 5, 5.00000000000000000000e-01) (0, 5, 0.00000000000000000000e+00) (11, 5, 5.00000000000000000000e-01) (11, 5, 5.00000000000000000000e-01) (11, 5, 5.00000000000000000000e-01) (0, 5, 0.00000000000000000000e+00) 
connections (connected_to_neuron, weight)=(0, -1.68184384703636169434e-01) (1, -1.03494191169738769531e+00) (2, -1.14036478102207183838e-01) (3, -3.36146920919418334961e-01) (0, -5.83155512809753417969e-01) (1, 9.21380281448364257812e-01) (2, 6.47525668144226074219e-01) (3, -1.69528687000274658203e+00) (0, 1.16983723640441894531e+00) (1, -3.16179484128952026367e-01) (2, -1.77378863096237182617e-01) (3, 2.51502919197082519531e+00) (0, -5.62477052211761474609e-01) (1, 1.86853206157684326172e+00) (2, -5.51783323287963867188e-01) (3, -1.73347449302673339844e+00) (0, -1.29327845573425292969e+00) (1, 3.03187370300292968750e+00) (2, -2.09316611289978027344e-01) (3, 3.98133587837219238281e+00) (0, -3.96156758069992065430e-01) (1, -3.36826235055923461914e-01) (2, 3.92969548702239990234e-01) (3, -2.00872993469238281250e+00) (0, 2.43516349792480468750e+00) (1, 3.05092716217041015625e+00) (2, -2.04530191421508789062e+00) (3, -4.88139486312866210938e+00) (0, -7.34476923942565917969e-01) (1, 1.38960018754005432129e-01) (2, 1.71893608570098876953e+00) (3, 1.17581951618194580078e+00) (0, 1.43786680698394775391e+00) (1, 1.16471074521541595459e-01) (2, -1.35923534631729125977e-01) (3, -6.42563998699188232422e-01) (0, -6.99701726436614990234e-01) (1, -2.59237378835678100586e-01) (2, -1.54093727469444274902e-01) (3, -1.35848820209503173828e+00) (4, -1.46047556400299072266e+00) (5, 5.59372782707214355469e-01) (6, -2.61960434913635253906e+00) (7, 1.58108997344970703125e+00) (8, 4.58710098266601562500e+00) (9, -2.07393854856491088867e-01) (10, -1.31876826286315917969e-01) (11, 5.00205345451831817627e-02) (12, -8.79878938198089599609e-01) (13, 4.37610864639282226562e-01) (14, -1.20706796646118164062e+00) (4, 1.72495436668395996094e+00) (5, 1.22415959835052490234e+00) (6, -1.35478341579437255859e+00) (7, -2.70167350769042968750e+00) (8, -8.95749270915985107422e-01) (9, 3.67867302894592285156e+00) (10, -5.00190734863281250000e+00) (11, 2.79789471626281738281e+00) (12, -1.24994897842407226562e+00) (13, 6.85248076915740966797e-01) (14, -1.93160200119018554688e+00) (4, 1.16694581508636474609e+00) (5, -1.50697302818298339844e+00) (6, -2.57108163833618164062e+00) (7, -1.70425045490264892578e+00) (8, -5.15532314777374267578e-01) (9, 6.32232069969177246094e-01) (10, -2.40462327003479003906e+00) (11, 1.60843133926391601562e-01) (12, -2.13126039505004882812e+00) (13, 1.86923301219940185547e+00) (14, -4.99270379543304443359e-01) 
