FANN_FLO_2.1
num_layers=3
learning_rate=0.100000
connection_rate=1.000000
network_type=0
learning_momentum=0.000000
training_algorithm=1
train_error_function=1
train_stop_function=0
cascade_output_change_fraction=0.010000
quickprop_decay=-0.000100
quickprop_mu=1.750000
rprop_increase_factor=1.200000
rprop_decrease_factor=0.500000
rprop_delta_min=0.000000
rprop_delta_max=50.000000
rprop_delta_zero=0.100000
cascade_output_stagnation_epochs=12
cascade_candidate_change_fraction=0.010000
cascade_candidate_stagnation_epochs=12
cascade_max_out_epochs=150
cascade_min_out_epochs=50
cascade_max_cand_epochs=150
cascade_min_cand_epochs=50
cascade_num_candidate_groups=2
bit_fail_limit=3.49999994039535522461e-01
cascade_candidate_limit=1.00000000000000000000e+03
cascade_weight_multiplier=4.00000005960464477539e-01
cascade_activation_functions_count=10
cascade_activation_functions=3 5 7 8 10 11 14 15 16 17 
cascade_activation_steepnesses_count=4
cascade_activation_steepnesses=2.50000000000000000000e-01 5.00000000000000000000e-01 7.50000000000000000000e-01 1.00000000000000000000e+00 
layer_sizes=4 11 4 
scale_included=1
scale_mean_in=0.166054 -0.004751 0.006237 
scale_deviation_in=0.006195 0.014520 0.010201 
scale_new_min_in=-0.900000 -0.900000 -0.900000 
scale_factor_in=0.900000 0.900000 0.900000 
scale_mean_out=-1.599314 2.114693 -0.866676 
scale_deviation_out=0.087345 0.077870 0.109053 
scale_new_min_out=-0.900000 -0.900000 -0.900000 
scale_factor_out=0.900000 0.900000 0.900000 
neurons (num_inputs, activation_function, activation_steepness)=(0, 0, 0.00000000000000000000e+00) (0, 0, 0.00000000000000000000e+00) (0, 0, 0.00000000000000000000e+00) (0, 0, 0.00000000000000000000e+00) (4, 5, 5.00000000000000000000e-01) (4, 5, 5.00000000000000000000e-01) (4, 5, 5.00000000000000000000e-01) (4, 5, 5.00000000000000000000e-01) (4, 5, 5.00000000000000000000e-01) (4, 5, 5.00000000000000000000e-01) (4, 5, 5.00000000000000000000e-01) (4, 5, 5.00000000000000000000e-01) (4, 5, 5.00000000000000000000e-01) (4, 5, 5.00000000000000000000e-01) (0, 5, 0.00000000000000000000e+00) (11, 5, 5.00000000000000000000e-01) (11, 5, 5.00000000000000000000e-01) (11, 5, 5.00000000000000000000e-01) (0, 5, 0.00000000000000000000e+00) 
connections (connected_to_neuron, weight)=(0, 1.07964348793029785156e+00) (1, -5.04328757524490356445e-02) (2, 8.05066525936126708984e-01) (3, 6.32163763046264648438e-01) (0, 1.28187131881713867188e+00) (1, -3.17213207483291625977e-01) (2, -1.58292770385742187500e-01) (3, 1.31022214889526367188e-01) (0, -8.82143437862396240234e-01) (1, -4.65829849243164062500e-01) (2, 8.94578874111175537109e-01) (3, -1.08322292566299438477e-01) (0, 1.79803717136383056641e+00) (1, 3.46998065710067749023e-01) (2, -1.29295572638511657715e-01) (3, -8.55473875999450683594e-02) (0, 3.13582599163055419922e-01) (1, 9.92582261562347412109e-01) (2, 7.08506882190704345703e-01) (3, 2.20776662230491638184e-01) (0, 1.69619530439376831055e-01) (1, -5.70103824138641357422e-01) (2, 7.25100338459014892578e-01) (3, 6.71065866947174072266e-01) (0, 5.95732033252716064453e-01) (1, 9.01620268821716308594e-01) (2, -5.26409685611724853516e-01) (3, 3.39505076408386230469e-01) (0, -6.88353359699249267578e-01) (1, 1.30032110214233398438e+00) (2, 5.61270058155059814453e-01) (3, -6.44020512700080871582e-02) (0, 4.87091660499572753906e-01) (1, 7.91204512119293212891e-01) (2, -4.90700930356979370117e-01) (3, -5.39170384407043457031e-01) (0, -2.07322999835014343262e-01) (1, 9.95749831199645996094e-01) (2, 8.16110670566558837891e-02) (3, 4.95609581470489501953e-01) (4, -3.58718872070312500000e-01) (5, 3.64455223083496093750e-01) (6, -8.25531184673309326172e-01) (7, -4.48118299245834350586e-01) (8, 1.45404684543609619141e+00) (9, -4.21009004116058349609e-01) (10, 6.74043416976928710938e-01) (11, 1.41731154918670654297e+00) (12, 8.61224353313446044922e-01) (13, 1.17272412776947021484e+00) (14, -1.02535918354988098145e-01) (4, -1.21249996125698089600e-01) (5, -1.44456255435943603516e+00) (6, 1.62654244899749755859e+00) (7, -1.00362777709960937500e+00) (8, 8.34488689899444580078e-01) (9, 5.78958272933959960938e-01) (10, -2.23845615983009338379e-01) (11, 8.57225179672241210938e-01) (12, -8.35897445678710937500e-01) (13, 2.88435816764831542969e-01) (14, -2.41389319300651550293e-01) (4, -1.07532083988189697266e+00) (5, -9.82494592666625976562e-01) (6, -4.48010802268981933594e-01) (7, -1.68205177783966064453e+00) (8, -8.67992103099822998047e-01) (9, -3.94916743040084838867e-01) (10, 1.68543696403503417969e-01) (11, 3.78572195768356323242e-01) (12, 3.47465500235557556152e-02) (13, 3.54945689439773559570e-01) (14, 3.78682315349578857422e-01) 
