FANN_FLO_2.1
num_layers=3
learning_rate=0.100000
connection_rate=1.000000
network_type=0
learning_momentum=0.000000
training_algorithm=1
train_error_function=1
train_stop_function=0
cascade_output_change_fraction=0.010000
quickprop_decay=-0.000100
quickprop_mu=1.750000
rprop_increase_factor=1.200000
rprop_decrease_factor=0.500000
rprop_delta_min=0.000000
rprop_delta_max=50.000000
rprop_delta_zero=0.100000
cascade_output_stagnation_epochs=12
cascade_candidate_change_fraction=0.010000
cascade_candidate_stagnation_epochs=12
cascade_max_out_epochs=150
cascade_min_out_epochs=50
cascade_max_cand_epochs=150
cascade_min_cand_epochs=50
cascade_num_candidate_groups=2
bit_fail_limit=3.49999994039535522461e-01
cascade_candidate_limit=1.00000000000000000000e+03
cascade_weight_multiplier=4.00000005960464477539e-01
cascade_activation_functions_count=10
cascade_activation_functions=3 5 7 8 10 11 14 15 16 17 
cascade_activation_steepnesses_count=4
cascade_activation_steepnesses=2.50000000000000000000e-01 5.00000000000000000000e-01 7.50000000000000000000e-01 1.00000000000000000000e+00 
layer_sizes=4 11 4 
scale_included=1
scale_mean_in=0.171290 -0.004397 0.043033 
scale_deviation_in=0.003043 0.015049 0.010413 
scale_new_min_in=-0.900000 -0.900000 -0.900000 
scale_factor_in=0.900000 0.900000 0.900000 
scale_mean_out=-1.596358 2.160938 -1.131895 
scale_deviation_out=0.087633 0.044802 0.091936 
scale_new_min_out=-0.900000 -0.900000 -0.900000 
scale_factor_out=0.900000 0.900000 0.900000 
neurons (num_inputs, activation_function, activation_steepness)=(0, 0, 0.00000000000000000000e+00) (0, 0, 0.00000000000000000000e+00) (0, 0, 0.00000000000000000000e+00) (0, 0, 0.00000000000000000000e+00) (4, 5, 5.00000000000000000000e-01) (4, 5, 5.00000000000000000000e-01) (4, 5, 5.00000000000000000000e-01) (4, 5, 5.00000000000000000000e-01) (4, 5, 5.00000000000000000000e-01) (4, 5, 5.00000000000000000000e-01) (4, 5, 5.00000000000000000000e-01) (4, 5, 5.00000000000000000000e-01) (4, 5, 5.00000000000000000000e-01) (4, 5, 5.00000000000000000000e-01) (0, 5, 0.00000000000000000000e+00) (11, 5, 5.00000000000000000000e-01) (11, 5, 5.00000000000000000000e-01) (11, 5, 5.00000000000000000000e-01) (0, 5, 0.00000000000000000000e+00) 
connections (connected_to_neuron, weight)=(0, 5.43402433395385742188e-01) (1, 3.45717906951904296875e-01) (2, 8.97937059402465820312e-01) (3, 6.93284690380096435547e-01) (0, 1.28392010927200317383e-01) (1, -1.59766972064971923828e+00) (2, -5.23477746173739433289e-03) (3, -2.56110370159149169922e-01) (0, -6.02078974246978759766e-01) (1, 1.21465694904327392578e+00) (2, 4.27949488162994384766e-01) (3, 3.99854928255081176758e-01) (0, 4.91498202085494995117e-01) (1, -1.10844112932682037354e-01) (2, -9.04847264289855957031e-01) (3, -1.69675782322883605957e-01) (0, -3.48674654960632324219e-01) (1, -1.26365534961223602295e-02) (2, -8.11227202415466308594e-01) (3, 6.47282481193542480469e-01) (0, -2.23284885287284851074e-01) (1, 8.11406016349792480469e-01) (2, -1.00815963745117187500e+00) (3, -3.01998823881149291992e-01) (0, -1.21475970745086669922e+00) (1, -7.32189044356346130371e-02) (2, 1.01766169071197509766e+00) (3, -7.47690126299858093262e-02) (0, -5.75045108795166015625e-01) (1, -1.02830684185028076172e+00) (2, -5.73331296443939208984e-01) (3, -2.23792627453804016113e-01) (0, -1.63185143470764160156e+00) (1, -2.04889774322509765625e-02) (2, -7.18834578990936279297e-01) (3, 6.75903141498565673828e-01) (0, -3.73002856969833374023e-01) (1, 3.74867320060729980469e-01) (2, -8.49096536636352539062e-01) (3, -3.97844016551971435547e-01) (4, 6.71228647232055664062e-01) (5, -1.84912395477294921875e+00) (6, 1.39518022537231445312e+00) (7, 3.69796723127365112305e-01) (8, -6.85922682285308837891e-01) (9, 1.04114675521850585938e+00) (10, -3.44862699508666992188e-01) (11, -4.91281837224960327148e-01) (12, 1.40477321110665798187e-03) (13, 3.63653898239135742188e-01) (14, -2.59582668542861938477e-01) (4, 1.95019558072090148926e-01) (5, -5.87968170642852783203e-01) (6, 7.01173067092895507812e-01) (7, -8.33864152431488037109e-01) (8, 2.42908567190170288086e-01) (9, -5.16805469989776611328e-01) (10, 1.80927240848541259766e+00) (11, 8.68835866451263427734e-01) (12, 1.60432291030883789062e+00) (13, 5.18032133579254150391e-01) (14, -4.55641865730285644531e-01) (4, -1.30646157264709472656e+00) (5, 1.19770951569080352783e-01) (6, 4.50228661298751831055e-01) (7, 2.28830844163894653320e-01) (8, 2.28914320468902587891e-02) (9, 1.05228555202484130859e+00) (10, -8.90858650207519531250e-01) (11, 6.02791309356689453125e-01) (12, 1.73776996135711669922e+00) (13, 7.21777915954589843750e-01) (14, 2.61839956045150756836e-01) 
