FANN_FLO_2.1
num_layers=3
learning_rate=0.100000
connection_rate=1.000000
network_type=0
learning_momentum=0.000000
training_algorithm=1
train_error_function=1
train_stop_function=0
cascade_output_change_fraction=0.010000
quickprop_decay=-0.000100
quickprop_mu=1.750000
rprop_increase_factor=1.200000
rprop_decrease_factor=0.500000
rprop_delta_min=0.000000
rprop_delta_max=50.000000
rprop_delta_zero=0.100000
cascade_output_stagnation_epochs=12
cascade_candidate_change_fraction=0.010000
cascade_candidate_stagnation_epochs=12
cascade_max_out_epochs=150
cascade_min_out_epochs=50
cascade_max_cand_epochs=150
cascade_min_cand_epochs=50
cascade_num_candidate_groups=2
bit_fail_limit=3.49999994039535522461e-01
cascade_candidate_limit=1.00000000000000000000e+03
cascade_weight_multiplier=4.00000005960464477539e-01
cascade_activation_functions_count=10
cascade_activation_functions=3 5 7 8 10 11 14 15 16 17 
cascade_activation_steepnesses_count=4
cascade_activation_steepnesses=2.50000000000000000000e-01 5.00000000000000000000e-01 7.50000000000000000000e-01 1.00000000000000000000e+00 
layer_sizes=4 11 4 
scale_included=1
scale_mean_in=0.141526 0.043943 -0.164388 
scale_deviation_in=0.011462 0.014170 0.006974 
scale_new_min_in=-0.900000 -0.900000 -0.900000 
scale_factor_in=0.900000 0.900000 0.900000 
scale_mean_out=-1.269872 0.129451 -2.140642 
scale_deviation_out=0.096558 0.156075 0.269033 
scale_new_min_out=-0.900000 -0.900000 -0.900000 
scale_factor_out=0.900000 0.900000 0.900000 
neurons (num_inputs, activation_function, activation_steepness)=(0, 0, 0.00000000000000000000e+00) (0, 0, 0.00000000000000000000e+00) (0, 0, 0.00000000000000000000e+00) (0, 0, 0.00000000000000000000e+00) (4, 5, 5.00000000000000000000e-01) (4, 5, 5.00000000000000000000e-01) (4, 5, 5.00000000000000000000e-01) (4, 5, 5.00000000000000000000e-01) (4, 5, 5.00000000000000000000e-01) (4, 5, 5.00000000000000000000e-01) (4, 5, 5.00000000000000000000e-01) (4, 5, 5.00000000000000000000e-01) (4, 5, 5.00000000000000000000e-01) (4, 5, 5.00000000000000000000e-01) (0, 5, 0.00000000000000000000e+00) (11, 5, 5.00000000000000000000e-01) (11, 5, 5.00000000000000000000e-01) (11, 5, 5.00000000000000000000e-01) (0, 5, 0.00000000000000000000e+00) 
connections (connected_to_neuron, weight)=(0, -4.82910186052322387695e-01) (1, 8.02130401134490966797e-01) (2, -1.77499383687973022461e-01) (3, 6.18643462657928466797e-01) (0, 6.42434895038604736328e-01) (1, 1.67537540197372436523e-01) (2, -6.16549193859100341797e-01) (3, 9.29225027561187744141e-01) (0, -2.97125250101089477539e-01) (1, -1.36223673820495605469e+00) (2, -5.50584614276885986328e-01) (3, -8.49297404289245605469e-01) (0, -1.18275451660156250000e+00) (1, 2.64963299036026000977e-01) (2, 7.81231641769409179688e-01) (3, 3.73208165168762207031e-01) (0, -8.47191452980041503906e-01) (1, 6.88012182712554931641e-01) (2, -4.06245559453964233398e-01) (3, -6.11859560012817382812e-01) (0, 1.08313310146331787109e+00) (1, 2.60128289461135864258e-01) (2, -1.63735580444335937500e+00) (3, 9.76042807102203369141e-01) (0, 1.21403193473815917969e+00) (1, 7.42230057716369628906e-01) (2, -9.10871624946594238281e-01) (3, -1.84562787413597106934e-01) (0, 6.98996782302856445312e-01) (1, 8.13334107398986816406e-01) (2, -1.25592267513275146484e+00) (3, 6.00531220436096191406e-01) (0, 1.87496125698089599609e+00) (1, 7.99726784229278564453e-01) (2, -1.47224798798561096191e-01) (3, -1.88921999931335449219e+00) (0, -7.85397410392761230469e-01) (1, 8.62669289112091064453e-01) (2, -9.56001460552215576172e-01) (3, -9.85034406185150146484e-01) (4, 9.20111477375030517578e-01) (5, -3.35967689752578735352e-01) (6, -2.25685286521911621094e+00) (7, 1.19558024406433105469e+00) (8, 9.98940289020538330078e-01) (9, -1.45429074764251708984e+00) (10, 9.93277907371520996094e-01) (11, 1.67979776859283447266e+00) (12, 2.44355246424674987793e-01) (13, 9.77309346199035644531e-01) (14, -1.37535214424133300781e-01) (4, 5.72271466255187988281e-01) (5, -4.96748417615890502930e-01) (6, -1.30631411075592041016e+00) (7, 1.27661943435668945312e+00) (8, -6.96201145648956298828e-01) (9, -2.54051709175109863281e+00) (10, -1.94735968112945556641e+00) (11, -1.79231953620910644531e+00) (12, -2.05960297584533691406e+00) (13, -1.12933731079101562500e+00) (14, -1.17962278425693511963e-01) (4, 9.11504626274108886719e-02) (5, -1.13162577152252197266e+00) (6, -1.94437671452760696411e-02) (7, 1.36049365997314453125e+00) (8, 1.51666373014450073242e-01) (9, -2.24222779273986816406e+00) (10, -2.44355821609497070312e+00) (11, -4.05287533998489379883e-01) (12, -1.88677740097045898438e+00) (13, -6.90936863422393798828e-01) (14, 3.99320542812347412109e-01) 
