FANN_FLO_2.1
num_layers=3
learning_rate=0.100000
connection_rate=1.000000
network_type=0
learning_momentum=0.000000
training_algorithm=1
train_error_function=1
train_stop_function=0
cascade_output_change_fraction=0.010000
quickprop_decay=-0.000100
quickprop_mu=1.750000
rprop_increase_factor=1.200000
rprop_decrease_factor=0.500000
rprop_delta_min=0.000000
rprop_delta_max=50.000000
rprop_delta_zero=0.100000
cascade_output_stagnation_epochs=12
cascade_candidate_change_fraction=0.010000
cascade_candidate_stagnation_epochs=12
cascade_max_out_epochs=150
cascade_min_out_epochs=50
cascade_max_cand_epochs=150
cascade_min_cand_epochs=50
cascade_num_candidate_groups=2
bit_fail_limit=3.49999994039535522461e-01
cascade_candidate_limit=1.00000000000000000000e+03
cascade_weight_multiplier=4.00000005960464477539e-01
cascade_activation_functions_count=10
cascade_activation_functions=3 5 7 8 10 11 14 15 16 17 
cascade_activation_steepnesses_count=4
cascade_activation_steepnesses=2.50000000000000000000e-01 5.00000000000000000000e-01 7.50000000000000000000e-01 1.00000000000000000000e+00 
layer_sizes=4 11 4 
scale_included=1
scale_mean_in=0.156192 0.100174 0.045802 
scale_deviation_in=0.013585 0.014191 0.010486 
scale_new_min_in=-0.900000 -0.900000 -0.900000 
scale_factor_in=0.900000 0.900000 0.900000 
scale_mean_out=-1.000138 1.924447 -1.449605 
scale_deviation_out=0.084284 0.250131 0.366072 
scale_new_min_out=-0.900000 -0.900000 -0.900000 
scale_factor_out=0.900000 0.900000 0.900000 
neurons (num_inputs, activation_function, activation_steepness)=(0, 0, 0.00000000000000000000e+00) (0, 0, 0.00000000000000000000e+00) (0, 0, 0.00000000000000000000e+00) (0, 0, 0.00000000000000000000e+00) (4, 5, 5.00000000000000000000e-01) (4, 5, 5.00000000000000000000e-01) (4, 5, 5.00000000000000000000e-01) (4, 5, 5.00000000000000000000e-01) (4, 5, 5.00000000000000000000e-01) (4, 5, 5.00000000000000000000e-01) (4, 5, 5.00000000000000000000e-01) (4, 5, 5.00000000000000000000e-01) (4, 5, 5.00000000000000000000e-01) (4, 5, 5.00000000000000000000e-01) (0, 5, 0.00000000000000000000e+00) (11, 5, 5.00000000000000000000e-01) (11, 5, 5.00000000000000000000e-01) (11, 5, 5.00000000000000000000e-01) (0, 5, 0.00000000000000000000e+00) 
connections (connected_to_neuron, weight)=(0, -2.31703243255615234375e+01) (1, 5.19743442535400390625e+00) (2, -4.22466421127319335938e+00) (3, 6.86529338359832763672e-01) (0, -3.42206740379333496094e+00) (1, -2.26071395874023437500e+01) (2, -3.48059773445129394531e+00) (3, 1.52197349071502685547e+00) (0, -2.54775447845458984375e+01) (1, 4.32962560653686523438e+00) (2, -3.79638123512268066406e+00) (3, -8.69632780551910400391e-01) (0, -3.00552806854248046875e+01) (1, -2.21270618438720703125e+01) (2, -8.72292423248291015625e+00) (3, 2.41638336181640625000e+01) (0, 4.44460868835449218750e+00) (1, 2.54709949493408203125e+01) (2, 4.10089349746704101562e+00) (3, -2.32566428184509277344e+00) (0, -1.59400205612182617188e+01) (1, -1.20167045593261718750e+01) (2, -4.01857709884643554688e+00) (3, -2.00495605468750000000e+01) (0, 1.21207704544067382812e+01) (1, 1.03852386474609375000e+01) (2, 2.99972867965698242188e+00) (3, 1.70260639190673828125e+01) (0, -1.42339839935302734375e+01) (1, -1.02365865707397460938e+01) (2, -4.62990236282348632812e+00) (3, -1.84963321685791015625e+01) (0, -1.00528783798217773438e+01) (1, -5.55674076080322265625e+00) (2, -1.43210875988006591797e+00) (3, -1.30419006347656250000e+01) (0, 2.85519809722900390625e+01) (1, 2.11268787384033203125e+01) (2, 7.79343748092651367188e+00) (3, -2.34232215881347656250e+01) (4, 1.73475968837738037109e+00) (5, -4.62642192840576171875e+00) (6, -2.33888737857341766357e-02) (7, 3.98207098245620727539e-01) (8, -2.76826882362365722656e+00) (9, 1.90532773733139038086e-01) (10, 3.91666889190673828125e+00) (11, 1.10075080394744873047e+00) (12, 3.21989822387695312500e+00) (13, 4.67833042144775390625e-01) (14, 6.75514101982116699219e-01) (4, 2.68215732574462890625e+01) (5, 2.65009918212890625000e+01) (6, 3.02106475830078125000e+01) (7, 5.06898040771484375000e+01) (8, -3.04585552215576171875e+01) (9, 2.14486293792724609375e+01) (10, -1.79434261322021484375e+01) (11, 1.89567260742187500000e+01) (12, 1.99803543090820312500e+01) (13, -5.01940002441406250000e+01) (14, -2.23252773284912109375e+01) (4, 2.94440174102783203125e+01) (5, 2.64591674804687500000e+01) (6, 2.96367015838623046875e+01) (7, 5.33049850463867187500e+01) (8, -3.25649032592773437500e+01) (9, 2.19715404510498046875e+01) (10, -2.09312629699707031250e+01) (11, 2.26642189025878906250e+01) (12, 1.56764183044433593750e+01) (13, -5.04107170104980468750e+01) (14, -2.22517738342285156250e+01) 
