FANN_FLO_2.1
num_layers=3
learning_rate=0.100000
connection_rate=1.000000
network_type=0
learning_momentum=0.000000
training_algorithm=1
train_error_function=1
train_stop_function=0
cascade_output_change_fraction=0.010000
quickprop_decay=-0.000100
quickprop_mu=1.750000
rprop_increase_factor=1.200000
rprop_decrease_factor=0.500000
rprop_delta_min=0.000000
rprop_delta_max=50.000000
rprop_delta_zero=0.100000
cascade_output_stagnation_epochs=12
cascade_candidate_change_fraction=0.010000
cascade_candidate_stagnation_epochs=12
cascade_max_out_epochs=150
cascade_min_out_epochs=50
cascade_max_cand_epochs=150
cascade_min_cand_epochs=50
cascade_num_candidate_groups=2
bit_fail_limit=3.49999994039535522461e-01
cascade_candidate_limit=1.00000000000000000000e+03
cascade_weight_multiplier=4.00000005960464477539e-01
cascade_activation_functions_count=10
cascade_activation_functions=3 5 7 8 10 11 14 15 16 17 
cascade_activation_steepnesses_count=4
cascade_activation_steepnesses=2.50000000000000000000e-01 5.00000000000000000000e-01 7.50000000000000000000e-01 1.00000000000000000000e+00 
layer_sizes=4 11 4 
scale_included=1
scale_mean_in=0.179177 0.121971 -0.083808 
scale_deviation_in=0.000494 0.000336 0.001295 
scale_new_min_in=-0.900000 -0.900000 -0.900000 
scale_factor_in=0.900000 0.900000 0.900000 
scale_mean_out=-0.973023 0.416102 -2.592483 
scale_deviation_out=0.000000 0.084670 0.135022 
scale_new_min_out=-0.900000 -0.900000 -0.900000 
scale_factor_out=0.900000 0.900000 0.900000 
neurons (num_inputs, activation_function, activation_steepness)=(0, 0, 0.00000000000000000000e+00) (0, 0, 0.00000000000000000000e+00) (0, 0, 0.00000000000000000000e+00) (0, 0, 0.00000000000000000000e+00) (4, 5, 5.00000000000000000000e-01) (4, 5, 5.00000000000000000000e-01) (4, 5, 5.00000000000000000000e-01) (4, 5, 5.00000000000000000000e-01) (4, 5, 5.00000000000000000000e-01) (4, 5, 5.00000000000000000000e-01) (4, 5, 5.00000000000000000000e-01) (4, 5, 5.00000000000000000000e-01) (4, 5, 5.00000000000000000000e-01) (4, 5, 5.00000000000000000000e-01) (0, 5, 0.00000000000000000000e+00) (11, 5, 5.00000000000000000000e-01) (11, 5, 5.00000000000000000000e-01) (11, 5, 5.00000000000000000000e-01) (0, 5, 0.00000000000000000000e+00) 
connections (connected_to_neuron, weight)=(0, 1.74530833959579467773e-01) (1, 5.69693505764007568359e-01) (2, -4.57294464111328125000e+00) (3, 2.76220750808715820312e+00) (0, 2.01848298311233520508e-01) (1, 3.00302058458328247070e-01) (2, -6.50056838989257812500e-01) (3, -6.55268430709838867188e-01) (0, 1.76569819450378417969e-01) (1, 3.26089888811111450195e-01) (2, 2.99669057130813598633e-01) (3, 4.20832395553588867188e-01) (0, 4.61162298917770385742e-01) (1, -4.55437377095222473145e-02) (2, -7.74873256683349609375e-01) (3, -1.31284904479980468750e+00) (0, 7.06674814224243164062e-01) (1, 2.39909172058105468750e-01) (2, 2.99698829650878906250e+00) (3, -2.15816450119018554688e+00) (0, 7.26660192012786865234e-01) (1, -2.65007227659225463867e-01) (2, -8.86368870735168457031e-01) (3, -1.09942412376403808594e+00) (0, 4.56160515546798706055e-01) (1, 3.76554816961288452148e-01) (2, 5.94722330570220947266e-01) (3, -3.05887103080749511719e-01) (0, 2.23681735992431640625e+00) (1, 2.35365724563598632812e+00) (2, 9.65820431709289550781e-01) (3, 1.80278539657592773438e+00) (0, -5.19398450851440429688e-01) (1, 2.71310746669769287109e-01) (2, 4.66403290629386901855e-02) (3, 1.41203951835632324219e+00) (0, 1.37314701080322265625e+00) (1, 2.50646090507507324219e+00) (2, 4.08868938684463500977e-01) (3, 1.38315856456756591797e+00) (4, -2.83668772317469120026e-03) (5, -5.80676913261413574219e-01) (6, 7.51405417919158935547e-01) (7, -1.06324982643127441406e+00) (8, 1.40202969312667846680e-01) (9, -9.47936832904815673828e-01) (10, -1.13645994663238525391e+00) (11, -2.85173326730728149414e-01) (12, 5.59647321701049804688e-01) (13, 2.16919600963592529297e-01) (14, 1.38842964172363281250e+00) (4, -3.43056297302246093750e+00) (5, -1.15218138694763183594e+00) (6, 1.86689361929893493652e-01) (7, -9.60001230239868164062e-01) (8, 2.13203310966491699219e+00) (9, -1.99173867702484130859e+00) (10, 2.27898865938186645508e-01) (11, -3.29445576667785644531e+00) (12, 8.45647215843200683594e-01) (13, -2.09864783287048339844e+00) (14, 7.46419489383697509766e-01) (4, -3.34798645973205566406e+00) (5, -1.17645204067230224609e+00) (6, -6.31129205226898193359e-01) (7, -1.25746417045593261719e+00) (8, 2.48663544654846191406e+00) (9, -1.19294762611389160156e+00) (10, -5.45653223991394042969e-01) (11, -2.82384824752807617188e+00) (12, 7.38860964775085449219e-01) (13, -2.13979244232177734375e+00) (14, 1.06080734729766845703e+00) 
