FANN_FLO_2.1
num_layers=4
learning_rate=0.100000
connection_rate=1.000000
network_type=0
learning_momentum=0.000000
training_algorithm=1
train_error_function=1
train_stop_function=0
cascade_output_change_fraction=0.010000
quickprop_decay=-0.000100
quickprop_mu=1.750000
rprop_increase_factor=1.200000
rprop_decrease_factor=0.500000
rprop_delta_min=0.000000
rprop_delta_max=50.000000
rprop_delta_zero=0.100000
cascade_output_stagnation_epochs=12
cascade_candidate_change_fraction=0.010000
cascade_candidate_stagnation_epochs=12
cascade_max_out_epochs=150
cascade_min_out_epochs=50
cascade_max_cand_epochs=150
cascade_min_cand_epochs=50
cascade_num_candidate_groups=2
bit_fail_limit=3.49999994039535522461e-01
cascade_candidate_limit=1.00000000000000000000e+03
cascade_weight_multiplier=4.00000005960464477539e-01
cascade_activation_functions_count=10
cascade_activation_functions=3 5 7 8 10 11 14 15 16 17 
cascade_activation_steepnesses_count=4
cascade_activation_steepnesses=2.50000000000000000000e-01 5.00000000000000000000e-01 7.50000000000000000000e-01 1.00000000000000000000e+00 
layer_sizes=4 11 11 4 
scale_included=1
scale_mean_in=0.044752 0.001603 -0.169531 
scale_deviation_in=0.014968 0.011359 0.009424 
scale_new_min_in=-0.900000 -0.900000 -0.900000 
scale_factor_in=0.900000 0.900000 0.900000 
scale_mean_out=-1.510383 0.100107 -1.283641 
scale_deviation_out=0.269796 0.135143 0.187415 
scale_new_min_out=-0.900000 -0.900000 -0.900000 
scale_factor_out=0.900000 0.900000 0.900000 
neurons (num_inputs, activation_function, activation_steepness)=(0, 0, 0.00000000000000000000e+00) (0, 0, 0.00000000000000000000e+00) (0, 0, 0.00000000000000000000e+00) (0, 0, 0.00000000000000000000e+00) (4, 5, 5.00000000000000000000e-01) (4, 5, 5.00000000000000000000e-01) (4, 5, 5.00000000000000000000e-01) (4, 5, 5.00000000000000000000e-01) (4, 5, 5.00000000000000000000e-01) (4, 5, 5.00000000000000000000e-01) (4, 5, 5.00000000000000000000e-01) (4, 5, 5.00000000000000000000e-01) (4, 5, 5.00000000000000000000e-01) (4, 5, 5.00000000000000000000e-01) (0, 5, 0.00000000000000000000e+00) (11, 5, 5.00000000000000000000e-01) (11, 5, 5.00000000000000000000e-01) (11, 5, 5.00000000000000000000e-01) (11, 5, 5.00000000000000000000e-01) (11, 5, 5.00000000000000000000e-01) (11, 5, 5.00000000000000000000e-01) (11, 5, 5.00000000000000000000e-01) (11, 5, 5.00000000000000000000e-01) (11, 5, 5.00000000000000000000e-01) (11, 5, 5.00000000000000000000e-01) (0, 5, 0.00000000000000000000e+00) (11, 5, 5.00000000000000000000e-01) (11, 5, 5.00000000000000000000e-01) (11, 5, 5.00000000000000000000e-01) (0, 5, 0.00000000000000000000e+00) 
connections (connected_to_neuron, weight)=(0, 1.01115179061889648438e+00) (1, -9.45164144039154052734e-01) (2, 2.56418827921152114868e-02) (3, 1.37147188186645507812e+00) (0, 4.89472419023513793945e-01) (1, -3.23972821235656738281e-01) (2, 8.29368948936462402344e-01) (3, -1.13973772525787353516e+00) (0, 5.51851034164428710938e-01) (1, -4.55812573432922363281e-01) (2, 1.06857299804687500000e+00) (3, 9.06851410865783691406e-01) (0, -3.38646359741687774658e-02) (1, -6.89685702323913574219e-01) (2, -6.47785425186157226562e-01) (3, -1.22935973107814788818e-01) (0, 1.23080112040042877197e-01) (1, 3.03180571645498275757e-02) (2, -1.01451730728149414062e+00) (3, -7.48025655746459960938e-01) (0, -1.02358341217041015625e+00) (1, -5.80353848636150360107e-02) (2, 2.98438578844070434570e-01) (3, 2.85169839859008789062e-01) (0, -9.73374128341674804688e-01) (1, -1.11052608489990234375e+00) (2, -3.19766730070114135742e-01) (3, -9.72450792789459228516e-01) (0, 1.17654454708099365234e+00) (1, -1.14336393773555755615e-01) (2, -4.62268859148025512695e-01) (3, 2.92859063483774662018e-03) (0, 8.97062778472900390625e-01) (1, 4.55669939517974853516e-01) (2, -2.76776198297739028931e-02) (3, -7.27711200714111328125e-01) (0, -1.32245570421218872070e-01) (1, 7.55206495523452758789e-02) (2, -6.95776760578155517578e-01) (3, -4.24209147691726684570e-01) (4, -9.36405435204505920410e-02) (5, -9.04677152633666992188e-01) (6, -1.22687351703643798828e+00) (7, -3.95250201225280761719e-01) (8, -3.82142692804336547852e-01) (9, -4.31462347507476806641e-01) (10, -9.18616279959678649902e-02) (11, 4.96216237545013427734e-01) (12, 7.19829320907592773438e-01) (13, 7.91640698909759521484e-01) (14, 1.10502064228057861328e+00) (4, 1.59623467922210693359e+00) (5, 1.56253054738044738770e-02) (6, -6.25602006912231445312e-02) (7, 5.17833769321441650391e-01) (8, 1.50605753064155578613e-01) (9, -1.58940568566322326660e-01) (10, 8.48203361034393310547e-01) (11, 4.07159775495529174805e-01) (12, -2.70227510482072830200e-02) (13, 5.94142861664295196533e-02) (14, 6.21854245662689208984e-01) (4, -1.05506527423858642578e+00) (5, -7.95201182365417480469e-01) (6, 1.01551651954650878906e-01) (7, -4.66524362564086914062e-02) (8, 6.63833677768707275391e-01) (9, -6.25732123851776123047e-01) (10, -1.30577707290649414062e+00) (11, -6.48538529872894287109e-01) (12, -7.27357387542724609375e-01) (13, 4.96795326471328735352e-01) (14, 1.85408815741539001465e-01) (4, -8.31445634365081787109e-01) (5, 1.43584465980529785156e+00) (6, 2.36938178539276123047e-01) (7, -2.64947503805160522461e-01) (8, -1.47695079445838928223e-01) (9, -6.16857290267944335938e-01) (10, -6.44658029079437255859e-01) (11, -2.27163299918174743652e-01) (12, -1.05676986277103424072e-01) (13, -6.87067925930023193359e-01) (14, 1.09230596572160720825e-02) (4, 1.16312585771083831787e-01) (5, 3.35274219512939453125e-01) (6, -3.77977162599563598633e-01) (7, -1.76959410309791564941e-01) (8, 2.96479225158691406250e-01) (9, -9.06907200813293457031e-01) (10, 7.76859700679779052734e-01) (11, 1.22081124782562255859e+00) (12, 6.75303876399993896484e-01) (13, 8.09213876724243164062e-01) (14, -3.38354945182800292969e-01) (4, -3.66814620792865753174e-02) (5, -8.28395605087280273438e-01) (6, -1.23653411865234375000e+00) (7, 3.44270259141921997070e-01) (8, 8.11509788036346435547e-02) (9, -4.13780719041824340820e-01) (10, 7.50449359416961669922e-01) (11, -9.17039692401885986328e-01) (12, 7.93845579028129577637e-02) (13, -6.14914238452911376953e-01) (14, 1.03945374488830566406e+00) (4, -1.01397283375263214111e-01) (5, 3.65883052349090576172e-01) (6, 1.58091112971305847168e-01) (7, 5.06771691143512725830e-02) (8, 6.75125658512115478516e-01) (9, 9.23632562160491943359e-01) (10, 9.36036169528961181641e-01) (11, -1.31977558135986328125e+00) (12, 1.97017803788185119629e-01) (13, -2.21579089760780334473e-01) (14, -8.96818712353706359863e-02) (4, -8.96917581558227539062e-01) (5, -3.70255000889301300049e-02) (6, -4.50255930423736572266e-01) (7, -9.42563235759735107422e-01) (8, -1.05344486236572265625e+00) (9, -5.81039547920227050781e-01) (10, -1.38538694381713867188e+00) (11, 5.94494402408599853516e-01) (12, 9.59375947713851928711e-02) (13, 2.74744834750890731812e-02) (14, -3.09911638498306274414e-01) (4, 5.07245063781738281250e-01) (5, -1.06417424976825714111e-01) (6, 5.21813988685607910156e-01) (7, 2.83261924982070922852e-01) (8, -1.35632848739624023438e+00) (9, 1.53049990534782409668e-01) (10, -3.76047849655151367188e-01) (11, -1.09389913082122802734e+00) (12, 5.89083880186080932617e-02) (13, -1.53193771839141845703e-01) (14, 7.81833827495574951172e-02) (4, -1.03752028942108154297e+00) (5, -1.18239545822143554688e+00) (6, -3.58219534158706665039e-01) (7, 7.67649948596954345703e-01) (8, 7.05633580684661865234e-01) (9, -3.79755906760692596436e-02) (10, -2.01572151854634284973e-03) (11, -7.57149100303649902344e-01) (12, -4.08635586500167846680e-01) (13, 6.16370320320129394531e-01) (14, 2.03650757670402526855e-01) (15, 1.04704344272613525391e+00) (16, -2.16594624519348144531e+00) (17, 1.22549772262573242188e+00) (18, 5.76308429241180419922e-01) (19, -6.70129358768463134766e-01) (20, 1.56879559159278869629e-01) (21, -6.86211824417114257812e-01) (22, 2.05710268020629882812e+00) (23, -4.71150651574134826660e-02) (24, 1.03966057300567626953e+00) (25, -9.37846750020980834961e-02) (15, -8.05935084819793701172e-01) (16, 6.48877918720245361328e-02) (17, -1.24536645412445068359e+00) (18, 1.53873872756958007812e+00) (19, -7.88002669811248779297e-01) (20, -1.28290092945098876953e+00) (21, -1.14951634407043457031e+00) (22, 1.08462941646575927734e+00) (23, 1.10869693756103515625e+00) (24, -1.24152398109436035156e+00) (25, 8.21911767125129699707e-02) (15, -1.53931987285614013672e+00) (16, -4.40204650163650512695e-01) (17, -1.21925033628940582275e-01) (18, 8.32163989543914794922e-01) (19, -1.45601820945739746094e+00) (20, -4.38803821802139282227e-01) (21, 9.89948570728302001953e-01) (22, 8.40122997760772705078e-01) (23, 1.58275747299194335938e+00) (24, -1.20933151245117187500e+00) (25, -1.76806882023811340332e-01) 
