FANN_FLO_2.1
num_layers=4
learning_rate=0.100000
connection_rate=1.000000
network_type=0
learning_momentum=0.000000
training_algorithm=1
train_error_function=1
train_stop_function=0
cascade_output_change_fraction=0.010000
quickprop_decay=-0.000100
quickprop_mu=1.750000
rprop_increase_factor=1.200000
rprop_decrease_factor=0.500000
rprop_delta_min=0.000000
rprop_delta_max=50.000000
rprop_delta_zero=0.100000
cascade_output_stagnation_epochs=12
cascade_candidate_change_fraction=0.010000
cascade_candidate_stagnation_epochs=12
cascade_max_out_epochs=150
cascade_min_out_epochs=50
cascade_max_cand_epochs=150
cascade_min_cand_epochs=50
cascade_num_candidate_groups=2
bit_fail_limit=3.49999994039535522461e-01
cascade_candidate_limit=1.00000000000000000000e+03
cascade_weight_multiplier=4.00000005960464477539e-01
cascade_activation_functions_count=10
cascade_activation_functions=3 5 7 8 10 11 14 15 16 17 
cascade_activation_steepnesses_count=4
cascade_activation_steepnesses=2.50000000000000000000e-01 5.00000000000000000000e-01 7.50000000000000000000e-01 1.00000000000000000000e+00 
layer_sizes=4 11 11 4 
scale_included=1
scale_mean_in=0.053691 0.127087 -0.011684 
scale_deviation_in=0.005848 0.000498 0.005309 
scale_new_min_in=-0.900000 -0.900000 -0.900000 
scale_factor_in=0.900000 0.900000 0.900000 
scale_mean_out=-0.402228 2.393412 -0.402052 
scale_deviation_out=0.039105 0.014061 0.039028 
scale_new_min_out=-0.900000 -0.900000 -0.900000 
scale_factor_out=0.900000 0.900000 0.900000 
neurons (num_inputs, activation_function, activation_steepness)=(0, 0, 0.00000000000000000000e+00) (0, 0, 0.00000000000000000000e+00) (0, 0, 0.00000000000000000000e+00) (0, 0, 0.00000000000000000000e+00) (4, 5, 5.00000000000000000000e-01) (4, 5, 5.00000000000000000000e-01) (4, 5, 5.00000000000000000000e-01) (4, 5, 5.00000000000000000000e-01) (4, 5, 5.00000000000000000000e-01) (4, 5, 5.00000000000000000000e-01) (4, 5, 5.00000000000000000000e-01) (4, 5, 5.00000000000000000000e-01) (4, 5, 5.00000000000000000000e-01) (4, 5, 5.00000000000000000000e-01) (0, 5, 0.00000000000000000000e+00) (11, 5, 5.00000000000000000000e-01) (11, 5, 5.00000000000000000000e-01) (11, 5, 5.00000000000000000000e-01) (11, 5, 5.00000000000000000000e-01) (11, 5, 5.00000000000000000000e-01) (11, 5, 5.00000000000000000000e-01) (11, 5, 5.00000000000000000000e-01) (11, 5, 5.00000000000000000000e-01) (11, 5, 5.00000000000000000000e-01) (11, 5, 5.00000000000000000000e-01) (0, 5, 0.00000000000000000000e+00) (11, 5, 5.00000000000000000000e-01) (11, 5, 5.00000000000000000000e-01) (11, 5, 5.00000000000000000000e-01) (0, 5, 0.00000000000000000000e+00) 
connections (connected_to_neuron, weight)=(0, -1.94992084503173828125e+01) (1, -2.00503196716308593750e+01) (2, -1.90950508117675781250e+01) (3, 1.38291931152343750000e+01) (0, -1.81528053283691406250e+01) (1, -1.93550300598144531250e+01) (2, -1.78284683227539062500e+01) (3, 1.01833562850952148438e+01) (0, 1.61017017364501953125e+01) (1, 1.73974037170410156250e+01) (2, 1.75145149230957031250e+01) (3, -2.35284385681152343750e+01) (0, -1.60820770263671875000e+01) (1, -1.72093296051025390625e+01) (2, -1.54364156723022460938e+01) (3, 2.26513786315917968750e+01) (0, 1.98138656616210937500e+01) (1, 2.17394981384277343750e+01) (2, 2.03772125244140625000e+01) (3, -9.95006465911865234375e+00) (0, 1.87805862426757812500e+01) (1, 2.06088294982910156250e+01) (2, 2.00405368804931640625e+01) (3, -9.77853775024414062500e+00) (0, 2.01482944488525390625e+01) (1, 2.05173320770263671875e+01) (2, 2.06001491546630859375e+01) (3, -1.00077323913574218750e+01) (0, 1.88115253448486328125e+01) (1, 1.99556579589843750000e+01) (2, 1.86653861999511718750e+01) (3, -2.62483272552490234375e+01) (0, -2.07818679809570312500e+01) (1, -2.11167221069335937500e+01) (2, -2.03796749114990234375e+01) (3, 8.95718955993652343750e+00) (0, -2.06850719451904296875e+01) (1, -2.04220275878906250000e+01) (2, -2.02348957061767578125e+01) (3, 9.38611507415771484375e+00) (4, -1.19298238754272460938e+01) (5, -1.17799882888793945312e+01) (6, 1.08544664382934570312e+01) (7, -9.52193355560302734375e+00) (8, 1.22365341186523437500e+01) (9, 1.25004777908325195312e+01) (10, 1.32769813537597656250e+01) (11, 9.57042312622070312500e+00) (12, -1.25936574935913085938e+01) (13, -1.29580459594726562500e+01) (14, -1.01042022705078125000e+01) (4, -1.14322175979614257812e+01) (5, -1.21632289886474609375e+01) (6, 1.16740016937255859375e+01) (7, -1.08513870239257812500e+01) (8, 1.31744251251220703125e+01) (9, 1.27836704254150390625e+01) (10, 1.17385101318359375000e+01) (11, 1.01127119064331054688e+01) (12, -1.37431735992431640625e+01) (13, -1.36681928634643554688e+01) (14, -1.00065002441406250000e+01) (4, -7.33805847167968750000e+00) (5, -6.64788532257080078125e+00) (6, 1.18203229904174804688e+01) (7, -1.10823287963867187500e+01) (8, 5.51561307907104492188e+00) (9, 5.13480329513549804688e+00) (10, 6.85705804824829101562e+00) (11, 1.36722841262817382812e+01) (12, -5.60231208801269531250e+00) (13, -6.45974588394165039062e+00) (14, -1.46046638488769531250e+01) (4, -1.16884765625000000000e+01) (5, -1.21230792999267578125e+01) (6, 1.05284500122070312500e+01) (7, -9.04980564117431640625e+00) (8, 1.29778194427490234375e+01) (9, 1.10034561157226562500e+01) (10, 1.20501375198364257812e+01) (11, 9.35293388366699218750e+00) (12, -1.27827501296997070312e+01) (13, -1.27961053848266601562e+01) (14, -9.80501556396484375000e+00) (4, -1.15756473541259765625e+01) (5, -1.11400880813598632812e+01) (6, 9.53097057342529296875e+00) (7, -8.89357471466064453125e+00) (8, 1.15323953628540039062e+01) (9, 1.18083753585815429688e+01) (10, 1.24510850906372070312e+01) (11, 9.38704776763916015625e+00) (12, -1.21414604187011718750e+01) (13, -1.25686988830566406250e+01) (14, -8.85512638092041015625e+00) (4, -1.19532566070556640625e+01) (5, -1.09200620651245117188e+01) (6, 9.47061920166015625000e+00) (7, -1.03394250869750976562e+01) (8, 1.23652887344360351562e+01) (9, 1.28408451080322265625e+01) (10, 1.25341415405273437500e+01) (11, 1.03660259246826171875e+01) (12, -1.30056419372558593750e+01) (13, -1.11969079971313476562e+01) (14, -8.86787128448486328125e+00) (4, 5.91533708572387695312e+00) (5, 6.10416078567504882812e+00) (6, -9.19526290893554687500e+00) (7, 1.09307403564453125000e+01) (8, -5.30645036697387695312e+00) (9, -5.83355617523193359375e+00) (10, -5.68767547607421875000e+00) (11, -1.18848838806152343750e+01) (12, 5.18610715866088867188e+00) (13, 4.72066831588745117188e+00) (14, 1.38220205307006835938e+01) (4, 7.90539216995239257812e+00) (5, 5.75394725799560546875e+00) (6, -1.19637575149536132812e+01) (7, 1.17463607788085937500e+01) (8, -7.04779577255249023438e+00) (9, -5.88709163665771484375e+00) (10, -5.55553054809570312500e+00) (11, -1.37906675338745117188e+01) (12, 6.45494031906127929688e+00) (13, 5.73027086257934570312e+00) (14, 1.45662784576416015625e+01) (4, 6.39265823364257812500e+00) (5, 5.57027006149291992188e+00) (6, -1.05547380447387695312e+01) (7, 1.08175773620605468750e+01) (8, -6.38314962387084960938e+00) (9, -6.16586971282958984375e+00) (10, -5.04049873352050781250e+00) (11, -1.26843833923339843750e+01) (12, 4.81531715393066406250e+00) (13, 5.84626579284667968750e+00) (14, 1.34785184860229492188e+01) (4, -8.08270931243896484375e+00) (5, -6.74686813354492187500e+00) (6, 1.18824005126953125000e+01) (7, -1.29097223281860351562e+01) (8, 6.43568086624145507812e+00) (9, 7.19086217880249023438e+00) (10, 7.20247793197631835938e+00) (11, 1.48173570632934570312e+01) (12, -5.90847110748291015625e+00) (13, -5.93482446670532226562e+00) (14, -1.58642539978027343750e+01) (15, -2.05473556518554687500e+01) (16, -2.02886028289794921875e+01) (17, -1.74178009033203125000e+01) (18, -1.90528926849365234375e+01) (19, -2.00394020080566406250e+01) (20, -2.01443347930908203125e+01) (21, 1.60517120361328125000e+01) (22, 1.67704830169677734375e+01) (23, 1.56873302459716796875e+01) (24, -1.76229648590087890625e+01) (25, 1.76926040649414062500e+01) (15, 2.00329017639160156250e+01) (16, 2.05605983734130859375e+01) (17, 1.59974126815795898438e+01) (18, 2.04563999176025390625e+01) (19, 1.99467658996582031250e+01) (20, 1.89945220947265625000e+01) (21, -1.53450536727905273438e+01) (22, -1.75213546752929687500e+01) (23, -1.74243965148925781250e+01) (24, 1.78416748046875000000e+01) (25, -1.70453281402587890625e+01) (15, -2.01807498931884765625e+01) (16, -2.05507564544677734375e+01) (17, -1.75599079132080078125e+01) (18, -2.03324279785156250000e+01) (19, -1.87973365783691406250e+01) (20, -2.05104045867919921875e+01) (21, 1.69998245239257812500e+01) (22, 1.70349559783935546875e+01) (23, 1.56903257369995117188e+01) (24, -1.76750087738037109375e+01) (25, 1.66181716918945312500e+01) 
