FANN_FLO_2.1
num_layers=4
learning_rate=0.100000
connection_rate=1.000000
network_type=0
learning_momentum=0.000000
training_algorithm=1
train_error_function=1
train_stop_function=0
cascade_output_change_fraction=0.010000
quickprop_decay=-0.000100
quickprop_mu=1.750000
rprop_increase_factor=1.200000
rprop_decrease_factor=0.500000
rprop_delta_min=0.000000
rprop_delta_max=50.000000
rprop_delta_zero=0.100000
cascade_output_stagnation_epochs=12
cascade_candidate_change_fraction=0.010000
cascade_candidate_stagnation_epochs=12
cascade_max_out_epochs=150
cascade_min_out_epochs=50
cascade_max_cand_epochs=150
cascade_min_cand_epochs=50
cascade_num_candidate_groups=2
bit_fail_limit=3.49999994039535522461e-01
cascade_candidate_limit=1.00000000000000000000e+03
cascade_weight_multiplier=4.00000005960464477539e-01
cascade_activation_functions_count=10
cascade_activation_functions=3 5 7 8 10 11 14 15 16 17 
cascade_activation_steepnesses_count=4
cascade_activation_steepnesses=2.50000000000000000000e-01 5.00000000000000000000e-01 7.50000000000000000000e-01 1.00000000000000000000e+00 
layer_sizes=4 11 11 4 
scale_included=1
scale_mean_in=0.108398 -0.034795 -0.065023 
scale_deviation_in=0.010006 0.004149 0.010011 
scale_new_min_in=-0.900000 -0.900000 -0.900000 
scale_factor_in=0.900000 0.900000 0.900000 
scale_mean_out=-1.881956 1.901362 -0.272286 
scale_deviation_out=0.031792 0.171707 0.122546 
scale_new_min_out=-0.900000 -0.900000 -0.900000 
scale_factor_out=0.900000 0.900000 0.900000 
neurons (num_inputs, activation_function, activation_steepness)=(0, 0, 0.00000000000000000000e+00) (0, 0, 0.00000000000000000000e+00) (0, 0, 0.00000000000000000000e+00) (0, 0, 0.00000000000000000000e+00) (4, 5, 5.00000000000000000000e-01) (4, 5, 5.00000000000000000000e-01) (4, 5, 5.00000000000000000000e-01) (4, 5, 5.00000000000000000000e-01) (4, 5, 5.00000000000000000000e-01) (4, 5, 5.00000000000000000000e-01) (4, 5, 5.00000000000000000000e-01) (4, 5, 5.00000000000000000000e-01) (4, 5, 5.00000000000000000000e-01) (4, 5, 5.00000000000000000000e-01) (0, 5, 0.00000000000000000000e+00) (11, 5, 5.00000000000000000000e-01) (11, 5, 5.00000000000000000000e-01) (11, 5, 5.00000000000000000000e-01) (11, 5, 5.00000000000000000000e-01) (11, 5, 5.00000000000000000000e-01) (11, 5, 5.00000000000000000000e-01) (11, 5, 5.00000000000000000000e-01) (11, 5, 5.00000000000000000000e-01) (11, 5, 5.00000000000000000000e-01) (11, 5, 5.00000000000000000000e-01) (0, 5, 0.00000000000000000000e+00) (11, 5, 5.00000000000000000000e-01) (11, 5, 5.00000000000000000000e-01) (11, 5, 5.00000000000000000000e-01) (0, 5, 0.00000000000000000000e+00) 
connections (connected_to_neuron, weight)=(0, -7.96616971492767333984e-01) (1, -9.73361313343048095703e-01) (2, -4.35445517301559448242e-01) (3, -2.69743595272302627563e-02) (0, -7.14699089527130126953e-01) (1, -9.00829255580902099609e-01) (2, 1.28005480766296386719e+00) (3, -1.29294870421290397644e-02) (0, 1.58581152558326721191e-01) (1, 9.53014612197875976562e-01) (2, -1.88622951507568359375e-01) (3, 6.61284506320953369141e-01) (0, -8.49529504776000976562e-01) (1, 9.84020888805389404297e-01) (2, 2.12010502815246582031e-01) (3, 1.93323060870170593262e-01) (0, 3.47886115312576293945e-01) (1, 7.54885315895080566406e-01) (2, -3.30653369426727294922e-01) (3, 6.27104043960571289062e-01) (0, -6.34691476821899414062e-01) (1, 4.74989324808120727539e-01) (2, 1.49347615242004394531e+00) (3, 1.23595871031284332275e-01) (0, -6.01857006549835205078e-01) (1, -9.11201596260070800781e-01) (2, -7.67808794975280761719e-01) (3, -4.31565582752227783203e-01) (0, 4.28077369928359985352e-01) (1, 5.96472978591918945312e-01) (2, 2.45527222752571105957e-01) (3, 3.26153576374053955078e-01) (0, 1.21716129779815673828e+00) (1, 6.94893360137939453125e-01) (2, -4.73777025938034057617e-01) (3, 7.05341637134552001953e-01) (0, 4.84176218509674072266e-01) (1, -3.09726387262344360352e-01) (2, -8.86382937431335449219e-01) (3, 9.78173837065696716309e-02) (4, 6.06506228446960449219e-01) (5, 5.94961225986480712891e-01) (6, -7.22524970769882202148e-02) (7, 1.04743981361389160156e+00) (8, -1.75319179892539978027e-01) (9, -3.28544855117797851562e-01) (10, 4.46950882673263549805e-01) (11, -9.12727892398834228516e-01) (12, -9.48816478252410888672e-01) (13, -1.05286383628845214844e+00) (14, 6.85177385807037353516e-01) (4, -8.32220733165740966797e-01) (5, 5.64986884593963623047e-01) (6, 9.04268860816955566406e-01) (7, 8.22166144847869873047e-01) (8, -1.22373417019844055176e-01) (9, 1.02078092098236083984e+00) (10, -9.46689188480377197266e-01) (11, 3.18402737379074096680e-01) (12, 6.23811967670917510986e-02) (13, 6.81767702102661132812e-01) (14, -5.11749207973480224609e-01) (4, -4.63367760181427001953e-01) (5, 5.19560754299163818359e-01) (6, -7.89095103740692138672e-01) (7, -7.70497083663940429688e-01) (8, -1.77259907126426696777e-01) (9, -1.08859574794769287109e+00) (10, 1.98949158191680908203e-01) (11, 6.96174681186676025391e-01) (12, 9.06129926443099975586e-02) (13, -4.90687996149063110352e-01) (14, 4.35822784900665283203e-01) (4, -4.12978798151016235352e-01) (5, -1.13710308074951171875e+00) (6, -6.69157385826110839844e-01) (7, -2.07738682627677917480e-01) (8, 5.66822171211242675781e-01) (9, -8.48121583461761474609e-01) (10, 3.83255422115325927734e-01) (11, 4.37635600566864013672e-01) (12, -6.37681901454925537109e-01) (13, 7.46532022953033447266e-01) (14, 3.96093368530273437500e-01) (4, -9.88122105598449707031e-01) (5, 6.97524726390838623047e-01) (6, -9.41794514656066894531e-01) (7, -1.17604386806488037109e+00) (8, 5.00049412250518798828e-01) (9, 3.16338092088699340820e-01) (10, -1.10833689570426940918e-01) (11, 4.32975143194198608398e-01) (12, 8.76304447650909423828e-01) (13, 2.84033238887786865234e-01) (14, -1.91229790449142456055e-01) (4, -3.01308035850524902344e-01) (5, 7.46034443378448486328e-01) (6, 6.02445244789123535156e-01) (7, -5.26871681213378906250e-01) (8, -4.30336773395538330078e-01) (9, 5.29629111289978027344e-01) (10, 8.83690416812896728516e-01) (11, -2.49176755547523498535e-01) (12, -2.92930513620376586914e-01) (13, 7.87629067897796630859e-01) (14, 1.27620190382003784180e-01) (4, 2.08019152283668518066e-01) (5, -5.70729613304138183594e-01) (6, -2.80346184968948364258e-01) (7, 6.51712834835052490234e-01) (8, 9.59715783596038818359e-01) (9, -8.97116661071777343750e-01) (10, 9.47616815567016601562e-01) (11, 4.71120566129684448242e-01) (12, 7.52953827381134033203e-01) (13, 1.00834274291992187500e+00) (14, -1.91373199224472045898e-01) (4, 1.12939715385437011719e+00) (5, -3.38690638542175292969e-01) (6, -7.86853015422821044922e-01) (7, -1.18755914270877838135e-01) (8, -4.32103544473648071289e-01) (9, 1.00275111198425292969e+00) (10, 2.24934443831443786621e-01) (11, -1.05332958698272705078e+00) (12, -8.93883287906646728516e-01) (13, 2.47246742248535156250e-01) (14, 8.85874390602111816406e-01) (4, -3.79599928855895996094e-01) (5, 6.59552514553070068359e-01) (6, -5.46050429344177246094e-01) (7, 7.80547440052032470703e-01) (8, 2.23188877105712890625e-01) (9, 3.03698331117630004883e-01) (10, -7.34823197126388549805e-02) (11, -3.05536109954118728638e-03) (12, -5.30867934226989746094e-01) (13, 8.41881692409515380859e-01) (14, 1.02404356002807617188e+00) (4, -8.95806588232517242432e-03) (5, 8.29063236713409423828e-01) (6, 5.82633495330810546875e-01) (7, 5.92649400234222412109e-01) (8, 2.48989269137382507324e-01) (9, 6.25672996044158935547e-01) (10, -1.01786501705646514893e-01) (11, 4.50135171413421630859e-01) (12, -1.15921986103057861328e+00) (13, -4.03601139783859252930e-01) (14, 2.00786277651786804199e-01) (15, -1.20839047431945800781e+00) (16, 1.31093633174896240234e+00) (17, -6.71040117740631103516e-01) (18, -2.30078056454658508301e-01) (19, 2.62621134519577026367e-01) (20, -1.04108226299285888672e+00) (21, 2.56368964910507202148e-01) (22, -1.73678123950958251953e+00) (23, -8.72770071029663085938e-01) (24, 1.05588696897029876709e-02) (25, 4.97033149003982543945e-01) (15, -8.82105231285095214844e-02) (16, 6.85082197189331054688e-01) (17, 1.95042803883552551270e-01) (18, -1.36775600910186767578e+00) (19, 1.04114174842834472656e+00) (20, -3.73219460248947143555e-01) (21, -1.20187008380889892578e+00) (22, 5.07903635501861572266e-01) (23, -4.30544763803482055664e-01) (24, 1.34985768795013427734e+00) (25, 7.48087838292121887207e-02) (15, 1.17031216621398925781e+00) (16, 7.58146226406097412109e-01) (17, -9.59330320358276367188e-01) (18, -4.08060878515243530273e-01) (19, -1.03077805042266845703e+00) (20, 3.59185725450515747070e-01) (21, -3.64634126424789428711e-01) (22, 1.48839890956878662109e-01) (23, 2.89235234260559082031e-01) (24, 1.17625677585601806641e+00) (25, -2.71353363990783691406e-01) 
