FANN_FLO_2.1
num_layers=4
learning_rate=0.100000
connection_rate=1.000000
network_type=0
learning_momentum=0.000000
training_algorithm=1
train_error_function=1
train_stop_function=0
cascade_output_change_fraction=0.010000
quickprop_decay=-0.000100
quickprop_mu=1.750000
rprop_increase_factor=1.200000
rprop_decrease_factor=0.500000
rprop_delta_min=0.000000
rprop_delta_max=50.000000
rprop_delta_zero=0.100000
cascade_output_stagnation_epochs=12
cascade_candidate_change_fraction=0.010000
cascade_candidate_stagnation_epochs=12
cascade_max_out_epochs=150
cascade_min_out_epochs=50
cascade_max_cand_epochs=150
cascade_min_cand_epochs=50
cascade_num_candidate_groups=2
bit_fail_limit=3.49999994039535522461e-01
cascade_candidate_limit=1.00000000000000000000e+03
cascade_weight_multiplier=4.00000005960464477539e-01
cascade_activation_functions_count=10
cascade_activation_functions=3 5 7 8 10 11 14 15 16 17 
cascade_activation_steepnesses_count=4
cascade_activation_steepnesses=2.50000000000000000000e-01 5.00000000000000000000e-01 7.50000000000000000000e-01 1.00000000000000000000e+00 
layer_sizes=4 11 11 4 
scale_included=1
scale_mean_in=0.105543 -0.004876 -0.067312 
scale_deviation_in=0.011248 0.014697 0.009674 
scale_new_min_in=-0.900000 -0.900000 -0.900000 
scale_factor_in=0.900000 0.900000 0.900000 
scale_mean_out=-1.616952 1.899809 -0.208513 
scale_deviation_out=0.140370 0.163363 0.108710 
scale_new_min_out=-0.900000 -0.900000 -0.900000 
scale_factor_out=0.900000 0.900000 0.900000 
neurons (num_inputs, activation_function, activation_steepness)=(0, 0, 0.00000000000000000000e+00) (0, 0, 0.00000000000000000000e+00) (0, 0, 0.00000000000000000000e+00) (0, 0, 0.00000000000000000000e+00) (4, 5, 5.00000000000000000000e-01) (4, 5, 5.00000000000000000000e-01) (4, 5, 5.00000000000000000000e-01) (4, 5, 5.00000000000000000000e-01) (4, 5, 5.00000000000000000000e-01) (4, 5, 5.00000000000000000000e-01) (4, 5, 5.00000000000000000000e-01) (4, 5, 5.00000000000000000000e-01) (4, 5, 5.00000000000000000000e-01) (4, 5, 5.00000000000000000000e-01) (0, 5, 0.00000000000000000000e+00) (11, 5, 5.00000000000000000000e-01) (11, 5, 5.00000000000000000000e-01) (11, 5, 5.00000000000000000000e-01) (11, 5, 5.00000000000000000000e-01) (11, 5, 5.00000000000000000000e-01) (11, 5, 5.00000000000000000000e-01) (11, 5, 5.00000000000000000000e-01) (11, 5, 5.00000000000000000000e-01) (11, 5, 5.00000000000000000000e-01) (11, 5, 5.00000000000000000000e-01) (0, 5, 0.00000000000000000000e+00) (11, 5, 5.00000000000000000000e-01) (11, 5, 5.00000000000000000000e-01) (11, 5, 5.00000000000000000000e-01) (0, 5, 0.00000000000000000000e+00) 
connections (connected_to_neuron, weight)=(0, -1.32450139522552490234e+00) (1, -2.44391560554504394531e-01) (2, 8.24690580368041992188e-01) (3, 1.58080995082855224609e-01) (0, 1.19373738765716552734e+00) (1, 2.64865048229694366455e-02) (2, -8.95195230841636657715e-02) (3, 5.34063041210174560547e-01) (0, -3.42440307140350341797e-01) (1, 2.22091063857078552246e-01) (2, 1.63342475891113281250e+00) (3, -2.63098388910293579102e-01) (0, 8.93429160118103027344e-01) (1, 1.95020973682403564453e-01) (2, -1.90748557448387145996e-01) (3, -2.75828003883361816406e-01) (0, 6.72921419143676757812e-01) (1, 1.05705666542053222656e+00) (2, -6.18176102638244628906e-01) (3, -3.46245229244232177734e-01) (0, 4.39782530069351196289e-01) (1, -8.17303061485290527344e-01) (2, 1.65376767516136169434e-01) (3, 3.57057511806488037109e-01) (0, 1.51920065283775329590e-01) (1, 1.20079481601715087891e+00) (2, 1.14530622959136962891e+00) (3, 3.71296852827072143555e-01) (0, 7.21312314271926879883e-02) (1, -1.36151051521301269531e+00) (2, -1.48930117487907409668e-01) (3, -9.44408997893333435059e-02) (0, -3.69551390409469604492e-01) (1, -7.76000261306762695312e-01) (2, 4.00360018014907836914e-01) (3, -5.17267465591430664062e-01) (0, -1.10459303855895996094e+00) (1, 3.16308826208114624023e-01) (2, -6.49966478347778320312e-01) (3, -1.77137836813926696777e-01) (4, -9.24709200859069824219e-01) (5, 1.08767127990722656250e+00) (6, 2.14742034673690795898e-01) (7, 1.13527154922485351562e+00) (8, -2.20087170600891113281e-02) (9, -1.71179488301277160645e-01) (10, -3.28562438488006591797e-01) (11, -7.50732049345970153809e-02) (12, -6.28485977649688720703e-01) (13, 4.41266328096389770508e-01) (14, 4.21491354703903198242e-01) (4, 4.87089216709136962891e-01) (5, 8.75145316123962402344e-01) (6, -7.23276615142822265625e-01) (7, 1.67665779590606689453e-01) (8, 3.49742025136947631836e-01) (9, -2.56720453500747680664e-01) (10, -5.71241080760955810547e-01) (11, -2.11649119853973388672e-01) (12, 2.10879787802696228027e-01) (13, -1.68388128280639648438e-01) (14, 5.60173511505126953125e-01) (4, -1.11840617656707763672e+00) (5, 4.57053691148757934570e-01) (6, -6.00212633609771728516e-01) (7, 1.00182855129241943359e+00) (8, 7.89340734481811523438e-01) (9, -6.13380491733551025391e-01) (10, -2.12834298610687255859e-01) (11, 5.78533291816711425781e-01) (12, 4.24569845199584960938e-01) (13, -2.28043958544731140137e-01) (14, 5.10394811630249023438e-01) (4, -1.41998361796140670776e-02) (5, -5.36811836063861846924e-02) (6, 1.47663965821266174316e-01) (7, 4.85723942518234252930e-01) (8, 1.10071420669555664062e+00) (9, -1.04955486953258514404e-01) (10, 1.47815287113189697266e+00) (11, -1.63732051849365234375e-01) (12, -1.28516837954521179199e-01) (13, 5.56042551994323730469e-01) (14, -2.45778057724237442017e-02) (4, 4.71121698617935180664e-01) (5, -1.70904099941253662109e-01) (6, -1.62104338407516479492e-01) (7, -6.44661784172058105469e-01) (8, 7.39880442619323730469e-01) (9, -1.61942437291145324707e-01) (10, 9.65984284877777099609e-01) (11, -1.15440547466278076172e+00) (12, -3.80216985940933227539e-01) (13, 3.76820713281631469727e-01) (14, 1.24775141477584838867e-01) (4, 4.18668575584888458252e-02) (5, 6.57867133617401123047e-01) (6, 9.72482144832611083984e-01) (7, 4.07059371471405029297e-01) (8, -8.06405007839202880859e-01) (9, -2.80602455139160156250e-01) (10, 4.11388128995895385742e-01) (11, -3.82327914237976074219e-01) (12, -4.68709319829940795898e-01) (13, -1.04209676384925842285e-01) (14, -9.33869540691375732422e-01) (4, 3.26670259237289428711e-01) (5, 2.52459794282913208008e-02) (6, 1.47166812419891357422e+00) (7, -6.20496511459350585938e-01) (8, -4.16352540254592895508e-01) (9, 4.57039177417755126953e-01) (10, 4.71936881542205810547e-01) (11, -4.83023136854171752930e-01) (12, -2.67386257648468017578e-01) (13, -6.89215779304504394531e-01) (14, 1.76124259829521179199e-01) (4, 1.58156603574752807617e-01) (5, -3.59404057264328002930e-01) (6, -2.44372889399528503418e-01) (7, 7.24531412124633789062e-01) (8, -5.95471858978271484375e-01) (9, -3.32734793424606323242e-01) (10, -4.24231320619583129883e-01) (11, -1.05707001686096191406e+00) (12, -5.09039223194122314453e-01) (13, 7.42599427700042724609e-01) (14, 3.93896579742431640625e-01) (4, 1.00075352191925048828e+00) (5, -5.64234197139739990234e-01) (6, 9.09127056598663330078e-01) (7, -7.59731054306030273438e-01) (8, 1.98777988553047180176e-01) (9, -6.13408088684082031250e-01) (10, 8.46080780029296875000e-02) (11, -3.97958576679229736328e-01) (12, -1.78376659750938415527e-01) (13, 9.31306123733520507812e-01) (14, 5.59325516223907470703e-01) (4, -6.40759408473968505859e-01) (5, -8.51639449596405029297e-01) (6, -6.03350937366485595703e-01) (7, 8.71997296810150146484e-01) (8, 6.64227604866027832031e-01) (9, -2.30006769299507141113e-01) (10, -6.53635203838348388672e-01) (11, -1.08116686344146728516e+00) (12, -8.86633336544036865234e-01) (13, 4.12634074687957763672e-01) (14, -1.16353154182434082031e-01) (15, 1.60703256726264953613e-01) (16, -3.60925346612930297852e-02) (17, 1.75214111804962158203e-01) (18, 1.69194495677947998047e+00) (19, 1.39800834655761718750e+00) (20, 9.80517327785491943359e-01) (21, -8.53042453527450561523e-02) (22, 2.02396824955940246582e-01) (23, 4.18825209140777587891e-01) (24, 1.27353084087371826172e+00) (25, 2.31351822614669799805e-01) (15, -3.55238020420074462891e-01) (16, -7.44103610515594482422e-01) (17, -3.08073788881301879883e-01) (18, 4.18135076761245727539e-01) (19, 6.52284994721412658691e-02) (20, 1.35496389865875244141e+00) (21, 1.92989897727966308594e+00) (22, -3.86690378189086914062e-01) (23, 5.53062617778778076172e-01) (24, -1.39222240447998046875e+00) (25, 2.28504940867424011230e-01) (15, -1.36582171916961669922e+00) (16, -8.06967973709106445312e-01) (17, -1.02925145626068115234e+00) (18, 4.64531816542148590088e-02) (19, 1.06177069246768951416e-01) (20, -3.00845354795455932617e-01) (21, 6.16228699684143066406e-01) (22, 1.02314400672912597656e+00) (23, 1.75402045249938964844e+00) (24, -6.64855182170867919922e-01) (25, -9.36158448457717895508e-02) 
