FANN_FLO_2.1
num_layers=4
learning_rate=0.100000
connection_rate=1.000000
network_type=0
learning_momentum=0.000000
training_algorithm=1
train_error_function=1
train_stop_function=0
cascade_output_change_fraction=0.010000
quickprop_decay=-0.000100
quickprop_mu=1.750000
rprop_increase_factor=1.200000
rprop_decrease_factor=0.500000
rprop_delta_min=0.000000
rprop_delta_max=50.000000
rprop_delta_zero=0.100000
cascade_output_stagnation_epochs=12
cascade_candidate_change_fraction=0.010000
cascade_candidate_stagnation_epochs=12
cascade_max_out_epochs=150
cascade_min_out_epochs=50
cascade_max_cand_epochs=150
cascade_min_cand_epochs=50
cascade_num_candidate_groups=2
bit_fail_limit=3.49999994039535522461e-01
cascade_candidate_limit=1.00000000000000000000e+03
cascade_weight_multiplier=4.00000005960464477539e-01
cascade_activation_functions_count=10
cascade_activation_functions=3 5 7 8 10 11 14 15 16 17 
cascade_activation_steepnesses_count=4
cascade_activation_steepnesses=2.50000000000000000000e-01 5.00000000000000000000e-01 7.50000000000000000000e-01 1.00000000000000000000e+00 
layer_sizes=4 11 11 4 
scale_included=1
scale_mean_in=0.095406 0.045394 -0.172905 
scale_deviation_in=0.015069 0.014380 0.010152 
scale_new_min_in=-0.900000 -0.900000 -0.900000 
scale_factor_in=0.900000 0.900000 0.900000 
scale_mean_out=-1.126580 0.200131 -1.673695 
scale_deviation_out=0.136101 0.183419 0.275473 
scale_new_min_out=-0.900000 -0.900000 -0.900000 
scale_factor_out=0.900000 0.900000 0.900000 
neurons (num_inputs, activation_function, activation_steepness)=(0, 0, 0.00000000000000000000e+00) (0, 0, 0.00000000000000000000e+00) (0, 0, 0.00000000000000000000e+00) (0, 0, 0.00000000000000000000e+00) (4, 5, 5.00000000000000000000e-01) (4, 5, 5.00000000000000000000e-01) (4, 5, 5.00000000000000000000e-01) (4, 5, 5.00000000000000000000e-01) (4, 5, 5.00000000000000000000e-01) (4, 5, 5.00000000000000000000e-01) (4, 5, 5.00000000000000000000e-01) (4, 5, 5.00000000000000000000e-01) (4, 5, 5.00000000000000000000e-01) (4, 5, 5.00000000000000000000e-01) (0, 5, 0.00000000000000000000e+00) (11, 5, 5.00000000000000000000e-01) (11, 5, 5.00000000000000000000e-01) (11, 5, 5.00000000000000000000e-01) (11, 5, 5.00000000000000000000e-01) (11, 5, 5.00000000000000000000e-01) (11, 5, 5.00000000000000000000e-01) (11, 5, 5.00000000000000000000e-01) (11, 5, 5.00000000000000000000e-01) (11, 5, 5.00000000000000000000e-01) (11, 5, 5.00000000000000000000e-01) (0, 5, 0.00000000000000000000e+00) (11, 5, 5.00000000000000000000e-01) (11, 5, 5.00000000000000000000e-01) (11, 5, 5.00000000000000000000e-01) (0, 5, 0.00000000000000000000e+00) 
connections (connected_to_neuron, weight)=(0, -7.76843577623367309570e-02) (1, -1.44870805740356445312e+00) (2, -2.69363015890121459961e-01) (3, 5.01537322998046875000e-02) (0, -1.69680565595626831055e-02) (1, 7.82447755336761474609e-01) (2, 6.15052640438079833984e-01) (3, 8.09267163276672363281e-01) (0, -1.08193171024322509766e+00) (1, 7.03689336776733398438e-01) (2, 5.89193284511566162109e-01) (3, -4.85251277685165405273e-01) (0, 1.09552180767059326172e+00) (1, -2.04960219562053680420e-02) (2, -9.84674245119094848633e-02) (3, -7.08772897720336914062e-01) (0, 7.64736771583557128906e-01) (1, 2.13837862014770507812e-01) (2, 3.41083347797393798828e-01) (3, 7.21214413642883300781e-01) (0, -2.65509963035583496094e-01) (1, -1.09934163093566894531e+00) (2, 1.03490471839904785156e+00) (3, -2.82519906759262084961e-01) (0, -9.04416441917419433594e-01) (1, 4.29328233003616333008e-01) (2, 1.01368653774261474609e+00) (3, 8.72714877128601074219e-01) (0, 4.09253269433975219727e-01) (1, -4.66684311628341674805e-01) (2, 8.15081298351287841797e-01) (3, 1.52827933430671691895e-01) (0, -6.22190386056900024414e-02) (1, 6.54111683368682861328e-01) (2, 9.58030343055725097656e-01) (3, -4.17305499315261840820e-01) (0, 1.61156564950942993164e-01) (1, 3.86126667261123657227e-01) (2, -1.14962005615234375000e+00) (3, -6.18430823087692260742e-02) (4, -4.44501161575317382812e-01) (5, 8.21059644222259521484e-01) (6, 8.87946307659149169922e-01) (7, -3.81923794746398925781e-01) (8, -3.04469037801027297974e-02) (9, -6.85456871986389160156e-01) (10, 8.43783542513847351074e-02) (11, -5.26150703430175781250e-01) (12, 1.07033646106719970703e+00) (13, 9.39845860004425048828e-01) (14, -7.05845355987548828125e-01) (4, 1.13299958407878875732e-01) (5, -8.26482057571411132812e-01) (6, 9.20152306556701660156e-01) (7, 3.66842627525329589844e-01) (8, -4.73080247640609741211e-01) (9, 8.44253897666931152344e-01) (10, -9.62825790047645568848e-02) (11, -5.09160935878753662109e-01) (12, 5.29575884342193603516e-01) (13, -8.48838865756988525391e-01) (14, 8.29483866691589355469e-01) (4, -8.69630217552185058594e-01) (5, 4.07358139753341674805e-01) (6, 6.71673595905303955078e-01) (7, -5.17399907112121582031e-01) (8, 8.74173581600189208984e-01) (9, -6.83455765247344970703e-01) (10, 4.21471476554870605469e-01) (11, -9.99610602855682373047e-01) (12, 7.24238336086273193359e-01) (13, -5.29625475406646728516e-01) (14, 4.16789501905441284180e-01) (4, 3.05028229951858520508e-01) (5, 2.23044440150260925293e-01) (6, -2.35166996717453002930e-01) (7, 2.94717818498611450195e-01) (8, 8.60247075557708740234e-01) (9, 5.38701236248016357422e-01) (10, 9.21308398246765136719e-01) (11, 9.31799888610839843750e-01) (12, 3.04899454116821289062e-01) (13, -7.07841098308563232422e-01) (14, -7.54390776157379150391e-01) (4, -1.41671642661094665527e-01) (5, 1.19109725952148437500e+00) (6, -4.32421974837779998779e-02) (7, -5.67659139633178710938e-02) (8, -3.72737384168431162834e-04) (9, -2.12329793721437454224e-02) (10, -9.65574681758880615234e-02) (11, 9.69679281115531921387e-02) (12, 1.95424571633338928223e-01) (13, -6.84119611978530883789e-02) (14, -5.09829163551330566406e-01) (4, -3.66935849189758300781e-01) (5, 1.32208883762359619141e-01) (6, -1.03058981895446777344e+00) (7, 2.04869285225868225098e-01) (8, -2.08563044667243957520e-01) (9, -9.91811931133270263672e-01) (10, -7.55751967430114746094e-01) (11, -2.87730898708105087280e-02) (12, 6.93358719348907470703e-01) (13, 1.13683652877807617188e+00) (14, -6.67101383209228515625e-01) (4, -6.21310770511627197266e-01) (5, 4.80900824069976806641e-01) (6, -7.94533431529998779297e-01) (7, 8.03833186626434326172e-01) (8, 1.50395214557647705078e-01) (9, -1.12565541267395019531e+00) (10, -6.13595917820930480957e-02) (11, 7.32024133205413818359e-01) (12, -7.93040394783020019531e-01) (13, -7.32067823410034179688e-01) (14, 6.98408424854278564453e-01) (4, -2.83864855766296386719e-01) (5, 2.23324075341224670410e-01) (6, -5.54716765880584716797e-01) (7, 8.96763265132904052734e-01) (8, 9.70021724700927734375e-01) (9, 5.78618049621582031250e-01) (10, -5.05052506923675537109e-01) (11, -1.30780398845672607422e-01) (12, -8.29869508743286132812e-01) (13, 3.24045568704605102539e-01) (14, -6.69866800308227539062e-01) (4, -3.14238816499710083008e-01) (5, -1.06006550788879394531e+00) (6, -3.45500707626342773438e-01) (7, 3.00412178039550781250e-01) (8, -2.63041883707046508789e-01) (9, -1.06776392459869384766e+00) (10, -4.87529933452606201172e-01) (11, -4.68305051326751708984e-01) (12, -8.10972750186920166016e-01) (13, 6.89716517925262451172e-01) (14, 6.50774717330932617188e-01) (4, -9.26830053329467773438e-01) (5, 1.88063696026802062988e-01) (6, 4.38692271709442138672e-01) (7, -5.70499479770660400391e-01) (8, -9.77188646793365478516e-01) (9, -4.81073826551437377930e-01) (10, -2.54853338003158569336e-01) (11, -8.93818914890289306641e-01) (12, -3.26048821210861206055e-01) (13, 4.19690400362014770508e-01) (14, 3.13269883394241333008e-01) (15, 1.53594231605529785156e+00) (16, -2.13421508669853210449e-01) (17, 1.23785400390625000000e+00) (18, -2.88644313812255859375e-01) (19, 6.51045322418212890625e-01) (20, -2.52115041017532348633e-01) (21, 1.05518393218517303467e-01) (22, -5.22716820240020751953e-01) (23, -2.94158071279525756836e-01) (24, 1.49544048309326171875e+00) (25, -2.97146141529083251953e-01) (15, 2.04527318477630615234e-01) (16, 1.64283543825149536133e-01) (17, 9.58418965339660644531e-01) (18, 8.07235240936279296875e-01) (19, 7.35470652580261230469e-01) (20, -1.31982994079589843750e+00) (21, 7.07379221916198730469e-01) (22, -1.02344073355197906494e-01) (23, -1.45971369743347167969e+00) (24, -1.18770325183868408203e+00) (25, -5.24511635303497314453e-01) (15, -6.12147971987724304199e-02) (16, 3.05869013071060180664e-01) (17, -4.65981334447860717773e-01) (18, 1.25762879848480224609e+00) (19, 1.34031817317008972168e-01) (20, -1.16025638580322265625e+00) (21, -9.39761161804199218750e-01) (22, -9.78612720966339111328e-01) (23, -1.55311393737792968750e+00) (24, 5.42166471481323242188e-01) (25, 3.26841384172439575195e-01) 
