FANN_FLO_2.1
num_layers=4
learning_rate=0.100000
connection_rate=1.000000
network_type=0
learning_momentum=0.000000
training_algorithm=1
train_error_function=1
train_stop_function=0
cascade_output_change_fraction=0.010000
quickprop_decay=-0.000100
quickprop_mu=1.750000
rprop_increase_factor=1.200000
rprop_decrease_factor=0.500000
rprop_delta_min=0.000000
rprop_delta_max=50.000000
rprop_delta_zero=0.100000
cascade_output_stagnation_epochs=12
cascade_candidate_change_fraction=0.010000
cascade_candidate_stagnation_epochs=12
cascade_max_out_epochs=150
cascade_min_out_epochs=50
cascade_max_cand_epochs=150
cascade_min_cand_epochs=50
cascade_num_candidate_groups=2
bit_fail_limit=3.49999994039535522461e-01
cascade_candidate_limit=1.00000000000000000000e+03
cascade_weight_multiplier=4.00000005960464477539e-01
cascade_activation_functions_count=10
cascade_activation_functions=3 5 7 8 10 11 14 15 16 17 
cascade_activation_steepnesses_count=4
cascade_activation_steepnesses=2.50000000000000000000e-01 5.00000000000000000000e-01 7.50000000000000000000e-01 1.00000000000000000000e+00 
layer_sizes=4 11 11 4 
scale_included=1
scale_mean_in=0.100770 0.090678 -0.099445 
scale_deviation_in=0.014055 0.013403 0.010464 
scale_new_min_in=-0.900000 -0.900000 -0.900000 
scale_factor_in=0.900000 0.900000 0.900000 
scale_mean_out=-0.837318 1.248635 -0.840670 
scale_deviation_out=0.078948 0.166325 0.224469 
scale_new_min_out=-0.900000 -0.900000 -0.900000 
scale_factor_out=0.900000 0.900000 0.900000 
neurons (num_inputs, activation_function, activation_steepness)=(0, 0, 0.00000000000000000000e+00) (0, 0, 0.00000000000000000000e+00) (0, 0, 0.00000000000000000000e+00) (0, 0, 0.00000000000000000000e+00) (4, 5, 5.00000000000000000000e-01) (4, 5, 5.00000000000000000000e-01) (4, 5, 5.00000000000000000000e-01) (4, 5, 5.00000000000000000000e-01) (4, 5, 5.00000000000000000000e-01) (4, 5, 5.00000000000000000000e-01) (4, 5, 5.00000000000000000000e-01) (4, 5, 5.00000000000000000000e-01) (4, 5, 5.00000000000000000000e-01) (4, 5, 5.00000000000000000000e-01) (0, 5, 0.00000000000000000000e+00) (11, 5, 5.00000000000000000000e-01) (11, 5, 5.00000000000000000000e-01) (11, 5, 5.00000000000000000000e-01) (11, 5, 5.00000000000000000000e-01) (11, 5, 5.00000000000000000000e-01) (11, 5, 5.00000000000000000000e-01) (11, 5, 5.00000000000000000000e-01) (11, 5, 5.00000000000000000000e-01) (11, 5, 5.00000000000000000000e-01) (11, 5, 5.00000000000000000000e-01) (0, 5, 0.00000000000000000000e+00) (11, 5, 5.00000000000000000000e-01) (11, 5, 5.00000000000000000000e-01) (11, 5, 5.00000000000000000000e-01) (0, 5, 0.00000000000000000000e+00) 
connections (connected_to_neuron, weight)=(0, -1.36646533012390136719e+00) (1, 7.63790965080261230469e-01) (2, -1.69177436828613281250e+00) (3, -1.01649677753448486328e+00) (0, -4.63553667068481445312e-01) (1, 2.56261730194091796875e+00) (2, 3.56356874108314514160e-02) (3, 1.99527275562286376953e+00) (0, 3.59258025884628295898e-01) (1, -1.09665596485137939453e+00) (2, 9.67312037944793701172e-01) (3, -1.21170723438262939453e+00) (0, -1.04836857318878173828e+00) (1, -4.28291738033294677734e-01) (2, 3.95600676536560058594e-01) (3, -6.62949562072753906250e-01) (0, 2.06671142578125000000e+00) (1, 1.15993094444274902344e+00) (2, -2.26390337944030761719e+00) (3, 4.26225900650024414062e+00) (0, -1.83489704132080078125e+00) (1, -3.14151570200920104980e-02) (2, 6.71809732913970947266e-01) (3, 5.55491328239440917969e-01) (0, 7.55063951015472412109e-01) (1, -1.39677977561950683594e+00) (2, -2.26956629753112792969e+00) (3, 1.53673875331878662109e+00) (0, 7.45045602321624755859e-01) (1, 1.00974225997924804688e+00) (2, -4.81742024421691894531e-01) (3, 1.88876914978027343750e+00) (0, -8.50371778011322021484e-01) (1, -1.26758587360382080078e+00) (2, -3.91312614083290100098e-02) (3, 1.34871506690979003906e+00) (0, 2.53705477714538574219e+00) (1, 1.65007448196411132812e+00) (2, -2.58593273162841796875e+00) (3, -5.23764133453369140625e+00) (4, -2.72973477840423583984e-01) (5, 6.20540678501129150391e-01) (6, 4.26994889974594116211e-01) (7, 1.13214993476867675781e+00) (8, -9.15863275527954101562e-01) (9, 2.50913470983505249023e-01) (10, -1.17418420314788818359e+00) (11, -4.85557913780212402344e-01) (12, -2.58516132831573486328e-01) (13, -2.72663325071334838867e-01) (14, -1.23881149291992187500e+00) (4, 1.02614176273345947266e+00) (5, 1.12950456142425537109e+00) (6, -2.90922164916992187500e-01) (7, -1.06976687908172607422e+00) (8, 3.16425251960754394531e+00) (9, -6.58001065254211425781e-01) (10, 1.07980465888977050781e+00) (11, 1.28797376155853271484e+00) (12, -5.53857088088989257812e-01) (13, -2.80057609081268310547e-01) (14, 1.14622294902801513672e+00) (4, 4.89626646041870117188e-01) (5, 1.34019172191619873047e+00) (6, -5.62355071306228637695e-02) (7, -4.14358675479888916016e-01) (8, 1.38025081157684326172e+00) (9, 3.62563252449035644531e-01) (10, -3.49572241306304931641e-01) (11, -1.06149435043334960938e+00) (12, -8.22103023529052734375e-01) (13, 4.19383108615875244141e-01) (14, -2.56400406360626220703e-01) (4, -2.27541780471801757812e+00) (5, 3.88859659433364868164e-02) (6, 9.25247550010681152344e-01) (7, 5.06969034671783447266e-01) (8, 1.85006511211395263672e+00) (9, 4.22456830739974975586e-01) (10, -1.31419336795806884766e+00) (11, 7.98259258270263671875e-01) (12, 1.61550569534301757812e+00) (13, -3.53683710098266601562e+00) (14, -2.65920549631118774414e-01) (4, -4.08814311027526855469e-01) (5, -2.85029649734497070312e+00) (6, 2.20401549339294433594e+00) (7, -1.43547153472900390625e+00) (8, 1.61302459239959716797e+00) (9, -2.05235719680786132812e+00) (10, -3.11434157192707061768e-02) (11, -7.70991623401641845703e-01) (12, 4.08820062875747680664e-01) (13, 1.61038231849670410156e+00) (14, -1.22196555137634277344e+00) (4, -9.21484947204589843750e-01) (5, 1.35330468416213989258e-01) (6, 1.50740766525268554688e+00) (7, 1.02739572525024414062e+00) (8, -2.98211646080017089844e+00) (9, 1.15031540393829345703e-01) (10, -9.14631068706512451172e-01) (11, -6.96614205837249755859e-01) (12, 1.01046574115753173828e+00) (13, 6.91165149211883544922e-01) (14, -1.25035166740417480469e+00) (4, -9.64435935020446777344e-01) (5, -1.66276788711547851562e+00) (6, 9.14237380027770996094e-01) (7, -5.05044423043727874756e-02) (8, -1.93925333023071289062e+00) (9, -1.52767181396484375000e+00) (10, -1.16335666179656982422e+00) (11, 2.53744453191757202148e-01) (12, 6.65534377098083496094e-01) (13, 2.66016304492950439453e-01) (14, 6.63061380386352539062e-01) (4, -1.06907784938812255859e+00) (5, 1.03489935398101806641e+00) (6, -3.57275575399398803711e-01) (7, 2.41500586271286010742e-01) (8, 8.18063080310821533203e-01) (9, 6.82687759399414062500e-01) (10, -1.80120289325714111328e+00) (11, 2.21307560801506042480e-01) (12, 9.20270457863807678223e-02) (13, -2.11343789100646972656e+00) (14, -8.68775010108947753906e-01) (4, 4.75892752408981323242e-01) (5, -2.86525357514619827271e-02) (6, -8.25846791267395019531e-01) (7, -7.12828576564788818359e-01) (8, -1.36793291568756103516e+00) (9, 9.21750068664550781250e-01) (10, 5.37088274955749511719e-01) (11, -1.14753282070159912109e+00) (12, -7.08883881568908691406e-01) (13, -1.65632784366607666016e+00) (14, -5.58529019355773925781e-01) (4, 1.44033551216125488281e+00) (5, 5.29228091239929199219e-01) (6, 1.98399230837821960449e-01) (7, -5.34880340099334716797e-01) (8, -1.42526388168334960938e-01) (9, -6.83221936225891113281e-01) (10, -5.61134338378906250000e-01) (11, 3.68700206279754638672e-01) (12, -2.41899156570434570312e+00) (13, 2.75089716911315917969e+00) (14, -1.23885917663574218750e+00) (15, 2.81892299652099609375e+00) (16, -1.48991250991821289062e+00) (17, 2.74508595466613769531e+00) (18, -1.36161625385284423828e+00) (19, -5.00876283645629882812e+00) (20, -5.22347569465637207031e-01) (21, -3.18278264999389648438e+00) (22, 1.29954040050506591797e+00) (23, 2.85936903953552246094e+00) (24, 1.26913225650787353516e+00) (25, -2.33315205574035644531e+00) (15, 3.09617114067077636719e+00) (16, -2.17918443679809570312e+00) (17, -1.70045650005340576172e+00) (18, 5.10880374908447265625e+00) (19, -1.32341742515563964844e+00) (20, 2.64938426017761230469e+00) (21, 3.10174942016601562500e+00) (22, 3.77042961120605468750e+00) (23, 8.94627511501312255859e-01) (24, -1.89831280708312988281e+00) (25, -5.09371757507324218750e-01) (15, 1.77539241313934326172e+00) (16, -5.73581790924072265625e+00) (17, -2.12755107879638671875e+00) (18, 5.94322872161865234375e+00) (19, -1.03100836277008056641e+00) (20, 3.60482454299926757812e+00) (21, 1.66534829139709472656e+00) (22, 1.50903153419494628906e+00) (23, 3.01416420936584472656e+00) (24, -6.18834257125854492188e+00) (25, -8.53927731513977050781e-01) 
