FANN_FLO_2.1
num_layers=4
learning_rate=0.100000
connection_rate=1.000000
network_type=0
learning_momentum=0.000000
training_algorithm=1
train_error_function=1
train_stop_function=0
cascade_output_change_fraction=0.010000
quickprop_decay=-0.000100
quickprop_mu=1.750000
rprop_increase_factor=1.200000
rprop_decrease_factor=0.500000
rprop_delta_min=0.000000
rprop_delta_max=50.000000
rprop_delta_zero=0.100000
cascade_output_stagnation_epochs=12
cascade_candidate_change_fraction=0.010000
cascade_candidate_stagnation_epochs=12
cascade_max_out_epochs=150
cascade_min_out_epochs=50
cascade_max_cand_epochs=150
cascade_min_cand_epochs=50
cascade_num_candidate_groups=2
bit_fail_limit=3.49999994039535522461e-01
cascade_candidate_limit=1.00000000000000000000e+03
cascade_weight_multiplier=4.00000005960464477539e-01
cascade_activation_functions_count=10
cascade_activation_functions=3 5 7 8 10 11 14 15 16 17 
cascade_activation_steepnesses_count=4
cascade_activation_steepnesses=2.50000000000000000000e-01 5.00000000000000000000e-01 7.50000000000000000000e-01 1.00000000000000000000e+00 
layer_sizes=4 11 11 4 
scale_included=1
scale_mean_in=0.135744 0.131683 -0.128855 
scale_deviation_in=0.007983 0.007072 0.007653 
scale_new_min_in=-0.900000 -0.900000 -0.900000 
scale_factor_in=0.900000 0.900000 0.900000 
scale_mean_out=-0.800294 0.226527 -2.447766 
scale_deviation_out=0.045816 0.204863 0.318582 
scale_new_min_out=-0.900000 -0.900000 -0.900000 
scale_factor_out=0.900000 0.900000 0.900000 
neurons (num_inputs, activation_function, activation_steepness)=(0, 0, 0.00000000000000000000e+00) (0, 0, 0.00000000000000000000e+00) (0, 0, 0.00000000000000000000e+00) (0, 0, 0.00000000000000000000e+00) (4, 5, 5.00000000000000000000e-01) (4, 5, 5.00000000000000000000e-01) (4, 5, 5.00000000000000000000e-01) (4, 5, 5.00000000000000000000e-01) (4, 5, 5.00000000000000000000e-01) (4, 5, 5.00000000000000000000e-01) (4, 5, 5.00000000000000000000e-01) (4, 5, 5.00000000000000000000e-01) (4, 5, 5.00000000000000000000e-01) (4, 5, 5.00000000000000000000e-01) (0, 5, 0.00000000000000000000e+00) (11, 5, 5.00000000000000000000e-01) (11, 5, 5.00000000000000000000e-01) (11, 5, 5.00000000000000000000e-01) (11, 5, 5.00000000000000000000e-01) (11, 5, 5.00000000000000000000e-01) (11, 5, 5.00000000000000000000e-01) (11, 5, 5.00000000000000000000e-01) (11, 5, 5.00000000000000000000e-01) (11, 5, 5.00000000000000000000e-01) (11, 5, 5.00000000000000000000e-01) (0, 5, 0.00000000000000000000e+00) (11, 5, 5.00000000000000000000e-01) (11, 5, 5.00000000000000000000e-01) (11, 5, 5.00000000000000000000e-01) (0, 5, 0.00000000000000000000e+00) 
connections (connected_to_neuron, weight)=(0, -1.92664003372192382812e+00) (1, -2.52230525016784667969e+00) (2, -2.14111000299453735352e-01) (3, 7.77129411697387695312e-01) (0, -6.63102102279663085938e+00) (1, -5.67964553833007812500e+00) (2, 1.57784864306449890137e-01) (3, 4.57087755203247070312e+00) (0, -5.18632078170776367188e+00) (1, -4.56760692596435546875e+00) (2, 5.70106267929077148438e+00) (3, -4.56746625900268554688e+00) (0, -3.05345988273620605469e+00) (1, 2.72772479057312011719e+00) (2, 2.36245095729827880859e-01) (3, -5.88298463821411132812e+00) (0, 4.67917776107788085938e+00) (1, 4.36189937591552734375e+00) (2, -3.21166157722473144531e+00) (3, -4.47330445051193237305e-01) (0, 2.69516849517822265625e+00) (1, 1.53349125385284423828e+00) (2, 5.34985244274139404297e-01) (3, -6.10202550888061523438e-01) (0, 6.72191739082336425781e-01) (1, 7.73489117622375488281e-01) (2, -6.16296148300170898438e+00) (3, 3.30554056167602539062e+00) (0, -3.55465555191040039062e+00) (1, 2.02100062370300292969e+00) (2, -5.73913231492042541504e-02) (3, 4.27028274536132812500e+00) (0, 4.14760887622833251953e-01) (1, 3.18926155567169189453e-01) (2, -3.90357661247253417969e+00) (3, -1.52778577804565429688e+00) (0, 3.17647784948348999023e-01) (1, -1.61034739017486572266e+00) (2, -7.29279577732086181641e-01) (3, -1.40846252441406250000e+00) (4, -1.18193018436431884766e+00) (5, 4.43897128105163574219e-01) (6, -8.34372758865356445312e-01) (7, 2.88369822502136230469e+00) (8, -5.48837482929229736328e-01) (9, -3.78947019577026367188e-01) (10, 1.99564978480339050293e-01) (11, -1.44564485549926757812e+00) (12, 1.13843560218811035156e+00) (13, 2.58486032485961914062e-01) (14, -2.20769000053405761719e+00) (4, 2.15840071439743041992e-01) (5, 9.77192521095275878906e-01) (6, 2.14217114448547363281e+00) (7, 3.10667204856872558594e+00) (8, 9.39480841159820556641e-01) (9, -1.30038964748382568359e+00) (10, -7.69163966178894042969e-01) (11, 1.22976005077362060547e+00) (12, -6.42365276813507080078e-01) (13, 9.16021019220352172852e-02) (14, 1.30121338367462158203e+00) (4, 2.94067525863647460938e+00) (5, -4.03206586837768554688e+00) (6, 2.76840090751647949219e+00) (7, 4.19216714799404144287e-02) (8, 2.86160922050476074219e+00) (9, -2.81938004493713378906e+00) (10, -6.33839249610900878906e-01) (11, -2.63775795698165893555e-01) (12, -3.07026886940002441406e+00) (13, 6.34926855564117431641e-01) (14, 3.35761260986328125000e+00) (4, 1.58308660984039306641e+00) (5, 2.54113912582397460938e+00) (6, -8.59902501106262207031e-01) (7, -6.88436269760131835938e-01) (8, 1.55213212966918945312e+00) (9, -2.52749538421630859375e+00) (10, -1.71648073196411132812e+00) (11, 5.07526218891143798828e-01) (12, 5.75022578239440917969e-01) (13, 3.76973569393157958984e-01) (14, 5.22377490997314453125e-01) (4, -6.24796569347381591797e-01) (5, -9.64827001094818115234e-01) (6, 4.45983633399009704590e-02) (7, 2.76570463180541992188e+00) (8, -4.01117295026779174805e-01) (9, -1.19495499134063720703e+00) (10, -1.08586966991424560547e-01) (11, 1.09966409206390380859e+00) (12, 1.00049602985382080078e+00) (13, -2.88068801164627075195e-01) (14, 6.41228139400482177734e-01) (4, 1.22708380222320556641e+00) (5, 2.38948202133178710938e+00) (6, 5.63576030731201171875e+00) (7, -5.06445646286010742188e-01) (8, -6.85584545135498046875e-01) (9, -1.52086734771728515625e+00) (10, -1.78669631481170654297e+00) (11, 9.70992565155029296875e-01) (12, -1.80910265445709228516e+00) (13, 2.00571671128273010254e-01) (14, -1.82817745208740234375e+00) (4, -1.68177056312561035156e+00) (5, 2.40055453032255172729e-02) (6, -2.23178791999816894531e+00) (7, 3.73625785112380981445e-01) (8, -6.37905597686767578125e-01) (9, 1.76975131034851074219e+00) (10, 1.60899984836578369141e+00) (11, 2.70788192749023437500e+00) (12, -1.06407955288887023926e-01) (13, -2.65601668506860733032e-02) (14, -2.07177042961120605469e+00) (4, -2.11648583412170410156e+00) (5, -4.51763391494750976562e+00) (6, -8.99247550964355468750e+00) (7, 1.14012396335601806641e+00) (8, 3.82283711433410644531e+00) (9, 1.76207172870635986328e+00) (10, 3.68853020668029785156e+00) (11, -1.78316628932952880859e+00) (12, 1.73416101932525634766e+00) (13, 9.90218520164489746094e-01) (14, 1.23514342308044433594e+00) (4, -2.51684689521789550781e+00) (5, 7.22840964794158935547e-01) (6, 4.87090855836868286133e-01) (7, 1.66035377979278564453e+00) (8, -1.48189735412597656250e+00) (9, 1.42956590652465820312e+00) (10, 6.62224590778350830078e-01) (11, -7.77907550334930419922e-01) (12, 1.41976505517959594727e-01) (13, -9.33552026748657226562e-01) (14, -1.87358021736145019531e+00) (4, 3.58128249645233154297e-01) (5, 9.77260410785675048828e-01) (6, -1.11228726804256439209e-01) (7, -4.80787426233291625977e-01) (8, -5.18212199211120605469e-01) (9, 2.29148292541503906250e+00) (10, -1.06478202342987060547e+00) (11, -4.13788700103759765625e+00) (12, 1.52358841896057128906e+00) (13, 2.18494629859924316406e+00) (14, -1.40233814716339111328e+00) (15, 1.46686708927154541016e+00) (16, 4.56606769561767578125e+00) (17, 3.51292341947555541992e-01) (18, 3.64205032587051391602e-01) (19, 5.07857751846313476562e+00) (20, 5.28720915317535400391e-01) (21, 5.05965375900268554688e+00) (22, 4.84888292849063873291e-02) (23, 3.39667010307312011719e+00) (24, -8.23384094238281250000e+00) (25, -2.55031555891036987305e-01) (15, -6.06047868728637695312e+00) (16, 4.46190690994262695312e+00) (17, 7.30437898635864257812e+00) (18, 4.71767997741699218750e+00) (19, -1.50091743469238281250e+00) (20, 7.43075704574584960938e+00) (21, -4.36971044540405273438e+00) (22, -8.08365345001220703125e+00) (23, -4.72064208984375000000e+00) (24, -3.91170668601989746094e+00) (25, 4.73102283477783203125e+00) (15, -5.09171581268310546875e+00) (16, 3.50900530815124511719e+00) (17, 7.64428138732910156250e+00) (18, 5.46676063537597656250e+00) (19, -5.67121565341949462891e-01) (20, 7.93132352828979492188e+00) (21, -4.95627307891845703125e+00) (22, -8.62507247924804687500e+00) (23, -4.90828752517700195312e+00) (24, -4.40797901153564453125e+00) (25, 6.08999681472778320312e+00) 
