FANN_FLO_2.1
num_layers=4
learning_rate=0.100000
connection_rate=1.000000
network_type=0
learning_momentum=0.000000
training_algorithm=1
train_error_function=1
train_stop_function=0
cascade_output_change_fraction=0.010000
quickprop_decay=-0.000100
quickprop_mu=1.750000
rprop_increase_factor=1.200000
rprop_decrease_factor=0.500000
rprop_delta_min=0.000000
rprop_delta_max=50.000000
rprop_delta_zero=0.100000
cascade_output_stagnation_epochs=12
cascade_candidate_change_fraction=0.010000
cascade_candidate_stagnation_epochs=12
cascade_max_out_epochs=150
cascade_min_out_epochs=50
cascade_max_cand_epochs=150
cascade_min_cand_epochs=50
cascade_num_candidate_groups=2
bit_fail_limit=3.49999994039535522461e-01
cascade_candidate_limit=1.00000000000000000000e+03
cascade_weight_multiplier=4.00000005960464477539e-01
cascade_activation_functions_count=10
cascade_activation_functions=3 5 7 8 10 11 14 15 16 17 
cascade_activation_steepnesses_count=4
cascade_activation_steepnesses=2.50000000000000000000e-01 5.00000000000000000000e-01 7.50000000000000000000e-01 1.00000000000000000000e+00 
layer_sizes=4 11 11 4 
scale_included=1
scale_mean_in=0.208377 -0.003036 -0.063148 
scale_deviation_in=0.014484 0.013680 0.010544 
scale_new_min_in=-0.900000 -0.900000 -0.900000 
scale_factor_in=0.900000 0.900000 0.900000 
scale_mean_out=-1.585407 0.860167 -2.049047 
scale_deviation_out=0.066463 0.383477 0.608590 
scale_new_min_out=-0.900000 -0.900000 -0.900000 
scale_factor_out=0.900000 0.900000 0.900000 
neurons (num_inputs, activation_function, activation_steepness)=(0, 0, 0.00000000000000000000e+00) (0, 0, 0.00000000000000000000e+00) (0, 0, 0.00000000000000000000e+00) (0, 0, 0.00000000000000000000e+00) (4, 5, 5.00000000000000000000e-01) (4, 5, 5.00000000000000000000e-01) (4, 5, 5.00000000000000000000e-01) (4, 5, 5.00000000000000000000e-01) (4, 5, 5.00000000000000000000e-01) (4, 5, 5.00000000000000000000e-01) (4, 5, 5.00000000000000000000e-01) (4, 5, 5.00000000000000000000e-01) (4, 5, 5.00000000000000000000e-01) (4, 5, 5.00000000000000000000e-01) (0, 5, 0.00000000000000000000e+00) (11, 5, 5.00000000000000000000e-01) (11, 5, 5.00000000000000000000e-01) (11, 5, 5.00000000000000000000e-01) (11, 5, 5.00000000000000000000e-01) (11, 5, 5.00000000000000000000e-01) (11, 5, 5.00000000000000000000e-01) (11, 5, 5.00000000000000000000e-01) (11, 5, 5.00000000000000000000e-01) (11, 5, 5.00000000000000000000e-01) (11, 5, 5.00000000000000000000e-01) (0, 5, 0.00000000000000000000e+00) (11, 5, 5.00000000000000000000e-01) (11, 5, 5.00000000000000000000e-01) (11, 5, 5.00000000000000000000e-01) (0, 5, 0.00000000000000000000e+00) 
connections (connected_to_neuron, weight)=(0, 5.98084568977355957031e-01) (1, 2.17277908325195312500e+00) (2, -3.75108942389488220215e-02) (3, 2.41217589378356933594e+00) (0, 6.09525537490844726562e+00) (1, -7.27323219180107116699e-02) (2, -1.29941332340240478516e+00) (3, -2.41893196105957031250e+00) (0, 1.17806780338287353516e+00) (1, -1.19868993759155273438e-01) (2, 1.44758820533752441406e+00) (3, -1.66687417030334472656e+00) (0, -1.37038719654083251953e+00) (1, -1.59821450710296630859e+00) (2, 1.16945721209049224854e-01) (3, -6.72575592994689941406e-01) (0, -1.87062144279479980469e-01) (1, 1.23605370521545410156e+00) (2, 7.93889164924621582031e-01) (3, 1.67067372798919677734e+00) (0, 1.80061191320419311523e-01) (1, 1.39798605442047119141e+00) (2, -9.04518783092498779297e-01) (3, 2.02834054827690124512e-01) (0, 3.66852402687072753906e-01) (1, -2.33572888374328613281e+00) (2, -2.22118571400642395020e-01) (3, -2.24979472160339355469e+00) (0, -1.71363818645477294922e+00) (1, 1.37952435016632080078e+00) (2, 7.40444302558898925781e-01) (3, -1.25607848167419433594e+00) (0, 1.76271462440490722656e+00) (1, 6.89985334873199462891e-01) (2, -1.03112888336181640625e+00) (3, 1.99494123458862304688e+00) (0, -1.74357146024703979492e-02) (1, 3.96091675758361816406e+00) (2, -2.23556011915206909180e-01) (3, -4.06810998916625976562e+00) (4, 3.41970658302307128906e+00) (5, -9.11269366741180419922e-01) (6, -6.14098787307739257812e-01) (7, -2.55562567710876464844e+00) (8, 1.93774604797363281250e+00) (9, 2.07234883308410644531e+00) (10, -2.44081878662109375000e+00) (11, 1.34451127052307128906e+00) (12, 1.41773676872253417969e+00) (13, -6.38349652290344238281e-02) (14, 1.51288771629333496094e+00) (4, -1.85478091239929199219e-01) (5, -3.12712979316711425781e+00) (6, 5.41935801506042480469e-01) (7, -1.13262784481048583984e+00) (8, -4.06283855438232421875e-01) (9, 8.40081214904785156250e-01) (10, 4.56265062093734741211e-01) (11, -1.97735500335693359375e+00) (12, 1.89763557910919189453e+00) (13, -3.06463539600372314453e-01) (14, -1.19536983966827392578e+00) (4, 1.12309491634368896484e+00) (5, -6.38581991195678710938e-01) (6, 5.55168569087982177734e-01) (7, 4.20548647642135620117e-01) (8, 1.22150325775146484375e+00) (9, -1.36794745922088623047e+00) (10, 1.18088968098163604736e-01) (11, -1.45484471321105957031e+00) (12, -6.65996491909027099609e-01) (13, -1.78821027278900146484e+00) (14, 5.85126221179962158203e-01) (4, -5.73227822780609130859e-01) (5, -3.54278422892093658447e-02) (6, 2.42654442787170410156e-01) (7, -3.35361987352371215820e-01) (8, 5.97857713699340820312e-01) (9, -2.63326406478881835938e-01) (10, 1.33527815341949462891e+00) (11, -1.08842335641384124756e-01) (12, -1.04572761058807373047e+00) (13, -9.79863762855529785156e-01) (14, -1.92133143544197082520e-01) (4, 1.12244939804077148438e+00) (5, 3.36165755987167358398e-01) (6, -1.10036112368106842041e-01) (7, 6.21998906135559082031e-01) (8, 9.27418053150177001953e-01) (9, -7.94876873493194580078e-01) (10, -4.82837945222854614258e-01) (11, 8.64696130156517028809e-02) (12, -3.49156260490417480469e-01) (13, 1.51179099082946777344e+00) (14, -4.54757362604141235352e-01) (4, -1.54205143451690673828e+00) (5, 2.92216598987579345703e-01) (6, -1.18935096263885498047e+00) (7, 8.16421359777450561523e-02) (8, 7.37525165081024169922e-01) (9, -2.20662415027618408203e-01) (10, -8.45233798027038574219e-01) (11, 1.95935308933258056641e+00) (12, -1.15902936458587646484e+00) (13, 1.56245350837707519531e+00) (14, -5.39037525653839111328e-01) (4, -6.37729644775390625000e-01) (5, 2.69242026843130588531e-03) (6, -9.82610285282135009766e-01) (7, 1.43259537220001220703e+00) (8, -5.88282883167266845703e-01) (9, -6.88775420188903808594e-01) (10, -5.13860166072845458984e-01) (11, -1.62878942489624023438e+00) (12, 2.04291582107543945312e-01) (13, -4.64851045608520507812e+00) (14, 1.13976776599884033203e+00) (4, 6.35276257991790771484e-01) (5, 6.05029916763305664062e+00) (6, 1.93525803089141845703e+00) (7, -1.05697059631347656250e+00) (8, -1.57277083396911621094e+00) (9, 1.76082789897918701172e-01) (10, 1.26334357261657714844e+00) (11, -1.55914199352264404297e+00) (12, 1.40070736408233642578e+00) (13, 1.47725903987884521484e+00) (14, -1.02813827991485595703e+00) (4, 7.72205054759979248047e-01) (5, 4.83330637216567993164e-01) (6, 9.58986639976501464844e-01) (7, -6.42044067382812500000e-01) (8, -5.82493185997009277344e-01) (9, 8.37186157703399658203e-01) (10, 5.00067949295043945312e-01) (11, 1.07509517669677734375e+00) (12, -7.39781737327575683594e-01) (13, -1.57315954566001892090e-01) (14, -7.86577522754669189453e-01) (4, -8.78838837146759033203e-01) (5, -5.62958836555480957031e-01) (6, -9.69515264034271240234e-01) (7, 7.03211486339569091797e-01) (8, -3.35988759994506835938e-01) (9, 1.61180660128593444824e-01) (10, -5.55604875087738037109e-01) (11, 4.98426586389541625977e-01) (12, -1.17954778671264648438e+00) (13, -1.78933784365653991699e-01) (14, -7.66739904880523681641e-01) (15, 8.32721138000488281250e+00) (16, 4.25777703523635864258e-01) (17, -2.09038829803466796875e+00) (18, -3.02846169471740722656e+00) (19, 2.99420690536499023438e+00) (20, 8.14169824123382568359e-01) (21, -6.99123144149780273438e+00) (22, -5.84712550044059753418e-02) (23, 3.27086210250854492188e-01) (24, -6.97156488895416259766e-01) (25, 3.02330106496810913086e-01) (15, 1.63421064615249633789e-01) (16, -3.33620023727416992188e+00) (17, 2.40273332595825195312e+00) (18, 1.33716925978660583496e-01) (19, 1.64326357841491699219e+00) (20, 1.80811369419097900391e+00) (21, 1.86517372727394104004e-01) (22, -2.89646625518798828125e+00) (23, -3.45215559005737304688e-01) (24, 1.09978485107421875000e+00) (25, 1.11931073665618896484e+00) (15, 1.75673961639404296875e-01) (16, -2.95445561408996582031e+00) (17, 9.68401551246643066406e-01) (18, -4.99231427907943725586e-01) (19, 2.47556447982788085938e-01) (20, 2.44846534729003906250e+00) (21, 6.87213957309722900391e-01) (22, -2.64294242858886718750e+00) (23, -3.58139187097549438477e-01) (24, 1.37395870685577392578e+00) (25, 1.83479464054107666016e+00) 
