FANN_FLO_2.1
num_layers=3
learning_rate=0.100000
connection_rate=1.000000
network_type=0
learning_momentum=0.000000
training_algorithm=1
train_error_function=1
train_stop_function=0
cascade_output_change_fraction=0.010000
quickprop_decay=-0.000100
quickprop_mu=1.750000
rprop_increase_factor=1.200000
rprop_decrease_factor=0.500000
rprop_delta_min=0.000000
rprop_delta_max=50.000000
rprop_delta_zero=0.100000
cascade_output_stagnation_epochs=12
cascade_candidate_change_fraction=0.010000
cascade_candidate_stagnation_epochs=12
cascade_max_out_epochs=150
cascade_min_out_epochs=50
cascade_max_cand_epochs=150
cascade_min_cand_epochs=50
cascade_num_candidate_groups=2
bit_fail_limit=3.49999994039535522461e-01
cascade_candidate_limit=1.00000000000000000000e+03
cascade_weight_multiplier=4.00000005960464477539e-01
cascade_activation_functions_count=10
cascade_activation_functions=3 5 7 8 10 11 14 15 16 17 
cascade_activation_steepnesses_count=4
cascade_activation_steepnesses=2.50000000000000000000e-01 5.00000000000000000000e-01 7.50000000000000000000e-01 1.00000000000000000000e+00 
layer_sizes=4 11 4 
scale_included=1
scale_mean_in=0.126945 -0.018010 0.143318 
scale_deviation_in=0.003081 0.013369 0.001884 
scale_new_min_in=-0.900000 -0.900000 -0.900000 
scale_factor_in=0.900000 0.900000 0.900000 
scale_mean_out=-1.710963 2.039538 -2.217742 
scale_deviation_out=0.103604 0.080058 0.119322 
scale_new_min_out=-0.900000 -0.900000 -0.900000 
scale_factor_out=0.900000 0.900000 0.900000 
neurons (num_inputs, activation_function, activation_steepness)=(0, 0, 0.00000000000000000000e+00) (0, 0, 0.00000000000000000000e+00) (0, 0, 0.00000000000000000000e+00) (0, 0, 0.00000000000000000000e+00) (4, 5, 5.00000000000000000000e-01) (4, 5, 5.00000000000000000000e-01) (4, 5, 5.00000000000000000000e-01) (4, 5, 5.00000000000000000000e-01) (4, 5, 5.00000000000000000000e-01) (4, 5, 5.00000000000000000000e-01) (4, 5, 5.00000000000000000000e-01) (4, 5, 5.00000000000000000000e-01) (4, 5, 5.00000000000000000000e-01) (4, 5, 5.00000000000000000000e-01) (0, 5, 0.00000000000000000000e+00) (11, 5, 5.00000000000000000000e-01) (11, 5, 5.00000000000000000000e-01) (11, 5, 5.00000000000000000000e-01) (0, 5, 0.00000000000000000000e+00) 
connections (connected_to_neuron, weight)=(0, 3.47984242439270019531e+00) (1, -1.96543550491333007812e+00) (2, 2.98498702049255371094e+00) (3, 3.90799355506896972656e+00) (0, -1.90713986754417419434e-01) (1, 2.00023517012596130371e-01) (2, 7.67662405967712402344e-01) (3, -6.46437048912048339844e-01) (0, 3.82060140371322631836e-01) (1, 1.41716074943542480469e+00) (2, -3.28634589910507202148e-01) (3, 2.28663372993469238281e+00) (0, 9.80282187461853027344e-01) (1, -2.89105296134948730469e+00) (2, 1.18295598030090332031e+00) (3, 1.78678250312805175781e+00) (0, 3.42953705787658691406e+00) (1, -2.26198863983154296875e+00) (2, 3.15480852127075195312e+00) (3, 4.05901384353637695312e+00) (0, 4.80853199958801269531e-01) (1, 2.13426041603088378906e+00) (2, 3.04606199264526367188e-01) (3, 2.76846456527709960938e+00) (0, 4.32510852813720703125e-01) (1, -9.70077812671661376953e-01) (2, 2.86693394184112548828e-01) (3, -8.41011583805084228516e-01) (0, 5.71227252483367919922e-01) (1, 3.32083678245544433594e+00) (2, 4.79748129844665527344e-01) (3, -4.09184074401855468750e+00) (0, -1.38604354858398437500e+00) (1, -7.03503549098968505859e-01) (2, -1.16268765926361083984e+00) (3, 3.14812771975994110107e-02) (0, -8.77000808715820312500e-01) (1, 6.71637773513793945312e-01) (2, -5.67651152610778808594e-01) (3, 2.30642700195312500000e+00) (4, 8.14485490322113037109e-01) (5, 4.94143486022949218750e-01) (6, 1.67712342739105224609e+00) (7, -5.07270812988281250000e-01) (8, -8.98922681808471679688e-01) (9, 3.29743003845214843750e+00) (10, -3.55235010385513305664e-01) (11, 3.38089275360107421875e+00) (12, 2.13692989200353622437e-02) (13, 4.83058869838714599609e-01) (14, -9.70923244953155517578e-01) (4, -3.56071949005126953125e+00) (5, 3.41752529144287109375e-01) (6, 2.63605284690856933594e+00) (7, -2.35827040672302246094e+00) (8, -4.27513170242309570312e+00) (9, 7.69872069358825683594e-01) (10, -3.10222554206848144531e+00) (11, -3.00584578514099121094e+00) (12, 3.48346877098083496094e+00) (13, 3.85947751998901367188e+00) (14, 5.97356081008911132812e-01) (4, -4.20706319808959960938e+00) (5, -1.48398494720458984375e+00) (6, 2.04729986190795898438e+00) (7, -2.69022488594055175781e+00) (8, -3.31856560707092285156e+00) (9, 1.33673405647277832031e+00) (10, -3.06131839752197265625e+00) (11, -2.80533051490783691406e+00) (12, 3.67529582977294921875e+00) (13, 3.15125346183776855469e+00) (14, 8.58810305595397949219e-01) 
