FANN_FLO_2.1
num_layers=3
learning_rate=0.100000
connection_rate=1.000000
network_type=0
learning_momentum=0.000000
training_algorithm=1
train_error_function=1
train_stop_function=0
cascade_output_change_fraction=0.010000
quickprop_decay=-0.000100
quickprop_mu=1.750000
rprop_increase_factor=1.200000
rprop_decrease_factor=0.500000
rprop_delta_min=0.000000
rprop_delta_max=50.000000
rprop_delta_zero=0.100000
cascade_output_stagnation_epochs=12
cascade_candidate_change_fraction=0.010000
cascade_candidate_stagnation_epochs=12
cascade_max_out_epochs=150
cascade_min_out_epochs=50
cascade_max_cand_epochs=150
cascade_min_cand_epochs=50
cascade_num_candidate_groups=2
bit_fail_limit=3.49999994039535522461e-01
cascade_candidate_limit=1.00000000000000000000e+03
cascade_weight_multiplier=4.00000005960464477539e-01
cascade_activation_functions_count=10
cascade_activation_functions=3 5 7 8 10 11 14 15 16 17 
cascade_activation_steepnesses_count=4
cascade_activation_steepnesses=2.50000000000000000000e-01 5.00000000000000000000e-01 7.50000000000000000000e-01 1.00000000000000000000e+00 
layer_sizes=4 11 4 
scale_included=1
scale_mean_in=0.093135 -0.025612 0.149539 
scale_deviation_in=0.013598 0.017144 0.005749 
scale_new_min_in=-0.900000 -0.900000 -0.900000 
scale_factor_in=0.900000 0.900000 0.900000 
scale_mean_out=-1.836521 2.403053 -1.913086 
scale_deviation_out=0.176524 0.181843 0.226390 
scale_new_min_out=-0.900000 -0.900000 -0.900000 
scale_factor_out=0.900000 0.900000 0.900000 
neurons (num_inputs, activation_function, activation_steepness)=(0, 0, 0.00000000000000000000e+00) (0, 0, 0.00000000000000000000e+00) (0, 0, 0.00000000000000000000e+00) (0, 0, 0.00000000000000000000e+00) (4, 5, 5.00000000000000000000e-01) (4, 5, 5.00000000000000000000e-01) (4, 5, 5.00000000000000000000e-01) (4, 5, 5.00000000000000000000e-01) (4, 5, 5.00000000000000000000e-01) (4, 5, 5.00000000000000000000e-01) (4, 5, 5.00000000000000000000e-01) (4, 5, 5.00000000000000000000e-01) (4, 5, 5.00000000000000000000e-01) (4, 5, 5.00000000000000000000e-01) (0, 5, 0.00000000000000000000e+00) (11, 5, 5.00000000000000000000e-01) (11, 5, 5.00000000000000000000e-01) (11, 5, 5.00000000000000000000e-01) (0, 5, 0.00000000000000000000e+00) 
connections (connected_to_neuron, weight)=(0, 3.92692327499389648438e-01) (1, -1.33140385150909423828e+00) (2, 1.21750555932521820068e-01) (3, 1.01899909973144531250e+00) (0, -1.03283917903900146484e+00) (1, -5.39082884788513183594e-01) (2, -6.17246508598327636719e-01) (3, -1.34382820129394531250e+00) (0, -1.83678090572357177734e-01) (1, -7.75116801261901855469e-01) (2, 1.15228807926177978516e+00) (3, -9.27130758762359619141e-01) (0, -2.24457457661628723145e-01) (1, -7.64133989810943603516e-01) (2, -2.57909029722213745117e-01) (3, 7.04758346080780029297e-01) (0, -1.21707332134246826172e+00) (1, 1.16304524242877960205e-01) (2, 6.26749396324157714844e-01) (3, 3.42813730239868164062e-01) (0, -1.51510477066040039062e+00) (1, -3.78432482481002807617e-01) (2, -1.29496908187866210938e+00) (3, 1.44254279136657714844e+00) (0, 4.48056280612945556641e-01) (1, -1.19119691848754882812e+00) (2, -3.21356266736984252930e-01) (3, 6.49148941040039062500e-01) (0, -5.85441529750823974609e-01) (1, 1.64486542344093322754e-01) (2, -6.22213184833526611328e-01) (3, -6.57900452613830566406e-01) (0, -6.15134656429290771484e-01) (1, 4.06071037054061889648e-01) (2, -6.94184064865112304688e-01) (3, -7.68331468105316162109e-01) (0, -7.23905801773071289062e-01) (1, 1.29505980014801025391e+00) (2, -6.40748620033264160156e-01) (3, 1.06347227096557617188e+00) (4, -2.06973361968994140625e+00) (5, -2.15173959732055664062e+00) (6, -9.87069070339202880859e-01) (7, -3.45910012722015380859e-01) (8, -4.28732812404632568359e-01) (9, -1.08451664447784423828e+00) (10, -1.00875437259674072266e+00) (11, -1.00092984735965728760e-01) (12, 8.22811305522918701172e-01) (13, 8.78046691417694091797e-01) (14, 1.94626659154891967773e-01) (4, 6.96617066860198974609e-01) (5, 4.86138612031936645508e-01) (6, -1.10358393192291259766e+00) (7, 4.88486647605895996094e-01) (8, 1.50648653507232666016e+00) (9, 1.73634827136993408203e+00) (10, -6.20386660099029541016e-01) (11, 7.96030402183532714844e-01) (12, 2.49606728553771972656e+00) (13, 1.41717433929443359375e+00) (14, -6.70514702796936035156e-01) (4, -1.19193814694881439209e-01) (5, 1.40815746784210205078e+00) (6, -1.08989524841308593750e+00) (7, -5.50861917436122894287e-02) (8, -9.09275487065315246582e-02) (9, 1.86930751800537109375e+00) (10, 9.89357054233551025391e-01) (11, 1.26073956489562988281e+00) (12, 1.67494165897369384766e+00) (13, 2.01527953147888183594e+00) (14, -2.93129205703735351562e-01) 
