FANN_FLO_2.1
num_layers=3
learning_rate=0.100000
connection_rate=1.000000
network_type=0
learning_momentum=0.000000
training_algorithm=1
train_error_function=1
train_stop_function=0
cascade_output_change_fraction=0.010000
quickprop_decay=-0.000100
quickprop_mu=1.750000
rprop_increase_factor=1.200000
rprop_decrease_factor=0.500000
rprop_delta_min=0.000000
rprop_delta_max=50.000000
rprop_delta_zero=0.100000
cascade_output_stagnation_epochs=12
cascade_candidate_change_fraction=0.010000
cascade_candidate_stagnation_epochs=12
cascade_max_out_epochs=150
cascade_min_out_epochs=50
cascade_max_cand_epochs=150
cascade_min_cand_epochs=50
cascade_num_candidate_groups=2
bit_fail_limit=3.49999994039535522461e-01
cascade_candidate_limit=1.00000000000000000000e+03
cascade_weight_multiplier=4.00000005960464477539e-01
cascade_activation_functions_count=10
cascade_activation_functions=3 5 7 8 10 11 14 15 16 17 
cascade_activation_steepnesses_count=4
cascade_activation_steepnesses=2.50000000000000000000e-01 5.00000000000000000000e-01 7.50000000000000000000e-01 1.00000000000000000000e+00 
layer_sizes=4 11 4 
scale_included=1
scale_mean_in=-0.003288 -0.004085 0.035703 
scale_deviation_in=0.014050 0.016415 0.007928 
scale_new_min_in=-0.900000 -0.900000 -0.900000 
scale_factor_in=0.900000 0.900000 0.900000 
scale_mean_out=0.211028 5.059580 0.273918 
scale_deviation_out=1.948026 0.351938 0.145082 
scale_new_min_out=-0.900000 -0.900000 -0.900000 
scale_factor_out=0.900000 0.900000 0.900000 
neurons (num_inputs, activation_function, activation_steepness)=(0, 0, 0.00000000000000000000e+00) (0, 0, 0.00000000000000000000e+00) (0, 0, 0.00000000000000000000e+00) (0, 0, 0.00000000000000000000e+00) (4, 5, 5.00000000000000000000e-01) (4, 5, 5.00000000000000000000e-01) (4, 5, 5.00000000000000000000e-01) (4, 5, 5.00000000000000000000e-01) (4, 5, 5.00000000000000000000e-01) (4, 5, 5.00000000000000000000e-01) (4, 5, 5.00000000000000000000e-01) (4, 5, 5.00000000000000000000e-01) (4, 5, 5.00000000000000000000e-01) (4, 5, 5.00000000000000000000e-01) (0, 5, 0.00000000000000000000e+00) (11, 5, 5.00000000000000000000e-01) (11, 5, 5.00000000000000000000e-01) (11, 5, 5.00000000000000000000e-01) (0, 5, 0.00000000000000000000e+00) 
connections (connected_to_neuron, weight)=(0, -2.15076971054077148438e+00) (1, -3.00387954711914062500e+00) (2, -4.69029486179351806641e-01) (3, -2.53840947151184082031e+00) (0, -2.69091844558715820312e-01) (1, -1.69563725590705871582e-01) (2, -3.41571998596191406250e+00) (3, -4.21420383453369140625e+00) (0, 1.40203729271888732910e-01) (1, 7.29118511080741882324e-02) (2, 3.26666784286499023438e+00) (3, 4.17898845672607421875e+00) (0, -2.25154194049537181854e-03) (1, 1.82913225144147872925e-02) (2, 5.68795323371887207031e-01) (3, -1.40054082870483398438e+00) (0, -9.21525992453098297119e-03) (1, 1.00749231874942779541e-01) (2, -2.18777227401733398438e+00) (3, 2.61702275276184082031e+00) (0, 1.15145504474639892578e+00) (1, -1.12346962094306945801e-01) (2, 1.04331351816654205322e-01) (3, -1.87738013267517089844e+00) (0, -7.08018541336059570312e-01) (1, -8.78302693367004394531e-01) (2, 2.38066554069519042969e-01) (3, -2.02963304519653320312e+00) (0, 7.86588668823242187500e-01) (1, -2.40114188194274902344e+00) (2, 4.50068563222885131836e-02) (3, 2.15232014656066894531e+00) (0, -7.09978997707366943359e-01) (1, -4.74336534738540649414e-01) (2, 1.32860076427459716797e+00) (3, 2.27715301513671875000e+00) (0, -4.42179679870605468750e+00) (1, 2.61340117454528808594e+00) (2, 3.67971986532211303711e-01) (3, 3.74542307853698730469e+00) (4, 6.67174100875854492188e+00) (5, -6.86614990234375000000e-01) (6, -7.21847787499427795410e-02) (7, 9.02169346809387207031e-02) (8, -2.81565457582473754883e-01) (9, -9.78852450847625732422e-01) (10, 1.50803995132446289062e+00) (11, 1.44984528422355651855e-01) (12, -1.05198097229003906250e+00) (13, 8.12310886383056640625e+00) (14, -3.47694814205169677734e-01) (4, -8.24119970202445983887e-02) (5, 4.02086353302001953125e+00) (6, -4.20808076858520507812e+00) (7, -1.83806335926055908203e+00) (8, 1.59943175315856933594e+00) (9, -2.32414674758911132812e+00) (10, -2.67980957031250000000e+00) (11, 1.03126263618469238281e+00) (12, -1.41350066661834716797e+00) (13, -4.40268106758594512939e-02) (14, 2.26434826850891113281e+00) (4, 1.92712783813476562500e+00) (5, 2.48526430130004882812e+00) (6, -1.45038902759552001953e+00) (7, -1.87294149398803710938e+00) (8, 3.71636533737182617188e+00) (9, 5.44587910175323486328e-01) (10, -8.73347893357276916504e-02) (11, -1.93209409713745117188e+00) (12, -6.31884992122650146484e-01) (13, -1.13684129714965820312e+00) (14, 2.65981459617614746094e+00) 
