FANN_FLO_2.1
num_layers=3
learning_rate=0.100000
connection_rate=1.000000
network_type=0
learning_momentum=0.000000
training_algorithm=1
train_error_function=1
train_stop_function=0
cascade_output_change_fraction=0.010000
quickprop_decay=-0.000100
quickprop_mu=1.750000
rprop_increase_factor=1.200000
rprop_decrease_factor=0.500000
rprop_delta_min=0.000000
rprop_delta_max=50.000000
rprop_delta_zero=0.100000
cascade_output_stagnation_epochs=12
cascade_candidate_change_fraction=0.010000
cascade_candidate_stagnation_epochs=12
cascade_max_out_epochs=150
cascade_min_out_epochs=50
cascade_max_cand_epochs=150
cascade_min_cand_epochs=50
cascade_num_candidate_groups=2
bit_fail_limit=3.49999994039535522461e-01
cascade_candidate_limit=1.00000000000000000000e+03
cascade_weight_multiplier=4.00000005960464477539e-01
cascade_activation_functions_count=10
cascade_activation_functions=3 5 7 8 10 11 14 15 16 17 
cascade_activation_steepnesses_count=4
cascade_activation_steepnesses=2.50000000000000000000e-01 5.00000000000000000000e-01 7.50000000000000000000e-01 1.00000000000000000000e+00 
layer_sizes=4 11 4 
scale_included=1
scale_mean_in=-0.004370 0.115127 0.025568 
scale_deviation_in=0.014687 0.017233 0.013310 
scale_new_min_in=-0.900000 -0.900000 -0.900000 
scale_factor_in=0.900000 0.900000 0.900000 
scale_mean_out=0.038011 2.959528 -0.229905 
scale_deviation_out=0.130635 0.334489 0.236632 
scale_new_min_out=-0.900000 -0.900000 -0.900000 
scale_factor_out=0.900000 0.900000 0.900000 
neurons (num_inputs, activation_function, activation_steepness)=(0, 0, 0.00000000000000000000e+00) (0, 0, 0.00000000000000000000e+00) (0, 0, 0.00000000000000000000e+00) (0, 0, 0.00000000000000000000e+00) (4, 5, 5.00000000000000000000e-01) (4, 5, 5.00000000000000000000e-01) (4, 5, 5.00000000000000000000e-01) (4, 5, 5.00000000000000000000e-01) (4, 5, 5.00000000000000000000e-01) (4, 5, 5.00000000000000000000e-01) (4, 5, 5.00000000000000000000e-01) (4, 5, 5.00000000000000000000e-01) (4, 5, 5.00000000000000000000e-01) (4, 5, 5.00000000000000000000e-01) (0, 5, 0.00000000000000000000e+00) (11, 5, 5.00000000000000000000e-01) (11, 5, 5.00000000000000000000e-01) (11, 5, 5.00000000000000000000e-01) (0, 5, 0.00000000000000000000e+00) 
connections (connected_to_neuron, weight)=(0, 1.82460352778434753418e-01) (1, -1.14512121677398681641e+00) (2, 7.29940772056579589844e-01) (3, 3.90411801636219024658e-02) (0, -7.38527595996856689453e-01) (1, 1.27674078941345214844e+00) (2, 1.19223761558532714844e+00) (3, -2.47434526681900024414e-01) (0, -8.55487465858459472656e-01) (1, 7.01713740825653076172e-01) (2, -6.28622472286224365234e-01) (3, -3.12627434730529785156e-01) (0, -2.11109936237335205078e-01) (1, 1.08964778482913970947e-01) (2, 4.65247422456741333008e-01) (3, -9.11290943622589111328e-01) (0, 1.38368725776672363281e+00) (1, -8.32828044891357421875e-01) (2, 5.75315952301025390625e-01) (3, -2.58664220571517944336e-01) (0, -9.96501207351684570312e-01) (1, -5.69091260433197021484e-01) (2, 5.41524365544319152832e-02) (3, 8.50092709064483642578e-01) (0, -3.96548151969909667969e-01) (1, 1.24364781379699707031e+00) (2, -1.18166767060756683350e-02) (3, 3.91867101192474365234e-01) (0, 1.08948516845703125000e+00) (1, 9.23878908157348632812e-01) (2, -9.58324074745178222656e-02) (3, 5.82256376743316650391e-01) (0, -1.03730416297912597656e+00) (1, -1.13603305816650390625e+00) (2, -6.42004430294036865234e-01) (3, -1.92110270261764526367e-01) (0, -5.56463778018951416016e-01) (1, -5.09603977203369140625e-01) (2, -6.91244453191757202148e-02) (3, -4.85944330692291259766e-01) (4, 6.11735641956329345703e-01) (5, 8.25589001178741455078e-01) (6, 5.87838768959045410156e-01) (7, -1.88801229000091552734e-01) (8, -1.33478057384490966797e+00) (9, 3.39238882064819335938e-01) (10, 1.89848318696022033691e-01) (11, -1.13285565376281738281e+00) (12, 8.79784703254699707031e-01) (13, 4.20246608555316925049e-02) (14, 9.25302729010581970215e-02) (4, 1.20087194442749023438e+00) (5, -4.28719192743301391602e-01) (6, 2.00982019305229187012e-01) (7, -1.33876390755176544189e-02) (8, 8.64958465099334716797e-01) (9, 1.05727851390838623047e+00) (10, -1.18787598609924316406e+00) (11, -1.52572005987167358398e-01) (12, 8.29791426658630371094e-01) (13, -3.57200622558593750000e-01) (14, -1.99078783392906188965e-01) (4, 4.27270568907260894775e-02) (5, -1.54992103576660156250e+00) (6, -6.74070835113525390625e-01) (7, -1.44267275929450988770e-01) (8, 2.19123035669326782227e-01) (9, -3.44693571329116821289e-01) (10, -2.35463902354240417480e-01) (11, -9.70213890075683593750e-01) (12, 9.42722082138061523438e-01) (13, 5.77894926071166992188e-01) (14, 2.84838616847991943359e-01) 
