FANN_FLO_2.1
num_layers=3
learning_rate=0.100000
connection_rate=1.000000
network_type=0
learning_momentum=0.000000
training_algorithm=1
train_error_function=1
train_stop_function=0
cascade_output_change_fraction=0.010000
quickprop_decay=-0.000100
quickprop_mu=1.750000
rprop_increase_factor=1.200000
rprop_decrease_factor=0.500000
rprop_delta_min=0.000000
rprop_delta_max=50.000000
rprop_delta_zero=0.100000
cascade_output_stagnation_epochs=12
cascade_candidate_change_fraction=0.010000
cascade_candidate_stagnation_epochs=12
cascade_max_out_epochs=150
cascade_min_out_epochs=50
cascade_max_cand_epochs=150
cascade_min_cand_epochs=50
cascade_num_candidate_groups=2
bit_fail_limit=3.49999994039535522461e-01
cascade_candidate_limit=1.00000000000000000000e+03
cascade_weight_multiplier=4.00000005960464477539e-01
cascade_activation_functions_count=10
cascade_activation_functions=3 5 7 8 10 11 14 15 16 17 
cascade_activation_steepnesses_count=4
cascade_activation_steepnesses=2.50000000000000000000e-01 5.00000000000000000000e-01 7.50000000000000000000e-01 1.00000000000000000000e+00 
layer_sizes=4 11 4 
scale_included=1
scale_mean_in=0.095928 0.171177 0.024998 
scale_deviation_in=0.014515 0.015497 0.013125 
scale_new_min_in=-0.900000 -0.900000 -0.900000 
scale_factor_in=0.900000 0.900000 0.900000 
scale_mean_out=-0.511689 1.678610 -1.531922 
scale_deviation_out=0.080811 0.256206 0.356510 
scale_new_min_out=-0.900000 -0.900000 -0.900000 
scale_factor_out=0.900000 0.900000 0.900000 
neurons (num_inputs, activation_function, activation_steepness)=(0, 0, 0.00000000000000000000e+00) (0, 0, 0.00000000000000000000e+00) (0, 0, 0.00000000000000000000e+00) (0, 0, 0.00000000000000000000e+00) (4, 5, 5.00000000000000000000e-01) (4, 5, 5.00000000000000000000e-01) (4, 5, 5.00000000000000000000e-01) (4, 5, 5.00000000000000000000e-01) (4, 5, 5.00000000000000000000e-01) (4, 5, 5.00000000000000000000e-01) (4, 5, 5.00000000000000000000e-01) (4, 5, 5.00000000000000000000e-01) (4, 5, 5.00000000000000000000e-01) (4, 5, 5.00000000000000000000e-01) (0, 5, 0.00000000000000000000e+00) (11, 5, 5.00000000000000000000e-01) (11, 5, 5.00000000000000000000e-01) (11, 5, 5.00000000000000000000e-01) (0, 5, 0.00000000000000000000e+00) 
connections (connected_to_neuron, weight)=(0, -4.18474942445755004883e-01) (1, -1.50976851582527160645e-01) (2, 2.77356445789337158203e-01) (3, 5.45237481594085693359e-01) (0, -3.91652643680572509766e-01) (1, -1.49387001991271972656e+00) (2, -3.79016846418380737305e-01) (3, -3.43756735324859619141e-01) (0, -1.56068548560142517090e-01) (1, 1.05101633071899414062e+00) (2, -4.79481071233749389648e-02) (3, 6.56484842300415039062e-01) (0, 4.05718207359313964844e-01) (1, -1.08407601714134216309e-01) (2, -4.50356870889663696289e-01) (3, -2.02907491475343704224e-02) (0, -1.00582492351531982422e+00) (1, 8.00883248448371887207e-02) (2, -2.01629728078842163086e-01) (3, 7.45966911315917968750e-01) (0, -9.75922524929046630859e-01) (1, 1.33799815177917480469e+00) (2, 4.13894206285476684570e-02) (3, -1.32759809494018554688e-01) (0, 1.31839716434478759766e+00) (1, -6.27452582120895385742e-02) (2, 9.04894918203353881836e-02) (3, 4.31668967008590698242e-01) (0, -8.53760123252868652344e-01) (1, -1.98326110839843750000e-01) (2, 1.52462840080261230469e-01) (3, -7.21637681126594543457e-02) (0, 1.17044627666473388672e+00) (1, 1.87226891517639160156e-01) (2, -6.02683722972869873047e-01) (3, -4.20597374439239501953e-01) (0, -6.97093307971954345703e-01) (1, -1.45955765247344970703e+00) (2, -1.92522421479225158691e-01) (3, 2.51789182424545288086e-01) (4, 4.06655669212341308594e-01) (5, -7.82954514026641845703e-01) (6, 3.32822412252426147461e-01) (7, 1.27735689282417297363e-01) (8, 1.30650281906127929688e+00) (9, 1.32158708572387695312e+00) (10, -1.27751588821411132812e+00) (11, -4.14299294352531433105e-02) (12, -3.93195748329162597656e-01) (13, 3.33359748125076293945e-01) (14, -4.93684500455856323242e-01) (4, 2.44169279932975769043e-01) (5, 1.02357244491577148438e+00) (6, -1.20211505889892578125e+00) (7, 1.36004820466041564941e-01) (8, 2.38045647740364074707e-01) (9, -6.15775048732757568359e-01) (10, -6.27602398395538330078e-01) (11, 2.50401943922042846680e-01) (12, -8.99820327758789062500e-01) (13, 1.23867475986480712891e+00) (14, 2.97904640436172485352e-01) (4, 4.88116383552551269531e-01) (5, 1.04468762874603271484e+00) (6, -9.35434162616729736328e-01) (7, 7.74541914463043212891e-01) (8, 7.74859070777893066406e-01) (9, -3.26064318418502807617e-01) (10, -4.88135606050491333008e-01) (11, -6.43516629934310913086e-02) (12, -4.62149620056152343750e-01) (13, 1.74640929698944091797e+00) (14, 1.48205580189824104309e-02) 
