FANN_FLO_2.1
num_layers=3
learning_rate=0.200000
connection_rate=1.000000
network_type=0
learning_momentum=0.000000
training_algorithm=1
train_error_function=1
train_stop_function=0
cascade_output_change_fraction=0.010000
quickprop_decay=-0.000100
quickprop_mu=1.750000
rprop_increase_factor=1.200000
rprop_decrease_factor=0.500000
rprop_delta_min=0.000000
rprop_delta_max=50.000000
rprop_delta_zero=0.100000
cascade_output_stagnation_epochs=12
cascade_candidate_change_fraction=0.010000
cascade_candidate_stagnation_epochs=12
cascade_max_out_epochs=150
cascade_min_out_epochs=50
cascade_max_cand_epochs=150
cascade_min_cand_epochs=50
cascade_num_candidate_groups=2
bit_fail_limit=3.49999994039535522461e-01
cascade_candidate_limit=1.00000000000000000000e+03
cascade_weight_multiplier=4.00000005960464477539e-01
cascade_activation_functions_count=10
cascade_activation_functions=3 5 7 8 10 11 14 15 16 17 
cascade_activation_steepnesses_count=4
cascade_activation_steepnesses=2.50000000000000000000e-01 5.00000000000000000000e-01 7.50000000000000000000e-01 1.00000000000000000000e+00 
layer_sizes=4 61 4 
scale_included=1
scale_mean_in=0.015475 0.172502 -0.261330 
scale_deviation_in=0.052895 0.065506 0.054455 
scale_new_min_in=-1.000000 -1.000000 -1.000000 
scale_factor_in=1.000000 1.000000 1.000000 
scale_mean_out=-0.978323 2.311260 -0.918757 
scale_deviation_out=0.532089 0.793292 0.669826 
scale_new_min_out=-1.000000 -1.000000 -1.000000 
scale_factor_out=1.000000 1.000000 1.000000 
neurons (num_inputs, activation_function, activation_steepness)=(0, 0, 0.00000000000000000000e+00) (0, 0, 0.00000000000000000000e+00) (0, 0, 0.00000000000000000000e+00) (0, 0, 0.00000000000000000000e+00) (4, 5, 5.00000000000000000000e-01) (4, 5, 5.00000000000000000000e-01) (4, 5, 5.00000000000000000000e-01) (4, 5, 5.00000000000000000000e-01) (4, 5, 5.00000000000000000000e-01) (4, 5, 5.00000000000000000000e-01) (4, 5, 5.00000000000000000000e-01) (4, 5, 5.00000000000000000000e-01) (4, 5, 5.00000000000000000000e-01) (4, 5, 5.00000000000000000000e-01) (4, 5, 5.00000000000000000000e-01) (4, 5, 5.00000000000000000000e-01) (4, 5, 5.00000000000000000000e-01) (4, 5, 5.00000000000000000000e-01) (4, 5, 5.00000000000000000000e-01) (4, 5, 5.00000000000000000000e-01) (4, 5, 5.00000000000000000000e-01) (4, 5, 5.00000000000000000000e-01) (4, 5, 5.00000000000000000000e-01) (4, 5, 5.00000000000000000000e-01) (4, 5, 5.00000000000000000000e-01) (4, 5, 5.00000000000000000000e-01) (4, 5, 5.00000000000000000000e-01) (4, 5, 5.00000000000000000000e-01) (4, 5, 5.00000000000000000000e-01) (4, 5, 5.00000000000000000000e-01) (4, 5, 5.00000000000000000000e-01) (4, 5, 5.00000000000000000000e-01) (4, 5, 5.00000000000000000000e-01) (4, 5, 5.00000000000000000000e-01) (4, 5, 5.00000000000000000000e-01) (4, 5, 5.00000000000000000000e-01) (4, 5, 5.00000000000000000000e-01) (4, 5, 5.00000000000000000000e-01) (4, 5, 5.00000000000000000000e-01) (4, 5, 5.00000000000000000000e-01) (4, 5, 5.00000000000000000000e-01) (4, 5, 5.00000000000000000000e-01) (4, 5, 5.00000000000000000000e-01) (4, 5, 5.00000000000000000000e-01) (4, 5, 5.00000000000000000000e-01) (4, 5, 5.00000000000000000000e-01) (4, 5, 5.00000000000000000000e-01) (4, 5, 5.00000000000000000000e-01) (4, 5, 5.00000000000000000000e-01) (4, 5, 5.00000000000000000000e-01) (4, 5, 5.00000000000000000000e-01) (4, 5, 5.00000000000000000000e-01) (4, 5, 5.00000000000000000000e-01) (4, 5, 5.00000000000000000000e-01) (4, 5, 5.00000000000000000000e-01) (4, 5, 5.00000000000000000000e-01) (4, 5, 5.00000000000000000000e-01) (4, 5, 5.00000000000000000000e-01) (4, 5, 5.00000000000000000000e-01) (4, 5, 5.00000000000000000000e-01) (4, 5, 5.00000000000000000000e-01) (4, 5, 5.00000000000000000000e-01) (4, 5, 5.00000000000000000000e-01) (4, 5, 5.00000000000000000000e-01) (0, 5, 0.00000000000000000000e+00) (61, 5, 5.00000000000000000000e-01) (61, 5, 5.00000000000000000000e-01) (61, 5, 5.00000000000000000000e-01) (0, 5, 0.00000000000000000000e+00) 
connections (connected_to_neuron, weight)=(0, -2.43557190895080566406e+00) (1, 2.36324265599250793457e-01) (2, -3.25332492589950561523e-01) (3, -9.97498929500579833984e-01) (0, -6.60700678825378417969e-01) (1, 1.74325037002563476562e+00) (2, -1.97250735759735107422e+00) (3, -4.78590011596679687500e-01) (0, 9.17894124984741210938e-01) (1, 5.37320673465728759766e-02) (2, 8.92915010452270507812e-01) (3, 7.83011540770530700684e-02) (0, 2.39778637886047363281e+00) (1, 1.35255590081214904785e-01) (2, 7.04667031764984130859e-01) (3, 9.08355772495269775391e-01) (0, 1.08546912670135498047e-01) (1, 1.27833390235900878906e+00) (2, 1.55232214927673339844e+00) (3, -2.76643776893615722656e+00) (0, -8.39980542659759521484e-01) (1, 2.34618806838989257812e+00) (2, -2.70694565773010253906e+00) (3, -3.15752804279327392578e-01) (0, -7.82682299613952636719e-01) (1, 7.73875117301940917969e-01) (2, -3.68219852447509765625e-01) (3, -9.24019694328308105469e-01) (0, 5.60897111892700195312e-01) (1, 5.96633791923522949219e-01) (2, 6.40426337718963623047e-01) (3, 5.70986866950988769531e-01) (0, 1.31482160091400146484e+00) (1, -1.74544584751129150391e+00) (2, 3.15965056419372558594e+00) (3, 9.09038305282592773438e-01) (0, 1.41349792480468750000e+00) (1, -1.69196796417236328125e+00) (2, -8.65546584129333496094e-01) (3, 1.26340901851654052734e+00) (0, 1.65089213848114013672e+00) (1, 2.07150578498840332031e+00) (2, -1.00668001174926757812e+00) (3, 7.09974616765975952148e-02) (0, 9.31700691580772399902e-02) (1, -2.92508631944656372070e-01) (2, -4.24813836812973022461e-01) (3, 1.18111848831176757812e+00) (0, 5.30795097351074218750e-01) (1, -3.39494287967681884766e-01) (2, -2.01749014854431152344e+00) (3, 1.63065731525421142578e+00) (0, -4.87240493297576904297e-01) (1, 8.34858566522598266602e-02) (2, -2.98850321769714355469e+00) (3, 2.42211389541625976562e+00) (0, -6.03015780448913574219e-01) (1, 7.08526432514190673828e-01) (2, 1.75850594043731689453e+00) (3, 1.00257825851440429688e+00) (0, -1.08251787722110748291e-01) (1, 3.51789402961730957031e+00) (2, 6.39238893985748291016e-01) (3, 5.00638522207736968994e-02) (0, 2.08901688456535339355e-01) (1, 5.28876841068267822266e-01) (2, 6.02946057915687561035e-02) (3, 3.16996425390243530273e-01) (0, 1.21535968780517578125e+00) (1, 1.73330199718475341797e+00) (2, 8.34103703498840332031e-01) (3, -1.76686310768127441406e+00) (0, 1.50931274890899658203e+00) (1, -2.16083431243896484375e+00) (2, 9.66195046901702880859e-01) (3, -2.07740497589111328125e+00) (0, -1.74579739570617675781e+00) (1, -4.48088407516479492188e-01) (2, -6.65659487247467041016e-01) (3, 9.03511881828308105469e-01) (0, -1.80026158690452575684e-01) (1, -1.94325327873229980469e+00) (2, 1.66358852386474609375e+00) (3, -2.44042730331420898438e+00) (0, -5.95400869846343994141e-01) (1, 8.75665307044982910156e-01) (2, 1.46111762523651123047e+00) (3, 8.40326249599456787109e-01) (0, -3.13828617334365844727e-01) (1, 1.18527925014495849609e+00) (2, -1.01419115066528320312e+00) (3, 1.41308414936065673828e+00) (0, 6.89172744750976562500e-01) (1, 1.56588757038116455078e+00) (2, 3.82230430841445922852e-02) (3, -4.92077529430389404297e-01) (0, -4.13337796926498413086e-02) (1, -3.28116416931152343750e-01) (2, 1.20491027832031250000e+00) (3, -7.33673989772796630859e-01) (0, 8.40801000595092773438e-01) (1, -7.98140168190002441406e-01) (2, 8.22926536202430725098e-02) (3, 1.74162238836288452148e-01) (0, -1.04224824905395507812e+00) (1, -4.90350306034088134766e-01) (2, 1.47614860534667968750e+00) (3, -1.74065709114074707031e-01) (0, -7.45926618576049804688e-01) (1, 2.70144104957580566406e+00) (2, -2.89065742492675781250e+00) (3, -2.44415342807769775391e-01) (0, -3.73990774154663085938e-01) (1, 6.15149080753326416016e-01) (2, -7.12715089321136474609e-01) (3, 3.94310891628265380859e-01) (0, 5.61497211456298828125e-02) (1, 2.27159595489501953125e+00) (2, 3.29674124717712402344e-01) (3, 2.86739778518676757812e+00) (0, 5.07559239864349365234e-01) (1, -6.95361137390136718750e-01) (2, 3.96858900785446166992e-01) (3, -6.33313283324241638184e-02) (0, 1.51159191131591796875e+00) (1, 2.92612373828887939453e-01) (2, -1.69787263870239257812e+00) (3, -3.90865534543991088867e-01) (0, -6.99919998645782470703e-01) (1, 8.52269053459167480469e-01) (2, 5.25972008705139160156e-01) (3, 1.22001016139984130859e+00) (0, -6.71083748340606689453e-01) (1, -1.39491212368011474609e+00) (2, -2.74074697494506835938e+00) (3, -3.71666997671127319336e-01) (0, 5.05781888961791992188e-01) (1, -1.26094818115234375000e+00) (2, 8.73408839106559753418e-02) (3, -4.30168569087982177734e-01) (0, -2.42908239364624023438e+00) (1, 1.24342751502990722656e+00) (2, 2.91533678770065307617e-01) (3, -9.03705537319183349609e-01) (0, 1.85089707374572753906e+00) (1, 1.82805746793746948242e-01) (2, 1.92690157890319824219e+00) (3, -6.83503091335296630859e-01) (0, 2.64655470848083496094e-01) (1, 1.87924301624298095703e+00) (2, 8.49988043308258056641e-01) (3, -1.50595784187316894531e+00) (0, -7.88013160228729248047e-01) (1, -1.13567113876342773438e+00) (2, 6.45986199378967285156e-01) (3, -8.60382556915283203125e-01) (0, 2.03504383563995361328e-01) (1, 3.70064169168472290039e-01) (2, -9.64208066463470458984e-01) (3, 1.67931437492370605469e-01) (0, 3.68105143308639526367e-01) (1, 1.71173512935638427734e+00) (2, 1.54153387993574142456e-02) (3, 1.99783372879028320312e+00) (0, -1.11505329608917236328e+00) (1, 8.36022078990936279297e-01) (2, -8.06688964366912841797e-01) (3, 8.61537873744964599609e-01) (0, 4.84955310821533203125e-01) (1, 8.03464353084564208984e-01) (2, -7.62718498706817626953e-01) (3, 7.43399620056152343750e-01) (0, 4.84022378921508789062e-01) (1, 1.47655379772186279297e+00) (2, -1.53299137949943542480e-01) (3, 1.50994074344635009766e+00) (0, 2.40506455302238464355e-02) (1, 1.47614836692810058594e+00) (2, -1.04971170425415039062e+00) (3, -1.22868692874908447266e+00) (0, -1.16448134183883666992e-01) (1, -4.15661096572875976562e-01) (2, 3.91470491886138916016e-01) (3, -1.18420100212097167969e+00) (0, 7.05565214157104492188e-02) (1, 2.12569266557693481445e-01) (2, 8.83170291781425476074e-02) (3, -1.63874208927154541016e+00) (0, -2.35709324479103088379e-01) (1, 1.58958685398101806641e+00) (2, -2.46864005923271179199e-01) (3, 1.53647720813751220703e+00) (0, 2.28081774711608886719e+00) (1, 7.57780194282531738281e-01) (2, 8.95139157772064208984e-01) (3, 1.36412405967712402344e+00) (0, -4.65602517127990722656e-01) (1, 2.52079159021377563477e-01) (2, 2.71812736988067626953e-01) (3, -1.34663987159729003906e+00) (0, 5.55931031703948974609e-01) (1, -1.37664651870727539062e+00) (2, 1.74894595146179199219e+00) (3, 2.75194585323333740234e-01) (0, -7.03871309757232666016e-01) (1, 8.77034842967987060547e-01) (2, 1.33901047706604003906e+00) (3, 1.80053067207336425781e+00) (0, 2.40852308273315429688e+00) (1, 5.23394979536533355713e-02) (2, 1.68392315506935119629e-01) (3, 2.05285906791687011719e+00) (0, 5.34772932529449462891e-01) (1, -5.39539933204650878906e-01) (2, 7.95744776725769042969e-01) (3, 1.12618230283260345459e-01) (0, 1.44752189517021179199e-01) (1, -1.48689484596252441406e+00) (2, 1.47594344615936279297e+00) (3, -1.93274641036987304688e+00) (0, -2.04710841178894042969e+00) (1, -1.95579349994659423828e+00) (2, 1.47622895240783691406e+00) (3, -4.91271942853927612305e-01) (0, -2.38019323348999023438e+00) (1, -3.42279642820358276367e-01) (2, 1.56301152706146240234e+00) (3, 4.51530039310455322266e-01) (0, -7.58419930934906005859e-01) (1, 3.94707798957824707031e-01) (2, 7.76755988597869873047e-01) (3, 3.99787090718746185303e-02) (0, 9.35701131820678710938e-02) (1, 9.83364343643188476562e-01) (2, 2.59014177322387695312e+00) (3, 1.66060909628868103027e-01) (0, 9.21534225344657897949e-02) (1, 1.10987591743469238281e+00) (2, -3.82700949907302856445e-01) (3, -5.62801659107208251953e-01) (4, -4.49887752532958984375e-01) (5, -6.49109065532684326172e-01) (6, -5.95029771327972412109e-01) (7, 7.14693605899810791016e-01) (8, 2.25140976905822753906e+00) (9, -5.35653948783874511719e-01) (10, 7.67652317881584167480e-02) (11, -1.12059861421585083008e-01) (12, -6.02543294429779052734e-01) (13, -8.59959796071052551270e-02) (14, -8.06266367435455322266e-02) (15, -1.00577604770660400391e+00) (16, -2.52939152717590332031e+00) (17, -2.35963416099548339844e+00) (18, -1.07743144035339355469e+00) (19, -2.05576896667480468750e+00) (20, 4.78627026081085205078e-01) (21, 1.79329061508178710938e+00) (22, -4.41419333219528198242e-01) (23, 9.71239209175109863281e-02) (24, -1.47575330734252929688e+00) (25, -6.17465674877166748047e-01) (26, 5.72059214115142822266e-01) (27, 1.29849660396575927734e+00) (28, 8.41051518917083740234e-01) (29, -4.42501574754714965820e-01) (30, 3.91999781131744384766e-01) (31, -5.33239006996154785156e-01) (32, 1.08927920460700988770e-01) (33, 2.45550322532653808594e+00) (34, -3.12781512737274169922e-01) (35, -1.50932237505912780762e-01) (36, 1.16254591941833496094e+00) (37, 1.62699937820434570312e+00) (38, -4.18577194213867187500e-01) (39, 2.73724019527435302734e-01) (40, 8.01586449146270751953e-01) (41, 1.40788328647613525391e+00) (42, -6.20609223842620849609e-01) (43, -5.78037619590759277344e-01) (44, 2.25934863090515136719e+00) (45, 8.90224695205688476562e-01) (46, 1.76161393523216247559e-01) (47, 1.97665882110595703125e+00) (48, -1.22090840339660644531e+00) (49, 7.31519516557455062866e-03) (50, 1.08075213432312011719e+00) (51, 1.67833209037780761719e+00) (52, -1.38908892869949340820e-01) (53, 5.48732995986938476562e-01) (54, 3.29190701246261596680e-01) (55, 2.43962630629539489746e-01) (56, 9.26644429564476013184e-02) (57, -5.04224956035614013672e-01) (58, -5.88550984859466552734e-01) (59, -3.82230728864669799805e-01) (60, 5.67805826663970947266e-01) (61, 1.41108000278472900391e+00) (62, -8.22215795516967773438e-01) (63, -5.25583744049072265625e-01) (64, 5.22215887904167175293e-02) (4, -2.75507974624633789062e+00) (5, 1.49304640293121337891e+00) (6, 1.01499116420745849609e+00) (7, 2.82878398895263671875e+00) (8, -1.76742362976074218750e+00) (9, 2.93687224388122558594e+00) (10, -5.69854795932769775391e-01) (11, 5.65803766250610351562e-01) (12, -2.85430812835693359375e+00) (13, 2.78122377395629882812e+00) (14, -2.89329552650451660156e+00) (15, 1.32217779755592346191e-01) (16, -7.30265796184539794922e-01) (17, -2.44893741607666015625e+00) (18, 1.49712014198303222656e+00) (19, -2.82129788398742675781e+00) (20, -3.12991499900817871094e-01) (21, -2.80367422103881835938e+00) (22, 2.98235940933227539062e+00) (23, -8.47554877400398254395e-02) (24, 2.86797046661376953125e+00) (25, 1.07227885723114013672e+00) (26, -1.75644469261169433594e+00) (27, -2.01455187797546386719e+00) (28, 1.37703001499176025391e+00) (29, 1.18716740608215332031e+00) (30, 1.76733195781707763672e+00) (31, 3.38105845451354980469e+00) (32, -1.14170134067535400391e+00) (33, 1.04352653026580810547e+00) (34, 1.04769110679626464844e+00) (35, -2.00919532775878906250e+00) (36, 6.66018426418304443359e-01) (37, -2.88428449630737304688e+00) (38, 6.31061613559722900391e-01) (39, -3.28863096237182617188e+00) (40, 2.82126712799072265625e+00) (41, -2.91562128067016601562e+00) (42, 8.36069643497467041016e-01) (43, -1.29519534111022949219e+00) (44, 4.01472836732864379883e-01) (45, -1.21976590156555175781e+00) (46, -9.46923017501831054688e-01) (47, 9.65401530265808105469e-02) (48, 1.65285453200340270996e-01) (49, 5.57471454143524169922e-01) (50, -5.21501839160919189453e-01) (51, -4.58440750837326049805e-01) (52, 3.01669955253601074219e+00) (53, -8.87718021869659423828e-01) (54, -1.20484185218811035156e+00) (55, 2.29133391380310058594e+00) (56, 3.43943095207214355469e+00) (57, 2.23643645644187927246e-01) (58, 2.29238080978393554688e+00) (59, 3.69428157806396484375e+00) (60, 2.90666437149047851562e+00) (61, 3.13676774501800537109e-01) (62, 2.51648902893066406250e+00) (63, -1.05392098426818847656e+00) (64, 6.30183815956115722656e-01) (4, -3.89330089092254638672e-01) (5, 1.44675701856613159180e-01) (6, -3.08743029832839965820e-01) (7, 2.52311080694198608398e-01) (8, -1.71523928642272949219e+00) (9, -2.67833888530731201172e-01) (10, -6.94101452827453613281e-01) (11, -8.84513616561889648438e-01) (12, 1.14634919166564941406e+00) (13, 6.42486214637756347656e-01) (14, 8.09095501899719238281e-01) (15, -1.00095188617706298828e+00) (16, -2.85753875970840454102e-01) (17, 1.44039225578308105469e+00) (18, 1.83599829673767089844e-01) (19, -6.68817043304443359375e-01) (20, -5.58468580245971679688e-01) (21, -1.12120330333709716797e+00) (22, -1.55322229862213134766e+00) (23, 1.56967377662658691406e+00) (24, -5.30678689479827880859e-01) (25, 9.03553664684295654297e-01) (26, 6.84514222666621208191e-03) (27, 1.93878561258316040039e-01) (28, 8.61721038818359375000e-01) (29, -2.41268962621688842773e-01) (30, -1.68309267610311508179e-02) (31, -3.74231599271297454834e-02) (32, -7.69201815128326416016e-01) (33, 8.47749769687652587891e-01) (34, 6.82949244976043701172e-01) (35, 4.88811492919921875000e-01) (36, 7.23970472812652587891e-01) (37, -2.41870999336242675781e-01) (38, -6.76453888416290283203e-01) (39, -1.46263535134494304657e-03) (40, -5.36722183227539062500e-01) (41, 2.79646128416061401367e-01) (42, 6.84415638446807861328e-01) (43, -7.15887486934661865234e-01) (44, -4.52972948551177978516e-03) (45, 2.06764236092567443848e-01) (46, -8.22785019874572753906e-01) (47, 1.40171974897384643555e-01) (48, -1.05680930614471435547e+00) (49, 1.59878396987915039062e+00) (50, 1.52302837371826171875e+00) (51, 7.33561694622039794922e-01) (52, -6.32101297378540039062e-01) (53, 1.28325426578521728516e+00) (54, 1.21581387519836425781e+00) (55, 7.42312967777252197266e-01) (56, 1.57101356983184814453e+00) (57, 1.83665081858634948730e-01) (58, 1.40383970737457275391e+00) (59, -4.78109754621982574463e-02) (60, 1.17162418365478515625e+00) (61, 4.21461254358291625977e-01) (62, -2.72170286625623703003e-02) (63, -1.12177324295043945312e+00) (64, -2.08549165725708007812e+00) 
