FANN_FLO_2.1
num_layers=3
learning_rate=0.100000
connection_rate=1.000000
network_type=0
learning_momentum=0.000000
training_algorithm=1
train_error_function=1
train_stop_function=0
cascade_output_change_fraction=0.010000
quickprop_decay=-0.000100
quickprop_mu=1.750000
rprop_increase_factor=1.200000
rprop_decrease_factor=0.500000
rprop_delta_min=0.000000
rprop_delta_max=50.000000
rprop_delta_zero=0.100000
cascade_output_stagnation_epochs=12
cascade_candidate_change_fraction=0.010000
cascade_candidate_stagnation_epochs=12
cascade_max_out_epochs=150
cascade_min_out_epochs=50
cascade_max_cand_epochs=150
cascade_min_cand_epochs=50
cascade_num_candidate_groups=2
bit_fail_limit=3.49999994039535522461e-01
cascade_candidate_limit=1.00000000000000000000e+03
cascade_weight_multiplier=4.00000005960464477539e-01
cascade_activation_functions_count=10
cascade_activation_functions=3 5 7 8 10 11 14 15 16 17 
cascade_activation_steepnesses_count=4
cascade_activation_steepnesses=2.50000000000000000000e-01 5.00000000000000000000e-01 7.50000000000000000000e-01 1.00000000000000000000e+00 
layer_sizes=4 6 4 
scale_included=1
scale_mean_in=0.148412 -0.004795 0.025527 
scale_deviation_in=0.014722 0.017283 0.013265 
scale_new_min_in=-0.900000 -0.900000 -0.900000 
scale_factor_in=0.900000 0.900000 0.900000 
scale_mean_out=-1.602872 2.399226 -0.673088 
scale_deviation_out=0.116997 0.217451 0.222437 
scale_new_min_out=-0.900000 -0.900000 -0.900000 
scale_factor_out=0.900000 0.900000 0.900000 
neurons (num_inputs, activation_function, activation_steepness)=(0, 0, 0.00000000000000000000e+00) (0, 0, 0.00000000000000000000e+00) (0, 0, 0.00000000000000000000e+00) (0, 0, 0.00000000000000000000e+00) (4, 5, 5.00000000000000000000e-01) (4, 5, 5.00000000000000000000e-01) (4, 5, 5.00000000000000000000e-01) (4, 5, 5.00000000000000000000e-01) (4, 5, 5.00000000000000000000e-01) (0, 5, 0.00000000000000000000e+00) (6, 5, 5.00000000000000000000e-01) (6, 5, 5.00000000000000000000e-01) (6, 5, 5.00000000000000000000e-01) (0, 5, 0.00000000000000000000e+00) 
connections (connected_to_neuron, weight)=(0, 1.29650914669036865234e+00) (1, 1.03890585899353027344e+00) (2, 2.51785755157470703125e-01) (3, 3.52298200130462646484e-01) (0, 1.57150244712829589844e+00) (1, 3.68637084960937500000e-01) (2, -3.27173292636871337891e-01) (3, -5.87423503398895263672e-01) (0, -4.72568750381469726562e-01) (1, -3.01047503948211669922e-01) (2, -3.76072853803634643555e-01) (3, 8.88762831687927246094e-01) (0, 1.44180059432983398438e+00) (1, -1.16907119750976562500e+00) (2, 1.81135967373847961426e-01) (3, -1.42071896698325872421e-03) (0, -4.33503419160842895508e-01) (1, 1.14397227764129638672e+00) (2, 1.43347591161727905273e-01) (3, -5.08240580558776855469e-01) (4, 1.00604438781738281250e+00) (5, 6.71464741230010986328e-01) (6, -4.61879223585128784180e-01) (7, -1.27360093593597412109e+00) (8, 1.27728188037872314453e+00) (9, 4.53258156776428222656e-01) (4, -8.69253695011138916016e-01) (5, -1.98505437374114990234e+00) (6, -1.22785791754722595215e-01) (7, -7.46415853500366210938e-01) (8, 6.17836833000183105469e-01) (9, -1.92109912633895874023e-01) (4, -9.88732516765594482422e-01) (5, -8.18371236324310302734e-01) (6, 9.27667915821075439453e-01) (7, -1.35925614833831787109e+00) (8, 1.27417698502540588379e-01) (9, -3.83652478456497192383e-01) 
