FANN_FLO_2.1
num_layers=3
learning_rate=0.100000
connection_rate=1.000000
network_type=0
learning_momentum=0.000000
training_algorithm=1
train_error_function=1
train_stop_function=0
cascade_output_change_fraction=0.010000
quickprop_decay=-0.000100
quickprop_mu=1.750000
rprop_increase_factor=1.200000
rprop_decrease_factor=0.500000
rprop_delta_min=0.000000
rprop_delta_max=50.000000
rprop_delta_zero=0.100000
cascade_output_stagnation_epochs=12
cascade_candidate_change_fraction=0.010000
cascade_candidate_stagnation_epochs=12
cascade_max_out_epochs=150
cascade_min_out_epochs=50
cascade_max_cand_epochs=150
cascade_min_cand_epochs=50
cascade_num_candidate_groups=2
bit_fail_limit=3.49999994039535522461e-01
cascade_candidate_limit=1.00000000000000000000e+03
cascade_weight_multiplier=4.00000005960464477539e-01
cascade_activation_functions_count=10
cascade_activation_functions=3 5 7 8 10 11 14 15 16 17 
cascade_activation_steepnesses_count=4
cascade_activation_steepnesses=2.50000000000000000000e-01 5.00000000000000000000e-01 7.50000000000000000000e-01 1.00000000000000000000e+00 
layer_sizes=4 6 4 
scale_included=1
scale_mean_in=0.188671 -0.004589 0.068331 
scale_deviation_in=0.009339 0.016985 0.012662 
scale_new_min_in=-0.900000 -0.900000 -0.900000 
scale_factor_in=0.900000 0.900000 0.900000 
scale_mean_out=-1.595001 1.769778 -1.782625 
scale_deviation_out=0.089962 0.190742 0.281990 
scale_new_min_out=-0.900000 -0.900000 -0.900000 
scale_factor_out=0.900000 0.900000 0.900000 
neurons (num_inputs, activation_function, activation_steepness)=(0, 0, 0.00000000000000000000e+00) (0, 0, 0.00000000000000000000e+00) (0, 0, 0.00000000000000000000e+00) (0, 0, 0.00000000000000000000e+00) (4, 5, 5.00000000000000000000e-01) (4, 5, 5.00000000000000000000e-01) (4, 5, 5.00000000000000000000e-01) (4, 5, 5.00000000000000000000e-01) (4, 5, 5.00000000000000000000e-01) (0, 5, 0.00000000000000000000e+00) (6, 5, 5.00000000000000000000e-01) (6, 5, 5.00000000000000000000e-01) (6, 5, 5.00000000000000000000e-01) (0, 5, 0.00000000000000000000e+00) 
connections (connected_to_neuron, weight)=(0, 7.79575467109680175781e-01) (1, -1.13398969173431396484e+00) (2, -6.73744261264801025391e-01) (3, -1.00060842931270599365e-01) (0, 1.72623589634895324707e-01) (1, -4.38142538070678710938e-01) (2, 3.92932236194610595703e-01) (3, 9.51916337013244628906e-01) (0, -1.32218670845031738281e+00) (1, 1.01317000389099121094e+00) (2, -1.01216328144073486328e+00) (3, -2.38600969314575195312e-01) (0, 1.59649181365966796875e+00) (1, 4.65960800647735595703e-01) (2, 1.03733777999877929688e+00) (3, 1.35509058833122253418e-01) (0, 1.17449772357940673828e+00) (1, 1.23654818534851074219e+00) (2, 3.52921307086944580078e-01) (3, -1.59378826618194580078e-01) (4, -9.19449925422668457031e-01) (5, -4.71075177192687988281e-01) (6, 1.63173735141754150391e+00) (7, 8.03825080394744873047e-01) (8, 1.55419600009918212891e+00) (9, 3.59592676162719726562e-01) (4, -9.34623837471008300781e-01) (5, 3.39259356260299682617e-01) (6, 1.13237011432647705078e+00) (7, -1.25694417953491210938e+00) (8, -1.07178688049316406250e+00) (9, 2.66021657735109329224e-02) (4, -2.11350712925195693970e-02) (5, -4.19687449932098388672e-01) (6, 1.47245657444000244141e+00) (7, -1.54206621646881103516e+00) (8, -5.37655413150787353516e-01) (9, 4.62650597095489501953e-01) 
