FANN_FLO_2.1
num_layers=3
learning_rate=0.100000
connection_rate=1.000000
network_type=0
learning_momentum=0.000000
training_algorithm=1
train_error_function=1
train_stop_function=0
cascade_output_change_fraction=0.010000
quickprop_decay=-0.000100
quickprop_mu=1.750000
rprop_increase_factor=1.200000
rprop_decrease_factor=0.500000
rprop_delta_min=0.000000
rprop_delta_max=50.000000
rprop_delta_zero=0.100000
cascade_output_stagnation_epochs=12
cascade_candidate_change_fraction=0.010000
cascade_candidate_stagnation_epochs=12
cascade_max_out_epochs=150
cascade_min_out_epochs=50
cascade_max_cand_epochs=150
cascade_min_cand_epochs=50
cascade_num_candidate_groups=2
bit_fail_limit=3.49999994039535522461e-01
cascade_candidate_limit=1.00000000000000000000e+03
cascade_weight_multiplier=4.00000005960464477539e-01
cascade_activation_functions_count=10
cascade_activation_functions=3 5 7 8 10 11 14 15 16 17 
cascade_activation_steepnesses_count=4
cascade_activation_steepnesses=2.50000000000000000000e-01 5.00000000000000000000e-01 7.50000000000000000000e-01 1.00000000000000000000e+00 
layer_sizes=4 6 4 
scale_included=1
scale_mean_in=0.097791 0.054814 0.071713 
scale_deviation_in=0.014814 0.017336 0.013221 
scale_new_min_in=-0.900000 -0.900000 -0.900000 
scale_factor_in=0.900000 0.900000 0.900000 
scale_mean_out=-1.062759 2.937645 -0.638095 
scale_deviation_out=0.150018 0.232457 0.214211 
scale_new_min_out=-0.900000 -0.900000 -0.900000 
scale_factor_out=0.900000 0.900000 0.900000 
neurons (num_inputs, activation_function, activation_steepness)=(0, 0, 0.00000000000000000000e+00) (0, 0, 0.00000000000000000000e+00) (0, 0, 0.00000000000000000000e+00) (0, 0, 0.00000000000000000000e+00) (4, 5, 5.00000000000000000000e-01) (4, 5, 5.00000000000000000000e-01) (4, 5, 5.00000000000000000000e-01) (4, 5, 5.00000000000000000000e-01) (4, 5, 5.00000000000000000000e-01) (0, 5, 0.00000000000000000000e+00) (6, 5, 5.00000000000000000000e-01) (6, 5, 5.00000000000000000000e-01) (6, 5, 5.00000000000000000000e-01) (0, 5, 0.00000000000000000000e+00) 
connections (connected_to_neuron, weight)=(0, 6.53674721717834472656e-01) (1, -1.73166954517364501953e+00) (2, -3.70589077472686767578e-01) (3, 2.24507585167884826660e-01) (0, 4.28305774927139282227e-01) (1, -7.68498063087463378906e-01) (2, 1.37332808971405029297e+00) (3, -1.15361679345369338989e-02) (0, 1.51817488670349121094e+00) (1, 6.58753275871276855469e-01) (2, 8.43605160713195800781e-01) (3, -9.92796123027801513672e-02) (0, 1.10355162620544433594e+00) (1, 9.35724973678588867188e-01) (2, 6.51548504829406738281e-02) (3, -1.22148819267749786377e-01) (0, 4.28959906101226806641e-01) (1, -6.82116746902465820312e-01) (2, -6.85184299945831298828e-01) (3, 7.51843810081481933594e-01) (4, -2.01853752136230468750e+00) (5, -7.79557347297668457031e-01) (6, -3.27091068029403686523e-01) (7, 3.86456429958343505859e-01) (8, -6.16073846817016601562e-01) (9, 3.44446629285812377930e-01) (4, 7.68232762813568115234e-01) (5, -4.04100924730300903320e-01) (6, -1.51806926727294921875e+00) (7, -1.71629190444946289062e+00) (8, -5.67591965198516845703e-01) (9, -1.01565465331077575684e-01) (4, 2.87005662918090820312e-01) (5, -1.07100176811218261719e+00) (6, -1.82602012157440185547e+00) (7, -6.67214751243591308594e-01) (8, 8.12280535697937011719e-01) (9, -3.63828718662261962891e-01) 
