FANN_FLO_2.1
num_layers=3
learning_rate=0.100000
connection_rate=1.000000
network_type=0
learning_momentum=0.000000
training_algorithm=1
train_error_function=1
train_stop_function=0
cascade_output_change_fraction=0.010000
quickprop_decay=-0.000100
quickprop_mu=1.750000
rprop_increase_factor=1.200000
rprop_decrease_factor=0.500000
rprop_delta_min=0.000000
rprop_delta_max=50.000000
rprop_delta_zero=0.100000
cascade_output_stagnation_epochs=12
cascade_candidate_change_fraction=0.010000
cascade_candidate_stagnation_epochs=12
cascade_max_out_epochs=150
cascade_min_out_epochs=50
cascade_max_cand_epochs=150
cascade_min_cand_epochs=50
cascade_num_candidate_groups=2
bit_fail_limit=3.49999994039535522461e-01
cascade_candidate_limit=1.00000000000000000000e+03
cascade_weight_multiplier=4.00000005960464477539e-01
cascade_activation_functions_count=10
cascade_activation_functions=3 5 7 8 10 11 14 15 16 17 
cascade_activation_steepnesses_count=4
cascade_activation_steepnesses=2.50000000000000000000e-01 5.00000000000000000000e-01 7.50000000000000000000e-01 1.00000000000000000000e+00 
layer_sizes=4 6 4 
scale_included=1
scale_mean_in=0.097770 0.054735 0.117753 
scale_deviation_in=0.014666 0.017310 0.013319 
scale_new_min_in=-0.900000 -0.900000 -0.900000 
scale_factor_in=0.900000 0.900000 0.900000 
scale_mean_out=-1.063449 2.635293 -1.311365 
scale_deviation_out=0.149052 0.233652 0.298560 
scale_new_min_out=-0.900000 -0.900000 -0.900000 
scale_factor_out=0.900000 0.900000 0.900000 
neurons (num_inputs, activation_function, activation_steepness)=(0, 0, 0.00000000000000000000e+00) (0, 0, 0.00000000000000000000e+00) (0, 0, 0.00000000000000000000e+00) (0, 0, 0.00000000000000000000e+00) (4, 5, 5.00000000000000000000e-01) (4, 5, 5.00000000000000000000e-01) (4, 5, 5.00000000000000000000e-01) (4, 5, 5.00000000000000000000e-01) (4, 5, 5.00000000000000000000e-01) (0, 5, 0.00000000000000000000e+00) (6, 5, 5.00000000000000000000e-01) (6, 5, 5.00000000000000000000e-01) (6, 5, 5.00000000000000000000e-01) (0, 5, 0.00000000000000000000e+00) 
connections (connected_to_neuron, weight)=(0, -1.39270579814910888672e+00) (1, 4.84747827053070068359e-01) (2, -3.95318448543548583984e-01) (3, 7.56796002388000488281e-02) (0, 1.56460672616958618164e-01) (1, -8.34208309650421142578e-01) (2, -1.20806133747100830078e+00) (3, -6.53421461582183837891e-01) (0, -5.73750555515289306641e-01) (1, -4.32897686958312988281e-01) (2, -1.67451238632202148438e+00) (3, 5.10000109672546386719e-01) (0, 1.43833363056182861328e+00) (1, 2.90042400360107421875e-01) (2, 4.40270423889160156250e-01) (3, 3.36506605148315429688e-01) (0, 1.99107974767684936523e-01) (1, -1.76693809032440185547e+00) (2, 6.97812438011169433594e-03) (3, -1.91079944372177124023e-01) (4, 9.66490030288696289062e-01) (5, -8.92601907253265380859e-01) (6, 2.98522979021072387695e-01) (7, -1.03761918842792510986e-01) (8, -2.10270142555236816406e+00) (9, -4.34700518846511840820e-01) (4, 5.58582484722137451172e-01) (5, 3.93502950668334960938e-01) (6, 1.23995316028594970703e+00) (7, -1.55894911289215087891e+00) (8, 7.98911511898040771484e-01) (9, 1.31021291017532348633e-01) (4, 1.13526570796966552734e+00) (5, 1.32241046428680419922e+00) (6, 1.39929664134979248047e+00) (7, -4.82580721378326416016e-01) (8, 4.86587107181549072266e-01) (9, 2.21246585249900817871e-01) 
