FANN_FLO_2.1
num_layers=3
learning_rate=0.100000
connection_rate=1.000000
network_type=0
learning_momentum=0.000000
training_algorithm=1
train_error_function=1
train_stop_function=0
cascade_output_change_fraction=0.010000
quickprop_decay=-0.000100
quickprop_mu=1.750000
rprop_increase_factor=1.200000
rprop_decrease_factor=0.500000
rprop_delta_min=0.000000
rprop_delta_max=50.000000
rprop_delta_zero=0.100000
cascade_output_stagnation_epochs=12
cascade_candidate_change_fraction=0.010000
cascade_candidate_stagnation_epochs=12
cascade_max_out_epochs=150
cascade_min_out_epochs=50
cascade_max_cand_epochs=150
cascade_min_cand_epochs=50
cascade_num_candidate_groups=2
bit_fail_limit=3.49999994039535522461e-01
cascade_candidate_limit=1.00000000000000000000e+03
cascade_weight_multiplier=4.00000005960464477539e-01
cascade_activation_functions_count=10
cascade_activation_functions=3 5 7 8 10 11 14 15 16 17 
cascade_activation_steepnesses_count=4
cascade_activation_steepnesses=2.50000000000000000000e-01 5.00000000000000000000e-01 7.50000000000000000000e-01 1.00000000000000000000e+00 
layer_sizes=4 6 4 
scale_included=1
scale_mean_in=0.138430 0.144534 -0.130992 
scale_deviation_in=0.007979 0.009985 0.009743 
scale_new_min_in=-0.900000 -0.900000 -0.900000 
scale_factor_in=0.900000 0.900000 0.900000 
scale_mean_out=-0.758306 1.044208 -1.763729 
scale_deviation_out=0.029743 0.265995 1.165740 
scale_new_min_out=-0.900000 -0.900000 -0.900000 
scale_factor_out=0.900000 0.900000 0.900000 
neurons (num_inputs, activation_function, activation_steepness)=(0, 0, 0.00000000000000000000e+00) (0, 0, 0.00000000000000000000e+00) (0, 0, 0.00000000000000000000e+00) (0, 0, 0.00000000000000000000e+00) (4, 5, 5.00000000000000000000e-01) (4, 5, 5.00000000000000000000e-01) (4, 5, 5.00000000000000000000e-01) (4, 5, 5.00000000000000000000e-01) (4, 5, 5.00000000000000000000e-01) (0, 5, 0.00000000000000000000e+00) (6, 5, 5.00000000000000000000e-01) (6, 5, 5.00000000000000000000e-01) (6, 5, 5.00000000000000000000e-01) (0, 5, 0.00000000000000000000e+00) 
connections (connected_to_neuron, weight)=(0, -1.79840183258056640625e+01) (1, 5.30844402313232421875e+00) (2, 1.01497154235839843750e+01) (3, 6.04419040679931640625e+00) (0, -7.66994190216064453125e+00) (1, -1.35640306472778320312e+01) (2, 1.48283224105834960938e+01) (3, 1.66644954681396484375e+01) (0, -5.07863378524780273438e+00) (1, -9.50688743591308593750e+00) (2, 9.24784183502197265625e+00) (3, 1.47950010299682617188e+01) (0, 1.18142681121826171875e+01) (1, 1.53649120330810546875e+01) (2, -2.01564579010009765625e+01) (3, 3.15732860565185546875e+01) (0, -1.13236246109008789062e+01) (1, 1.94453983306884765625e+01) (2, -3.81362366676330566406e+00) (3, 8.74279212951660156250e+00) (4, 1.11622452735900878906e+00) (5, -4.20146226882934570312e-01) (6, -8.38968515396118164062e-01) (7, -2.77868795394897460938e+00) (8, 1.04112854003906250000e+01) (9, -6.33490371704101562500e+00) (4, 3.53345184326171875000e+01) (5, 4.78235778808593750000e+01) (6, 4.19574775695800781250e+01) (7, -4.39690666198730468750e+01) (8, -3.53083381652832031250e+01) (9, -4.53170776367187500000e+01) (4, -4.26165014505386352539e-02) (5, 2.18794450163841247559e-01) (6, 1.32102310657501220703e+00) (7, -1.11516483128070831299e-01) (8, 1.50611177086830139160e-02) (9, -1.05518078804016113281e+00) 
