FANN_FLO_2.1
num_layers=3
learning_rate=0.100000
connection_rate=1.000000
network_type=0
learning_momentum=0.000000
training_algorithm=1
train_error_function=1
train_stop_function=0
cascade_output_change_fraction=0.010000
quickprop_decay=-0.000100
quickprop_mu=1.750000
rprop_increase_factor=1.200000
rprop_decrease_factor=0.500000
rprop_delta_min=0.000000
rprop_delta_max=50.000000
rprop_delta_zero=0.100000
cascade_output_stagnation_epochs=12
cascade_candidate_change_fraction=0.010000
cascade_candidate_stagnation_epochs=12
cascade_max_out_epochs=150
cascade_min_out_epochs=50
cascade_max_cand_epochs=150
cascade_min_cand_epochs=50
cascade_num_candidate_groups=2
bit_fail_limit=3.49999994039535522461e-01
cascade_candidate_limit=1.00000000000000000000e+03
cascade_weight_multiplier=4.00000005960464477539e-01
cascade_activation_functions_count=10
cascade_activation_functions=3 5 7 8 10 11 14 15 16 17 
cascade_activation_steepnesses_count=4
cascade_activation_steepnesses=2.50000000000000000000e-01 5.00000000000000000000e-01 7.50000000000000000000e-01 1.00000000000000000000e+00 
layer_sizes=4 6 4 
scale_included=1
scale_mean_in=0.124209 0.133741 0.095080 
scale_deviation_in=0.004495 0.002700 0.003439 
scale_new_min_in=-0.900000 -0.900000 -0.900000 
scale_factor_in=0.900000 0.900000 0.900000 
scale_mean_out=-0.751933 1.569901 -1.970815 
scale_deviation_out=0.047192 0.192600 0.538801 
scale_new_min_out=-0.900000 -0.900000 -0.900000 
scale_factor_out=0.900000 0.900000 0.900000 
neurons (num_inputs, activation_function, activation_steepness)=(0, 0, 0.00000000000000000000e+00) (0, 0, 0.00000000000000000000e+00) (0, 0, 0.00000000000000000000e+00) (0, 0, 0.00000000000000000000e+00) (4, 5, 5.00000000000000000000e-01) (4, 5, 5.00000000000000000000e-01) (4, 5, 5.00000000000000000000e-01) (4, 5, 5.00000000000000000000e-01) (4, 5, 5.00000000000000000000e-01) (0, 5, 0.00000000000000000000e+00) (6, 5, 5.00000000000000000000e-01) (6, 5, 5.00000000000000000000e-01) (6, 5, 5.00000000000000000000e-01) (0, 5, 0.00000000000000000000e+00) 
connections (connected_to_neuron, weight)=(0, 6.62569999694824218750e+00) (1, 3.72955393791198730469e+00) (2, 2.90310353040695190430e-01) (3, 3.92125201225280761719e+00) (0, -2.25414824485778808594e+00) (1, -1.06503021717071533203e+00) (2, 1.39427697658538818359e+00) (3, 1.48258864879608154297e+00) (0, -4.21686029434204101562e+00) (1, 1.94233977794647216797e+00) (2, -2.30372384190559387207e-01) (3, -3.77448582649230957031e+00) (0, 7.08608531951904296875e+00) (1, 1.54974091053009033203e+00) (2, 1.45795822143554687500e-01) (3, 2.12549376487731933594e+00) (0, -1.35636842250823974609e+00) (1, 1.14281110465526580811e-01) (2, -2.99244257621467113495e-03) (3, 1.54021573066711425781e+00) (4, 2.91585661470890045166e-02) (5, -3.38902294635772705078e-01) (6, 1.21888148784637451172e+00) (7, 1.75039380788803100586e-01) (8, 2.59793901443481445312e+00) (9, -6.17261528968811035156e-01) (4, -2.32063484191894531250e+00) (5, 1.93633925914764404297e+00) (6, 2.51927995681762695312e+00) (7, 3.77433633804321289062e+00) (8, -7.74708151817321777344e-01) (9, 1.87722730636596679688e+00) (4, -3.64737063646316528320e-01) (5, 5.78024566173553466797e-01) (6, 8.69576692581176757812e-01) (7, 9.01840329170227050781e-01) (8, -3.77178460359573364258e-01) (9, 5.62010586261749267578e-01) 
