FANN_FLO_2.1
num_layers=3
learning_rate=0.100000
connection_rate=1.000000
network_type=0
learning_momentum=0.000000
training_algorithm=1
train_error_function=1
train_stop_function=0
cascade_output_change_fraction=0.010000
quickprop_decay=-0.000100
quickprop_mu=1.750000
rprop_increase_factor=1.200000
rprop_decrease_factor=0.500000
rprop_delta_min=0.000000
rprop_delta_max=50.000000
rprop_delta_zero=0.100000
cascade_output_stagnation_epochs=12
cascade_candidate_change_fraction=0.010000
cascade_candidate_stagnation_epochs=12
cascade_max_out_epochs=150
cascade_min_out_epochs=50
cascade_max_cand_epochs=150
cascade_min_cand_epochs=50
cascade_num_candidate_groups=2
bit_fail_limit=3.49999994039535522461e-01
cascade_candidate_limit=1.00000000000000000000e+03
cascade_weight_multiplier=4.00000005960464477539e-01
cascade_activation_functions_count=10
cascade_activation_functions=3 5 7 8 10 11 14 15 16 17 
cascade_activation_steepnesses_count=4
cascade_activation_steepnesses=2.50000000000000000000e-01 5.00000000000000000000e-01 7.50000000000000000000e-01 1.00000000000000000000e+00 
layer_sizes=4 6 4 
scale_included=1
scale_mean_in=0.213814 0.048577 0.038216 
scale_deviation_in=0.007658 0.015582 0.009452 
scale_new_min_in=-0.900000 -0.900000 -0.900000 
scale_factor_in=0.900000 0.900000 0.900000 
scale_mean_out=-1.344774 1.385691 -2.107228 
scale_deviation_out=0.072980 0.292889 0.727187 
scale_new_min_out=-0.900000 -0.900000 -0.900000 
scale_factor_out=0.900000 0.900000 0.900000 
neurons (num_inputs, activation_function, activation_steepness)=(0, 0, 0.00000000000000000000e+00) (0, 0, 0.00000000000000000000e+00) (0, 0, 0.00000000000000000000e+00) (0, 0, 0.00000000000000000000e+00) (4, 5, 5.00000000000000000000e-01) (4, 5, 5.00000000000000000000e-01) (4, 5, 5.00000000000000000000e-01) (4, 5, 5.00000000000000000000e-01) (4, 5, 5.00000000000000000000e-01) (0, 5, 0.00000000000000000000e+00) (6, 5, 5.00000000000000000000e-01) (6, 5, 5.00000000000000000000e-01) (6, 5, 5.00000000000000000000e-01) (0, 5, 0.00000000000000000000e+00) 
connections (connected_to_neuron, weight)=(0, 6.20308589935302734375e+00) (1, 3.00360345840454101562e+00) (2, 3.99779248237609863281e+00) (3, 4.07912588119506835938e+00) (0, 8.30707192420959472656e-01) (1, 5.18675625324249267578e-01) (2, -1.25050508975982666016e+00) (3, 8.46857801079750061035e-02) (0, 6.35095596313476562500e-01) (1, -1.39087602496147155762e-01) (2, -2.30546325445175170898e-01) (3, 1.28491616249084472656e+00) (0, 1.02049276232719421387e-01) (1, 1.19062530994415283203e+00) (2, -7.99021199345588684082e-02) (3, -1.20009601116180419922e+00) (0, -1.57934784889221191406e-01) (1, -1.00436663627624511719e+00) (2, 2.74689048528671264648e-01) (3, -1.33648383617401123047e+00) (4, 4.89307977259159088135e-02) (5, -5.74546694755554199219e-01) (6, -2.50103449821472167969e+00) (7, 3.52933073043823242188e+00) (8, -4.09732246398925781250e+00) (9, 8.52690279483795166016e-01) (4, -9.77637100219726562500e+00) (5, -2.09529471397399902344e+00) (6, 4.04728507995605468750e+00) (7, 2.14110702276229858398e-01) (8, -1.84124398231506347656e+00) (9, 5.76685333251953125000e+00) (4, -3.99762094020843505859e-01) (5, 1.63481961935758590698e-02) (6, -2.80437499284744262695e-01) (7, -2.31216639280319213867e-01) (8, -2.35489144921302795410e-01) (9, 1.82717114686965942383e-01) 
