FANN_FLO_2.1
num_layers=3
learning_rate=0.100000
connection_rate=1.000000
network_type=0
learning_momentum=0.000000
training_algorithm=1
train_error_function=1
train_stop_function=0
cascade_output_change_fraction=0.010000
quickprop_decay=-0.000100
quickprop_mu=1.750000
rprop_increase_factor=1.200000
rprop_decrease_factor=0.500000
rprop_delta_min=0.000000
rprop_delta_max=50.000000
rprop_delta_zero=0.100000
cascade_output_stagnation_epochs=12
cascade_candidate_change_fraction=0.010000
cascade_candidate_stagnation_epochs=12
cascade_max_out_epochs=150
cascade_min_out_epochs=50
cascade_max_cand_epochs=150
cascade_min_cand_epochs=50
cascade_num_candidate_groups=2
bit_fail_limit=3.49999994039535522461e-01
cascade_candidate_limit=1.00000000000000000000e+03
cascade_weight_multiplier=4.00000005960464477539e-01
cascade_activation_functions_count=10
cascade_activation_functions=3 5 7 8 10 11 14 15 16 17 
cascade_activation_steepnesses_count=4
cascade_activation_steepnesses=2.50000000000000000000e-01 5.00000000000000000000e-01 7.50000000000000000000e-01 1.00000000000000000000e+00 
layer_sizes=4 6 4 
scale_included=1
scale_mean_in=0.178378 -0.020577 0.099185 
scale_deviation_in=0.003041 0.014345 0.003368 
scale_new_min_in=-0.900000 -0.900000 -0.900000 
scale_factor_in=0.900000 0.900000 0.900000 
scale_mean_out=-1.685201 1.715837 -2.140728 
scale_deviation_out=0.079519 0.094852 0.146126 
scale_new_min_out=-0.900000 -0.900000 -0.900000 
scale_factor_out=0.900000 0.900000 0.900000 
neurons (num_inputs, activation_function, activation_steepness)=(0, 0, 0.00000000000000000000e+00) (0, 0, 0.00000000000000000000e+00) (0, 0, 0.00000000000000000000e+00) (0, 0, 0.00000000000000000000e+00) (4, 5, 5.00000000000000000000e-01) (4, 5, 5.00000000000000000000e-01) (4, 5, 5.00000000000000000000e-01) (4, 5, 5.00000000000000000000e-01) (4, 5, 5.00000000000000000000e-01) (0, 5, 0.00000000000000000000e+00) (6, 5, 5.00000000000000000000e-01) (6, 5, 5.00000000000000000000e-01) (6, 5, 5.00000000000000000000e-01) (0, 5, 0.00000000000000000000e+00) 
connections (connected_to_neuron, weight)=(0, 1.36420500278472900391e+00) (1, 6.57922685146331787109e-01) (2, 1.17306387424468994141e+00) (3, 1.54130971431732177734e+00) (0, -1.04963612556457519531e+00) (1, 1.40423870086669921875e+00) (2, -8.90773713588714599609e-01) (3, -2.11193346977233886719e+00) (0, 7.46033191680908203125e-01) (1, 1.75069725513458251953e+00) (2, 9.06062006950378417969e-01) (3, -2.80481171607971191406e+00) (0, 4.14127856492996215820e-01) (1, -2.06574130058288574219e+00) (2, 6.01595520973205566406e-01) (3, -2.54095697402954101562e+00) (0, 2.68266034126281738281e+00) (1, -1.14223814010620117188e+00) (2, 1.65316557884216308594e+00) (3, -3.16145753860473632812e+00) (4, 2.20020556449890136719e+00) (5, 3.29761362075805664062e+00) (6, 1.80398511886596679688e+00) (7, -3.32471251487731933594e+00) (8, -3.25373304076492786407e-03) (9, -6.58985227346420288086e-02) (4, -1.15245831012725830078e+00) (5, 3.43462991714477539062e+00) (6, -1.74538981914520263672e+00) (7, -2.46888041496276855469e+00) (8, -4.73656558990478515625e+00) (9, -3.56972002983093261719e+00) (4, -2.38044381141662597656e+00) (5, 5.00860881805419921875e+00) (6, -2.68977618217468261719e+00) (7, -3.31107902526855468750e+00) (8, -2.08169937133789062500e+00) (9, -7.15103328227996826172e-01) 
