FANN_FLO_2.1
num_layers=3
learning_rate=0.100000
connection_rate=1.000000
network_type=0
learning_momentum=0.000000
training_algorithm=1
train_error_function=1
train_stop_function=0
cascade_output_change_fraction=0.010000
quickprop_decay=-0.000100
quickprop_mu=1.750000
rprop_increase_factor=1.200000
rprop_decrease_factor=0.500000
rprop_delta_min=0.000000
rprop_delta_max=50.000000
rprop_delta_zero=0.100000
cascade_output_stagnation_epochs=12
cascade_candidate_change_fraction=0.010000
cascade_candidate_stagnation_epochs=12
cascade_max_out_epochs=150
cascade_min_out_epochs=50
cascade_max_cand_epochs=150
cascade_min_cand_epochs=50
cascade_num_candidate_groups=2
bit_fail_limit=3.49999994039535522461e-01
cascade_candidate_limit=1.00000000000000000000e+03
cascade_weight_multiplier=4.00000005960464477539e-01
cascade_activation_functions_count=10
cascade_activation_functions=3 5 7 8 10 11 14 15 16 17 
cascade_activation_steepnesses_count=4
cascade_activation_steepnesses=2.50000000000000000000e-01 5.00000000000000000000e-01 7.50000000000000000000e-01 1.00000000000000000000e+00 
layer_sizes=4 6 4 
scale_included=1
scale_mean_in=0.187975 0.086802 0.023824 
scale_deviation_in=0.009262 0.015956 0.013055 
scale_new_min_in=-0.900000 -0.900000 -0.900000 
scale_factor_in=0.900000 0.900000 0.900000 
scale_mean_out=-1.138886 1.480793 -1.797840 
scale_deviation_out=0.078221 0.194927 0.280295 
scale_new_min_out=-0.900000 -0.900000 -0.900000 
scale_factor_out=0.900000 0.900000 0.900000 
neurons (num_inputs, activation_function, activation_steepness)=(0, 0, 0.00000000000000000000e+00) (0, 0, 0.00000000000000000000e+00) (0, 0, 0.00000000000000000000e+00) (0, 0, 0.00000000000000000000e+00) (4, 5, 5.00000000000000000000e-01) (4, 5, 5.00000000000000000000e-01) (4, 5, 5.00000000000000000000e-01) (4, 5, 5.00000000000000000000e-01) (4, 5, 5.00000000000000000000e-01) (0, 5, 0.00000000000000000000e+00) (6, 5, 5.00000000000000000000e-01) (6, 5, 5.00000000000000000000e-01) (6, 5, 5.00000000000000000000e-01) (0, 5, 0.00000000000000000000e+00) 
connections (connected_to_neuron, weight)=(0, -2.03462433815002441406e+00) (1, -1.48697602748870849609e+00) (2, -9.25814032554626464844e-01) (3, 2.02703976631164550781e+00) (0, 9.43062126636505126953e-01) (1, 8.13651382923126220703e-01) (2, 4.21888679265975952148e-01) (3, 9.90966856479644775391e-01) (0, -6.84013903141021728516e-01) (1, -3.07601094245910644531e-01) (2, 8.46644997596740722656e-01) (3, 4.39397722482681274414e-01) (0, -6.33410990238189697266e-01) (1, 6.25249683856964111328e-01) (2, -3.30222934484481811523e-01) (3, 2.88572877645492553711e-01) (0, 2.14782103896141052246e-01) (1, 1.14263045787811279297e+00) (2, 2.50665962696075439453e-01) (3, -6.86825811862945556641e-01) (4, 4.58207935094833374023e-01) (5, 5.45502424240112304688e-01) (6, 2.98480957746505737305e-01) (7, 3.21394801139831542969e+00) (8, 3.63146519660949707031e+00) (9, 1.93987816572189331055e-01) (4, 2.43336391448974609375e+00) (5, -1.93138158321380615234e+00) (6, 2.87127709388732910156e+00) (7, 1.15814670920372009277e-01) (8, -1.11975443363189697266e+00) (9, -1.40818989276885986328e+00) (4, 2.51872706413269042969e+00) (5, -2.11606335639953613281e+00) (6, 7.87266850471496582031e-01) (7, 1.73524713516235351562e+00) (8, -2.42308115959167480469e+00) (9, -1.53813719749450683594e+00) 
