FANN_FLO_2.1
num_layers=3
learning_rate=0.100000
connection_rate=1.000000
network_type=0
learning_momentum=0.000000
training_algorithm=1
train_error_function=1
train_stop_function=0
cascade_output_change_fraction=0.010000
quickprop_decay=-0.000100
quickprop_mu=1.750000
rprop_increase_factor=1.200000
rprop_decrease_factor=0.500000
rprop_delta_min=0.000000
rprop_delta_max=50.000000
rprop_delta_zero=0.100000
cascade_output_stagnation_epochs=12
cascade_candidate_change_fraction=0.010000
cascade_candidate_stagnation_epochs=12
cascade_max_out_epochs=150
cascade_min_out_epochs=50
cascade_max_cand_epochs=150
cascade_min_cand_epochs=50
cascade_num_candidate_groups=2
bit_fail_limit=3.49999994039535522461e-01
cascade_candidate_limit=1.00000000000000000000e+03
cascade_weight_multiplier=4.00000005960464477539e-01
cascade_activation_functions_count=10
cascade_activation_functions=3 5 7 8 10 11 14 15 16 17 
cascade_activation_steepnesses_count=4
cascade_activation_steepnesses=2.50000000000000000000e-01 5.00000000000000000000e-01 7.50000000000000000000e-01 1.00000000000000000000e+00 
layer_sizes=4 6 4 
scale_included=1
scale_mean_in=0.046774 -0.027141 0.071503 
scale_deviation_in=0.014807 0.017128 0.013306 
scale_new_min_in=-0.900000 -0.900000 -0.900000 
scale_factor_in=0.900000 0.900000 0.900000 
scale_mean_out=-2.082350 3.774634 -0.271602 
scale_deviation_out=0.310481 0.265578 0.191130 
scale_new_min_out=-0.900000 -0.900000 -0.900000 
scale_factor_out=0.900000 0.900000 0.900000 
neurons (num_inputs, activation_function, activation_steepness)=(0, 0, 0.00000000000000000000e+00) (0, 0, 0.00000000000000000000e+00) (0, 0, 0.00000000000000000000e+00) (0, 0, 0.00000000000000000000e+00) (4, 5, 5.00000000000000000000e-01) (4, 5, 5.00000000000000000000e-01) (4, 5, 5.00000000000000000000e-01) (4, 5, 5.00000000000000000000e-01) (4, 5, 5.00000000000000000000e-01) (0, 5, 0.00000000000000000000e+00) (6, 5, 5.00000000000000000000e-01) (6, 5, 5.00000000000000000000e-01) (6, 5, 5.00000000000000000000e-01) (0, 5, 0.00000000000000000000e+00) 
connections (connected_to_neuron, weight)=(0, 3.50259780883789062500e-01) (1, -1.33767747879028320312e+00) (2, -5.29685497283935546875e-01) (3, 1.33141183853149414062e+00) (0, -3.52271407842636108398e-01) (1, 9.98320162296295166016e-01) (2, -4.31724965572357177734e-01) (3, -4.24491375684738159180e-01) (0, 1.73460376262664794922e+00) (1, 8.95588338375091552734e-01) (2, -3.17505240440368652344e-01) (3, 1.76106202602386474609e+00) (0, 1.33778846263885498047e+00) (1, -2.92835474014282226562e-01) (2, 1.94560930132865905762e-01) (3, -2.40535795688629150391e-01) (0, 7.01478272676467895508e-02) (1, 2.06705033779144287109e-01) (2, -1.18671536445617675781e+00) (3, -2.90418714284896850586e-01) (4, -3.30075097084045410156e+00) (5, 2.19098019599914550781e+00) (6, 2.64453530311584472656e+00) (7, 1.57174682617187500000e+00) (8, 1.40064582228660583496e-01) (9, 5.42646944522857666016e-01) (4, 1.31643140316009521484e+00) (5, 2.19868588447570800781e+00) (6, 1.01651251316070556641e+00) (7, -3.69998574256896972656e+00) (8, 1.46065974235534667969e+00) (9, -1.01049137115478515625e+00) (4, 2.66140055656433105469e+00) (5, 1.74477076530456542969e+00) (6, 7.69564032554626464844e-01) (7, -1.83234751224517822266e+00) (8, 3.54836320877075195312e+00) (9, -9.87830519676208496094e-01) 
