FANN_FLO_2.1
num_layers=3
learning_rate=0.100000
connection_rate=1.000000
network_type=0
learning_momentum=0.000000
training_algorithm=1
train_error_function=1
train_stop_function=0
cascade_output_change_fraction=0.010000
quickprop_decay=-0.000100
quickprop_mu=1.750000
rprop_increase_factor=1.200000
rprop_decrease_factor=0.500000
rprop_delta_min=0.000000
rprop_delta_max=50.000000
rprop_delta_zero=0.100000
cascade_output_stagnation_epochs=12
cascade_candidate_change_fraction=0.010000
cascade_candidate_stagnation_epochs=12
cascade_max_out_epochs=150
cascade_min_out_epochs=50
cascade_max_cand_epochs=150
cascade_min_cand_epochs=50
cascade_num_candidate_groups=2
bit_fail_limit=3.49999994039535522461e-01
cascade_candidate_limit=1.00000000000000000000e+03
cascade_weight_multiplier=4.00000005960464477539e-01
cascade_activation_functions_count=10
cascade_activation_functions=3 5 7 8 10 11 14 15 16 17 
cascade_activation_steepnesses_count=4
cascade_activation_steepnesses=2.50000000000000000000e-01 5.00000000000000000000e-01 7.50000000000000000000e-01 1.00000000000000000000e+00 
layer_sizes=4 6 4 
scale_included=1
scale_mean_in=0.001831 0.077733 0.100180 
scale_deviation_in=0.018426 0.021567 0.016791 
scale_new_min_in=-0.900000 -0.900000 -0.900000 
scale_factor_in=0.900000 0.900000 0.900000 
scale_mean_out=-0.023652 3.182515 -0.790793 
scale_deviation_out=0.257004 0.292380 0.277664 
scale_new_min_out=-0.900000 -0.900000 -0.900000 
scale_factor_out=0.900000 0.900000 0.900000 
neurons (num_inputs, activation_function, activation_steepness)=(0, 0, 0.00000000000000000000e+00) (0, 0, 0.00000000000000000000e+00) (0, 0, 0.00000000000000000000e+00) (0, 0, 0.00000000000000000000e+00) (4, 5, 5.00000000000000000000e-01) (4, 5, 5.00000000000000000000e-01) (4, 5, 5.00000000000000000000e-01) (4, 5, 5.00000000000000000000e-01) (4, 5, 5.00000000000000000000e-01) (0, 5, 0.00000000000000000000e+00) (6, 5, 5.00000000000000000000e-01) (6, 5, 5.00000000000000000000e-01) (6, 5, 5.00000000000000000000e-01) (0, 5, 0.00000000000000000000e+00) 
connections (connected_to_neuron, weight)=(0, -3.90539556741714477539e-01) (1, 1.60427606105804443359e+00) (2, 5.59017121791839599609e-01) (3, 1.22007802128791809082e-01) (0, 8.44895362854003906250e-01) (1, -4.68527600169181823730e-02) (2, -2.12852701544761657715e-01) (3, -6.79104804992675781250e-01) (0, 1.26014924049377441406e+00) (1, 5.69156289100646972656e-01) (2, -3.49788755178451538086e-01) (3, -4.27098095417022705078e-01) (0, -3.47345620393753051758e-01) (1, -7.55733072757720947266e-01) (2, -1.92085278034210205078e+00) (3, -2.02712684869766235352e-01) (0, 1.42665541172027587891e+00) (1, -8.47626924514770507812e-02) (2, -1.11004943028092384338e-02) (3, 5.13738274574279785156e-01) (4, 6.79483890533447265625e-01) (5, -1.08041477203369140625e+00) (6, -1.33633637428283691406e+00) (7, 5.69393515586853027344e-01) (8, -1.53981792926788330078e+00) (9, -2.21643567085266113281e-01) (4, -1.99055933952331542969e+00) (5, 3.73153150081634521484e-01) (6, -5.94016611576080322266e-01) (7, 1.23316240310668945312e+00) (8, -7.05801621079444885254e-02) (9, 1.72449946403503417969e-01) (4, -5.47802746295928955078e-01) (5, -1.83060064911842346191e-01) (6, 6.69659897685050964355e-02) (7, 2.39925169944763183594e+00) (8, 4.37194585800170898438e-01) (9, 6.95540383458137512207e-02) 
