FANN_FLO_2.1
num_layers=3
learning_rate=0.100000
connection_rate=1.000000
network_type=0
learning_momentum=0.000000
training_algorithm=1
train_error_function=1
train_stop_function=0
cascade_output_change_fraction=0.010000
quickprop_decay=-0.000100
quickprop_mu=1.750000
rprop_increase_factor=1.200000
rprop_decrease_factor=0.500000
rprop_delta_min=0.000000
rprop_delta_max=50.000000
rprop_delta_zero=0.100000
cascade_output_stagnation_epochs=12
cascade_candidate_change_fraction=0.010000
cascade_candidate_stagnation_epochs=12
cascade_max_out_epochs=150
cascade_min_out_epochs=50
cascade_max_cand_epochs=150
cascade_min_cand_epochs=50
cascade_num_candidate_groups=2
bit_fail_limit=3.49999994039535522461e-01
cascade_candidate_limit=1.00000000000000000000e+03
cascade_weight_multiplier=4.00000005960464477539e-01
cascade_activation_functions_count=10
cascade_activation_functions=3 5 7 8 10 11 14 15 16 17 
cascade_activation_steepnesses_count=4
cascade_activation_steepnesses=2.50000000000000000000e-01 5.00000000000000000000e-01 7.50000000000000000000e-01 1.00000000000000000000e+00 
layer_sizes=4 6 4 
scale_included=1
scale_mean_in=0.111559 0.064324 0.136944 
scale_deviation_in=0.010602 0.016810 0.005750 
scale_new_min_in=-0.900000 -0.900000 -0.900000 
scale_factor_in=0.900000 0.900000 0.900000 
scale_mean_out=-1.051175 2.164094 -1.986574 
scale_deviation_out=0.124708 0.178084 0.227240 
scale_new_min_out=-0.900000 -0.900000 -0.900000 
scale_factor_out=0.900000 0.900000 0.900000 
neurons (num_inputs, activation_function, activation_steepness)=(0, 0, 0.00000000000000000000e+00) (0, 0, 0.00000000000000000000e+00) (0, 0, 0.00000000000000000000e+00) (0, 0, 0.00000000000000000000e+00) (4, 5, 5.00000000000000000000e-01) (4, 5, 5.00000000000000000000e-01) (4, 5, 5.00000000000000000000e-01) (4, 5, 5.00000000000000000000e-01) (4, 5, 5.00000000000000000000e-01) (0, 5, 0.00000000000000000000e+00) (6, 5, 5.00000000000000000000e-01) (6, 5, 5.00000000000000000000e-01) (6, 5, 5.00000000000000000000e-01) (0, 5, 0.00000000000000000000e+00) 
connections (connected_to_neuron, weight)=(0, -1.43543338775634765625e+00) (1, -1.03325009346008300781e+00) (2, -1.60834491252899169922e+00) (3, -1.38740330934524536133e-01) (0, 4.11073356866836547852e-01) (1, -7.12013781070709228516e-01) (2, -1.50895435363054275513e-02) (3, -6.99356436729431152344e-01) (0, -1.58808779716491699219e+00) (1, -1.44123244285583496094e+00) (2, -7.18495786190032958984e-01) (3, 2.97813683748245239258e-01) (0, 6.86378419399261474609e-01) (1, -1.18823099136352539062e+00) (2, 2.96617358922958374023e-01) (3, -6.90759420394897460938e-02) (0, -3.63462299108505249023e-01) (1, 1.69231581687927246094e+00) (2, 4.48977530002593994141e-01) (3, -4.30638194084167480469e-01) (4, 2.98687577247619628906e-01) (5, -6.80340409278869628906e-01) (6, -3.71270120143890380859e-01) (7, -1.09139728546142578125e+00) (8, 2.10806965827941894531e+00) (9, 2.09745109081268310547e-01) (4, 1.70053768157958984375e+00) (5, -2.55942940711975097656e-02) (6, 2.07554674148559570312e+00) (7, 4.40593421459197998047e-01) (8, -1.16414442658424377441e-01) (9, 2.51717120409011840820e-03) (4, 2.25488948822021484375e+00) (5, 2.14980483055114746094e-01) (6, 1.04167735576629638672e+00) (7, -5.53203165531158447266e-01) (8, -9.56100702285766601562e-01) (9, 9.16033461689949035645e-02) 
