FANN_FLO_2.1
num_layers=3
learning_rate=0.100000
connection_rate=1.000000
network_type=0
learning_momentum=0.000000
training_algorithm=1
train_error_function=1
train_stop_function=0
cascade_output_change_fraction=0.010000
quickprop_decay=-0.000100
quickprop_mu=1.750000
rprop_increase_factor=1.200000
rprop_decrease_factor=0.500000
rprop_delta_min=0.000000
rprop_delta_max=50.000000
rprop_delta_zero=0.100000
cascade_output_stagnation_epochs=12
cascade_candidate_change_fraction=0.010000
cascade_candidate_stagnation_epochs=12
cascade_max_out_epochs=150
cascade_min_out_epochs=50
cascade_max_cand_epochs=150
cascade_min_cand_epochs=50
cascade_num_candidate_groups=2
bit_fail_limit=3.49999994039535522461e-01
cascade_candidate_limit=1.00000000000000000000e+03
cascade_weight_multiplier=4.00000005960464477539e-01
cascade_activation_functions_count=10
cascade_activation_functions=3 5 7 8 10 11 14 15 16 17 
cascade_activation_steepnesses_count=4
cascade_activation_steepnesses=2.50000000000000000000e-01 5.00000000000000000000e-01 7.50000000000000000000e-01 1.00000000000000000000e+00 
layer_sizes=4 6 4 
scale_included=1
scale_mean_in=0.063038 0.072563 0.143549 
scale_deviation_in=0.017998 0.020655 0.008988 
scale_new_min_in=-0.900000 -0.900000 -0.900000 
scale_factor_in=0.900000 0.900000 0.900000 
scale_mean_out=-0.720243 2.494677 -1.754153 
scale_deviation_out=0.198196 0.238180 0.285430 
scale_new_min_out=-0.900000 -0.900000 -0.900000 
scale_factor_out=0.900000 0.900000 0.900000 
neurons (num_inputs, activation_function, activation_steepness)=(0, 0, 0.00000000000000000000e+00) (0, 0, 0.00000000000000000000e+00) (0, 0, 0.00000000000000000000e+00) (0, 0, 0.00000000000000000000e+00) (4, 5, 5.00000000000000000000e-01) (4, 5, 5.00000000000000000000e-01) (4, 5, 5.00000000000000000000e-01) (4, 5, 5.00000000000000000000e-01) (4, 5, 5.00000000000000000000e-01) (0, 5, 0.00000000000000000000e+00) (6, 5, 5.00000000000000000000e-01) (6, 5, 5.00000000000000000000e-01) (6, 5, 5.00000000000000000000e-01) (0, 5, 0.00000000000000000000e+00) 
connections (connected_to_neuron, weight)=(0, 8.88376951217651367188e-01) (1, 1.41413140296936035156e+00) (2, 1.93456900119781494141e+00) (3, -8.31293165683746337891e-02) (0, 2.01677307486534118652e-01) (1, 7.19060838222503662109e-01) (2, -4.92264270782470703125e-01) (3, 2.84624367952346801758e-01) (0, -1.19181883335113525391e+00) (1, 6.30733728408813476562e-01) (2, -1.73482671380043029785e-01) (3, 3.70166987180709838867e-01) (0, 1.56508469581604003906e+00) (1, -7.63754427433013916016e-01) (2, 1.90188646316528320312e-01) (3, 2.03035607933998107910e-01) (0, 4.89873498678207397461e-01) (1, 1.08921158313751220703e+00) (2, 3.34163695573806762695e-01) (3, -3.92969287931919097900e-02) (4, 4.94592398405075073242e-01) (5, 6.18897199630737304688e-01) (6, 1.41776371002197265625e+00) (7, -1.91785407066345214844e+00) (8, 5.53153336048126220703e-01) (9, -1.22688114643096923828e-01) (4, -2.17882394790649414062e+00) (5, -6.77606046199798583984e-01) (6, 5.05966484546661376953e-01) (7, -1.32715836167335510254e-01) (8, -1.17543411254882812500e+00) (9, 5.67966327071189880371e-02) (4, -2.67740726470947265625e+00) (5, 1.68569654226303100586e-01) (6, 1.72321081161499023438e-01) (7, -4.25150692462921142578e-02) (8, -4.19451653957366943359e-01) (9, 8.92428383231163024902e-02) 
