FANN_FLO_2.1
num_layers=3
learning_rate=0.100000
connection_rate=1.000000
network_type=0
learning_momentum=0.000000
training_algorithm=1
train_error_function=1
train_stop_function=0
cascade_output_change_fraction=0.010000
quickprop_decay=-0.000100
quickprop_mu=1.750000
rprop_increase_factor=1.200000
rprop_decrease_factor=0.500000
rprop_delta_min=0.000000
rprop_delta_max=50.000000
rprop_delta_zero=0.100000
cascade_output_stagnation_epochs=12
cascade_candidate_change_fraction=0.010000
cascade_candidate_stagnation_epochs=12
cascade_max_out_epochs=150
cascade_min_out_epochs=50
cascade_max_cand_epochs=150
cascade_min_cand_epochs=50
cascade_num_candidate_groups=2
bit_fail_limit=3.49999994039535522461e-01
cascade_candidate_limit=1.00000000000000000000e+03
cascade_weight_multiplier=4.00000005960464477539e-01
cascade_activation_functions_count=10
cascade_activation_functions=3 5 7 8 10 11 14 15 16 17 
cascade_activation_steepnesses_count=4
cascade_activation_steepnesses=2.50000000000000000000e-01 5.00000000000000000000e-01 7.50000000000000000000e-01 1.00000000000000000000e+00 
layer_sizes=4 6 4 
scale_included=1
scale_mean_in=0.096127 0.107338 0.001987 
scale_deviation_in=0.000000 0.000000 0.000000 
scale_new_min_in=-0.900000 -0.900000 -0.900000 
scale_factor_in=0.900000 0.900000 0.900000 
scale_mean_out=-0.734504 2.419030 -0.508175 
scale_deviation_out=0.000000 0.000000 0.000000 
scale_new_min_out=-0.900000 -0.900000 -0.900000 
scale_factor_out=0.900000 0.900000 0.900000 
neurons (num_inputs, activation_function, activation_steepness)=(0, 0, 0.00000000000000000000e+00) (0, 0, 0.00000000000000000000e+00) (0, 0, 0.00000000000000000000e+00) (0, 0, 0.00000000000000000000e+00) (4, 5, 5.00000000000000000000e-01) (4, 5, 5.00000000000000000000e-01) (4, 5, 5.00000000000000000000e-01) (4, 5, 5.00000000000000000000e-01) (4, 5, 5.00000000000000000000e-01) (0, 5, 0.00000000000000000000e+00) (6, 5, 5.00000000000000000000e-01) (6, 5, 5.00000000000000000000e-01) (6, 5, 5.00000000000000000000e-01) (0, 5, 0.00000000000000000000e+00) 
connections (connected_to_neuron, weight)=(0, -7.48725950717926025391e-01) (1, 3.02698343992233276367e-01) (2, 1.15938864648342132568e-01) (3, 3.76554638147354125977e-01) (0, 5.12031197547912597656e-01) (1, 1.60766318440437316895e-01) (2, 2.38652870059013366699e-01) (3, 1.02530169486999511719e+00) (0, 2.83384084701538085938e-01) (1, 8.38304281234741210938e-01) (2, 9.68924522399902343750e-01) (3, 1.01491117477416992188e+00) (0, -6.33468151092529296875e-01) (1, -8.95636081695556640625e-01) (2, 3.62719833850860595703e-01) (3, -5.33570587635040283203e-01) (0, 6.29560649394989013672e-01) (1, -7.65768468379974365234e-01) (2, -1.65843307971954345703e-01) (3, -7.82125592231750488281e-01) (4, -1.22419811785221099854e-01) (5, -2.09280341863632202148e-01) (6, -6.21001541614532470703e-01) (7, 7.07543611526489257812e-01) (8, 6.87126278877258300781e-01) (9, 1.34944036602973937988e-01) (4, -8.36937487125396728516e-01) (5, 3.87365162372589111328e-01) (6, 3.89562010765075683594e-01) (7, 2.84312635660171508789e-01) (8, 7.27223530411720275879e-02) (9, 8.63645076751708984375e-01) (4, -1.77473109215497970581e-02) (5, -7.92424499988555908203e-01) (6, -1.36743023991584777832e-01) (7, -4.20750439167022705078e-01) (8, 4.87564802169799804688e-01) (9, -9.45052325725555419922e-01) 
