FANN_FLO_2.1
num_layers=3
learning_rate=0.100000
connection_rate=1.000000
network_type=0
learning_momentum=0.000000
training_algorithm=1
train_error_function=1
train_stop_function=0
cascade_output_change_fraction=0.010000
quickprop_decay=-0.000100
quickprop_mu=1.750000
rprop_increase_factor=1.200000
rprop_decrease_factor=0.500000
rprop_delta_min=0.000000
rprop_delta_max=50.000000
rprop_delta_zero=0.100000
cascade_output_stagnation_epochs=12
cascade_candidate_change_fraction=0.010000
cascade_candidate_stagnation_epochs=12
cascade_max_out_epochs=150
cascade_min_out_epochs=50
cascade_max_cand_epochs=150
cascade_min_cand_epochs=50
cascade_num_candidate_groups=2
bit_fail_limit=3.49999994039535522461e-01
cascade_candidate_limit=1.00000000000000000000e+03
cascade_weight_multiplier=4.00000005960464477539e-01
cascade_activation_functions_count=10
cascade_activation_functions=3 5 7 8 10 11 14 15 16 17 
cascade_activation_steepnesses_count=4
cascade_activation_steepnesses=2.50000000000000000000e-01 5.00000000000000000000e-01 7.50000000000000000000e-01 1.00000000000000000000e+00 
layer_sizes=4 6 4 
scale_included=1
scale_mean_in=0.125621 0.014178 -0.076231 
scale_deviation_in=0.018790 0.017793 0.012815 
scale_new_min_in=-0.900000 -0.900000 -0.900000 
scale_factor_in=0.900000 0.900000 0.900000 
scale_mean_out=-1.458503 1.629585 -0.534099 
scale_deviation_out=0.142916 0.233818 0.255283 
scale_new_min_out=-0.900000 -0.900000 -0.900000 
scale_factor_out=0.900000 0.900000 0.900000 
neurons (num_inputs, activation_function, activation_steepness)=(0, 0, 0.00000000000000000000e+00) (0, 0, 0.00000000000000000000e+00) (0, 0, 0.00000000000000000000e+00) (0, 0, 0.00000000000000000000e+00) (4, 5, 5.00000000000000000000e-01) (4, 5, 5.00000000000000000000e-01) (4, 5, 5.00000000000000000000e-01) (4, 5, 5.00000000000000000000e-01) (4, 5, 5.00000000000000000000e-01) (0, 5, 0.00000000000000000000e+00) (6, 5, 5.00000000000000000000e-01) (6, 5, 5.00000000000000000000e-01) (6, 5, 5.00000000000000000000e-01) (0, 5, 0.00000000000000000000e+00) 
connections (connected_to_neuron, weight)=(0, -7.82266199588775634766e-01) (1, -1.27102598547935485840e-01) (2, 1.67340350151062011719e+00) (3, -4.93558019399642944336e-01) (0, 7.30390846729278564453e-01) (1, 6.29048168659210205078e-01) (2, -7.43547677993774414062e-01) (3, 2.84199267625808715820e-01) (0, 1.10501110553741455078e-01) (1, -1.43431171774864196777e-01) (2, 3.84867697954177856445e-01) (3, 3.71707797050476074219e-01) (0, 6.18267059326171875000e-01) (1, 1.82627582550048828125e+00) (2, 2.25623250007629394531e-02) (3, -3.27415347099304199219e-01) (0, 1.64392137527465820312e+00) (1, -9.13997888565063476562e-01) (2, -7.62522101402282714844e-01) (3, -4.55290853977203369141e-01) (4, -7.22935050725936889648e-02) (5, 6.53568208217620849609e-01) (6, -8.18757712841033935547e-02) (7, 1.78154611587524414062e+00) (8, -1.17105841636657714844e+00) (9, -4.05623763799667358398e-02) (4, 2.08952331542968750000e+00) (5, -7.14609086513519287109e-01) (6, 3.43302786350250244141e-01) (7, -6.95943236351013183594e-02) (8, -5.81767380237579345703e-01) (9, 2.17576041817665100098e-01) (4, 6.12965166568756103516e-01) (5, -6.16183280944824218750e-01) (6, -4.88561093807220458984e-01) (7, -1.08779466152191162109e+00) (8, -1.99174296855926513672e+00) (9, -2.00147524476051330566e-01) 
