FANN_FLO_2.1
num_layers=3
learning_rate=0.100000
connection_rate=1.000000
network_type=0
learning_momentum=0.000000
training_algorithm=1
train_error_function=1
train_stop_function=0
cascade_output_change_fraction=0.010000
quickprop_decay=-0.000100
quickprop_mu=1.750000
rprop_increase_factor=1.200000
rprop_decrease_factor=0.500000
rprop_delta_min=0.000000
rprop_delta_max=50.000000
rprop_delta_zero=0.100000
cascade_output_stagnation_epochs=12
cascade_candidate_change_fraction=0.010000
cascade_candidate_stagnation_epochs=12
cascade_max_out_epochs=150
cascade_min_out_epochs=50
cascade_max_cand_epochs=150
cascade_min_cand_epochs=50
cascade_num_candidate_groups=2
bit_fail_limit=3.49999994039535522461e-01
cascade_candidate_limit=1.00000000000000000000e+03
cascade_weight_multiplier=4.00000005960464477539e-01
cascade_activation_functions_count=10
cascade_activation_functions=3 5 7 8 10 11 14 15 16 17 
cascade_activation_steepnesses_count=4
cascade_activation_steepnesses=2.50000000000000000000e-01 5.00000000000000000000e-01 7.50000000000000000000e-01 1.00000000000000000000e+00 
layer_sizes=4 6 4 
scale_included=1
scale_mean_in=0.011418 0.004110 0.164990 
scale_deviation_in=0.004414 0.005746 0.001532 
scale_new_min_in=-0.900000 -0.900000 -0.900000 
scale_factor_in=0.900000 0.900000 0.900000 
scale_mean_out=-1.273715 2.186960 -3.079048 
scale_deviation_out=0.372999 0.032255 0.047160 
scale_new_min_out=-0.900000 -0.900000 -0.900000 
scale_factor_out=0.900000 0.900000 0.900000 
neurons (num_inputs, activation_function, activation_steepness)=(0, 0, 0.00000000000000000000e+00) (0, 0, 0.00000000000000000000e+00) (0, 0, 0.00000000000000000000e+00) (0, 0, 0.00000000000000000000e+00) (4, 5, 5.00000000000000000000e-01) (4, 5, 5.00000000000000000000e-01) (4, 5, 5.00000000000000000000e-01) (4, 5, 5.00000000000000000000e-01) (4, 5, 5.00000000000000000000e-01) (0, 5, 0.00000000000000000000e+00) (6, 5, 5.00000000000000000000e-01) (6, 5, 5.00000000000000000000e-01) (6, 5, 5.00000000000000000000e-01) (0, 5, 0.00000000000000000000e+00) 
connections (connected_to_neuron, weight)=(0, -4.77450937032699584961e-01) (1, -1.87969529628753662109e+00) (2, 5.82051038742065429688e-01) (3, -6.87750577926635742188e-01) (0, -2.78199672698974609375e+00) (1, -8.58853995800018310547e-01) (2, 2.72975826263427734375e+00) (3, 8.03957283496856689453e-01) (0, 1.94589030742645263672e+00) (1, -1.51765727996826171875e+00) (2, -1.43633377552032470703e+00) (3, 2.77184128761291503906e-01) (0, -7.08869472146034240723e-02) (1, 5.29772281646728515625e-01) (2, -1.52079403400421142578e+00) (3, 5.91305196285247802734e-01) (0, -1.99679434299468994141e-01) (1, 6.13119244575500488281e-01) (2, 7.23686575889587402344e-01) (3, 4.32518243789672851562e-01) (4, -2.51854038238525390625e+00) (5, -5.58925807476043701172e-01) (6, -2.73744249343872070312e+00) (7, 1.34982693195343017578e+00) (8, 1.30059075355529785156e+00) (9, -5.38312435150146484375e-01) (4, 1.26188564300537109375e+00) (5, 4.07286453247070312500e+00) (6, -1.04986715316772460938e+00) (7, -3.90663623809814453125e-01) (8, -2.90742278099060058594e-01) (9, -1.28944337368011474609e+00) (4, -5.36644235253334045410e-02) (5, 1.37317168712615966797e+00) (6, -2.80266910791397094727e-01) (7, -3.03013753890991210938e+00) (8, 1.57197248935699462891e+00) (9, -4.46473024785518646240e-02) 
