FANN_FLO_2.1
num_layers=3
learning_rate=0.100000
connection_rate=1.000000
network_type=0
learning_momentum=0.000000
training_algorithm=1
train_error_function=1
train_stop_function=0
cascade_output_change_fraction=0.010000
quickprop_decay=-0.000100
quickprop_mu=1.750000
rprop_increase_factor=1.200000
rprop_decrease_factor=0.500000
rprop_delta_min=0.000000
rprop_delta_max=50.000000
rprop_delta_zero=0.100000
cascade_output_stagnation_epochs=12
cascade_candidate_change_fraction=0.010000
cascade_candidate_stagnation_epochs=12
cascade_max_out_epochs=150
cascade_min_out_epochs=50
cascade_max_cand_epochs=150
cascade_min_cand_epochs=50
cascade_num_candidate_groups=2
bit_fail_limit=3.49999994039535522461e-01
cascade_candidate_limit=1.00000000000000000000e+03
cascade_weight_multiplier=4.00000005960464477539e-01
cascade_activation_functions_count=10
cascade_activation_functions=3 5 7 8 10 11 14 15 16 17 
cascade_activation_steepnesses_count=4
cascade_activation_steepnesses=2.50000000000000000000e-01 5.00000000000000000000e-01 7.50000000000000000000e-01 1.00000000000000000000e+00 
layer_sizes=4 11 4 
scale_included=1
scale_mean_in=0.129616 0.055536 0.042974 
scale_deviation_in=0.018328 0.021574 0.016653 
scale_new_min_in=-0.900000 -0.900000 -0.900000 
scale_factor_in=0.900000 0.900000 0.900000 
scale_mean_out=-1.168503 2.537494 -0.706382 
scale_deviation_out=0.150412 0.283150 0.281594 
scale_new_min_out=-0.900000 -0.900000 -0.900000 
scale_factor_out=0.900000 0.900000 0.900000 
neurons (num_inputs, activation_function, activation_steepness)=(0, 0, 0.00000000000000000000e+00) (0, 0, 0.00000000000000000000e+00) (0, 0, 0.00000000000000000000e+00) (0, 0, 0.00000000000000000000e+00) (4, 5, 5.00000000000000000000e-01) (4, 5, 5.00000000000000000000e-01) (4, 5, 5.00000000000000000000e-01) (4, 5, 5.00000000000000000000e-01) (4, 5, 5.00000000000000000000e-01) (4, 5, 5.00000000000000000000e-01) (4, 5, 5.00000000000000000000e-01) (4, 5, 5.00000000000000000000e-01) (4, 5, 5.00000000000000000000e-01) (4, 5, 5.00000000000000000000e-01) (0, 5, 0.00000000000000000000e+00) (11, 5, 5.00000000000000000000e-01) (11, 5, 5.00000000000000000000e-01) (11, 5, 5.00000000000000000000e-01) (0, 5, 0.00000000000000000000e+00) 
connections (connected_to_neuron, weight)=(0, 3.69943261146545410156e-01) (1, 9.97175455093383789062e-01) (2, -5.94681538641452789307e-02) (3, 5.02299666404724121094e-01) (0, -2.45136290788650512695e-01) (1, -1.55498814582824707031e+00) (2, 2.24956929683685302734e-01) (3, 1.18484306335449218750e+00) (0, -3.93986254930496215820e-01) (1, -4.67681050300598144531e-01) (2, -3.35572719573974609375e-01) (3, -6.53973102569580078125e-01) (0, 6.60962104797363281250e-01) (1, -9.18967843055725097656e-01) (2, -8.08644667267799377441e-03) (3, 1.28175616264343261719e+00) (0, 8.64891409873962402344e-01) (1, 1.21367061510682106018e-02) (2, -8.57883989810943603516e-01) (3, -3.94703269004821777344e-01) (0, 2.27588564157485961914e-01) (1, -6.13418459892272949219e-01) (2, -1.36669051647186279297e+00) (3, 5.59771895408630371094e-01) (0, -4.09967787563800811768e-02) (1, 1.59373939037322998047e+00) (2, 3.05057838559150695801e-02) (3, 1.94654226303100585938e+00) (0, -1.30437982082366943359e+00) (1, 4.12010312080383300781e-01) (2, 3.79892401397228240967e-02) (3, 6.51528239250183105469e-01) (0, 1.15938353538513183594e+00) (1, -2.62743264436721801758e-01) (2, -4.05885577201843261719e-02) (3, 6.28659129142761230469e-01) (0, 5.33393561840057373047e-01) (1, -5.16891300678253173828e-01) (2, 6.09613239765167236328e-01) (3, 3.56386542320251464844e-01) (4, 1.77614068984985351562e+00) (5, -2.06893794238567352295e-02) (6, 3.81662584841251373291e-02) (7, -1.92935836315155029297e+00) (8, -4.55070853233337402344e-01) (9, -6.41542077064514160156e-01) (10, 2.21091032028198242188e+00) (11, -2.48254314064979553223e-01) (12, -7.57011175155639648438e-01) (13, -1.74951982498168945312e+00) (14, -2.52295821905136108398e-01) (4, -2.27173757553100585938e+00) (5, 9.05145645141601562500e-01) (6, 1.60623228549957275391e+00) (7, 5.95605194568634033203e-01) (8, -8.48130881786346435547e-01) (9, 3.26561301946640014648e-01) (10, 7.65427231788635253906e-01) (11, 2.02572846412658691406e+00) (12, -1.58110404014587402344e+00) (13, 4.26229715347290039062e-01) (14, -5.68798184394836425781e-01) (4, -2.12242513895034790039e-01) (5, 1.93734848499298095703e+00) (6, 2.68908715248107910156e+00) (7, -4.82902139425277709961e-01) (8, -3.89861553907394409180e-01) (9, 1.72871840000152587891e+00) (10, 1.68772712349891662598e-01) (11, 1.74181473255157470703e+00) (12, -6.53817594051361083984e-01) (13, -1.39677202701568603516e+00) (14, -1.97838261723518371582e-01) 
