FANN_FLO_2.1
num_layers=3
learning_rate=0.100000
connection_rate=1.000000
network_type=0
learning_momentum=0.000000
training_algorithm=1
train_error_function=1
train_stop_function=0
cascade_output_change_fraction=0.010000
quickprop_decay=-0.000100
quickprop_mu=1.750000
rprop_increase_factor=1.200000
rprop_decrease_factor=0.500000
rprop_delta_min=0.000000
rprop_delta_max=50.000000
rprop_delta_zero=0.100000
cascade_output_stagnation_epochs=12
cascade_candidate_change_fraction=0.010000
cascade_candidate_stagnation_epochs=12
cascade_max_out_epochs=150
cascade_min_out_epochs=50
cascade_max_cand_epochs=150
cascade_min_cand_epochs=50
cascade_num_candidate_groups=2
bit_fail_limit=3.49999994039535522461e-01
cascade_candidate_limit=1.00000000000000000000e+03
cascade_weight_multiplier=4.00000005960464477539e-01
cascade_activation_functions_count=10
cascade_activation_functions=3 5 7 8 10 11 14 15 16 17 
cascade_activation_steepnesses_count=4
cascade_activation_steepnesses=2.50000000000000000000e-01 5.00000000000000000000e-01 7.50000000000000000000e-01 1.00000000000000000000e+00 
layer_sizes=4 11 4 
scale_included=1
scale_mean_in=0.058819 0.008621 0.166666 
scale_deviation_in=0.024846 0.019482 0.003240 
scale_new_min_in=-0.900000 -0.900000 -0.900000 
scale_factor_in=0.900000 0.900000 0.900000 
scale_mean_out=-1.401930 2.053840 -2.864950 
scale_deviation_out=0.326811 0.133889 0.210093 
scale_new_min_out=-0.900000 -0.900000 -0.900000 
scale_factor_out=0.900000 0.900000 0.900000 
neurons (num_inputs, activation_function, activation_steepness)=(0, 0, 0.00000000000000000000e+00) (0, 0, 0.00000000000000000000e+00) (0, 0, 0.00000000000000000000e+00) (0, 0, 0.00000000000000000000e+00) (4, 5, 5.00000000000000000000e-01) (4, 5, 5.00000000000000000000e-01) (4, 5, 5.00000000000000000000e-01) (4, 5, 5.00000000000000000000e-01) (4, 5, 5.00000000000000000000e-01) (4, 5, 5.00000000000000000000e-01) (4, 5, 5.00000000000000000000e-01) (4, 5, 5.00000000000000000000e-01) (4, 5, 5.00000000000000000000e-01) (4, 5, 5.00000000000000000000e-01) (0, 5, 0.00000000000000000000e+00) (11, 5, 5.00000000000000000000e-01) (11, 5, 5.00000000000000000000e-01) (11, 5, 5.00000000000000000000e-01) (0, 5, 0.00000000000000000000e+00) 
connections (connected_to_neuron, weight)=(0, -7.30665549635887145996e-02) (1, 3.00207942724227905273e-01) (2, 1.04909801483154296875e+00) (3, 3.44977712631225585938e+00) (0, -1.12664079666137695312e+00) (1, -8.11878871172666549683e-03) (2, 9.10782158374786376953e-01) (3, -5.07331967353820800781e-01) (0, 2.94116139411926269531e+00) (1, -4.21727609634399414062e+00) (2, 1.43105030059814453125e-01) (3, 5.35254096984863281250e+00) (0, -5.88291525840759277344e-01) (1, 6.38686120510101318359e-01) (2, -2.82055348157882690430e-01) (3, -3.10705995559692382812e+00) (0, 2.26160302758216857910e-01) (1, 1.94494605064392089844e+00) (2, -2.17143163084983825684e-01) (3, 2.10884952545166015625e+00) (0, 3.61285734176635742188e+00) (1, -7.09336251020431518555e-02) (2, 1.14818954467773437500e+00) (3, -3.05405998229980468750e+00) (0, -2.22681236267089843750e+00) (1, -1.28450393676757812500e+00) (2, -8.73865783214569091797e-01) (3, -5.14928817749023437500e+00) (0, 3.63368368148803710938e+00) (1, 3.44888520240783691406e+00) (2, -4.42185223102569580078e-01) (3, 1.04973161220550537109e+00) (0, -2.13884091377258300781e+00) (1, -2.41678357124328613281e+00) (2, -6.78523898124694824219e-01) (3, 4.42540407180786132812e+00) (0, 9.16357696056365966797e-01) (1, -1.48895215988159179688e+00) (2, -5.53861677646636962891e-01) (3, 2.00414299964904785156e-01) (4, 2.69402527809143066406e+00) (5, 2.87160277366638183594e+00) (6, -9.14596462249755859375e+00) (7, 9.62535023689270019531e-01) (8, 6.91663980484008789062e+00) (9, -9.23805773258209228516e-01) (10, -2.70130276679992675781e+00) (11, 3.58500391244888305664e-01) (12, -2.04885745048522949219e+00) (13, 2.93572854995727539062e+00) (14, 7.71619975566864013672e-01) (4, 1.49475121498107910156e+00) (5, 4.57760095596313476562e+00) (6, 2.57143378257751464844e-01) (7, -4.80399894714355468750e+00) (8, -7.97093212604522705078e-01) (9, 5.61930036544799804688e+00) (10, 2.29683732986450195312e+00) (11, -4.84117984771728515625e-01) (12, -1.64767348766326904297e+00) (13, -1.73367929458618164062e+00) (14, 2.20816612243652343750e+00) (4, -1.01160228252410888672e+00) (5, 3.97192978858947753906e+00) (6, 3.73372018337249755859e-01) (7, -4.62069511413574218750e+00) (8, -2.21057176589965820312e+00) (9, 7.46610260009765625000e+00) (10, -8.32143402099609375000e+00) (11, 2.22130224108695983887e-01) (12, -3.82188820838928222656e+00) (13, -1.69425666332244873047e+00) (14, -1.91231369972229003906e+00) 
