FANN_FLO_2.1
num_layers=3
learning_rate=0.100000
connection_rate=1.000000
network_type=0
learning_momentum=0.000000
training_algorithm=1
train_error_function=1
train_stop_function=0
cascade_output_change_fraction=0.010000
quickprop_decay=-0.000100
quickprop_mu=1.750000
rprop_increase_factor=1.200000
rprop_decrease_factor=0.500000
rprop_delta_min=0.000000
rprop_delta_max=50.000000
rprop_delta_zero=0.100000
cascade_output_stagnation_epochs=12
cascade_candidate_change_fraction=0.010000
cascade_candidate_stagnation_epochs=12
cascade_max_out_epochs=150
cascade_min_out_epochs=50
cascade_max_cand_epochs=150
cascade_min_cand_epochs=50
cascade_num_candidate_groups=2
bit_fail_limit=3.49999994039535522461e-01
cascade_candidate_limit=1.00000000000000000000e+03
cascade_weight_multiplier=4.00000005960464477539e-01
cascade_activation_functions_count=10
cascade_activation_functions=3 5 7 8 10 11 14 15 16 17 
cascade_activation_steepnesses_count=4
cascade_activation_steepnesses=2.50000000000000000000e-01 5.00000000000000000000e-01 7.50000000000000000000e-01 1.00000000000000000000e+00 
layer_sizes=4 11 4 
scale_included=1
scale_mean_in=0.079973 0.069983 -0.074774 
scale_deviation_in=0.012680 0.015897 0.016222 
scale_new_min_in=-0.900000 -0.900000 -0.900000 
scale_factor_in=0.900000 0.900000 0.900000 
scale_mean_out=-0.855419 1.738587 -0.298173 
scale_deviation_out=0.104659 0.259595 0.165799 
scale_new_min_out=-0.900000 -0.900000 -0.900000 
scale_factor_out=0.900000 0.900000 0.900000 
neurons (num_inputs, activation_function, activation_steepness)=(0, 0, 0.00000000000000000000e+00) (0, 0, 0.00000000000000000000e+00) (0, 0, 0.00000000000000000000e+00) (0, 0, 0.00000000000000000000e+00) (4, 5, 5.00000000000000000000e-01) (4, 5, 5.00000000000000000000e-01) (4, 5, 5.00000000000000000000e-01) (4, 5, 5.00000000000000000000e-01) (4, 5, 5.00000000000000000000e-01) (4, 5, 5.00000000000000000000e-01) (4, 5, 5.00000000000000000000e-01) (4, 5, 5.00000000000000000000e-01) (4, 5, 5.00000000000000000000e-01) (4, 5, 5.00000000000000000000e-01) (0, 5, 0.00000000000000000000e+00) (11, 5, 5.00000000000000000000e-01) (11, 5, 5.00000000000000000000e-01) (11, 5, 5.00000000000000000000e-01) (0, 5, 0.00000000000000000000e+00) 
connections (connected_to_neuron, weight)=(0, 5.65266489982604980469e-01) (1, 5.49328446388244628906e-01) (2, 1.25128114223480224609e+00) (3, 3.17647051811218261719e+00) (0, -9.17819917201995849609e-01) (1, -1.61890551447868347168e-01) (2, 9.19050633907318115234e-01) (3, 4.80048239231109619141e-01) (0, 3.02893114089965820312e+00) (1, -4.43650436401367187500e+00) (2, 6.27998709678649902344e-02) (3, 5.17364501953125000000e+00) (0, 1.16983212530612945557e-01) (1, 1.41493129730224609375e+00) (2, -5.87154150009155273438e-01) (3, -2.81700325012207031250e+00) (0, -7.75797128677368164062e-01) (1, 1.85032606124877929688e+00) (2, -2.08824813365936279297e-01) (3, 1.85853791236877441406e+00) (0, 1.45228493213653564453e+00) (1, -1.55270922183990478516e+00) (2, 9.72427189350128173828e-01) (3, -4.48311185836791992188e+00) (0, -6.45604431629180908203e-01) (1, -3.88517379760742187500e-01) (2, -5.51844537258148193359e-01) (3, -5.79765892028808593750e+00) (0, 3.72650003433227539062e+00) (1, 3.41331768035888671875e+00) (2, -3.96084517240524291992e-01) (3, 9.10508692264556884766e-01) (0, -1.09452092647552490234e+00) (1, -9.78618741035461425781e-01) (2, -1.65559083223342895508e-01) (3, 5.23332166671752929688e+00) (0, 1.54508709907531738281e-01) (1, -1.31481075286865234375e+00) (2, -1.09884774684906005859e+00) (3, -3.45758050680160522461e-01) (4, 2.66156268119812011719e+00) (5, 2.97269678115844726562e+00) (6, -9.22910785675048828125e+00) (7, 1.01842105388641357422e+00) (8, 6.99365806579589843750e+00) (9, -1.05073547363281250000e+00) (10, -2.64486718177795410156e+00) (11, 4.63947772979736328125e-01) (12, -2.04584121704101562500e+00) (13, 2.64192485809326171875e+00) (14, 7.92530834674835205078e-01) (4, 1.94296109676361083984e+00) (5, 4.03360223770141601562e+00) (6, 1.97041094303131103516e-01) (7, -4.81624126434326171875e+00) (8, -7.17280745506286621094e-01) (9, 5.56994390487670898438e+00) (10, 1.98199260234832763672e+00) (11, 7.55838453769683837891e-01) (12, -1.64537239074707031250e+00) (13, -2.34216690063476562500e+00) (14, 2.34075689315795898438e+00) (4, -1.01077151298522949219e+00) (5, 4.63116884231567382812e+00) (6, 7.88334190845489501953e-01) (7, -4.74080419540405273438e+00) (8, -2.25345420837402343750e+00) (9, 7.16194963455200195312e+00) (10, -8.18695354461669921875e+00) (11, -9.19989049434661865234e-01) (12, -3.06129574775695800781e+00) (13, -1.35905945301055908203e+00) (14, -1.99718463420867919922e+00) 
