FANN_FLO_2.1
num_layers=3
learning_rate=0.100000
connection_rate=1.000000
network_type=0
learning_momentum=0.000000
training_algorithm=1
train_error_function=1
train_stop_function=0
cascade_output_change_fraction=0.010000
quickprop_decay=-0.000100
quickprop_mu=1.750000
rprop_increase_factor=1.200000
rprop_decrease_factor=0.500000
rprop_delta_min=0.000000
rprop_delta_max=50.000000
rprop_delta_zero=0.100000
cascade_output_stagnation_epochs=12
cascade_candidate_change_fraction=0.010000
cascade_candidate_stagnation_epochs=12
cascade_max_out_epochs=150
cascade_min_out_epochs=50
cascade_max_cand_epochs=150
cascade_min_cand_epochs=50
cascade_num_candidate_groups=2
bit_fail_limit=3.49999994039535522461e-01
cascade_candidate_limit=1.00000000000000000000e+03
cascade_weight_multiplier=4.00000005960464477539e-01
cascade_activation_functions_count=10
cascade_activation_functions=3 5 7 8 10 11 14 15 16 17 
cascade_activation_steepnesses_count=4
cascade_activation_steepnesses=2.50000000000000000000e-01 5.00000000000000000000e-01 7.50000000000000000000e-01 1.00000000000000000000e+00 
layer_sizes=4 6 4 
scale_included=1
scale_mean_in=0.202335 -0.013178 -0.047141 
scale_deviation_in=0.013866 0.012489 0.009126 
scale_new_min_in=-0.700000 -0.700000 -0.700000 
scale_factor_in=0.700000 0.700000 0.700000 
scale_mean_out=-1.636023 1.178605 -1.615434 
scale_deviation_out=0.062161 0.228080 0.355059 
scale_new_min_out=-0.700000 -0.700000 -0.700000 
scale_factor_out=0.700000 0.700000 0.700000 
neurons (num_inputs, activation_function, activation_steepness)=(0, 0, 0.00000000000000000000e+00) (0, 0, 0.00000000000000000000e+00) (0, 0, 0.00000000000000000000e+00) (0, 0, 0.00000000000000000000e+00) (4, 5, 5.00000000000000000000e-01) (4, 5, 5.00000000000000000000e-01) (4, 5, 5.00000000000000000000e-01) (4, 5, 5.00000000000000000000e-01) (4, 5, 5.00000000000000000000e-01) (0, 5, 0.00000000000000000000e+00) (6, 5, 5.00000000000000000000e-01) (6, 5, 5.00000000000000000000e-01) (6, 5, 5.00000000000000000000e-01) (0, 5, 0.00000000000000000000e+00) 
connections (connected_to_neuron, weight)=(0, -5.47960877418518066406e-01) (1, 4.45661507546901702881e-02) (2, 9.93520542979240417480e-02) (3, 1.43783673644065856934e-01) (0, -7.37247765064239501953e-01) (1, -1.36996424198150634766e+00) (2, 5.53867995738983154297e-01) (3, -1.94802299141883850098e-01) (0, 4.40292835235595703125e-01) (1, 9.22201395034790039062e-01) (2, -8.05777430534362792969e-01) (3, -1.11911237239837646484e-01) (0, -1.07589972019195556641e+00) (1, 5.13532519340515136719e-01) (2, 3.03928732872009277344e-01) (3, -4.41410355269908905029e-02) (0, 1.01606106758117675781e+00) (1, 3.85996550321578979492e-01) (2, 8.29732492566108703613e-02) (3, -1.20750395581126213074e-02) (4, -2.63347417116165161133e-01) (5, -1.32278323173522949219e+00) (6, 2.42739722132682800293e-01) (7, 7.37100660800933837891e-01) (8, -2.46337637305259704590e-01) (9, 6.43830560147762298584e-03) (4, 7.74033308029174804688e-01) (5, 8.45524191856384277344e-01) (6, 6.48012086749076843262e-02) (7, 1.30904257297515869141e+00) (8, -1.90250486135482788086e-01) (9, 1.32467690855264663696e-02) (4, 3.22669446468353271484e-01) (5, -3.93056303262710571289e-01) (6, -2.41461738944053649902e-01) (7, 8.36345076560974121094e-01) (8, -1.28615117073059082031e+00) (9, -7.66200572252273559570e-02) 
