FANN_FLO_2.1
num_layers=3
learning_rate=0.100000
connection_rate=1.000000
network_type=0
learning_momentum=0.000000
training_algorithm=1
train_error_function=1
train_stop_function=0
cascade_output_change_fraction=0.010000
quickprop_decay=-0.000100
quickprop_mu=1.750000
rprop_increase_factor=1.200000
rprop_decrease_factor=0.500000
rprop_delta_min=0.000000
rprop_delta_max=50.000000
rprop_delta_zero=0.100000
cascade_output_stagnation_epochs=12
cascade_candidate_change_fraction=0.010000
cascade_candidate_stagnation_epochs=12
cascade_max_out_epochs=150
cascade_min_out_epochs=50
cascade_max_cand_epochs=150
cascade_min_cand_epochs=50
cascade_num_candidate_groups=2
bit_fail_limit=3.49999994039535522461e-01
cascade_candidate_limit=1.00000000000000000000e+03
cascade_weight_multiplier=4.00000005960464477539e-01
cascade_activation_functions_count=10
cascade_activation_functions=3 5 7 8 10 11 14 15 16 17 
cascade_activation_steepnesses_count=4
cascade_activation_steepnesses=2.50000000000000000000e-01 5.00000000000000000000e-01 7.50000000000000000000e-01 1.00000000000000000000e+00 
layer_sizes=4 6 4 
scale_included=1
scale_mean_in=0.205611 -0.013113 -0.047131 
scale_deviation_in=0.009435 0.012495 0.009122 
scale_new_min_in=-0.700000 -0.700000 -0.700000 
scale_factor_in=0.700000 0.700000 0.700000 
scale_mean_out=-1.634482 1.135979 -1.684817 
scale_deviation_out=0.060793 0.190481 0.291894 
scale_new_min_out=-0.700000 -0.700000 -0.700000 
scale_factor_out=0.700000 0.700000 0.700000 
neurons (num_inputs, activation_function, activation_steepness)=(0, 0, 0.00000000000000000000e+00) (0, 0, 0.00000000000000000000e+00) (0, 0, 0.00000000000000000000e+00) (0, 0, 0.00000000000000000000e+00) (4, 5, 5.00000000000000000000e-01) (4, 5, 5.00000000000000000000e-01) (4, 5, 5.00000000000000000000e-01) (4, 5, 5.00000000000000000000e-01) (4, 5, 5.00000000000000000000e-01) (0, 5, 0.00000000000000000000e+00) (6, 5, 5.00000000000000000000e-01) (6, 5, 5.00000000000000000000e-01) (6, 5, 5.00000000000000000000e-01) (0, 5, 0.00000000000000000000e+00) 
connections (connected_to_neuron, weight)=(0, -1.64244437217712402344e+00) (1, -3.40383082628250122070e-01) (2, 2.83660233020782470703e-01) (3, -3.59056860208511352539e-01) (0, 3.69713664054870605469e-01) (1, 1.06163609027862548828e+00) (2, 7.13202178478240966797e-01) (3, -6.31322681903839111328e-01) (0, -4.71753269433975219727e-01) (1, 4.10252928733825683594e-01) (2, 5.61942815780639648438e-01) (3, 2.05790802836418151855e-01) (0, 2.79004007577896118164e-01) (1, 1.34784817695617675781e+00) (2, 4.59980010986328125000e-01) (3, -8.88184905052185058594e-01) (0, 7.92715325951576232910e-03) (1, 4.32934939861297607422e-01) (2, -2.08688974380493164062e-01) (3, 5.55408239364624023438e-01) (4, -2.30095759034156799316e-01) (5, 9.01381433010101318359e-01) (6, -5.51773607730865478516e-02) (7, 1.40438675880432128906e+00) (8, 9.81932818889617919922e-01) (9, 4.75155353546142578125e-01) (4, 1.31614017486572265625e+00) (5, 5.60301721096038818359e-01) (6, 7.79165863990783691406e-01) (7, -2.91479378938674926758e-01) (8, 5.71298718452453613281e-01) (9, 2.27916501462459564209e-02) (4, 1.27072370052337646484e+00) (5, -2.17670440673828125000e-01) (6, -1.68738305568695068359e-01) (7, 2.61828571557998657227e-01) (8, -5.73385357856750488281e-01) (9, 3.90933126211166381836e-01) 
