FANN_FLO_2.1
num_layers=3
learning_rate=0.100000
connection_rate=1.000000
network_type=0
learning_momentum=0.000000
training_algorithm=1
train_error_function=1
train_stop_function=0
cascade_output_change_fraction=0.010000
quickprop_decay=-0.000100
quickprop_mu=1.750000
rprop_increase_factor=1.200000
rprop_decrease_factor=0.500000
rprop_delta_min=0.000000
rprop_delta_max=50.000000
rprop_delta_zero=0.100000
cascade_output_stagnation_epochs=12
cascade_candidate_change_fraction=0.010000
cascade_candidate_stagnation_epochs=12
cascade_max_out_epochs=150
cascade_min_out_epochs=50
cascade_max_cand_epochs=150
cascade_min_cand_epochs=50
cascade_num_candidate_groups=2
bit_fail_limit=3.49999994039535522461e-01
cascade_candidate_limit=1.00000000000000000000e+03
cascade_weight_multiplier=4.00000005960464477539e-01
cascade_activation_functions_count=10
cascade_activation_functions=3 5 7 8 10 11 14 15 16 17 
cascade_activation_steepnesses_count=4
cascade_activation_steepnesses=2.50000000000000000000e-01 5.00000000000000000000e-01 7.50000000000000000000e-01 1.00000000000000000000e+00 
layer_sizes=4 6 4 
scale_included=1
scale_mean_in=0.202335 -0.013178 -0.047141 
scale_deviation_in=0.013866 0.012489 0.009126 
scale_new_min_in=-0.700000 -0.700000 -0.700000 
scale_factor_in=0.700000 0.700000 0.700000 
scale_mean_out=-1.636023 1.178605 -1.615434 
scale_deviation_out=0.062161 0.228080 0.355059 
scale_new_min_out=-0.700000 -0.700000 -0.700000 
scale_factor_out=0.700000 0.700000 0.700000 
neurons (num_inputs, activation_function, activation_steepness)=(0, 0, 0.00000000000000000000e+00) (0, 0, 0.00000000000000000000e+00) (0, 0, 0.00000000000000000000e+00) (0, 0, 0.00000000000000000000e+00) (4, 5, 5.00000000000000000000e-01) (4, 5, 5.00000000000000000000e-01) (4, 5, 5.00000000000000000000e-01) (4, 5, 5.00000000000000000000e-01) (4, 5, 5.00000000000000000000e-01) (0, 5, 0.00000000000000000000e+00) (6, 5, 5.00000000000000000000e-01) (6, 5, 5.00000000000000000000e-01) (6, 5, 5.00000000000000000000e-01) (0, 5, 0.00000000000000000000e+00) 
connections (connected_to_neuron, weight)=(0, -9.07024461776018142700e-03) (1, 1.14699256420135498047e+00) (2, -2.68050283193588256836e-01) (3, -6.10015928745269775391e-01) (0, 4.43044453859329223633e-02) (1, 2.02924432232975959778e-03) (2, 7.46723532676696777344e-01) (3, -2.13859349489212036133e-01) (0, -1.55094850063323974609e+00) (1, 3.76982629299163818359e-01) (2, 6.13067805767059326172e-01) (3, -5.02587296068668365479e-02) (0, -1.06469893455505371094e+00) (1, 7.13224709033966064453e-01) (2, -2.08481118083000183105e-01) (3, 7.01854109764099121094e-01) (0, -6.70287728309631347656e-01) (1, -9.93909180164337158203e-01) (2, -3.85492265224456787109e-01) (3, -3.07969808578491210938e-01) (4, 8.93655419349670410156e-01) (5, -6.70961499214172363281e-01) (6, -3.77640902996063232422e-01) (7, 1.53346061706542968750e-01) (8, -1.22643792629241943359e+00) (9, 3.83404679596424102783e-02) (4, -4.29356068372726440430e-01) (5, 9.50720191001892089844e-01) (6, 1.13224005699157714844e+00) (7, -4.05940003693103790283e-02) (8, 7.83466637134552001953e-01) (9, 2.15868771076202392578e-01) (4, -2.09588021039962768555e-01) (5, -4.41349446773529052734e-01) (6, 1.37371134757995605469e+00) (7, 9.11664903163909912109e-01) (8, 8.73077809810638427734e-01) (9, -1.03254504501819610596e-01) 
