FANN_FLO_2.1
num_layers=3
learning_rate=0.100000
connection_rate=1.000000
network_type=0
learning_momentum=0.000000
training_algorithm=1
train_error_function=1
train_stop_function=0
cascade_output_change_fraction=0.010000
quickprop_decay=-0.000100
quickprop_mu=1.750000
rprop_increase_factor=1.200000
rprop_decrease_factor=0.500000
rprop_delta_min=0.000000
rprop_delta_max=50.000000
rprop_delta_zero=0.100000
cascade_output_stagnation_epochs=12
cascade_candidate_change_fraction=0.010000
cascade_candidate_stagnation_epochs=12
cascade_max_out_epochs=150
cascade_min_out_epochs=50
cascade_max_cand_epochs=150
cascade_min_cand_epochs=50
cascade_num_candidate_groups=2
bit_fail_limit=3.49999994039535522461e-01
cascade_candidate_limit=1.00000000000000000000e+03
cascade_weight_multiplier=4.00000005960464477539e-01
cascade_activation_functions_count=10
cascade_activation_functions=3 5 7 8 10 11 14 15 16 17 
cascade_activation_steepnesses_count=4
cascade_activation_steepnesses=2.50000000000000000000e-01 5.00000000000000000000e-01 7.50000000000000000000e-01 1.00000000000000000000e+00 
layer_sizes=4 6 4 
scale_included=1
scale_mean_in=0.203047 -0.013158 -0.047138 
scale_deviation_in=0.013111 0.012488 0.009129 
scale_new_min_in=-0.700000 -0.700000 -0.700000 
scale_factor_in=0.700000 0.700000 0.700000 
scale_mean_out=-1.635644 1.169290 -1.630597 
scale_deviation_out=0.061842 0.221269 0.343737 
scale_new_min_out=-0.700000 -0.700000 -0.700000 
scale_factor_out=0.700000 0.700000 0.700000 
neurons (num_inputs, activation_function, activation_steepness)=(0, 0, 0.00000000000000000000e+00) (0, 0, 0.00000000000000000000e+00) (0, 0, 0.00000000000000000000e+00) (0, 0, 0.00000000000000000000e+00) (4, 5, 5.00000000000000000000e-01) (4, 5, 5.00000000000000000000e-01) (4, 5, 5.00000000000000000000e-01) (4, 5, 5.00000000000000000000e-01) (4, 5, 5.00000000000000000000e-01) (0, 5, 0.00000000000000000000e+00) (6, 5, 5.00000000000000000000e-01) (6, 5, 5.00000000000000000000e-01) (6, 5, 5.00000000000000000000e-01) (0, 5, 0.00000000000000000000e+00) 
connections (connected_to_neuron, weight)=(0, 4.27073448896408081055e-01) (1, 1.08043944835662841797e+00) (2, -4.92048561573028564453e-01) (3, 7.82040536403656005859e-01) (0, 1.24514997005462646484e+00) (1, -7.94715821743011474609e-01) (2, -9.11699309945106506348e-02) (3, 3.07735145092010498047e-01) (0, -8.61864209175109863281e-01) (1, -1.00046895444393157959e-01) (2, 3.44368398189544677734e-01) (3, 7.48243570327758789062e-01) (0, -6.94467365741729736328e-01) (1, -6.22576296329498291016e-01) (2, 2.30102241039276123047e-01) (3, -3.52105617523193359375e-01) (0, 3.47631752490997314453e-01) (1, -1.78259044885635375977e-01) (2, -4.11842614412307739258e-01) (3, -7.71231710910797119141e-01) (4, 9.37146842479705810547e-01) (5, -8.43137264251708984375e-01) (6, -2.12579309940338134766e-01) (7, -9.01091635227203369141e-01) (8, -4.98405992984771728516e-01) (9, -4.02997881174087524414e-01) (4, -9.94525194168090820312e-01) (5, -1.39935600757598876953e+00) (6, -2.74989664554595947266e-01) (7, 8.58367383480072021484e-01) (8, -9.86291885375976562500e-01) (9, 4.30211663246154785156e-01) (4, 2.28003829717636108398e-01) (5, -9.31074976921081542969e-01) (6, 1.00111663341522216797e+00) (7, 3.89812916517257690430e-01) (8, 1.03730343282222747803e-01) (9, -1.98334798216819763184e-01) 
