FANN_FLO_2.1
num_layers=3
learning_rate=0.100000
connection_rate=1.000000
network_type=0
learning_momentum=0.000000
training_algorithm=1
train_error_function=1
train_stop_function=0
cascade_output_change_fraction=0.010000
quickprop_decay=-0.000100
quickprop_mu=1.750000
rprop_increase_factor=1.200000
rprop_decrease_factor=0.500000
rprop_delta_min=0.000000
rprop_delta_max=50.000000
rprop_delta_zero=0.100000
cascade_output_stagnation_epochs=12
cascade_candidate_change_fraction=0.010000
cascade_candidate_stagnation_epochs=12
cascade_max_out_epochs=150
cascade_min_out_epochs=50
cascade_max_cand_epochs=150
cascade_min_cand_epochs=50
cascade_num_candidate_groups=2
bit_fail_limit=3.49999994039535522461e-01
cascade_candidate_limit=1.00000000000000000000e+03
cascade_weight_multiplier=4.00000005960464477539e-01
cascade_activation_functions_count=10
cascade_activation_functions=3 5 7 8 10 11 14 15 16 17 
cascade_activation_steepnesses_count=4
cascade_activation_steepnesses=2.50000000000000000000e-01 5.00000000000000000000e-01 7.50000000000000000000e-01 1.00000000000000000000e+00 
layer_sizes=4 6 4 
scale_included=1
scale_mean_in=0.202335 -0.013178 -0.047141 
scale_deviation_in=0.013866 0.012489 0.009126 
scale_new_min_in=-0.700000 -0.700000 -0.700000 
scale_factor_in=0.700000 0.700000 0.700000 
scale_mean_out=-1.636023 1.178605 -1.615434 
scale_deviation_out=0.062161 0.228080 0.355059 
scale_new_min_out=-0.700000 -0.700000 -0.700000 
scale_factor_out=0.700000 0.700000 0.700000 
neurons (num_inputs, activation_function, activation_steepness)=(0, 0, 0.00000000000000000000e+00) (0, 0, 0.00000000000000000000e+00) (0, 0, 0.00000000000000000000e+00) (0, 0, 0.00000000000000000000e+00) (4, 5, 5.00000000000000000000e-01) (4, 5, 5.00000000000000000000e-01) (4, 5, 5.00000000000000000000e-01) (4, 5, 5.00000000000000000000e-01) (4, 5, 5.00000000000000000000e-01) (0, 5, 0.00000000000000000000e+00) (6, 5, 5.00000000000000000000e-01) (6, 5, 5.00000000000000000000e-01) (6, 5, 5.00000000000000000000e-01) (0, 5, 0.00000000000000000000e+00) 
connections (connected_to_neuron, weight)=(0, -3.69753897190093994141e-01) (1, -1.54900562763214111328e+00) (2, 3.68440300226211547852e-01) (3, -3.78170341253280639648e-01) (0, 7.86151766777038574219e-01) (1, -1.29930257797241210938e-01) (2, 6.61332547664642333984e-01) (3, 4.13749665021896362305e-01) (0, 4.95428860187530517578e-01) (1, -1.23454362154006958008e-01) (2, -7.80376255512237548828e-01) (3, 3.60454529523849487305e-01) (0, -1.29376912117004394531e+00) (1, -3.36939573287963867188e-01) (2, 4.93772000074386596680e-01) (3, -2.47376337647438049316e-01) (0, 9.30655539035797119141e-01) (1, -6.36924266815185546875e-01) (2, 5.64516544342041015625e-01) (3, -1.30733406543731689453e+00) (4, -1.58177661895751953125e+00) (5, -6.60001754760742187500e-01) (6, -4.79010999202728271484e-01) (7, -4.71089243888854980469e-01) (8, 3.49345058202743530273e-01) (9, 1.25645548105239868164e-01) (4, 4.11835610866546630859e-01) (5, 3.17676872014999389648e-01) (6, 1.20733328163623809814e-01) (7, 1.39060509204864501953e+00) (8, -9.82356011867523193359e-01) (9, -3.58129382133483886719e-01) (4, -2.73641735315322875977e-01) (5, -1.29630208015441894531e+00) (6, -9.63024616241455078125e-01) (7, 1.02464032173156738281e+00) (8, 2.47043117880821228027e-01) (9, 5.97505152225494384766e-01) 
