FANN_FLO_2.1
num_layers=3
learning_rate=0.100000
connection_rate=1.000000
network_type=0
learning_momentum=0.000000
training_algorithm=1
train_error_function=1
train_stop_function=0
cascade_output_change_fraction=0.010000
quickprop_decay=-0.000100
quickprop_mu=1.750000
rprop_increase_factor=1.200000
rprop_decrease_factor=0.500000
rprop_delta_min=0.000000
rprop_delta_max=50.000000
rprop_delta_zero=0.100000
cascade_output_stagnation_epochs=12
cascade_candidate_change_fraction=0.010000
cascade_candidate_stagnation_epochs=12
cascade_max_out_epochs=150
cascade_min_out_epochs=50
cascade_max_cand_epochs=150
cascade_min_cand_epochs=50
cascade_num_candidate_groups=2
bit_fail_limit=3.49999994039535522461e-01
cascade_candidate_limit=1.00000000000000000000e+03
cascade_weight_multiplier=4.00000005960464477539e-01
cascade_activation_functions_count=10
cascade_activation_functions=3 5 7 8 10 11 14 15 16 17 
cascade_activation_steepnesses_count=4
cascade_activation_steepnesses=2.50000000000000000000e-01 5.00000000000000000000e-01 7.50000000000000000000e-01 1.00000000000000000000e+00 
layer_sizes=4 6 4 
scale_included=1
scale_mean_in=0.202335 -0.013178 -0.047141 
scale_deviation_in=0.013866 0.012489 0.009126 
scale_new_min_in=-0.700000 -0.700000 -0.700000 
scale_factor_in=0.700000 0.700000 0.700000 
scale_mean_out=-1.636023 1.178605 -1.615434 
scale_deviation_out=0.062161 0.228080 0.355059 
scale_new_min_out=-0.700000 -0.700000 -0.700000 
scale_factor_out=0.700000 0.700000 0.700000 
neurons (num_inputs, activation_function, activation_steepness)=(0, 0, 0.00000000000000000000e+00) (0, 0, 0.00000000000000000000e+00) (0, 0, 0.00000000000000000000e+00) (0, 0, 0.00000000000000000000e+00) (4, 5, 5.00000000000000000000e-01) (4, 5, 5.00000000000000000000e-01) (4, 5, 5.00000000000000000000e-01) (4, 5, 5.00000000000000000000e-01) (4, 5, 5.00000000000000000000e-01) (0, 5, 0.00000000000000000000e+00) (6, 5, 5.00000000000000000000e-01) (6, 5, 5.00000000000000000000e-01) (6, 5, 5.00000000000000000000e-01) (0, 5, 0.00000000000000000000e+00) 
connections (connected_to_neuron, weight)=(0, -7.06488490104675292969e-01) (1, -8.56137037277221679688e-01) (2, 2.21519783139228820801e-01) (3, -2.43518471717834472656e-01) (0, 5.73928236961364746094e-01) (1, 5.50294041633605957031e-01) (2, -2.90014743804931640625e-01) (3, -2.30697527527809143066e-01) (0, -1.25575625896453857422e+00) (1, 1.97859719395637512207e-01) (2, 8.30942511558532714844e-01) (3, 3.09781730175018310547e-01) (0, -4.50863651931285858154e-02) (1, -6.26474678516387939453e-01) (2, -6.05663657188415527344e-01) (3, -5.83148539066314697266e-01) (0, 4.34376537799835205078e-01) (1, -7.24359035491943359375e-01) (2, 7.77345836162567138672e-01) (3, -5.24974167346954345703e-01) (4, -1.09607052803039550781e+00) (5, 5.72122812271118164062e-01) (6, 9.40272212028503417969e-01) (7, -3.63825410604476928711e-01) (8, -1.08306050300598144531e+00) (9, -5.22249996662139892578e-01) (4, 1.07838153839111328125e+00) (5, -2.03881189227104187012e-01) (6, 1.28218293190002441406e+00) (7, -6.16062760353088378906e-01) (8, -8.24177145957946777344e-01) (9, -4.02414649724960327148e-01) (4, 1.38985604047775268555e-01) (5, -3.34542185068130493164e-01) (6, 1.16604781150817871094e+00) (7, -3.96726608276367187500e-01) (8, -6.35254383087158203125e-01) (9, -4.31070923805236816406e-01) 
