FANN_FLO_2.1
num_layers=3
learning_rate=0.100000
connection_rate=1.000000
network_type=0
learning_momentum=0.000000
training_algorithm=1
train_error_function=1
train_stop_function=0
cascade_output_change_fraction=0.010000
quickprop_decay=-0.000100
quickprop_mu=1.750000
rprop_increase_factor=1.200000
rprop_decrease_factor=0.500000
rprop_delta_min=0.000000
rprop_delta_max=50.000000
rprop_delta_zero=0.100000
cascade_output_stagnation_epochs=12
cascade_candidate_change_fraction=0.010000
cascade_candidate_stagnation_epochs=12
cascade_max_out_epochs=150
cascade_min_out_epochs=50
cascade_max_cand_epochs=150
cascade_min_cand_epochs=50
cascade_num_candidate_groups=2
bit_fail_limit=3.49999994039535522461e-01
cascade_candidate_limit=1.00000000000000000000e+03
cascade_weight_multiplier=4.00000005960464477539e-01
cascade_activation_functions_count=10
cascade_activation_functions=3 5 7 8 10 11 14 15 16 17 
cascade_activation_steepnesses_count=4
cascade_activation_steepnesses=2.50000000000000000000e-01 5.00000000000000000000e-01 7.50000000000000000000e-01 1.00000000000000000000e+00 
layer_sizes=4 6 4 
scale_included=1
scale_mean_in=0.205609 -0.013104 -0.047127 
scale_deviation_in=0.009431 0.012493 0.009116 
scale_new_min_in=-0.700000 -0.700000 -0.700000 
scale_factor_in=0.700000 0.700000 0.700000 
scale_mean_out=-1.634444 1.136098 -1.684653 
scale_deviation_out=0.060789 0.190278 0.291707 
scale_new_min_out=-0.700000 -0.700000 -0.700000 
scale_factor_out=0.700000 0.700000 0.700000 
neurons (num_inputs, activation_function, activation_steepness)=(0, 0, 0.00000000000000000000e+00) (0, 0, 0.00000000000000000000e+00) (0, 0, 0.00000000000000000000e+00) (0, 0, 0.00000000000000000000e+00) (4, 5, 5.00000000000000000000e-01) (4, 5, 5.00000000000000000000e-01) (4, 5, 5.00000000000000000000e-01) (4, 5, 5.00000000000000000000e-01) (4, 5, 5.00000000000000000000e-01) (0, 5, 0.00000000000000000000e+00) (6, 5, 5.00000000000000000000e-01) (6, 5, 5.00000000000000000000e-01) (6, 5, 5.00000000000000000000e-01) (0, 5, 0.00000000000000000000e+00) 
connections (connected_to_neuron, weight)=(0, 8.56558740139007568359e-01) (1, -2.39873021841049194336e-01) (2, -5.63161492347717285156e-01) (3, -1.83736026287078857422e-01) (0, 2.87816137075424194336e-01) (1, 2.66519695520401000977e-01) (2, 5.32334685325622558594e-01) (3, -1.34425833821296691895e-01) (0, 1.07926690578460693359e+00) (1, -3.07463228702545166016e-01) (2, -7.29723334312438964844e-01) (3, 5.62938749790191650391e-01) (0, -1.04744672775268554688e+00) (1, -8.59964430332183837891e-01) (2, 3.04984986782073974609e-01) (3, -9.77194607257843017578e-02) (0, -9.05233800411224365234e-01) (1, -6.85230970382690429688e-01) (2, -4.91111092269420623779e-02) (3, 2.58832067251205444336e-01) (4, 2.67616301774978637695e-01) (5, -2.29091811925172805786e-02) (6, -7.31422841548919677734e-01) (7, -1.02413022518157958984e+00) (8, -8.56806755065917968750e-01) (9, 2.51462221145629882812e-01) (4, -3.87711793184280395508e-01) (5, 3.31559926271438598633e-01) (6, -1.27802205085754394531e+00) (7, 1.08660542964935302734e+00) (8, 5.89393615722656250000e-01) (9, 2.95100122690200805664e-01) (4, -1.21463382244110107422e+00) (5, -5.93692541122436523438e-01) (6, -1.86858519911766052246e-01) (7, 5.97722172737121582031e-01) (8, 9.83565568923950195312e-01) (9, -1.86210498213768005371e-01) 
