FANN_FLO_2.1
num_layers=3
learning_rate=0.100000
connection_rate=1.000000
network_type=0
learning_momentum=0.000000
training_algorithm=1
train_error_function=1
train_stop_function=0
cascade_output_change_fraction=0.010000
quickprop_decay=-0.000100
quickprop_mu=1.750000
rprop_increase_factor=1.200000
rprop_decrease_factor=0.500000
rprop_delta_min=0.000000
rprop_delta_max=50.000000
rprop_delta_zero=0.100000
cascade_output_stagnation_epochs=12
cascade_candidate_change_fraction=0.010000
cascade_candidate_stagnation_epochs=12
cascade_max_out_epochs=150
cascade_min_out_epochs=50
cascade_max_cand_epochs=150
cascade_min_cand_epochs=50
cascade_num_candidate_groups=2
bit_fail_limit=3.49999994039535522461e-01
cascade_candidate_limit=1.00000000000000000000e+03
cascade_weight_multiplier=4.00000005960464477539e-01
cascade_activation_functions_count=10
cascade_activation_functions=3 5 7 8 10 11 14 15 16 17 
cascade_activation_steepnesses_count=4
cascade_activation_steepnesses=2.50000000000000000000e-01 5.00000000000000000000e-01 7.50000000000000000000e-01 1.00000000000000000000e+00 
layer_sizes=4 6 4 
scale_included=1
scale_mean_in=0.205635 -0.013053 -0.047101 
scale_deviation_in=0.009402 0.012509 0.009096 
scale_new_min_in=-0.700000 -0.700000 -0.700000 
scale_factor_in=0.700000 0.700000 0.700000 
scale_mean_out=-1.634167 1.136039 -1.684965 
scale_deviation_out=0.060815 0.189388 0.291094 
scale_new_min_out=-0.700000 -0.700000 -0.700000 
scale_factor_out=0.700000 0.700000 0.700000 
neurons (num_inputs, activation_function, activation_steepness)=(0, 0, 0.00000000000000000000e+00) (0, 0, 0.00000000000000000000e+00) (0, 0, 0.00000000000000000000e+00) (0, 0, 0.00000000000000000000e+00) (4, 5, 5.00000000000000000000e-01) (4, 5, 5.00000000000000000000e-01) (4, 5, 5.00000000000000000000e-01) (4, 5, 5.00000000000000000000e-01) (4, 5, 5.00000000000000000000e-01) (0, 5, 0.00000000000000000000e+00) (6, 5, 5.00000000000000000000e-01) (6, 5, 5.00000000000000000000e-01) (6, 5, 5.00000000000000000000e-01) (0, 5, 0.00000000000000000000e+00) 
connections (connected_to_neuron, weight)=(0, 1.14201903343200683594e+00) (1, 4.51307743787765502930e-02) (2, -6.11826479434967041016e-01) (3, 5.35063184797763824463e-02) (0, 1.20921492576599121094e+00) (1, -1.92993268370628356934e-01) (2, 1.87190935015678405762e-01) (3, 4.69428330659866333008e-01) (0, 1.31011176109313964844e+00) (1, -2.07058303058147430420e-02) (2, 3.47635954618453979492e-01) (3, 3.91547218896448612213e-04) (0, 4.87650260329246520996e-02) (1, -3.42692941427230834961e-01) (2, -7.92863965034484863281e-01) (3, 8.53722393512725830078e-01) (0, -6.43827855587005615234e-01) (1, 1.40624308586120605469e+00) (2, -1.34385555982589721680e-01) (3, -3.24612885713577270508e-01) (4, 3.46513003110885620117e-01) (5, 4.04320180416107177734e-01) (6, -3.87232713401317596436e-02) (7, -1.84727922081947326660e-01) (8, 1.29509282112121582031e+00) (9, 1.04501664638519287109e-01) (4, -1.34015107154846191406e+00) (5, -2.77076482772827148438e-01) (6, -3.05907726287841796875e-01) (7, 5.10871335864067077637e-02) (8, 6.36241078376770019531e-01) (9, 1.31286919116973876953e-01) (4, 3.03385220468044281006e-02) (5, -1.23690581321716308594e+00) (6, -1.16314983367919921875e+00) (7, -3.18428948521614074707e-02) (8, 3.01421880722045898438e-02) (9, 2.61965364217758178711e-01) 
