FANN_FLO_2.1
num_layers=3
learning_rate=0.100000
connection_rate=1.000000
network_type=0
learning_momentum=0.000000
training_algorithm=1
train_error_function=1
train_stop_function=0
cascade_output_change_fraction=0.010000
quickprop_decay=-0.000100
quickprop_mu=1.750000
rprop_increase_factor=1.200000
rprop_decrease_factor=0.500000
rprop_delta_min=0.000000
rprop_delta_max=50.000000
rprop_delta_zero=0.100000
cascade_output_stagnation_epochs=12
cascade_candidate_change_fraction=0.010000
cascade_candidate_stagnation_epochs=12
cascade_max_out_epochs=150
cascade_min_out_epochs=50
cascade_max_cand_epochs=150
cascade_min_cand_epochs=50
cascade_num_candidate_groups=2
bit_fail_limit=3.49999994039535522461e-01
cascade_candidate_limit=1.00000000000000000000e+03
cascade_weight_multiplier=4.00000005960464477539e-01
cascade_activation_functions_count=10
cascade_activation_functions=3 5 7 8 10 11 14 15 16 17 
cascade_activation_steepnesses_count=4
cascade_activation_steepnesses=2.50000000000000000000e-01 5.00000000000000000000e-01 7.50000000000000000000e-01 1.00000000000000000000e+00 
layer_sizes=4 6 4 
scale_included=1
scale_mean_in=0.205607 -0.013108 -0.047099 
scale_deviation_in=0.009423 0.012520 0.009122 
scale_new_min_in=-0.700000 -0.700000 -0.700000 
scale_factor_in=0.700000 0.700000 0.700000 
scale_mean_out=-1.634467 1.136360 -1.684494 
scale_deviation_out=0.060920 0.190164 0.291606 
scale_new_min_out=-0.700000 -0.700000 -0.700000 
scale_factor_out=0.700000 0.700000 0.700000 
neurons (num_inputs, activation_function, activation_steepness)=(0, 0, 0.00000000000000000000e+00) (0, 0, 0.00000000000000000000e+00) (0, 0, 0.00000000000000000000e+00) (0, 0, 0.00000000000000000000e+00) (4, 5, 5.00000000000000000000e-01) (4, 5, 5.00000000000000000000e-01) (4, 5, 5.00000000000000000000e-01) (4, 5, 5.00000000000000000000e-01) (4, 5, 5.00000000000000000000e-01) (0, 5, 0.00000000000000000000e+00) (6, 5, 5.00000000000000000000e-01) (6, 5, 5.00000000000000000000e-01) (6, 5, 5.00000000000000000000e-01) (0, 5, 0.00000000000000000000e+00) 
connections (connected_to_neuron, weight)=(0, -1.01823306083679199219e+00) (1, 5.51784873008728027344e-01) (2, 7.59754836559295654297e-01) (3, -2.10464254021644592285e-01) (0, 8.45084249973297119141e-01) (1, 5.23339271545410156250e-01) (2, 4.68515068292617797852e-01) (3, 8.23114156723022460938e-01) (0, 8.86807441711425781250e-01) (1, 1.23946404457092285156e+00) (2, -3.73120486736297607422e-01) (3, 4.96216326951980590820e-01) (0, -1.85707300901412963867e-01) (1, -1.10099792480468750000e+00) (2, 3.14138352870941162109e-01) (3, -4.12862300872802734375e-01) (0, 1.28912973403930664062e+00) (1, 5.63219487667083740234e-01) (2, 1.80256068706512451172e-01) (3, -6.84244036674499511719e-01) (4, -3.91716986894607543945e-01) (5, 5.45273125171661376953e-01) (6, 1.13792157173156738281e+00) (7, -1.23168647289276123047e+00) (8, -3.64731371402740478516e-01) (9, -7.55251228809356689453e-01) (4, 1.32154655456542968750e+00) (5, -1.10530471801757812500e+00) (6, -5.64238838851451873779e-02) (7, 8.76595377922058105469e-01) (8, -2.27374564856290817261e-02) (9, 7.10198521614074707031e-01) (4, 8.84754180908203125000e-01) (5, -5.87255805730819702148e-02) (6, -4.91876482963562011719e-01) (7, -1.49851560592651367188e-01) (8, -1.07247102260589599609e+00) (9, -1.61731824278831481934e-01) 
