FANN_FLO_2.1
num_layers=3
learning_rate=0.100000
connection_rate=1.000000
network_type=0
learning_momentum=0.000000
training_algorithm=1
train_error_function=1
train_stop_function=0
cascade_output_change_fraction=0.010000
quickprop_decay=-0.000100
quickprop_mu=1.750000
rprop_increase_factor=1.200000
rprop_decrease_factor=0.500000
rprop_delta_min=0.000000
rprop_delta_max=50.000000
rprop_delta_zero=0.100000
cascade_output_stagnation_epochs=12
cascade_candidate_change_fraction=0.010000
cascade_candidate_stagnation_epochs=12
cascade_max_out_epochs=150
cascade_min_out_epochs=50
cascade_max_cand_epochs=150
cascade_min_cand_epochs=50
cascade_num_candidate_groups=2
bit_fail_limit=3.49999994039535522461e-01
cascade_candidate_limit=1.00000000000000000000e+03
cascade_weight_multiplier=4.00000005960464477539e-01
cascade_activation_functions_count=10
cascade_activation_functions=3 5 7 8 10 11 14 15 16 17 
cascade_activation_steepnesses_count=4
cascade_activation_steepnesses=2.50000000000000000000e-01 5.00000000000000000000e-01 7.50000000000000000000e-01 1.00000000000000000000e+00 
layer_sizes=4 6 4 
scale_included=1
scale_mean_in=0.202335 -0.013178 -0.047141 
scale_deviation_in=0.013866 0.012489 0.009126 
scale_new_min_in=-0.700000 -0.700000 -0.700000 
scale_factor_in=0.700000 0.700000 0.700000 
scale_mean_out=-1.636023 1.178605 -1.615434 
scale_deviation_out=0.062161 0.228080 0.355059 
scale_new_min_out=-0.700000 -0.700000 -0.700000 
scale_factor_out=0.700000 0.700000 0.700000 
neurons (num_inputs, activation_function, activation_steepness)=(0, 0, 0.00000000000000000000e+00) (0, 0, 0.00000000000000000000e+00) (0, 0, 0.00000000000000000000e+00) (0, 0, 0.00000000000000000000e+00) (4, 5, 5.00000000000000000000e-01) (4, 5, 5.00000000000000000000e-01) (4, 5, 5.00000000000000000000e-01) (4, 5, 5.00000000000000000000e-01) (4, 5, 5.00000000000000000000e-01) (0, 5, 0.00000000000000000000e+00) (6, 5, 5.00000000000000000000e-01) (6, 5, 5.00000000000000000000e-01) (6, 5, 5.00000000000000000000e-01) (0, 5, 0.00000000000000000000e+00) 
connections (connected_to_neuron, weight)=(0, 3.21456223726272583008e-01) (1, -4.35986295342445373535e-02) (2, -7.04257130622863769531e-01) (3, 6.34779632091522216797e-01) (0, -6.47696614265441894531e-01) (1, -6.95686399936676025391e-01) (2, -1.73239931464195251465e-01) (3, 6.93793654441833496094e-01) (0, 5.67579388618469238281e-01) (1, 1.18301308155059814453e+00) (2, -2.17970103025436401367e-01) (3, 4.21382635831832885742e-01) (0, 6.31608009338378906250e-01) (1, -1.70677930116653442383e-01) (2, 4.43787157535552978516e-01) (3, -5.59781529009342193604e-02) (0, -1.54214215278625488281e+00) (1, 4.34823423624038696289e-01) (2, 3.12275707721710205078e-01) (3, -1.21212422847747802734e-01) (4, 1.85978651046752929688e-01) (5, -9.96319055557250976562e-02) (6, 1.36445188522338867188e+00) (7, -1.91033948212862014771e-02) (8, 3.46254914999008178711e-01) (9, -2.72035270929336547852e-01) (4, -8.96686673164367675781e-01) (5, 1.39720082283020019531e-01) (6, -1.41057565808296203613e-01) (7, -5.09481690824031829834e-02) (8, 1.15432715415954589844e+00) (9, 3.15643787384033203125e-01) (4, -8.42825174331665039062e-01) (5, 6.19195878505706787109e-01) (6, -3.90118181705474853516e-01) (7, -6.21912062168121337891e-01) (8, 1.30138254165649414062e+00) (9, 2.17978939414024353027e-01) 
