FANN_FLO_2.1
num_layers=3
learning_rate=0.100000
connection_rate=1.000000
network_type=0
learning_momentum=0.000000
training_algorithm=1
train_error_function=1
train_stop_function=0
cascade_output_change_fraction=0.010000
quickprop_decay=-0.000100
quickprop_mu=1.750000
rprop_increase_factor=1.200000
rprop_decrease_factor=0.500000
rprop_delta_min=0.000000
rprop_delta_max=50.000000
rprop_delta_zero=0.100000
cascade_output_stagnation_epochs=12
cascade_candidate_change_fraction=0.010000
cascade_candidate_stagnation_epochs=12
cascade_max_out_epochs=150
cascade_min_out_epochs=50
cascade_max_cand_epochs=150
cascade_min_cand_epochs=50
cascade_num_candidate_groups=2
bit_fail_limit=3.49999994039535522461e-01
cascade_candidate_limit=1.00000000000000000000e+03
cascade_weight_multiplier=4.00000005960464477539e-01
cascade_activation_functions_count=10
cascade_activation_functions=3 5 7 8 10 11 14 15 16 17 
cascade_activation_steepnesses_count=4
cascade_activation_steepnesses=2.50000000000000000000e-01 5.00000000000000000000e-01 7.50000000000000000000e-01 1.00000000000000000000e+00 
layer_sizes=4 6 4 
scale_included=1
scale_mean_in=0.202335 -0.013178 -0.047141 
scale_deviation_in=0.013866 0.012489 0.009126 
scale_new_min_in=-0.700000 -0.700000 -0.700000 
scale_factor_in=0.700000 0.700000 0.700000 
scale_mean_out=-1.636023 1.178605 -1.615434 
scale_deviation_out=0.062161 0.228080 0.355059 
scale_new_min_out=-0.700000 -0.700000 -0.700000 
scale_factor_out=0.700000 0.700000 0.700000 
neurons (num_inputs, activation_function, activation_steepness)=(0, 0, 0.00000000000000000000e+00) (0, 0, 0.00000000000000000000e+00) (0, 0, 0.00000000000000000000e+00) (0, 0, 0.00000000000000000000e+00) (4, 5, 5.00000000000000000000e-01) (4, 5, 5.00000000000000000000e-01) (4, 5, 5.00000000000000000000e-01) (4, 5, 5.00000000000000000000e-01) (4, 5, 5.00000000000000000000e-01) (0, 5, 0.00000000000000000000e+00) (6, 5, 5.00000000000000000000e-01) (6, 5, 5.00000000000000000000e-01) (6, 5, 5.00000000000000000000e-01) (0, 5, 0.00000000000000000000e+00) 
connections (connected_to_neuron, weight)=(0, 1.39673817157745361328e+00) (1, -5.38367033004760742188e-01) (2, 5.27495682239532470703e-01) (3, -9.23153936862945556641e-01) (0, -8.46799433231353759766e-01) (1, -9.72933769226074218750e-01) (2, 4.48186576366424560547e-01) (3, -7.22775399684906005859e-01) (0, 4.59759503602981567383e-01) (1, -6.57814502716064453125e-01) (2, -7.15914964675903320312e-01) (3, 2.11083769798278808594e-01) (0, -1.35222387313842773438e+00) (1, 7.19632446765899658203e-01) (2, 7.40521848201751708984e-02) (3, -1.09629578888416290283e-01) (0, 4.88807559013366699219e-01) (1, -1.12627208232879638672e+00) (2, 5.89469969272613525391e-02) (3, 5.03458529710769653320e-02) (4, 5.66833913326263427734e-02) (5, -3.39393734931945800781e-01) (6, -3.86103391647338867188e-01) (7, 4.08644229173660278320e-01) (8, -1.03047120571136474609e+00) (9, 6.58572837710380554199e-02) (4, -1.42167091369628906250e+00) (5, 4.84788954257965087891e-01) (6, -9.53724682331085205078e-01) (7, 5.68722486495971679688e-01) (8, 5.17217218875885009766e-01) (9, -2.99265533685684204102e-01) (4, -8.87927412986755371094e-02) (5, 1.34852921962738037109e+00) (6, -5.69069743156433105469e-01) (7, 1.15975904464721679688e+00) (8, -9.19073641300201416016e-01) (9, 5.44597327709197998047e-01) 
