FANN_FLO_2.1
num_layers=3
learning_rate=0.100000
connection_rate=1.000000
network_type=0
learning_momentum=0.000000
training_algorithm=1
train_error_function=1
train_stop_function=0
cascade_output_change_fraction=0.010000
quickprop_decay=-0.000100
quickprop_mu=1.750000
rprop_increase_factor=1.200000
rprop_decrease_factor=0.500000
rprop_delta_min=0.000000
rprop_delta_max=50.000000
rprop_delta_zero=0.100000
cascade_output_stagnation_epochs=12
cascade_candidate_change_fraction=0.010000
cascade_candidate_stagnation_epochs=12
cascade_max_out_epochs=150
cascade_min_out_epochs=50
cascade_max_cand_epochs=150
cascade_min_cand_epochs=50
cascade_num_candidate_groups=2
bit_fail_limit=3.49999994039535522461e-01
cascade_candidate_limit=1.00000000000000000000e+03
cascade_weight_multiplier=4.00000005960464477539e-01
cascade_activation_functions_count=10
cascade_activation_functions=3 5 7 8 10 11 14 15 16 17 
cascade_activation_steepnesses_count=4
cascade_activation_steepnesses=2.50000000000000000000e-01 5.00000000000000000000e-01 7.50000000000000000000e-01 1.00000000000000000000e+00 
layer_sizes=4 6 4 
scale_included=1
scale_mean_in=0.202335 -0.013178 -0.047141 
scale_deviation_in=0.013866 0.012489 0.009126 
scale_new_min_in=-0.700000 -0.700000 -0.700000 
scale_factor_in=0.700000 0.700000 0.700000 
scale_mean_out=-1.636023 1.178605 -1.615434 
scale_deviation_out=0.062161 0.228080 0.355059 
scale_new_min_out=-0.700000 -0.700000 -0.700000 
scale_factor_out=0.700000 0.700000 0.700000 
neurons (num_inputs, activation_function, activation_steepness)=(0, 0, 0.00000000000000000000e+00) (0, 0, 0.00000000000000000000e+00) (0, 0, 0.00000000000000000000e+00) (0, 0, 0.00000000000000000000e+00) (4, 5, 5.00000000000000000000e-01) (4, 5, 5.00000000000000000000e-01) (4, 5, 5.00000000000000000000e-01) (4, 5, 5.00000000000000000000e-01) (4, 5, 5.00000000000000000000e-01) (0, 5, 0.00000000000000000000e+00) (6, 5, 5.00000000000000000000e-01) (6, 5, 5.00000000000000000000e-01) (6, 5, 5.00000000000000000000e-01) (0, 5, 0.00000000000000000000e+00) 
connections (connected_to_neuron, weight)=(0, -9.94851291179656982422e-01) (1, 8.57794806361198425293e-02) (2, 1.10477328300476074219e+00) (3, 2.11541354656219482422e-01) (0, 1.15719461441040039062e+00) (1, 1.44678771495819091797e-01) (2, 3.63690167665481567383e-01) (3, 1.73251181840896606445e-02) (0, -6.31839334964752197266e-01) (1, -4.98810946941375732422e-01) (2, -5.16863822937011718750e-01) (3, -3.18535387516021728516e-01) (0, 1.50521352887153625488e-01) (1, -8.88744533061981201172e-01) (2, 3.94376307725906372070e-01) (3, 5.01229763031005859375e-01) (0, -3.82814526557922363281e-01) (1, 6.06317758560180664062e-01) (2, -7.64269232749938964844e-01) (3, -3.15945357084274291992e-01) (4, -2.69344925880432128906e-01) (5, 8.09930264949798583984e-01) (6, -7.61793613433837890625e-01) (7, -1.14270257949829101562e+00) (8, 8.25497090816497802734e-01) (9, 2.86146968603134155273e-01) (4, 1.19195234775543212891e+00) (5, -8.88590335845947265625e-01) (6, 8.08613657951354980469e-01) (7, -4.11024451255798339844e-01) (8, -7.01972246170043945312e-01) (9, -4.13468107581138610840e-03) (4, 9.34847414493560791016e-01) (5, -1.24359607696533203125e+00) (6, 9.52772855758666992188e-01) (7, -1.25370964407920837402e-01) (8, 1.06684535741806030273e-01) (9, 1.59393668174743652344e-01) 
