FANN_FLO_2.1
num_layers=3
learning_rate=0.100000
connection_rate=1.000000
network_type=0
learning_momentum=0.000000
training_algorithm=1
train_error_function=1
train_stop_function=0
cascade_output_change_fraction=0.010000
quickprop_decay=-0.000100
quickprop_mu=1.750000
rprop_increase_factor=1.200000
rprop_decrease_factor=0.500000
rprop_delta_min=0.000000
rprop_delta_max=50.000000
rprop_delta_zero=0.100000
cascade_output_stagnation_epochs=12
cascade_candidate_change_fraction=0.010000
cascade_candidate_stagnation_epochs=12
cascade_max_out_epochs=150
cascade_min_out_epochs=50
cascade_max_cand_epochs=150
cascade_min_cand_epochs=50
cascade_num_candidate_groups=2
bit_fail_limit=3.49999994039535522461e-01
cascade_candidate_limit=1.00000000000000000000e+03
cascade_weight_multiplier=4.00000005960464477539e-01
cascade_activation_functions_count=10
cascade_activation_functions=3 5 7 8 10 11 14 15 16 17 
cascade_activation_steepnesses_count=4
cascade_activation_steepnesses=2.50000000000000000000e-01 5.00000000000000000000e-01 7.50000000000000000000e-01 1.00000000000000000000e+00 
layer_sizes=4 6 4 
scale_included=1
scale_mean_in=0.202335 -0.013178 -0.047141 
scale_deviation_in=0.013866 0.012489 0.009126 
scale_new_min_in=-0.700000 -0.700000 -0.700000 
scale_factor_in=0.700000 0.700000 0.700000 
scale_mean_out=-1.636023 1.178605 -1.615434 
scale_deviation_out=0.062161 0.228080 0.355059 
scale_new_min_out=-0.700000 -0.700000 -0.700000 
scale_factor_out=0.700000 0.700000 0.700000 
neurons (num_inputs, activation_function, activation_steepness)=(0, 0, 0.00000000000000000000e+00) (0, 0, 0.00000000000000000000e+00) (0, 0, 0.00000000000000000000e+00) (0, 0, 0.00000000000000000000e+00) (4, 5, 5.00000000000000000000e-01) (4, 5, 5.00000000000000000000e-01) (4, 5, 5.00000000000000000000e-01) (4, 5, 5.00000000000000000000e-01) (4, 5, 5.00000000000000000000e-01) (0, 5, 0.00000000000000000000e+00) (6, 5, 5.00000000000000000000e-01) (6, 5, 5.00000000000000000000e-01) (6, 5, 5.00000000000000000000e-01) (0, 5, 0.00000000000000000000e+00) 
connections (connected_to_neuron, weight)=(0, 2.13611349463462829590e-01) (1, 1.11722064018249511719e+00) (2, 8.49939405918121337891e-01) (3, 2.11371153593063354492e-01) (0, -8.74839007854461669922e-01) (1, -5.24733923375606536865e-02) (2, -3.39487552642822265625e-01) (3, 6.74246609210968017578e-01) (0, -4.92452263832092285156e-01) (1, 1.43059253692626953125e-01) (2, -9.97446715831756591797e-01) (3, -8.38778376579284667969e-01) (0, 1.33570778369903564453e+00) (1, -1.33786931633949279785e-01) (2, -7.79146313667297363281e-01) (3, -2.80874162912368774414e-01) (0, 9.84817385673522949219e-01) (1, -9.20636057853698730469e-01) (2, 4.06242966651916503906e-01) (3, -5.51878809928894042969e-01) (4, 1.24212253093719482422e+00) (5, 3.57129663228988647461e-01) (6, 2.29541789740324020386e-02) (7, 2.79424130916595458984e-01) (8, -1.10754275321960449219e+00) (9, -4.29423272609710693359e-01) (4, -5.20308434963226318359e-01) (5, 1.73060104250907897949e-01) (6, -4.32076215744018554688e-01) (7, -1.59452641010284423828e+00) (8, -3.62417697906494140625e-01) (9, -3.75638723373413085938e-01) (4, 6.36758327484130859375e-01) (5, 7.51291811466217041016e-01) (6, 8.64656269550323486328e-01) (7, -1.21356868743896484375e+00) (8, -9.74587857723236083984e-01) (9, -3.62848579883575439453e-01) 
