FANN_FLO_2.1
num_layers=3
learning_rate=0.100000
connection_rate=1.000000
network_type=0
learning_momentum=0.000000
training_algorithm=1
train_error_function=1
train_stop_function=0
cascade_output_change_fraction=0.010000
quickprop_decay=-0.000100
quickprop_mu=1.750000
rprop_increase_factor=1.200000
rprop_decrease_factor=0.500000
rprop_delta_min=0.000000
rprop_delta_max=50.000000
rprop_delta_zero=0.100000
cascade_output_stagnation_epochs=12
cascade_candidate_change_fraction=0.010000
cascade_candidate_stagnation_epochs=12
cascade_max_out_epochs=150
cascade_min_out_epochs=50
cascade_max_cand_epochs=150
cascade_min_cand_epochs=50
cascade_num_candidate_groups=2
bit_fail_limit=3.49999994039535522461e-01
cascade_candidate_limit=1.00000000000000000000e+03
cascade_weight_multiplier=4.00000005960464477539e-01
cascade_activation_functions_count=10
cascade_activation_functions=3 5 7 8 10 11 14 15 16 17 
cascade_activation_steepnesses_count=4
cascade_activation_steepnesses=2.50000000000000000000e-01 5.00000000000000000000e-01 7.50000000000000000000e-01 1.00000000000000000000e+00 
layer_sizes=4 6 4 
scale_included=1
scale_mean_in=0.202335 -0.013178 -0.047141 
scale_deviation_in=0.013866 0.012489 0.009126 
scale_new_min_in=-0.700000 -0.700000 -0.700000 
scale_factor_in=0.700000 0.700000 0.700000 
scale_mean_out=-1.636023 1.178605 -1.615434 
scale_deviation_out=0.062161 0.228080 0.355059 
scale_new_min_out=-0.700000 -0.700000 -0.700000 
scale_factor_out=0.700000 0.700000 0.700000 
neurons (num_inputs, activation_function, activation_steepness)=(0, 0, 0.00000000000000000000e+00) (0, 0, 0.00000000000000000000e+00) (0, 0, 0.00000000000000000000e+00) (0, 0, 0.00000000000000000000e+00) (4, 5, 5.00000000000000000000e-01) (4, 5, 5.00000000000000000000e-01) (4, 5, 5.00000000000000000000e-01) (4, 5, 5.00000000000000000000e-01) (4, 5, 5.00000000000000000000e-01) (0, 5, 0.00000000000000000000e+00) (6, 5, 5.00000000000000000000e-01) (6, 5, 5.00000000000000000000e-01) (6, 5, 5.00000000000000000000e-01) (0, 5, 0.00000000000000000000e+00) 
connections (connected_to_neuron, weight)=(0, 9.53365981578826904297e-01) (1, 1.18204843997955322266e+00) (2, 9.44409072399139404297e-02) (3, 4.50846880674362182617e-01) (0, 5.95035433769226074219e-01) (1, -6.35285079479217529297e-02) (2, 5.96847772598266601562e-01) (3, 6.11393511295318603516e-01) (0, 7.64348208904266357422e-01) (1, 5.10768890380859375000e-01) (2, -1.04203820228576660156e+00) (3, 4.63804066181182861328e-01) (0, -1.24572610855102539062e+00) (1, 1.36379280593246221542e-03) (2, 1.84000104665756225586e-01) (3, -4.68063056468963623047e-01) (0, 7.20296740531921386719e-01) (1, -8.16373765468597412109e-01) (2, -9.95519757270812988281e-02) (3, 3.16686868667602539062e-01) (4, 1.17769551277160644531e+00) (5, -6.35145604610443115234e-02) (6, 1.56643867492675781250e-01) (7, -6.18638455867767333984e-01) (8, -6.34232163429260253906e-01) (9, -3.25574368238449096680e-01) (4, -6.10454440116882324219e-01) (5, -8.78889322280883789062e-01) (6, -1.21792364120483398438e+00) (7, 2.21284568309783935547e-01) (8, -1.07886278629302978516e+00) (9, 7.82714605331420898438e-01) (4, -8.64129900932312011719e-01) (5, 2.91149079799652099609e-01) (6, 1.28677636384963989258e-01) (7, 1.40479958057403564453e+00) (8, -6.75071060657501220703e-01) (9, 3.98105204105377197266e-01) 
