FANN_FLO_2.1
num_layers=3
learning_rate=0.100000
connection_rate=1.000000
network_type=0
learning_momentum=0.000000
training_algorithm=1
train_error_function=1
train_stop_function=0
cascade_output_change_fraction=0.010000
quickprop_decay=-0.000100
quickprop_mu=1.750000
rprop_increase_factor=1.200000
rprop_decrease_factor=0.500000
rprop_delta_min=0.000000
rprop_delta_max=50.000000
rprop_delta_zero=0.100000
cascade_output_stagnation_epochs=12
cascade_candidate_change_fraction=0.010000
cascade_candidate_stagnation_epochs=12
cascade_max_out_epochs=150
cascade_min_out_epochs=50
cascade_max_cand_epochs=150
cascade_min_cand_epochs=50
cascade_num_candidate_groups=2
bit_fail_limit=3.49999994039535522461e-01
cascade_candidate_limit=1.00000000000000000000e+03
cascade_weight_multiplier=4.00000005960464477539e-01
cascade_activation_functions_count=10
cascade_activation_functions=3 5 7 8 10 11 14 15 16 17 
cascade_activation_steepnesses_count=4
cascade_activation_steepnesses=2.50000000000000000000e-01 5.00000000000000000000e-01 7.50000000000000000000e-01 1.00000000000000000000e+00 
layer_sizes=4 6 4 
scale_included=1
scale_mean_in=0.202335 -0.013178 -0.047141 
scale_deviation_in=0.013866 0.012489 0.009126 
scale_new_min_in=-0.700000 -0.700000 -0.700000 
scale_factor_in=0.700000 0.700000 0.700000 
scale_mean_out=-1.636023 1.178605 -1.615434 
scale_deviation_out=0.062161 0.228080 0.355059 
scale_new_min_out=-0.700000 -0.700000 -0.700000 
scale_factor_out=0.700000 0.700000 0.700000 
neurons (num_inputs, activation_function, activation_steepness)=(0, 0, 0.00000000000000000000e+00) (0, 0, 0.00000000000000000000e+00) (0, 0, 0.00000000000000000000e+00) (0, 0, 0.00000000000000000000e+00) (4, 5, 5.00000000000000000000e-01) (4, 5, 5.00000000000000000000e-01) (4, 5, 5.00000000000000000000e-01) (4, 5, 5.00000000000000000000e-01) (4, 5, 5.00000000000000000000e-01) (0, 5, 0.00000000000000000000e+00) (6, 5, 5.00000000000000000000e-01) (6, 5, 5.00000000000000000000e-01) (6, 5, 5.00000000000000000000e-01) (0, 5, 0.00000000000000000000e+00) 
connections (connected_to_neuron, weight)=(0, 1.21566116809844970703e+00) (1, -1.35325646400451660156e+00) (2, -5.31866550445556640625e-01) (3, 6.12036347389221191406e-01) (0, -1.25844672322273254395e-01) (1, -1.11784434318542480469e+00) (2, 5.22114396095275878906e-01) (3, -3.93943399190902709961e-01) (0, 3.79912912845611572266e-01) (1, 8.02136957645416259766e-01) (2, -5.37507057189941406250e-01) (3, 8.72062265872955322266e-01) (0, 9.50224876403808593750e-01) (1, 7.77057290077209472656e-01) (2, -4.37509834766387939453e-01) (3, 2.45589122176170349121e-01) (0, 2.15265527367591857910e-01) (1, 8.80981013178825378418e-02) (2, 4.27909582853317260742e-01) (3, 3.05552959442138671875e-01) (4, -1.20163297653198242188e+00) (5, -9.13612365722656250000e-01) (6, 4.91658359766006469727e-01) (7, 4.39758121967315673828e-01) (8, 8.61923489719629287720e-03) (9, -3.70227135717868804932e-02) (4, -1.37261474132537841797e+00) (5, 7.71458089351654052734e-01) (6, -5.95893323421478271484e-01) (7, -2.48176455497741699219e-01) (8, 4.25894111394882202148e-01) (9, 5.89289128780364990234e-01) (4, -7.68396735191345214844e-01) (5, -6.21297419071197509766e-01) (6, 7.18001872301101684570e-02) (7, -1.39598417282104492188e+00) (8, -7.26257085800170898438e-01) (9, 2.45042815804481506348e-01) 
