FANN_FLO_2.1
num_layers=3
learning_rate=0.100000
connection_rate=1.000000
network_type=0
learning_momentum=0.000000
training_algorithm=1
train_error_function=1
train_stop_function=0
cascade_output_change_fraction=0.010000
quickprop_decay=-0.000100
quickprop_mu=1.750000
rprop_increase_factor=1.200000
rprop_decrease_factor=0.500000
rprop_delta_min=0.000000
rprop_delta_max=50.000000
rprop_delta_zero=0.100000
cascade_output_stagnation_epochs=12
cascade_candidate_change_fraction=0.010000
cascade_candidate_stagnation_epochs=12
cascade_max_out_epochs=150
cascade_min_out_epochs=50
cascade_max_cand_epochs=150
cascade_min_cand_epochs=50
cascade_num_candidate_groups=2
bit_fail_limit=3.49999994039535522461e-01
cascade_candidate_limit=1.00000000000000000000e+03
cascade_weight_multiplier=4.00000005960464477539e-01
cascade_activation_functions_count=10
cascade_activation_functions=3 5 7 8 10 11 14 15 16 17 
cascade_activation_steepnesses_count=4
cascade_activation_steepnesses=2.50000000000000000000e-01 5.00000000000000000000e-01 7.50000000000000000000e-01 1.00000000000000000000e+00 
layer_sizes=4 6 4 
scale_included=1
scale_mean_in=0.205842 -0.012845 -0.047481 
scale_deviation_in=0.008825 0.012508 0.009120 
scale_new_min_in=-0.700000 -0.700000 -0.700000 
scale_factor_in=0.700000 0.700000 0.700000 
scale_mean_out=-1.633150 1.132923 -1.686309 
scale_deviation_out=0.060780 0.177814 0.272022 
scale_new_min_out=-0.700000 -0.700000 -0.700000 
scale_factor_out=0.700000 0.700000 0.700000 
neurons (num_inputs, activation_function, activation_steepness)=(0, 0, 0.00000000000000000000e+00) (0, 0, 0.00000000000000000000e+00) (0, 0, 0.00000000000000000000e+00) (0, 0, 0.00000000000000000000e+00) (4, 5, 5.00000000000000000000e-01) (4, 5, 5.00000000000000000000e-01) (4, 5, 5.00000000000000000000e-01) (4, 5, 5.00000000000000000000e-01) (4, 5, 5.00000000000000000000e-01) (0, 5, 0.00000000000000000000e+00) (6, 5, 5.00000000000000000000e-01) (6, 5, 5.00000000000000000000e-01) (6, 5, 5.00000000000000000000e-01) (0, 5, 0.00000000000000000000e+00) 
connections (connected_to_neuron, weight)=(0, -4.96067106723785400391e-02) (1, 7.51033127307891845703e-01) (2, 6.01521991193294525146e-02) (3, -3.56283277273178100586e-01) (0, -5.60570418834686279297e-01) (1, 4.02723401784896850586e-01) (2, 2.41492256522178649902e-01) (3, 6.02440357208251953125e-01) (0, 1.56534862518310546875e+00) (1, 2.21562474966049194336e-01) (2, 4.11272883415222167969e-01) (3, -4.01530623435974121094e-01) (0, -3.46591323614120483398e-01) (1, 1.29547524452209472656e+00) (2, 3.24209630489349365234e-02) (3, -1.51882216334342956543e-01) (0, 1.32049775123596191406e+00) (1, -4.31364029645919799805e-01) (2, -6.85644894838333129883e-02) (3, -4.85653951764106750488e-02) (4, 9.76063489913940429688e-01) (5, -1.77110239863395690918e-01) (6, 4.38425511121749877930e-01) (7, 1.20592463016510009766e+00) (8, -1.28472551703453063965e-01) (9, 3.52592259645462036133e-01) (4, 3.69665116071701049805e-01) (5, 7.13724613189697265625e-01) (6, -8.37839901447296142578e-01) (7, -1.51527613401412963867e-01) (8, -3.67596030235290527344e-01) (9, -2.33329206705093383789e-01) (4, -3.34237292408943176270e-02) (5, -3.55494022369384765625e-01) (6, -9.35623049736022949219e-01) (7, 7.26567447185516357422e-01) (8, -1.30590021610260009766e+00) (9, 3.17215695977210998535e-02) 
