FANN_FLO_2.1
num_layers=4
learning_rate=0.100000
connection_rate=1.000000
network_type=0
learning_momentum=0.000000
training_algorithm=1
train_error_function=1
train_stop_function=0
cascade_output_change_fraction=0.010000
quickprop_decay=-0.000100
quickprop_mu=1.750000
rprop_increase_factor=1.200000
rprop_decrease_factor=0.500000
rprop_delta_min=0.000000
rprop_delta_max=50.000000
rprop_delta_zero=0.100000
cascade_output_stagnation_epochs=12
cascade_candidate_change_fraction=0.010000
cascade_candidate_stagnation_epochs=12
cascade_max_out_epochs=150
cascade_min_out_epochs=50
cascade_max_cand_epochs=150
cascade_min_cand_epochs=50
cascade_num_candidate_groups=2
bit_fail_limit=3.49999994039535522461e-01
cascade_candidate_limit=1.00000000000000000000e+03
cascade_weight_multiplier=4.00000005960464477539e-01
cascade_activation_functions_count=10
cascade_activation_functions=3 5 7 8 10 11 14 15 16 17 
cascade_activation_steepnesses_count=4
cascade_activation_steepnesses=2.50000000000000000000e-01 5.00000000000000000000e-01 7.50000000000000000000e-01 1.00000000000000000000e+00 
layer_sizes=4 11 11 4 
scale_included=1
scale_mean_in=-0.019468 -0.018079 -0.108652 
scale_deviation_in=0.002745 0.001580 0.006110 
scale_new_min_in=-0.900000 -0.900000 -0.900000 
scale_factor_in=0.900000 0.900000 0.900000 
scale_mean_out=-0.819205 -0.064978 -0.622523 
scale_deviation_out=0.074695 0.031681 0.063630 
scale_new_min_out=-0.900000 -0.900000 -0.900000 
scale_factor_out=0.900000 0.900000 0.900000 
neurons (num_inputs, activation_function, activation_steepness)=(0, 0, 0.00000000000000000000e+00) (0, 0, 0.00000000000000000000e+00) (0, 0, 0.00000000000000000000e+00) (0, 0, 0.00000000000000000000e+00) (4, 5, 5.00000000000000000000e-01) (4, 5, 5.00000000000000000000e-01) (4, 5, 5.00000000000000000000e-01) (4, 5, 5.00000000000000000000e-01) (4, 5, 5.00000000000000000000e-01) (4, 5, 5.00000000000000000000e-01) (4, 5, 5.00000000000000000000e-01) (4, 5, 5.00000000000000000000e-01) (4, 5, 5.00000000000000000000e-01) (4, 5, 5.00000000000000000000e-01) (0, 5, 0.00000000000000000000e+00) (11, 5, 5.00000000000000000000e-01) (11, 5, 5.00000000000000000000e-01) (11, 5, 5.00000000000000000000e-01) (11, 5, 5.00000000000000000000e-01) (11, 5, 5.00000000000000000000e-01) (11, 5, 5.00000000000000000000e-01) (11, 5, 5.00000000000000000000e-01) (11, 5, 5.00000000000000000000e-01) (11, 5, 5.00000000000000000000e-01) (11, 5, 5.00000000000000000000e-01) (0, 5, 0.00000000000000000000e+00) (11, 5, 5.00000000000000000000e-01) (11, 5, 5.00000000000000000000e-01) (11, 5, 5.00000000000000000000e-01) (0, 5, 0.00000000000000000000e+00) 
connections (connected_to_neuron, weight)=(0, 1.81340909004211425781e+00) (1, -2.86863684654235839844e-01) (2, -2.08946108818054199219e+00) (3, -2.78629255294799804688e+00) (0, -3.71940970420837402344e+00) (1, 1.49101853370666503906e-01) (2, 1.00088715553283691406e+00) (3, 7.48942732810974121094e-01) (0, -1.56507146358489990234e+00) (1, 9.93011415004730224609e-01) (2, -1.67470633983612060547e+00) (3, -9.21318411827087402344e-01) (0, -1.16302943229675292969e+00) (1, -1.91792058944702148438e+00) (2, -2.47483277320861816406e+00) (3, 3.80268990993499755859e-01) (0, 1.25417780876159667969e+00) (1, -2.81021690368652343750e+00) (2, -3.76947999000549316406e+00) (3, 1.80158746242523193359e+00) (0, 2.23125720024108886719e+00) (1, 1.45495533943176269531e+00) (2, 1.18437397480010986328e+00) (3, -8.92867207527160644531e-01) (0, 1.75121140480041503906e+00) (1, -4.32794064283370971680e-01) (2, 1.36752009391784667969e+00) (3, 8.91431272029876708984e-01) (0, -2.98691075295209884644e-02) (1, -1.90926158428192138672e+00) (2, 6.07718408107757568359e-01) (3, -2.55873560905456542969e+00) (0, -5.06063580513000488281e-01) (1, 2.62666225433349609375e+00) (2, -5.91352693736553192139e-02) (3, -1.42463833093643188477e-01) (0, 2.23568296432495117188e+00) (1, 1.43667840957641601562e+00) (2, 2.37387013435363769531e+00) (3, -2.55384230613708496094e+00) (4, -2.53335142135620117188e+00) (5, 4.40511852502822875977e-01) (6, -1.62533462047576904297e+00) (7, -2.04698491096496582031e+00) (8, -2.36939525604248046875e+00) (9, -5.08891999721527099609e-01) (10, 6.59452795982360839844e-01) (11, -1.67595279216766357422e+00) (12, -7.26766705513000488281e-01) (13, 1.56464064121246337891e+00) (14, 3.15278196334838867188e+00) (4, 2.84749078750610351562e+00) (5, -3.52297639846801757812e+00) (6, 8.73552501201629638672e-01) (7, -1.86055314540863037109e+00) (8, 1.52497661113739013672e+00) (9, 2.42170953750610351562e+00) (10, 7.62813508510589599609e-01) (11, -1.83479392528533935547e+00) (12, 1.66988420486450195312e+00) (13, 6.82393074035644531250e-01) (14, 4.78662878274917602539e-01) (4, -1.28891170024871826172e+00) (5, -4.68958258628845214844e-01) (6, -1.00749695301055908203e+00) (7, -3.01301658153533935547e-01) (8, 2.63911867141723632812e+00) (9, 2.04359745979309082031e+00) (10, 2.74150991439819335938e+00) (11, -1.72885632514953613281e+00) (12, -1.71918940544128417969e+00) (13, 3.94348055124282836914e-02) (14, 1.70805740356445312500e+00) (4, -3.31960535049438476562e+00) (5, 2.13177037239074707031e+00) (6, -2.06508326530456542969e+00) (7, -5.96862256526947021484e-01) (8, 3.82048249244689941406e+00) (9, 1.06845021247863769531e+00) (10, 1.78532707691192626953e+00) (11, -2.60086357593536376953e-01) (12, -6.49701178073883056641e-01) (13, 2.73997831344604492188e+00) (14, -2.34541252255439758301e-01) (4, 1.31006681919097900391e+00) (5, -4.96970474720001220703e-01) (6, -8.33632647991180419922e-02) (7, 4.80688482522964477539e-01) (8, -1.17680978775024414062e+00) (9, 2.57861089706420898438e+00) (10, -3.56229245662689208984e-01) (11, -2.16950535774230957031e+00) (12, 1.63586795330047607422e+00) (13, 1.07391905784606933594e+00) (14, 1.97294175624847412109e+00) (4, 5.56598186492919921875e-01) (5, -2.49552226066589355469e+00) (6, -2.15589094161987304688e+00) (7, 2.94039666652679443359e-01) (8, 1.10477542877197265625e+00) (9, 3.25465947389602661133e-01) (10, 1.77179634571075439453e+00) (11, -3.04475545883178710938e+00) (12, -1.51600408554077148438e+00) (13, 3.74781072139739990234e-01) (14, 2.27643704414367675781e+00) (4, -7.31441020965576171875e-01) (5, -3.90784740447998046875e-01) (6, 1.40795516967773437500e+00) (7, -1.39014035463333129883e-01) (8, 5.23428857326507568359e-01) (9, -2.28497576713562011719e+00) (10, -8.45284402370452880859e-01) (11, -2.24414086341857910156e+00) (12, 3.68395507335662841797e-01) (13, -2.84647655487060546875e+00) (14, 4.87441003322601318359e-01) (4, 7.45682537555694580078e-01) (5, 1.67914247512817382812e+00) (6, 2.21989011764526367188e+00) (7, 1.37478947639465332031e+00) (8, 4.62090909481048583984e-01) (9, -2.49622774124145507812e+00) (10, -1.04399394989013671875e+00) (11, 1.12435176968574523926e-01) (12, 7.05991148948669433594e-01) (13, -1.30307257175445556641e+00) (14, 8.96496772766113281250e-02) (4, 1.27073562145233154297e+00) (5, 2.16947525739669799805e-01) (6, 1.03823471069335937500e+00) (7, 1.87932729721069335938e+00) (8, 6.88934862613677978516e-01) (9, -1.14910769462585449219e+00) (10, -1.23187098652124404907e-02) (11, -7.62041151523590087891e-01) (12, -2.42654323577880859375e-01) (13, -2.86633372306823730469e+00) (14, 2.08006635308265686035e-01) (4, 2.55450916290283203125e+00) (5, -5.11102080345153808594e-01) (6, -6.96184396743774414062e-01) (7, 3.53624796867370605469e+00) (8, 3.09696650505065917969e+00) (9, -1.68955886363983154297e+00) (10, -5.95640122890472412109e-01) (11, 6.37079596519470214844e-01) (12, -2.41399431228637695312e+00) (13, -3.34929084777832031250e+00) (14, -1.84303510189056396484e+00) (15, -5.06437683105468750000e+00) (16, 1.50543951988220214844e+00) (17, 5.67776489257812500000e+00) (18, 5.65040779113769531250e+00) (19, -1.17794729769229888916e-01) (20, 5.41225481033325195312e+00) (21, -6.12932443618774414062e+00) (22, -5.09040641784667968750e+00) (23, -3.26665735244750976562e+00) (24, 1.04458665847778320312e+01) (25, -6.70214414596557617188e+00) (15, 9.77262687683105468750e+00) (16, 5.26211166381835937500e+00) (17, 6.86491823196411132812e+00) (18, 4.47143411636352539062e+00) (19, 8.29923343658447265625e+00) (20, 7.15392494201660156250e+00) (21, -4.23106098175048828125e+00) (22, -5.15679979324340820312e+00) (23, -5.90823745727539062500e+00) (24, -1.05623407363891601562e+01) (25, 9.92730045318603515625e+00) (15, 7.89766168594360351562e+00) (16, -1.04448299407958984375e+01) (17, -1.87241959571838378906e+00) (18, 7.35293149948120117188e+00) (19, -4.40525341033935546875e+00) (20, -4.92050552368164062500e+00) (21, -5.84211874008178710938e+00) (22, -3.33111715316772460938e+00) (23, -6.88275098800659179688e+00) (24, -4.11978197097778320312e+00) (25, -3.06400442123413085938e+00) 
