FANN_FLO_2.1
num_layers=3
learning_rate=0.100000
connection_rate=1.000000
network_type=0
learning_momentum=0.000000
training_algorithm=1
train_error_function=1
train_stop_function=0
cascade_output_change_fraction=0.010000
quickprop_decay=-0.000100
quickprop_mu=1.750000
rprop_increase_factor=1.200000
rprop_decrease_factor=0.500000
rprop_delta_min=0.000000
rprop_delta_max=50.000000
rprop_delta_zero=0.100000
cascade_output_stagnation_epochs=12
cascade_candidate_change_fraction=0.010000
cascade_candidate_stagnation_epochs=12
cascade_max_out_epochs=150
cascade_min_out_epochs=50
cascade_max_cand_epochs=150
cascade_min_cand_epochs=50
cascade_num_candidate_groups=2
bit_fail_limit=3.49999994039535522461e-01
cascade_candidate_limit=1.00000000000000000000e+03
cascade_weight_multiplier=4.00000005960464477539e-01
cascade_activation_functions_count=10
cascade_activation_functions=3 5 7 8 10 11 14 15 16 17 
cascade_activation_steepnesses_count=4
cascade_activation_steepnesses=2.50000000000000000000e-01 5.00000000000000000000e-01 7.50000000000000000000e-01 1.00000000000000000000e+00 
layer_sizes=4 11 4 
scale_included=1
scale_mean_in=0.148907 0.045995 -0.099685 
scale_deviation_in=0.015513 0.014526 0.010461 
scale_new_min_in=-0.900000 -0.900000 -0.900000 
scale_factor_in=0.900000 0.900000 0.900000 
scale_mean_out=-1.271079 1.136659 -1.111824 
scale_deviation_out=0.093214 0.172894 0.251655 
scale_new_min_out=-0.900000 -0.900000 -0.900000 
scale_factor_out=0.900000 0.900000 0.900000 
neurons (num_inputs, activation_function, activation_steepness)=(0, 0, 0.00000000000000000000e+00) (0, 0, 0.00000000000000000000e+00) (0, 0, 0.00000000000000000000e+00) (0, 0, 0.00000000000000000000e+00) (4, 5, 5.00000000000000000000e-01) (4, 5, 5.00000000000000000000e-01) (4, 5, 5.00000000000000000000e-01) (4, 5, 5.00000000000000000000e-01) (4, 5, 5.00000000000000000000e-01) (4, 5, 5.00000000000000000000e-01) (4, 5, 5.00000000000000000000e-01) (4, 5, 5.00000000000000000000e-01) (4, 5, 5.00000000000000000000e-01) (4, 5, 5.00000000000000000000e-01) (0, 5, 0.00000000000000000000e+00) (11, 5, 5.00000000000000000000e-01) (11, 5, 5.00000000000000000000e-01) (11, 5, 5.00000000000000000000e-01) (0, 5, 0.00000000000000000000e+00) 
connections (connected_to_neuron, weight)=(0, -6.43726944923400878906e-01) (1, -1.05539512634277343750e+00) (2, -1.65108472108840942383e-01) (3, 3.16242665052413940430e-01) (0, -7.58773237466812133789e-02) (1, -2.25846543908119201660e-01) (2, 6.80380344390869140625e-01) (3, -2.13835671544075012207e-01) (0, 1.72420728206634521484e+00) (1, 8.89938557520508766174e-04) (2, 1.15005291998386383057e-01) (3, -1.36365437507629394531e+00) (0, 1.79339438676834106445e-01) (1, 4.16151016950607299805e-01) (2, 1.25488185882568359375e+00) (3, 3.86298410594463348389e-02) (0, -1.39019584655761718750e+00) (1, 1.89461737871170043945e-01) (2, -3.62745195627212524414e-01) (3, -6.56583845615386962891e-01) (0, 1.04575656354427337646e-01) (1, 6.28296971321105957031e-01) (2, -5.53518176078796386719e-01) (3, 6.16059124469757080078e-01) (0, -5.28374254703521728516e-01) (1, 6.63350701332092285156e-01) (2, -1.06623339653015136719e+00) (3, -3.99655133485794067383e-01) (0, -1.83668687939643859863e-01) (1, -1.13063967227935791016e+00) (2, -2.91953742504119873047e-01) (3, -1.06179261207580566406e+00) (0, 5.03573656082153320312e-01) (1, 3.04466366767883300781e-01) (2, -3.80465388298034667969e-02) (3, 6.30437910556793212891e-01) (0, 7.05471396446228027344e-01) (1, -3.90171647071838378906e-01) (2, -4.04844492673873901367e-01) (3, 6.35351002216339111328e-01) (4, -1.37680017948150634766e+00) (5, -3.60455662012100219727e-01) (6, -7.17354238033294677734e-01) (7, 1.21300017833709716797e+00) (8, 9.91041660308837890625e-01) (9, 1.75044882297515869141e+00) (10, 1.26847720146179199219e+00) (11, -1.85920143127441406250e+00) (12, 5.09994208812713623047e-01) (13, -1.93461310863494873047e+00) (14, -6.64759337902069091797e-01) (4, 1.31880092620849609375e+00) (5, 8.33551704883575439453e-01) (6, -1.47312462329864501953e+00) (7, 1.90109395980834960938e+00) (8, 3.07466953992843627930e-01) (9, -1.08762896060943603516e+00) (10, -1.29693782329559326172e+00) (11, -4.49976444244384765625e-01) (12, -2.99986600875854492188e-01) (13, -2.08756971359252929688e+00) (14, -4.86711300909519195557e-02) (4, 7.65333354473114013672e-01) (5, 2.04124331474304199219e+00) (6, -1.86646687984466552734e+00) (7, 3.67858916521072387695e-01) (8, 1.12999856472015380859e+00) (9, -9.14439797401428222656e-01) (10, -6.14852905273437500000e-01) (11, -5.27434825897216796875e-01) (12, -1.92055940628051757812e+00) (13, -7.95869767665863037109e-01) (14, 3.04748415946960449219e-01) 
