FANN_FLO_2.1
num_layers=3
learning_rate=0.100000
connection_rate=1.000000
network_type=0
learning_momentum=0.000000
training_algorithm=1
train_error_function=1
train_stop_function=0
cascade_output_change_fraction=0.010000
quickprop_decay=-0.000100
quickprop_mu=1.750000
rprop_increase_factor=1.200000
rprop_decrease_factor=0.500000
rprop_delta_min=0.000000
rprop_delta_max=50.000000
rprop_delta_zero=0.100000
cascade_output_stagnation_epochs=12
cascade_candidate_change_fraction=0.010000
cascade_candidate_stagnation_epochs=12
cascade_max_out_epochs=150
cascade_min_out_epochs=50
cascade_max_cand_epochs=150
cascade_min_cand_epochs=50
cascade_num_candidate_groups=2
bit_fail_limit=3.49999994039535522461e-01
cascade_candidate_limit=1.00000000000000000000e+03
cascade_weight_multiplier=4.00000005960464477539e-01
cascade_activation_functions_count=10
cascade_activation_functions=3 5 7 8 10 11 14 15 16 17 
cascade_activation_steepnesses_count=4
cascade_activation_steepnesses=2.50000000000000000000e-01 5.00000000000000000000e-01 7.50000000000000000000e-01 1.00000000000000000000e+00 
layer_sizes=4 11 4 
scale_included=1
scale_mean_in=0.157377 0.099747 0.083233 
scale_deviation_in=0.013083 0.013607 0.010158 
scale_new_min_in=-0.900000 -0.900000 -0.900000 
scale_factor_in=0.900000 0.900000 0.900000 
scale_mean_out=-1.005264 1.680275 -2.117352 
scale_deviation_out=0.082044 0.367143 0.547187 
scale_new_min_out=-0.900000 -0.900000 -0.900000 
scale_factor_out=0.900000 0.900000 0.900000 
neurons (num_inputs, activation_function, activation_steepness)=(0, 0, 0.00000000000000000000e+00) (0, 0, 0.00000000000000000000e+00) (0, 0, 0.00000000000000000000e+00) (0, 0, 0.00000000000000000000e+00) (4, 5, 5.00000000000000000000e-01) (4, 5, 5.00000000000000000000e-01) (4, 5, 5.00000000000000000000e-01) (4, 5, 5.00000000000000000000e-01) (4, 5, 5.00000000000000000000e-01) (4, 5, 5.00000000000000000000e-01) (4, 5, 5.00000000000000000000e-01) (4, 5, 5.00000000000000000000e-01) (4, 5, 5.00000000000000000000e-01) (4, 5, 5.00000000000000000000e-01) (0, 5, 0.00000000000000000000e+00) (11, 5, 5.00000000000000000000e-01) (11, 5, 5.00000000000000000000e-01) (11, 5, 5.00000000000000000000e-01) (0, 5, 0.00000000000000000000e+00) 
connections (connected_to_neuron, weight)=(0, -2.37740206718444824219e+00) (1, -1.33299827575683593750e+00) (2, -1.37315583229064941406e+00) (3, -3.10605478286743164062e+00) (0, -9.04776215553283691406e-01) (1, -1.24519526958465576172e+00) (2, -7.83973455429077148438e-01) (3, -1.82979190349578857422e+00) (0, 1.01148806512355804443e-01) (1, 2.77949243783950805664e-01) (2, -7.48609244823455810547e-01) (3, 6.20070874691009521484e-01) (0, -1.79336130619049072266e-01) (1, 3.73732179403305053711e-01) (2, 7.06409513950347900391e-01) (3, 7.66735732555389404297e-01) (0, -8.24001356959342956543e-02) (1, 6.10331237316131591797e-01) (2, -7.48986661434173583984e-01) (3, -1.73962867259979248047e+00) (0, -2.81843304634094238281e-01) (1, -5.72542905807495117188e-01) (2, 7.60616660118103027344e-01) (3, -2.94518500566482543945e-01) (0, -2.93969884514808654785e-02) (1, -8.15967202186584472656e-01) (2, 1.73025473952293395996e-01) (3, 3.54859322309494018555e-01) (0, -8.83853852748870849609e-01) (1, 2.07325744628906250000e+00) (2, -6.50026947259902954102e-02) (3, 3.01211333274841308594e+00) (0, -1.76282310485839843750e+00) (1, 2.17768311500549316406e+00) (2, 1.85149163007736206055e-01) (3, -3.86009240150451660156e+00) (0, -6.84104394912719726562e+00) (1, -4.41743135452270507812e+00) (2, -4.17123174667358398438e+00) (3, 2.40607142448425292969e+00) (4, 1.21052300930023193359e+00) (5, -1.10744047164916992188e+00) (6, -3.49809229373931884766e-01) (7, 2.02210879325866699219e+00) (8, 9.54453349113464355469e-01) (9, -9.00184452533721923828e-01) (10, -5.56946039199829101562e-01) (11, 3.34976863861083984375e+00) (12, 3.79283452033996582031e+00) (13, 2.89345413446426391602e-01) (14, 7.43444561958312988281e-01) (4, 2.94327616691589355469e+00) (5, 1.35296911001205444336e-01) (6, 5.99823296070098876953e-01) (7, 1.41545605659484863281e+00) (8, -1.40503978729248046875e+00) (9, 4.17676448822021484375e-01) (10, 9.16684418916702270508e-03) (11, 2.84178882837295532227e-01) (12, -5.52569150924682617188e-01) (13, 1.83837640285491943359e+00) (14, 2.03144013881683349609e-01) (4, 2.12157630920410156250e+00) (5, 1.35722482204437255859e+00) (6, -1.88594624400138854980e-01) (7, 1.20524251461029052734e+00) (8, -7.60622680187225341797e-01) (9, -1.30860722064971923828e+00) (10, 5.69712817668914794922e-01) (11, 4.67472404241561889648e-01) (12, -4.26348894834518432617e-01) (13, 1.74896562099456787109e+00) (14, 7.34369039535522460938e-01) 
