FANN_FLO_2.1
num_layers=3
learning_rate=0.100000
connection_rate=1.000000
network_type=0
learning_momentum=0.000000
training_algorithm=1
train_error_function=1
train_stop_function=0
cascade_output_change_fraction=0.010000
quickprop_decay=-0.000100
quickprop_mu=1.750000
rprop_increase_factor=1.200000
rprop_decrease_factor=0.500000
rprop_delta_min=0.000000
rprop_delta_max=50.000000
rprop_delta_zero=0.100000
cascade_output_stagnation_epochs=12
cascade_candidate_change_fraction=0.010000
cascade_candidate_stagnation_epochs=12
cascade_max_out_epochs=150
cascade_min_out_epochs=50
cascade_max_cand_epochs=150
cascade_min_cand_epochs=50
cascade_num_candidate_groups=2
bit_fail_limit=3.49999994039535522461e-01
cascade_candidate_limit=1.00000000000000000000e+03
cascade_weight_multiplier=4.00000005960464477539e-01
cascade_activation_functions_count=10
cascade_activation_functions=3 5 7 8 10 11 14 15 16 17 
cascade_activation_steepnesses_count=4
cascade_activation_steepnesses=2.50000000000000000000e-01 5.00000000000000000000e-01 7.50000000000000000000e-01 1.00000000000000000000e+00 
layer_sizes=4 11 4 
scale_included=1
scale_mean_in=0.179941 -0.040624 0.103252 
scale_deviation_in=0.002289 0.008617 0.002708 
scale_new_min_in=-0.900000 -0.900000 -0.900000 
scale_factor_in=0.900000 0.900000 0.900000 
scale_mean_out=-1.792412 1.486059 -2.566963 
scale_deviation_out=0.046369 0.148214 0.232310 
scale_new_min_out=-0.900000 -0.900000 -0.900000 
scale_factor_out=0.900000 0.900000 0.900000 
neurons (num_inputs, activation_function, activation_steepness)=(0, 0, 0.00000000000000000000e+00) (0, 0, 0.00000000000000000000e+00) (0, 0, 0.00000000000000000000e+00) (0, 0, 0.00000000000000000000e+00) (4, 5, 5.00000000000000000000e-01) (4, 5, 5.00000000000000000000e-01) (4, 5, 5.00000000000000000000e-01) (4, 5, 5.00000000000000000000e-01) (4, 5, 5.00000000000000000000e-01) (4, 5, 5.00000000000000000000e-01) (4, 5, 5.00000000000000000000e-01) (4, 5, 5.00000000000000000000e-01) (4, 5, 5.00000000000000000000e-01) (4, 5, 5.00000000000000000000e-01) (0, 5, 0.00000000000000000000e+00) (11, 5, 5.00000000000000000000e-01) (11, 5, 5.00000000000000000000e-01) (11, 5, 5.00000000000000000000e-01) (0, 5, 0.00000000000000000000e+00) 
connections (connected_to_neuron, weight)=(0, -5.80748498439788818359e-01) (1, 6.73143625259399414062e+00) (2, 6.64574289321899414062e+00) (3, 5.71871161460876464844e-01) (0, -3.42186689376831054688e+00) (1, 1.88577044010162353516e+00) (2, -9.80796623229980468750e+00) (3, -1.08886766433715820312e+00) (0, -1.26859033107757568359e+00) (1, 2.79596060514450073242e-01) (2, 1.01789283752441406250e+00) (3, 2.06892907619476318359e-01) (0, -1.84925675392150878906e-01) (1, -1.01453673839569091797e+00) (2, 9.16522324085235595703e-01) (3, -6.80677294731140136719e-01) (0, 7.52747952938079833984e-01) (1, -1.42678976058959960938e+00) (2, -2.51194596290588378906e-01) (3, 1.99972584843635559082e-01) (0, 1.63360404968261718750e+00) (1, 2.60492134094238281250e+00) (2, 5.20047724246978759766e-01) (3, 4.49780941009521484375e+00) (0, -9.10062119364738464355e-02) (1, -7.91133821010589599609e-01) (2, 2.48728108406066894531e+00) (3, 3.39668512344360351562e-01) (0, 5.27354001998901367188e-01) (1, 1.99584841728210449219e+00) (2, -7.00225755572319030762e-02) (3, -3.14975666999816894531e+00) (0, -2.49931526184082031250e+00) (1, -3.41877758502960205078e-01) (2, -8.40480041503906250000e+00) (3, -1.54265999794006347656e+00) (0, -3.18461799621582031250e+00) (1, 1.21506166458129882812e+01) (2, 9.66182422637939453125e+00) (3, 3.70289891958236694336e-01) (4, -5.39734303951263427734e-01) (5, -4.17695969343185424805e-01) (6, -5.31514644622802734375e-01) (7, -8.38519692420959472656e-01) (8, -2.82763552665710449219e+00) (9, 5.00110244750976562500e+00) (10, -2.60140061378479003906e-01) (11, 3.39013648033142089844e+00) (12, -1.21659208089113235474e-02) (13, 1.84872329235076904297e-01) (14, -1.71320581436157226562e+00) (4, -6.15190792083740234375e+00) (5, 3.91852688789367675781e+00) (6, -2.25359368324279785156e+00) (7, 1.53980636596679687500e+00) (8, -1.48973059654235839844e+00) (9, 6.31846904754638671875e-01) (10, 2.45928907394409179688e+00) (11, 1.02842390537261962891e+00) (12, -3.59001660346984863281e+00) (13, 4.94778251647949218750e+00) (14, 5.71728765964508056641e-01) (4, -6.09246301651000976562e+00) (5, 3.82629776000976562500e+00) (6, -2.11633920669555664062e+00) (7, 1.41680109500885009766e+00) (8, -1.07001686096191406250e+00) (9, 6.05184912681579589844e-01) (10, 2.24213266372680664062e+00) (11, 1.19968688488006591797e+00) (12, -3.50483155250549316406e+00) (13, 4.92833280563354492188e+00) (14, 6.76091194152832031250e-01) 
