FANN_FLO_2.1
num_layers=3
learning_rate=0.100000
connection_rate=1.000000
network_type=0
learning_momentum=0.000000
training_algorithm=1
train_error_function=1
train_stop_function=0
cascade_output_change_fraction=0.010000
quickprop_decay=-0.000100
quickprop_mu=1.750000
rprop_increase_factor=1.200000
rprop_decrease_factor=0.500000
rprop_delta_min=0.000000
rprop_delta_max=50.000000
rprop_delta_zero=0.100000
cascade_output_stagnation_epochs=12
cascade_candidate_change_fraction=0.010000
cascade_candidate_stagnation_epochs=12
cascade_max_out_epochs=150
cascade_min_out_epochs=50
cascade_max_cand_epochs=150
cascade_min_cand_epochs=50
cascade_num_candidate_groups=2
bit_fail_limit=3.49999994039535522461e-01
cascade_candidate_limit=1.00000000000000000000e+03
cascade_weight_multiplier=4.00000005960464477539e-01
cascade_activation_functions_count=10
cascade_activation_functions=3 5 7 8 10 11 14 15 16 17 
cascade_activation_steepnesses_count=4
cascade_activation_steepnesses=2.50000000000000000000e-01 5.00000000000000000000e-01 7.50000000000000000000e-01 1.00000000000000000000e+00 
layer_sizes=4 6 4 
scale_included=1
scale_mean_in=0.085416 0.152790 0.101994 
scale_deviation_in=0.009889 0.005694 0.005735 
scale_new_min_in=-0.900000 -0.900000 -0.900000 
scale_factor_in=0.900000 0.900000 0.900000 
scale_mean_out=-0.509154 1.796025 -2.059656 
scale_deviation_out=0.055783 0.130185 0.193793 
scale_new_min_out=-0.900000 -0.900000 -0.900000 
scale_factor_out=0.900000 0.900000 0.900000 
neurons (num_inputs, activation_function, activation_steepness)=(0, 0, 0.00000000000000000000e+00) (0, 0, 0.00000000000000000000e+00) (0, 0, 0.00000000000000000000e+00) (0, 0, 0.00000000000000000000e+00) (4, 5, 5.00000000000000000000e-01) (4, 5, 5.00000000000000000000e-01) (4, 5, 5.00000000000000000000e-01) (4, 5, 5.00000000000000000000e-01) (4, 5, 5.00000000000000000000e-01) (0, 5, 0.00000000000000000000e+00) (6, 5, 5.00000000000000000000e-01) (6, 5, 5.00000000000000000000e-01) (6, 5, 5.00000000000000000000e-01) (0, 5, 0.00000000000000000000e+00) 
connections (connected_to_neuron, weight)=(0, -1.80612325668334960938e+00) (1, -1.81682097911834716797e+00) (2, -1.93196713924407958984e+00) (3, 1.61370337009429931641e-01) (0, 1.83848750591278076172e+00) (1, -1.88577577471733093262e-01) (2, -4.16741780936717987061e-02) (3, -7.18343317508697509766e-01) (0, 3.95207911729812622070e-01) (1, -6.00746095180511474609e-01) (2, 3.99004817008972167969e-01) (3, -1.38662546873092651367e-01) (0, -1.12505829334259033203e+00) (1, -7.41533875465393066406e-01) (2, -3.58119904994964599609e-02) (3, 1.24555915594100952148e-01) (0, 4.50210541486740112305e-01) (1, -1.41576898097991943359e+00) (2, -5.58808565139770507812e-01) (3, 8.47642719745635986328e-01) (4, 2.79666841030120849609e-01) (5, -2.03070425987243652344e+00) (6, -8.23814451694488525391e-01) (7, 7.74546504020690917969e-01) (8, -1.55989646911621093750e+00) (9, -1.87639504671096801758e-01) (4, 2.61733794212341308594e+00) (5, -1.25571107864379882812e+00) (6, 3.26734036207199096680e-01) (7, 8.10266375541687011719e-01) (8, 1.32467269897460937500e+00) (9, -6.09128057956695556641e-01) (4, 3.09840917587280273438e+00) (5, -2.10149362683296203613e-01) (6, -4.78772103786468505859e-01) (7, 5.26707887649536132812e-01) (8, 6.53925061225891113281e-01) (9, -1.62947177886962890625e-01) 
