FANN_FLO_2.1
num_layers=3
learning_rate=0.100000
connection_rate=1.000000
network_type=0
learning_momentum=0.000000
training_algorithm=1
train_error_function=1
train_stop_function=0
cascade_output_change_fraction=0.010000
quickprop_decay=-0.000100
quickprop_mu=1.750000
rprop_increase_factor=1.200000
rprop_decrease_factor=0.500000
rprop_delta_min=0.000000
rprop_delta_max=50.000000
rprop_delta_zero=0.100000
cascade_output_stagnation_epochs=12
cascade_candidate_change_fraction=0.010000
cascade_candidate_stagnation_epochs=12
cascade_max_out_epochs=150
cascade_min_out_epochs=50
cascade_max_cand_epochs=150
cascade_min_cand_epochs=50
cascade_num_candidate_groups=2
bit_fail_limit=3.49999994039535522461e-01
cascade_candidate_limit=1.00000000000000000000e+03
cascade_weight_multiplier=4.00000005960464477539e-01
cascade_activation_functions_count=10
cascade_activation_functions=3 5 7 8 10 11 14 15 16 17 
cascade_activation_steepnesses_count=4
cascade_activation_steepnesses=2.50000000000000000000e-01 5.00000000000000000000e-01 7.50000000000000000000e-01 1.00000000000000000000e+00 
layer_sizes=4 6 4 
scale_included=1
scale_mean_in=0.197059 -0.002560 -0.039096 
scale_deviation_in=0.014803 0.018666 0.013614 
scale_new_min_in=-1.000000 -1.000000 -1.000000 
scale_factor_in=1.000000 1.000000 1.000000 
scale_mean_out=-1.583797 1.320431 -1.467374 
scale_deviation_out=0.095123 0.253598 0.372519 
scale_new_min_out=-1.000000 -1.000000 -1.000000 
scale_factor_out=1.000000 1.000000 1.000000 
neurons (num_inputs, activation_function, activation_steepness)=(0, 0, 0.00000000000000000000e+00) (0, 0, 0.00000000000000000000e+00) (0, 0, 0.00000000000000000000e+00) (0, 0, 0.00000000000000000000e+00) (4, 5, 5.00000000000000000000e-01) (4, 5, 5.00000000000000000000e-01) (4, 5, 5.00000000000000000000e-01) (4, 5, 5.00000000000000000000e-01) (4, 5, 5.00000000000000000000e-01) (0, 5, 0.00000000000000000000e+00) (6, 5, 5.00000000000000000000e-01) (6, 5, 5.00000000000000000000e-01) (6, 5, 5.00000000000000000000e-01) (0, 5, 0.00000000000000000000e+00) 
connections (connected_to_neuron, weight)=(0, 4.20057654380798339844e-01) (1, -1.05435967445373535156e+00) (2, 9.94702279567718505859e-02) (3, 4.77488875389099121094e-01) (0, -1.88874268531799316406e+00) (1, 5.01964688301086425781e-01) (2, 7.73186028003692626953e-01) (3, 3.03911101073026657104e-02) (0, 5.63514828681945800781e-01) (1, 1.07816302776336669922e+00) (2, -4.87899214029312133789e-01) (3, -3.60976040363311767578e-01) (0, -2.76358932256698608398e-01) (1, -1.51701676845550537109e+00) (2, -1.28876790404319763184e-01) (3, -2.00287587940692901611e-02) (0, 1.32229757308959960938e+00) (1, 2.67556965351104736328e-01) (2, -8.54244455695152282715e-03) (3, 1.53035312891006469727e-01) (4, -1.37769854068756103516e+00) (5, 6.06597602367401123047e-01) (6, 1.26763546466827392578e+00) (7, -1.73885405063629150391e+00) (8, 3.79044622182846069336e-01) (9, 4.31387841701507568359e-01) (4, -1.15466509014368057251e-02) (5, 2.23653507232666015625e+00) (6, -6.80990874767303466797e-01) (7, 8.63473489880561828613e-02) (8, -8.83986532688140869141e-01) (9, 9.66564267873764038086e-02) (4, -5.20435869693756103516e-01) (5, 2.13140892982482910156e+00) (6, -4.50063437223434448242e-01) (7, 3.83051156997680664062e-01) (8, -1.16687285900115966797e+00) (9, 3.13984096050262451172e-01) 
