FANN_FLO_2.1
num_layers=3
learning_rate=0.100000
connection_rate=1.000000
network_type=0
learning_momentum=0.000000
training_algorithm=1
train_error_function=1
train_stop_function=0
cascade_output_change_fraction=0.010000
quickprop_decay=-0.000100
quickprop_mu=1.750000
rprop_increase_factor=1.200000
rprop_decrease_factor=0.500000
rprop_delta_min=0.000000
rprop_delta_max=50.000000
rprop_delta_zero=0.100000
cascade_output_stagnation_epochs=12
cascade_candidate_change_fraction=0.010000
cascade_candidate_stagnation_epochs=12
cascade_max_out_epochs=150
cascade_min_out_epochs=50
cascade_max_cand_epochs=150
cascade_min_cand_epochs=50
cascade_num_candidate_groups=2
bit_fail_limit=3.49999994039535522461e-01
cascade_candidate_limit=1.00000000000000000000e+03
cascade_weight_multiplier=4.00000005960464477539e-01
cascade_activation_functions_count=10
cascade_activation_functions=3 5 7 8 10 11 14 15 16 17 
cascade_activation_steepnesses_count=4
cascade_activation_steepnesses=2.50000000000000000000e-01 5.00000000000000000000e-01 7.50000000000000000000e-01 1.00000000000000000000e+00 
layer_sizes=4 6 4 
scale_included=1
scale_mean_in=0.064732 0.013760 0.166890 
scale_deviation_in=0.018965 0.017958 0.003332 
scale_new_min_in=-0.900000 -0.900000 -0.900000 
scale_factor_in=0.900000 0.900000 0.900000 
scale_mean_out=-1.362949 2.036798 -2.838995 
scale_deviation_out=0.282482 0.131439 0.207634 
scale_new_min_out=-0.900000 -0.900000 -0.900000 
scale_factor_out=0.900000 0.900000 0.900000 
neurons (num_inputs, activation_function, activation_steepness)=(0, 0, 0.00000000000000000000e+00) (0, 0, 0.00000000000000000000e+00) (0, 0, 0.00000000000000000000e+00) (0, 0, 0.00000000000000000000e+00) (4, 5, 5.00000000000000000000e-01) (4, 5, 5.00000000000000000000e-01) (4, 5, 5.00000000000000000000e-01) (4, 5, 5.00000000000000000000e-01) (4, 5, 5.00000000000000000000e-01) (0, 5, 0.00000000000000000000e+00) (6, 5, 5.00000000000000000000e-01) (6, 5, 5.00000000000000000000e-01) (6, 5, 5.00000000000000000000e-01) (0, 5, 0.00000000000000000000e+00) 
connections (connected_to_neuron, weight)=(0, 6.28972768783569335938e-01) (1, 1.58721089363098144531e+00) (2, -2.51287788152694702148e-01) (3, 8.83311212062835693359e-01) (0, -1.34676110744476318359e+00) (1, 1.40064692497253417969e+00) (2, -1.85194134712219238281e-01) (3, -1.42923116683959960938e+00) (0, -4.65182733535766601562e+00) (1, -9.49115931987762451172e-01) (2, -1.85305035114288330078e+00) (3, 3.10015559196472167969e+00) (0, -1.90218365192413330078e+00) (1, -4.19171065092086791992e-01) (2, -1.08770704269409179688e+00) (3, -7.55880653858184814453e-01) (0, -1.30009472370147705078e+00) (1, 3.18159200251102447510e-02) (2, 8.61463665962219238281e-01) (3, -1.79907038807868957520e-01) (4, 2.73316073417663574219e+00) (5, 3.43104982376098632812e+00) (6, 1.11865334212779998779e-01) (7, -7.52097785472869873047e-01) (8, 6.83768987655639648438e-01) (9, 6.76437079906463623047e-01) (4, -3.01738405227661132812e+00) (5, 1.81542527675628662109e+00) (6, -4.59680747985839843750e+00) (7, -2.95394802093505859375e+00) (8, 5.03207540512084960938e+00) (9, 3.03104996681213378906e+00) (4, -3.54786276817321777344e+00) (5, 2.92831230163574218750e+00) (6, -5.62074136734008789062e+00) (7, -4.64214801788330078125e+00) (8, 3.12350869178771972656e+00) (9, 3.66459846496582031250e+00) 
