FANN_FLO_2.1
num_layers=3
learning_rate=0.100000
connection_rate=1.000000
network_type=0
learning_momentum=0.000000
training_algorithm=1
train_error_function=1
train_stop_function=0
cascade_output_change_fraction=0.010000
quickprop_decay=-0.000100
quickprop_mu=1.750000
rprop_increase_factor=1.200000
rprop_decrease_factor=0.500000
rprop_delta_min=0.000000
rprop_delta_max=50.000000
rprop_delta_zero=0.100000
cascade_output_stagnation_epochs=12
cascade_candidate_change_fraction=0.010000
cascade_candidate_stagnation_epochs=12
cascade_max_out_epochs=150
cascade_min_out_epochs=50
cascade_max_cand_epochs=150
cascade_min_cand_epochs=50
cascade_num_candidate_groups=2
bit_fail_limit=3.49999994039535522461e-01
cascade_candidate_limit=1.00000000000000000000e+03
cascade_weight_multiplier=4.00000005960464477539e-01
cascade_activation_functions_count=10
cascade_activation_functions=3 5 7 8 10 11 14 15 16 17 
cascade_activation_steepnesses_count=4
cascade_activation_steepnesses=2.50000000000000000000e-01 5.00000000000000000000e-01 7.50000000000000000000e-01 1.00000000000000000000e+00 
layer_sizes=4 6 4 
scale_included=1
scale_mean_in=0.096400 0.108010 0.125023 
scale_deviation_in=0.000529 0.000592 0.001036 
scale_new_min_in=-0.900000 -0.900000 -0.900000 
scale_factor_in=0.900000 0.900000 0.900000 
scale_mean_out=-0.728676 2.210020 -1.809070 
scale_deviation_out=0.000000 0.000000 0.010930 
scale_new_min_out=-0.900000 -0.900000 -0.900000 
scale_factor_out=0.900000 0.900000 0.900000 
neurons (num_inputs, activation_function, activation_steepness)=(0, 0, 0.00000000000000000000e+00) (0, 0, 0.00000000000000000000e+00) (0, 0, 0.00000000000000000000e+00) (0, 0, 0.00000000000000000000e+00) (4, 5, 5.00000000000000000000e-01) (4, 5, 5.00000000000000000000e-01) (4, 5, 5.00000000000000000000e-01) (4, 5, 5.00000000000000000000e-01) (4, 5, 5.00000000000000000000e-01) (0, 5, 0.00000000000000000000e+00) (6, 5, 5.00000000000000000000e-01) (6, 5, 5.00000000000000000000e-01) (6, 5, 5.00000000000000000000e-01) (0, 5, 0.00000000000000000000e+00) 
connections (connected_to_neuron, weight)=(0, -2.47624721527099609375e+01) (1, -2.55916500091552734375e+01) (2, 2.49684715270996093750e+01) (3, -4.39229660034179687500e+01) (0, 3.15017127990722656250e+00) (1, 4.47565221786499023438e+00) (2, -3.49222850799560546875e+00) (3, -1.94240798950195312500e+02) (0, -8.33640956878662109375e+00) (1, -7.60672760009765625000e+00) (2, 9.20863819122314453125e+00) (3, 1.89381973266601562500e+02) (0, -4.36235141754150390625e+00) (1, -4.86329460144042968750e+00) (2, 5.53438854217529296875e+00) (3, 1.96191085815429687500e+02) (0, 2.47042417526245117188e+00) (1, 1.50105261802673339844e+00) (2, -1.17742502689361572266e+00) (3, -1.92202133178710937500e+02) (4, -1.48571444924527895637e-07) (5, 5.71362555027008056641e-01) (6, 5.95388710498809814453e-02) (7, -4.18626844882965087891e-01) (8, -3.97307462990283966064e-02) (9, -9.61077928543090820312e-01) (4, -4.06201210021972656250e+01) (5, -1.38746536254882812500e+02) (6, 1.36916152954101562500e+02) (7, 1.39441040039062500000e+02) (8, -1.38024429321289062500e+02) (9, 1.40228652954101562500e+02) (4, -1.74750461578369140625e+01) (5, 2.82938098907470703125e+00) (6, -5.23977088928222656250e+00) (7, -3.45148396492004394531e+00) (8, 1.80541920661926269531e+00) (9, -2.76200795173645019531e+00) 
