FANN_FLO_2.1
num_layers=3
learning_rate=0.100000
connection_rate=1.000000
network_type=0
learning_momentum=0.000000
training_algorithm=1
train_error_function=1
train_stop_function=0
cascade_output_change_fraction=0.010000
quickprop_decay=-0.000100
quickprop_mu=1.750000
rprop_increase_factor=1.200000
rprop_decrease_factor=0.500000
rprop_delta_min=0.000000
rprop_delta_max=50.000000
rprop_delta_zero=0.100000
cascade_output_stagnation_epochs=12
cascade_candidate_change_fraction=0.010000
cascade_candidate_stagnation_epochs=12
cascade_max_out_epochs=150
cascade_min_out_epochs=50
cascade_max_cand_epochs=150
cascade_min_cand_epochs=50
cascade_num_candidate_groups=2
bit_fail_limit=3.49999994039535522461e-01
cascade_candidate_limit=1.00000000000000000000e+03
cascade_weight_multiplier=4.00000005960464477539e-01
cascade_activation_functions_count=10
cascade_activation_functions=3 5 7 8 10 11 14 15 16 17 
cascade_activation_steepnesses_count=4
cascade_activation_steepnesses=2.50000000000000000000e-01 5.00000000000000000000e-01 7.50000000000000000000e-01 1.00000000000000000000e+00 
layer_sizes=4 6 4 
scale_included=1
scale_mean_in=0.097002 0.108681 0.123823 
scale_deviation_in=0.000000 0.000000 0.000000 
scale_new_min_in=-0.900000 -0.900000 -0.900000 
scale_factor_in=0.900000 0.900000 0.900000 
scale_mean_out=-0.728676 2.210020 -1.796520 
scale_deviation_out=0.000000 0.000000 0.000000 
scale_new_min_out=-0.900000 -0.900000 -0.900000 
scale_factor_out=0.900000 0.900000 0.900000 
neurons (num_inputs, activation_function, activation_steepness)=(0, 0, 0.00000000000000000000e+00) (0, 0, 0.00000000000000000000e+00) (0, 0, 0.00000000000000000000e+00) (0, 0, 0.00000000000000000000e+00) (4, 5, 5.00000000000000000000e-01) (4, 5, 5.00000000000000000000e-01) (4, 5, 5.00000000000000000000e-01) (4, 5, 5.00000000000000000000e-01) (4, 5, 5.00000000000000000000e-01) (0, 5, 0.00000000000000000000e+00) (6, 5, 5.00000000000000000000e-01) (6, 5, 5.00000000000000000000e-01) (6, 5, 5.00000000000000000000e-01) (0, 5, 0.00000000000000000000e+00) 
connections (connected_to_neuron, weight)=(0, -2.45706672668457031250e+01) (1, -2.81310195922851562500e+01) (2, -3.10911693572998046875e+01) (3, -2.54863433837890625000e+02) (0, -2.62034187316894531250e+01) (1, -2.94994029998779296875e+01) (2, -3.24791946411132812500e+01) (3, -2.63550811767578125000e+02) (0, -2.58653469085693359375e+01) (1, -2.85566844940185546875e+01) (2, -3.13076190948486328125e+01) (3, -2.60199737548828125000e+02) (0, -2.45549163818359375000e+01) (1, -2.66065216064453125000e+01) (2, -2.99585094451904296875e+01) (3, -2.49723022460937500000e+02) (0, -2.54991035461425781250e+01) (1, -2.83512191772460937500e+01) (2, -3.33489418029785156250e+01) (3, -2.66537231445312500000e+02) (4, 6.96923136711120605469e-01) (5, 1.99926048517227172852e-01) (6, 1.25928491353988647461e-01) (7, 8.56620609760284423828e-01) (8, -9.81133580207824707031e-01) (9, -9.53534245491027832031e-01) (4, -1.36316177368164062500e+02) (5, -1.38510406494140625000e+02) (6, -1.37955780029296875000e+02) (7, -1.35445495605468750000e+02) (8, -1.39387298583984375000e+02) (9, 1.41040252685546875000e+02) (4, 8.25575180053710937500e+01) (5, 8.42965011596679687500e+01) (6, 8.30983200073242187500e+01) (7, 8.07513275146484375000e+01) (8, 8.45308303833007812500e+01) (9, -8.52389221191406250000e+01) 
