FANN_FLO_2.1
num_layers=3
learning_rate=0.100000
connection_rate=1.000000
network_type=0
learning_momentum=0.000000
training_algorithm=1
train_error_function=1
train_stop_function=0
cascade_output_change_fraction=0.010000
quickprop_decay=-0.000100
quickprop_mu=1.750000
rprop_increase_factor=1.200000
rprop_decrease_factor=0.500000
rprop_delta_min=0.000000
rprop_delta_max=50.000000
rprop_delta_zero=0.100000
cascade_output_stagnation_epochs=12
cascade_candidate_change_fraction=0.010000
cascade_candidate_stagnation_epochs=12
cascade_max_out_epochs=150
cascade_min_out_epochs=50
cascade_max_cand_epochs=150
cascade_min_cand_epochs=50
cascade_num_candidate_groups=2
bit_fail_limit=3.49999994039535522461e-01
cascade_candidate_limit=1.00000000000000000000e+03
cascade_weight_multiplier=4.00000005960464477539e-01
cascade_activation_functions_count=10
cascade_activation_functions=3 5 7 8 10 11 14 15 16 17 
cascade_activation_steepnesses_count=4
cascade_activation_steepnesses=2.50000000000000000000e-01 5.00000000000000000000e-01 7.50000000000000000000e-01 1.00000000000000000000e+00 
layer_sizes=4 6 4 
scale_included=1
scale_mean_in=0.156402 0.017815 0.116459 
scale_deviation_in=0.005550 0.018104 0.010271 
scale_new_min_in=-0.900000 -0.900000 -0.900000 
scale_factor_in=0.900000 0.900000 0.900000 
scale_mean_out=-1.458118 1.946402 -2.081034 
scale_deviation_out=0.114829 0.300354 0.492669 
scale_new_min_out=-0.900000 -0.900000 -0.900000 
scale_factor_out=0.900000 0.900000 0.900000 
neurons (num_inputs, activation_function, activation_steepness)=(0, 0, 0.00000000000000000000e+00) (0, 0, 0.00000000000000000000e+00) (0, 0, 0.00000000000000000000e+00) (0, 0, 0.00000000000000000000e+00) (4, 5, 5.00000000000000000000e-01) (4, 5, 5.00000000000000000000e-01) (4, 5, 5.00000000000000000000e-01) (4, 5, 5.00000000000000000000e-01) (4, 5, 5.00000000000000000000e-01) (0, 5, 0.00000000000000000000e+00) (6, 5, 5.00000000000000000000e-01) (6, 5, 5.00000000000000000000e-01) (6, 5, 5.00000000000000000000e-01) (0, 5, 0.00000000000000000000e+00) 
connections (connected_to_neuron, weight)=(0, -1.22925817966461181641e+00) (1, -5.22272109985351562500e-01) (2, -1.79122638702392578125e+00) (3, -2.06767249107360839844e+00) (0, 4.04716539382934570312e+00) (1, 1.49292528629302978516e+00) (2, 8.17102909088134765625e+00) (3, -4.36683845520019531250e+00) (0, 3.85261505842208862305e-01) (1, -1.88885068893432617188e+00) (2, 2.34264265745878219604e-02) (3, 2.48650622367858886719e+00) (0, 1.79599061608314514160e-01) (1, -3.96366500854492187500e+00) (2, 1.16205617785453796387e-01) (3, -4.30686521530151367188e+00) (0, 2.55467239767313003540e-02) (1, 3.46809864044189453125e-01) (2, -3.85184884071350097656e-01) (3, -3.44759702682495117188e-01) (4, -7.54791319370269775391e-01) (5, 1.60173073410987854004e-01) (6, -4.74979782104492187500e+00) (7, -3.85867047309875488281e+00) (8, 2.27282357215881347656e+00) (9, 2.14446663856506347656e-01) (4, 1.80200850963592529297e+00) (5, -3.27234745025634765625e+00) (6, 3.70561391115188598633e-01) (7, -9.97662782669067382812e-01) (8, -2.02131295204162597656e+00) (9, -2.05839824676513671875e+00) (4, 1.65149796009063720703e+00) (5, -2.94721341133117675781e+00) (6, 1.00891423225402832031e+00) (7, -5.10756194591522216797e-01) (8, 1.25381517410278320312e+00) (9, -1.49336373805999755859e+00) 
