FANN_FLO_2.1
num_layers=4
learning_rate=0.100000
connection_rate=1.000000
network_type=0
learning_momentum=0.000000
training_algorithm=1
train_error_function=1
train_stop_function=0
cascade_output_change_fraction=0.010000
quickprop_decay=-0.000100
quickprop_mu=1.750000
rprop_increase_factor=1.200000
rprop_decrease_factor=0.500000
rprop_delta_min=0.000000
rprop_delta_max=50.000000
rprop_delta_zero=0.100000
cascade_output_stagnation_epochs=12
cascade_candidate_change_fraction=0.010000
cascade_candidate_stagnation_epochs=12
cascade_max_out_epochs=150
cascade_min_out_epochs=50
cascade_max_cand_epochs=150
cascade_min_cand_epochs=50
cascade_num_candidate_groups=2
bit_fail_limit=3.49999994039535522461e-01
cascade_candidate_limit=1.00000000000000000000e+03
cascade_weight_multiplier=4.00000005960464477539e-01
cascade_activation_functions_count=10
cascade_activation_functions=3 5 7 8 10 11 14 15 16 17 
cascade_activation_steepnesses_count=4
cascade_activation_steepnesses=2.50000000000000000000e-01 5.00000000000000000000e-01 7.50000000000000000000e-01 1.00000000000000000000e+00 
layer_sizes=4 6 6 4 
scale_included=1
scale_mean_in=0.066587 0.056193 0.043568 
scale_deviation_in=0.018322 0.021289 0.016355 
scale_new_min_in=-0.900000 -0.900000 -0.900000 
scale_factor_in=0.900000 0.900000 0.900000 
scale_mean_out=-0.877373 3.480190 -0.108311 
scale_deviation_out=0.237200 0.426088 0.251457 
scale_new_min_out=-0.900000 -0.900000 -0.900000 
scale_factor_out=0.900000 0.900000 0.900000 
neurons (num_inputs, activation_function, activation_steepness)=(0, 0, 0.00000000000000000000e+00) (0, 0, 0.00000000000000000000e+00) (0, 0, 0.00000000000000000000e+00) (0, 0, 0.00000000000000000000e+00) (4, 5, 5.00000000000000000000e-01) (4, 5, 5.00000000000000000000e-01) (4, 5, 5.00000000000000000000e-01) (4, 5, 5.00000000000000000000e-01) (4, 5, 5.00000000000000000000e-01) (0, 5, 0.00000000000000000000e+00) (6, 5, 5.00000000000000000000e-01) (6, 5, 5.00000000000000000000e-01) (6, 5, 5.00000000000000000000e-01) (6, 5, 5.00000000000000000000e-01) (6, 5, 5.00000000000000000000e-01) (0, 5, 0.00000000000000000000e+00) (6, 5, 5.00000000000000000000e-01) (6, 5, 5.00000000000000000000e-01) (6, 5, 5.00000000000000000000e-01) (0, 5, 0.00000000000000000000e+00) 
connections (connected_to_neuron, weight)=(0, 1.94582188129425048828e+00) (1, 3.56611108779907226562e+00) (2, 2.89431834220886230469e+00) (3, 5.85659313201904296875e+00) (0, -1.08221185207366943359e+00) (1, -8.87935906648635864258e-02) (2, -1.17818069458007812500e+00) (3, 1.39478039741516113281e+00) (0, -2.23021769523620605469e+00) (1, -3.22719991207122802734e-01) (2, -7.68224373459815979004e-02) (3, -1.64947855472564697266e+00) (0, -2.31566905975341796875e+00) (1, 1.34443783760070800781e+00) (2, -1.23965001106262207031e+00) (3, 7.35122382640838623047e-01) (0, 1.91011041402816772461e-01) (1, 2.26843881607055664062e+00) (2, -1.99560046195983886719e-01) (3, -2.25425028800964355469e+00) (4, 2.31163573265075683594e+00) (5, 1.50357139110565185547e+00) (6, 1.26278769969940185547e+00) (7, 2.08272624015808105469e+00) (8, -2.80538773536682128906e+00) (9, -1.44244819879531860352e-01) (4, -1.52884006500244140625e+00) (5, 1.55761420726776123047e+00) (6, -1.82319736480712890625e+00) (7, 4.65866833925247192383e-01) (8, -1.76736176013946533203e+00) (9, -2.33252299949526786804e-03) (4, 1.70420420169830322266e+00) (5, -1.81650841236114501953e+00) (6, 1.47302389144897460938e+00) (7, 1.90291571617126464844e+00) (8, -2.63230252265930175781e+00) (9, 5.61556458473205566406e-01) (4, 4.65090274810791015625e+00) (5, -1.26142844557762145996e-01) (6, -1.11628246307373046875e+00) (7, -3.59668636322021484375e+00) (8, -1.04202461242675781250e+00) (9, 5.50517916679382324219e-01) (4, 3.08390426635742187500e+00) (5, 1.29580020904541015625e+00) (6, -1.12376928329467773438e+00) (7, 5.83600580692291259766e-01) (8, 2.57355117797851562500e+00) (9, -9.43891778588294982910e-02) (10, 2.68622565269470214844e+00) (11, -4.86545658111572265625e+00) (12, 1.89749312400817871094e+00) (13, -5.24930715560913085938e+00) (14, 5.76573705673217773438e+00) (15, -2.79849648475646972656e-01) (10, 6.46935367584228515625e+00) (11, 5.48624610900878906250e+00) (12, 4.81428670883178710938e+00) (13, -1.13495941162109375000e+01) (14, -7.41361761093139648438e+00) (15, 2.74380421638488769531e+00) (10, 5.44056177139282226562e+00) (11, 5.52667474746704101562e+00) (12, -5.16938567161560058594e-01) (13, -1.02018737792968750000e+01) (14, -2.51447200775146484375e+00) (15, 3.41304087638854980469e+00) 
