FANN_FLO_2.1
num_layers=3
learning_rate=0.100000
connection_rate=1.000000
network_type=0
learning_momentum=0.000000
training_algorithm=1
train_error_function=1
train_stop_function=0
cascade_output_change_fraction=0.010000
quickprop_decay=-0.000100
quickprop_mu=1.750000
rprop_increase_factor=1.200000
rprop_decrease_factor=0.500000
rprop_delta_min=0.000000
rprop_delta_max=50.000000
rprop_delta_zero=0.100000
cascade_output_stagnation_epochs=12
cascade_candidate_change_fraction=0.010000
cascade_candidate_stagnation_epochs=12
cascade_max_out_epochs=150
cascade_min_out_epochs=50
cascade_max_cand_epochs=150
cascade_min_cand_epochs=50
cascade_num_candidate_groups=2
bit_fail_limit=3.49999994039535522461e-01
cascade_candidate_limit=1.00000000000000000000e+03
cascade_weight_multiplier=4.00000005960464477539e-01
cascade_activation_functions_count=10
cascade_activation_functions=3 5 7 8 10 11 14 15 16 17 
cascade_activation_steepnesses_count=4
cascade_activation_steepnesses=2.50000000000000000000e-01 5.00000000000000000000e-01 7.50000000000000000000e-01 1.00000000000000000000e+00 
layer_sizes=4 6 4 
scale_included=1
scale_mean_in=0.177340 0.037058 0.098804 
scale_deviation_in=0.002333 0.009377 0.003107 
scale_new_min_in=-0.900000 -0.900000 -0.900000 
scale_factor_in=0.900000 0.900000 0.900000 
scale_mean_out=-1.365191 1.678302 -2.190985 
scale_deviation_out=0.050912 0.092077 0.144692 
scale_new_min_out=-0.900000 -0.900000 -0.900000 
scale_factor_out=0.900000 0.900000 0.900000 
neurons (num_inputs, activation_function, activation_steepness)=(0, 0, 0.00000000000000000000e+00) (0, 0, 0.00000000000000000000e+00) (0, 0, 0.00000000000000000000e+00) (0, 0, 0.00000000000000000000e+00) (4, 5, 5.00000000000000000000e-01) (4, 5, 5.00000000000000000000e-01) (4, 5, 5.00000000000000000000e-01) (4, 5, 5.00000000000000000000e-01) (4, 5, 5.00000000000000000000e-01) (0, 5, 0.00000000000000000000e+00) (6, 5, 5.00000000000000000000e-01) (6, 5, 5.00000000000000000000e-01) (6, 5, 5.00000000000000000000e-01) (0, 5, 0.00000000000000000000e+00) 
connections (connected_to_neuron, weight)=(0, 1.52310156822204589844e+00) (1, 1.44994032382965087891e+00) (2, 1.67433238029479980469e+00) (3, -1.78282827138900756836e-01) (0, -3.96318912506103515625e-01) (1, -1.79317188262939453125e+00) (2, -7.43608295917510986328e-01) (3, 6.08363747596740722656e-01) (0, -1.07371366024017333984e+00) (1, 1.02316653728485107422e+00) (2, -8.37258458137512207031e-01) (3, 3.45660269260406494141e-01) (0, 9.17366445064544677734e-01) (1, 9.70752537250518798828e-01) (2, 2.56258726119995117188e-01) (3, 2.72996395826339721680e-01) (0, -6.76642358303070068359e-01) (1, 4.89339530467987060547e-01) (2, -9.71641540527343750000e-01) (3, 2.46261537075042724609e-01) (4, 1.12703874707221984863e-01) (5, -1.90191793441772460938e+00) (6, 1.29170238971710205078e+00) (7, 9.60275590419769287109e-01) (8, 6.03247225284576416016e-01) (9, 1.10978901386260986328e-01) (4, -1.64546883106231689453e+00) (5, 1.53087103366851806641e+00) (6, 7.91837394237518310547e-01) (7, -1.48397397994995117188e+00) (8, 7.18421041965484619141e-01) (9, -2.32387676835060119629e-01) (4, -2.50308489799499511719e+00) (5, 8.89119148254394531250e-01) (6, 3.68588030338287353516e-01) (7, -4.32798743247985839844e-01) (8, 7.04911649227142333984e-01) (9, -2.07414567470550537109e-01) 
