FANN_FLO_2.1
num_layers=4
learning_rate=0.100000
connection_rate=1.000000
network_type=0
learning_momentum=0.000000
training_algorithm=1
train_error_function=1
train_stop_function=0
cascade_output_change_fraction=0.010000
quickprop_decay=-0.000100
quickprop_mu=1.750000
rprop_increase_factor=1.200000
rprop_decrease_factor=0.500000
rprop_delta_min=0.000000
rprop_delta_max=50.000000
rprop_delta_zero=0.100000
cascade_output_stagnation_epochs=12
cascade_candidate_change_fraction=0.010000
cascade_candidate_stagnation_epochs=12
cascade_max_out_epochs=150
cascade_min_out_epochs=50
cascade_max_cand_epochs=150
cascade_min_cand_epochs=50
cascade_num_candidate_groups=2
bit_fail_limit=3.49999994039535522461e-01
cascade_candidate_limit=1.00000000000000000000e+03
cascade_weight_multiplier=4.00000005960464477539e-01
cascade_activation_functions_count=10
cascade_activation_functions=3 5 7 8 10 11 14 15 16 17 
cascade_activation_steepnesses_count=4
cascade_activation_steepnesses=2.50000000000000000000e-01 5.00000000000000000000e-01 7.50000000000000000000e-01 1.00000000000000000000e+00 
layer_sizes=4 11 11 4 
scale_included=1
scale_mean_in=0.097257 0.017218 -0.124121 
scale_deviation_in=0.016429 0.019500 0.010256 
scale_new_min_in=-0.900000 -0.900000 -0.900000 
scale_factor_in=0.900000 0.900000 0.900000 
scale_mean_out=-1.368032 1.843217 -0.976397 
scale_deviation_out=0.204194 0.187482 0.358164 
scale_new_min_out=-0.900000 -0.900000 -0.900000 
scale_factor_out=0.900000 0.900000 0.900000 
neurons (num_inputs, activation_function, activation_steepness)=(0, 0, 0.00000000000000000000e+00) (0, 0, 0.00000000000000000000e+00) (0, 0, 0.00000000000000000000e+00) (0, 0, 0.00000000000000000000e+00) (4, 5, 5.00000000000000000000e-01) (4, 5, 5.00000000000000000000e-01) (4, 5, 5.00000000000000000000e-01) (4, 5, 5.00000000000000000000e-01) (4, 5, 5.00000000000000000000e-01) (4, 5, 5.00000000000000000000e-01) (4, 5, 5.00000000000000000000e-01) (4, 5, 5.00000000000000000000e-01) (4, 5, 5.00000000000000000000e-01) (4, 5, 5.00000000000000000000e-01) (0, 5, 0.00000000000000000000e+00) (11, 5, 5.00000000000000000000e-01) (11, 5, 5.00000000000000000000e-01) (11, 5, 5.00000000000000000000e-01) (11, 5, 5.00000000000000000000e-01) (11, 5, 5.00000000000000000000e-01) (11, 5, 5.00000000000000000000e-01) (11, 5, 5.00000000000000000000e-01) (11, 5, 5.00000000000000000000e-01) (11, 5, 5.00000000000000000000e-01) (11, 5, 5.00000000000000000000e-01) (0, 5, 0.00000000000000000000e+00) (11, 5, 5.00000000000000000000e-01) (11, 5, 5.00000000000000000000e-01) (11, 5, 5.00000000000000000000e-01) (0, 5, 0.00000000000000000000e+00) 
connections (connected_to_neuron, weight)=(0, -2.18442177772521972656e+00) (1, 4.27401733398437500000e+00) (2, 1.85050830245018005371e-01) (3, -5.46443653106689453125e+00) (0, -3.91651153564453125000e-01) (1, -1.05326366424560546875e+00) (2, 1.43918550014495849609e+00) (3, 5.09484052658081054688e-01) (0, -1.90122932195663452148e-01) (1, 1.63410294055938720703e+00) (2, 1.05142188072204589844e+00) (3, 1.82943046092987060547e+00) (0, 1.25647127628326416016e+00) (1, 5.10478138923645019531e-01) (2, 7.73749291896820068359e-01) (3, 2.87888121604919433594e+00) (0, -6.78420245647430419922e-01) (1, -1.60906052589416503906e+00) (2, -7.51457214355468750000e-01) (3, -3.57028871774673461914e-01) (0, -6.35543167591094970703e-02) (1, -6.37141561508178710938e+00) (2, 1.77367683500051498413e-02) (3, -7.38345432281494140625e+00) (0, 1.22671544551849365234e+00) (1, 1.81331884860992431641e+00) (2, -3.36720418930053710938e+00) (3, 2.81002616882324218750e+00) (0, -6.52396321296691894531e-01) (1, -5.80137073993682861328e-01) (2, 2.65598535537719726562e+00) (3, -3.03331613540649414062e+00) (0, 4.31174933910369873047e-01) (1, -1.79178428649902343750e+00) (2, -1.67143964767456054688e+00) (3, -1.39370667934417724609e+00) (0, 5.29133141040802001953e-01) (1, -1.78923499584197998047e+00) (2, 1.06044441461563110352e-01) (3, -7.87310540676116943359e-01) (4, -4.42394065856933593750e+00) (5, 1.05266892910003662109e+00) (6, 8.44059467315673828125e-01) (7, -6.82329654693603515625e-01) (8, 8.88557851314544677734e-01) (9, -9.47311520576477050781e-02) (10, 6.06720805168151855469e-01) (11, 2.67652980983257293701e-02) (12, 8.74997437000274658203e-01) (13, 1.57400619983673095703e+00) (14, 1.68546164035797119141e+00) (4, 2.69668078422546386719e+00) (5, -1.66382992267608642578e+00) (6, 9.81165409088134765625e-01) (7, 1.05537414550781250000e+00) (8, 5.37546157836914062500e-01) (9, -3.35666716098785400391e-01) (10, -2.40898084640502929688e+00) (11, 2.59149837493896484375e+00) (12, -2.24876666069030761719e+00) (13, -1.10501654446125030518e-01) (14, 3.35488945245742797852e-01) (4, -7.53578960895538330078e-01) (5, -1.47517979145050048828e+00) (6, 1.95643949508666992188e+00) (7, 2.09319162368774414062e+00) (8, -1.76071727275848388672e+00) (9, -8.43136310577392578125e+00) (10, 2.77068066596984863281e+00) (11, -1.38840639591217041016e+00) (12, -3.44565844535827636719e+00) (13, -2.52045011520385742188e+00) (14, 2.34639072418212890625e+00) (4, 1.01623368263244628906e+00) (5, 4.52694267034530639648e-01) (6, -8.14887344837188720703e-01) (7, 9.11293447017669677734e-01) (8, -8.69975745677947998047e-01) (9, -2.39594936370849609375e-01) (10, -2.19631409645080566406e+00) (11, 1.91582036018371582031e+00) (12, -1.31152808666229248047e+00) (13, -3.87386411428451538086e-01) (14, -1.18984329700469970703e+00) (4, -9.52677667140960693359e-01) (5, 7.60578036308288574219e-01) (6, -7.83900558948516845703e-01) (7, -7.38101080060005187988e-02) (8, -4.84667718410491943359e-01) (9, 3.34421682357788085938e+00) (10, -1.67390620708465576172e+00) (11, -6.90976142883300781250e-01) (12, 6.29201054573059082031e-01) (13, 3.37567687034606933594e-01) (14, -2.50302135944366455078e-01) (4, -8.00528466701507568359e-01) (5, -2.30420279502868652344e+00) (6, -4.98383529484272003174e-02) (7, -1.82619667053222656250e+00) (8, -6.80428922176361083984e-01) (9, 1.54367697238922119141e+00) (10, -7.14369237422943115234e-01) (11, -5.29671907424926757812e-01) (12, 7.22360253334045410156e-01) (13, 9.77892100811004638672e-01) (14, 1.30966722965240478516e+00) (4, 1.43509602546691894531e+00) (5, -7.15336441993713378906e-01) (6, -9.18480098247528076172e-01) (7, -9.26138162612915039062e-01) (8, -1.03367447853088378906e+00) (9, -2.85883665084838867188e-01) (10, 1.53857409954071044922e+00) (11, -5.65911717712879180908e-02) (12, 1.31737029552459716797e+00) (13, -1.06015574932098388672e+00) (14, -1.30413842201232910156e+00) (4, 4.50931358337402343750e+00) (5, -1.65094995498657226562e+00) (6, -4.87775877118110656738e-02) (7, -7.00856029987335205078e-01) (8, -1.37697541713714599609e+00) (9, 1.42494946718215942383e-01) (10, 2.28312537074089050293e-01) (11, 6.36098086833953857422e-02) (12, 5.88259875774383544922e-01) (13, -2.35809579491615295410e-01) (14, -2.12325051426887512207e-01) (4, 5.88115274906158447266e-01) (5, 1.28816270828247070312e+00) (6, -1.68391299247741699219e+00) (7, -4.61328357458114624023e-01) (8, 1.61281037330627441406e+00) (9, 4.25130128860473632812e+00) (10, -1.45882344245910644531e+00) (11, 7.09146201610565185547e-01) (12, 1.60256934165954589844e+00) (13, 2.14797306060791015625e+00) (14, 2.44615614414215087891e-01) (4, -2.97441053390502929688e+00) (5, 6.31531298160552978516e-01) (6, -1.95478200912475585938e-01) (7, 2.80975345522165298462e-02) (8, 3.20079207420349121094e-01) (9, -3.82647700607776641846e-02) (10, 3.56084764003753662109e-01) (11, 3.04598450660705566406e-01) (12, 3.80858927965164184570e-01) (13, 1.14211058616638183594e+00) (14, 1.14298152923583984375e+00) (15, -6.76661920547485351562e+00) (16, 1.42671513557434082031e+00) (17, 7.77734756469726562500e+00) (18, -6.78164124488830566406e-01) (19, -6.87428617477416992188e+00) (20, -3.04864025115966796875e+00) (21, 4.44020748138427734375e+00) (22, 7.02348566055297851562e+00) (23, -7.37064504623413085938e+00) (24, -4.74960088729858398438e+00) (25, -1.56178498268127441406e+00) (15, -1.05579829216003417969e+00) (16, 5.41347885131835937500e+00) (17, -3.41221123933792114258e-01) (18, 3.78636455535888671875e+00) (19, -1.41359403729438781738e-01) (20, -3.08998274803161621094e+00) (21, -4.37070226669311523438e+00) (22, -3.10825300216674804688e+00) (23, 1.28118574619293212891e+00) (24, 7.21236050128936767578e-01) (25, 1.50554490089416503906e+00) (15, 1.42351675033569335938e+00) (16, 2.03162336349487304688e+00) (17, -1.00292520523071289062e+01) (18, -2.16702723503112792969e+00) (19, 8.27849268913269042969e-01) (20, 1.41530990600585937500e+00) (21, -2.16263294219970703125e+00) (22, 3.40588003396987915039e-01) (23, -1.75326013565063476562e+00) (24, -2.45884865522384643555e-01) (25, 6.93718910217285156250e+00) 
