FANN_FLO_2.1
num_layers=4
learning_rate=0.100000
connection_rate=1.000000
network_type=0
learning_momentum=0.000000
training_algorithm=1
train_error_function=1
train_stop_function=0
cascade_output_change_fraction=0.010000
quickprop_decay=-0.000100
quickprop_mu=1.750000
rprop_increase_factor=1.200000
rprop_decrease_factor=0.500000
rprop_delta_min=0.000000
rprop_delta_max=50.000000
rprop_delta_zero=0.100000
cascade_output_stagnation_epochs=12
cascade_candidate_change_fraction=0.010000
cascade_candidate_stagnation_epochs=12
cascade_max_out_epochs=150
cascade_min_out_epochs=50
cascade_max_cand_epochs=150
cascade_min_cand_epochs=50
cascade_num_candidate_groups=2
bit_fail_limit=3.49999994039535522461e-01
cascade_candidate_limit=1.00000000000000000000e+03
cascade_weight_multiplier=4.00000005960464477539e-01
cascade_activation_functions_count=10
cascade_activation_functions=3 5 7 8 10 11 14 15 16 17 
cascade_activation_steepnesses_count=4
cascade_activation_steepnesses=2.50000000000000000000e-01 5.00000000000000000000e-01 7.50000000000000000000e-01 1.00000000000000000000e+00 
layer_sizes=4 11 11 4 
scale_included=1
scale_mean_in=0.123653 0.113847 -0.051807 
scale_deviation_in=0.000647 0.000405 0.000640 
scale_new_min_in=-0.900000 -0.900000 -0.900000 
scale_factor_in=0.900000 0.900000 0.900000 
scale_mean_out=-0.819838 2.207337 -1.913715 
scale_deviation_out=0.004045 0.008086 0.193268 
scale_new_min_out=-0.900000 -0.900000 -0.900000 
scale_factor_out=0.900000 0.900000 0.900000 
neurons (num_inputs, activation_function, activation_steepness)=(0, 0, 0.00000000000000000000e+00) (0, 0, 0.00000000000000000000e+00) (0, 0, 0.00000000000000000000e+00) (0, 0, 0.00000000000000000000e+00) (4, 5, 5.00000000000000000000e-01) (4, 5, 5.00000000000000000000e-01) (4, 5, 5.00000000000000000000e-01) (4, 5, 5.00000000000000000000e-01) (4, 5, 5.00000000000000000000e-01) (4, 5, 5.00000000000000000000e-01) (4, 5, 5.00000000000000000000e-01) (4, 5, 5.00000000000000000000e-01) (4, 5, 5.00000000000000000000e-01) (4, 5, 5.00000000000000000000e-01) (0, 5, 0.00000000000000000000e+00) (11, 5, 5.00000000000000000000e-01) (11, 5, 5.00000000000000000000e-01) (11, 5, 5.00000000000000000000e-01) (11, 5, 5.00000000000000000000e-01) (11, 5, 5.00000000000000000000e-01) (11, 5, 5.00000000000000000000e-01) (11, 5, 5.00000000000000000000e-01) (11, 5, 5.00000000000000000000e-01) (11, 5, 5.00000000000000000000e-01) (11, 5, 5.00000000000000000000e-01) (0, 5, 0.00000000000000000000e+00) (11, 5, 5.00000000000000000000e-01) (11, 5, 5.00000000000000000000e-01) (11, 5, 5.00000000000000000000e-01) (0, 5, 0.00000000000000000000e+00) 
connections (connected_to_neuron, weight)=(0, 5.18069091796875000000e+02) (1, -5.96700378417968750000e+02) (2, 1.96211151123046875000e+02) (3, 1.04087791442871093750e+01) (0, 3.53781066894531250000e+02) (1, -4.58694671630859375000e+02) (2, 8.53623352050781250000e+01) (3, -1.05948410034179687500e+02) (0, 6.93567077636718750000e+02) (1, -6.69555664062500000000e+02) (2, 3.26903564453125000000e+02) (3, 1.54961280822753906250e+01) (0, 6.54219299316406250000e+02) (1, -6.02753906250000000000e+02) (2, 3.22703430175781250000e+02) (3, -3.97924542427062988281e+00) (0, 5.40195495605468750000e+02) (1, -6.22316589355468750000e+02) (2, 1.99197280883789062500e+02) (3, 2.82069087028503417969e+00) (0, 5.46825134277343750000e+02) (1, -6.30521118164062500000e+02) (2, 2.01951339721679687500e+02) (3, 2.65158104896545410156e+00) (0, -4.76636199951171875000e+02) (1, 5.32650329589843750000e+02) (2, -1.69944671630859375000e+02) (3, 2.23523376464843750000e+02) (0, -3.51795043945312500000e+02) (1, 4.54728210449218750000e+02) (2, -8.40482101440429687500e+01) (3, 1.05085792541503906250e+02) (0, -3.60419769287109375000e+02) (1, 4.65878631591796875000e+02) (2, -8.61445999145507812500e+01) (3, 1.07645698547363281250e+02) (0, -4.74761199951171875000e+02) (1, 5.27373657226562500000e+02) (2, -1.67233718872070312500e+02) (3, 2.21963684082031250000e+02) (4, -4.05322608947753906250e+01) (5, -2.34145431518554687500e+01) (6, -4.58458290100097656250e+01) (7, -4.15937728881835937500e+01) (8, -4.00742874145507812500e+01) (9, -4.06847267150878906250e+01) (10, 2.90026645660400390625e+01) (11, 2.33521308898925781250e+01) (12, 2.50332813262939453125e+01) (13, 2.83744735717773437500e+01) (14, 2.93821029663085937500e+01) (4, -3.84947052001953125000e+01) (5, -2.25638809204101562500e+01) (6, -4.60203819274902343750e+01) (7, -4.18744850158691406250e+01) (8, -4.03161926269531250000e+01) (9, -4.07362823486328125000e+01) (10, 2.71036682128906250000e+01) (11, 2.37597751617431640625e+01) (12, 2.26784381866455078125e+01) (13, 2.68888320922851562500e+01) (14, 2.80482368469238281250e+01) (4, -2.41594657897949218750e+01) (5, -2.19838142395019531250e+01) (6, -3.40524559020996093750e+01) (7, -3.23413085937500000000e+01) (8, -2.38300285339355468750e+01) (9, -2.33690948486328125000e+01) (10, 3.17611370086669921875e+01) (11, 2.11122798919677734375e+01) (12, 2.17617492675781250000e+01) (13, 3.22060127258300781250e+01) (14, 3.53810348510742187500e+01) (4, -2.40958213806152343750e+01) (5, -2.33269863128662109375e+01) (6, -3.36490859985351562500e+01) (7, -3.15011901855468750000e+01) (8, -2.39272060394287109375e+01) (9, -2.50899791717529296875e+01) (10, 3.14971752166748046875e+01) (11, 2.23429927825927734375e+01) (12, 2.38844318389892578125e+01) (13, 3.15212802886962890625e+01) (14, 3.31144104003906250000e+01) (4, -2.36476459503173828125e+01) (5, -2.30788593292236328125e+01) (6, -3.32659835815429687500e+01) (7, -3.22237167358398437500e+01) (8, -2.37708473205566406250e+01) (9, -2.40065784454345703125e+01) (10, 3.08598899841308593750e+01) (11, 2.18678035736083984375e+01) (12, 2.24637184143066406250e+01) (13, 3.15143966674804687500e+01) (14, 3.39395217895507812500e+01) (4, -2.26094627380371093750e+01) (5, -2.17075386047363281250e+01) (6, -3.30870094299316406250e+01) (7, -3.01781024932861328125e+01) (8, -2.42961959838867187500e+01) (9, -2.38280525207519531250e+01) (10, 3.10344524383544921875e+01) (11, 2.17796573638916015625e+01) (12, 2.10388603210449218750e+01) (13, 3.10915164947509765625e+01) (14, 3.34897041320800781250e+01) (4, 3.91424636840820312500e+01) (5, 2.54742774963378906250e+01) (6, 4.61943855285644531250e+01) (7, 4.26400260925292968750e+01) (8, 4.01913146972656250000e+01) (9, 4.10259819030761718750e+01) (10, -2.96675281524658203125e+01) (11, -2.50477485656738281250e+01) (12, -2.52548751831054687500e+01) (13, -2.94930095672607421875e+01) (14, -2.93164272308349609375e+01) (4, 3.94659233093261718750e+01) (5, 2.34903068542480468750e+01) (6, 4.56338653564453125000e+01) (7, 4.32438697814941406250e+01) (8, 4.10182723999023437500e+01) (9, 4.10891990661621093750e+01) (10, -2.81647586822509765625e+01) (11, -2.39724102020263671875e+01) (12, -2.39600620269775390625e+01) (13, -2.81655616760253906250e+01) (14, -2.88777904510498046875e+01) (4, 2.56883640289306640625e+01) (5, 2.39529113769531250000e+01) (6, 3.34370498657226562500e+01) (7, 3.01369495391845703125e+01) (8, 2.52695407867431640625e+01) (9, 2.52508716583251953125e+01) (10, -3.20051422119140625000e+01) (11, -2.30090808868408203125e+01) (12, -2.27321090698242187500e+01) (13, -3.15794010162353515625e+01) (14, -3.40824661254882812500e+01) (4, 3.86503105163574218750e+01) (5, 2.33638935089111328125e+01) (6, 4.38357505798339843750e+01) (7, 4.11895675659179687500e+01) (8, 3.97675361633300781250e+01) (9, 3.93352813720703125000e+01) (10, -2.97080554962158203125e+01) (11, -2.44031925201416015625e+01) (12, -2.48359203338623046875e+01) (13, -2.89826984405517578125e+01) (14, -2.81505966186523437500e+01) (15, 3.60362434387207031250e+01) (16, 3.45251312255859375000e+01) (17, 2.95023193359375000000e+01) (18, 2.96719932556152343750e+01) (19, 2.93472518920898437500e+01) (20, 2.86199302673339843750e+01) (21, -3.62747764587402343750e+01) (22, -3.56278190612792968750e+01) (23, -3.05866508483886718750e+01) (24, -3.64185485839843750000e+01) (25, 3.09071044921875000000e+01) (15, -3.53567314147949218750e+01) (16, -3.55748443603515625000e+01) (17, -2.88186378479003906250e+01) (18, -2.99143943786621093750e+01) (19, -2.91828231811523437500e+01) (20, -2.95030918121337890625e+01) (21, 3.65782470703125000000e+01) (22, 3.56948051452636718750e+01) (23, 2.99968681335449218750e+01) (24, 3.50127601623535156250e+01) (25, -3.05463066101074218750e+01) (15, 3.59048843383789062500e+01) (16, 3.59553794860839843750e+01) (17, 3.07669239044189453125e+01) (18, 2.91243686676025390625e+01) (19, 2.97279758453369140625e+01) (20, 2.93729076385498046875e+01) (21, -3.54352684020996093750e+01) (22, -3.60395164489746093750e+01) (23, -2.89399757385253906250e+01) (24, -3.51927986145019531250e+01) (25, 3.03365192413330078125e+01) 
