FANN_FLO_2.1
num_layers=4
learning_rate=0.100000
connection_rate=1.000000
network_type=0
learning_momentum=0.000000
training_algorithm=1
train_error_function=1
train_stop_function=0
cascade_output_change_fraction=0.010000
quickprop_decay=-0.000100
quickprop_mu=1.750000
rprop_increase_factor=1.200000
rprop_decrease_factor=0.500000
rprop_delta_min=0.000000
rprop_delta_max=50.000000
rprop_delta_zero=0.100000
cascade_output_stagnation_epochs=12
cascade_candidate_change_fraction=0.010000
cascade_candidate_stagnation_epochs=12
cascade_max_out_epochs=150
cascade_min_out_epochs=50
cascade_max_cand_epochs=150
cascade_min_cand_epochs=50
cascade_num_candidate_groups=2
bit_fail_limit=3.49999994039535522461e-01
cascade_candidate_limit=1.00000000000000000000e+03
cascade_weight_multiplier=4.00000005960464477539e-01
cascade_activation_functions_count=10
cascade_activation_functions=3 5 7 8 10 11 14 15 16 17 
cascade_activation_steepnesses_count=4
cascade_activation_steepnesses=2.50000000000000000000e-01 5.00000000000000000000e-01 7.50000000000000000000e-01 1.00000000000000000000e+00 
layer_sizes=4 11 11 4 
scale_included=1
scale_mean_in=0.154087 0.016036 -0.157454 
scale_deviation_in=0.018704 0.019274 0.011402 
scale_new_min_in=-0.900000 -0.900000 -0.900000 
scale_factor_in=0.900000 0.900000 0.900000 
scale_mean_out=-1.451062 1.094698 -1.383857 
scale_deviation_out=0.125896 0.197836 0.971861 
scale_new_min_out=-0.900000 -0.900000 -0.900000 
scale_factor_out=0.900000 0.900000 0.900000 
neurons (num_inputs, activation_function, activation_steepness)=(0, 0, 0.00000000000000000000e+00) (0, 0, 0.00000000000000000000e+00) (0, 0, 0.00000000000000000000e+00) (0, 0, 0.00000000000000000000e+00) (4, 5, 5.00000000000000000000e-01) (4, 5, 5.00000000000000000000e-01) (4, 5, 5.00000000000000000000e-01) (4, 5, 5.00000000000000000000e-01) (4, 5, 5.00000000000000000000e-01) (4, 5, 5.00000000000000000000e-01) (4, 5, 5.00000000000000000000e-01) (4, 5, 5.00000000000000000000e-01) (4, 5, 5.00000000000000000000e-01) (4, 5, 5.00000000000000000000e-01) (0, 5, 0.00000000000000000000e+00) (11, 5, 5.00000000000000000000e-01) (11, 5, 5.00000000000000000000e-01) (11, 5, 5.00000000000000000000e-01) (11, 5, 5.00000000000000000000e-01) (11, 5, 5.00000000000000000000e-01) (11, 5, 5.00000000000000000000e-01) (11, 5, 5.00000000000000000000e-01) (11, 5, 5.00000000000000000000e-01) (11, 5, 5.00000000000000000000e-01) (11, 5, 5.00000000000000000000e-01) (0, 5, 0.00000000000000000000e+00) (11, 5, 5.00000000000000000000e-01) (11, 5, 5.00000000000000000000e-01) (11, 5, 5.00000000000000000000e-01) (0, 5, 0.00000000000000000000e+00) 
connections (connected_to_neuron, weight)=(0, 4.63449388742446899414e-01) (1, 1.70812869071960449219e+00) (2, -1.77956390380859375000e+00) (3, 1.37297582626342773438e+00) (0, 1.42048597335815429688e+00) (1, 1.09851336479187011719e+00) (2, -1.68543958663940429688e+00) (3, 2.41291546821594238281e+00) (0, -2.02408051490783691406e+00) (1, -1.58353462815284729004e-01) (2, 3.01593756675720214844e+00) (3, 4.29469394683837890625e+00) (0, 3.94163638353347778320e-01) (1, -1.22165143489837646484e-01) (2, 1.62684619426727294922e+00) (3, 1.00650036334991455078e+00) (0, 7.28800952434539794922e-01) (1, -1.52502715587615966797e+00) (2, -1.58818304538726806641e+00) (3, 4.54296439886093139648e-01) (0, -1.26174271106719970703e+00) (1, 2.38373303413391113281e+00) (2, 8.08497667312622070312e-01) (3, -3.05098342895507812500e+00) (0, 8.35233688354492187500e-01) (1, -8.96857202053070068359e-01) (2, -6.07183992862701416016e-01) (3, 5.57955503463745117188e-01) (0, -2.41137981414794921875e+00) (1, -3.96779835224151611328e-01) (2, 5.96954166889190673828e-01) (3, 2.34957194328308105469e+00) (0, 2.00677409768104553223e-01) (1, -1.77693295478820800781e+00) (2, 9.54971849918365478516e-01) (3, 1.40017676353454589844e+00) (0, 3.15357655286788940430e-01) (1, -2.59676861763000488281e+00) (2, -4.65431511402130126953e-01) (3, -2.22154092788696289062e+00) (4, -9.56063389778137207031e-01) (5, -9.29970502853393554688e-01) (6, 4.07321262359619140625e+00) (7, 1.90524601936340332031e+00) (8, -1.86353862285614013672e+00) (9, 3.51838544011116027832e-02) (10, -7.19384372234344482422e-01) (11, 3.76941943168640136719e+00) (12, 1.99030411243438720703e+00) (13, -5.23843467235565185547e-01) (14, 1.75200319290161132812e+00) (4, -1.56961035728454589844e+00) (5, -1.60702598094940185547e+00) (6, -3.11058703809976577759e-02) (7, -9.11692738533020019531e-01) (8, 5.89069962501525878906e-01) (9, 5.21587252616882324219e-01) (10, 1.43761432170867919922e+00) (11, -2.84491688013076782227e-01) (12, -6.03411853313446044922e-01) (13, 3.14801406860351562500e+00) (14, -5.04661314189434051514e-02) (4, 3.83605569601058959961e-01) (5, 8.00722837448120117188e-01) (6, -1.12801694869995117188e+00) (7, -7.89835453033447265625e-01) (8, -9.51576009392738342285e-02) (9, -1.15626895427703857422e+00) (10, -1.80233225226402282715e-01) (11, 1.08222115039825439453e+00) (12, 4.46144878864288330078e-01) (13, 4.92426484823226928711e-01) (14, 7.51105010509490966797e-01) (4, -8.56680691242218017578e-01) (5, 1.41214340925216674805e-01) (6, -2.69036352634429931641e-01) (7, 3.57988268136978149414e-01) (8, 7.51102566719055175781e-01) (9, -5.37441790103912353516e-01) (10, 6.53233885765075683594e-01) (11, -1.05957674980163574219e+00) (12, -5.58178484439849853516e-01) (13, 7.35366225242614746094e-01) (14, 3.62474709749221801758e-01) (4, -2.84497052431106567383e-01) (5, -1.17626559734344482422e+00) (6, 1.72540545463562011719e+00) (7, 9.20291781425476074219e-01) (8, 9.17357742786407470703e-01) (9, -3.27066987752914428711e-01) (10, 6.97087526321411132812e-01) (11, 1.20275962352752685547e+00) (12, -6.39205455780029296875e-01) (13, 1.81918114423751831055e-01) (14, -1.12914755940437316895e-01) (4, 1.51445960998535156250e+00) (5, 1.74744498729705810547e+00) (6, -1.90512406826019287109e+00) (7, 7.60150015354156494141e-01) (8, 7.91946172714233398438e-01) (9, 3.28211069107055664062e+00) (10, -7.30889320373535156250e-01) (11, -2.65381336212158203125e-01) (12, -1.22210907936096191406e+00) (13, 1.21552169322967529297e+00) (14, 2.79167056083679199219e-01) (4, 1.30094397068023681641e+00) (5, 1.66788399219512939453e+00) (6, 1.96671462059020996094e+00) (7, 1.55700480937957763672e+00) (8, -8.15558314323425292969e-01) (9, 1.82000741362571716309e-01) (10, -1.30939090251922607422e+00) (11, 1.55445933341979980469e+00) (12, 1.01918280124664306641e+00) (13, -5.69046139717102050781e-01) (14, -8.96705985069274902344e-01) (4, -2.80148434638977050781e+00) (5, -3.35502338409423828125e+00) (6, -1.15650331974029541016e+00) (7, 7.33085095882415771484e-01) (8, -2.36816859245300292969e+00) (9, 2.89750003814697265625e+00) (10, -6.19028687477111816406e-01) (11, 8.12166213989257812500e-01) (12, 8.90979588031768798828e-01) (13, -6.39291927218437194824e-02) (14, -1.84196567535400390625e+00) (4, -1.94179005920886993408e-02) (5, -4.80916261672973632812e-01) (6, 4.76237565279006958008e-01) (7, 3.84775072336196899414e-01) (8, 6.63288533687591552734e-01) (9, -2.47623753547668457031e+00) (10, 1.23469245433807373047e+00) (11, -9.86421853303909301758e-02) (12, 1.70921385288238525391e+00) (13, -6.81473493576049804688e-01) (14, 4.91349875926971435547e-01) (4, -3.80089491605758666992e-01) (5, -1.25667846202850341797e+00) (6, -6.48861765861511230469e-01) (7, -2.27427661418914794922e-01) (8, -4.68069732189178466797e-01) (9, -7.95908421277999877930e-02) (10, -3.47230136394500732422e-01) (11, 8.32630395889282226562e-01) (12, -1.96076557040214538574e-01) (13, 7.32477247714996337891e-01) (14, -1.46873915195465087891e+00) (15, 3.40502411127090454102e-01) (16, -4.67690324783325195312e+00) (17, -1.12342715263366699219e+00) (18, -1.23894965648651123047e+00) (19, -7.16699898242950439453e-01) (20, 4.77183580398559570312e+00) (21, 2.76782822608947753906e+00) (22, -6.09864443540573120117e-02) (23, -3.04716038703918457031e+00) (24, -1.08866775035858154297e+00) (25, -5.50150036811828613281e-01) (15, 1.03318071365356445312e+01) (16, 8.59618425369262695312e-01) (17, -3.46935224533081054688e+00) (18, -1.40814721584320068359e+00) (19, 2.97249841690063476562e+00) (20, -2.55251288414001464844e+00) (21, 4.53429937362670898438e+00) (22, 8.31879425048828125000e+00) (23, -2.03183817863464355469e+00) (24, 2.34278583526611328125e+00) (25, -3.86748957633972167969e+00) (15, 3.59129190444946289062e+00) (16, 3.54281514883041381836e-02) (17, 1.54351994395256042480e-01) (18, -3.94609600305557250977e-01) (19, 3.54417771100997924805e-01) (20, -5.94325244426727294922e-01) (21, -1.99872747063636779785e-01) (22, -2.23600864410400390625e-01) (23, -6.71615958213806152344e-01) (24, 1.42852365970611572266e+00) (25, -2.26188969612121582031e+00) 
