FANN_FLO_2.1
num_layers=4
learning_rate=0.100000
connection_rate=1.000000
network_type=0
learning_momentum=0.000000
training_algorithm=1
train_error_function=1
train_stop_function=0
cascade_output_change_fraction=0.010000
quickprop_decay=-0.000100
quickprop_mu=1.750000
rprop_increase_factor=1.200000
rprop_decrease_factor=0.500000
rprop_delta_min=0.000000
rprop_delta_max=50.000000
rprop_delta_zero=0.100000
cascade_output_stagnation_epochs=12
cascade_candidate_change_fraction=0.010000
cascade_candidate_stagnation_epochs=12
cascade_max_out_epochs=150
cascade_min_out_epochs=50
cascade_max_cand_epochs=150
cascade_min_cand_epochs=50
cascade_num_candidate_groups=2
bit_fail_limit=3.49999994039535522461e-01
cascade_candidate_limit=1.00000000000000000000e+03
cascade_weight_multiplier=4.00000005960464477539e-01
cascade_activation_functions_count=10
cascade_activation_functions=3 5 7 8 10 11 14 15 16 17 
cascade_activation_steepnesses_count=4
cascade_activation_steepnesses=2.50000000000000000000e-01 5.00000000000000000000e-01 7.50000000000000000000e-01 1.00000000000000000000e+00 
layer_sizes=4 11 11 4 
scale_included=1
scale_mean_in=0.224959 0.016665 -0.074754 
scale_deviation_in=0.018322 0.019226 0.012563 
scale_new_min_in=-0.900000 -0.900000 -0.900000 
scale_factor_in=0.900000 0.900000 0.900000 
scale_mean_out=-1.493305 1.127109 -1.815402 
scale_deviation_out=0.095938 0.450742 0.926710 
scale_new_min_out=-0.900000 -0.900000 -0.900000 
scale_factor_out=0.900000 0.900000 0.900000 
neurons (num_inputs, activation_function, activation_steepness)=(0, 0, 0.00000000000000000000e+00) (0, 0, 0.00000000000000000000e+00) (0, 0, 0.00000000000000000000e+00) (0, 0, 0.00000000000000000000e+00) (4, 5, 5.00000000000000000000e-01) (4, 5, 5.00000000000000000000e-01) (4, 5, 5.00000000000000000000e-01) (4, 5, 5.00000000000000000000e-01) (4, 5, 5.00000000000000000000e-01) (4, 5, 5.00000000000000000000e-01) (4, 5, 5.00000000000000000000e-01) (4, 5, 5.00000000000000000000e-01) (4, 5, 5.00000000000000000000e-01) (4, 5, 5.00000000000000000000e-01) (0, 5, 0.00000000000000000000e+00) (11, 5, 5.00000000000000000000e-01) (11, 5, 5.00000000000000000000e-01) (11, 5, 5.00000000000000000000e-01) (11, 5, 5.00000000000000000000e-01) (11, 5, 5.00000000000000000000e-01) (11, 5, 5.00000000000000000000e-01) (11, 5, 5.00000000000000000000e-01) (11, 5, 5.00000000000000000000e-01) (11, 5, 5.00000000000000000000e-01) (11, 5, 5.00000000000000000000e-01) (0, 5, 0.00000000000000000000e+00) (11, 5, 5.00000000000000000000e-01) (11, 5, 5.00000000000000000000e-01) (11, 5, 5.00000000000000000000e-01) (0, 5, 0.00000000000000000000e+00) 
connections (connected_to_neuron, weight)=(0, 1.58061802387237548828e-01) (1, -1.90590596199035644531e+00) (2, 4.45782810449600219727e-01) (3, 2.16114306449890136719e+00) (0, 1.53708696365356445312e-01) (1, 1.25538551807403564453e+00) (2, -2.69003897905349731445e-01) (3, 1.16492307186126708984e+00) (0, -3.20760816335678100586e-01) (1, -1.39524424076080322266e+00) (2, 1.01770520210266113281e+00) (3, -1.46500408649444580078e+00) (0, 1.71838808059692382812e+00) (1, 5.02286434173583984375e-01) (2, 2.18476489186286926270e-01) (3, 9.68532323837280273438e-01) (0, 1.20818018913269042969e+00) (1, 1.94142067432403564453e+00) (2, -3.17401349544525146484e-01) (3, -9.69716787338256835938e-01) (0, 3.88870096206665039062e+00) (1, 2.81623214483261108398e-01) (2, -6.49064481258392333984e-01) (3, -2.25836777687072753906e+00) (0, 1.59486508369445800781e+00) (1, -8.57576429843902587891e-01) (2, -2.30773434042930603027e-01) (3, 1.45821797847747802734e+00) (0, 5.55017709732055664062e-01) (1, -1.50063323974609375000e+00) (2, -6.49930238723754882812e-01) (3, -1.54589545726776123047e+00) (0, 1.28240036964416503906e+00) (1, -9.71506178379058837891e-01) (2, -3.32674086093902587891e-01) (3, 1.24618971347808837891e+00) (0, -2.57091224193572998047e-01) (1, 7.64935672283172607422e-01) (2, 1.42851758003234863281e+00) (3, -2.06218168139457702637e-01) (4, 6.50372087955474853516e-01) (5, -1.88611820340156555176e-02) (6, 6.15967690944671630859e-01) (7, 1.06876170635223388672e+00) (8, 1.30272853374481201172e+00) (9, 1.14579153060913085938e+00) (10, 9.34792280197143554688e-01) (11, 8.09523463249206542969e-02) (12, -5.30450284481048583984e-01) (13, -4.32131648063659667969e-01) (14, -1.10720403492450714111e-01) (4, 1.28467702865600585938e+00) (5, -1.55433148145675659180e-01) (6, 1.64884421974420547485e-02) (7, -6.27217769622802734375e-01) (8, -6.14659547805786132812e-01) (9, 7.19111740589141845703e-01) (10, 2.10638731718063354492e-01) (11, -4.64544326066970825195e-01) (12, 4.07772779464721679688e-01) (13, 2.40306779742240905762e-01) (14, 5.70690393447875976562e-01) (4, 7.96175181865692138672e-01) (5, -7.62947320938110351562e-01) (6, 9.32211577892303466797e-01) (7, -1.65379798412322998047e+00) (8, -9.30871903896331787109e-01) (9, 5.71735978126525878906e-01) (10, -4.42527890205383300781e-01) (11, 3.39752107858657836914e-01) (12, -1.82893109321594238281e+00) (13, 4.73723769187927246094e-01) (14, -1.19431531429290771484e+00) (4, 2.85870909690856933594e-01) (5, -1.97829335927963256836e-01) (6, -6.67401030659675598145e-02) (7, -1.23511791229248046875e+00) (8, 1.10129022598266601562e+00) (9, 6.63943052291870117188e-01) (10, -1.26529824733734130859e+00) (11, -9.97155368328094482422e-01) (12, 3.77077847719192504883e-01) (13, 8.96526396274566650391e-01) (14, 1.58367842435836791992e-01) (4, -2.95755773782730102539e-01) (5, 6.05779051780700683594e-01) (6, 1.56774735450744628906e+00) (7, 4.99972462654113769531e-01) (8, -4.37478929758071899414e-01) (9, -1.82557284832000732422e-01) (10, -4.15815412998199462891e-01) (11, 1.19398987293243408203e+00) (12, 5.96707820892333984375e-01) (13, -4.96537119150161743164e-01) (14, -6.22135341167449951172e-01) (4, 2.15128123760223388672e-01) (5, 1.77000951766967773438e+00) (6, -2.28737092018127441406e+00) (7, 1.37200057506561279297e+00) (8, -5.96614897251129150391e-01) (9, 3.79048138856887817383e-01) (10, 2.40496963262557983398e-01) (11, -2.61754179000854492188e+00) (12, -1.31577432155609130859e+00) (13, 6.57196462154388427734e-01) (14, 1.29571723937988281250e+00) (4, 2.12991446256637573242e-01) (5, -1.50170654058456420898e-01) (6, 1.00774741172790527344e+00) (7, 1.40717279911041259766e+00) (8, 1.34423077106475830078e+00) (9, 3.09091973304748535156e+00) (10, 7.02674090862274169922e-01) (11, 1.33670938014984130859e+00) (12, -8.56263935565948486328e-02) (13, 1.46079683303833007812e+00) (14, -5.35916745662689208984e-01) (4, -2.83674669265747070312e+00) (5, 2.92965471744537353516e-01) (6, 7.63258874416351318359e-01) (7, -3.50735783576965332031e-01) (8, 2.11084294319152832031e+00) (9, 5.87537527084350585938e-01) (10, -2.24038934707641601562e+00) (11, -5.81988811492919921875e-01) (12, -6.03620886802673339844e-01) (13, 7.92865633964538574219e-01) (14, -9.14348900318145751953e-01) (4, 6.53197944164276123047e-01) (5, 2.86491066217422485352e-01) (6, 6.54256105422973632812e-01) (7, -5.00458002090454101562e-01) (8, -1.02905106544494628906e+00) (9, -2.47183370590209960938e+00) (10, 3.74195456504821777344e-01) (11, -2.11907863616943359375e+00) (12, 8.98833394050598144531e-01) (13, 1.40960228443145751953e+00) (14, 1.66575026512145996094e+00) (4, -7.20803916454315185547e-01) (5, 4.46942508220672607422e-01) (6, -9.35697734355926513672e-01) (7, 1.71274030208587646484e+00) (8, -4.41749440506100654602e-03) (9, -1.01575541496276855469e+00) (10, 1.96505939960479736328e+00) (11, -1.67506247758865356445e-01) (12, 6.06635391712188720703e-01) (13, -1.05539810657501220703e+00) (14, 3.93028497695922851562e-01) (15, 9.44667030125856399536e-03) (16, -1.42332077026367187500e+00) (17, -1.28069198131561279297e+00) (18, 6.03301048278808593750e-01) (19, -1.61892390251159667969e+00) (20, 4.19198560714721679688e+00) (21, -1.23307578265666961670e-01) (22, 4.18546152114868164062e+00) (23, -2.44383960962295532227e-01) (24, -7.51285910606384277344e-01) (25, -1.58802539110183715820e-01) (15, 4.75058287382125854492e-01) (16, 1.08621799945831298828e+00) (17, 2.59529328346252441406e+00) (18, 1.46708381175994873047e+00) (19, 7.24705338478088378906e-01) (20, 6.41034185886383056641e-01) (21, -2.39450860023498535156e+00) (22, 1.06149509549140930176e-01) (23, 3.17085218429565429688e+00) (24, -2.37818813323974609375e+00) (25, 2.67135947942733764648e-01) (15, -1.02206861972808837891e+00) (16, -1.40064999461174011230e-01) (17, 3.57417047023773193359e-01) (18, -1.87690123915672302246e-01) (19, -4.43857043981552124023e-01) (20, -1.46302595734596252441e-01) (21, 1.48997884243726730347e-02) (22, -4.71885502338409423828e-02) (23, 4.24749284982681274414e-01) (24, -2.32925251126289367676e-01) (25, -3.17584015429019927979e-02) 
