FANN_FLO_2.1
num_layers=4
learning_rate=0.100000
connection_rate=1.000000
network_type=0
learning_momentum=0.000000
training_algorithm=1
train_error_function=1
train_stop_function=0
cascade_output_change_fraction=0.010000
quickprop_decay=-0.000100
quickprop_mu=1.750000
rprop_increase_factor=1.200000
rprop_decrease_factor=0.500000
rprop_delta_min=0.000000
rprop_delta_max=50.000000
rprop_delta_zero=0.100000
cascade_output_stagnation_epochs=12
cascade_candidate_change_fraction=0.010000
cascade_candidate_stagnation_epochs=12
cascade_max_out_epochs=150
cascade_min_out_epochs=50
cascade_max_cand_epochs=150
cascade_min_cand_epochs=50
cascade_num_candidate_groups=2
bit_fail_limit=3.49999994039535522461e-01
cascade_candidate_limit=1.00000000000000000000e+03
cascade_weight_multiplier=4.00000005960464477539e-01
cascade_activation_functions_count=10
cascade_activation_functions=3 5 7 8 10 11 14 15 16 17 
cascade_activation_steepnesses_count=4
cascade_activation_steepnesses=2.50000000000000000000e-01 5.00000000000000000000e-01 7.50000000000000000000e-01 1.00000000000000000000e+00 
layer_sizes=4 11 11 4 
scale_included=1
scale_mean_in=0.220173 0.015791 0.009681 
scale_deviation_in=0.015497 0.019236 0.012162 
scale_new_min_in=-0.900000 -0.900000 -0.900000 
scale_factor_in=0.900000 0.900000 0.900000 
scale_mean_out=-1.496765 1.508669 -1.870482 
scale_deviation_out=0.088900 0.430024 0.883905 
scale_new_min_out=-0.900000 -0.900000 -0.900000 
scale_factor_out=0.900000 0.900000 0.900000 
neurons (num_inputs, activation_function, activation_steepness)=(0, 0, 0.00000000000000000000e+00) (0, 0, 0.00000000000000000000e+00) (0, 0, 0.00000000000000000000e+00) (0, 0, 0.00000000000000000000e+00) (4, 5, 5.00000000000000000000e-01) (4, 5, 5.00000000000000000000e-01) (4, 5, 5.00000000000000000000e-01) (4, 5, 5.00000000000000000000e-01) (4, 5, 5.00000000000000000000e-01) (4, 5, 5.00000000000000000000e-01) (4, 5, 5.00000000000000000000e-01) (4, 5, 5.00000000000000000000e-01) (4, 5, 5.00000000000000000000e-01) (4, 5, 5.00000000000000000000e-01) (0, 5, 0.00000000000000000000e+00) (11, 5, 5.00000000000000000000e-01) (11, 5, 5.00000000000000000000e-01) (11, 5, 5.00000000000000000000e-01) (11, 5, 5.00000000000000000000e-01) (11, 5, 5.00000000000000000000e-01) (11, 5, 5.00000000000000000000e-01) (11, 5, 5.00000000000000000000e-01) (11, 5, 5.00000000000000000000e-01) (11, 5, 5.00000000000000000000e-01) (11, 5, 5.00000000000000000000e-01) (0, 5, 0.00000000000000000000e+00) (11, 5, 5.00000000000000000000e-01) (11, 5, 5.00000000000000000000e-01) (11, 5, 5.00000000000000000000e-01) (0, 5, 0.00000000000000000000e+00) 
connections (connected_to_neuron, weight)=(0, 1.61809265613555908203e-01) (1, -3.58828711509704589844e+00) (2, -1.72842189669609069824e-01) (3, -3.51302504539489746094e+00) (0, 6.03329688310623168945e-02) (1, -1.08207774162292480469e+00) (2, 3.98849815130233764648e-01) (3, -1.30527555942535400391e-01) (0, -1.16591572761535644531e+00) (1, -2.32667043805122375488e-01) (2, 5.13760328292846679688e-01) (3, -1.31158006191253662109e+00) (0, -2.12732985615730285645e-01) (1, 1.09647452831268310547e+00) (2, 3.06746751070022583008e-01) (3, -2.96386778354644775391e-01) (0, 4.34024304151535034180e-01) (1, -3.13790130615234375000e+00) (2, 1.12521514296531677246e-01) (3, 3.32012653350830078125e+00) (0, 3.07357859611511230469e+00) (1, 4.39792811870574951172e-01) (2, 5.84438443183898925781e-01) (3, -1.73348879814147949219e+00) (0, -9.70972716808319091797e-01) (1, -5.75622141361236572266e-01) (2, -9.35277417302131652832e-02) (3, 6.36922001838684082031e-01) (0, 6.36065423488616943359e-01) (1, 6.60596847534179687500e-01) (2, 4.03552472591400146484e-01) (3, 9.18111741542816162109e-01) (0, 5.27874946594238281250e-01) (1, 1.82617694139480590820e-01) (2, -1.58394777774810791016e+00) (3, 9.09559011459350585938e-01) (0, -6.17535412311553955078e-01) (1, 1.10706579685211181641e+00) (2, 1.43487770110368728638e-02) (3, -4.87368077039718627930e-01) (4, -9.01162803173065185547e-01) (5, 1.47521078586578369141e+00) (6, -3.86687964200973510742e-01) (7, -1.29998183250427246094e+00) (8, 1.54992008209228515625e+00) (9, -4.95715916156768798828e-01) (10, -3.25934998691082000732e-02) (11, -6.48382902145385742188e-01) (12, -5.05925595760345458984e-01) (13, -7.17853188514709472656e-01) (14, 8.75058531761169433594e-01) (4, -2.38732194900512695312e+00) (5, -1.61300253868103027344e+00) (6, -1.15871906280517578125e+00) (7, 8.94247710704803466797e-01) (8, 3.85628640651702880859e-01) (9, -1.61317065358161926270e-01) (10, -9.73463654518127441406e-01) (11, -2.33163416385650634766e-01) (12, -1.69243887066841125488e-01) (13, 6.62393093109130859375e-01) (14, 1.41072309017181396484e+00) (4, -9.25397753715515136719e-01) (5, 2.43312716484069824219e-01) (6, 4.96178567409515380859e-01) (7, -5.10553658008575439453e-01) (8, 1.01263493299484252930e-01) (9, 1.30820000171661376953e+00) (10, -1.02684485912322998047e+00) (11, -7.69020617008209228516e-01) (12, -5.73965191841125488281e-01) (13, -1.41025662422180175781e-01) (14, -9.68066513538360595703e-01) (4, -3.33885371685028076172e-01) (5, 3.47326874732971191406e-01) (6, 5.63552081584930419922e-02) (7, -5.65323889255523681641e-01) (8, 2.54660415649414062500e+00) (9, 2.35672798007726669312e-02) (10, 5.86710989475250244141e-01) (11, -2.42450907826423645020e-01) (12, -1.89015176147222518921e-02) (13, -5.25150954723358154297e-01) (14, 5.56586444377899169922e-01) (4, 3.70631553232669830322e-02) (5, 9.42146256566047668457e-02) (6, 7.47443199157714843750e-01) (7, 3.58653604984283447266e-01) (8, 2.83216118812561035156e-01) (9, -2.32413029670715332031e+00) (10, 1.25783991813659667969e+00) (11, 1.00474071502685546875e+00) (12, 7.41579756140708923340e-02) (13, 1.16269505023956298828e+00) (14, 1.34840214252471923828e+00) (4, -3.85840654373168945312e+00) (5, -8.92794966697692871094e-01) (6, -5.88135361671447753906e-01) (7, 1.58273756504058837891e+00) (8, 1.49623975157737731934e-01) (9, 2.26996373385190963745e-02) (10, 9.31561529636383056641e-01) (11, 9.68013048171997070312e-01) (12, 7.78418004512786865234e-01) (13, 2.61873841285705566406e-01) (14, 5.15713930130004882812e-01) (4, -5.99252700805664062500e-01) (5, 9.41324889659881591797e-01) (6, 1.54674458503723144531e+00) (7, 7.87902534008026123047e-01) (8, -1.05511181056499481201e-01) (9, -8.99330615997314453125e-01) (10, -3.75508904457092285156e-01) (11, -9.23699915409088134766e-01) (12, 1.01567161083221435547e+00) (13, 4.38603997230529785156e-01) (14, -5.54249510169029235840e-02) (4, 1.16828739643096923828e+00) (5, -1.28725659847259521484e+00) (6, -7.18092799186706542969e-01) (7, 1.63470196723937988281e+00) (8, -4.01577234268188476562e+00) (9, 4.44943532347679138184e-02) (10, 2.79516965150833129883e-01) (11, 5.74425160884857177734e-01) (12, -5.91956913471221923828e-01) (13, 1.73750853538513183594e+00) (14, -1.63925445079803466797e+00) (4, -1.50854289531707763672e-01) (5, 3.98956894874572753906e-01) (6, 1.02260029315948486328e+00) (7, -6.12864941358566284180e-02) (8, -3.50964128971099853516e-01) (9, -3.57469290494918823242e-01) (10, 8.23776960372924804688e-01) (11, -1.31561577320098876953e+00) (12, -5.41595339775085449219e-01) (13, 1.40638041496276855469e+00) (14, -1.13808155059814453125e+00) (4, -1.56107556819915771484e+00) (5, -6.00258767604827880859e-01) (6, -5.77739953994750976562e-01) (7, -1.21568031609058380127e-01) (8, -1.93606108427047729492e-01) (9, 5.74755132198333740234e-01) (10, -6.36157155036926269531e-01) (11, 3.25452536344528198242e-02) (12, -6.07921004295349121094e-01) (13, -4.29460495710372924805e-01) (14, 8.10536146163940429688e-01) (15, -2.55961513519287109375e+00) (16, 3.96536779403686523438e+00) (17, 4.98318493366241455078e-01) (18, -2.51471638679504394531e+00) (19, 2.60786980390548706055e-01) (20, 4.98198223114013671875e+00) (21, 6.36505901813507080078e-01) (22, 5.40275573730468750000e+00) (23, 3.77069205045700073242e-01) (24, 1.78812909126281738281e+00) (25, 6.00164592266082763672e-01) (15, 5.44102132320404052734e-01) (16, -1.67159080505371093750e+00) (17, -2.84599304199218750000e-01) (18, 1.13259889185428619385e-01) (19, 2.34262466430664062500e+00) (20, 1.45540297031402587891e+00) (21, 2.51113319396972656250e+00) (22, -1.91786214709281921387e-02) (23, 1.60239720344543457031e+00) (24, -3.93413722515106201172e-01) (25, 6.53053522109985351562e-02) (15, -2.51522541046142578125e-01) (16, 6.39346614480018615723e-02) (17, 4.97184872627258300781e-01) (18, 5.33043146133422851562e-01) (19, -3.15848141908645629883e-02) (20, 1.04664884507656097412e-01) (21, 1.87760448455810546875e+00) (22, 1.82685300707817077637e-01) (23, -2.97886908054351806641e-01) (24, -7.30570316314697265625e-01) (25, 7.97481298446655273438e-01) 
