FANN_FLO_2.1
num_layers=3
learning_rate=0.100000
connection_rate=1.000000
network_type=0
learning_momentum=0.000000
training_algorithm=1
train_error_function=1
train_stop_function=0
cascade_output_change_fraction=0.010000
quickprop_decay=-0.000100
quickprop_mu=1.750000
rprop_increase_factor=1.200000
rprop_decrease_factor=0.500000
rprop_delta_min=0.000000
rprop_delta_max=50.000000
rprop_delta_zero=0.100000
cascade_output_stagnation_epochs=12
cascade_candidate_change_fraction=0.010000
cascade_candidate_stagnation_epochs=12
cascade_max_out_epochs=150
cascade_min_out_epochs=50
cascade_max_cand_epochs=150
cascade_min_cand_epochs=50
cascade_num_candidate_groups=2
bit_fail_limit=3.49999994039535522461e-01
cascade_candidate_limit=1.00000000000000000000e+03
cascade_weight_multiplier=4.00000005960464477539e-01
cascade_activation_functions_count=10
cascade_activation_functions=3 5 7 8 10 11 14 15 16 17 
cascade_activation_steepnesses_count=4
cascade_activation_steepnesses=2.50000000000000000000e-01 5.00000000000000000000e-01 7.50000000000000000000e-01 1.00000000000000000000e+00 
layer_sizes=4 4 4 
scale_included=1
scale_mean_in=0.097279 0.085806 0.146409 
scale_deviation_in=0.012677 0.009635 0.006555 
scale_new_min_in=-0.900000 -0.900000 -0.900000 
scale_factor_in=0.900000 0.900000 0.900000 
scale_mean_out=-0.845586 1.847083 -2.585685 
scale_deviation_out=0.082213 0.212344 0.322896 
scale_new_min_out=-0.900000 -0.900000 -0.900000 
scale_factor_out=0.900000 0.900000 0.900000 
neurons (num_inputs, activation_function, activation_steepness)=(0, 0, 0.00000000000000000000e+00) (0, 0, 0.00000000000000000000e+00) (0, 0, 0.00000000000000000000e+00) (0, 0, 0.00000000000000000000e+00) (4, 5, 5.00000000000000000000e-01) (4, 5, 5.00000000000000000000e-01) (4, 5, 5.00000000000000000000e-01) (0, 5, 0.00000000000000000000e+00) (4, 5, 5.00000000000000000000e-01) (4, 5, 5.00000000000000000000e-01) (4, 5, 5.00000000000000000000e-01) (0, 5, 0.00000000000000000000e+00) 
connections (connected_to_neuron, weight)=(0, 5.79183483123779296875e+00) (1, 3.77394461631774902344e+00) (2, -8.39026510715484619141e-01) (3, -2.14153218269348144531e+00) (0, -7.84447431564331054688e+00) (1, -5.12183618545532226562e+00) (2, -4.47173386812210083008e-01) (3, 2.86169290542602539062e+00) (0, -6.33786201477050781250e-01) (1, 5.38567483425140380859e-01) (2, -9.61341708898544311523e-03) (3, 1.53674930334091186523e-01) (4, -3.76636177301406860352e-01) (5, -3.26969355344772338867e-01) (6, 7.66174125671386718750e+00) (7, -6.38296425342559814453e-01) (4, 2.29719614982604980469e+00) (5, 2.85231590270996093750e+00) (6, 1.06711804866790771484e-01) (7, -2.40431800484657287598e-01) (4, 3.11678910255432128906e+00) (5, 3.08452057838439941406e+00) (6, -2.80696637928485870361e-02) (7, -1.44989043474197387695e-01) 
