FANN_FLO_2.1
num_layers=3
learning_rate=0.100000
connection_rate=1.000000
network_type=0
learning_momentum=0.000000
training_algorithm=1
train_error_function=1
train_stop_function=0
cascade_output_change_fraction=0.010000
quickprop_decay=-0.000100
quickprop_mu=1.750000
rprop_increase_factor=1.200000
rprop_decrease_factor=0.500000
rprop_delta_min=0.000000
rprop_delta_max=50.000000
rprop_delta_zero=0.100000
cascade_output_stagnation_epochs=12
cascade_candidate_change_fraction=0.010000
cascade_candidate_stagnation_epochs=12
cascade_max_out_epochs=150
cascade_min_out_epochs=50
cascade_max_cand_epochs=150
cascade_min_cand_epochs=50
cascade_num_candidate_groups=2
bit_fail_limit=3.49999994039535522461e-01
cascade_candidate_limit=1.00000000000000000000e+03
cascade_weight_multiplier=4.00000005960464477539e-01
cascade_activation_functions_count=10
cascade_activation_functions=3 5 7 8 10 11 14 15 16 17 
cascade_activation_steepnesses_count=4
cascade_activation_steepnesses=2.50000000000000000000e-01 5.00000000000000000000e-01 7.50000000000000000000e-01 1.00000000000000000000e+00 
layer_sizes=4 4 4 
scale_included=1
scale_mean_in=0.159750 -0.004508 0.121095 
scale_deviation_in=0.009549 0.014414 0.009308 
scale_new_min_in=-0.900000 -0.900000 -0.900000 
scale_factor_in=0.900000 0.900000 0.900000 
scale_mean_out=-1.598851 1.783855 -2.350018 
scale_deviation_out=0.090531 0.292647 0.456081 
scale_new_min_out=-0.900000 -0.900000 -0.900000 
scale_factor_out=0.900000 0.900000 0.900000 
neurons (num_inputs, activation_function, activation_steepness)=(0, 0, 0.00000000000000000000e+00) (0, 0, 0.00000000000000000000e+00) (0, 0, 0.00000000000000000000e+00) (0, 0, 0.00000000000000000000e+00) (4, 5, 5.00000000000000000000e-01) (4, 5, 5.00000000000000000000e-01) (4, 5, 5.00000000000000000000e-01) (0, 5, 0.00000000000000000000e+00) (4, 5, 5.00000000000000000000e-01) (4, 5, 5.00000000000000000000e-01) (4, 5, 5.00000000000000000000e-01) (0, 5, 0.00000000000000000000e+00) 
connections (connected_to_neuron, weight)=(0, 3.12590785324573516846e-02) (1, 7.02684521675109863281e-01) (2, -2.46709808707237243652e-01) (3, -3.51621806621551513672e-01) (0, -1.62892714142799377441e-02) (1, 6.51757717132568359375e-01) (2, 3.16187947988510131836e-01) (3, 4.75910276174545288086e-01) (0, -6.84510612487792968750e+00) (1, 2.42104262113571166992e-01) (2, -7.73085784912109375000e+00) (3, -3.92991542816162109375e+00) (4, 5.30531024932861328125e+00) (5, 4.18036651611328125000e+00) (6, -1.17728048935532569885e-02) (7, -6.51392117142677307129e-02) (4, -2.26457834243774414062e+00) (5, 2.58144092559814453125e+00) (6, 5.86481332778930664062e+00) (7, 3.76456761360168457031e+00) (4, -1.52342230081558227539e-01) (5, 2.03609421849250793457e-01) (6, 5.07633733749389648438e+00) (7, 3.95709228515625000000e+00) 
