FANN_FLO_2.1
num_layers=3
learning_rate=0.100000
connection_rate=1.000000
network_type=0
learning_momentum=0.000000
training_algorithm=1
train_error_function=1
train_stop_function=0
cascade_output_change_fraction=0.010000
quickprop_decay=-0.000100
quickprop_mu=1.750000
rprop_increase_factor=1.200000
rprop_decrease_factor=0.500000
rprop_delta_min=0.000000
rprop_delta_max=50.000000
rprop_delta_zero=0.100000
cascade_output_stagnation_epochs=12
cascade_candidate_change_fraction=0.010000
cascade_candidate_stagnation_epochs=12
cascade_max_out_epochs=150
cascade_min_out_epochs=50
cascade_max_cand_epochs=150
cascade_min_cand_epochs=50
cascade_num_candidate_groups=2
bit_fail_limit=3.49999994039535522461e-01
cascade_candidate_limit=1.00000000000000000000e+03
cascade_weight_multiplier=4.00000005960464477539e-01
cascade_activation_functions_count=10
cascade_activation_functions=3 5 7 8 10 11 14 15 16 17 
cascade_activation_steepnesses_count=4
cascade_activation_steepnesses=2.50000000000000000000e-01 5.00000000000000000000e-01 7.50000000000000000000e-01 1.00000000000000000000e+00 
layer_sizes=4 4 4 
scale_included=1
scale_mean_in=0.151265 0.046798 -0.028811 
scale_deviation_in=0.014539 0.014437 0.010120 
scale_new_min_in=-0.900000 -0.900000 -0.900000 
scale_factor_in=0.900000 0.900000 0.900000 
scale_mean_out=-1.270189 1.948685 -0.730606 
scale_deviation_out=0.093461 0.166484 0.211210 
scale_new_min_out=-0.900000 -0.900000 -0.900000 
scale_factor_out=0.900000 0.900000 0.900000 
neurons (num_inputs, activation_function, activation_steepness)=(0, 0, 0.00000000000000000000e+00) (0, 0, 0.00000000000000000000e+00) (0, 0, 0.00000000000000000000e+00) (0, 0, 0.00000000000000000000e+00) (4, 5, 5.00000000000000000000e-01) (4, 5, 5.00000000000000000000e-01) (4, 5, 5.00000000000000000000e-01) (0, 5, 0.00000000000000000000e+00) (4, 5, 5.00000000000000000000e-01) (4, 5, 5.00000000000000000000e-01) (4, 5, 5.00000000000000000000e-01) (0, 5, 0.00000000000000000000e+00) 
connections (connected_to_neuron, weight)=(0, 1.73961281776428222656e+00) (1, -3.96278440952301025391e-01) (2, -6.43890142440795898438e-01) (3, -8.31696689128875732422e-02) (0, 9.66286301612854003906e-01) (1, 1.31404399871826171875e+00) (2, 5.20213723182678222656e-01) (3, 1.12517038360238075256e-03) (0, -4.65694189071655273438e-01) (1, -1.52488386631011962891e+00) (2, 1.04222786426544189453e+00) (3, -1.16369180381298065186e-01) (4, -2.77324318885803222656e+00) (5, 1.68041265010833740234e+00) (6, -2.50779128074645996094e+00) (7, -2.31188938021659851074e-01) (4, -3.24830818176269531250e+00) (5, -2.48957335948944091797e-01) (6, 2.13735532760620117188e+00) (7, -6.62151724100112915039e-02) (4, -2.77587342262268066406e+00) (5, -2.43461656570434570312e+00) (6, 5.62772788107395172119e-02) (7, -7.08047077059745788574e-02) 
