FANN_FLO_2.1
num_layers=3
learning_rate=0.100000
connection_rate=1.000000
network_type=0
learning_momentum=0.000000
training_algorithm=1
train_error_function=1
train_stop_function=0
cascade_output_change_fraction=0.010000
quickprop_decay=-0.000100
quickprop_mu=1.750000
rprop_increase_factor=1.200000
rprop_decrease_factor=0.500000
rprop_delta_min=0.000000
rprop_delta_max=50.000000
rprop_delta_zero=0.100000
cascade_output_stagnation_epochs=12
cascade_candidate_change_fraction=0.010000
cascade_candidate_stagnation_epochs=12
cascade_max_out_epochs=150
cascade_min_out_epochs=50
cascade_max_cand_epochs=150
cascade_min_cand_epochs=50
cascade_num_candidate_groups=2
bit_fail_limit=3.49999994039535522461e-01
cascade_candidate_limit=1.00000000000000000000e+03
cascade_weight_multiplier=4.00000005960464477539e-01
cascade_activation_functions_count=10
cascade_activation_functions=3 5 7 8 10 11 14 15 16 17 
cascade_activation_steepnesses_count=4
cascade_activation_steepnesses=2.50000000000000000000e-01 5.00000000000000000000e-01 7.50000000000000000000e-01 1.00000000000000000000e+00 
layer_sizes=4 4 4 
scale_included=1
scale_mean_in=0.153778 0.098812 -0.101296 
scale_deviation_in=0.015794 0.014427 0.010423 
scale_new_min_in=-0.900000 -0.900000 -0.900000 
scale_factor_in=0.900000 0.900000 0.900000 
scale_mean_out=-0.999407 0.814447 -1.712240 
scale_deviation_out=0.076390 0.353673 0.563026 
scale_new_min_out=-0.900000 -0.900000 -0.900000 
scale_factor_out=0.900000 0.900000 0.900000 
neurons (num_inputs, activation_function, activation_steepness)=(0, 0, 0.00000000000000000000e+00) (0, 0, 0.00000000000000000000e+00) (0, 0, 0.00000000000000000000e+00) (0, 0, 0.00000000000000000000e+00) (4, 5, 5.00000000000000000000e-01) (4, 5, 5.00000000000000000000e-01) (4, 5, 5.00000000000000000000e-01) (0, 5, 0.00000000000000000000e+00) (4, 5, 5.00000000000000000000e-01) (4, 5, 5.00000000000000000000e-01) (4, 5, 5.00000000000000000000e-01) (0, 5, 0.00000000000000000000e+00) 
connections (connected_to_neuron, weight)=(0, -8.50201919674873352051e-02) (1, 9.07787978649139404297e-01) (2, -3.11479687690734863281e-01) (3, 6.05170845985412597656e-01) (0, 7.41329860687255859375e+00) (1, 4.44782304763793945312e+00) (2, -3.62849044799804687500e+00) (3, -1.02872924804687500000e+01) (0, -7.52376079559326171875e-01) (1, -5.89038729667663574219e-02) (2, 4.32874649763107299805e-01) (3, -1.13682866096496582031e+00) (4, 6.97466993331909179688e+00) (5, -2.38296344876289367676e-01) (6, 5.46744394302368164062e+00) (7, 4.74081516265869140625e-01) (4, -1.25899362564086914062e+00) (5, -6.12359523773193359375e+00) (6, 3.68403363227844238281e+00) (7, -3.42403960227966308594e+00) (4, -1.13811826705932617188e+00) (5, -7.60899114608764648438e+00) (6, 3.53606367111206054688e+00) (7, -4.96064853668212890625e+00) 
