FANN_FLO_2.1
num_layers=3
learning_rate=0.100000
connection_rate=1.000000
network_type=0
learning_momentum=0.000000
training_algorithm=1
train_error_function=1
train_stop_function=0
cascade_output_change_fraction=0.010000
quickprop_decay=-0.000100
quickprop_mu=1.750000
rprop_increase_factor=1.200000
rprop_decrease_factor=0.500000
rprop_delta_min=0.000000
rprop_delta_max=50.000000
rprop_delta_zero=0.100000
cascade_output_stagnation_epochs=12
cascade_candidate_change_fraction=0.010000
cascade_candidate_stagnation_epochs=12
cascade_max_out_epochs=150
cascade_min_out_epochs=50
cascade_max_cand_epochs=150
cascade_min_cand_epochs=50
cascade_num_candidate_groups=2
bit_fail_limit=3.49999994039535522461e-01
cascade_candidate_limit=1.00000000000000000000e+03
cascade_weight_multiplier=4.00000005960464477539e-01
cascade_activation_functions_count=10
cascade_activation_functions=3 5 7 8 10 11 14 15 16 17 
cascade_activation_steepnesses_count=4
cascade_activation_steepnesses=2.50000000000000000000e-01 5.00000000000000000000e-01 7.50000000000000000000e-01 1.00000000000000000000e+00 
layer_sizes=4 4 4 
scale_included=1
scale_mean_in=0.153530 0.141556 0.044931 
scale_deviation_in=0.012840 0.011600 0.010372 
scale_new_min_in=-0.900000 -0.900000 -0.900000 
scale_factor_in=0.900000 0.900000 0.900000 
scale_mean_out=-0.825363 1.353840 -2.240512 
scale_deviation_out=0.065033 0.360222 0.537001 
scale_new_min_out=-0.900000 -0.900000 -0.900000 
scale_factor_out=0.900000 0.900000 0.900000 
neurons (num_inputs, activation_function, activation_steepness)=(0, 0, 0.00000000000000000000e+00) (0, 0, 0.00000000000000000000e+00) (0, 0, 0.00000000000000000000e+00) (0, 0, 0.00000000000000000000e+00) (4, 5, 5.00000000000000000000e-01) (4, 5, 5.00000000000000000000e-01) (4, 5, 5.00000000000000000000e-01) (0, 5, 0.00000000000000000000e+00) (4, 5, 5.00000000000000000000e-01) (4, 5, 5.00000000000000000000e-01) (4, 5, 5.00000000000000000000e-01) (0, 5, 0.00000000000000000000e+00) 
connections (connected_to_neuron, weight)=(0, 2.75491499900817871094e+00) (1, -2.58580541610717773438e+00) (2, 6.94786151871085166931e-03) (3, 4.28112554550170898438e+00) (0, -2.74216651916503906250e+00) (1, 3.00488233566284179688e+00) (2, 3.95741611719131469727e-02) (3, 4.68470287322998046875e+00) (0, -4.15423440933227539062e+00) (1, -3.39790916442871093750e+00) (2, -1.40676677227020263672e+00) (3, -1.81288695335388183594e+00) (4, -6.44098281860351562500e+00) (5, 6.90417623519897460938e+00) (6, 4.79979328811168670654e-02) (7, -5.47075808048248291016e-01) (4, 2.10735350847244262695e-01) (5, 1.49081990122795104980e-01) (6, 7.04770040512084960938e+00) (7, 5.24800920486450195312e+00) (4, 2.07171976566314697266e-01) (5, 1.83639079332351684570e-01) (6, 6.94849538803100585938e+00) (7, 5.14263296127319335938e+00) 
