FANN_FLO_2.1
num_layers=4
learning_rate=0.100000
connection_rate=1.000000
network_type=0
learning_momentum=0.000000
training_algorithm=1
train_error_function=1
train_stop_function=0
cascade_output_change_fraction=0.010000
quickprop_decay=-0.000100
quickprop_mu=1.750000
rprop_increase_factor=1.200000
rprop_decrease_factor=0.500000
rprop_delta_min=0.000000
rprop_delta_max=50.000000
rprop_delta_zero=0.100000
cascade_output_stagnation_epochs=12
cascade_candidate_change_fraction=0.010000
cascade_candidate_stagnation_epochs=12
cascade_max_out_epochs=150
cascade_min_out_epochs=50
cascade_max_cand_epochs=150
cascade_min_cand_epochs=50
cascade_num_candidate_groups=2
bit_fail_limit=3.49999994039535522461e-01
cascade_candidate_limit=1.00000000000000000000e+03
cascade_weight_multiplier=4.00000005960464477539e-01
cascade_activation_functions_count=10
cascade_activation_functions=3 5 7 8 10 11 14 15 16 17 
cascade_activation_steepnesses_count=4
cascade_activation_steepnesses=2.50000000000000000000e-01 5.00000000000000000000e-01 7.50000000000000000000e-01 1.00000000000000000000e+00 
layer_sizes=4 11 11 4 
scale_included=1
scale_mean_in=0.093135 -0.025612 0.149539 
scale_deviation_in=0.013598 0.017144 0.005749 
scale_new_min_in=-0.900000 -0.900000 -0.900000 
scale_factor_in=0.900000 0.900000 0.900000 
scale_mean_out=-1.836521 2.403053 -1.913086 
scale_deviation_out=0.176524 0.181843 0.226390 
scale_new_min_out=-0.900000 -0.900000 -0.900000 
scale_factor_out=0.900000 0.900000 0.900000 
neurons (num_inputs, activation_function, activation_steepness)=(0, 0, 0.00000000000000000000e+00) (0, 0, 0.00000000000000000000e+00) (0, 0, 0.00000000000000000000e+00) (0, 0, 0.00000000000000000000e+00) (4, 5, 5.00000000000000000000e-01) (4, 5, 5.00000000000000000000e-01) (4, 5, 5.00000000000000000000e-01) (4, 5, 5.00000000000000000000e-01) (4, 5, 5.00000000000000000000e-01) (4, 5, 5.00000000000000000000e-01) (4, 5, 5.00000000000000000000e-01) (4, 5, 5.00000000000000000000e-01) (4, 5, 5.00000000000000000000e-01) (4, 5, 5.00000000000000000000e-01) (0, 5, 0.00000000000000000000e+00) (11, 5, 5.00000000000000000000e-01) (11, 5, 5.00000000000000000000e-01) (11, 5, 5.00000000000000000000e-01) (11, 5, 5.00000000000000000000e-01) (11, 5, 5.00000000000000000000e-01) (11, 5, 5.00000000000000000000e-01) (11, 5, 5.00000000000000000000e-01) (11, 5, 5.00000000000000000000e-01) (11, 5, 5.00000000000000000000e-01) (11, 5, 5.00000000000000000000e-01) (0, 5, 0.00000000000000000000e+00) (11, 5, 5.00000000000000000000e-01) (11, 5, 5.00000000000000000000e-01) (11, 5, 5.00000000000000000000e-01) (0, 5, 0.00000000000000000000e+00) 
connections (connected_to_neuron, weight)=(0, 9.04258251190185546875e-01) (1, 5.62862515449523925781e-01) (2, 1.34539663791656494141e-01) (3, 1.93023368716239929199e-01) (0, -1.36353448033332824707e-01) (1, 1.38687562942504882812e+00) (2, 3.23386400938034057617e-01) (3, -1.16191494464874267578e+00) (0, 4.35048133134841918945e-01) (1, -3.30085694789886474609e-01) (2, 5.67177236080169677734e-01) (3, 9.04962420463562011719e-01) (0, -4.79226768016815185547e-01) (1, 7.00854897499084472656e-01) (2, -1.30420029163360595703e-01) (3, 1.47819444537162780762e-01) (0, -1.01204752922058105469e+00) (1, 4.26598578691482543945e-01) (2, -8.05716454982757568359e-01) (3, 8.62804889678955078125e-01) (0, 2.18023918569087982178e-03) (1, -9.09499287605285644531e-01) (2, 3.96337628364562988281e-01) (3, -1.20986235141754150391e+00) (0, 6.52471721172332763672e-01) (1, -2.03412115573883056641e-01) (2, 5.86088359355926513672e-01) (3, 8.63010644912719726562e-01) (0, 5.77348351478576660156e-01) (1, 6.78129076957702636719e-01) (2, -8.05443108081817626953e-01) (3, 8.55501472949981689453e-01) (0, -6.30382776260375976562e-01) (1, -1.29087781533598899841e-02) (2, -3.93486082553863525391e-01) (3, -1.03107738494873046875e+00) (0, -7.79260694980621337891e-01) (1, 6.87618374824523925781e-01) (2, 6.54701888561248779297e-01) (3, 3.45165252685546875000e-01) (4, -8.09036612510681152344e-01) (5, -5.75811982154846191406e-01) (6, 2.80676513910293579102e-01) (7, -7.85144805908203125000e-01) (8, -8.52899610996246337891e-01) (9, 8.17090392112731933594e-01) (10, 1.06098783016204833984e+00) (11, 1.34482711553573608398e-01) (12, 3.15690040588378906250e-01) (13, 3.12335252761840820312e-01) (14, 5.51213979721069335938e-01) (4, -3.11652839183807373047e-01) (5, -6.18725717067718505859e-01) (6, -1.32998913526535034180e-01) (7, -7.88329124450683593750e-01) (8, -1.38485813140869140625e+00) (9, -1.85013204813003540039e-01) (10, -2.38770380616188049316e-01) (11, -1.07988882064819335938e+00) (12, -1.07001173496246337891e+00) (13, -2.12639749050140380859e-01) (14, -5.64118087291717529297e-01) (4, 6.94636404514312744141e-01) (5, 1.32306623458862304688e+00) (6, -1.45426718518137931824e-02) (7, 5.72876751422882080078e-01) (8, -1.18230056762695312500e+00) (9, 6.65567398071289062500e-01) (10, 5.28269767761230468750e-01) (11, -1.14025510847568511963e-01) (12, -5.04680931568145751953e-01) (13, 2.55027920007705688477e-01) (14, 3.13484966754913330078e-01) (4, 7.03835904598236083984e-01) (5, -1.31144440174102783203e+00) (6, 8.02519619464874267578e-01) (7, 2.32357487082481384277e-01) (8, 5.94531714916229248047e-01) (9, -2.31582313776016235352e-01) (10, 2.37931847572326660156e-01) (11, 6.86353087425231933594e-01) (12, 9.41893458366394042969e-01) (13, 3.20133328437805175781e-01) (14, 1.04547059535980224609e+00) (4, -2.20246389508247375488e-01) (5, -3.92514020204544067383e-01) (6, 1.22774624824523925781e+00) (7, -1.30131825804710388184e-01) (8, -4.61530566215515136719e-01) (9, -1.02523350715637207031e+00) (10, 5.08525311946868896484e-01) (11, -7.92404115200042724609e-01) (12, -1.26318418979644775391e+00) (13, -8.00156295299530029297e-01) (14, -4.15746033191680908203e-01) (4, 1.15913614630699157715e-01) (5, -6.91158056259155273438e-01) (6, -1.17823541164398193359e+00) (7, -1.96729168295860290527e-01) (8, 1.39479541778564453125e+00) (9, -4.71906140446662902832e-02) (10, -3.39300662279129028320e-01) (11, 7.29471445083618164062e-01) (12, -1.37254983186721801758e-01) (13, 2.99945026636123657227e-01) (14, 2.13027536869049072266e-01) (4, -1.22393763065338134766e+00) (5, -1.29160928726196289062e+00) (6, 1.13563314080238342285e-01) (7, 2.01747059822082519531e-01) (8, 8.98103237152099609375e-01) (9, -3.47156733274459838867e-01) (10, -4.89541172981262207031e-01) (11, 3.96905988454818725586e-02) (12, 3.43902796506881713867e-01) (13, 8.73699128627777099609e-01) (14, 2.82050855457782745361e-02) (4, -1.17799401283264160156e-01) (5, -8.60845386981964111328e-01) (6, -1.14660584926605224609e+00) (7, -5.31937107443809509277e-02) (8, 7.10433542728424072266e-01) (9, -1.10125446319580078125e+00) (10, -1.54185578227043151855e-01) (11, -5.22157073020935058594e-01) (12, -8.29703629016876220703e-01) (13, -9.86557066440582275391e-01) (14, -4.78100419044494628906e-01) (4, -1.13746476173400878906e+00) (5, -8.70548248291015625000e-01) (6, -3.83955121040344238281e-01) (7, 1.41916006803512573242e-01) (8, 3.67978632450103759766e-01) (9, 1.21511626243591308594e+00) (10, -6.64170145988464355469e-01) (11, -7.52597033977508544922e-01) (12, 6.54850244522094726562e-01) (13, -9.08239245414733886719e-01) (14, -3.34476917982101440430e-01) (4, -1.23196452856063842773e-01) (5, 6.72882273793220520020e-02) (6, -9.19364988803863525391e-01) (7, 5.03958940505981445312e-01) (8, -9.11201953887939453125e-01) (9, 2.86723971366882324219e-02) (10, -3.94373953342437744141e-01) (11, 8.92394900321960449219e-01) (12, -6.29995942115783691406e-01) (13, -3.07514201849699020386e-02) (14, 1.01025533676147460938e+00) (15, -1.95515418052673339844e+00) (16, -1.02725565433502197266e+00) (17, 1.40344095230102539062e+00) (18, -7.39531099796295166016e-01) (19, -5.70374727249145507812e-01) (20, 3.87414813041687011719e-01) (21, -1.09662449359893798828e+00) (22, -1.98809146881103515625e-01) (23, -2.00236248970031738281e+00) (24, 2.48329877853393554688e-01) (25, 1.44879072904586791992e-01) (15, -9.33327257633209228516e-01) (16, -1.20900547504425048828e+00) (17, -1.08458805084228515625e+00) (18, -5.55974364280700683594e-01) (19, -1.64539790153503417969e+00) (20, 1.00961351394653320312e+00) (21, 2.36181592941284179688e+00) (22, -8.97390693426132202148e-02) (23, -3.66920411586761474609e-01) (24, -6.60653531551361083984e-01) (25, -1.71123057603836059570e-01) (15, -1.03305912017822265625e+00) (16, -1.27028238773345947266e+00) (17, -1.43596065044403076172e+00) (18, 5.43341040611267089844e-01) (19, -7.67904639244079589844e-01) (20, 1.49938297271728515625e+00) (21, 1.15448415279388427734e+00) (22, 1.28863751888275146484e+00) (23, 6.19307100772857666016e-01) (24, 1.01983582973480224609e+00) (25, -1.31455349922180175781e+00) 
