FANN_FLO_2.1
num_layers=4
learning_rate=0.100000
connection_rate=1.000000
network_type=0
learning_momentum=0.000000
training_algorithm=1
train_error_function=1
train_stop_function=0
cascade_output_change_fraction=0.010000
quickprop_decay=-0.000100
quickprop_mu=1.750000
rprop_increase_factor=1.200000
rprop_decrease_factor=0.500000
rprop_delta_min=0.000000
rprop_delta_max=50.000000
rprop_delta_zero=0.100000
cascade_output_stagnation_epochs=12
cascade_candidate_change_fraction=0.010000
cascade_candidate_stagnation_epochs=12
cascade_max_out_epochs=150
cascade_min_out_epochs=50
cascade_max_cand_epochs=150
cascade_min_cand_epochs=50
cascade_num_candidate_groups=2
bit_fail_limit=3.49999994039535522461e-01
cascade_candidate_limit=1.00000000000000000000e+03
cascade_weight_multiplier=4.00000005960464477539e-01
cascade_activation_functions_count=10
cascade_activation_functions=3 5 7 8 10 11 14 15 16 17 
cascade_activation_steepnesses_count=4
cascade_activation_steepnesses=2.50000000000000000000e-01 5.00000000000000000000e-01 7.50000000000000000000e-01 1.00000000000000000000e+00 
layer_sizes=4 11 11 4 
scale_included=1
scale_mean_in=0.001995 0.054174 0.147800 
scale_deviation_in=0.018401 0.021331 0.010832 
scale_new_min_in=-0.900000 -0.900000 -0.900000 
scale_factor_in=0.900000 0.900000 0.900000 
scale_mean_out=-0.036514 2.820718 -1.620789 
scale_deviation_out=0.387159 0.242512 0.316211 
scale_new_min_out=-0.900000 -0.900000 -0.900000 
scale_factor_out=0.900000 0.900000 0.900000 
neurons (num_inputs, activation_function, activation_steepness)=(0, 0, 0.00000000000000000000e+00) (0, 0, 0.00000000000000000000e+00) (0, 0, 0.00000000000000000000e+00) (0, 0, 0.00000000000000000000e+00) (4, 5, 5.00000000000000000000e-01) (4, 5, 5.00000000000000000000e-01) (4, 5, 5.00000000000000000000e-01) (4, 5, 5.00000000000000000000e-01) (4, 5, 5.00000000000000000000e-01) (4, 5, 5.00000000000000000000e-01) (4, 5, 5.00000000000000000000e-01) (4, 5, 5.00000000000000000000e-01) (4, 5, 5.00000000000000000000e-01) (4, 5, 5.00000000000000000000e-01) (0, 5, 0.00000000000000000000e+00) (11, 5, 5.00000000000000000000e-01) (11, 5, 5.00000000000000000000e-01) (11, 5, 5.00000000000000000000e-01) (11, 5, 5.00000000000000000000e-01) (11, 5, 5.00000000000000000000e-01) (11, 5, 5.00000000000000000000e-01) (11, 5, 5.00000000000000000000e-01) (11, 5, 5.00000000000000000000e-01) (11, 5, 5.00000000000000000000e-01) (11, 5, 5.00000000000000000000e-01) (0, 5, 0.00000000000000000000e+00) (11, 5, 5.00000000000000000000e-01) (11, 5, 5.00000000000000000000e-01) (11, 5, 5.00000000000000000000e-01) (0, 5, 0.00000000000000000000e+00) 
connections (connected_to_neuron, weight)=(0, 1.56405389308929443359e+00) (1, 9.34117257595062255859e-01) (2, 1.00214099884033203125e+00) (3, 1.07564830780029296875e+00) (0, -8.20026325527578592300e-04) (1, -1.82701528072357177734e+00) (2, 3.78546258434653282166e-03) (3, 2.00420093536376953125e+00) (0, -9.77464854717254638672e-01) (1, -2.38142624497413635254e-01) (2, 7.88556098937988281250e-01) (3, 3.63581717014312744141e-01) (0, 1.14371025562286376953e+00) (1, -8.44837725162506103516e-01) (2, 8.60450029373168945312e-01) (3, -5.74612379074096679688e-01) (0, -4.21801991760730743408e-02) (1, 1.25444126129150390625e+00) (2, 3.07677769660949707031e+00) (3, -4.00239801406860351562e+00) (0, 3.97166347503662109375e+00) (1, 1.93653440475463867188e+00) (2, -2.37770557403564453125e-01) (3, 5.76591968536376953125e+00) (0, 4.37884426116943359375e+00) (1, -2.70472741127014160156e+00) (2, -1.06377609074115753174e-01) (3, -6.41880702972412109375e+00) (0, -9.69955801963806152344e-01) (1, 2.27581486105918884277e-01) (2, 1.79354405403137207031e+00) (3, -5.46893328428268432617e-02) (0, -1.60751461982727050781e-01) (1, -1.76723074913024902344e+00) (2, -2.48599219322204589844e+00) (3, -3.96929645538330078125e+00) (0, 1.91995322704315185547e-01) (1, -9.95079517364501953125e-01) (2, -3.16220664978027343750e+00) (3, 2.88885974884033203125e+00) (4, -7.73701786994934082031e-01) (5, 1.57692742347717285156e+00) (6, -4.32476311922073364258e-01) (7, 4.57821965217590332031e-01) (8, -1.13999569416046142578e+00) (9, -2.12436079978942871094e+00) (10, -1.47691035270690917969e+00) (11, -1.27304613590240478516e-01) (12, 2.31263375282287597656e+00) (13, -1.32578587532043457031e+00) (14, -2.74858742952346801758e-01) (4, 6.47248566150665283203e-01) (5, 5.29270887374877929688e-01) (6, -1.72445344924926757812e+00) (7, 8.80540251731872558594e-01) (8, -4.74103866145014762878e-03) (9, 3.13302934169769287109e-01) (10, 3.86659550666809082031e+00) (11, 1.78250193595886230469e-01) (12, 2.72511839866638183594e-01) (13, -9.25327837467193603516e-02) (14, -8.18721890449523925781e-01) (4, 1.79709374904632568359e-01) (5, 6.55323684215545654297e-01) (6, -7.50878095626831054688e-01) (7, -1.64109170436859130859e-01) (8, -1.52582311630249023438e+00) (9, 1.64597892761230468750e+00) (10, 9.54732477664947509766e-01) (11, 3.92156332731246948242e-01) (12, 8.36558759212493896484e-01) (13, -1.28599524497985839844e-01) (14, -1.18598401546478271484e+00) (4, 7.46178150177001953125e-01) (5, -1.78498089313507080078e+00) (6, -1.81884303689002990723e-01) (7, -5.84502100944519042969e-01) (8, 7.00220406055450439453e-01) (9, -1.70773148536682128906e+00) (10, -2.36786413192749023438e+00) (11, 2.59102344512939453125e-01) (12, -2.45174360275268554688e+00) (13, 1.33266937732696533203e+00) (14, -8.05818215012550354004e-02) (4, -1.32230961322784423828e+00) (5, -4.45820033550262451172e-01) (6, -1.45058441162109375000e+00) (7, -1.30351185798645019531e+00) (8, -3.36052060127258300781e-01) (9, 4.28221851587295532227e-01) (10, 4.80315208435058593750e-01) (11, -4.11936193704605102539e-02) (12, 1.18521225452423095703e+00) (13, -4.45206105709075927734e-01) (14, -7.11843729019165039062e-01) (4, 1.39566290378570556641e+00) (5, -7.21996605396270751953e-01) (6, 4.61918801069259643555e-01) (7, 1.53216660022735595703e-01) (8, 7.59234011173248291016e-01) (9, -6.51444852352142333984e-01) (10, 3.39758872985839843750e+00) (11, -9.55326139926910400391e-01) (12, -8.37303042411804199219e-01) (13, -1.18277180194854736328e+00) (14, 1.52560639381408691406e+00) (4, 8.20329785346984863281e-02) (5, 7.42708683013916015625e-01) (6, -1.60346210002899169922e+00) (7, -1.12936389446258544922e+00) (8, -2.01666378974914550781e+00) (9, 1.08656203746795654297e+00) (10, -1.25137412548065185547e+00) (11, 9.06379699707031250000e-01) (12, 1.10616815090179443359e+00) (13, 1.37739896774291992188e-01) (14, -2.13042378425598144531e+00) (4, -2.87995010614395141602e-01) (5, 1.23213060200214385986e-01) (6, 4.05825078487396240234e-02) (7, -7.37672150135040283203e-01) (8, -8.79955887794494628906e-01) (9, 6.49997830390930175781e-01) (10, -6.48097574710845947266e-01) (11, 8.69643270969390869141e-01) (12, -6.59455001354217529297e-01) (13, -1.02169013023376464844e+00) (14, 1.27482759952545166016e+00) (4, -2.85502123832702636719e+00) (5, 7.27787911891937255859e-02) (6, 1.18790972232818603516e+00) (7, -1.43678998947143554688e+00) (8, 2.42422416806221008301e-01) (9, -4.93722152709960937500e+00) (10, -6.42524242401123046875e-01) (11, 1.70117664337158203125e+00) (12, 1.37235760688781738281e+00) (13, -4.35994446277618408203e-01) (14, -9.16887521743774414062e-01) (4, 2.06835389137268066406e+00) (5, -2.24491357803344726562e+00) (6, 1.52460539340972900391e+00) (7, 1.50686371326446533203e+00) (8, 3.42347669601440429688e+00) (9, -1.46663260459899902344e+00) (10, 1.68619549274444580078e+00) (11, 1.76487231254577636719e+00) (12, -3.13570737838745117188e-01) (13, -5.18953990936279296875e+00) (14, -7.64793574810028076172e-01) (15, 6.17720508575439453125e+00) (16, -6.30790710449218750000e+00) (17, -3.90501236915588378906e+00) (18, 5.33589601516723632812e+00) (19, 3.14877443015575408936e-02) (20, -5.48668956756591796875e+00) (21, 2.72357952781021595001e-03) (22, 7.53432214260101318359e-01) (23, 9.52152538299560546875e+00) (24, 8.87034356594085693359e-01) (25, 1.98961541056632995605e-01) (15, 3.97213244438171386719e+00) (16, 1.33510124683380126953e+00) (17, 2.53211903572082519531e+00) (18, -4.28256416320800781250e+00) (19, 1.10400688648223876953e+00) (20, -3.89984130859375000000e+00) (21, 3.19392967224121093750e+00) (22, -1.05661547183990478516e+00) (23, -2.38087922334671020508e-01) (24, -6.13198947906494140625e+00) (25, -1.98503482341766357422e+00) (15, 1.27948677539825439453e+00) (16, 2.53542518615722656250e+00) (17, 2.60106134414672851562e+00) (18, 1.80926714092493057251e-02) (19, 3.69121384620666503906e+00) (20, -2.38289237022399902344e+00) (21, 2.75914645195007324219e+00) (22, -1.60876631736755371094e+00) (23, 8.95191133022308349609e-01) (24, -8.55791473388671875000e+00) (25, -3.60890769958496093750e+00) 
