FANN_FLO_2.1
num_layers=3
learning_rate=0.100000
connection_rate=1.000000
network_type=0
learning_momentum=0.000000
training_algorithm=1
train_error_function=1
train_stop_function=0
cascade_output_change_fraction=0.010000
quickprop_decay=-0.000100
quickprop_mu=1.750000
rprop_increase_factor=1.200000
rprop_decrease_factor=0.500000
rprop_delta_min=0.000000
rprop_delta_max=50.000000
rprop_delta_zero=0.100000
cascade_output_stagnation_epochs=12
cascade_candidate_change_fraction=0.010000
cascade_candidate_stagnation_epochs=12
cascade_max_out_epochs=150
cascade_min_out_epochs=50
cascade_max_cand_epochs=150
cascade_min_cand_epochs=50
cascade_num_candidate_groups=2
bit_fail_limit=3.49999994039535522461e-01
cascade_candidate_limit=1.00000000000000000000e+03
cascade_weight_multiplier=4.00000005960464477539e-01
cascade_activation_functions_count=10
cascade_activation_functions=3 5 7 8 10 11 14 15 16 17 
cascade_activation_steepnesses_count=4
cascade_activation_steepnesses=2.50000000000000000000e-01 5.00000000000000000000e-01 7.50000000000000000000e-01 1.00000000000000000000e+00 
layer_sizes=4 6 4 
scale_included=1
scale_mean_in=0.144424 -0.026146 0.113567 
scale_deviation_in=0.013535 0.017018 0.012043 
scale_new_min_in=-0.900000 -0.900000 -0.900000 
scale_factor_in=0.900000 0.900000 0.900000 
scale_mean_out=-1.749421 2.182572 -1.705126 
scale_deviation_out=0.116295 0.219362 0.306848 
scale_new_min_out=-0.900000 -0.900000 -0.900000 
scale_factor_out=0.900000 0.900000 0.900000 
neurons (num_inputs, activation_function, activation_steepness)=(0, 0, 0.00000000000000000000e+00) (0, 0, 0.00000000000000000000e+00) (0, 0, 0.00000000000000000000e+00) (0, 0, 0.00000000000000000000e+00) (4, 5, 5.00000000000000000000e-01) (4, 5, 5.00000000000000000000e-01) (4, 5, 5.00000000000000000000e-01) (4, 5, 5.00000000000000000000e-01) (4, 5, 5.00000000000000000000e-01) (0, 5, 0.00000000000000000000e+00) (6, 5, 5.00000000000000000000e-01) (6, 5, 5.00000000000000000000e-01) (6, 5, 5.00000000000000000000e-01) (0, 5, 0.00000000000000000000e+00) 
connections (connected_to_neuron, weight)=(0, -7.18443274497985839844e-01) (1, -1.76118865609169006348e-01) (2, -8.04265677928924560547e-01) (3, 1.71281352639198303223e-01) (0, 1.03987246751785278320e-01) (1, 7.53725290298461914062e-01) (2, -6.83816730976104736328e-01) (3, 4.82617586851119995117e-01) (0, -4.51239973306655883789e-01) (1, 1.02459180355072021484e+00) (2, 1.89227238297462463379e-01) (3, -5.66682219505310058594e-01) (0, 9.74598884582519531250e-01) (1, -9.69066262245178222656e-01) (2, 4.77068662643432617188e-01) (3, -7.96962857246398925781e-01) (0, -9.42472934722900390625e-01) (1, -5.40647685527801513672e-01) (2, -4.69816803932189941406e-01) (3, 2.95877903699874877930e-01) (4, -7.32500016689300537109e-01) (5, 2.75997209548950195312e+00) (6, 3.11406230926513671875e+00) (7, -4.91713494062423706055e-01) (8, -1.97658419609069824219e+00) (9, 2.97588467597961425781e-01) (4, 1.88907420635223388672e+00) (5, 6.01955890655517578125e-01) (6, 7.11062312126159667969e-01) (7, -2.78700757026672363281e+00) (8, 2.93087697029113769531e+00) (9, -1.21307218074798583984e+00) (4, 2.75921511650085449219e+00) (5, 2.77473807334899902344e+00) (6, -5.44021785259246826172e-01) (7, -1.97038447856903076172e+00) (8, 2.55736708641052246094e+00) (9, -1.53595137596130371094e+00) 
