FANN_FLO_2.1
num_layers=3
learning_rate=0.100000
connection_rate=1.000000
network_type=0
learning_momentum=0.000000
training_algorithm=1
train_error_function=1
train_stop_function=0
cascade_output_change_fraction=0.010000
quickprop_decay=-0.000100
quickprop_mu=1.750000
rprop_increase_factor=1.200000
rprop_decrease_factor=0.500000
rprop_delta_min=0.000000
rprop_delta_max=50.000000
rprop_delta_zero=0.100000
cascade_output_stagnation_epochs=12
cascade_candidate_change_fraction=0.010000
cascade_candidate_stagnation_epochs=12
cascade_max_out_epochs=150
cascade_min_out_epochs=50
cascade_max_cand_epochs=150
cascade_min_cand_epochs=50
cascade_num_candidate_groups=2
bit_fail_limit=3.49999994039535522461e-01
cascade_candidate_limit=1.00000000000000000000e+03
cascade_weight_multiplier=4.00000005960464477539e-01
cascade_activation_functions_count=10
cascade_activation_functions=3 5 7 8 10 11 14 15 16 17 
cascade_activation_steepnesses_count=4
cascade_activation_steepnesses=2.50000000000000000000e-01 5.00000000000000000000e-01 7.50000000000000000000e-01 1.00000000000000000000e+00 
layer_sizes=4 6 4 
scale_included=1
scale_mean_in=0.137548 0.137342 0.065482 
scale_deviation_in=0.010383 0.010478 0.011906 
scale_new_min_in=-0.900000 -0.900000 -0.900000 
scale_factor_in=0.900000 0.900000 0.900000 
scale_mean_out=-0.786175 1.672523 -1.889849 
scale_deviation_out=0.060451 0.183200 0.266081 
scale_new_min_out=-0.900000 -0.900000 -0.900000 
scale_factor_out=0.900000 0.900000 0.900000 
neurons (num_inputs, activation_function, activation_steepness)=(0, 0, 0.00000000000000000000e+00) (0, 0, 0.00000000000000000000e+00) (0, 0, 0.00000000000000000000e+00) (0, 0, 0.00000000000000000000e+00) (4, 5, 5.00000000000000000000e-01) (4, 5, 5.00000000000000000000e-01) (4, 5, 5.00000000000000000000e-01) (4, 5, 5.00000000000000000000e-01) (4, 5, 5.00000000000000000000e-01) (0, 5, 0.00000000000000000000e+00) (6, 5, 5.00000000000000000000e-01) (6, 5, 5.00000000000000000000e-01) (6, 5, 5.00000000000000000000e-01) (0, 5, 0.00000000000000000000e+00) 
connections (connected_to_neuron, weight)=(0, -4.35663536190986633301e-02) (1, 9.60288882255554199219e-01) (2, 4.77495849132537841797e-01) (3, -7.30027854442596435547e-01) (0, -2.22063350677490234375e+00) (1, -2.08113336563110351562e+00) (2, -1.92032897472381591797e+00) (3, 2.90950345993041992188e+00) (0, 8.61727654933929443359e-01) (1, 2.56059527397155761719e-01) (2, 9.98788356781005859375e-01) (3, 2.23459526896476745605e-01) (0, -7.48239755630493164062e-01) (1, 5.05313016474246978760e-02) (2, 4.22038823366165161133e-01) (3, 8.82945775985717773438e-01) (0, -5.17181456089019775391e-01) (1, -8.65841984748840332031e-01) (2, 6.06187939643859863281e-01) (3, 8.46423089504241943359e-01) (4, 4.03884696960449218750e+00) (5, 4.26091015338897705078e-01) (6, -2.13849663734436035156e+00) (7, 4.04674148559570312500e+00) (8, -1.82076549530029296875e+00) (9, 2.84315377473831176758e-01) (4, -1.72488129138946533203e+00) (5, 3.14962267875671386719e+00) (6, -2.24355387687683105469e+00) (7, 1.38354468345642089844e+00) (8, 3.06972360610961914062e+00) (9, -4.16966962814331054688e+00) (4, -1.57548332214355468750e+00) (5, 3.41007995605468750000e+00) (6, -3.79899668693542480469e+00) (7, -4.39076632261276245117e-01) (8, 2.47457170486450195312e+00) (9, -3.26081562042236328125e+00) 
