FANN_FLO_2.1
num_layers=3
learning_rate=0.100000
connection_rate=1.000000
network_type=0
learning_momentum=0.000000
training_algorithm=1
train_error_function=1
train_stop_function=0
cascade_output_change_fraction=0.010000
quickprop_decay=-0.000100
quickprop_mu=1.750000
rprop_increase_factor=1.200000
rprop_decrease_factor=0.500000
rprop_delta_min=0.000000
rprop_delta_max=50.000000
rprop_delta_zero=0.100000
cascade_output_stagnation_epochs=12
cascade_candidate_change_fraction=0.010000
cascade_candidate_stagnation_epochs=12
cascade_max_out_epochs=150
cascade_min_out_epochs=50
cascade_max_cand_epochs=150
cascade_min_cand_epochs=50
cascade_num_candidate_groups=2
bit_fail_limit=3.49999994039535522461e-01
cascade_candidate_limit=1.00000000000000000000e+03
cascade_weight_multiplier=4.00000005960464477539e-01
cascade_activation_functions_count=10
cascade_activation_functions=3 5 7 8 10 11 14 15 16 17 
cascade_activation_steepnesses_count=4
cascade_activation_steepnesses=2.50000000000000000000e-01 5.00000000000000000000e-01 7.50000000000000000000e-01 1.00000000000000000000e+00 
layer_sizes=4 6 4 
scale_included=1
scale_mean_in=-0.004429 0.153033 0.025690 
scale_deviation_in=0.014733 0.017358 0.013324 
scale_new_min_in=-0.900000 -0.900000 -0.900000 
scale_factor_in=0.900000 0.900000 0.900000 
scale_mean_out=0.029038 2.338585 -0.740502 
scale_deviation_out=0.097517 0.253576 0.264147 
scale_new_min_out=-0.900000 -0.900000 -0.900000 
scale_factor_out=0.900000 0.900000 0.900000 
neurons (num_inputs, activation_function, activation_steepness)=(0, 0, 0.00000000000000000000e+00) (0, 0, 0.00000000000000000000e+00) (0, 0, 0.00000000000000000000e+00) (0, 0, 0.00000000000000000000e+00) (4, 5, 5.00000000000000000000e-01) (4, 5, 5.00000000000000000000e-01) (4, 5, 5.00000000000000000000e-01) (4, 5, 5.00000000000000000000e-01) (4, 5, 5.00000000000000000000e-01) (0, 5, 0.00000000000000000000e+00) (6, 5, 5.00000000000000000000e-01) (6, 5, 5.00000000000000000000e-01) (6, 5, 5.00000000000000000000e-01) (0, 5, 0.00000000000000000000e+00) 
connections (connected_to_neuron, weight)=(0, -4.32611793279647827148e-01) (1, -2.14539861679077148438e+00) (2, 1.83391168713569641113e-01) (3, 2.56416767835617065430e-01) (0, -5.48560559749603271484e-01) (1, 1.03812253475189208984e+00) (2, 1.02677178382873535156e+00) (3, 3.30422520637512207031e-01) (0, 1.66510522365570068359e+00) (1, 6.97300195693969726562e-01) (2, 1.65553212165832519531e-01) (3, -3.89561168849468231201e-02) (0, 1.26022505760192871094e+00) (1, -1.27994537353515625000e+00) (2, 4.51379179954528808594e-01) (3, 2.11809948086738586426e-01) (0, 1.19798505306243896484e+00) (1, 3.37328314781188964844e-01) (2, -1.05340601876378059387e-02) (3, 2.67005264759063720703e-01) (4, 2.55152076482772827148e-01) (5, 7.18610525131225585938e-01) (6, -2.11632490158081054688e+00) (7, -1.14024388790130615234e+00) (8, -9.27753865718841552734e-01) (9, 4.84215468168258666992e-02) (4, 2.26131939888000488281e+00) (5, -3.59558582305908203125e-01) (6, -2.95231521129608154297e-01) (7, 1.12699294090270996094e+00) (8, 2.90972553193569183350e-02) (9, -2.68641680479049682617e-01) (4, 1.58008992671966552734e+00) (5, -1.57349872589111328125e+00) (6, -6.60143792629241943359e-01) (7, 8.99529516696929931641e-01) (8, -6.35494887828826904297e-02) (9, 4.76879347115755081177e-03) 
