FANN_FLO_2.1
num_layers=3
learning_rate=0.100000
connection_rate=1.000000
network_type=0
learning_momentum=0.000000
training_algorithm=1
train_error_function=1
train_stop_function=0
cascade_output_change_fraction=0.010000
quickprop_decay=-0.000100
quickprop_mu=1.750000
rprop_increase_factor=1.200000
rprop_decrease_factor=0.500000
rprop_delta_min=0.000000
rprop_delta_max=50.000000
rprop_delta_zero=0.100000
cascade_output_stagnation_epochs=12
cascade_candidate_change_fraction=0.010000
cascade_candidate_stagnation_epochs=12
cascade_max_out_epochs=150
cascade_min_out_epochs=50
cascade_max_cand_epochs=150
cascade_min_cand_epochs=50
cascade_num_candidate_groups=2
bit_fail_limit=3.49999994039535522461e-01
cascade_candidate_limit=1.00000000000000000000e+03
cascade_weight_multiplier=4.00000005960464477539e-01
cascade_activation_functions_count=10
cascade_activation_functions=3 5 7 8 10 11 14 15 16 17 
cascade_activation_steepnesses_count=4
cascade_activation_steepnesses=2.50000000000000000000e-01 5.00000000000000000000e-01 7.50000000000000000000e-01 1.00000000000000000000e+00 
layer_sizes=4 41 4 
scale_included=1
scale_mean_in=0.078288 0.058771 0.053427 
scale_deviation_in=0.066460 0.068128 0.055258 
scale_new_min_in=-0.900000 -0.900000 -0.900000 
scale_factor_in=0.900000 0.900000 0.900000 
scale_mean_out=-0.818963 2.585816 -0.929548 
scale_deviation_out=0.967111 0.802084 0.680397 
scale_new_min_out=-0.900000 -0.900000 -0.900000 
scale_factor_out=0.900000 0.900000 0.900000 
neurons (num_inputs, activation_function, activation_steepness)=(0, 0, 0.00000000000000000000e+00) (0, 0, 0.00000000000000000000e+00) (0, 0, 0.00000000000000000000e+00) (0, 0, 0.00000000000000000000e+00) (4, 5, 5.00000000000000000000e-01) (4, 5, 5.00000000000000000000e-01) (4, 5, 5.00000000000000000000e-01) (4, 5, 5.00000000000000000000e-01) (4, 5, 5.00000000000000000000e-01) (4, 5, 5.00000000000000000000e-01) (4, 5, 5.00000000000000000000e-01) (4, 5, 5.00000000000000000000e-01) (4, 5, 5.00000000000000000000e-01) (4, 5, 5.00000000000000000000e-01) (4, 5, 5.00000000000000000000e-01) (4, 5, 5.00000000000000000000e-01) (4, 5, 5.00000000000000000000e-01) (4, 5, 5.00000000000000000000e-01) (4, 5, 5.00000000000000000000e-01) (4, 5, 5.00000000000000000000e-01) (4, 5, 5.00000000000000000000e-01) (4, 5, 5.00000000000000000000e-01) (4, 5, 5.00000000000000000000e-01) (4, 5, 5.00000000000000000000e-01) (4, 5, 5.00000000000000000000e-01) (4, 5, 5.00000000000000000000e-01) (4, 5, 5.00000000000000000000e-01) (4, 5, 5.00000000000000000000e-01) (4, 5, 5.00000000000000000000e-01) (4, 5, 5.00000000000000000000e-01) (4, 5, 5.00000000000000000000e-01) (4, 5, 5.00000000000000000000e-01) (4, 5, 5.00000000000000000000e-01) (4, 5, 5.00000000000000000000e-01) (4, 5, 5.00000000000000000000e-01) (4, 5, 5.00000000000000000000e-01) (4, 5, 5.00000000000000000000e-01) (4, 5, 5.00000000000000000000e-01) (4, 5, 5.00000000000000000000e-01) (4, 5, 5.00000000000000000000e-01) (4, 5, 5.00000000000000000000e-01) (4, 5, 5.00000000000000000000e-01) (4, 5, 5.00000000000000000000e-01) (4, 5, 5.00000000000000000000e-01) (0, 5, 0.00000000000000000000e+00) (41, 5, 5.00000000000000000000e-01) (41, 5, 5.00000000000000000000e-01) (41, 5, 5.00000000000000000000e-01) (0, 5, 0.00000000000000000000e+00) 
connections (connected_to_neuron, weight)=(0, -1.72441160678863525391e+00) (1, 1.94597423076629638672e+00) (2, 1.51134765148162841797e+00) (3, -6.57490015029907226562e-01) (0, 3.16738665103912353516e-01) (1, -1.96909487247467041016e+00) (2, 1.75545859336853027344e+00) (3, 1.09485483169555664062e+00) (0, -6.83289146423339843750e+00) (1, 1.50512588024139404297e+00) (2, -6.03322274982929229736e-02) (3, -5.86323785781860351562e+00) (0, 2.71106557920575141907e-03) (1, 1.20448693633079528809e-02) (2, 1.12382464110851287842e-01) (3, 3.24904227256774902344e+00) (0, -1.46584257483482360840e-01) (1, -3.81390380859375000000e+00) (2, 3.93682904541492462158e-02) (3, -5.07851064205169677734e-01) (0, 1.82451987266540527344e+00) (1, 1.25697004795074462891e+00) (2, -2.38701984286308288574e-01) (3, -1.22018182277679443359e+00) (0, 1.38981795310974121094e+00) (1, -1.99902498722076416016e+00) (2, 9.83586490154266357422e-01) (3, -1.69420015811920166016e+00) (0, 6.85550272464752197266e-01) (1, -1.30941554903984069824e-01) (2, -2.51756334304809570312e+00) (3, -2.43510150909423828125e+00) (0, 3.06198930740356445312e+00) (1, 4.27178859710693359375e+00) (2, 3.05635929107666015625e-01) (3, 4.81497383117675781250e+00) (0, -3.40674567222595214844e+00) (1, -4.53582108020782470703e-01) (2, -1.13069511950016021729e-01) (3, -4.12195301055908203125e+00) (0, -1.56504380702972412109e+00) (1, 2.32406616210937500000e+00) (2, 1.17819823324680328369e-01) (3, -2.37330269813537597656e+00) (0, -1.57190054655075073242e-01) (1, 1.36727958917617797852e-01) (2, -1.88699588179588317871e-01) (3, -3.25050258636474609375e+00) (0, -1.72568336129188537598e-01) (1, 1.55113399028778076172e-01) (2, -1.86077177524566650391e-01) (3, -3.26560497283935546875e+00) (0, -6.24295711517333984375e-01) (1, -3.10056209564208984375e-01) (2, -3.46501737833023071289e-01) (3, 4.24972176551818847656e-01) (0, 6.23407244682312011719e-01) (1, 1.48150074481964111328e+00) (2, 2.23444271087646484375e+00) (3, 1.10503029823303222656e+00) (0, 8.43292713165283203125e-01) (1, -1.93691623210906982422e+00) (2, -2.90879547595977783203e-01) (3, -2.99185681343078613281e+00) (0, 4.54702758789062500000e+00) (1, 4.83226633071899414062e+00) (2, 4.61616426706314086914e-01) (3, 6.09385633468627929688e+00) (0, -5.91810107231140136719e-01) (1, -8.01692545413970947266e-01) (2, -7.93141365051269531250e-01) (3, 8.63242208957672119141e-01) (0, 2.39885115623474121094e+00) (1, 6.34515225887298583984e-01) (2, 7.38081097602844238281e-01) (3, 2.62868976593017578125e+00) (0, 2.94897103309631347656e+00) (1, 7.88757026195526123047e-01) (2, 6.90152108669281005859e-01) (3, -3.59235644340515136719e-01) (0, 2.68833589553833007812e+00) (1, 4.93423372507095336914e-01) (2, 4.55027282238006591797e-01) (3, 2.99998092651367187500e+00) (0, -2.71195626258850097656e+00) (1, 1.61364853382110595703e+00) (2, -6.87573313713073730469e-01) (3, -8.02033394575119018555e-03) (0, -2.00608745217323303223e-01) (1, 1.54797345399856567383e-01) (2, -2.26434946060180664062e-01) (3, -3.03343081474304199219e+00) (0, -4.67903757095336914062e+00) (1, 2.35517859458923339844e+00) (2, 2.23603341728448867798e-02) (3, -2.25733065605163574219e+00) (0, 7.07520306110382080078e-01) (1, -1.04069459438323974609e+00) (2, -2.92318731546401977539e-01) (3, 2.90563893318176269531e+00) (0, 2.63413643836975097656e+00) (1, -4.95700016617774963379e-02) (2, -1.42186546325683593750e+00) (3, 1.79855152964591979980e-01) (0, -3.10624527931213378906e+00) (1, 8.16865682601928710938e-01) (2, -1.45962238311767578125e+00) (3, -1.46214210987091064453e+00) (0, 9.52831745147705078125e-01) (1, -1.70442461967468261719e-01) (2, -4.92389082908630371094e-01) (3, -3.67361247539520263672e-01) (0, 5.62923610210418701172e-01) (1, 2.07115435600280761719e+00) (2, -1.38353729248046875000e+00) (3, 1.34257066249847412109e+00) (0, -1.01248681545257568359e+00) (1, -1.01890432834625244141e+00) (2, -9.81966778635978698730e-02) (3, -8.43607604503631591797e-01) (0, 8.50912034511566162109e-01) (1, -1.70972204208374023438e+00) (2, 6.65793895721435546875e-01) (3, -3.87324285507202148438e+00) (0, 2.48524236679077148438e+00) (1, -1.70265030860900878906e+00) (2, 2.08216965198516845703e-01) (3, -1.58601522445678710938e-01) (0, -4.83858078718185424805e-01) (1, 7.51604676246643066406e-01) (2, -6.99799537658691406250e-01) (3, -1.75661849975585937500e+00) (0, -1.47775249481201171875e+01) (1, -5.53880333900451660156e-01) (2, -2.26249560713768005371e-01) (3, -1.70749225616455078125e+01) (0, -6.47392845153808593750e+00) (1, -6.36497020721435546875e-01) (2, -1.56097412109375000000e-01) (3, -3.54172635078430175781e+00) (0, -9.09696102142333984375e-01) (1, 9.73614275455474853516e-01) (2, -1.60600781440734863281e-01) (3, -3.50420856475830078125e+00) (0, 1.26961076259613037109e+00) (1, -5.79131960868835449219e-01) (2, 2.15444707870483398438e+00) (3, -8.66064280271530151367e-02) (0, 6.49615907669067382812e+00) (1, 2.57990747690200805664e-01) (2, -1.12714208662509918213e-01) (3, 7.74281883239746093750e+00) (0, 7.79524374008178710938e+00) (1, 3.74296933412551879883e-01) (2, 2.33288019895553588867e-01) (3, 9.11754894256591796875e+00) (0, 1.42096555233001708984e+00) (1, -1.89765644073486328125e+00) (2, 1.19735360145568847656e-01) (3, -1.71270632743835449219e+00) (4, 1.19313430786132812500e+00) (5, 1.00770354270935058594e+00) (6, 8.09698104858398437500e+00) (7, 4.73888921737670898438e+00) (8, 4.05887985229492187500e+00) (9, 3.46494221687316894531e+00) (10, -1.46263170242309570312e+00) (11, 2.09008753299713134766e-01) (12, 4.02439689636230468750e+00) (13, 3.63026285171508789062e+00) (14, -6.46593284606933593750e+00) (15, -4.63037252426147460938e+00) (16, -4.67592144012451171875e+00) (17, 3.29370170831680297852e-01) (18, 1.76737144589424133301e-01) (19, -4.06949853897094726562e+00) (20, 7.30147647857666015625e+00) (21, 7.11360394954681396484e-01) (22, -1.85355925559997558594e+00) (23, 3.65091037750244140625e+00) (24, -2.41727614402770996094e+00) (25, 1.82687687873840332031e+00) (26, -4.24490690231323242188e+00) (27, 4.53559207916259765625e+00) (28, 4.90680027008056640625e+00) (29, 7.46699750423431396484e-01) (30, 1.37985980510711669922e+00) (31, -5.30693531036376953125e-02) (32, -9.51853096485137939453e-01) (33, 7.57089495658874511719e-01) (34, -5.48852920532226562500e+00) (35, -2.39190816879272460938e+00) (36, -2.02792882919311523438e+00) (37, 2.63403873443603515625e+01) (38, -7.13672828674316406250e+00) (39, -6.06852531433105468750e+00) (40, -1.97287172079086303711e-01) (41, -8.68966293334960937500e+00) (42, -1.06536693572998046875e+01) (43, -1.86535763740539550781e+00) (44, 6.06127119064331054688e+00) (4, -2.59647822380065917969e+00) (5, 3.30711436271667480469e+00) (6, -8.11584472656250000000e-01) (7, 6.74939751625061035156e-01) (8, 1.67886710166931152344e+00) (9, 4.50217097997665405273e-01) (10, -2.05825996398925781250e+00) (11, -4.71933126449584960938e+00) (12, -1.34858918190002441406e+00) (13, 9.33715421706438064575e-03) (14, -1.06201684474945068359e+00) (15, 4.98985737562179565430e-01) (16, 9.98672902584075927734e-01) (17, -4.10599768161773681641e-01) (18, -2.34852385520935058594e+00) (19, 6.35990142822265625000e-01) (20, 4.10578608512878417969e-01) (21, -4.23685073852539062500e-01) (22, -9.98829424381256103516e-01) (23, 2.53882408142089843750e+00) (24, -8.84213209152221679688e-01) (25, 1.64267086982727050781e+00) (26, 1.47428297996520996094e+00) (27, -7.62734651565551757812e-01) (28, 1.34971177577972412109e+00) (29, -2.28026604652404785156e+00) (30, 2.32537555694580078125e+00) (31, -4.03464287519454956055e-01) (32, -6.20547056198120117188e-01) (33, -1.64504826068878173828e-01) (34, -2.29386901855468750000e+00) (35, -2.38353013992309570312e-01) (36, -1.36242842674255371094e+00) (37, -1.01363861560821533203e+00) (38, 5.49174129962921142578e-01) (39, 1.19525575637817382812e+00) (40, -3.23875284194946289062e+00) (41, 2.42892789840698242188e+00) (42, -2.12923526763916015625e+00) (43, -1.35000216960906982422e+00) (44, -2.39373826980590820312e+00) (4, -1.20802056789398193359e+00) (5, 6.44664585590362548828e-01) (6, -2.59845077991485595703e-01) (7, -2.85442173480987548828e-01) (8, 4.33947473764419555664e-01) (9, -1.79582095146179199219e+00) (10, -2.08402657508850097656e+00) (11, -2.45109367370605468750e+00) (12, 8.88227939605712890625e-01) (13, 1.27619397640228271484e+00) (14, -7.40860700607299804688e-01) (15, 1.53734743595123291016e+00) (16, 1.71456170082092285156e+00) (17, 8.69150519371032714844e-01) (18, -8.28832209110260009766e-01) (19, -4.77071195840835571289e-01) (20, -1.19235433638095855713e-01) (21, 2.26659989356994628906e+00) (22, -8.29724907875061035156e-01) (23, -1.43862590193748474121e-01) (24, -1.34552076458930969238e-01) (25, -3.58877658843994140625e-01) (26, 1.56102669239044189453e+00) (27, -4.44048106670379638672e-01) (28, 6.82443201541900634766e-01) (29, 5.25100827217102050781e-01) (30, 1.00281751155853271484e+00) (31, -6.49762079119682312012e-02) (32, 1.56784009933471679688e+00) (33, 1.73910319805145263672e+00) (34, -1.02128326892852783203e+00) (35, -7.28319525718688964844e-01) (36, -3.92834395170211791992e-01) (37, -3.76651167869567871094e-01) (38, -8.95775616168975830078e-01) (39, -1.91623978316783905029e-02) (40, -9.77602243423461914062e-01) (41, 1.69434857368469238281e+00) (42, -3.37688595056533813477e-01) (43, 6.49579942226409912109e-01) (44, -1.37007474899291992188e+00) 
