FANN_FLO_2.1
num_layers=3
learning_rate=0.100000
connection_rate=1.000000
network_type=0
learning_momentum=0.000000
training_algorithm=1
train_error_function=1
train_stop_function=0
cascade_output_change_fraction=0.010000
quickprop_decay=-0.000100
quickprop_mu=1.750000
rprop_increase_factor=1.200000
rprop_decrease_factor=0.500000
rprop_delta_min=0.000000
rprop_delta_max=50.000000
rprop_delta_zero=0.100000
cascade_output_stagnation_epochs=12
cascade_candidate_change_fraction=0.010000
cascade_candidate_stagnation_epochs=12
cascade_max_out_epochs=150
cascade_min_out_epochs=50
cascade_max_cand_epochs=150
cascade_min_cand_epochs=50
cascade_num_candidate_groups=2
bit_fail_limit=3.49999994039535522461e-01
cascade_candidate_limit=1.00000000000000000000e+03
cascade_weight_multiplier=4.00000005960464477539e-01
cascade_activation_functions_count=10
cascade_activation_functions=3 5 7 8 10 11 14 15 16 17 
cascade_activation_steepnesses_count=4
cascade_activation_steepnesses=2.50000000000000000000e-01 5.00000000000000000000e-01 7.50000000000000000000e-01 1.00000000000000000000e+00 
layer_sizes=4 6 4 
scale_included=1
scale_mean_in=0.002023 0.002604 0.100606 
scale_deviation_in=0.018260 0.021473 0.016572 
scale_new_min_in=-0.900000 -0.900000 -0.900000 
scale_factor_in=0.900000 0.900000 0.900000 
scale_mean_out=-0.111987 3.709003 -0.681325 
scale_deviation_out=1.748728 0.231008 0.253686 
scale_new_min_out=-0.900000 -0.900000 -0.900000 
scale_factor_out=0.900000 0.900000 0.900000 
neurons (num_inputs, activation_function, activation_steepness)=(0, 0, 0.00000000000000000000e+00) (0, 0, 0.00000000000000000000e+00) (0, 0, 0.00000000000000000000e+00) (0, 0, 0.00000000000000000000e+00) (4, 5, 5.00000000000000000000e-01) (4, 5, 5.00000000000000000000e-01) (4, 5, 5.00000000000000000000e-01) (4, 5, 5.00000000000000000000e-01) (4, 5, 5.00000000000000000000e-01) (0, 5, 0.00000000000000000000e+00) (6, 5, 5.00000000000000000000e-01) (6, 5, 5.00000000000000000000e-01) (6, 5, 5.00000000000000000000e-01) (0, 5, 0.00000000000000000000e+00) 
connections (connected_to_neuron, weight)=(0, 1.23881971836090087891e+00) (1, -7.79292225837707519531e-01) (2, 9.12781953811645507812e-01) (3, -7.48769879341125488281e-01) (0, 1.55748263001441955566e-01) (1, -1.03437113761901855469e+00) (2, -1.32480800151824951172e+00) (3, 3.68919037282466888428e-02) (0, -3.01122307777404785156e-01) (1, -2.38975182175636291504e-01) (2, 1.42426323890686035156e+00) (3, 1.80616959929466247559e-01) (0, 2.77712059020996093750e+00) (1, 8.39063763618469238281e-01) (2, -3.02655816078186035156e-01) (3, 1.35367071628570556641e+00) (0, 4.92458462715148925781e-01) (1, 3.62479239702224731445e-01) (2, 8.18466126918792724609e-01) (3, 4.60867226123809814453e-01) (4, -2.26902580261230468750e+00) (5, -1.07167708873748779297e+00) (6, 3.35133045911788940430e-01) (7, -2.68741273880004882812e+00) (8, -4.12166088819503784180e-01) (9, 6.41433238983154296875e-01) (4, -1.74206221103668212891e+00) (5, 1.41304719448089599609e+00) (6, -1.14705359935760498047e+00) (7, 1.13905775547027587891e+00) (8, -1.73520576953887939453e+00) (9, -4.20142948627471923828e-01) (4, -1.74179887771606445312e+00) (5, 1.86340641975402832031e+00) (6, -2.21332812309265136719e+00) (7, 5.35906910896301269531e-01) (8, -2.97080297023057937622e-02) (9, -3.69164288043975830078e-01) 
