FANN_FLO_2.1
num_layers=3
learning_rate=0.100000
connection_rate=1.000000
network_type=0
learning_momentum=0.000000
training_algorithm=1
train_error_function=1
train_stop_function=0
cascade_output_change_fraction=0.010000
quickprop_decay=-0.000100
quickprop_mu=1.750000
rprop_increase_factor=1.200000
rprop_decrease_factor=0.500000
rprop_delta_min=0.000000
rprop_delta_max=50.000000
rprop_delta_zero=0.100000
cascade_output_stagnation_epochs=12
cascade_candidate_change_fraction=0.010000
cascade_candidate_stagnation_epochs=12
cascade_max_out_epochs=150
cascade_min_out_epochs=50
cascade_max_cand_epochs=150
cascade_min_cand_epochs=50
cascade_num_candidate_groups=2
bit_fail_limit=3.49999994039535522461e-01
cascade_candidate_limit=1.00000000000000000000e+03
cascade_weight_multiplier=4.00000005960464477539e-01
cascade_activation_functions_count=10
cascade_activation_functions=3 5 7 8 10 11 14 15 16 17 
cascade_activation_steepnesses_count=4
cascade_activation_steepnesses=2.50000000000000000000e-01 5.00000000000000000000e-01 7.50000000000000000000e-01 1.00000000000000000000e+00 
layer_sizes=4 6 4 
scale_included=1
scale_mean_in=0.065450 0.227763 0.157965 
scale_deviation_in=0.018205 0.021775 0.016579 
scale_new_min_in=-0.900000 -0.900000 -0.900000 
scale_factor_in=0.900000 0.900000 0.900000 
scale_mean_out=-1.339616 2.419920 -0.512159 
scale_deviation_out=0.000056 0.000030 0.000059 
scale_new_min_out=-0.900000 -0.900000 -0.900000 
scale_factor_out=0.900000 0.900000 0.900000 
neurons (num_inputs, activation_function, activation_steepness)=(0, 0, 0.00000000000000000000e+00) (0, 0, 0.00000000000000000000e+00) (0, 0, 0.00000000000000000000e+00) (0, 0, 0.00000000000000000000e+00) (4, 5, 5.00000000000000000000e-01) (4, 5, 5.00000000000000000000e-01) (4, 5, 5.00000000000000000000e-01) (4, 5, 5.00000000000000000000e-01) (4, 5, 5.00000000000000000000e-01) (0, 5, 0.00000000000000000000e+00) (6, 5, 5.00000000000000000000e-01) (6, 5, 5.00000000000000000000e-01) (6, 5, 5.00000000000000000000e-01) (0, 5, 0.00000000000000000000e+00) 
connections (connected_to_neuron, weight)=(0, -7.43839085102081298828e-01) (1, 2.84869492053985595703e-01) (2, -3.95593523979187011719e-01) (3, -1.23486649990081787109e+00) (0, 9.54648733139038085938e-01) (1, -6.67031764984130859375e-01) (2, -2.59821146726608276367e-01) (3, 6.29661262035369873047e-01) (0, -8.49549114704132080078e-01) (1, -6.15002870559692382812e-01) (2, -2.00152575969696044922e-01) (3, -8.40263783931732177734e-01) (0, 8.06064009666442871094e-01) (1, -5.89413762092590332031e-01) (2, 9.26336646080017089844e-02) (3, -4.31228160858154296875e-01) (0, -6.35380387306213378906e-01) (1, 3.85220974683761596680e-01) (2, 1.57112672924995422363e-01) (3, -1.18641173839569091797e+00) (4, 4.97657030820846557617e-01) (5, 4.86404418945312500000e-01) (6, -7.85844922065734863281e-01) (7, -1.49483576416969299316e-01) (8, -9.67072010040283203125e-01) (9, 8.50591957569122314453e-01) (4, 8.80141437053680419922e-01) (5, 3.49969208240509033203e-01) (6, 2.81272709369659423828e-01) (7, 1.31283760070800781250e-01) (8, 9.92070674896240234375e-01) (9, -3.76500338315963745117e-01) (4, -1.13152265548706054688e+00) (5, -3.62663418054580688477e-01) (6, 1.85415863990783691406e-01) (7, -8.46558451652526855469e-01) (8, -7.11471319198608398438e-01) (9, 2.20536708831787109375e-01) 
