FANN_FLO_2.1
num_layers=4
learning_rate=0.100000
connection_rate=1.000000
network_type=0
learning_momentum=0.000000
training_algorithm=1
train_error_function=1
train_stop_function=0
cascade_output_change_fraction=0.010000
quickprop_decay=-0.000100
quickprop_mu=1.750000
rprop_increase_factor=1.200000
rprop_decrease_factor=0.500000
rprop_delta_min=0.000000
rprop_delta_max=50.000000
rprop_delta_zero=0.100000
cascade_output_stagnation_epochs=12
cascade_candidate_change_fraction=0.010000
cascade_candidate_stagnation_epochs=12
cascade_max_out_epochs=150
cascade_min_out_epochs=50
cascade_max_cand_epochs=150
cascade_min_cand_epochs=50
cascade_num_candidate_groups=2
bit_fail_limit=3.49999994039535522461e-01
cascade_candidate_limit=1.00000000000000000000e+03
cascade_weight_multiplier=4.00000005960464477539e-01
cascade_activation_functions_count=10
cascade_activation_functions=3 5 7 8 10 11 14 15 16 17 
cascade_activation_steepnesses_count=4
cascade_activation_steepnesses=2.50000000000000000000e-01 5.00000000000000000000e-01 7.50000000000000000000e-01 1.00000000000000000000e+00 
layer_sizes=4 11 11 4 
scale_included=1
scale_mean_in=0.078734 0.067684 -0.079036 
scale_deviation_in=0.012731 0.014633 0.012199 
scale_new_min_in=-0.900000 -0.900000 -0.900000 
scale_factor_in=0.900000 0.900000 0.900000 
scale_mean_out=-0.862514 1.680405 -0.301139 
scale_deviation_out=0.101761 0.222755 0.170381 
scale_new_min_out=-0.900000 -0.900000 -0.900000 
scale_factor_out=0.900000 0.900000 0.900000 
neurons (num_inputs, activation_function, activation_steepness)=(0, 0, 0.00000000000000000000e+00) (0, 0, 0.00000000000000000000e+00) (0, 0, 0.00000000000000000000e+00) (0, 0, 0.00000000000000000000e+00) (4, 5, 5.00000000000000000000e-01) (4, 5, 5.00000000000000000000e-01) (4, 5, 5.00000000000000000000e-01) (4, 5, 5.00000000000000000000e-01) (4, 5, 5.00000000000000000000e-01) (4, 5, 5.00000000000000000000e-01) (4, 5, 5.00000000000000000000e-01) (4, 5, 5.00000000000000000000e-01) (4, 5, 5.00000000000000000000e-01) (4, 5, 5.00000000000000000000e-01) (0, 5, 0.00000000000000000000e+00) (11, 5, 5.00000000000000000000e-01) (11, 5, 5.00000000000000000000e-01) (11, 5, 5.00000000000000000000e-01) (11, 5, 5.00000000000000000000e-01) (11, 5, 5.00000000000000000000e-01) (11, 5, 5.00000000000000000000e-01) (11, 5, 5.00000000000000000000e-01) (11, 5, 5.00000000000000000000e-01) (11, 5, 5.00000000000000000000e-01) (11, 5, 5.00000000000000000000e-01) (0, 5, 0.00000000000000000000e+00) (11, 5, 5.00000000000000000000e-01) (11, 5, 5.00000000000000000000e-01) (11, 5, 5.00000000000000000000e-01) (0, 5, 0.00000000000000000000e+00) 
connections (connected_to_neuron, weight)=(0, 4.77624773979187011719e-01) (1, -7.11414337158203125000e-01) (2, -6.62970483303070068359e-01) (3, -3.05380851030349731445e-01) (0, -6.15123987197875976562e-01) (1, -1.22608649730682373047e+00) (2, 4.97130692005157470703e-01) (3, -4.79939907789230346680e-01) (0, 8.02489936351776123047e-01) (1, -1.04638910293579101562e+00) (2, 6.42871856689453125000e-01) (3, 1.09544050693511962891e+00) (0, -8.58860015869140625000e-01) (1, -6.34379982948303222656e-01) (2, -3.88434737920761108398e-01) (3, 2.11602345108985900879e-01) (0, 7.69913256168365478516e-01) (1, -4.17800247669219970703e-01) (2, 1.54402121901512145996e-01) (3, -4.04887497425079345703e-01) (0, 6.30080401897430419922e-01) (1, -2.80981630086898803711e-01) (2, 4.34755086898803710938e-01) (3, 1.27963459491729736328e+00) (0, -8.45713913440704345703e-01) (1, 4.54490870237350463867e-01) (2, 4.52659755945205688477e-01) (3, 2.39081010222434997559e-01) (0, -5.88880032300949096680e-02) (1, 1.05072908103466033936e-01) (2, -9.27999973297119140625e-01) (3, -6.71355187892913818359e-01) (0, -7.06680953502655029297e-01) (1, -2.57477998733520507812e-01) (2, 9.60924029350280761719e-01) (3, -1.38973236083984375000e+00) (0, -1.40913224220275878906e+00) (1, -7.51293897628784179688e-01) (2, 2.07964941859245300293e-01) (3, 1.79730069637298583984e+00) (4, 5.38165681064128875732e-02) (5, -1.20516447350382804871e-03) (6, 8.66654038429260253906e-01) (7, -2.35251381993293762207e-01) (8, 1.07355034351348876953e+00) (9, 1.35494828224182128906e+00) (10, 2.68978148698806762695e-01) (11, 1.74109756946563720703e-01) (12, -7.99643635749816894531e-01) (13, -7.50545978546142578125e-01) (14, 9.36219573020935058594e-01) (4, -8.53731870651245117188e-01) (5, 3.08269292116165161133e-01) (6, -4.06881004571914672852e-01) (7, -5.84440112113952636719e-01) (8, 6.85432970523834228516e-01) (9, 5.09971916675567626953e-01) (10, 9.46627497673034667969e-01) (11, -5.71177065372467041016e-01) (12, 4.03874725103378295898e-01) (13, 9.69736456871032714844e-01) (14, -9.26159381866455078125e-01) (4, 6.54849886894226074219e-01) (5, 1.24822247028350830078e+00) (6, -1.28622010350227355957e-01) (7, -2.23738148808479309082e-01) (8, 1.54451012611389160156e+00) (9, 9.70259755849838256836e-02) (10, -1.24249386787414550781e+00) (11, 2.17163786292076110840e-01) (12, 7.32736364006996154785e-02) (13, 5.78583404421806335449e-02) (14, -7.06704080104827880859e-01) (4, -6.07755720615386962891e-01) (5, -1.39849241822957992554e-02) (6, -3.87967079877853393555e-01) (7, -4.33502346277236938477e-02) (8, -9.49235081672668457031e-01) (9, 1.66505187749862670898e-01) (10, 2.62914121150970458984e-01) (11, -4.09479379653930664062e-01) (12, 9.25146698951721191406e-01) (13, 8.09021770954132080078e-01) (14, -1.17483377456665039062e+00) (4, 1.18612885475158691406e+00) (5, 7.12987720966339111328e-01) (6, 6.20800554752349853516e-01) (7, 1.03033113479614257812e+00) (8, 2.86251932382583618164e-01) (9, -8.74828755855560302734e-01) (10, -2.62043446302413940430e-01) (11, 2.36614510416984558105e-01) (12, -4.30336557328701019287e-02) (13, -4.24842357635498046875e-01) (14, -1.89618721604347229004e-01) (4, 9.68617916107177734375e-01) (5, 4.47933316230773925781e-01) (6, -9.44463253021240234375e-01) (7, -5.39839088916778564453e-01) (8, 7.45549499988555908203e-01) (9, -9.84420716762542724609e-01) (10, -6.52288272976875305176e-02) (11, 9.84327077865600585938e-01) (12, -4.24639940261840820312e-01) (13, -4.25884097814559936523e-01) (14, 6.02984964847564697266e-01) (4, 5.14407604932785034180e-02) (5, 1.26991963386535644531e+00) (6, 1.13987445831298828125e+00) (7, -1.35335221886634826660e-01) (8, 2.83877789974212646484e-01) (9, -3.83443474769592285156e-01) (10, -6.55551493167877197266e-01) (11, -9.68417167663574218750e-01) (12, 8.23348224163055419922e-01) (13, -7.57915973663330078125e-01) (14, -4.62326467037200927734e-01) (4, -3.64662706851959228516e-01) (5, 5.08274495601654052734e-01) (6, 5.68545818328857421875e-01) (7, -5.60604184865951538086e-02) (8, -3.71965408325195312500e-01) (9, -3.01639020442962646484e-01) (10, -1.12801897525787353516e+00) (11, -5.64831137657165527344e-01) (12, 4.24684047698974609375e-01) (13, 6.59103035926818847656e-01) (14, -1.10359001159667968750e+00) (4, -1.12126255035400390625e+00) (5, 6.49384856224060058594e-01) (6, -1.46194720268249511719e+00) (7, -9.43289697170257568359e-01) (8, -2.75779604911804199219e-01) (9, 2.67502963542938232422e-01) (10, 4.99651044607162475586e-01) (11, -1.10846802592277526855e-01) (12, 1.16498924791812896729e-01) (13, -9.01330411434173583984e-01) (14, -3.44880521297454833984e-01) (4, 4.03323732316493988037e-02) (5, 6.32155597209930419922e-01) (6, 8.94523859024047851562e-01) (7, 1.04993021488189697266e+00) (8, 9.35936629772186279297e-01) (9, 8.54111313819885253906e-01) (10, 1.53951168060302734375e-01) (11, -1.41616404056549072266e+00) (12, 1.14523179829120635986e-01) (13, 1.97906601428985595703e+00) (14, 1.10647344589233398438e+00) (15, -1.90776550769805908203e+00) (16, 4.63169068098068237305e-01) (17, -2.63840842247009277344e+00) (18, 1.30946028232574462891e+00) (19, -6.28242969512939453125e-01) (20, -1.28049522638320922852e-01) (21, -1.82052791118621826172e+00) (22, -7.63282954692840576172e-01) (23, 9.65507745742797851562e-01) (24, -8.00011396408081054688e-01) (25, -3.01498156040906906128e-02) (15, 7.59368538856506347656e-01) (16, 1.88214683532714843750e+00) (17, 5.77277719974517822266e-01) (18, 5.21352648735046386719e-01) (19, -1.95195055007934570312e+00) (20, -1.59164905548095703125e+00) (21, 2.10936379432678222656e+00) (22, 1.01073944568634033203e+00) (23, 4.03596192598342895508e-01) (24, 1.01955270767211914062e+00) (25, -4.33350980281829833984e-01) (15, -1.54215085506439208984e+00) (16, 1.31176280975341796875e+00) (17, -5.00761091709136962891e-01) (18, 1.47707867622375488281e+00) (19, 9.21803534030914306641e-01) (20, -1.72565329074859619141e+00) (21, 1.06031882762908935547e+00) (22, 2.25802683830261230469e+00) (23, -1.52998888492584228516e+00) (24, 2.84691667556762695312e+00) (25, -1.00271475315093994141e+00) 
