FANN_FLO_2.1
num_layers=4
learning_rate=0.100000
connection_rate=1.000000
network_type=0
learning_momentum=0.000000
training_algorithm=1
train_error_function=1
train_stop_function=0
cascade_output_change_fraction=0.010000
quickprop_decay=-0.000100
quickprop_mu=1.750000
rprop_increase_factor=1.200000
rprop_decrease_factor=0.500000
rprop_delta_min=0.000000
rprop_delta_max=50.000000
rprop_delta_zero=0.100000
cascade_output_stagnation_epochs=12
cascade_candidate_change_fraction=0.010000
cascade_candidate_stagnation_epochs=12
cascade_max_out_epochs=150
cascade_min_out_epochs=50
cascade_max_cand_epochs=150
cascade_min_cand_epochs=50
cascade_num_candidate_groups=2
bit_fail_limit=3.49999994039535522461e-01
cascade_candidate_limit=1.00000000000000000000e+03
cascade_weight_multiplier=4.00000005960464477539e-01
cascade_activation_functions_count=10
cascade_activation_functions=3 5 7 8 10 11 14 15 16 17 
cascade_activation_steepnesses_count=4
cascade_activation_steepnesses=2.50000000000000000000e-01 5.00000000000000000000e-01 7.50000000000000000000e-01 1.00000000000000000000e+00 
layer_sizes=4 11 11 4 
scale_included=1
scale_mean_in=0.089311 0.084136 -0.046982 
scale_deviation_in=0.006102 0.013652 0.006667 
scale_new_min_in=-0.900000 -0.900000 -0.900000 
scale_factor_in=0.900000 0.900000 0.900000 
scale_mean_out=-0.819877 2.126223 -0.272029 
scale_deviation_out=0.088212 0.086384 0.126404 
scale_new_min_out=-0.900000 -0.900000 -0.900000 
scale_factor_out=0.900000 0.900000 0.900000 
neurons (num_inputs, activation_function, activation_steepness)=(0, 0, 0.00000000000000000000e+00) (0, 0, 0.00000000000000000000e+00) (0, 0, 0.00000000000000000000e+00) (0, 0, 0.00000000000000000000e+00) (4, 5, 5.00000000000000000000e-01) (4, 5, 5.00000000000000000000e-01) (4, 5, 5.00000000000000000000e-01) (4, 5, 5.00000000000000000000e-01) (4, 5, 5.00000000000000000000e-01) (4, 5, 5.00000000000000000000e-01) (4, 5, 5.00000000000000000000e-01) (4, 5, 5.00000000000000000000e-01) (4, 5, 5.00000000000000000000e-01) (4, 5, 5.00000000000000000000e-01) (0, 5, 0.00000000000000000000e+00) (11, 5, 5.00000000000000000000e-01) (11, 5, 5.00000000000000000000e-01) (11, 5, 5.00000000000000000000e-01) (11, 5, 5.00000000000000000000e-01) (11, 5, 5.00000000000000000000e-01) (11, 5, 5.00000000000000000000e-01) (11, 5, 5.00000000000000000000e-01) (11, 5, 5.00000000000000000000e-01) (11, 5, 5.00000000000000000000e-01) (11, 5, 5.00000000000000000000e-01) (0, 5, 0.00000000000000000000e+00) (11, 5, 5.00000000000000000000e-01) (11, 5, 5.00000000000000000000e-01) (11, 5, 5.00000000000000000000e-01) (0, 5, 0.00000000000000000000e+00) 
connections (connected_to_neuron, weight)=(0, 3.63587856292724609375e+00) (1, 9.71003293991088867188e-01) (2, -2.61772799491882324219e+00) (3, 9.01041924953460693359e-01) (0, -1.26156306266784667969e+00) (1, 3.44079041481018066406e+00) (2, 6.26192271709442138672e-01) (3, 4.47284221649169921875e+00) (0, -1.39505136013031005859e+00) (1, -3.00295019149780273438e+00) (2, 9.53691482543945312500e-01) (3, -1.60384917259216308594e+00) (0, -4.78284239768981933594e-01) (1, -2.05673766136169433594e+00) (2, 1.11969399452209472656e+00) (3, -2.00865054130554199219e+00) (0, -8.75853538513183593750e-01) (1, 1.76083111763000488281e+00) (2, -1.56896126270294189453e+00) (3, 7.21697732806205749512e-02) (0, -1.50798454880714416504e-01) (1, 4.50099897384643554688e+00) (2, -1.06117904186248779297e+00) (3, 4.34259939193725585938e+00) (0, 1.56123769283294677734e+00) (1, 5.10027122497558593750e+00) (2, -3.34823608398437500000e+00) (3, -5.03109550476074218750e+00) (0, -1.06278336048126220703e+00) (1, -2.95504063367843627930e-01) (2, 5.71446239948272705078e-01) (3, -2.36009573936462402344e+00) (0, 8.32099080085754394531e-01) (1, 1.28922533988952636719e+00) (2, 1.60682976245880126953e-01) (3, -8.12895417213439941406e-01) (0, 2.54267096519470214844e+00) (1, 8.16221475601196289062e-01) (2, -2.26541304588317871094e+00) (3, -6.02729618549346923828e-01) (4, 3.36928248405456542969e-01) (5, 2.35869437456130981445e-01) (6, -4.55149829387664794922e-01) (7, 3.31613987684249877930e-01) (8, -2.31189680099487304688e+00) (9, -4.10737633705139160156e-01) (10, -2.57496523857116699219e+00) (11, -1.33741188049316406250e+00) (12, -3.02359074354171752930e-01) (13, -1.58252060413360595703e+00) (14, -7.30970799922943115234e-01) (4, -1.98112273216247558594e+00) (5, 3.69164586067199707031e+00) (6, -1.66648781299591064453e+00) (7, -2.68253517150878906250e+00) (8, 1.51913309097290039062e+00) (9, 2.72916817665100097656e+00) (10, 6.16573035717010498047e-01) (11, -4.79698568582534790039e-01) (12, 3.90587300062179565430e-01) (13, -2.48023080825805664062e+00) (14, 7.29803264141082763672e-01) (4, 1.52084231376647949219e+00) (5, -1.12810850143432617188e+00) (6, -5.86610078811645507812e-01) (7, -5.17877757549285888672e-01) (8, 6.76290690898895263672e-01) (9, -1.72125935554504394531e-01) (10, 5.78879594802856445312e+00) (11, 4.01706367731094360352e-01) (12, 2.28603911399841308594e+00) (13, 1.83053445816040039062e+00) (14, -1.09522390365600585938e+00) (4, 4.11219215393066406250e+00) (5, 9.02287587523460388184e-02) (6, -2.36899733543395996094e-01) (7, -2.83540511131286621094e+00) (8, 2.46286615729331970215e-01) (9, 2.38881516456604003906e+00) (10, -2.60045886039733886719e-01) (11, -1.71740388870239257812e+00) (12, -6.26411616802215576172e-01) (13, 2.96017241477966308594e+00) (14, 3.33236885070800781250e+00) (4, 2.08291006088256835938e+00) (5, -6.70056760311126708984e-01) (6, 1.10835611820220947266e+00) (7, 6.68951869010925292969e-02) (8, 1.88152074813842773438e+00) (9, -3.57779788970947265625e+00) (10, 3.99120378494262695312e+00) (11, -1.78065395355224609375e+00) (12, 4.32661056518554687500e-01) (13, 8.68608593940734863281e-01) (14, 1.89943766593933105469e+00) (4, -9.09869611263275146484e-01) (5, -2.22622132301330566406e+00) (6, 1.27853906154632568359e+00) (7, 1.48810052871704101562e+00) (8, -3.08706164360046386719e+00) (9, -1.64198255538940429688e+00) (10, -2.66091316938400268555e-01) (11, 1.41295507550239562988e-01) (12, 1.27013802528381347656e+00) (13, 1.72888934612274169922e-01) (14, 2.09640026092529296875e-01) (4, 1.01955741643905639648e-01) (5, -7.48780310153961181641e-01) (6, 8.34572687745094299316e-02) (7, -6.34282231330871582031e-01) (8, -3.08271944522857666016e-01) (9, -8.95597755908966064453e-01) (10, -4.44908523559570312500e+00) (11, -2.35163003206253051758e-01) (12, -1.90032911300659179688e+00) (13, -1.82584118843078613281e+00) (14, 1.62611126899719238281e+00) (4, 6.20835781097412109375e-01) (5, -5.38810431957244873047e-01) (6, 4.68138515949249267578e-01) (7, 5.54903447628021240234e-01) (8, -1.68883100152015686035e-01) (9, 9.92925986647605895996e-02) (10, -2.24080920219421386719e+00) (11, 4.63985472917556762695e-01) (12, -2.01037979125976562500e+00) (13, -1.19137771427631378174e-01) (14, 1.53495121002197265625e+00) (4, 1.78533315658569335938e+00) (5, 2.10843944549560546875e+00) (6, -3.46750855445861816406e+00) (7, -2.30561900138854980469e+00) (8, -2.72690147161483764648e-01) (9, 1.75473284721374511719e+00) (10, 2.68609851598739624023e-01) (11, -1.09380459785461425781e+00) (12, 2.19268155097961425781e+00) (13, -7.71247923374176025391e-01) (14, 7.05385148525238037109e-01) (4, -1.79555034637451171875e+00) (5, 1.91791152954101562500e+00) (6, -1.44489622116088867188e+00) (7, -3.45509827136993408203e-01) (8, 6.25184059143066406250e-01) (9, 3.35285949707031250000e+00) (10, -4.57061481475830078125e+00) (11, 2.34205555915832519531e+00) (12, -2.30774188041687011719e+00) (13, -1.30356693267822265625e+00) (14, -2.79913401603698730469e+00) (15, -4.27148485183715820312e+00) (16, 1.07073211669921875000e+01) (17, 5.19891119003295898438e+00) (18, -1.09602737426757812500e+01) (19, -8.83596801757812500000e+00) (20, -6.05825757980346679688e+00) (21, -5.58066654205322265625e+00) (22, -5.10357904434204101562e+00) (23, 4.98917007446289062500e+00) (24, 9.69570064544677734375e+00) (25, -9.63158130645751953125e+00) (15, 6.15243053436279296875e+00) (16, -5.89361143112182617188e+00) (17, -8.83417701721191406250e+00) (18, -1.03044166564941406250e+01) (19, -7.73201560974121093750e+00) (20, 7.45624399185180664062e+00) (21, 5.24722909927368164062e+00) (22, 2.02399635314941406250e+00) (23, -1.81141459941864013672e+00) (24, 7.36289405822753906250e+00) (25, -1.04109344482421875000e+01) (15, -4.07854348421096801758e-01) (16, -2.43091797828674316406e+00) (17, -4.94361352920532226562e+00) (18, -3.61886334419250488281e+00) (19, 6.21449425816535949707e-02) (20, 2.66198301315307617188e+00) (21, 4.57261943817138671875e+00) (22, 6.85764551162719726562e+00) (23, -7.87266302108764648438e+00) (24, 4.46728324890136718750e+00) (25, -2.96416735649108886719e+00) 
