FANN_FLO_2.1
num_layers=4
learning_rate=0.100000
connection_rate=1.000000
network_type=0
learning_momentum=0.000000
training_algorithm=1
train_error_function=1
train_stop_function=0
cascade_output_change_fraction=0.010000
quickprop_decay=-0.000100
quickprop_mu=1.750000
rprop_increase_factor=1.200000
rprop_decrease_factor=0.500000
rprop_delta_min=0.000000
rprop_delta_max=50.000000
rprop_delta_zero=0.100000
cascade_output_stagnation_epochs=12
cascade_candidate_change_fraction=0.010000
cascade_candidate_stagnation_epochs=12
cascade_max_out_epochs=150
cascade_min_out_epochs=50
cascade_max_cand_epochs=150
cascade_min_cand_epochs=50
cascade_num_candidate_groups=2
bit_fail_limit=3.49999994039535522461e-01
cascade_candidate_limit=1.00000000000000000000e+03
cascade_weight_multiplier=4.00000005960464477539e-01
cascade_activation_functions_count=10
cascade_activation_functions=3 5 7 8 10 11 14 15 16 17 
cascade_activation_steepnesses_count=4
cascade_activation_steepnesses=2.50000000000000000000e-01 5.00000000000000000000e-01 7.50000000000000000000e-01 1.00000000000000000000e+00 
layer_sizes=4 11 11 4 
scale_included=1
scale_mean_in=0.096127 0.107338 0.001987 
scale_deviation_in=0.000000 0.000000 0.000000 
scale_new_min_in=-0.900000 -0.900000 -0.900000 
scale_factor_in=0.900000 0.900000 0.900000 
scale_mean_out=-0.734504 2.419030 -0.508175 
scale_deviation_out=0.000000 0.000000 0.000000 
scale_new_min_out=-0.900000 -0.900000 -0.900000 
scale_factor_out=0.900000 0.900000 0.900000 
neurons (num_inputs, activation_function, activation_steepness)=(0, 0, 0.00000000000000000000e+00) (0, 0, 0.00000000000000000000e+00) (0, 0, 0.00000000000000000000e+00) (0, 0, 0.00000000000000000000e+00) (4, 5, 5.00000000000000000000e-01) (4, 5, 5.00000000000000000000e-01) (4, 5, 5.00000000000000000000e-01) (4, 5, 5.00000000000000000000e-01) (4, 5, 5.00000000000000000000e-01) (4, 5, 5.00000000000000000000e-01) (4, 5, 5.00000000000000000000e-01) (4, 5, 5.00000000000000000000e-01) (4, 5, 5.00000000000000000000e-01) (4, 5, 5.00000000000000000000e-01) (0, 5, 0.00000000000000000000e+00) (11, 5, 5.00000000000000000000e-01) (11, 5, 5.00000000000000000000e-01) (11, 5, 5.00000000000000000000e-01) (11, 5, 5.00000000000000000000e-01) (11, 5, 5.00000000000000000000e-01) (11, 5, 5.00000000000000000000e-01) (11, 5, 5.00000000000000000000e-01) (11, 5, 5.00000000000000000000e-01) (11, 5, 5.00000000000000000000e-01) (11, 5, 5.00000000000000000000e-01) (0, 5, 0.00000000000000000000e+00) (11, 5, 5.00000000000000000000e-01) (11, 5, 5.00000000000000000000e-01) (11, 5, 5.00000000000000000000e-01) (0, 5, 0.00000000000000000000e+00) 
connections (connected_to_neuron, weight)=(0, -6.61374270915985107422e-01) (1, 9.18292760848999023438e-01) (2, 5.79310357570648193359e-01) (3, 4.96669381856918334961e-01) (0, -1.12110897898674011230e-02) (1, 6.42899155616760253906e-01) (2, 7.97328203916549682617e-02) (3, 8.73450160026550292969e-01) (0, 4.41609412431716918945e-01) (1, 5.10191202163696289062e-01) (2, -4.21313941478729248047e-01) (3, 4.70048964023590087891e-01) (0, 8.11696767807006835938e-01) (1, -6.98190212249755859375e-01) (2, -7.20766544342041015625e-01) (3, 8.52430343627929687500e-01) (0, -1.08260977268218994141e+00) (1, 1.49608865380287170410e-01) (2, 9.84339177608489990234e-01) (3, -3.20636749267578125000e-01) (0, 1.89322292804718017578e-01) (1, -4.38720196485519409180e-01) (2, -3.63071888685226440430e-01) (3, 1.04951584339141845703e+00) (0, -5.38728415966033935547e-01) (1, -1.29698634147644042969e-01) (2, -7.18407154083251953125e-01) (3, 6.83044970035552978516e-01) (0, -2.84650444984436035156e-01) (1, -2.86952137947082519531e-01) (2, 6.55088499188423156738e-02) (3, -1.74542531371116638184e-01) (0, -6.28589391708374023438e-01) (1, -3.22916418313980102539e-01) (2, 9.96821105480194091797e-01) (3, 3.44392329454421997070e-01) (0, -5.28135538101196289062e-01) (1, 2.80694752931594848633e-01) (2, 1.60099223256111145020e-01) (3, 1.08936309814453125000e+00) (4, -2.15331137180328369141e-01) (5, 8.66689622402191162109e-01) (6, 6.40726625919342041016e-01) (7, -2.34260991215705871582e-01) (8, -9.36957716941833496094e-01) (9, 8.38459968566894531250e-01) (10, -3.95914644002914428711e-01) (11, -8.01027297973632812500e-01) (12, 9.77094843983650207520e-02) (13, -3.26210290193557739258e-01) (14, 4.20459151268005371094e-01) (4, -9.21008408069610595703e-01) (5, -2.21505850553512573242e-01) (6, 6.12390637397766113281e-01) (7, 8.20783078670501708984e-01) (8, 3.80098819732666015625e-01) (9, -5.95964252948760986328e-01) (10, -6.78365468978881835938e-01) (11, -1.75393283367156982422e-01) (12, 2.42251321673393249512e-01) (13, -1.64085209369659423828e-01) (14, 3.92215102910995483398e-01) (4, 9.73254263401031494141e-01) (5, 4.27624762058258056641e-01) (6, -4.40100908279418945312e-01) (7, 1.04181122779846191406e+00) (8, -5.22667706012725830078e-01) (9, -2.67874568700790405273e-01) (10, -3.84424701333045959473e-02) (11, 6.40035510063171386719e-01) (12, -5.37889957427978515625e-01) (13, 8.03203761577606201172e-01) (14, 7.39285886287689208984e-01) (4, -9.76732194423675537109e-01) (5, -6.60253465175628662109e-01) (6, 5.68400204181671142578e-01) (7, 7.63297915458679199219e-01) (8, 4.00964170694351196289e-02) (9, 8.98883104324340820312e-01) (10, -1.75357460975646972656e-02) (11, 6.68313384056091308594e-01) (12, 1.37202456593513488770e-01) (13, 1.02480769157409667969e-01) (14, -4.58289057016372680664e-01) (4, -1.03012531995773315430e-01) (5, -6.33751004934310913086e-02) (6, 6.72604024410247802734e-01) (7, 3.06248068809509277344e-01) (8, 5.05636036396026611328e-01) (9, -5.26755392551422119141e-01) (10, -3.51512938737869262695e-01) (11, -5.56897103786468505859e-01) (12, -6.29403591156005859375e-01) (13, -5.51704406738281250000e-01) (14, 3.03623050451278686523e-01) (4, -2.88921236991882324219e-01) (5, -5.04775106906890869141e-01) (6, -7.58986890316009521484e-01) (7, 4.02416557073593139648e-01) (8, 3.96290779113769531250e-01) (9, 9.43896412849426269531e-01) (10, 8.66720736026763916016e-01) (11, 1.23402386903762817383e-01) (12, 3.78996491432189941406e-01) (13, 9.31039094924926757812e-01) (14, 6.41580104827880859375e-01) (4, -1.37263089418411254883e-02) (5, 5.68829178810119628906e-01) (6, -5.96921205520629882812e-01) (7, -1.90249159932136535645e-01) (8, -2.33843669295310974121e-01) (9, -8.56655299663543701172e-01) (10, -9.07179594039916992188e-01) (11, 8.89778017997741699219e-01) (12, -1.12564653158187866211e-01) (13, -5.07574863731861114502e-02) (14, -3.47613185644149780273e-01) (4, -3.10616672039031982422e-01) (5, -5.33876419067382812500e-01) (6, -7.02697932720184326172e-01) (7, 2.39047288894653320312e-01) (8, 7.17431455850601196289e-02) (9, -3.78057777881622314453e-01) (10, 5.34791648387908935547e-01) (11, 5.98418533802032470703e-01) (12, -7.80270993709564208984e-01) (13, -7.69746661186218261719e-01) (14, -9.53745722770690917969e-01) (4, -5.53022861480712890625e-01) (5, 6.82169795036315917969e-01) (6, 5.72540402412414550781e-01) (7, -5.99552154541015625000e-01) (8, 3.91766548156738281250e-01) (9, -3.15741926431655883789e-01) (10, 7.15224206447601318359e-01) (11, 3.10502916574478149414e-01) (12, -8.55306565761566162109e-01) (13, -1.93461611866950988770e-01) (14, 2.53885626792907714844e-01) (4, -3.00901859998703002930e-01) (5, 5.32003521919250488281e-01) (6, 5.93484044075012207031e-01) (7, -1.84257224202156066895e-01) (8, 8.43240261077880859375e-01) (9, 4.90464717149734497070e-01) (10, 8.11512112617492675781e-01) (11, -1.43411889672279357910e-01) (12, -4.75829094648361206055e-01) (13, -6.05611920356750488281e-01) (14, -5.11868074536323547363e-02) (15, -4.62782323360443115234e-01) (16, 5.21214365959167480469e-01) (17, -8.73247027397155761719e-01) (18, 4.15924400091171264648e-01) (19, 5.48359230160713195801e-02) (20, 9.10764157772064208984e-01) (21, 6.63339972496032714844e-01) (22, 7.14070320129394531250e-01) (23, 9.29116368293762207031e-01) (24, 8.97801995277404785156e-01) (25, -2.71479070186614990234e-01) (15, 7.85686790943145751953e-01) (16, -3.72027367353439331055e-01) (17, -1.94659203290939331055e-01) (18, -1.04872691631317138672e+00) (19, -6.44608855247497558594e-01) (20, 8.55771481990814208984e-01) (21, -9.15370702743530273438e-01) (22, -6.46905303001403808594e-01) (23, -2.73367129266262054443e-02) (24, 1.31788685917854309082e-01) (25, 4.99657168984413146973e-02) (15, -8.24256479740142822266e-01) (16, 5.55308640003204345703e-01) (17, -1.23764634132385253906e+00) (18, -5.56735873222351074219e-01) (19, 3.10414075851440429688e-01) (20, -3.34015861153602600098e-02) (21, -1.46567076444625854492e-03) (22, -2.09270104765892028809e-01) (23, -8.14565539360046386719e-01) (24, 3.19707691669464111328e-01) (25, 4.67300042510032653809e-02) 
