FANN_FLO_2.1
num_layers=4
learning_rate=0.100000
connection_rate=1.000000
network_type=0
learning_momentum=0.000000
training_algorithm=1
train_error_function=1
train_stop_function=0
cascade_output_change_fraction=0.010000
quickprop_decay=-0.000100
quickprop_mu=1.750000
rprop_increase_factor=1.200000
rprop_decrease_factor=0.500000
rprop_delta_min=0.000000
rprop_delta_max=50.000000
rprop_delta_zero=0.100000
cascade_output_stagnation_epochs=12
cascade_candidate_change_fraction=0.010000
cascade_candidate_stagnation_epochs=12
cascade_max_out_epochs=150
cascade_min_out_epochs=50
cascade_max_cand_epochs=150
cascade_min_cand_epochs=50
cascade_num_candidate_groups=2
bit_fail_limit=3.49999994039535522461e-01
cascade_candidate_limit=1.00000000000000000000e+03
cascade_weight_multiplier=4.00000005960464477539e-01
cascade_activation_functions_count=10
cascade_activation_functions=3 5 7 8 10 11 14 15 16 17 
cascade_activation_steepnesses_count=4
cascade_activation_steepnesses=2.50000000000000000000e-01 5.00000000000000000000e-01 7.50000000000000000000e-01 1.00000000000000000000e+00 
layer_sizes=4 11 11 4 
scale_included=1
scale_mean_in=0.078733 0.068913 0.157503 
scale_deviation_in=0.013403 0.015780 0.007543 
scale_new_min_in=-0.900000 -0.900000 -0.900000 
scale_factor_in=0.900000 0.900000 0.900000 
scale_mean_out=-0.854381 1.937277 -2.674769 
scale_deviation_out=0.100117 0.189131 0.299238 
scale_new_min_out=-0.900000 -0.900000 -0.900000 
scale_factor_out=0.900000 0.900000 0.900000 
neurons (num_inputs, activation_function, activation_steepness)=(0, 0, 0.00000000000000000000e+00) (0, 0, 0.00000000000000000000e+00) (0, 0, 0.00000000000000000000e+00) (0, 0, 0.00000000000000000000e+00) (4, 5, 5.00000000000000000000e-01) (4, 5, 5.00000000000000000000e-01) (4, 5, 5.00000000000000000000e-01) (4, 5, 5.00000000000000000000e-01) (4, 5, 5.00000000000000000000e-01) (4, 5, 5.00000000000000000000e-01) (4, 5, 5.00000000000000000000e-01) (4, 5, 5.00000000000000000000e-01) (4, 5, 5.00000000000000000000e-01) (4, 5, 5.00000000000000000000e-01) (0, 5, 0.00000000000000000000e+00) (11, 5, 5.00000000000000000000e-01) (11, 5, 5.00000000000000000000e-01) (11, 5, 5.00000000000000000000e-01) (11, 5, 5.00000000000000000000e-01) (11, 5, 5.00000000000000000000e-01) (11, 5, 5.00000000000000000000e-01) (11, 5, 5.00000000000000000000e-01) (11, 5, 5.00000000000000000000e-01) (11, 5, 5.00000000000000000000e-01) (11, 5, 5.00000000000000000000e-01) (0, 5, 0.00000000000000000000e+00) (11, 5, 5.00000000000000000000e-01) (11, 5, 5.00000000000000000000e-01) (11, 5, 5.00000000000000000000e-01) (0, 5, 0.00000000000000000000e+00) 
connections (connected_to_neuron, weight)=(0, -5.39095735549926757812e+00) (1, -6.07910156250000000000e+00) (2, -6.84342432022094726562e+00) (3, -2.35196903347969055176e-01) (0, 2.57471871376037597656e+00) (1, 1.37203419208526611328e+00) (2, 1.24709963798522949219e+00) (3, -4.61055785417556762695e-01) (0, 8.15349936485290527344e-01) (1, 1.03646039962768554688e+00) (2, -1.47224736213684082031e+00) (3, -4.03350877761840820312e+00) (0, 5.53084433078765869141e-01) (1, 1.15229320526123046875e+00) (2, 5.00038683414459228516e-01) (3, 2.89786934852600097656e-01) (0, 9.14382934570312500000e-01) (1, -1.86807930469512939453e-01) (2, -2.12090834975242614746e-01) (3, 1.86579084396362304688e+00) (0, 1.53599262237548828125e+00) (1, -9.90333318710327148438e-01) (2, -1.11010122299194335938e+00) (3, -1.98400568962097167969e+00) (0, 1.64571309089660644531e+00) (1, 8.70130538940429687500e-01) (2, 4.71270084381103515625e+00) (3, -5.34892559051513671875e-01) (0, 2.66474843025207519531e+00) (1, -2.63429617881774902344e+00) (2, 1.57868385314941406250e-01) (3, -3.45811009407043457031e+00) (0, -1.35128057003021240234e+00) (1, -1.95653247833251953125e+00) (2, -1.03371608257293701172e+00) (3, 2.60904502868652343750e+00) (0, -8.68312835693359375000e-01) (1, 3.28875041007995605469e+00) (2, 1.09302751719951629639e-01) (3, -1.61463904380798339844e+00) (4, 7.39399015903472900391e-01) (5, -6.22446179389953613281e-01) (6, 1.09927153587341308594e+00) (7, 7.70936787128448486328e-01) (8, -1.52743542194366455078e+00) (9, -1.17115769535303115845e-03) (10, 8.95972967147827148438e-01) (11, -6.81684553623199462891e-01) (12, -8.17005485296249389648e-02) (13, 1.88503575325012207031e+00) (14, -1.11029255390167236328e+00) (4, -3.32767415046691894531e+00) (5, 1.07010960578918457031e+00) (6, -3.17218136787414550781e+00) (7, 5.89668214321136474609e-01) (8, 8.23614120483398437500e-01) (9, -5.51891028881072998047e-01) (10, -5.51310777664184570312e-01) (11, 8.35160017013549804688e-01) (12, -8.51721346378326416016e-01) (13, -6.10676556825637817383e-02) (14, 5.02215921878814697266e-01) (4, -8.47184479236602783203e-01) (5, 3.00327479839324951172e-01) (6, 1.34191250801086425781e+00) (7, 1.39555156230926513672e+00) (8, -1.96373790502548217773e-01) (9, -2.93323725461959838867e-01) (10, 3.44770461320877075195e-01) (11, -3.61075139045715332031e+00) (12, -4.09512460231781005859e-01) (13, 1.37196645140647888184e-01) (14, 1.01386463642120361328e+00) (4, 3.02925765514373779297e-01) (5, -6.79150998592376708984e-01) (6, 3.20035517215728759766e-02) (7, -1.19529330730438232422e+00) (8, -2.03828811645507812500e-01) (9, 8.80473032593727111816e-02) (10, 7.31938242912292480469e-01) (11, 8.77879381179809570312e-01) (12, 8.74419987201690673828e-01) (13, -8.24527516961097717285e-02) (14, 1.21126487851142883301e-01) (4, 6.23492622375488281250e+00) (5, -3.22316908836364746094e+00) (6, -7.05764949321746826172e-01) (7, -1.42715013027191162109e+00) (8, -1.00426054000854492188e+00) (9, -2.53571569919586181641e-01) (10, -3.75038695335388183594e+00) (11, -1.76519489288330078125e+00) (12, 8.76816928386688232422e-01) (13, -1.74890995025634765625e+00) (14, -1.47644743323326110840e-01) (4, 5.39731836318969726562e+00) (5, -1.00533449649810791016e+00) (6, 3.66387404501438140869e-02) (7, 7.12446153163909912109e-01) (8, 1.02892863750457763672e+00) (9, -9.97499376535415649414e-03) (10, -3.71987462043762207031e+00) (11, -1.22325992584228515625e+00) (12, -2.60603356361389160156e+00) (13, -1.12467396259307861328e+00) (14, -1.88316655158996582031e+00) (4, -4.33390092849731445312e+00) (5, 1.45717358589172363281e+00) (6, 1.20875370502471923828e+00) (7, 1.03634202480316162109e+00) (8, 2.69380545616149902344e+00) (9, 2.35712337493896484375e+00) (10, 3.26125526428222656250e+00) (11, 2.48118713498115539551e-01) (12, -1.87538933753967285156e+00) (13, 1.83250272274017333984e+00) (14, 2.15340209007263183594e+00) (4, 6.93401470780372619629e-02) (5, 1.05119085311889648438e+00) (6, 2.42946967482566833496e-01) (7, -8.01407992839813232422e-02) (8, 7.01740860939025878906e-01) (9, 1.26826691627502441406e+00) (10, -1.37556821107864379883e-01) (11, 1.98540300130844116211e-01) (12, 1.20740735530853271484e+00) (13, -2.14855208992958068848e-01) (14, 5.55953919887542724609e-01) (4, -1.91356375813484191895e-01) (5, -7.88001060485839843750e-01) (6, 5.12791574001312255859e-01) (7, -5.84977328777313232422e-01) (8, -1.62455093860626220703e+00) (9, -1.90195113420486450195e-01) (10, -1.80491179227828979492e-01) (11, -1.63039147853851318359e-01) (12, 6.34019672870635986328e-01) (13, 9.96146380901336669922e-01) (14, -1.21579086780548095703e+00) (4, -1.71752429008483886719e+00) (5, -7.85960018634796142578e-01) (6, -8.05508136749267578125e-01) (7, 1.34308779239654541016e+00) (8, -1.04936766624450683594e+00) (9, -1.66537606716156005859e+00) (10, -1.59158408641815185547e+00) (11, -2.41320013999938964844e+00) (12, -3.92308980226516723633e-01) (13, -4.29234713315963745117e-01) (14, -4.56902265548706054688e-01) (15, 3.87720394134521484375e+00) (16, -1.23902726173400878906e+00) (17, 4.69090604782104492188e+00) (18, -1.65913414955139160156e+00) (19, 2.46161952614784240723e-01) (20, 1.93822115659713745117e-01) (21, 1.06723807752132415771e-01) (22, -2.33499121665954589844e+00) (23, 2.86955571174621582031e+00) (24, 4.93318271636962890625e+00) (25, -1.12972235679626464844e+00) (15, -4.45097506046295166016e-01) (16, -4.46209430694580078125e+00) (17, 1.20375871658325195312e+00) (18, 1.07178473472595214844e+00) (19, 3.82173013687133789062e+00) (20, -4.05286407470703125000e+00) (21, 4.86943721771240234375e+00) (22, -2.06407949328422546387e-01) (23, 8.73123228549957275391e-01) (24, -8.68006408214569091797e-01) (25, 2.07467600703239440918e-01) (15, 1.51079559326171875000e+00) (16, -3.90455079078674316406e+00) (17, 2.31435680389404296875e+00) (18, -1.26453816890716552734e-01) (19, 3.71922612190246582031e+00) (20, -4.11525630950927734375e+00) (21, 4.63473558425903320312e+00) (22, 4.46199715137481689453e-01) (23, -1.44485905766487121582e-02) (24, -2.33501815795898437500e+00) (25, 6.85095429420471191406e-01) 
