FANN_FLO_2.1
num_layers=4
learning_rate=0.100000
connection_rate=1.000000
network_type=0
learning_momentum=0.000000
training_algorithm=1
train_error_function=1
train_stop_function=0
cascade_output_change_fraction=0.010000
quickprop_decay=-0.000100
quickprop_mu=1.750000
rprop_increase_factor=1.200000
rprop_decrease_factor=0.500000
rprop_delta_min=0.000000
rprop_delta_max=50.000000
rprop_delta_zero=0.100000
cascade_output_stagnation_epochs=12
cascade_candidate_change_fraction=0.010000
cascade_candidate_stagnation_epochs=12
cascade_max_out_epochs=150
cascade_min_out_epochs=50
cascade_max_cand_epochs=150
cascade_min_cand_epochs=50
cascade_num_candidate_groups=2
bit_fail_limit=3.49999994039535522461e-01
cascade_candidate_limit=1.00000000000000000000e+03
cascade_weight_multiplier=4.00000005960464477539e-01
cascade_activation_functions_count=10
cascade_activation_functions=3 5 7 8 10 11 14 15 16 17 
cascade_activation_steepnesses_count=4
cascade_activation_steepnesses=2.50000000000000000000e-01 5.00000000000000000000e-01 7.50000000000000000000e-01 1.00000000000000000000e+00 
layer_sizes=4 11 11 4 
scale_included=1
scale_mean_in=0.158370 0.019225 0.001836 
scale_deviation_in=0.003995 0.018067 0.009441 
scale_new_min_in=-0.900000 -0.900000 -0.900000 
scale_factor_in=0.900000 0.900000 0.900000 
scale_mean_out=-1.450692 2.172702 -0.759603 
scale_deviation_out=0.112899 0.045466 0.080036 
scale_new_min_out=-0.900000 -0.900000 -0.900000 
scale_factor_out=0.900000 0.900000 0.900000 
neurons (num_inputs, activation_function, activation_steepness)=(0, 0, 0.00000000000000000000e+00) (0, 0, 0.00000000000000000000e+00) (0, 0, 0.00000000000000000000e+00) (0, 0, 0.00000000000000000000e+00) (4, 5, 5.00000000000000000000e-01) (4, 5, 5.00000000000000000000e-01) (4, 5, 5.00000000000000000000e-01) (4, 5, 5.00000000000000000000e-01) (4, 5, 5.00000000000000000000e-01) (4, 5, 5.00000000000000000000e-01) (4, 5, 5.00000000000000000000e-01) (4, 5, 5.00000000000000000000e-01) (4, 5, 5.00000000000000000000e-01) (4, 5, 5.00000000000000000000e-01) (0, 5, 0.00000000000000000000e+00) (11, 5, 5.00000000000000000000e-01) (11, 5, 5.00000000000000000000e-01) (11, 5, 5.00000000000000000000e-01) (11, 5, 5.00000000000000000000e-01) (11, 5, 5.00000000000000000000e-01) (11, 5, 5.00000000000000000000e-01) (11, 5, 5.00000000000000000000e-01) (11, 5, 5.00000000000000000000e-01) (11, 5, 5.00000000000000000000e-01) (11, 5, 5.00000000000000000000e-01) (0, 5, 0.00000000000000000000e+00) (11, 5, 5.00000000000000000000e-01) (11, 5, 5.00000000000000000000e-01) (11, 5, 5.00000000000000000000e-01) (0, 5, 0.00000000000000000000e+00) 
connections (connected_to_neuron, weight)=(0, 3.08532667160034179688e+00) (1, 2.98261404037475585938e+00) (2, -2.71652370691299438477e-01) (3, 2.89476251602172851562e+00) (0, -7.90470123291015625000e-01) (1, 2.64216035604476928711e-01) (2, 2.08006906509399414062e+00) (3, -2.63436031341552734375e+00) (0, -1.18583559989929199219e-01) (1, -1.08788296580314636230e-01) (2, 4.05470877885818481445e-01) (3, -1.73098468780517578125e+00) (0, 1.07656764984130859375e+00) (1, 4.25114929676055908203e-01) (2, 1.94846165180206298828e+00) (3, -2.48151361942291259766e-01) (0, -1.10332870483398437500e+00) (1, -7.45028197765350341797e-01) (2, -9.97100174427032470703e-02) (3, -1.81944477558135986328e+00) (0, 5.46020078659057617188e+00) (1, 2.74889731407165527344e+00) (2, -5.95497179031372070312e+00) (3, -5.23125553131103515625e+00) (0, 5.83120048046112060547e-01) (1, -2.58928370475769042969e+00) (2, 1.71680843830108642578e+00) (3, -1.80025327205657958984e+00) (0, 2.59448826313018798828e-01) (1, -2.19381332397460937500e+00) (2, -1.02149951457977294922e+00) (3, 1.77933907508850097656e+00) (0, 2.22163319587707519531e+00) (1, 1.46332931518554687500e+00) (2, 8.18518340587615966797e-01) (3, -3.16616964340209960938e+00) (0, -9.02397155761718750000e-01) (1, 1.55281102657318115234e+00) (2, -1.19314515590667724609e+00) (3, -7.08922207355499267578e-01) (4, 1.17773503065109252930e-01) (5, -1.46549594402313232422e+00) (6, 1.30259668827056884766e+00) (7, 2.28038692474365234375e+00) (8, 2.06836080551147460938e+00) (9, -2.99113249778747558594e+00) (10, -1.13507497310638427734e+00) (11, 1.79248023033142089844e+00) (12, -2.33688664436340332031e+00) (13, 9.92014110088348388672e-01) (14, -1.64128100872039794922e+00) (4, 3.71389675140380859375e+00) (5, 1.33378664031624794006e-02) (6, -4.59820330142974853516e-01) (7, -2.05305790901184082031e+00) (8, -2.46378779411315917969e+00) (9, 1.08183145523071289062e+00) (10, 2.47986483573913574219e+00) (11, 4.04319137334823608398e-01) (12, 1.79698854684829711914e-01) (13, -1.65636563301086425781e+00) (14, 1.64934384822845458984e+00) (4, 1.93846988677978515625e+00) (5, 6.97537124156951904297e-01) (6, 4.60511535406112670898e-01) (7, 1.08886158466339111328e+00) (8, 5.74154436588287353516e-01) (9, -4.21851444244384765625e+00) (10, -2.39534425735473632812e+00) (11, -3.37363958358764648438e-01) (12, -2.99204260110855102539e-01) (13, -5.16282439231872558594e-01) (14, -1.79822659492492675781e+00) (4, 1.70542716979980468750e+00) (5, 2.24390721321105957031e+00) (6, 4.32020723819732666016e-01) (7, 7.31115877628326416016e-01) (8, 2.83764213323593139648e-01) (9, -6.05982446670532226562e+00) (10, -1.18054497241973876953e+00) (11, -1.15692651271820068359e+00) (12, -3.69280070066452026367e-01) (13, -9.22366380691528320312e-01) (14, 1.57514706254005432129e-01) (4, -2.97686529159545898438e+00) (5, -1.98096513748168945312e+00) (6, -1.90081048011779785156e+00) (7, 9.13567662239074707031e-01) (8, 4.76617217063903808594e-01) (9, 4.36671304702758789062e+00) (10, -2.48948723077774047852e-01) (11, -3.70692402124404907227e-01) (12, 3.27903658151626586914e-01) (13, 2.09309387207031250000e+00) (14, 8.90509188175201416016e-01) (4, -7.00074493885040283203e-01) (5, -1.97350633144378662109e+00) (6, -1.53399932384490966797e+00) (7, -1.59365975856781005859e+00) (8, 8.89583110809326171875e-01) (9, -7.16385781764984130859e-01) (10, -9.86741542816162109375e-01) (11, 2.51452469825744628906e+00) (12, -4.03782415390014648438e+00) (13, 1.08389079570770263672e+00) (14, 5.66737711429595947266e-01) (4, -1.77606952190399169922e+00) (5, 3.35961878299713134766e-02) (6, 1.14096295833587646484e+00) (7, -7.51840054988861083984e-01) (8, 1.11290705204010009766e+00) (9, -1.29362523555755615234e+00) (10, 1.42320573329925537109e+00) (11, 1.66819965839385986328e+00) (12, -3.86649459600448608398e-01) (13, 1.22524082660675048828e+00) (14, -2.50520467758178710938e+00) (4, -8.16629469394683837891e-01) (5, -9.64165329933166503906e-01) (6, -4.41902101039886474609e-01) (7, -8.02578628063201904297e-02) (8, -1.28438997268676757812e+00) (9, -1.86239272356033325195e-01) (10, 7.96785533428192138672e-01) (11, 1.35834586620330810547e+00) (12, 1.93222373723983764648e-01) (13, -1.71469676494598388672e+00) (14, 2.14327192306518554688e+00) (4, -1.71565341949462890625e+00) (5, 1.57943069934844970703e+00) (6, 6.86325013637542724609e-01) (7, -1.22208082675933837891e+00) (8, 1.08473308384418487549e-01) (9, -2.19351458549499511719e+00) (10, 1.74749982357025146484e+00) (11, -1.85052192211151123047e+00) (12, 1.39681744575500488281e+00) (13, -1.82491302490234375000e+00) (14, -9.28868293762207031250e-01) (4, 1.57045400142669677734e+00) (5, 1.14623987674713134766e+00) (6, -6.52548432350158691406e-01) (7, -8.95830392837524414062e-01) (8, -3.55810940265655517578e-01) (9, 2.66222405433654785156e+00) (10, 6.60636246204376220703e-01) (11, -1.54314053058624267578e+00) (12, 2.14777326583862304688e+00) (13, 1.14439117908477783203e+00) (14, 1.38701868057250976562e+00) (15, -2.55697250366210937500e-01) (16, -1.69721865653991699219e+00) (17, 4.83294153213500976562e+00) (18, 7.33855426311492919922e-01) (19, 2.14271092414855957031e+00) (20, -3.65739971399307250977e-01) (21, -3.15356826782226562500e+00) (22, -3.82701206207275390625e+00) (23, -2.94728970527648925781e+00) (24, 3.71438694000244140625e+00) (25, 1.89150452613830566406e-01) (15, 5.48286533355712890625e+00) (16, -6.20067977905273437500e+00) (17, 7.69179296493530273438e+00) (18, 1.07283630371093750000e+01) (19, -9.92923069000244140625e+00) (20, -3.48745369911193847656e+00) (21, 7.96669006347656250000e+00) (22, -4.84058618545532226562e+00) (23, 6.91841793060302734375e+00) (24, -5.57272958755493164062e+00) (25, -7.77670049667358398438e+00) (15, 8.07586288452148437500e+00) (16, -8.49875831604003906250e+00) (17, -2.05070114135742187500e+00) (18, -3.41331601142883300781e+00) (19, 6.10752058029174804688e+00) (20, 9.38370037078857421875e+00) (21, 4.61448717117309570312e+00) (22, -3.01193594932556152344e+00) (23, -9.18534278869628906250e+00) (24, -5.19120883941650390625e+00) (25, -3.61139130592346191406e+00) 
