FANN_FLO_2.1
num_layers=4
learning_rate=0.100000
connection_rate=1.000000
network_type=0
learning_momentum=0.000000
training_algorithm=1
train_error_function=1
train_stop_function=0
cascade_output_change_fraction=0.010000
quickprop_decay=-0.000100
quickprop_mu=1.750000
rprop_increase_factor=1.200000
rprop_decrease_factor=0.500000
rprop_delta_min=0.000000
rprop_delta_max=50.000000
rprop_delta_zero=0.100000
cascade_output_stagnation_epochs=12
cascade_candidate_change_fraction=0.010000
cascade_candidate_stagnation_epochs=12
cascade_max_out_epochs=150
cascade_min_out_epochs=50
cascade_max_cand_epochs=150
cascade_min_cand_epochs=50
cascade_num_candidate_groups=2
bit_fail_limit=3.49999994039535522461e-01
cascade_candidate_limit=1.00000000000000000000e+03
cascade_weight_multiplier=4.00000005960464477539e-01
cascade_activation_functions_count=10
cascade_activation_functions=3 5 7 8 10 11 14 15 16 17 
cascade_activation_steepnesses_count=4
cascade_activation_steepnesses=2.50000000000000000000e-01 5.00000000000000000000e-01 7.50000000000000000000e-01 1.00000000000000000000e+00 
layer_sizes=4 11 11 4 
scale_included=1
scale_mean_in=0.162595 0.041171 0.070218 
scale_deviation_in=0.000824 0.003360 0.008929 
scale_new_min_in=-0.900000 -0.900000 -0.900000 
scale_factor_in=0.900000 0.900000 0.900000 
scale_mean_out=-1.323272 2.210027 -1.306383 
scale_deviation_out=0.019955 0.000021 0.075269 
scale_new_min_out=-0.900000 -0.900000 -0.900000 
scale_factor_out=0.900000 0.900000 0.900000 
neurons (num_inputs, activation_function, activation_steepness)=(0, 0, 0.00000000000000000000e+00) (0, 0, 0.00000000000000000000e+00) (0, 0, 0.00000000000000000000e+00) (0, 0, 0.00000000000000000000e+00) (4, 5, 5.00000000000000000000e-01) (4, 5, 5.00000000000000000000e-01) (4, 5, 5.00000000000000000000e-01) (4, 5, 5.00000000000000000000e-01) (4, 5, 5.00000000000000000000e-01) (4, 5, 5.00000000000000000000e-01) (4, 5, 5.00000000000000000000e-01) (4, 5, 5.00000000000000000000e-01) (4, 5, 5.00000000000000000000e-01) (4, 5, 5.00000000000000000000e-01) (0, 5, 0.00000000000000000000e+00) (11, 5, 5.00000000000000000000e-01) (11, 5, 5.00000000000000000000e-01) (11, 5, 5.00000000000000000000e-01) (11, 5, 5.00000000000000000000e-01) (11, 5, 5.00000000000000000000e-01) (11, 5, 5.00000000000000000000e-01) (11, 5, 5.00000000000000000000e-01) (11, 5, 5.00000000000000000000e-01) (11, 5, 5.00000000000000000000e-01) (11, 5, 5.00000000000000000000e-01) (0, 5, 0.00000000000000000000e+00) (11, 5, 5.00000000000000000000e-01) (11, 5, 5.00000000000000000000e-01) (11, 5, 5.00000000000000000000e-01) (0, 5, 0.00000000000000000000e+00) 
connections (connected_to_neuron, weight)=(0, 1.38324046134948730469e+00) (1, 2.07153582572937011719e+00) (2, 4.62739658355712890625e+00) (3, 5.39733314514160156250e+00) (0, -5.66249799728393554688e+00) (1, -3.29914188385009765625e+00) (2, -1.93687826395034790039e-01) (3, -1.49447870254516601562e+00) (0, 1.02471613883972167969e+00) (1, 6.85824215412139892578e-01) (2, 3.93953418731689453125e+00) (3, 3.86520409584045410156e+00) (0, 9.72618639469146728516e-01) (1, -4.92154359817504882812e+00) (2, 1.38970625400543212891e+00) (3, -7.87775468826293945312e+00) (0, 6.23081541061401367188e+00) (1, 7.35142469406127929688e-01) (2, 8.20400238037109375000e+00) (3, -2.20376920700073242188e+00) (0, 1.32080364227294921875e+00) (1, 1.00094139575958251953e+00) (2, -6.43505811691284179688e+00) (3, -2.80947446823120117188e+00) (0, -4.56013345718383789062e+00) (1, -6.88390588760375976562e+00) (2, -1.52239141464233398438e+01) (3, 4.84734582901000976562e+00) (0, -5.36944210529327392578e-01) (1, -6.14238071441650390625e+00) (2, -7.45072269439697265625e+00) (3, 9.97502148151397705078e-01) (0, -1.76512658596038818359e+00) (1, -6.58930969238281250000e+00) (2, -5.40048742294311523438e+00) (3, -2.08083856850862503052e-02) (0, -4.52181386947631835938e+00) (1, -8.74048137664794921875e+00) (2, -1.65632247924804687500e+00) (3, -9.42447185516357421875e-01) (4, -2.44307994842529296875e+00) (5, 5.15820789337158203125e+00) (6, -2.03607106208801269531e+00) (7, 1.25134963989257812500e+01) (8, 2.38976883888244628906e+00) (9, 1.10108816623687744141e+00) (10, 4.99331569671630859375e+00) (11, 2.80532765388488769531e+00) (12, 6.48459291458129882812e+00) (13, 8.28226757049560546875e+00) (14, -8.71606254577636718750e+00) (4, -4.26513862609863281250e+00) (5, -3.79764246940612792969e+00) (6, -3.67529749870300292969e+00) (7, -4.56395006179809570312e+00) (8, 3.50577473640441894531e+00) (9, 4.97213274240493774414e-01) (10, -9.22526550292968750000e+00) (11, -1.95271953940391540527e-01) (12, 1.78688514232635498047e+00) (13, -4.47676086425781250000e+00) (14, 4.14360380172729492188e+00) (4, -9.04214382171630859375e+00) (5, 2.09125137329101562500e+00) (6, -7.56571292877197265625e+00) (7, 2.02855348587036132812e+00) (8, -4.19632244110107421875e+00) (9, 7.03495931625366210938e+00) (10, 4.43422698974609375000e+00) (11, 4.29940319061279296875e+00) (12, 5.13712644577026367188e+00) (13, 1.04150605201721191406e+00) (14, -3.24138069152832031250e+00) (4, 9.05953502655029296875e+00) (5, -4.55666303634643554688e+00) (6, 7.54955625534057617188e+00) (7, -7.21878623962402343750e+00) (8, 1.84672319889068603516e+00) (9, -7.92097806930541992188e+00) (10, -1.02132549285888671875e+01) (11, -1.16209640502929687500e+01) (12, -1.32664241790771484375e+01) (13, -4.59211111068725585938e+00) (14, 1.35055565834045410156e+00) (4, 3.07942271232604980469e+00) (5, 5.58110427856445312500e+00) (6, 2.13823604583740234375e+00) (7, 3.02025341987609863281e+00) (8, -6.47990131378173828125e+00) (9, 1.07346463203430175781e+00) (10, 1.04857530593872070312e+01) (11, 2.13172554969787597656e+00) (12, 1.51917469501495361328e+00) (13, 4.97090578079223632812e+00) (14, -6.09152555465698242188e-01) (4, -8.16088259220123291016e-01) (5, 3.10827374458312988281e+00) (6, -2.57198476791381835938e+00) (7, 5.42766284942626953125e+00) (8, -4.68312120437622070312e+00) (9, 1.27025556564331054688e+00) (10, 1.24222803115844726562e+00) (11, -4.36719131469726562500e+00) (12, -4.52757549285888671875e+00) (13, 1.04379034042358398438e+00) (14, -9.13513183593750000000e+00) (4, -5.02421998977661132812e+00) (5, -5.99957227706909179688e+00) (6, -2.25749468803405761719e+00) (7, -4.78868675231933593750e+00) (8, 6.56497240066528320312e+00) (9, 4.15788471698760986328e-01) (10, -1.26755666732788085938e+01) (11, 1.91500887274742126465e-01) (12, -1.29105532169342041016e+00) (13, -5.65004968643188476562e+00) (14, 4.24254322052001953125e+00) (4, -1.01267230510711669922e+00) (5, 9.86404240131378173828e-01) (6, -2.31124663352966308594e+00) (7, -5.96837997436523437500e+00) (8, -1.16687679290771484375e+01) (9, 5.05491304397583007812e+00) (10, 9.37689304351806640625e+00) (11, 3.76179623603820800781e+00) (12, 1.19253957271575927734e+00) (13, 4.67157936096191406250e+00) (14, 1.46927297115325927734e+00) (4, -7.21833467483520507812e+00) (5, 1.67972731590270996094e+00) (6, -6.65576505661010742188e+00) (7, 3.02068710327148437500e+00) (8, -4.99954128265380859375e+00) (9, 5.98707103729248046875e+00) (10, 5.77228116989135742188e+00) (11, 2.91759777069091796875e+00) (12, 3.68063664436340332031e+00) (13, 2.14854478836059570312e+00) (14, -4.19474840164184570312e+00) (4, 4.02721554040908813477e-01) (5, -1.15639078617095947266e+00) (6, 3.15573859214782714844e+00) (7, 5.65698671340942382812e+00) (8, 1.11529102325439453125e+01) (9, -3.74449276924133300781e+00) (10, -9.46967983245849609375e+00) (11, -2.63741040229797363281e+00) (12, -8.84067535400390625000e-01) (13, -4.87980937957763671875e+00) (14, 3.10832299292087554932e-02) (15, -1.23090248107910156250e+01) (16, 3.90431642532348632812e+00) (17, 4.44269418716430664062e+00) (18, 1.82056312561035156250e+01) (19, -7.67050933837890625000e+00) (20, 1.10559720993041992188e+01) (21, 6.16091108322143554688e+00) (22, 8.26625823974609375000e+00) (23, 3.40510869026184082031e+00) (24, -1.02568159103393554688e+01) (25, -1.14117174148559570312e+01) (15, -2.39055271148681640625e+01) (16, 2.45509128570556640625e+01) (17, -1.64843997955322265625e+01) (18, 2.00573959350585937500e+01) (19, -2.46730384826660156250e+01) (20, -1.99018192291259765625e+01) (21, 2.92664947509765625000e+01) (22, -2.31467933654785156250e+01) (23, -1.79511013031005859375e+01) (24, 2.25725154876708984375e+01) (25, 2.24049816131591796875e+01) (15, -1.58067779541015625000e+01) (16, 1.67631683349609375000e+01) (17, 1.62345027923583984375e+01) (18, -1.71063365936279296875e+01) (19, 4.68198394775390625000e+00) (20, -1.48660144805908203125e+01) (21, 1.55884542465209960938e+01) (22, 1.43278188705444335938e+01) (23, 1.36958770751953125000e+01) (24, -1.36637668609619140625e+01) (25, 1.58095493316650390625e+01) 
