FANN_FLO_2.1
num_layers=4
learning_rate=0.100000
connection_rate=1.000000
network_type=0
learning_momentum=0.000000
training_algorithm=1
train_error_function=1
train_stop_function=0
cascade_output_change_fraction=0.010000
quickprop_decay=-0.000100
quickprop_mu=1.750000
rprop_increase_factor=1.200000
rprop_decrease_factor=0.500000
rprop_delta_min=0.000000
rprop_delta_max=50.000000
rprop_delta_zero=0.100000
cascade_output_stagnation_epochs=12
cascade_candidate_change_fraction=0.010000
cascade_candidate_stagnation_epochs=12
cascade_max_out_epochs=150
cascade_min_out_epochs=50
cascade_max_cand_epochs=150
cascade_min_cand_epochs=50
cascade_num_candidate_groups=2
bit_fail_limit=3.49999994039535522461e-01
cascade_candidate_limit=1.00000000000000000000e+03
cascade_weight_multiplier=4.00000005960464477539e-01
cascade_activation_functions_count=10
cascade_activation_functions=3 5 7 8 10 11 14 15 16 17 
cascade_activation_steepnesses_count=4
cascade_activation_steepnesses=2.50000000000000000000e-01 5.00000000000000000000e-01 7.50000000000000000000e-01 1.00000000000000000000e+00 
layer_sizes=4 11 11 4 
scale_included=1
scale_mean_in=0.125112 0.074229 -0.161106 
scale_deviation_in=0.017644 0.017420 0.010220 
scale_new_min_in=-0.900000 -0.900000 -0.900000 
scale_factor_in=0.900000 0.900000 0.900000 
scale_mean_out=-1.034462 0.206623 -2.021291 
scale_deviation_out=0.124477 0.200555 0.343810 
scale_new_min_out=-0.900000 -0.900000 -0.900000 
scale_factor_out=0.900000 0.900000 0.900000 
neurons (num_inputs, activation_function, activation_steepness)=(0, 0, 0.00000000000000000000e+00) (0, 0, 0.00000000000000000000e+00) (0, 0, 0.00000000000000000000e+00) (0, 0, 0.00000000000000000000e+00) (4, 5, 5.00000000000000000000e-01) (4, 5, 5.00000000000000000000e-01) (4, 5, 5.00000000000000000000e-01) (4, 5, 5.00000000000000000000e-01) (4, 5, 5.00000000000000000000e-01) (4, 5, 5.00000000000000000000e-01) (4, 5, 5.00000000000000000000e-01) (4, 5, 5.00000000000000000000e-01) (4, 5, 5.00000000000000000000e-01) (4, 5, 5.00000000000000000000e-01) (0, 5, 0.00000000000000000000e+00) (11, 5, 5.00000000000000000000e-01) (11, 5, 5.00000000000000000000e-01) (11, 5, 5.00000000000000000000e-01) (11, 5, 5.00000000000000000000e-01) (11, 5, 5.00000000000000000000e-01) (11, 5, 5.00000000000000000000e-01) (11, 5, 5.00000000000000000000e-01) (11, 5, 5.00000000000000000000e-01) (11, 5, 5.00000000000000000000e-01) (11, 5, 5.00000000000000000000e-01) (0, 5, 0.00000000000000000000e+00) (11, 5, 5.00000000000000000000e-01) (11, 5, 5.00000000000000000000e-01) (11, 5, 5.00000000000000000000e-01) (0, 5, 0.00000000000000000000e+00) 
connections (connected_to_neuron, weight)=(0, 3.47887337207794189453e-01) (1, 7.33131527900695800781e-01) (2, -9.83220815658569335938e-01) (3, 5.51523864269256591797e-01) (0, -1.75495660305023193359e+00) (1, -5.02521932125091552734e-01) (2, 5.31739532947540283203e-01) (3, 1.86976385116577148438e+00) (0, 4.76145744323730468750e-01) (1, 5.23466229438781738281e-01) (2, -6.46500825881958007812e-01) (3, -2.41320505738258361816e-02) (0, -4.11488115787506103516e-01) (1, 4.46690469980239868164e-01) (2, 8.02888393402099609375e-01) (3, -1.94320186972618103027e-01) (0, 6.69670164585113525391e-01) (1, 1.07165801525115966797e+00) (2, 3.75439733266830444336e-01) (3, 7.90622413158416748047e-01) (0, 2.92947590351104736328e-01) (1, -2.30151321738958358765e-02) (2, -6.49195194244384765625e-01) (3, 6.68592810630798339844e-01) (0, -7.18688607215881347656e-01) (1, -1.74820780754089355469e-01) (2, 6.54794871807098388672e-01) (3, -2.60585129261016845703e-01) (0, -1.07001864910125732422e+00) (1, 2.76275068521499633789e-01) (2, -4.71996255218982696533e-02) (3, -8.48717987537384033203e-01) (0, -8.02965044975280761719e-01) (1, -1.31052935123443603516e+00) (2, 1.65554612874984741211e-01) (3, 1.71004033088684082031e+00) (0, 1.58394739031791687012e-01) (1, 4.05733942985534667969e-01) (2, -7.78157338500022888184e-02) (3, -2.39130422472953796387e-01) (4, 2.70496848970651626587e-02) (5, 2.58599549531936645508e-01) (6, 7.04728901386260986328e-01) (7, 4.37039881944656372070e-01) (8, -2.01747305691242218018e-02) (9, -2.14575305581092834473e-01) (10, 2.15912342071533203125e-01) (11, 1.23829364776611328125e+00) (12, -7.93272435665130615234e-01) (13, 4.81860563158988952637e-02) (14, 9.12263765931129455566e-02) (4, -7.24515795707702636719e-01) (5, 6.50141358375549316406e-01) (6, -5.28599545359611511230e-02) (7, -9.23591852188110351562e-01) (8, 1.19825422763824462891e+00) (9, 3.63410890102386474609e-01) (10, -5.85026502609252929688e-01) (11, -5.77575027942657470703e-01) (12, -7.07226336002349853516e-01) (13, 5.11635601520538330078e-01) (14, -7.40110278129577636719e-02) (4, -8.56785655021667480469e-01) (5, -9.72894906997680664062e-01) (6, -4.39864188432693481445e-01) (7, 5.44340014457702636719e-01) (8, 7.38033354282379150391e-01) (9, -9.96561050415039062500e-01) (10, 6.12092949450016021729e-02) (11, -8.69739472866058349609e-01) (12, -1.01369827985763549805e-01) (13, -9.00685489177703857422e-01) (14, 4.35646355152130126953e-01) (4, -2.91276425123214721680e-01) (5, 6.68847441673278808594e-01) (6, -3.55733096599578857422e-01) (7, 6.24552249908447265625e-01) (8, -2.12231636047363281250e-01) (9, -5.04067838191986083984e-01) (10, 6.85409426689147949219e-01) (11, 2.61198341846466064453e-01) (12, 5.81852078437805175781e-01) (13, -7.89608359336853027344e-01) (14, 8.06650221347808837891e-02) (4, -3.40740084648132324219e-01) (5, -9.02012109756469726562e-01) (6, -2.76761259883642196655e-02) (7, -9.19329047203063964844e-01) (8, -4.34443205595016479492e-01) (9, 5.92558741569519042969e-01) (10, -8.90370905399322509766e-01) (11, -3.86638373136520385742e-01) (12, -1.13871848583221435547e+00) (13, -2.80958056449890136719e-01) (14, 2.32349514961242675781e-01) (4, 4.60007041692733764648e-01) (5, -4.13405656814575195312e-01) (6, 3.40768471360206604004e-02) (7, 6.82210028171539306641e-01) (8, 9.81504380702972412109e-01) (9, 1.21071524918079376221e-01) (10, -1.06023490428924560547e+00) (11, 1.11690807342529296875e+00) (12, -4.29493546485900878906e-01) (13, -1.78645044565200805664e-01) (14, 2.07249164581298828125e-01) (4, 5.01838088035583496094e-01) (5, -4.97172772884368896484e-01) (6, 5.07615625858306884766e-01) (7, 1.15218794345855712891e+00) (8, 7.21788942813873291016e-01) (9, -1.37135237455368041992e-01) (10, 2.54323005676269531250e-01) (11, 1.10828495025634765625e+00) (12, 8.82690906524658203125e-01) (13, 8.52897882461547851562e-01) (14, -8.50874409079551696777e-02) (4, -2.68241465091705322266e-01) (5, -1.45855140686035156250e+00) (6, 4.69463855028152465820e-01) (7, -8.00193428993225097656e-01) (8, -1.10034859180450439453e+00) (9, 7.02759385108947753906e-01) (10, -7.07645535469055175781e-01) (11, 4.84196484088897705078e-01) (12, -9.15123701095581054688e-01) (13, 7.83727467060089111328e-01) (14, 1.02809846401214599609e+00) (4, 7.40254461765289306641e-01) (5, -6.25844717025756835938e-01) (6, 9.24870312213897705078e-01) (7, -3.82521033287048339844e-01) (8, -6.40310347080230712891e-02) (9, 3.22002291679382324219e-01) (10, 1.35305330157279968262e-01) (11, 1.03613340854644775391e+00) (12, -1.21203887462615966797e+00) (13, 4.11702366545796394348e-03) (14, 6.83230459690093994141e-01) (4, 1.17556381225585937500e+00) (5, -8.35929691791534423828e-01) (6, 9.02392625808715820312e-01) (7, -1.33322942256927490234e+00) (8, 5.31049728393554687500e-01) (9, 6.48672342300415039062e-01) (10, 1.51394635438919067383e-01) (11, 4.58333075046539306641e-01) (12, 5.18997848033905029297e-01) (13, -3.03747385740280151367e-01) (14, 1.32029449939727783203e+00) (15, 1.70143401622772216797e+00) (16, -5.78294157981872558594e-01) (17, -9.72187876701354980469e-01) (18, 5.30669212341308593750e-01) (19, -8.24788987636566162109e-01) (20, 1.80611670017242431641e+00) (21, 2.25247621536254882812e+00) (22, -9.93009269237518310547e-01) (23, 1.38552606105804443359e+00) (24, -2.49869059771299362183e-02) (25, 7.72414863109588623047e-01) (15, 1.71444062143564224243e-02) (16, 6.47751986980438232422e-01) (17, 1.17406785488128662109e+00) (18, 1.20941483974456787109e+00) (19, -1.37033283710479736328e+00) (20, -5.66970288753509521484e-01) (21, -2.23897412419319152832e-01) (22, -2.95071768760681152344e+00) (23, -1.46314644813537597656e+00) (24, -1.45471811294555664062e+00) (25, -3.61621826887130737305e-01) (15, -6.50643944740295410156e-01) (16, -1.06902074813842773438e+00) (17, -2.40194186568260192871e-01) (18, 1.40292656421661376953e+00) (19, -1.85189783573150634766e+00) (20, -1.09240627288818359375e+00) (21, 2.29420334100723266602e-01) (22, -1.57840836048126220703e+00) (23, -1.26177656650543212891e+00) (24, -1.50639891624450683594e+00) (25, -1.22304655611515045166e-01) 
