FANN_FLO_2.1
num_layers=4
learning_rate=0.100000
connection_rate=1.000000
network_type=0
learning_momentum=0.000000
training_algorithm=1
train_error_function=1
train_stop_function=0
cascade_output_change_fraction=0.010000
quickprop_decay=-0.000100
quickprop_mu=1.750000
rprop_increase_factor=1.200000
rprop_decrease_factor=0.500000
rprop_delta_min=0.000000
rprop_delta_max=50.000000
rprop_delta_zero=0.100000
cascade_output_stagnation_epochs=12
cascade_candidate_change_fraction=0.010000
cascade_candidate_stagnation_epochs=12
cascade_max_out_epochs=150
cascade_min_out_epochs=50
cascade_max_cand_epochs=150
cascade_min_cand_epochs=50
cascade_num_candidate_groups=2
bit_fail_limit=3.49999994039535522461e-01
cascade_candidate_limit=1.00000000000000000000e+03
cascade_weight_multiplier=4.00000005960464477539e-01
cascade_activation_functions_count=10
cascade_activation_functions=3 5 7 8 10 11 14 15 16 17 
cascade_activation_steepnesses_count=4
cascade_activation_steepnesses=2.50000000000000000000e-01 5.00000000000000000000e-01 7.50000000000000000000e-01 1.00000000000000000000e+00 
layer_sizes=4 11 11 4 
scale_included=1
scale_mean_in=0.143718 0.139646 0.013327 
scale_deviation_in=0.014872 0.018283 0.013018 
scale_new_min_in=-0.900000 -0.900000 -0.900000 
scale_factor_in=0.900000 0.900000 0.900000 
scale_mean_out=-0.801010 1.546039 -1.703005 
scale_deviation_out=0.060645 0.451421 0.658252 
scale_new_min_out=-0.900000 -0.900000 -0.900000 
scale_factor_out=0.900000 0.900000 0.900000 
neurons (num_inputs, activation_function, activation_steepness)=(0, 0, 0.00000000000000000000e+00) (0, 0, 0.00000000000000000000e+00) (0, 0, 0.00000000000000000000e+00) (0, 0, 0.00000000000000000000e+00) (4, 5, 5.00000000000000000000e-01) (4, 5, 5.00000000000000000000e-01) (4, 5, 5.00000000000000000000e-01) (4, 5, 5.00000000000000000000e-01) (4, 5, 5.00000000000000000000e-01) (4, 5, 5.00000000000000000000e-01) (4, 5, 5.00000000000000000000e-01) (4, 5, 5.00000000000000000000e-01) (4, 5, 5.00000000000000000000e-01) (4, 5, 5.00000000000000000000e-01) (0, 5, 0.00000000000000000000e+00) (11, 5, 5.00000000000000000000e-01) (11, 5, 5.00000000000000000000e-01) (11, 5, 5.00000000000000000000e-01) (11, 5, 5.00000000000000000000e-01) (11, 5, 5.00000000000000000000e-01) (11, 5, 5.00000000000000000000e-01) (11, 5, 5.00000000000000000000e-01) (11, 5, 5.00000000000000000000e-01) (11, 5, 5.00000000000000000000e-01) (11, 5, 5.00000000000000000000e-01) (0, 5, 0.00000000000000000000e+00) (11, 5, 5.00000000000000000000e-01) (11, 5, 5.00000000000000000000e-01) (11, 5, 5.00000000000000000000e-01) (0, 5, 0.00000000000000000000e+00) 
connections (connected_to_neuron, weight)=(0, 2.00001978874206542969e+00) (1, -4.36090111732482910156e-01) (2, -1.10322177410125732422e-01) (3, 2.25962805747985839844e+00) (0, 3.19669151306152343750e+00) (1, -7.89493680000305175781e-01) (2, -4.04916666448116302490e-02) (3, -1.10072684288024902344e+00) (0, 2.21965834498405456543e-02) (1, 1.91759371757507324219e+00) (2, 4.61770892143249511719e-01) (3, -3.37671786546707153320e-01) (0, 4.08153867721557617188e+00) (1, 5.17961645126342773438e+00) (2, 6.16309583187103271484e-01) (3, -6.82061672210693359375e+00) (0, -3.23306381702423095703e-01) (1, -4.24373835325241088867e-01) (2, 2.26997539401054382324e-01) (3, 1.37119162082672119141e+00) (0, 3.05325484275817871094e+00) (1, -3.11493015289306640625e+00) (2, -1.72994464635848999023e-01) (3, -3.17478060722351074219e+00) (0, 4.26050037145614624023e-01) (1, 2.83859491348266601562e+00) (2, -2.64213144779205322266e-01) (3, 1.16661190986633300781e+00) (0, 1.98169457912445068359e+00) (1, 5.26079595088958740234e-01) (2, 3.58595013618469238281e-01) (3, -9.43189620971679687500e-01) (0, -1.32197642326354980469e+00) (1, -2.42891097068786621094e+00) (2, 1.80482730269432067871e-01) (3, -4.15740060806274414062e+00) (0, -1.12348651885986328125e+00) (1, 2.02040934562683105469e+00) (2, -3.53884696960449218750e-02) (3, -8.82448673248291015625e-01) (4, 3.48108857870101928711e-01) (5, 6.00411146879196166992e-02) (6, 1.16754519939422607422e+00) (7, 1.36762306094169616699e-01) (8, 5.03010690212249755859e-01) (9, 1.52840942144393920898e-01) (10, -9.19224500656127929688e-01) (11, 8.38776946067810058594e-01) (12, -2.08689093589782714844e+00) (13, 2.18970373272895812988e-01) (14, 9.07649934291839599609e-01) (4, 2.37442851066589355469e+00) (5, 1.45126831531524658203e+00) (6, 1.06590259075164794922e+00) (7, -4.72223967313766479492e-01) (8, 2.89273768663406372070e-01) (9, -2.10436522960662841797e-01) (10, 9.08910214900970458984e-01) (11, -3.77120018005371093750e-01) (12, -2.07216525077819824219e+00) (13, 3.65749686956405639648e-01) (14, 1.85773432254791259766e+00) (4, -1.86800825595855712891e+00) (5, 2.28286194801330566406e+00) (6, -1.40628957748413085938e+00) (7, -4.39376473426818847656e-01) (8, 1.18994879722595214844e+00) (9, 2.33118343353271484375e+00) (10, -2.49396395683288574219e+00) (11, 1.32186397910118103027e-01) (12, 1.67067205905914306641e+00) (13, 2.42012619972229003906e-01) (14, 5.98897635936737060547e-01) (4, 3.79074692726135253906e-01) (5, 4.20872837305068969727e-01) (6, -9.27150845527648925781e-02) (7, -5.15303850173950195312e-01) (8, 5.18975138664245605469e-01) (9, -3.95506203174591064453e-01) (10, -1.25118708610534667969e+00) (11, 9.12206992506980895996e-02) (12, 3.66218835115432739258e-01) (13, -4.92319583892822265625e-01) (14, 7.65518605709075927734e-01) (4, -1.50123095512390136719e+00) (5, -2.51393318176269531250e-01) (6, -9.66657459735870361328e-01) (7, 4.58840429782867431641e-01) (8, 3.72298181056976318359e-01) (9, -5.10282039642333984375e-01) (10, -8.17295253276824951172e-01) (11, -2.34231591224670410156e-01) (12, 2.84105658531188964844e+00) (13, 9.89678725600242614746e-02) (14, -1.97129881381988525391e+00) (4, -1.05770504474639892578e+00) (5, -9.20189619064331054688e-01) (6, 4.24314528703689575195e-01) (7, -7.40810096263885498047e-01) (8, -5.90486049652099609375e-01) (9, -1.10955202579498291016e+00) (10, 3.72645139694213867188e-01) (11, 7.69750714302062988281e-01) (12, 2.29225015640258789062e+00) (13, -1.60454273223876953125e+00) (14, -7.82145142555236816406e-01) (4, -4.05459195375442504883e-01) (5, -1.53472328186035156250e+00) (6, -2.03565526008605957031e+00) (7, -6.39759016036987304688e+00) (8, 6.87532722949981689453e-01) (9, -1.84777483344078063965e-01) (10, -1.08556365966796875000e+00) (11, -1.29108905792236328125e+00) (12, -7.31793284416198730469e-01) (13, -1.61637961864471435547e+00) (14, 1.84897172451019287109e+00) (4, -4.42690163850784301758e-01) (5, -2.30276894569396972656e+00) (6, 1.60486865043640136719e+00) (7, 3.62189896404743194580e-02) (8, 5.79996347427368164062e-01) (9, -4.88005924224853515625e+00) (10, 2.82643842697143554688e+00) (11, -6.60012185573577880859e-01) (12, -2.19403600692749023438e+00) (13, 1.20469439029693603516e+00) (14, 1.06108856201171875000e+00) (4, 2.57172131538391113281e+00) (5, 8.54176700115203857422e-01) (6, -1.34600210189819335938e+00) (7, 1.32545277476310729980e-01) (8, 1.11103296279907226562e+00) (9, -1.50259658694267272949e-01) (10, -4.02019590139389038086e-01) (11, 5.45459866523742675781e-01) (12, -1.21454858779907226562e+00) (13, -3.41123223304748535156e+00) (14, 9.77564871311187744141e-01) (4, -2.95704156160354614258e-01) (5, 1.03193116188049316406e+00) (6, 1.70505571365356445312e+00) (7, 7.52484464645385742188e+00) (8, -5.49666762351989746094e-01) (9, 1.16748201847076416016e+00) (10, 5.11184811592102050781e-01) (11, 2.48091769218444824219e+00) (12, 1.71288892626762390137e-01) (13, 2.21945714950561523438e+00) (14, -4.41125839948654174805e-01) (15, -1.82753741741180419922e+00) (16, -2.28838920593261718750e+00) (17, -8.34113311767578125000e+00) (18, -3.26726675033569335938e+00) (19, 1.52504205703735351562e+00) (20, 4.80183219909667968750e+00) (21, 3.25070624239742755890e-03) (22, 1.10944795608520507812e+01) (23, -5.77115058898925781250e+00) (24, -2.19838581979274749756e-02) (25, -3.46435189247131347656e+00) (15, -1.51980066299438476562e+00) (16, -3.13066530227661132812e+00) (17, 1.64991927146911621094e+00) (18, 1.32135963439941406250e+00) (19, 3.07823491096496582031e+00) (20, 4.90296649932861328125e+00) (21, 6.25689554214477539062e+00) (22, 8.90951395034790039062e-01) (23, -1.25196576118469238281e+00) (24, -7.67829799652099609375e+00) (25, -1.53784263134002685547e+00) (15, -4.05951690673828125000e+00) (16, -3.75143146514892578125e+00) (17, 1.01655054092407226562e+00) (18, 6.29714369773864746094e-01) (19, 3.25647234916687011719e+00) (20, 2.24667000770568847656e+00) (21, 6.72259712219238281250e+00) (22, 4.50698435306549072266e-01) (23, -5.87693333625793457031e-01) (24, -7.87779378890991210938e+00) (25, -1.61786746978759765625e+00) 
