FANN_FLO_2.1
num_layers=4
learning_rate=0.100000
connection_rate=1.000000
network_type=0
learning_momentum=0.000000
training_algorithm=1
train_error_function=1
train_stop_function=0
cascade_output_change_fraction=0.010000
quickprop_decay=-0.000100
quickprop_mu=1.750000
rprop_increase_factor=1.200000
rprop_decrease_factor=0.500000
rprop_delta_min=0.000000
rprop_delta_max=50.000000
rprop_delta_zero=0.100000
cascade_output_stagnation_epochs=12
cascade_candidate_change_fraction=0.010000
cascade_candidate_stagnation_epochs=12
cascade_max_out_epochs=150
cascade_min_out_epochs=50
cascade_max_cand_epochs=150
cascade_min_cand_epochs=50
cascade_num_candidate_groups=2
bit_fail_limit=3.49999994039535522461e-01
cascade_candidate_limit=1.00000000000000000000e+03
cascade_weight_multiplier=4.00000005960464477539e-01
cascade_activation_functions_count=10
cascade_activation_functions=3 5 7 8 10 11 14 15 16 17 
cascade_activation_steepnesses_count=4
cascade_activation_steepnesses=2.50000000000000000000e-01 5.00000000000000000000e-01 7.50000000000000000000e-01 1.00000000000000000000e+00 
layer_sizes=4 11 11 4 
scale_included=1
scale_mean_in=0.205211 -0.045233 -0.031524 
scale_deviation_in=0.018398 0.016929 0.013097 
scale_new_min_in=-0.900000 -0.900000 -0.900000 
scale_factor_in=0.900000 0.900000 0.900000 
scale_mean_out=-1.787735 1.096744 -1.970221 
scale_deviation_out=0.079320 0.439252 0.672752 
scale_new_min_out=-0.900000 -0.900000 -0.900000 
scale_factor_out=0.900000 0.900000 0.900000 
neurons (num_inputs, activation_function, activation_steepness)=(0, 0, 0.00000000000000000000e+00) (0, 0, 0.00000000000000000000e+00) (0, 0, 0.00000000000000000000e+00) (0, 0, 0.00000000000000000000e+00) (4, 5, 5.00000000000000000000e-01) (4, 5, 5.00000000000000000000e-01) (4, 5, 5.00000000000000000000e-01) (4, 5, 5.00000000000000000000e-01) (4, 5, 5.00000000000000000000e-01) (4, 5, 5.00000000000000000000e-01) (4, 5, 5.00000000000000000000e-01) (4, 5, 5.00000000000000000000e-01) (4, 5, 5.00000000000000000000e-01) (4, 5, 5.00000000000000000000e-01) (0, 5, 0.00000000000000000000e+00) (11, 5, 5.00000000000000000000e-01) (11, 5, 5.00000000000000000000e-01) (11, 5, 5.00000000000000000000e-01) (11, 5, 5.00000000000000000000e-01) (11, 5, 5.00000000000000000000e-01) (11, 5, 5.00000000000000000000e-01) (11, 5, 5.00000000000000000000e-01) (11, 5, 5.00000000000000000000e-01) (11, 5, 5.00000000000000000000e-01) (11, 5, 5.00000000000000000000e-01) (0, 5, 0.00000000000000000000e+00) (11, 5, 5.00000000000000000000e-01) (11, 5, 5.00000000000000000000e-01) (11, 5, 5.00000000000000000000e-01) (0, 5, 0.00000000000000000000e+00) 
connections (connected_to_neuron, weight)=(0, -2.32756733894348144531e+00) (1, 5.16332685947418212891e-01) (2, -5.85350453853607177734e-01) (3, 1.40153598785400390625e+00) (0, 4.02525711059570312500e+00) (1, -8.56620430946350097656e-01) (2, -4.59960460662841796875e-01) (3, -1.75002169609069824219e+00) (0, -9.25403952598571777344e-01) (1, -2.93539404869079589844e+00) (2, -7.04447459429502487183e-03) (3, 3.22651934623718261719e+00) (0, -4.53935503959655761719e-01) (1, 1.30869472026824951172e+00) (2, 4.92414653301239013672e-01) (3, 9.56592500209808349609e-01) (0, 2.25108480453491210938e+00) (1, 1.52839338779449462891e+00) (2, -3.48820239305496215820e-01) (3, 1.68892967700958251953e+00) (0, 2.36022043228149414062e+00) (1, 2.49323457479476928711e-01) (2, -2.50278115272521972656e-01) (3, 2.33507227897644042969e+00) (0, -2.60805994272232055664e-01) (1, -4.48218822479248046875e-01) (2, 1.12993323802947998047e+00) (3, 1.67242252826690673828e+00) (0, -2.11366057395935058594e-01) (1, -2.30679941177368164062e+00) (2, 2.09324926137924194336e-01) (3, -2.25221371650695800781e+00) (0, 1.18324376642704010010e-01) (1, 1.38256478309631347656e+00) (2, 2.58081763982772827148e-01) (3, 8.52076172828674316406e-01) (0, -1.50577473640441894531e+00) (1, 2.30248284339904785156e+00) (2, 3.24213624000549316406e-01) (3, -2.19961357116699218750e+00) (4, -1.40863910317420959473e-01) (5, -1.85318601131439208984e+00) (6, -9.68796491622924804688e-01) (7, 5.31264960765838623047e-01) (8, 1.34658896923065185547e+00) (9, 1.90353798866271972656e+00) (10, -4.57297235727310180664e-01) (11, 5.37904381752014160156e-01) (12, 6.26326680183410644531e-01) (13, -1.87535119056701660156e+00) (14, -9.90640103816986083984e-01) (4, -1.48153319954872131348e-01) (5, 4.24846895039081573486e-02) (6, -1.98894345760345458984e+00) (7, 2.46422260999679565430e-01) (8, 7.04594373703002929688e-01) (9, 5.26727020740509033203e-01) (10, 3.19389313459396362305e-01) (11, 8.70597779750823974609e-01) (12, 7.81317055225372314453e-02) (13, 4.78445202112197875977e-01) (14, -1.16822254657745361328e+00) (4, 2.94740021228790283203e-01) (5, -2.46793508529663085938e+00) (6, -9.48098003864288330078e-01) (7, -1.05777931213378906250e+00) (8, 1.29667556285858154297e+00) (9, 1.68374192714691162109e+00) (10, -1.84567177295684814453e+00) (11, -1.54795706272125244141e-01) (12, -2.83035010099411010742e-01) (13, -1.95038998126983642578e+00) (14, 1.83602556586265563965e-01) (4, 3.53801989555358886719e+00) (5, -4.71947145462036132812e+00) (6, 1.60208678245544433594e+00) (7, 1.66674518585205078125e+00) (8, -5.62677085399627685547e-01) (9, -1.73272180557250976562e+00) (10, 1.60896599292755126953e+00) (11, -6.36454522609710693359e-01) (12, -4.91217672824859619141e-02) (13, 1.67310595512390136719e-01) (14, -4.96200621128082275391e-02) (4, 3.28322142362594604492e-01) (5, 1.93702846765518188477e-01) (6, -1.13560318946838378906e+00) (7, -1.43351185321807861328e+00) (8, -2.52690291404724121094e+00) (9, -5.05122065544128417969e-01) (10, -2.78797626495361328125e-01) (11, 3.31676316261291503906e+00) (12, -2.52517962455749511719e+00) (13, 9.95289012789726257324e-02) (14, -3.71664613485336303711e-01) (4, -6.33855164051055908203e-01) (5, -5.92733144760131835938e-01) (6, 4.91567730903625488281e-01) (7, -5.48332976177334785461e-03) (8, -2.14931637048721313477e-01) (9, 1.04061079025268554688e+00) (10, -3.06691944599151611328e-01) (11, 5.29737472534179687500e-01) (12, -4.36439216136932373047e-01) (13, -8.68552744388580322266e-01) (14, -1.00074982643127441406e+00) (4, -6.96206271648406982422e-01) (5, -1.85037791728973388672e+00) (6, 1.99659121036529541016e+00) (7, -1.83581411838531494141e+00) (8, 1.74198913574218750000e+00) (9, 1.61904668807983398438e+00) (10, 3.96301448345184326172e-02) (11, 1.74886381626129150391e+00) (12, -1.90876021981239318848e-01) (13, -1.44088971614837646484e+00) (14, -6.94097578525543212891e-02) (4, 2.91972979903221130371e-02) (5, 6.82621598243713378906e-01) (6, -3.74384951591491699219e+00) (7, 6.69035539031028747559e-02) (8, 1.73684835433959960938e-01) (9, 6.27053141593933105469e-01) (10, -1.07954001426696777344e+00) (11, -7.67947018146514892578e-01) (12, 1.60167586803436279297e+00) (13, 2.63844418525695800781e+00) (14, -2.12305402755737304688e+00) (4, -4.20052796602249145508e-01) (5, -6.75844073295593261719e-01) (6, -1.12277412414550781250e+00) (7, -4.25415247678756713867e-01) (8, 6.95552945137023925781e-01) (9, 1.11508536338806152344e+00) (10, -1.69193625450134277344e-01) (11, -6.70621573925018310547e-01) (12, -1.61642029881477355957e-01) (13, -2.01750174164772033691e-01) (14, -1.29103815555572509766e+00) (4, -4.12257254123687744141e-01) (5, -2.50026464462280273438e-01) (6, -3.19717116653919219971e-02) (7, 1.28647947311401367188e+00) (8, 1.47292780876159667969e+00) (9, 2.11408331990242004395e-01) (10, -5.37134587764739990234e-01) (11, -2.71691679954528808594e+00) (12, 1.21180069446563720703e+00) (13, -9.68038201332092285156e-01) (14, 5.84694325923919677734e-01) (15, 1.48656058311462402344e+00) (16, 2.05622339248657226562e+00) (17, 4.77232486009597778320e-02) (18, -2.05969199538230895996e-01) (19, -6.17304086685180664062e+00) (20, -1.88804030418395996094e+00) (21, -1.43464386463165283203e+00) (22, 7.02740001678466796875e+00) (23, 1.24215948581695556641e+00) (24, 3.31198239326477050781e+00) (25, -8.53215306997299194336e-02) (15, -2.09376096725463867188e+00) (16, -1.05946445465087890625e+00) (17, -4.18631887435913085938e+00) (18, 3.03861713409423828125e+00) (19, -1.66551673412322998047e+00) (20, -2.16561412811279296875e+00) (21, -3.22927832603454589844e+00) (22, -1.50160610675811767578e+00) (23, -2.40581798553466796875e+00) (24, -6.67126238346099853516e-01) (25, 2.60607171058654785156e+00) (15, -3.81413841247558593750e+00) (16, -2.84795451164245605469e+00) (17, -1.70891833305358886719e+00) (18, 2.68803429603576660156e+00) (19, -1.04187977313995361328e+00) (20, -1.83649122714996337891e+00) (21, -3.92909431457519531250e+00) (22, -1.09337890148162841797e+00) (23, -1.42832219600677490234e+00) (24, 1.36752441525459289551e-01) (25, 1.82670545578002929688e+00) 
