FANN_FLO_2.1
num_layers=3
learning_rate=0.100000
connection_rate=1.000000
network_type=0
learning_momentum=0.000000
training_algorithm=1
train_error_function=1
train_stop_function=0
cascade_output_change_fraction=0.010000
quickprop_decay=-0.000100
quickprop_mu=1.750000
rprop_increase_factor=1.200000
rprop_decrease_factor=0.500000
rprop_delta_min=0.000000
rprop_delta_max=50.000000
rprop_delta_zero=0.100000
cascade_output_stagnation_epochs=12
cascade_candidate_change_fraction=0.010000
cascade_candidate_stagnation_epochs=12
cascade_max_out_epochs=150
cascade_min_out_epochs=50
cascade_max_cand_epochs=150
cascade_min_cand_epochs=50
cascade_num_candidate_groups=2
bit_fail_limit=3.49999994039535522461e-01
cascade_candidate_limit=1.00000000000000000000e+03
cascade_weight_multiplier=4.00000005960464477539e-01
cascade_activation_functions_count=10
cascade_activation_functions=3 5 7 8 10 11 14 15 16 17 
cascade_activation_steepnesses_count=4
cascade_activation_steepnesses=2.50000000000000000000e-01 5.00000000000000000000e-01 7.50000000000000000000e-01 1.00000000000000000000e+00 
layer_sizes=4 6 4 
scale_included=1
scale_mean_in=0.112582 0.095794 -0.085458 
scale_deviation_in=0.008426 0.014531 0.009004 
scale_new_min_in=-0.900000 -0.900000 -0.900000 
scale_factor_in=0.900000 0.900000 0.900000 
scale_mean_out=-0.857118 2.099330 -1.191217 
scale_deviation_out=0.093088 0.098244 0.508731 
scale_new_min_out=-0.900000 -0.900000 -0.900000 
scale_factor_out=0.900000 0.900000 0.900000 
neurons (num_inputs, activation_function, activation_steepness)=(0, 0, 0.00000000000000000000e+00) (0, 0, 0.00000000000000000000e+00) (0, 0, 0.00000000000000000000e+00) (0, 0, 0.00000000000000000000e+00) (4, 5, 5.00000000000000000000e-01) (4, 5, 5.00000000000000000000e-01) (4, 5, 5.00000000000000000000e-01) (4, 5, 5.00000000000000000000e-01) (4, 5, 5.00000000000000000000e-01) (0, 5, 0.00000000000000000000e+00) (6, 5, 5.00000000000000000000e-01) (6, 5, 5.00000000000000000000e-01) (6, 5, 5.00000000000000000000e-01) (0, 5, 0.00000000000000000000e+00) 
connections (connected_to_neuron, weight)=(0, -2.03066706657409667969e-01) (1, 3.15356183052062988281e+00) (2, -6.57503843307495117188e-01) (3, 4.11270284652709960938e+00) (0, -4.03404206037521362305e-01) (1, -8.90495777130126953125e-02) (2, 3.31516385078430175781e+00) (3, 3.52916693687438964844e+00) (0, -1.18491125106811523438e+00) (1, -1.68022558093070983887e-01) (2, 6.03659629821777343750e-01) (3, -3.20941001176834106445e-01) (0, 3.90033781528472900391e-01) (1, -1.18370556831359863281e+00) (2, -3.71870994567871093750e-01) (3, -1.66007435321807861328e+00) (0, 5.77118843793869018555e-02) (1, 1.81367218494415283203e+00) (2, -1.02330839633941650391e+00) (3, -1.46002018451690673828e+00) (4, 5.06330251693725585938e+00) (5, -1.49959161877632141113e-01) (6, 2.03898549079895019531e+00) (7, -2.74668717384338378906e+00) (8, 1.61536169052124023438e+00) (9, -5.20202970504760742188e+00) (4, -1.36667907238006591797e+00) (5, 2.22760581970214843750e+00) (6, 3.34575819969177246094e+00) (7, -5.14704108238220214844e-01) (8, -4.83217525482177734375e+00) (9, -3.01935291290283203125e+00) (4, -8.58807206153869628906e-01) (5, -9.51778352260589599609e-01) (6, -2.52345979213714599609e-01) (7, -1.44815421104431152344e+00) (8, -5.46107590198516845703e-01) (9, 2.33015120029449462891e-01) 
