FANN_FLO_2.1
num_layers=3
learning_rate=0.100000
connection_rate=1.000000
network_type=0
learning_momentum=0.000000
training_algorithm=1
train_error_function=1
train_stop_function=0
cascade_output_change_fraction=0.010000
quickprop_decay=-0.000100
quickprop_mu=1.750000
rprop_increase_factor=1.200000
rprop_decrease_factor=0.500000
rprop_delta_min=0.000000
rprop_delta_max=50.000000
rprop_delta_zero=0.100000
cascade_output_stagnation_epochs=12
cascade_candidate_change_fraction=0.010000
cascade_candidate_stagnation_epochs=12
cascade_max_out_epochs=150
cascade_min_out_epochs=50
cascade_max_cand_epochs=150
cascade_min_cand_epochs=50
cascade_num_candidate_groups=2
bit_fail_limit=3.49999994039535522461e-01
cascade_candidate_limit=1.00000000000000000000e+03
cascade_weight_multiplier=4.00000005960464477539e-01
cascade_activation_functions_count=10
cascade_activation_functions=3 5 7 8 10 11 14 15 16 17 
cascade_activation_steepnesses_count=4
cascade_activation_steepnesses=2.50000000000000000000e-01 5.00000000000000000000e-01 7.50000000000000000000e-01 1.00000000000000000000e+00 
layer_sizes=4 6 4 
scale_included=1
scale_mean_in=0.199439 0.076959 0.048522 
scale_deviation_in=0.008683 0.017520 0.011355 
scale_new_min_in=-0.900000 -0.900000 -0.900000 
scale_factor_in=0.900000 0.900000 0.900000 
scale_mean_out=-1.200013 1.414404 -2.081904 
scale_deviation_out=0.085427 0.288730 0.705226 
scale_new_min_out=-0.900000 -0.900000 -0.900000 
scale_factor_out=0.900000 0.900000 0.900000 
neurons (num_inputs, activation_function, activation_steepness)=(0, 0, 0.00000000000000000000e+00) (0, 0, 0.00000000000000000000e+00) (0, 0, 0.00000000000000000000e+00) (0, 0, 0.00000000000000000000e+00) (4, 5, 5.00000000000000000000e-01) (4, 5, 5.00000000000000000000e-01) (4, 5, 5.00000000000000000000e-01) (4, 5, 5.00000000000000000000e-01) (4, 5, 5.00000000000000000000e-01) (0, 5, 0.00000000000000000000e+00) (6, 5, 5.00000000000000000000e-01) (6, 5, 5.00000000000000000000e-01) (6, 5, 5.00000000000000000000e-01) (0, 5, 0.00000000000000000000e+00) 
connections (connected_to_neuron, weight)=(0, -7.00526908040046691895e-02) (1, 4.23574745655059814453e-01) (2, -4.89362031221389770508e-01) (3, -1.10947847366333007812e+00) (0, 2.69671231508255004883e-01) (1, -5.45554280281066894531e-01) (2, -1.07388190925121307373e-01) (3, 6.94615125656127929688e-01) (0, 5.44056129455566406250e+00) (1, 4.43732213973999023438e+00) (2, 4.17243909835815429688e+00) (3, 4.14012432098388671875e+00) (0, 2.31339797377586364746e-01) (1, -6.25601530075073242188e-01) (2, 7.52430260181427001953e-02) (3, -1.37543931603431701660e-01) (0, 5.97467064857482910156e-01) (1, 6.46544396877288818359e-01) (2, 1.52449703216552734375e+00) (3, 2.94303131103515625000e+00) (4, 2.65269160270690917969e+00) (5, -2.80733537673950195312e+00) (6, 1.72968193888664245605e-01) (7, -4.04352188110351562500e+00) (8, 1.56059706211090087891e+00) (9, 5.08642911911010742188e-01) (4, -1.82611417770385742188e+00) (5, 1.94414401054382324219e+00) (6, -8.41751098632812500000e+00) (7, -2.16738414764404296875e+00) (8, 4.24479675292968750000e+00) (9, 2.26652812957763671875e+00) (4, -7.49894440174102783203e-01) (5, 5.71883916854858398438e-01) (6, -3.47747951745986938477e-01) (7, -1.16159939765930175781e+00) (8, -9.05163407325744628906e-01) (9, 4.25061911344528198242e-01) 
