FANN_FLO_2.1
num_layers=3
learning_rate=0.100000
connection_rate=1.000000
network_type=0
learning_momentum=0.000000
training_algorithm=1
train_error_function=1
train_stop_function=0
cascade_output_change_fraction=0.010000
quickprop_decay=-0.000100
quickprop_mu=1.750000
rprop_increase_factor=1.200000
rprop_decrease_factor=0.500000
rprop_delta_min=0.000000
rprop_delta_max=50.000000
rprop_delta_zero=0.100000
cascade_output_stagnation_epochs=12
cascade_candidate_change_fraction=0.010000
cascade_candidate_stagnation_epochs=12
cascade_max_out_epochs=150
cascade_min_out_epochs=50
cascade_max_cand_epochs=150
cascade_min_cand_epochs=50
cascade_num_candidate_groups=2
bit_fail_limit=3.49999994039535522461e-01
cascade_candidate_limit=1.00000000000000000000e+03
cascade_weight_multiplier=4.00000005960464477539e-01
cascade_activation_functions_count=10
cascade_activation_functions=3 5 7 8 10 11 14 15 16 17 
cascade_activation_steepnesses_count=4
cascade_activation_steepnesses=2.50000000000000000000e-01 5.00000000000000000000e-01 7.50000000000000000000e-01 1.00000000000000000000e+00 
layer_sizes=4 6 4 
scale_included=1
scale_mean_in=0.065930 0.130432 -0.014631 
scale_deviation_in=0.018378 0.021634 0.016483 
scale_new_min_in=-0.900000 -0.900000 -0.900000 
scale_factor_in=0.900000 0.900000 0.900000 
scale_mean_out=-0.470194 2.180843 -0.533449 
scale_deviation_out=0.131107 0.321916 0.312789 
scale_new_min_out=-0.900000 -0.900000 -0.900000 
scale_factor_out=0.900000 0.900000 0.900000 
neurons (num_inputs, activation_function, activation_steepness)=(0, 0, 0.00000000000000000000e+00) (0, 0, 0.00000000000000000000e+00) (0, 0, 0.00000000000000000000e+00) (0, 0, 0.00000000000000000000e+00) (4, 5, 5.00000000000000000000e-01) (4, 5, 5.00000000000000000000e-01) (4, 5, 5.00000000000000000000e-01) (4, 5, 5.00000000000000000000e-01) (4, 5, 5.00000000000000000000e-01) (0, 5, 0.00000000000000000000e+00) (6, 5, 5.00000000000000000000e-01) (6, 5, 5.00000000000000000000e-01) (6, 5, 5.00000000000000000000e-01) (0, 5, 0.00000000000000000000e+00) 
connections (connected_to_neuron, weight)=(0, -1.41421532630920410156e+00) (1, -5.05490660667419433594e-01) (2, -1.41493171453475952148e-01) (3, -1.58940696716308593750e+00) (0, 1.30239772796630859375e+00) (1, 6.59792199730873107910e-02) (2, 3.83618980646133422852e-01) (3, -1.44288337230682373047e+00) (0, 8.42547267675399780273e-02) (1, -1.82393968105316162109e+00) (2, -1.22903257608413696289e-01) (3, -1.99179077148437500000e+00) (0, 9.37750265002250671387e-02) (1, -1.14386282861232757568e-01) (2, -9.79047536849975585938e-01) (3, -6.16683959960937500000e-01) (0, -2.84579366445541381836e-01) (1, 1.65269196033477783203e+00) (2, 2.63234972953796386719e-01) (3, -1.49083101749420166016e+00) (4, 4.06617403030395507812e+00) (5, -1.84107363224029541016e+00) (6, -3.29161071777343750000e+00) (7, -4.21237945556640625000e-01) (8, 1.50761163234710693359e+00) (9, -7.57586136460304260254e-02) (4, 8.98798584938049316406e-01) (5, -1.79746735095977783203e+00) (6, 2.30674552917480468750e+00) (7, -4.65830421447753906250e+00) (8, -2.62791752815246582031e+00) (9, -1.59566283226013183594e+00) (4, 1.27072572708129882812e+00) (5, -2.31714892387390136719e+00) (6, 2.14918184280395507812e+00) (7, -1.43855583667755126953e+00) (8, -3.14111709594726562500e+00) (9, -1.02892184257507324219e+00) 
