FANN_FLO_2.1
num_layers=3
learning_rate=0.100000
connection_rate=1.000000
network_type=0
learning_momentum=0.000000
training_algorithm=1
train_error_function=1
train_stop_function=0
cascade_output_change_fraction=0.010000
quickprop_decay=-0.000100
quickprop_mu=1.750000
rprop_increase_factor=1.200000
rprop_decrease_factor=0.500000
rprop_delta_min=0.000000
rprop_delta_max=50.000000
rprop_delta_zero=0.100000
cascade_output_stagnation_epochs=12
cascade_candidate_change_fraction=0.010000
cascade_candidate_stagnation_epochs=12
cascade_max_out_epochs=150
cascade_min_out_epochs=50
cascade_max_cand_epochs=150
cascade_min_cand_epochs=50
cascade_num_candidate_groups=2
bit_fail_limit=3.49999994039535522461e-01
cascade_candidate_limit=1.00000000000000000000e+03
cascade_weight_multiplier=4.00000005960464477539e-01
cascade_activation_functions_count=10
cascade_activation_functions=3 5 7 8 10 11 14 15 16 17 
cascade_activation_steepnesses_count=4
cascade_activation_steepnesses=2.50000000000000000000e-01 5.00000000000000000000e-01 7.50000000000000000000e-01 1.00000000000000000000e+00 
layer_sizes=4 6 4 
scale_included=1
scale_mean_in=-0.004339 0.172797 0.070207 
scale_deviation_in=0.014660 0.016377 0.013020 
scale_new_min_in=-0.900000 -0.900000 -0.900000 
scale_factor_in=0.900000 0.900000 0.900000 
scale_mean_out=0.025198 2.042401 -1.463442 
scale_deviation_out=0.085650 0.276896 0.359529 
scale_new_min_out=-0.900000 -0.900000 -0.900000 
scale_factor_out=0.900000 0.900000 0.900000 
neurons (num_inputs, activation_function, activation_steepness)=(0, 0, 0.00000000000000000000e+00) (0, 0, 0.00000000000000000000e+00) (0, 0, 0.00000000000000000000e+00) (0, 0, 0.00000000000000000000e+00) (4, 5, 5.00000000000000000000e-01) (4, 5, 5.00000000000000000000e-01) (4, 5, 5.00000000000000000000e-01) (4, 5, 5.00000000000000000000e-01) (4, 5, 5.00000000000000000000e-01) (0, 5, 0.00000000000000000000e+00) (6, 5, 5.00000000000000000000e-01) (6, 5, 5.00000000000000000000e-01) (6, 5, 5.00000000000000000000e-01) (0, 5, 0.00000000000000000000e+00) 
connections (connected_to_neuron, weight)=(0, 1.45930838584899902344e+00) (1, -6.02300047874450683594e-01) (2, 8.53318423032760620117e-02) (3, 4.22460585832595825195e-01) (0, 6.10981762409210205078e-01) (1, 1.14882338047027587891e+00) (2, 8.77653136849403381348e-02) (3, 3.03574234247207641602e-01) (0, -1.54268756508827209473e-01) (1, 2.13981091976165771484e-01) (2, 1.23209989070892333984e+00) (3, 5.15272676944732666016e-01) (0, 6.25602543354034423828e-01) (1, -1.51688945293426513672e+00) (2, -3.27523797750473022461e-01) (3, 8.87374505400657653809e-02) (0, 1.11544632911682128906e+00) (1, 1.34246611595153808594e+00) (2, 3.12907725572586059570e-01) (3, -5.15871226787567138672e-01) (4, -1.82877373695373535156e+00) (5, -6.18630588054656982422e-01) (6, 4.57364052534103393555e-01) (7, -6.92231059074401855469e-01) (8, -1.25058126449584960938e+00) (9, 5.82477226853370666504e-02) (4, 2.95425713062286376953e-01) (5, -3.48917901515960693359e-01) (6, 1.64063766598701477051e-01) (7, 1.68438923358917236328e+00) (8, -1.22907876968383789062e+00) (9, -2.69820094108581542969e-01) (4, 8.73452425003051757812e-01) (5, -1.31264507770538330078e+00) (6, -1.12979567050933837891e+00) (7, 7.81360149383544921875e-01) (8, -8.49492847919464111328e-01) (9, 1.26515090465545654297e-01) 
