FANN_FLO_2.1
num_layers=3
learning_rate=0.100000
connection_rate=1.000000
network_type=0
learning_momentum=0.000000
training_algorithm=1
train_error_function=1
train_stop_function=0
cascade_output_change_fraction=0.010000
quickprop_decay=-0.000100
quickprop_mu=1.750000
rprop_increase_factor=1.200000
rprop_decrease_factor=0.500000
rprop_delta_min=0.000000
rprop_delta_max=50.000000
rprop_delta_zero=0.100000
cascade_output_stagnation_epochs=12
cascade_candidate_change_fraction=0.010000
cascade_candidate_stagnation_epochs=12
cascade_max_out_epochs=150
cascade_min_out_epochs=50
cascade_max_cand_epochs=150
cascade_min_cand_epochs=50
cascade_num_candidate_groups=2
bit_fail_limit=3.49999994039535522461e-01
cascade_candidate_limit=1.00000000000000000000e+03
cascade_weight_multiplier=4.00000005960464477539e-01
cascade_activation_functions_count=10
cascade_activation_functions=3 5 7 8 10 11 14 15 16 17 
cascade_activation_steepnesses_count=4
cascade_activation_steepnesses=2.50000000000000000000e-01 5.00000000000000000000e-01 7.50000000000000000000e-01 1.00000000000000000000e+00 
layer_sizes=4 6 4 
scale_included=1
scale_mean_in=-0.004261 0.053723 0.153973 
scale_deviation_in=0.014756 0.017280 0.007687 
scale_new_min_in=-0.900000 -0.900000 -0.900000 
scale_factor_in=0.900000 0.900000 0.900000 
scale_mean_out=0.080664 2.736903 -1.768803 
scale_deviation_out=0.302484 0.200196 0.265956 
scale_new_min_out=-0.900000 -0.900000 -0.900000 
scale_factor_out=0.900000 0.900000 0.900000 
neurons (num_inputs, activation_function, activation_steepness)=(0, 0, 0.00000000000000000000e+00) (0, 0, 0.00000000000000000000e+00) (0, 0, 0.00000000000000000000e+00) (0, 0, 0.00000000000000000000e+00) (4, 5, 5.00000000000000000000e-01) (4, 5, 5.00000000000000000000e-01) (4, 5, 5.00000000000000000000e-01) (4, 5, 5.00000000000000000000e-01) (4, 5, 5.00000000000000000000e-01) (0, 5, 0.00000000000000000000e+00) (6, 5, 5.00000000000000000000e-01) (6, 5, 5.00000000000000000000e-01) (6, 5, 5.00000000000000000000e-01) (0, 5, 0.00000000000000000000e+00) 
connections (connected_to_neuron, weight)=(0, 4.99007329344749450684e-02) (1, -3.57545822858810424805e-01) (2, -1.91413927078247070312e+00) (3, 3.96840840578079223633e-01) (0, -1.59329140186309814453e+00) (1, 1.86606660485267639160e-01) (2, -1.21074184775352478027e-01) (3, 3.15829701721668243408e-02) (0, 4.91454392671585083008e-01) (1, 1.04555463790893554688e+00) (2, 7.36202418804168701172e-01) (3, 3.28323155641555786133e-01) (0, 1.02136015892028808594e+00) (1, 6.73066973686218261719e-01) (2, 6.84164226055145263672e-01) (3, -1.06699407100677490234e-01) (0, 1.14401686191558837891e+00) (1, -5.33010065555572509766e-01) (2, -1.13458228111267089844e+00) (3, -1.58322319388389587402e-01) (4, 6.07516756281256675720e-03) (5, 1.79197716712951660156e+00) (6, -7.83115446567535400391e-01) (7, -9.04902637004852294922e-01) (8, -1.30559861660003662109e+00) (9, -6.12846575677394866943e-02) (4, 1.13493967056274414062e+00) (5, -5.85499584674835205078e-01) (6, -1.53890788555145263672e+00) (7, -1.02959489822387695312e+00) (8, 9.94018852710723876953e-01) (9, 1.42766535282135009766e-01) (4, 2.07985782623291015625e+00) (5, 3.50342094898223876953e-01) (6, -5.58858036994934082031e-01) (7, -2.72388368844985961914e-01) (8, 9.45185363292694091797e-01) (9, 2.07899982342496514320e-04) 
