FANN_FLO_2.1
num_layers=3
learning_rate=0.100000
connection_rate=1.000000
network_type=0
learning_momentum=0.000000
training_algorithm=1
train_error_function=1
train_stop_function=0
cascade_output_change_fraction=0.010000
quickprop_decay=-0.000100
quickprop_mu=1.750000
rprop_increase_factor=1.200000
rprop_decrease_factor=0.500000
rprop_delta_min=0.000000
rprop_delta_max=50.000000
rprop_delta_zero=0.100000
cascade_output_stagnation_epochs=12
cascade_candidate_change_fraction=0.010000
cascade_candidate_stagnation_epochs=12
cascade_max_out_epochs=150
cascade_min_out_epochs=50
cascade_max_cand_epochs=150
cascade_min_cand_epochs=50
cascade_num_candidate_groups=2
bit_fail_limit=3.49999994039535522461e-01
cascade_candidate_limit=1.00000000000000000000e+03
cascade_weight_multiplier=4.00000005960464477539e-01
cascade_activation_functions_count=10
cascade_activation_functions=3 5 7 8 10 11 14 15 16 17 
cascade_activation_steepnesses_count=4
cascade_activation_steepnesses=2.50000000000000000000e-01 5.00000000000000000000e-01 7.50000000000000000000e-01 1.00000000000000000000e+00 
layer_sizes=4 11 4 
scale_included=1
scale_mean_in=0.129725 -0.031896 -0.076411 
scale_deviation_in=0.019199 0.010188 0.012835 
scale_new_min_in=-0.900000 -0.900000 -0.900000 
scale_factor_in=0.900000 0.900000 0.900000 
scale_mean_out=-1.811736 1.588333 -0.613155 
scale_deviation_out=0.067152 0.232521 0.271468 
scale_new_min_out=-0.900000 -0.900000 -0.900000 
scale_factor_out=0.900000 0.900000 0.900000 
neurons (num_inputs, activation_function, activation_steepness)=(0, 0, 0.00000000000000000000e+00) (0, 0, 0.00000000000000000000e+00) (0, 0, 0.00000000000000000000e+00) (0, 0, 0.00000000000000000000e+00) (4, 5, 5.00000000000000000000e-01) (4, 5, 5.00000000000000000000e-01) (4, 5, 5.00000000000000000000e-01) (4, 5, 5.00000000000000000000e-01) (4, 5, 5.00000000000000000000e-01) (4, 5, 5.00000000000000000000e-01) (4, 5, 5.00000000000000000000e-01) (4, 5, 5.00000000000000000000e-01) (4, 5, 5.00000000000000000000e-01) (4, 5, 5.00000000000000000000e-01) (0, 5, 0.00000000000000000000e+00) (11, 5, 5.00000000000000000000e-01) (11, 5, 5.00000000000000000000e-01) (11, 5, 5.00000000000000000000e-01) (0, 5, 0.00000000000000000000e+00) 
connections (connected_to_neuron, weight)=(0, -5.62546610832214355469e-01) (1, -1.05197179317474365234e+00) (2, 6.39494001865386962891e-01) (3, -6.71375095844268798828e-02) (0, 8.36668908596038818359e-01) (1, 3.04346740245819091797e-01) (2, -1.60454675555229187012e-01) (3, 9.03997540473937988281e-01) (0, -1.36241286993026733398e-01) (1, -1.09803631901741027832e-01) (2, -1.34611928462982177734e+00) (3, 1.88619527034461498260e-03) (0, 4.90960180759429931641e-01) (1, -2.14250043034553527832e-01) (2, 2.53768324851989746094e-01) (3, -6.44774913787841796875e-01) (0, -1.70049643516540527344e+00) (1, -2.95770645141601562500e-01) (2, 3.02644014358520507812e-01) (3, 6.99151933193206787109e-01) (0, 1.03766191005706787109e+00) (1, 1.55924117565155029297e+00) (2, -2.36035913228988647461e-01) (3, 1.90189734101295471191e-01) (0, 2.80453056097030639648e-01) (1, -1.26393675804138183594e+00) (2, -7.37933993339538574219e-01) (3, 4.53288674354553222656e-01) (0, 7.91945159435272216797e-01) (1, 1.01566664874553680420e-01) (2, -7.25166857242584228516e-01) (3, 4.70863133668899536133e-01) (0, -3.84409159421920776367e-01) (1, 1.35764324665069580078e+00) (2, 1.23952209949493408203e-01) (3, 8.38217437267303466797e-01) (0, 2.94042974710464477539e-02) (1, 4.98981416225433349609e-01) (2, 8.37539732456207275391e-01) (3, 5.13515055179595947266e-01) (4, -9.82675015926361083984e-01) (5, 5.49541354179382324219e-01) (6, -2.92690843343734741211e-01) (7, -3.71462285518646240234e-01) (8, -5.72045683860778808594e-01) (9, 2.34003114700317382812e+00) (10, -1.51492071151733398438e+00) (11, 1.09626218676567077637e-01) (12, 6.16210579872131347656e-01) (13, 1.43637046217918395996e-01) (14, -4.12235498428344726562e-01) (4, 9.37857270240783691406e-01) (5, -8.08513462543487548828e-01) (6, -1.57615613937377929688e+00) (7, 3.43302160501480102539e-01) (8, 8.17352056503295898438e-01) (9, -5.40566146373748779297e-01) (10, -1.34976375102996826172e+00) (11, -6.45847380161285400391e-01) (12, 4.88026499748229980469e-01) (13, 9.74856197834014892578e-01) (14, 9.50656980276107788086e-02) (4, 3.05392265319824218750e-01) (5, -4.66439485549926757812e-01) (6, 2.70091672427952289581e-03) (7, -4.04876738786697387695e-01) (8, 1.66837048530578613281e+00) (9, -1.00054860115051269531e+00) (10, -1.11025476455688476562e+00) (11, -1.00875759124755859375e+00) (12, 1.45445752143859863281e+00) (13, 2.32669979333877563477e-01) (14, -4.32426363229751586914e-01) 
