FANN_FLO_2.1
num_layers=3
learning_rate=0.100000
connection_rate=1.000000
network_type=0
learning_momentum=0.000000
training_algorithm=1
train_error_function=1
train_stop_function=0
cascade_output_change_fraction=0.010000
quickprop_decay=-0.000100
quickprop_mu=1.750000
rprop_increase_factor=1.200000
rprop_decrease_factor=0.500000
rprop_delta_min=0.000000
rprop_delta_max=50.000000
rprop_delta_zero=0.100000
cascade_output_stagnation_epochs=12
cascade_candidate_change_fraction=0.010000
cascade_candidate_stagnation_epochs=12
cascade_max_out_epochs=150
cascade_min_out_epochs=50
cascade_max_cand_epochs=150
cascade_min_cand_epochs=50
cascade_num_candidate_groups=2
bit_fail_limit=3.49999994039535522461e-01
cascade_candidate_limit=1.00000000000000000000e+03
cascade_weight_multiplier=4.00000005960464477539e-01
cascade_activation_functions_count=10
cascade_activation_functions=3 5 7 8 10 11 14 15 16 17 
cascade_activation_steepnesses_count=4
cascade_activation_steepnesses=2.50000000000000000000e-01 5.00000000000000000000e-01 7.50000000000000000000e-01 1.00000000000000000000e+00 
layer_sizes=4 11 4 
scale_included=1
scale_mean_in=0.158370 0.019225 0.001836 
scale_deviation_in=0.003995 0.018067 0.009441 
scale_new_min_in=-0.900000 -0.900000 -0.900000 
scale_factor_in=0.900000 0.900000 0.900000 
scale_mean_out=-1.450692 2.172702 -0.759603 
scale_deviation_out=0.112899 0.045466 0.080036 
scale_new_min_out=-0.900000 -0.900000 -0.900000 
scale_factor_out=0.900000 0.900000 0.900000 
neurons (num_inputs, activation_function, activation_steepness)=(0, 0, 0.00000000000000000000e+00) (0, 0, 0.00000000000000000000e+00) (0, 0, 0.00000000000000000000e+00) (0, 0, 0.00000000000000000000e+00) (4, 5, 5.00000000000000000000e-01) (4, 5, 5.00000000000000000000e-01) (4, 5, 5.00000000000000000000e-01) (4, 5, 5.00000000000000000000e-01) (4, 5, 5.00000000000000000000e-01) (4, 5, 5.00000000000000000000e-01) (4, 5, 5.00000000000000000000e-01) (4, 5, 5.00000000000000000000e-01) (4, 5, 5.00000000000000000000e-01) (4, 5, 5.00000000000000000000e-01) (0, 5, 0.00000000000000000000e+00) (11, 5, 5.00000000000000000000e-01) (11, 5, 5.00000000000000000000e-01) (11, 5, 5.00000000000000000000e-01) (0, 5, 0.00000000000000000000e+00) 
connections (connected_to_neuron, weight)=(0, -5.98229289054870605469e-01) (1, -2.63300156593322753906e+00) (2, -3.36895942687988281250e-01) (3, 3.09566950798034667969e+00) (0, 1.25548291206359863281e+00) (1, 1.59095489978790283203e+00) (2, -2.22106719017028808594e+00) (3, -2.70952630043029785156e+00) (0, -2.37581998109817504883e-01) (1, 2.46428817510604858398e-01) (2, 1.99316346645355224609e+00) (3, 7.93214917182922363281e-01) (0, -9.60554331541061401367e-02) (1, 3.12807589769363403320e-01) (2, -1.35191357135772705078e+00) (3, 2.15486168861389160156e+00) (0, -3.79195392131805419922e-01) (1, -3.19531410932540893555e-01) (2, 7.59221017360687255859e-01) (3, 3.96980792284011840820e-01) (0, 6.74920380115509033203e-01) (1, -7.32628881931304931641e-01) (2, -6.32807850837707519531e-01) (3, 1.51255142688751220703e+00) (0, 4.25352066755294799805e-01) (1, 2.71952509880065917969e+00) (2, -3.28611105680465698242e-01) (3, 2.95964288711547851562e+00) (0, -2.03965768218040466309e-01) (1, -6.80114924907684326172e-01) (2, 1.86444129794836044312e-02) (3, -1.43260884284973144531e+00) (0, -1.19367718696594238281e+00) (1, 3.22088629007339477539e-01) (2, -2.70409137010574340820e-01) (3, 2.01659917831420898438e-01) (0, -1.18782866001129150391e+00) (1, -1.52811318635940551758e-01) (2, 4.80941832065582275391e-02) (3, -2.18373703956604003906e+00) (4, -1.48555409908294677734e+00) (5, 9.91492331027984619141e-01) (6, 8.41107487678527832031e-01) (7, 6.57457053661346435547e-01) (8, -4.69171196222305297852e-01) (9, -1.98929834365844726562e+00) (10, 2.89295339584350585938e+00) (11, -2.12493729591369628906e+00) (12, 5.66613733768463134766e-01) (13, 6.16149187088012695312e-01) (14, -6.71781837940216064453e-01) (4, 2.04295134544372558594e+00) (5, -3.30791926383972167969e+00) (6, 1.74630534648895263672e+00) (7, -2.11153650283813476562e+00) (8, 3.17510867118835449219e+00) (9, 1.17830209434032440186e-01) (10, 8.40399205684661865234e-01) (11, 1.88827264308929443359e+00) (12, 3.15310215950012207031e+00) (13, 2.94834703207015991211e-01) (14, -2.81695818901062011719e+00) (4, 3.54184246063232421875e+00) (5, 1.76541894674301147461e-01) (6, 1.37193298339843750000e+00) (7, 2.77032876014709472656e+00) (8, -1.30185818672180175781e+00) (9, 1.18903028964996337891e+00) (10, -3.73377650976181030273e-01) (11, 1.47046792507171630859e+00) (12, 2.49659991264343261719e+00) (13, 3.13839817047119140625e+00) (14, -1.91759157180786132812e+00) 
