FANN_FLO_2.1
num_layers=3
learning_rate=0.100000
connection_rate=1.000000
network_type=0
learning_momentum=0.000000
training_algorithm=1
train_error_function=1
train_stop_function=0
cascade_output_change_fraction=0.010000
quickprop_decay=-0.000100
quickprop_mu=1.750000
rprop_increase_factor=1.200000
rprop_decrease_factor=0.500000
rprop_delta_min=0.000000
rprop_delta_max=50.000000
rprop_delta_zero=0.100000
cascade_output_stagnation_epochs=12
cascade_candidate_change_fraction=0.010000
cascade_candidate_stagnation_epochs=12
cascade_max_out_epochs=150
cascade_min_out_epochs=50
cascade_max_cand_epochs=150
cascade_min_cand_epochs=50
cascade_num_candidate_groups=2
bit_fail_limit=3.49999994039535522461e-01
cascade_candidate_limit=1.00000000000000000000e+03
cascade_weight_multiplier=4.00000005960464477539e-01
cascade_activation_functions_count=10
cascade_activation_functions=3 5 7 8 10 11 14 15 16 17 
cascade_activation_steepnesses_count=4
cascade_activation_steepnesses=2.50000000000000000000e-01 5.00000000000000000000e-01 7.50000000000000000000e-01 1.00000000000000000000e+00 
layer_sizes=4 11 4 
scale_included=1
scale_mean_in=0.127949 0.075836 -0.076778 
scale_deviation_in=0.019201 0.018015 0.012909 
scale_new_min_in=-0.900000 -0.900000 -0.900000 
scale_factor_in=0.900000 0.900000 0.900000 
scale_mean_out=-1.035385 1.475885 -0.825507 
scale_deviation_out=0.119146 0.223930 0.287708 
scale_new_min_out=-0.900000 -0.900000 -0.900000 
scale_factor_out=0.900000 0.900000 0.900000 
neurons (num_inputs, activation_function, activation_steepness)=(0, 0, 0.00000000000000000000e+00) (0, 0, 0.00000000000000000000e+00) (0, 0, 0.00000000000000000000e+00) (0, 0, 0.00000000000000000000e+00) (4, 5, 5.00000000000000000000e-01) (4, 5, 5.00000000000000000000e-01) (4, 5, 5.00000000000000000000e-01) (4, 5, 5.00000000000000000000e-01) (4, 5, 5.00000000000000000000e-01) (4, 5, 5.00000000000000000000e-01) (4, 5, 5.00000000000000000000e-01) (4, 5, 5.00000000000000000000e-01) (4, 5, 5.00000000000000000000e-01) (4, 5, 5.00000000000000000000e-01) (0, 5, 0.00000000000000000000e+00) (11, 5, 5.00000000000000000000e-01) (11, 5, 5.00000000000000000000e-01) (11, 5, 5.00000000000000000000e-01) (0, 5, 0.00000000000000000000e+00) 
connections (connected_to_neuron, weight)=(0, 3.60883921384811401367e-01) (1, 1.06703400611877441406e+00) (2, 1.39045685529708862305e-01) (3, 7.04382121562957763672e-01) (0, 3.60415577888488769531e-01) (1, -4.56082746386528015137e-02) (2, -3.38564455509185791016e-01) (3, 8.59941124916076660156e-01) (0, -7.40747332572937011719e-01) (1, 4.45230901241302490234e-01) (2, -1.27740502357482910156e+00) (3, 8.00984278321266174316e-02) (0, -4.06362503767013549805e-01) (1, -1.38016664981842041016e+00) (2, -3.98100823163986206055e-01) (3, 1.27769660949707031250e+00) (0, 1.93285405635833740234e-01) (1, -6.01295530796051025391e-01) (2, -9.56948101520538330078e-01) (3, 2.12836384773254394531e-01) (0, 1.03983891010284423828e+00) (1, 4.13261428475379943848e-02) (2, 2.84484773874282836914e-01) (3, 1.40498876571655273438e-01) (0, -1.72377794981002807617e-01) (1, 6.27763807773590087891e-01) (2, -4.68518227338790893555e-01) (3, 1.40638172626495361328e-01) (0, -1.38697469234466552734e+00) (1, 5.73881924152374267578e-01) (2, 1.01977372542023658752e-02) (3, -1.83255100250244140625e+00) (0, 6.87914967536926269531e-01) (1, -4.60141867399215698242e-01) (2, -7.66999542713165283203e-01) (3, -9.95445549488067626953e-01) (0, -1.52120828628540039062e+00) (1, 1.43928587436676025391e-01) (2, -5.96391499042510986328e-01) (3, 1.02562224864959716797e+00) (4, 3.22974586486816406250e+00) (5, -3.51367056369781494141e-01) (6, 5.74675023555755615234e-01) (7, -1.82973831892013549805e-01) (8, -1.20625770092010498047e+00) (9, -1.99048066139221191406e+00) (10, 1.46986103057861328125e+00) (11, 2.01063489913940429688e+00) (12, -4.11937147378921508789e-01) (13, 1.01373009383678436279e-01) (14, 5.08065700531005859375e-01) (4, -4.70834195613861083984e-01) (5, -8.91300737857818603516e-01) (6, -2.68478298187255859375e+00) (7, 1.75898218154907226562e+00) (8, -2.66332721710205078125e+00) (9, -9.19946849346160888672e-01) (10, -1.38157248497009277344e+00) (11, 3.54624450206756591797e-01) (12, -6.01461291313171386719e-01) (13, 2.21584773063659667969e+00) (14, -6.36180102825164794922e-01) (4, -1.18225538730621337891e+00) (5, -1.22011852264404296875e+00) (6, -1.08335530757904052734e+00) (7, 1.56903421878814697266e+00) (8, -9.56180572509765625000e-01) (9, -1.31532156467437744141e+00) (10, -1.82167327404022216797e+00) (11, 1.47817283868789672852e-01) (12, -1.38567411899566650391e+00) (13, 2.12998795509338378906e+00) (14, -7.45856463909149169922e-01) 
