FANN_FLO_2.1
num_layers=3
learning_rate=0.100000
connection_rate=1.000000
network_type=0
learning_momentum=0.000000
training_algorithm=1
train_error_function=1
train_stop_function=0
cascade_output_change_fraction=0.010000
quickprop_decay=-0.000100
quickprop_mu=1.750000
rprop_increase_factor=1.200000
rprop_decrease_factor=0.500000
rprop_delta_min=0.000000
rprop_delta_max=50.000000
rprop_delta_zero=0.100000
cascade_output_stagnation_epochs=12
cascade_candidate_change_fraction=0.010000
cascade_candidate_stagnation_epochs=12
cascade_max_out_epochs=150
cascade_min_out_epochs=50
cascade_max_cand_epochs=150
cascade_min_cand_epochs=50
cascade_num_candidate_groups=2
bit_fail_limit=3.49999994039535522461e-01
cascade_candidate_limit=1.00000000000000000000e+03
cascade_weight_multiplier=4.00000005960464477539e-01
cascade_activation_functions_count=10
cascade_activation_functions=3 5 7 8 10 11 14 15 16 17 
cascade_activation_steepnesses_count=4
cascade_activation_steepnesses=2.50000000000000000000e-01 5.00000000000000000000e-01 7.50000000000000000000e-01 1.00000000000000000000e+00 
layer_sizes=4 11 4 
scale_included=1
scale_mean_in=0.143718 0.139646 0.013327 
scale_deviation_in=0.014872 0.018283 0.013018 
scale_new_min_in=-0.900000 -0.900000 -0.900000 
scale_factor_in=0.900000 0.900000 0.900000 
scale_mean_out=-0.801010 1.546039 -1.703005 
scale_deviation_out=0.060645 0.451421 0.658252 
scale_new_min_out=-0.900000 -0.900000 -0.900000 
scale_factor_out=0.900000 0.900000 0.900000 
neurons (num_inputs, activation_function, activation_steepness)=(0, 0, 0.00000000000000000000e+00) (0, 0, 0.00000000000000000000e+00) (0, 0, 0.00000000000000000000e+00) (0, 0, 0.00000000000000000000e+00) (4, 5, 5.00000000000000000000e-01) (4, 5, 5.00000000000000000000e-01) (4, 5, 5.00000000000000000000e-01) (4, 5, 5.00000000000000000000e-01) (4, 5, 5.00000000000000000000e-01) (4, 5, 5.00000000000000000000e-01) (4, 5, 5.00000000000000000000e-01) (4, 5, 5.00000000000000000000e-01) (4, 5, 5.00000000000000000000e-01) (4, 5, 5.00000000000000000000e-01) (0, 5, 0.00000000000000000000e+00) (11, 5, 5.00000000000000000000e-01) (11, 5, 5.00000000000000000000e-01) (11, 5, 5.00000000000000000000e-01) (0, 5, 0.00000000000000000000e+00) 
connections (connected_to_neuron, weight)=(0, 4.18606609106063842773e-01) (1, -2.53817260265350341797e-01) (2, 2.41619467735290527344e-01) (3, 9.01134848594665527344e-01) (0, -2.82635062932968139648e-01) (1, 6.35078012943267822266e-01) (2, 4.64138001203536987305e-01) (3, -3.69929015636444091797e-01) (0, 3.55387806892395019531e+00) (1, -4.91902351379394531250e+00) (2, -2.12391000241041183472e-02) (3, -5.17122411727905273438e+00) (0, 6.44581317901611328125e-01) (1, -4.80187207460403442383e-01) (2, 2.09151685237884521484e-01) (3, 7.21584558486938476562e-01) (0, -3.61506611108779907227e-01) (1, 7.41504728794097900391e-01) (2, 2.73939132690429687500e-01) (3, -1.05385732650756835938e+00) (0, 5.32987833023071289062e-01) (1, -3.95531684160232543945e-01) (2, -9.13482904434204101562e-02) (3, 1.08401906490325927734e+00) (0, 4.76473379135131835938e+00) (1, 6.12435388565063476562e+00) (2, 8.65549087524414062500e-01) (3, -8.90113067626953125000e+00) (0, 9.38873231410980224609e-01) (1, 2.45472073554992675781e-01) (2, 7.98108577728271484375e-02) (3, 2.29646515846252441406e+00) (0, 1.92455485463142395020e-01) (1, -7.02339172363281250000e-01) (2, 4.16514426469802856445e-01) (3, 8.88300836086273193359e-01) (0, -1.23974049091339111328e+00) (1, -1.86764240264892578125e+00) (2, 8.91907215118408203125e-02) (3, -3.28034973144531250000e+00) (4, -1.03076112270355224609e+00) (5, 2.62645125389099121094e+00) (6, -7.77447414398193359375e+00) (7, -1.78853905200958251953e+00) (8, 1.48753547668457031250e+00) (9, -1.76864695549011230469e+00) (10, -2.09441110491752624512e-01) (11, -1.84921669960021972656e+00) (12, -2.66476511955261230469e+00) (13, -2.89670556783676147461e-01) (14, -2.42132973670959472656e+00) (4, 3.29074263572692871094e-01) (5, 3.36861819028854370117e-01) (6, -6.08119405806064605713e-02) (7, -1.96908652782440185547e-01) (8, -1.07757079601287841797e+00) (9, -1.70945703983306884766e+00) (10, -5.57344150543212890625e+00) (11, -2.19549679756164550781e+00) (12, 1.45185375213623046875e+00) (13, 2.56331825256347656250e+00) (14, -1.24704349040985107422e+00) (4, -1.52794492244720458984e+00) (5, -1.08289682865142822266e+00) (6, -6.92203640937805175781e-02) (7, 3.18059958517551422119e-02) (8, 7.36265257000923156738e-02) (9, -5.16210496425628662109e-01) (10, -5.76353979110717773438e+00) (11, -2.00675272941589355469e+00) (12, 1.04598033428192138672e+00) (13, 2.20703077316284179688e+00) (14, -1.27869570255279541016e+00) 
