FANN_FLO_2.1
num_layers=3
learning_rate=0.100000
connection_rate=1.000000
network_type=0
learning_momentum=0.000000
training_algorithm=1
train_error_function=1
train_stop_function=0
cascade_output_change_fraction=0.010000
quickprop_decay=-0.000100
quickprop_mu=1.750000
rprop_increase_factor=1.200000
rprop_decrease_factor=0.500000
rprop_delta_min=0.000000
rprop_delta_max=50.000000
rprop_delta_zero=0.100000
cascade_output_stagnation_epochs=12
cascade_candidate_change_fraction=0.010000
cascade_candidate_stagnation_epochs=12
cascade_max_out_epochs=150
cascade_min_out_epochs=50
cascade_max_cand_epochs=150
cascade_min_cand_epochs=50
cascade_num_candidate_groups=2
bit_fail_limit=3.49999994039535522461e-01
cascade_candidate_limit=1.00000000000000000000e+03
cascade_weight_multiplier=4.00000005960464477539e-01
cascade_activation_functions_count=10
cascade_activation_functions=3 5 7 8 10 11 14 15 16 17 
cascade_activation_steepnesses_count=4
cascade_activation_steepnesses=2.50000000000000000000e-01 5.00000000000000000000e-01 7.50000000000000000000e-01 1.00000000000000000000e+00 
layer_sizes=4 11 4 
scale_included=1
scale_mean_in=0.169864 0.012740 -0.151061 
scale_deviation_in=0.004211 0.016931 0.003923 
scale_new_min_in=-0.900000 -0.900000 -0.900000 
scale_factor_in=0.900000 0.900000 0.900000 
scale_mean_out=-1.496445 0.105589 -2.396094 
scale_deviation_out=0.098741 0.135446 0.217427 
scale_new_min_out=-0.900000 -0.900000 -0.900000 
scale_factor_out=0.900000 0.900000 0.900000 
neurons (num_inputs, activation_function, activation_steepness)=(0, 0, 0.00000000000000000000e+00) (0, 0, 0.00000000000000000000e+00) (0, 0, 0.00000000000000000000e+00) (0, 0, 0.00000000000000000000e+00) (4, 5, 5.00000000000000000000e-01) (4, 5, 5.00000000000000000000e-01) (4, 5, 5.00000000000000000000e-01) (4, 5, 5.00000000000000000000e-01) (4, 5, 5.00000000000000000000e-01) (4, 5, 5.00000000000000000000e-01) (4, 5, 5.00000000000000000000e-01) (4, 5, 5.00000000000000000000e-01) (4, 5, 5.00000000000000000000e-01) (4, 5, 5.00000000000000000000e-01) (0, 5, 0.00000000000000000000e+00) (11, 5, 5.00000000000000000000e-01) (11, 5, 5.00000000000000000000e-01) (11, 5, 5.00000000000000000000e-01) (0, 5, 0.00000000000000000000e+00) 
connections (connected_to_neuron, weight)=(0, -3.57783704996109008789e-01) (1, -2.58761835098266601562e+00) (2, -1.40720233321189880371e-01) (3, 3.82104110717773437500e+00) (0, 2.06504702568054199219e+00) (1, -8.01778674125671386719e-01) (2, -8.94555687904357910156e-01) (3, 4.39879775047302246094e-01) (0, 1.63863468170166015625e+00) (1, -1.29789161682128906250e+00) (2, -3.61083745956420898438e-01) (3, -1.75174176692962646484e+00) (0, -3.58542776107788085938e+00) (1, -1.43469929695129394531e+00) (2, -2.67507100105285644531e+00) (3, 1.67391157150268554688e+00) (0, -7.77391850948333740234e-01) (1, -1.12043762207031250000e+00) (2, 1.57437205314636230469e+00) (3, -3.47281932830810546875e-01) (0, -6.72918081283569335938e-01) (1, -1.48100972175598144531e+00) (2, -5.80971181392669677734e-01) (3, -1.49856936931610107422e+00) (0, -7.02192187309265136719e-01) (1, 3.81112366914749145508e-01) (2, 2.68125700950622558594e+00) (3, -5.26610076427459716797e-01) (0, 9.27703499794006347656e-01) (1, 2.89465498924255371094e+00) (2, -1.10918712615966796875e+00) (3, -9.36456143856048583984e-01) (0, 7.84945428371429443359e-01) (1, -1.27958786487579345703e+00) (2, 2.66193723678588867188e+00) (3, 5.31583368778228759766e-01) (0, -5.18158388137817382812e+00) (1, -1.44548726081848144531e+00) (2, 5.55190467834472656250e+00) (3, -4.46771383285522460938e+00) (4, -2.81473350524902343750e+00) (5, -1.72690904140472412109e+00) (6, -1.88240990042686462402e-01) (7, 4.44443970918655395508e-02) (8, -3.67386102676391601562e+00) (9, -2.54172778129577636719e+00) (10, 1.25680220127105712891e+00) (11, -9.16130065917968750000e-01) (12, 6.53788596391677856445e-02) (13, -2.46491879224777221680e-01) (14, 5.93011915683746337891e-01) (4, 5.01899576187133789062e+00) (5, -2.91021370887756347656e+00) (6, -5.44513797760009765625e+00) (7, 3.49993610382080078125e+00) (8, 2.86779212951660156250e+00) (9, -2.08367085456848144531e+00) (10, 5.05529594421386718750e+00) (11, -3.21236085891723632812e+00) (12, 2.40756797790527343750e+00) (13, 8.89177513122558593750e+00) (14, 3.04185199737548828125e+00) (4, 5.30112171173095703125e+00) (5, -3.00880718231201171875e+00) (6, -5.88217544555664062500e+00) (7, 3.66164565086364746094e+00) (8, 3.09580183029174804688e+00) (9, -1.95511698722839355469e+00) (10, 4.75799465179443359375e+00) (11, -3.36679172515869140625e+00) (12, 2.10555243492126464844e+00) (13, 8.66201210021972656250e+00) (14, 2.45172834396362304688e+00) 
