FANN_FLO_2.1
num_layers=3
learning_rate=0.100000
connection_rate=1.000000
network_type=0
learning_momentum=0.000000
training_algorithm=1
train_error_function=1
train_stop_function=0
cascade_output_change_fraction=0.010000
quickprop_decay=-0.000100
quickprop_mu=1.750000
rprop_increase_factor=1.200000
rprop_decrease_factor=0.500000
rprop_delta_min=0.000000
rprop_delta_max=50.000000
rprop_delta_zero=0.100000
cascade_output_stagnation_epochs=12
cascade_candidate_change_fraction=0.010000
cascade_candidate_stagnation_epochs=12
cascade_max_out_epochs=150
cascade_min_out_epochs=50
cascade_max_cand_epochs=150
cascade_min_cand_epochs=50
cascade_num_candidate_groups=2
bit_fail_limit=3.49999994039535522461e-01
cascade_candidate_limit=1.00000000000000000000e+03
cascade_weight_multiplier=4.00000005960464477539e-01
cascade_activation_functions_count=10
cascade_activation_functions=3 5 7 8 10 11 14 15 16 17 
cascade_activation_steepnesses_count=4
cascade_activation_steepnesses=2.50000000000000000000e-01 5.00000000000000000000e-01 7.50000000000000000000e-01 1.00000000000000000000e+00 
layer_sizes=4 11 4 
scale_included=1
scale_mean_in=0.179427 0.013750 0.100899 
scale_deviation_in=0.010124 0.017860 0.011919 
scale_new_min_in=-0.900000 -0.900000 -0.900000 
scale_factor_in=0.900000 0.900000 0.900000 
scale_mean_out=-1.494269 1.597839 -2.397068 
scale_deviation_out=0.099180 0.292741 0.448122 
scale_new_min_out=-0.900000 -0.900000 -0.900000 
scale_factor_out=0.900000 0.900000 0.900000 
neurons (num_inputs, activation_function, activation_steepness)=(0, 0, 0.00000000000000000000e+00) (0, 0, 0.00000000000000000000e+00) (0, 0, 0.00000000000000000000e+00) (0, 0, 0.00000000000000000000e+00) (4, 5, 5.00000000000000000000e-01) (4, 5, 5.00000000000000000000e-01) (4, 5, 5.00000000000000000000e-01) (4, 5, 5.00000000000000000000e-01) (4, 5, 5.00000000000000000000e-01) (4, 5, 5.00000000000000000000e-01) (4, 5, 5.00000000000000000000e-01) (4, 5, 5.00000000000000000000e-01) (4, 5, 5.00000000000000000000e-01) (4, 5, 5.00000000000000000000e-01) (0, 5, 0.00000000000000000000e+00) (11, 5, 5.00000000000000000000e-01) (11, 5, 5.00000000000000000000e-01) (11, 5, 5.00000000000000000000e-01) (0, 5, 0.00000000000000000000e+00) 
connections (connected_to_neuron, weight)=(0, 4.00842934846878051758e-01) (1, -3.83470542728900909424e-02) (2, -7.24556505680084228516e-01) (3, -1.26840662956237792969e+00) (0, -4.79678273200988769531e-01) (1, -8.17440867424011230469e-01) (2, -2.88117416203022003174e-02) (3, -8.30121278762817382812e-01) (0, -7.08881378173828125000e-01) (1, 1.07683908939361572266e+00) (2, -3.84552150964736938477e-01) (3, -7.67535448074340820312e-01) (0, 7.63510608673095703125e+00) (1, 1.08118140697479248047e+00) (2, 7.51260519027709960938e+00) (3, 4.89111948013305664062e+00) (0, -3.52760344743728637695e-01) (1, 1.28391134738922119141e+00) (2, 1.85298155993223190308e-02) (3, -2.33853483200073242188e+00) (0, -6.95012956857681274414e-02) (1, -1.09933030605316162109e+00) (2, -2.74086862802505493164e-01) (3, -2.05299735069274902344e+00) (0, 1.11626371741294860840e-01) (1, 1.08479566872119903564e-01) (2, 2.84776687622070312500e-01) (3, 2.67579221725463867188e+00) (0, -4.07642219215631484985e-03) (1, 3.29525083303451538086e-01) (2, 2.31718492507934570312e+00) (3, 3.84264141321182250977e-01) (0, -3.77539247274398803711e-01) (1, 3.90309512615203857422e-01) (2, -7.31244161725044250488e-02) (3, -6.79695308208465576172e-01) (0, -2.98431187868118286133e-01) (1, 8.92846345901489257812e-01) (2, -5.40049672126770019531e-01) (3, -3.03442811965942382812e+00) (4, 5.15929937362670898438e-01) (5, -2.50744700431823730469e+00) (6, 1.18383800983428955078e+00) (7, 5.89283183217048645020e-03) (8, 2.25838828086853027344e+00) (9, -2.70783472061157226562e+00) (10, 1.70242130756378173828e+00) (11, 2.74554759263992309570e-01) (12, 1.40370321273803710938e+00) (13, 2.12448120117187500000e+00) (14, 3.47312510013580322266e-01) (4, -2.74679231643676757812e+00) (5, 4.69039380550384521484e-01) (6, 1.24279774725437164307e-01) (7, -1.04024782180786132812e+01) (8, -2.92643398046493530273e-01) (9, -1.22264957427978515625e+00) (10, 2.83611893653869628906e+00) (11, -7.80218183994293212891e-01) (12, 4.39001888036727905273e-01) (13, -2.83920097351074218750e+00) (14, 2.57422113418579101562e+00) (4, -1.22561573982238769531e+00) (5, -1.91184952855110168457e-01) (6, 9.97003555297851562500e-01) (7, -1.07495622634887695312e+01) (8, -8.19205403327941894531e-01) (9, -6.54277861118316650391e-01) (10, 3.06220746040344238281e+00) (11, -5.88888764381408691406e-01) (12, -1.36096835136413574219e+00) (13, -2.32199048995971679688e+00) (14, 3.40395808219909667969e+00) 
