FANN_FLO_2.1
num_layers=3
learning_rate=0.100000
connection_rate=1.000000
network_type=0
learning_momentum=0.000000
training_algorithm=1
train_error_function=1
train_stop_function=0
cascade_output_change_fraction=0.010000
quickprop_decay=-0.000100
quickprop_mu=1.750000
rprop_increase_factor=1.200000
rprop_decrease_factor=0.500000
rprop_delta_min=0.000000
rprop_delta_max=50.000000
rprop_delta_zero=0.100000
cascade_output_stagnation_epochs=12
cascade_candidate_change_fraction=0.010000
cascade_candidate_stagnation_epochs=12
cascade_max_out_epochs=150
cascade_min_out_epochs=50
cascade_max_cand_epochs=150
cascade_min_cand_epochs=50
cascade_num_candidate_groups=2
bit_fail_limit=3.49999994039535522461e-01
cascade_candidate_limit=1.00000000000000000000e+03
cascade_weight_multiplier=4.00000005960464477539e-01
cascade_activation_functions_count=10
cascade_activation_functions=3 5 7 8 10 11 14 15 16 17 
cascade_activation_steepnesses_count=4
cascade_activation_steepnesses=2.50000000000000000000e-01 5.00000000000000000000e-01 7.50000000000000000000e-01 1.00000000000000000000e+00 
layer_sizes=4 6 4 
scale_included=1
scale_mean_in=0.194577 -0.002549 -0.039124 
scale_deviation_in=0.018564 0.018658 0.013629 
scale_new_min_in=-0.700000 -0.700000 -0.700000 
scale_factor_in=0.700000 0.700000 0.700000 
scale_mean_out=-1.583941 1.349391 -1.423414 
scale_deviation_out=0.097019 0.284608 0.417270 
scale_new_min_out=-0.700000 -0.700000 -0.700000 
scale_factor_out=0.700000 0.700000 0.700000 
neurons (num_inputs, activation_function, activation_steepness)=(0, 0, 0.00000000000000000000e+00) (0, 0, 0.00000000000000000000e+00) (0, 0, 0.00000000000000000000e+00) (0, 0, 0.00000000000000000000e+00) (4, 5, 5.00000000000000000000e-01) (4, 5, 5.00000000000000000000e-01) (4, 5, 5.00000000000000000000e-01) (4, 5, 5.00000000000000000000e-01) (4, 5, 5.00000000000000000000e-01) (0, 5, 0.00000000000000000000e+00) (6, 5, 5.00000000000000000000e-01) (6, 5, 5.00000000000000000000e-01) (6, 5, 5.00000000000000000000e-01) (0, 5, 0.00000000000000000000e+00) 
connections (connected_to_neuron, weight)=(0, 2.00965628027915954590e-01) (1, -8.26605498790740966797e-01) (2, -6.23187720775604248047e-01) (3, -6.99485242366790771484e-01) (0, 1.10239553451538085938e+00) (1, 1.51646459102630615234e+00) (2, -3.19802999496459960938e-01) (3, -1.79813981056213378906e-01) (0, 5.25483727455139160156e-01) (1, -7.11594939231872558594e-01) (2, -1.01374244689941406250e+00) (3, -3.62947076559066772461e-01) (0, 1.47858154773712158203e+00) (1, -1.78459972143173217773e-01) (2, -2.43987172842025756836e-01) (3, 1.11305117607116699219e-02) (0, 1.29985940456390380859e+00) (1, -2.63206452131271362305e-01) (2, 1.11596442759037017822e-01) (3, -3.10811668634414672852e-01) (4, -3.08183759450912475586e-01) (5, 1.61789941787719726562e+00) (6, -7.53168463706970214844e-01) (7, -2.43187099695205688477e-01) (8, -3.30152601003646850586e-01) (9, -1.09343521296977996826e-01) (4, 3.31413447856903076172e-01) (5, -5.76101362705230712891e-01) (6, -1.24594318866729736328e+00) (7, -1.24916720390319824219e+00) (8, -9.38250184059143066406e-01) (9, -1.93128556013107299805e-01) (4, -8.77710223197937011719e-01) (5, -9.90426480770111083984e-01) (6, 3.26375156641006469727e-01) (7, -1.25063490867614746094e+00) (8, -1.21425688266754150391e+00) (9, -3.62895011901855468750e-01) 
