FANN_FLO_2.1
num_layers=3
learning_rate=0.100000
connection_rate=1.000000
network_type=0
learning_momentum=0.000000
training_algorithm=1
train_error_function=1
train_stop_function=0
cascade_output_change_fraction=0.010000
quickprop_decay=-0.000100
quickprop_mu=1.750000
rprop_increase_factor=1.200000
rprop_decrease_factor=0.500000
rprop_delta_min=0.000000
rprop_delta_max=50.000000
rprop_delta_zero=0.100000
cascade_output_stagnation_epochs=12
cascade_candidate_change_fraction=0.010000
cascade_candidate_stagnation_epochs=12
cascade_max_out_epochs=150
cascade_min_out_epochs=50
cascade_max_cand_epochs=150
cascade_min_cand_epochs=50
cascade_num_candidate_groups=2
bit_fail_limit=3.49999994039535522461e-01
cascade_candidate_limit=1.00000000000000000000e+03
cascade_weight_multiplier=4.00000005960464477539e-01
cascade_activation_functions_count=10
cascade_activation_functions=3 5 7 8 10 11 14 15 16 17 
cascade_activation_steepnesses_count=4
cascade_activation_steepnesses=2.50000000000000000000e-01 5.00000000000000000000e-01 7.50000000000000000000e-01 1.00000000000000000000e+00 
layer_sizes=4 6 4 
scale_included=1
scale_mean_in=0.065987 0.002333 -0.014554 
scale_deviation_in=0.018413 0.021670 0.016575 
scale_new_min_in=-0.900000 -0.900000 -0.900000 
scale_factor_in=0.900000 0.900000 0.900000 
scale_mean_out=-1.399284 2.682727 -0.261382 
scale_deviation_out=0.166759 0.463717 0.390335 
scale_new_min_out=-0.900000 -0.900000 -0.900000 
scale_factor_out=0.900000 0.900000 0.900000 
neurons (num_inputs, activation_function, activation_steepness)=(0, 0, 0.00000000000000000000e+00) (0, 0, 0.00000000000000000000e+00) (0, 0, 0.00000000000000000000e+00) (0, 0, 0.00000000000000000000e+00) (4, 5, 5.00000000000000000000e-01) (4, 5, 5.00000000000000000000e-01) (4, 5, 5.00000000000000000000e-01) (4, 5, 5.00000000000000000000e-01) (4, 5, 5.00000000000000000000e-01) (0, 5, 0.00000000000000000000e+00) (6, 5, 5.00000000000000000000e-01) (6, 5, 5.00000000000000000000e-01) (6, 5, 5.00000000000000000000e-01) (0, 5, 0.00000000000000000000e+00) 
connections (connected_to_neuron, weight)=(0, 2.33712267875671386719e+00) (1, 1.06193149089813232422e+00) (2, -3.93414497375488281250e-02) (3, -5.79760742187500000000e+00) (0, -7.21628665924072265625e+00) (1, 5.65466594696044921875e+00) (2, -2.61951982975006103516e-01) (3, 1.03852863311767578125e+01) (0, 3.67894959449768066406e+00) (1, -6.85571372509002685547e-01) (2, 5.54529607295989990234e-01) (3, -3.13263273239135742188e+00) (0, -7.28002071380615234375e+00) (1, -1.07034099102020263672e+00) (2, 9.37123775482177734375e-01) (3, 6.09113454818725585938e+00) (0, -9.64741230010986328125e+00) (1, -4.96932983398437500000e-01) (2, -6.64407634735107421875e+00) (3, 1.15124692916870117188e+01) (4, 1.02361297607421875000e+01) (5, 2.33256301879882812500e+01) (6, -1.49819576740264892578e+00) (7, 1.68374404311180114746e-02) (8, -2.94080346822738647461e-01) (9, -1.35180053710937500000e+01) (4, -6.62114286422729492188e+00) (5, -2.00634384155273437500e+00) (6, -1.65082192420959472656e+00) (7, -2.51466608047485351562e+00) (8, -1.57480945587158203125e+01) (9, 1.08852863311767578125e+01) (4, -2.62401103973388671875e+00) (5, -3.95246148109436035156e+00) (6, -3.72243857383728027344e+00) (7, -4.80013513565063476562e+00) (8, -3.80547595024108886719e+00) (9, 4.92809867858886718750e+00) 
