FANN_FLO_2.1
num_layers=3
learning_rate=0.100000
connection_rate=1.000000
network_type=0
learning_momentum=0.000000
training_algorithm=1
train_error_function=1
train_stop_function=0
cascade_output_change_fraction=0.010000
quickprop_decay=-0.000100
quickprop_mu=1.750000
rprop_increase_factor=1.200000
rprop_decrease_factor=0.500000
rprop_delta_min=0.000000
rprop_delta_max=50.000000
rprop_delta_zero=0.100000
cascade_output_stagnation_epochs=12
cascade_candidate_change_fraction=0.010000
cascade_candidate_stagnation_epochs=12
cascade_max_out_epochs=150
cascade_min_out_epochs=50
cascade_max_cand_epochs=150
cascade_min_cand_epochs=50
cascade_num_candidate_groups=2
bit_fail_limit=3.49999994039535522461e-01
cascade_candidate_limit=1.00000000000000000000e+03
cascade_weight_multiplier=4.00000005960464477539e-01
cascade_activation_functions_count=10
cascade_activation_functions=3 5 7 8 10 11 14 15 16 17 
cascade_activation_steepnesses_count=4
cascade_activation_steepnesses=2.50000000000000000000e-01 5.00000000000000000000e-01 7.50000000000000000000e-01 1.00000000000000000000e+00 
layer_sizes=4 6 4 
scale_included=1
scale_mean_in=0.193026 0.077762 -0.014334 
scale_deviation_in=0.018295 0.021774 0.016550 
scale_new_min_in=-0.900000 -0.900000 -0.900000 
scale_factor_in=0.900000 0.900000 0.900000 
scale_mean_out=-1.226996 1.675985 -1.277762 
scale_deviation_out=0.113068 0.476447 0.536161 
scale_new_min_out=-0.900000 -0.900000 -0.900000 
scale_factor_out=0.900000 0.900000 0.900000 
neurons (num_inputs, activation_function, activation_steepness)=(0, 0, 0.00000000000000000000e+00) (0, 0, 0.00000000000000000000e+00) (0, 0, 0.00000000000000000000e+00) (0, 0, 0.00000000000000000000e+00) (4, 5, 5.00000000000000000000e-01) (4, 5, 5.00000000000000000000e-01) (4, 5, 5.00000000000000000000e-01) (4, 5, 5.00000000000000000000e-01) (4, 5, 5.00000000000000000000e-01) (0, 5, 0.00000000000000000000e+00) (6, 5, 5.00000000000000000000e-01) (6, 5, 5.00000000000000000000e-01) (6, 5, 5.00000000000000000000e-01) (0, 5, 0.00000000000000000000e+00) 
connections (connected_to_neuron, weight)=(0, -2.92016172409057617188e+00) (1, 3.42530190944671630859e-01) (2, 2.35867798328399658203e-01) (3, -1.62623971700668334961e-02) (0, -4.65247440338134765625e+00) (1, -1.94819962978363037109e+00) (2, 7.12962448596954345703e-02) (3, 4.23805093765258789062e+00) (0, 6.88455867767333984375e+00) (1, 3.53020501136779785156e+00) (2, -4.66741854324936866760e-03) (3, -6.20561075210571289062e+00) (0, -3.02564239501953125000e+00) (1, -2.87481379508972167969e+00) (2, 5.79319059848785400391e-01) (3, 1.09081482887268066406e+00) (0, 4.33756351470947265625e-01) (1, 2.50185251235961914062e+00) (2, 1.17404600605368614197e-02) (3, 1.48863649368286132812e+00) (4, 1.49539136886596679688e+00) (5, 7.59250044822692871094e-01) (6, -2.67234539985656738281e+00) (7, -1.05367314815521240234e+00) (8, 2.31912231445312500000e+00) (9, -2.99389553070068359375e+00) (4, 1.38055920600891113281e+00) (5, -2.54015111923217773438e+00) (6, 4.39314126968383789062e+00) (7, 2.09972548484802246094e+00) (8, -3.32920879125595092773e-01) (9, 3.93624067306518554688e+00) (4, 1.98329520225524902344e+00) (5, -1.83481085300445556641e+00) (6, 4.73172664642333984375e+00) (7, 1.72343134880065917969e+00) (8, -8.91352415084838867188e-01) (9, 3.88272428512573242188e+00) 
