FANN_FLO_2.1
num_layers=3
learning_rate=0.100000
connection_rate=1.000000
network_type=0
learning_momentum=0.000000
training_algorithm=1
train_error_function=1
train_stop_function=0
cascade_output_change_fraction=0.010000
quickprop_decay=-0.000100
quickprop_mu=1.750000
rprop_increase_factor=1.200000
rprop_decrease_factor=0.500000
rprop_delta_min=0.000000
rprop_delta_max=50.000000
rprop_delta_zero=0.100000
cascade_output_stagnation_epochs=12
cascade_candidate_change_fraction=0.010000
cascade_candidate_stagnation_epochs=12
cascade_max_out_epochs=150
cascade_min_out_epochs=50
cascade_max_cand_epochs=150
cascade_min_cand_epochs=50
cascade_num_candidate_groups=2
bit_fail_limit=3.49999994039535522461e-01
cascade_candidate_limit=1.00000000000000000000e+03
cascade_weight_multiplier=4.00000005960464477539e-01
cascade_activation_functions_count=10
cascade_activation_functions=3 5 7 8 10 11 14 15 16 17 
cascade_activation_steepnesses_count=4
cascade_activation_steepnesses=2.50000000000000000000e-01 5.00000000000000000000e-01 7.50000000000000000000e-01 1.00000000000000000000e+00 
layer_sizes=4 6 4 
scale_included=1
scale_mean_in=0.065673 0.002205 0.042855 
scale_deviation_in=0.018535 0.021595 0.016542 
scale_new_min_in=-0.900000 -0.900000 -0.900000 
scale_factor_in=0.900000 0.900000 0.900000 
scale_mean_out=-1.520454 3.728034 -0.026339 
scale_deviation_out=0.324202 0.587988 0.269121 
scale_new_min_out=-0.900000 -0.900000 -0.900000 
scale_factor_out=0.900000 0.900000 0.900000 
neurons (num_inputs, activation_function, activation_steepness)=(0, 0, 0.00000000000000000000e+00) (0, 0, 0.00000000000000000000e+00) (0, 0, 0.00000000000000000000e+00) (0, 0, 0.00000000000000000000e+00) (4, 5, 5.00000000000000000000e-01) (4, 5, 5.00000000000000000000e-01) (4, 5, 5.00000000000000000000e-01) (4, 5, 5.00000000000000000000e-01) (4, 5, 5.00000000000000000000e-01) (0, 5, 0.00000000000000000000e+00) (6, 5, 5.00000000000000000000e-01) (6, 5, 5.00000000000000000000e-01) (6, 5, 5.00000000000000000000e-01) (0, 5, 0.00000000000000000000e+00) 
connections (connected_to_neuron, weight)=(0, -2.50929498672485351562e+00) (1, -7.68767893314361572266e-02) (2, -5.49557065963745117188e+00) (3, -8.38563823699951171875e+00) (0, 3.12783813476562500000e+00) (1, 3.96569252014160156250e-01) (2, -9.39988803863525390625e+00) (3, -3.93198609352111816406e+00) (0, -1.95618867874145507812e+00) (1, 1.42543661594390869141e+00) (2, -1.19893193244934082031e+00) (3, -5.75187981128692626953e-01) (0, -1.23172128200531005859e+00) (1, -1.51885867118835449219e+00) (2, -1.04874098300933837891e+00) (3, -4.04574573040008544922e-01) (0, 8.36030542850494384766e-01) (1, 1.40720695257186889648e-01) (2, 1.03611910343170166016e+00) (3, 1.98928788304328918457e-01) (4, 1.96472227573394775391e+00) (5, 2.41646364331245422363e-01) (6, 2.62178182601928710938e+00) (7, -4.21063184738159179688e+00) (8, -8.97644937038421630859e-01) (9, 1.77790570259094238281e+00) (4, -5.82948017120361328125e+00) (5, -1.63737046718597412109e+00) (6, -9.14353370666503906250e-01) (7, -1.57524156570434570312e+00) (8, -7.36558532714843750000e+00) (9, -5.11893463134765625000e+00) (4, -5.42843866348266601562e+00) (5, -9.04497087001800537109e-01) (6, -2.72989964485168457031e+00) (7, -3.49969100952148437500e+00) (8, -1.12636785507202148438e+01) (9, -4.85782003402709960938e+00) 
