FANN_FLO_2.1
num_layers=3
learning_rate=0.100000
connection_rate=1.000000
network_type=0
learning_momentum=0.000000
training_algorithm=1
train_error_function=1
train_stop_function=0
cascade_output_change_fraction=0.010000
quickprop_decay=-0.000100
quickprop_mu=1.750000
rprop_increase_factor=1.200000
rprop_decrease_factor=0.500000
rprop_delta_min=0.000000
rprop_delta_max=50.000000
rprop_delta_zero=0.100000
cascade_output_stagnation_epochs=12
cascade_candidate_change_fraction=0.010000
cascade_candidate_stagnation_epochs=12
cascade_max_out_epochs=150
cascade_min_out_epochs=50
cascade_max_cand_epochs=150
cascade_min_cand_epochs=50
cascade_num_candidate_groups=2
bit_fail_limit=3.49999994039535522461e-01
cascade_candidate_limit=1.00000000000000000000e+03
cascade_weight_multiplier=4.00000005960464477539e-01
cascade_activation_functions_count=10
cascade_activation_functions=3 5 7 8 10 11 14 15 16 17 
cascade_activation_steepnesses_count=4
cascade_activation_steepnesses=2.50000000000000000000e-01 5.00000000000000000000e-01 7.50000000000000000000e-01 1.00000000000000000000e+00 
layer_sizes=4 6 4 
scale_included=1
scale_mean_in=0.193140 0.077647 0.043124 
scale_deviation_in=0.018344 0.021750 0.016532 
scale_new_min_in=-0.900000 -0.900000 -0.900000 
scale_factor_in=0.900000 0.900000 0.900000 
scale_mean_out=-1.252940 1.995541 -1.173748 
scale_deviation_out=0.110144 0.404370 0.616703 
scale_new_min_out=-0.900000 -0.900000 -0.900000 
scale_factor_out=0.900000 0.900000 0.900000 
neurons (num_inputs, activation_function, activation_steepness)=(0, 0, 0.00000000000000000000e+00) (0, 0, 0.00000000000000000000e+00) (0, 0, 0.00000000000000000000e+00) (0, 0, 0.00000000000000000000e+00) (4, 5, 5.00000000000000000000e-01) (4, 5, 5.00000000000000000000e-01) (4, 5, 5.00000000000000000000e-01) (4, 5, 5.00000000000000000000e-01) (4, 5, 5.00000000000000000000e-01) (0, 5, 0.00000000000000000000e+00) (6, 5, 5.00000000000000000000e-01) (6, 5, 5.00000000000000000000e-01) (6, 5, 5.00000000000000000000e-01) (0, 5, 0.00000000000000000000e+00) 
connections (connected_to_neuron, weight)=(0, -2.99691766500473022461e-01) (1, -1.23570418357849121094e+00) (2, 4.17049676179885864258e-01) (3, 6.86802119016647338867e-02) (0, 2.33563590049743652344e+00) (1, -2.65237689018249511719e-01) (2, 2.56434947252273559570e-01) (3, 7.90299952030181884766e-01) (0, -4.45219516754150390625e+00) (1, -1.75595974922180175781e+00) (2, -1.36742115020751953125e+00) (3, 1.71321284770965576172e+00) (0, -1.43670010566711425781e+00) (1, -2.25514745712280273438e+00) (2, -8.55467975139617919922e-01) (3, -8.23914527893066406250e-01) (0, 6.17848062515258789062e+00) (1, 3.33974432945251464844e+00) (2, 2.00971961021423339844e+00) (3, -1.97120773792266845703e+00) (4, -1.93552064895629882812e+00) (5, -1.10866701602935791016e+00) (6, -2.13270053267478942871e-01) (7, -2.09861564636230468750e+00) (8, -3.63344120979309082031e+00) (9, -1.29401433467864990234e+00) (4, 1.28733420372009277344e+00) (5, -1.91267764568328857422e+00) (6, -1.66563582420349121094e+00) (7, 1.17936420440673828125e+00) (8, 3.08530068397521972656e+00) (9, 1.83055377006530761719e+00) (4, 2.28137299418449401855e-01) (5, -1.77047228813171386719e+00) (6, -2.05382561683654785156e+00) (7, 1.93937003612518310547e+00) (8, 3.11546540260314941406e+00) (9, 2.15249133110046386719e+00) 
