FANN_FLO_2.1
num_layers=3
learning_rate=0.100000
connection_rate=1.000000
network_type=0
learning_momentum=0.000000
training_algorithm=1
train_error_function=1
train_stop_function=0
cascade_output_change_fraction=0.010000
quickprop_decay=-0.000100
quickprop_mu=1.750000
rprop_increase_factor=1.200000
rprop_decrease_factor=0.500000
rprop_delta_min=0.000000
rprop_delta_max=50.000000
rprop_delta_zero=0.100000
cascade_output_stagnation_epochs=12
cascade_candidate_change_fraction=0.010000
cascade_candidate_stagnation_epochs=12
cascade_max_out_epochs=150
cascade_min_out_epochs=50
cascade_max_cand_epochs=150
cascade_min_cand_epochs=50
cascade_num_candidate_groups=2
bit_fail_limit=3.49999994039535522461e-01
cascade_candidate_limit=1.00000000000000000000e+03
cascade_weight_multiplier=4.00000005960464477539e-01
cascade_activation_functions_count=10
cascade_activation_functions=3 5 7 8 10 11 14 15 16 17 
cascade_activation_steepnesses_count=4
cascade_activation_steepnesses=2.50000000000000000000e-01 5.00000000000000000000e-01 7.50000000000000000000e-01 1.00000000000000000000e+00 
layer_sizes=4 6 4 
scale_included=1
scale_mean_in=0.129655 0.077258 0.042907 
scale_deviation_in=0.018466 0.021683 0.016479 
scale_new_min_in=-0.900000 -0.900000 -0.900000 
scale_factor_in=0.900000 0.900000 0.900000 
scale_mean_out=-1.036031 2.391612 -0.844169 
scale_deviation_out=0.138583 0.285846 0.311996 
scale_new_min_out=-0.900000 -0.900000 -0.900000 
scale_factor_out=0.900000 0.900000 0.900000 
neurons (num_inputs, activation_function, activation_steepness)=(0, 0, 0.00000000000000000000e+00) (0, 0, 0.00000000000000000000e+00) (0, 0, 0.00000000000000000000e+00) (0, 0, 0.00000000000000000000e+00) (4, 5, 5.00000000000000000000e-01) (4, 5, 5.00000000000000000000e-01) (4, 5, 5.00000000000000000000e-01) (4, 5, 5.00000000000000000000e-01) (4, 5, 5.00000000000000000000e-01) (0, 5, 0.00000000000000000000e+00) (6, 5, 5.00000000000000000000e-01) (6, 5, 5.00000000000000000000e-01) (6, 5, 5.00000000000000000000e-01) (0, 5, 0.00000000000000000000e+00) 
connections (connected_to_neuron, weight)=(0, 2.85983741283416748047e-01) (1, -6.60787880420684814453e-01) (2, 1.57852217555046081543e-01) (3, 4.13568139076232910156e-01) (0, -8.96431684494018554688e-01) (1, -1.64597785472869873047e+00) (2, -3.38214188814163208008e-01) (3, 1.97030976414680480957e-01) (0, -1.04534327983856201172e+00) (1, -5.88845238089561462402e-02) (2, -2.60624051094055175781e-01) (3, -2.18625247478485107422e-01) (0, -1.70392966270446777344e+00) (1, -2.27553874254226684570e-01) (2, -2.19868391752243041992e-01) (3, 3.69509577751159667969e-01) (0, 8.99886906147003173828e-01) (1, -1.39598369598388671875e+00) (2, -9.12827998399734497070e-02) (3, 2.56558924913406372070e-01) (4, -2.62031614780426025391e-01) (5, -1.00314652919769287109e+00) (6, 3.77846509218215942383e-01) (7, 5.19729077816009521484e-01) (8, -1.72528815269470214844e+00) (9, 2.17064440250396728516e-01) (4, 5.37395417690277099609e-01) (5, 1.46411049365997314453e+00) (6, 1.76932483911514282227e-01) (7, 1.61248171329498291016e+00) (8, -1.42486721277236938477e-01) (9, -4.16397362947463989258e-01) (4, -4.72496539354324340820e-01) (5, 1.92020666599273681641e+00) (6, 7.80568659305572509766e-01) (7, 8.84444236755371093750e-01) (8, -5.69494403898715972900e-02) (9, -8.35930258035659790039e-02) 
