FANN_FLO_2.1
num_layers=3
learning_rate=0.100000
connection_rate=1.000000
network_type=0
learning_momentum=0.000000
training_algorithm=1
train_error_function=1
train_stop_function=0
cascade_output_change_fraction=0.010000
quickprop_decay=-0.000100
quickprop_mu=1.750000
rprop_increase_factor=1.200000
rprop_decrease_factor=0.500000
rprop_delta_min=0.000000
rprop_delta_max=50.000000
rprop_delta_zero=0.100000
cascade_output_stagnation_epochs=12
cascade_candidate_change_fraction=0.010000
cascade_candidate_stagnation_epochs=12
cascade_max_out_epochs=150
cascade_min_out_epochs=50
cascade_max_cand_epochs=150
cascade_min_cand_epochs=50
cascade_num_candidate_groups=2
bit_fail_limit=3.49999994039535522461e-01
cascade_candidate_limit=1.00000000000000000000e+03
cascade_weight_multiplier=4.00000005960464477539e-01
cascade_activation_functions_count=10
cascade_activation_functions=3 5 7 8 10 11 14 15 16 17 
cascade_activation_steepnesses_count=4
cascade_activation_steepnesses=2.50000000000000000000e-01 5.00000000000000000000e-01 7.50000000000000000000e-01 1.00000000000000000000e+00 
layer_sizes=4 6 4 
scale_included=1
scale_mean_in=0.131638 0.078174 -0.123709 
scale_deviation_in=0.019744 0.018247 0.013260 
scale_new_min_in=-0.900000 -0.900000 -0.900000 
scale_factor_in=0.900000 0.900000 0.900000 
scale_mean_out=-1.034583 0.786765 -1.422383 
scale_deviation_out=0.116980 0.283039 0.450214 
scale_new_min_out=-0.900000 -0.900000 -0.900000 
scale_factor_out=0.900000 0.900000 0.900000 
neurons (num_inputs, activation_function, activation_steepness)=(0, 0, 0.00000000000000000000e+00) (0, 0, 0.00000000000000000000e+00) (0, 0, 0.00000000000000000000e+00) (0, 0, 0.00000000000000000000e+00) (4, 5, 5.00000000000000000000e-01) (4, 5, 5.00000000000000000000e-01) (4, 5, 5.00000000000000000000e-01) (4, 5, 5.00000000000000000000e-01) (4, 5, 5.00000000000000000000e-01) (0, 5, 0.00000000000000000000e+00) (6, 5, 5.00000000000000000000e-01) (6, 5, 5.00000000000000000000e-01) (6, 5, 5.00000000000000000000e-01) (0, 5, 0.00000000000000000000e+00) 
connections (connected_to_neuron, weight)=(0, -2.24812850356101989746e-01) (1, 5.89726865291595458984e-01) (2, -7.20204830169677734375e-01) (3, 1.34148579090833663940e-02) (0, -1.37285268306732177734e+00) (1, -8.41549336910247802734e-01) (2, 2.09230947494506835938e+00) (3, -4.52268886566162109375e+00) (0, -5.95123195648193359375e+00) (1, -3.36488580703735351562e+00) (2, 4.78257226943969726562e+00) (3, 1.03631782531738281250e+01) (0, -7.43671059608459472656e-01) (1, 1.16050951182842254639e-02) (2, 4.34670984745025634766e-01) (3, -1.28409934043884277344e+00) (0, 1.44336372613906860352e-02) (1, -9.36862587928771972656e-01) (2, -2.62708336114883422852e-01) (3, -6.86462998390197753906e-01) (4, 3.45322632789611816406e+00) (5, -7.90938615798950195312e-01) (6, 3.65739524364471435547e-01) (7, 5.11162185668945312500e+00) (8, -4.04819631576538085938e+00) (9, 4.32487517595291137695e-01) (4, -1.88249480724334716797e+00) (5, 6.45384740829467773438e+00) (6, 1.16675033569335937500e+01) (7, 2.16372466087341308594e+00) (8, -8.12029242515563964844e-01) (9, -4.19540977478027343750e+00) (4, -3.54058504104614257812e-01) (5, 4.34394121170043945312e+00) (6, 1.46651210784912109375e+01) (7, 4.38749027252197265625e+00) (8, 1.23264980316162109375e+00) (9, -7.43843221664428710938e+00) 
