FANN_FLO_2.1
num_layers=3
learning_rate=0.100000
connection_rate=1.000000
network_type=0
learning_momentum=0.000000
training_algorithm=1
train_error_function=1
train_stop_function=0
cascade_output_change_fraction=0.010000
quickprop_decay=-0.000100
quickprop_mu=1.750000
rprop_increase_factor=1.200000
rprop_decrease_factor=0.500000
rprop_delta_min=0.000000
rprop_delta_max=50.000000
rprop_delta_zero=0.100000
cascade_output_stagnation_epochs=12
cascade_candidate_change_fraction=0.010000
cascade_candidate_stagnation_epochs=12
cascade_max_out_epochs=150
cascade_min_out_epochs=50
cascade_max_cand_epochs=150
cascade_min_cand_epochs=50
cascade_num_candidate_groups=2
bit_fail_limit=3.49999994039535522461e-01
cascade_candidate_limit=1.00000000000000000000e+03
cascade_weight_multiplier=4.00000005960464477539e-01
cascade_activation_functions_count=10
cascade_activation_functions=3 5 7 8 10 11 14 15 16 17 
cascade_activation_steepnesses_count=4
cascade_activation_steepnesses=2.50000000000000000000e-01 5.00000000000000000000e-01 7.50000000000000000000e-01 1.00000000000000000000e+00 
layer_sizes=4 6 4 
scale_included=1
scale_mean_in=0.187110 0.014082 -0.120657 
scale_deviation_in=0.011872 0.017942 0.012819 
scale_new_min_in=-0.900000 -0.900000 -0.900000 
scale_factor_in=0.900000 0.900000 0.900000 
scale_mean_out=-1.495441 0.403733 -2.223456 
scale_deviation_out=0.095934 0.298880 0.476620 
scale_new_min_out=-0.900000 -0.900000 -0.900000 
scale_factor_out=0.900000 0.900000 0.900000 
neurons (num_inputs, activation_function, activation_steepness)=(0, 0, 0.00000000000000000000e+00) (0, 0, 0.00000000000000000000e+00) (0, 0, 0.00000000000000000000e+00) (0, 0, 0.00000000000000000000e+00) (4, 5, 5.00000000000000000000e-01) (4, 5, 5.00000000000000000000e-01) (4, 5, 5.00000000000000000000e-01) (4, 5, 5.00000000000000000000e-01) (4, 5, 5.00000000000000000000e-01) (0, 5, 0.00000000000000000000e+00) (6, 5, 5.00000000000000000000e-01) (6, 5, 5.00000000000000000000e-01) (6, 5, 5.00000000000000000000e-01) (0, 5, 0.00000000000000000000e+00) 
connections (connected_to_neuron, weight)=(0, 1.34008035063743591309e-01) (1, 3.10918688774108886719e-02) (2, -1.05690062046051025391e+00) (3, -2.07193565368652343750e+00) (0, -3.08999251574277877808e-02) (1, 2.97867870330810546875e+00) (2, 6.71826601028442382812e-02) (3, 3.56421399116516113281e+00) (0, 4.13622426986694335938e+00) (1, 4.76362764835357666016e-01) (2, -3.94602131843566894531e+00) (3, 4.54423761367797851562e+00) (0, 6.32216358184814453125e+00) (1, 7.65492796897888183594e-01) (2, -2.79133844375610351562e+00) (3, -1.06062579154968261719e+00) (0, 4.56385672092437744141e-01) (1, -3.96955347061157226562e+00) (2, -6.72822371125221252441e-02) (3, 4.29799842834472656250e+00) (4, 2.71328002214431762695e-01) (5, 6.19369125366210937500e+00) (6, -7.90911944932304322720e-05) (7, 7.43362633511424064636e-03) (8, -5.69528293609619140625e+00) (9, -1.09690614044666290283e-01) (4, -5.52799892425537109375e+00) (5, 5.13935804367065429688e-01) (6, -6.42651748657226562500e+00) (7, -1.95346081256866455078e+00) (8, 3.64735364913940429688e-01) (9, 1.72258520126342773438e+00) (4, -3.31958937644958496094e+00) (5, 7.31244266033172607422e-01) (6, -6.21778631210327148438e+00) (7, -2.33750200271606445312e+00) (8, 5.08302271366119384766e-01) (9, 2.84533619880676269531e+00) 
