FANN_FLO_2.1
num_layers=3
learning_rate=0.100000
connection_rate=1.000000
network_type=0
learning_momentum=0.000000
training_algorithm=1
train_error_function=1
train_stop_function=0
cascade_output_change_fraction=0.010000
quickprop_decay=-0.000100
quickprop_mu=1.750000
rprop_increase_factor=1.200000
rprop_decrease_factor=0.500000
rprop_delta_min=0.000000
rprop_delta_max=50.000000
rprop_delta_zero=0.100000
cascade_output_stagnation_epochs=12
cascade_candidate_change_fraction=0.010000
cascade_candidate_stagnation_epochs=12
cascade_max_out_epochs=150
cascade_min_out_epochs=50
cascade_max_cand_epochs=150
cascade_min_cand_epochs=50
cascade_num_candidate_groups=2
bit_fail_limit=3.49999994039535522461e-01
cascade_candidate_limit=1.00000000000000000000e+03
cascade_weight_multiplier=4.00000005960464477539e-01
cascade_activation_functions_count=10
cascade_activation_functions=3 5 7 8 10 11 14 15 16 17 
cascade_activation_steepnesses_count=4
cascade_activation_steepnesses=2.50000000000000000000e-01 5.00000000000000000000e-01 7.50000000000000000000e-01 1.00000000000000000000e+00 
layer_sizes=4 11 4 
scale_included=1
scale_mean_in=0.097789 0.076941 0.133414 
scale_deviation_in=0.016083 0.016948 0.009030 
scale_new_min_in=-0.900000 -0.900000 -0.900000 
scale_factor_in=0.900000 0.900000 0.900000 
scale_mean_out=-0.901623 1.908079 -2.008150 
scale_deviation_out=0.114913 0.196693 0.553102 
scale_new_min_out=-0.900000 -0.900000 -0.900000 
scale_factor_out=0.900000 0.900000 0.900000 
neurons (num_inputs, activation_function, activation_steepness)=(0, 0, 0.00000000000000000000e+00) (0, 0, 0.00000000000000000000e+00) (0, 0, 0.00000000000000000000e+00) (0, 0, 0.00000000000000000000e+00) (4, 5, 5.00000000000000000000e-01) (4, 5, 5.00000000000000000000e-01) (4, 5, 5.00000000000000000000e-01) (4, 5, 5.00000000000000000000e-01) (4, 5, 5.00000000000000000000e-01) (4, 5, 5.00000000000000000000e-01) (4, 5, 5.00000000000000000000e-01) (4, 5, 5.00000000000000000000e-01) (4, 5, 5.00000000000000000000e-01) (4, 5, 5.00000000000000000000e-01) (0, 5, 0.00000000000000000000e+00) (11, 5, 5.00000000000000000000e-01) (11, 5, 5.00000000000000000000e-01) (11, 5, 5.00000000000000000000e-01) (0, 5, 0.00000000000000000000e+00) 
connections (connected_to_neuron, weight)=(0, 5.87572276592254638672e-01) (1, -7.45347857475280761719e-01) (2, -2.28053554892539978027e-01) (3, 1.29655730724334716797e+00) (0, 4.13994878530502319336e-01) (1, 1.22236251831054687500e+00) (2, 6.05557620525360107422e-01) (3, -9.18954670429229736328e-01) (0, 1.44103109836578369141e-01) (1, -7.18208491802215576172e-01) (2, -1.02160680294036865234e+00) (3, -7.77990460395812988281e-01) (0, 7.09287226200103759766e-02) (1, -6.59383833408355712891e-01) (2, -2.46420645713806152344e+00) (3, 1.83721411228179931641e+00) (0, -2.64941477775573730469e+00) (1, -2.16369819641113281250e+00) (2, -4.96785688400268554688e+00) (3, -8.86649787425994873047e-01) (0, -3.56606394052505493164e-01) (1, 2.75277763605117797852e-01) (2, -2.04746127128601074219e+00) (3, -2.15816164016723632812e+00) (0, -2.41958832740783691406e+00) (1, -8.87319087982177734375e-01) (2, -5.47989368438720703125e-01) (3, -2.40061715245246887207e-01) (0, 1.05393004417419433594e+00) (1, -2.00290870666503906250e+00) (2, 8.13256442546844482422e-01) (3, -2.72740769386291503906e+00) (0, 1.72249436378479003906e+00) (1, 2.18339586257934570312e+00) (2, -1.27668127417564392090e-01) (3, 1.97798833250999450684e-01) (0, -3.82596635818481445312e+00) (1, -3.02027416229248046875e+00) (2, -3.02788639068603515625e+00) (3, 9.13278937339782714844e-01) (4, -2.35852527618408203125e+00) (5, 1.78093814849853515625e+00) (6, -2.05974650382995605469e+00) (7, -6.31524980068206787109e-01) (8, 4.11539733409881591797e-01) (9, 6.41193389892578125000e-01) (10, 1.92774224281311035156e+00) (11, -2.77736687660217285156e+00) (12, 1.57810378074645996094e+00) (13, 2.64060556888580322266e-01) (14, 2.10789567790925502777e-03) (4, -4.78096544742584228516e-01) (5, -2.11677312850952148438e+00) (6, 7.59121239185333251953e-01) (7, -3.02280831336975097656e+00) (8, -4.45516538619995117188e+00) (9, 4.05165719985961914062e+00) (10, -2.73546552658081054688e+00) (11, 2.13742733001708984375e-01) (12, 2.96961474418640136719e+00) (13, 4.66941118240356445312e+00) (14, 9.33315038681030273438e-01) (4, 1.45134627819061279297e-01) (5, -1.37317672371864318848e-01) (6, -2.41892233490943908691e-01) (7, 4.72450144588947296143e-02) (8, -6.57519698143005371094e-02) (9, 7.14941173791885375977e-02) (10, 8.21609720587730407715e-02) (11, -5.32887428998947143555e-02) (12, 1.94352179765701293945e-01) (13, 9.08780246973037719727e-02) (14, -2.66762405633926391602e-01) 
