FANN_FLO_2.1
num_layers=3
learning_rate=0.100000
connection_rate=1.000000
network_type=0
learning_momentum=0.000000
training_algorithm=1
train_error_function=1
train_stop_function=0
cascade_output_change_fraction=0.010000
quickprop_decay=-0.000100
quickprop_mu=1.750000
rprop_increase_factor=1.200000
rprop_decrease_factor=0.500000
rprop_delta_min=0.000000
rprop_delta_max=50.000000
rprop_delta_zero=0.100000
cascade_output_stagnation_epochs=12
cascade_candidate_change_fraction=0.010000
cascade_candidate_stagnation_epochs=12
cascade_max_out_epochs=150
cascade_min_out_epochs=50
cascade_max_cand_epochs=150
cascade_min_cand_epochs=50
cascade_num_candidate_groups=2
bit_fail_limit=3.49999994039535522461e-01
cascade_candidate_limit=1.00000000000000000000e+03
cascade_weight_multiplier=4.00000005960464477539e-01
cascade_activation_functions_count=10
cascade_activation_functions=3 5 7 8 10 11 14 15 16 17 
cascade_activation_steepnesses_count=4
cascade_activation_steepnesses=2.50000000000000000000e-01 5.00000000000000000000e-01 7.50000000000000000000e-01 1.00000000000000000000e+00 
layer_sizes=4 11 4 
scale_included=1
scale_mean_in=0.117131 0.124408 -0.073788 
scale_deviation_in=0.004989 0.005802 0.011749 
scale_new_min_in=-0.900000 -0.900000 -0.900000 
scale_factor_in=0.900000 0.900000 0.900000 
scale_mean_out=-0.748212 1.966833 -1.218855 
scale_deviation_out=0.020092 0.136596 0.792482 
scale_new_min_out=-0.900000 -0.900000 -0.900000 
scale_factor_out=0.900000 0.900000 0.900000 
neurons (num_inputs, activation_function, activation_steepness)=(0, 0, 0.00000000000000000000e+00) (0, 0, 0.00000000000000000000e+00) (0, 0, 0.00000000000000000000e+00) (0, 0, 0.00000000000000000000e+00) (4, 5, 5.00000000000000000000e-01) (4, 5, 5.00000000000000000000e-01) (4, 5, 5.00000000000000000000e-01) (4, 5, 5.00000000000000000000e-01) (4, 5, 5.00000000000000000000e-01) (4, 5, 5.00000000000000000000e-01) (4, 5, 5.00000000000000000000e-01) (4, 5, 5.00000000000000000000e-01) (4, 5, 5.00000000000000000000e-01) (4, 5, 5.00000000000000000000e-01) (0, 5, 0.00000000000000000000e+00) (11, 5, 5.00000000000000000000e-01) (11, 5, 5.00000000000000000000e-01) (11, 5, 5.00000000000000000000e-01) (0, 5, 0.00000000000000000000e+00) 
connections (connected_to_neuron, weight)=(0, 3.47941112518310546875e+00) (1, -3.75194144248962402344e+00) (2, -5.18493413925170898438e-01) (3, -3.68189930915832519531e+00) (0, -1.38030195236206054688e+00) (1, 2.21361279487609863281e-01) (2, 5.17822265625000000000e-01) (3, -7.40441530942916870117e-02) (0, 9.86773133277893066406e-01) (1, 1.24501168727874755859e+00) (2, 1.15444815158843994141e+00) (3, -1.01688611507415771484e+00) (0, 2.36929082870483398438e+00) (1, -1.66076898574829101562e+00) (2, 1.39205479621887207031e+00) (3, -2.35073399543762207031e+00) (0, 6.56940340995788574219e-02) (1, 5.14722466468811035156e-01) (2, -3.51975888013839721680e-01) (3, -1.45225620269775390625e+00) (0, -3.75815987586975097656e+00) (1, 5.02207183837890625000e+00) (2, 1.76911011338233947754e-01) (3, 4.63379955291748046875e+00) (0, -1.45559713244438171387e-01) (1, 4.13745343685150146484e-02) (2, -1.42671310901641845703e+00) (3, -1.13582265377044677734e+00) (0, -1.99070274829864501953e+00) (1, 2.51292157173156738281e+00) (2, -1.07421074062585830688e-02) (3, -1.91102344542741775513e-02) (0, -4.71690781414508819580e-02) (1, -1.91142189502716064453e+00) (2, -1.10806822776794433594e+00) (3, -4.23401165008544921875e+00) (0, -2.48804032802581787109e-01) (1, 5.01707434654235839844e-01) (2, 9.16139900684356689453e-01) (3, -2.47362637519836425781e+00) (4, -5.66583108901977539062e+00) (5, 8.20570766925811767578e-01) (6, 5.02661883831024169922e-01) (7, -2.32373285293579101562e+00) (8, 1.84563195705413818359e+00) (9, 8.00845527648925781250e+00) (10, 6.35826885700225830078e-01) (11, -9.62579309940338134766e-01) (12, 3.20608973503112792969e+00) (13, 3.27843904495239257812e+00) (14, -6.38192653656005859375e+00) (4, -1.21666967868804931641e+00) (5, 3.10887289047241210938e+00) (6, 1.41943126916885375977e-01) (7, -1.79220795631408691406e-01) (8, -1.83234381675720214844e+00) (9, -4.65666055679321289062e-01) (10, -2.23938488960266113281e+00) (11, -2.73897671699523925781e+00) (12, -8.15706789493560791016e-01) (13, 2.04391241073608398438e+00) (14, -1.49381649494171142578e+00) (4, -1.19946658611297607422e+00) (5, -3.04020643234252929688e+00) (6, -2.17821931838989257812e+00) (7, 1.07040131092071533203e+00) (8, -1.15140843391418457031e+00) (9, 3.17124843597412109375e-01) (10, -1.87531745433807373047e+00) (11, 1.34665894508361816406e+00) (12, 3.86458420753479003906e+00) (13, 1.75058531761169433594e+00) (14, 2.17644548416137695312e+00) 
