FANN_FLO_2.1
num_layers=3
learning_rate=0.100000
connection_rate=1.000000
network_type=0
learning_momentum=0.000000
training_algorithm=1
train_error_function=1
train_stop_function=0
cascade_output_change_fraction=0.010000
quickprop_decay=-0.000100
quickprop_mu=1.750000
rprop_increase_factor=1.200000
rprop_decrease_factor=0.500000
rprop_delta_min=0.000000
rprop_delta_max=50.000000
rprop_delta_zero=0.100000
cascade_output_stagnation_epochs=12
cascade_candidate_change_fraction=0.010000
cascade_candidate_stagnation_epochs=12
cascade_max_out_epochs=150
cascade_min_out_epochs=50
cascade_max_cand_epochs=150
cascade_min_cand_epochs=50
cascade_num_candidate_groups=2
bit_fail_limit=3.49999994039535522461e-01
cascade_candidate_limit=1.00000000000000000000e+03
cascade_weight_multiplier=4.00000005960464477539e-01
cascade_activation_functions_count=10
cascade_activation_functions=3 5 7 8 10 11 14 15 16 17 
cascade_activation_steepnesses_count=4
cascade_activation_steepnesses=2.50000000000000000000e-01 5.00000000000000000000e-01 7.50000000000000000000e-01 1.00000000000000000000e+00 
layer_sizes=4 11 4 
scale_included=1
scale_mean_in=0.140747 -0.033462 0.124365 
scale_deviation_in=0.009511 0.009322 0.005884 
scale_new_min_in=-0.900000 -0.900000 -0.900000 
scale_factor_in=0.900000 0.900000 0.900000 
scale_mean_out=-1.806816 1.838306 -2.611127 
scale_deviation_out=0.065385 0.200746 0.329558 
scale_new_min_out=-0.900000 -0.900000 -0.900000 
scale_factor_out=0.900000 0.900000 0.900000 
neurons (num_inputs, activation_function, activation_steepness)=(0, 0, 0.00000000000000000000e+00) (0, 0, 0.00000000000000000000e+00) (0, 0, 0.00000000000000000000e+00) (0, 0, 0.00000000000000000000e+00) (4, 5, 5.00000000000000000000e-01) (4, 5, 5.00000000000000000000e-01) (4, 5, 5.00000000000000000000e-01) (4, 5, 5.00000000000000000000e-01) (4, 5, 5.00000000000000000000e-01) (4, 5, 5.00000000000000000000e-01) (4, 5, 5.00000000000000000000e-01) (4, 5, 5.00000000000000000000e-01) (4, 5, 5.00000000000000000000e-01) (4, 5, 5.00000000000000000000e-01) (0, 5, 0.00000000000000000000e+00) (11, 5, 5.00000000000000000000e-01) (11, 5, 5.00000000000000000000e-01) (11, 5, 5.00000000000000000000e-01) (0, 5, 0.00000000000000000000e+00) 
connections (connected_to_neuron, weight)=(0, -1.16191732883453369141e+00) (1, -1.47363913059234619141e+00) (2, -3.15816074609756469727e-01) (3, 1.52175319194793701172e+00) (0, 5.28114259243011474609e-01) (1, 4.34250783920288085938e+00) (2, -1.36593610048294067383e-01) (3, -4.50141572952270507812e+00) (0, -7.22831845283508300781e-01) (1, 6.50247216224670410156e-01) (2, -1.37567079067230224609e+00) (3, 2.91676074266433715820e-01) (0, 2.86090779304504394531e+00) (1, 2.98208087682723999023e-01) (2, 2.49702787399291992188e+00) (3, -2.07379031181335449219e+00) (0, -3.45295214653015136719e+00) (1, 8.99949669837951660156e-01) (2, -4.20552444458007812500e+00) (3, -3.56852364540100097656e+00) (0, 1.98181736469268798828e+00) (1, -2.86697685718536376953e-01) (2, 9.29329276084899902344e-01) (3, -1.20576298236846923828e+00) (0, -3.24372142553329467773e-01) (1, -2.11876168847084045410e-01) (2, 1.73577332496643066406e+00) (3, 1.00004243850708007812e+00) (0, -3.31931138038635253906e+00) (1, -6.44191455841064453125e+00) (2, -8.61265838146209716797e-01) (3, -8.55318832397460937500e+00) (0, -4.25318717956542968750e+00) (1, 8.92870962619781494141e-01) (2, -5.55277681350708007812e+00) (3, -1.79678964614868164062e+00) (0, 4.28446674346923828125e+00) (1, 7.24048519134521484375e+00) (2, 1.96438539028167724609e+00) (3, 7.63510036468505859375e+00) (4, -2.20599198341369628906e+00) (5, 5.79290533065795898438e+00) (6, 1.64110732078552246094e+00) (7, -1.88853883743286132812e+00) (8, 5.60428023338317871094e-01) (9, -6.39448404312133789062e-01) (10, 2.08154723048210144043e-01) (11, -3.40546512603759765625e+00) (12, -9.51172530651092529297e-01) (13, 2.32001256942749023438e+00) (14, -7.61387705802917480469e-01) (4, 9.07526731491088867188e-01) (5, -2.48243585228919982910e-01) (6, 1.42727792263031005859e+00) (7, 1.86659216880798339844e+00) (8, 4.71500873565673828125e+00) (9, -4.15539646148681640625e+00) (10, -1.84890508651733398438e+00) (11, -7.59705352783203125000e+00) (12, -2.82297992706298828125e+00) (13, -3.71414089202880859375e+00) (14, -2.26399803161621093750e+00) (4, 6.67147159576416015625e-01) (5, -1.61385715007781982422e-01) (6, 2.05612587928771972656e+00) (7, 7.35762000083923339844e-01) (8, 4.21633386611938476562e+00) (9, -2.64682793617248535156e+00) (10, -1.49329411983489990234e+00) (11, -6.28651618957519531250e+00) (12, -2.43860912322998046875e+00) (13, -3.18870997428894042969e+00) (14, -1.79022550582885742188e+00) 
