FANN_FLO_2.1
num_layers=3
learning_rate=0.100000
connection_rate=1.000000
network_type=0
learning_momentum=0.000000
training_algorithm=1
train_error_function=1
train_stop_function=0
cascade_output_change_fraction=0.010000
quickprop_decay=-0.000100
quickprop_mu=1.750000
rprop_increase_factor=1.200000
rprop_decrease_factor=0.500000
rprop_delta_min=0.000000
rprop_delta_max=50.000000
rprop_delta_zero=0.100000
cascade_output_stagnation_epochs=12
cascade_candidate_change_fraction=0.010000
cascade_candidate_stagnation_epochs=12
cascade_max_out_epochs=150
cascade_min_out_epochs=50
cascade_max_cand_epochs=150
cascade_min_cand_epochs=50
cascade_num_candidate_groups=2
bit_fail_limit=3.49999994039535522461e-01
cascade_candidate_limit=1.00000000000000000000e+03
cascade_weight_multiplier=4.00000005960464477539e-01
cascade_activation_functions_count=10
cascade_activation_functions=3 5 7 8 10 11 14 15 16 17 
cascade_activation_steepnesses_count=4
cascade_activation_steepnesses=2.50000000000000000000e-01 5.00000000000000000000e-01 7.50000000000000000000e-01 1.00000000000000000000e+00 
layer_sizes=4 11 4 
scale_included=1
scale_mean_in=0.154074 0.136768 -0.157557 
scale_deviation_in=0.014453 0.012517 0.012214 
scale_new_min_in=-0.900000 -0.900000 -0.900000 
scale_factor_in=0.900000 0.900000 0.900000 
scale_mean_out=-0.833855 0.453705 -2.764575 
scale_deviation_out=0.071772 0.314048 0.520899 
scale_new_min_out=-0.900000 -0.900000 -0.900000 
scale_factor_out=0.900000 0.900000 0.900000 
neurons (num_inputs, activation_function, activation_steepness)=(0, 0, 0.00000000000000000000e+00) (0, 0, 0.00000000000000000000e+00) (0, 0, 0.00000000000000000000e+00) (0, 0, 0.00000000000000000000e+00) (4, 5, 5.00000000000000000000e-01) (4, 5, 5.00000000000000000000e-01) (4, 5, 5.00000000000000000000e-01) (4, 5, 5.00000000000000000000e-01) (4, 5, 5.00000000000000000000e-01) (4, 5, 5.00000000000000000000e-01) (4, 5, 5.00000000000000000000e-01) (4, 5, 5.00000000000000000000e-01) (4, 5, 5.00000000000000000000e-01) (4, 5, 5.00000000000000000000e-01) (0, 5, 0.00000000000000000000e+00) (11, 5, 5.00000000000000000000e-01) (11, 5, 5.00000000000000000000e-01) (11, 5, 5.00000000000000000000e-01) (0, 5, 0.00000000000000000000e+00) 
connections (connected_to_neuron, weight)=(0, 6.67954444885253906250e+00) (1, 3.17470002174377441406e+00) (2, -7.09182262420654296875e+00) (3, -1.26324071884155273438e+01) (0, -1.95524203777313232422e+00) (1, 8.56934010982513427734e-01) (2, 2.98214030265808105469e+00) (3, 9.08183860778808593750e+00) (0, -5.72773218154907226562e+00) (1, -4.79342746734619140625e+00) (2, 8.25744628906250000000e+00) (3, 1.37321805953979492188e+01) (0, 7.82995319366455078125e+00) (1, 6.03102159500122070312e+00) (2, -1.11958036422729492188e+01) (3, 1.30376577377319335938e+01) (0, 4.34973287582397460938e+00) (1, 4.76170587539672851562e+00) (2, -6.93830680847167968750e+00) (3, -1.26568861007690429688e+01) (0, -1.07706289291381835938e+01) (1, -7.35844039916992187500e+00) (2, 1.51782274246215820312e+01) (3, -1.81816196441650390625e+01) (0, -1.79646179080009460449e-01) (1, -6.34115397930145263672e-01) (2, 3.94006997346878051758e-01) (3, 1.67624998092651367188e+00) (0, -8.02681446075439453125e+00) (1, -5.09959745407104492188e+00) (2, 1.05102443695068359375e+01) (3, -1.24118671417236328125e+01) (0, -3.04630041122436523438e+00) (1, -2.26851058006286621094e+00) (2, 2.25713872909545898438e+00) (3, 7.25875258445739746094e-01) (0, -8.13043415546417236328e-01) (1, -1.90059453248977661133e-01) (2, 3.93762737512588500977e-01) (3, 1.68626403808593750000e+00) (4, -2.64152550697326660156e+00) (5, 5.55434417724609375000e+00) (6, -1.69567537307739257812e+00) (7, 3.26689791679382324219e+00) (8, 3.10547757148742675781e+00) (9, -1.43038965761661529541e-02) (10, -1.06511535644531250000e+01) (11, 3.65176939964294433594e+00) (12, 4.70957845449447631836e-01) (13, 6.08392810821533203125e+00) (14, -2.93091498315334320068e-02) (4, -3.09039545059204101562e+00) (5, 4.60566854476928710938e+00) (6, 2.48412489891052246094e+00) (7, -5.35426855087280273438e+00) (8, -1.56991386413574218750e+00) (9, 1.10384988784790039062e+01) (10, 5.50345420837402343750e+00) (11, 4.66358280181884765625e+00) (12, 7.51403152942657470703e-01) (13, 5.11827516555786132812e+00) (14, 2.16361045837402343750e+00) (4, -2.83309803009033203125e+01) (5, 2.43367614746093750000e+01) (6, 2.93232345581054687500e+01) (7, -4.99057922363281250000e+01) (8, -2.86094818115234375000e+01) (9, 7.08047256469726562500e+01) (10, 1.82951641082763671875e+01) (11, 4.57458534240722656250e+01) (12, -4.73543882369995117188e+00) (13, 1.91700325012207031250e+01) (14, 3.14633045196533203125e+01) 
