FANN_FLO_2.1
num_layers=3
learning_rate=0.100000
connection_rate=1.000000
network_type=0
learning_momentum=0.000000
training_algorithm=1
train_error_function=1
train_stop_function=0
cascade_output_change_fraction=0.010000
quickprop_decay=-0.000100
quickprop_mu=1.750000
rprop_increase_factor=1.200000
rprop_decrease_factor=0.500000
rprop_delta_min=0.000000
rprop_delta_max=50.000000
rprop_delta_zero=0.100000
cascade_output_stagnation_epochs=12
cascade_candidate_change_fraction=0.010000
cascade_candidate_stagnation_epochs=12
cascade_max_out_epochs=150
cascade_min_out_epochs=50
cascade_max_cand_epochs=150
cascade_min_cand_epochs=50
cascade_num_candidate_groups=2
bit_fail_limit=3.49999994039535522461e-01
cascade_candidate_limit=1.00000000000000000000e+03
cascade_weight_multiplier=4.00000005960464477539e-01
cascade_activation_functions_count=10
cascade_activation_functions=3 5 7 8 10 11 14 15 16 17 
cascade_activation_steepnesses_count=4
cascade_activation_steepnesses=2.50000000000000000000e-01 5.00000000000000000000e-01 7.50000000000000000000e-01 1.00000000000000000000e+00 
layer_sizes=4 11 4 
scale_included=1
scale_mean_in=0.206315 0.015839 -0.158525 
scale_deviation_in=0.010256 0.019528 0.012133 
scale_new_min_in=-0.900000 -0.900000 -0.900000 
scale_factor_in=0.900000 0.900000 0.900000 
scale_mean_out=-1.475686 0.439212 -2.731132 
scale_deviation_out=0.150726 0.380969 0.490526 
scale_new_min_out=-0.900000 -0.900000 -0.900000 
scale_factor_out=0.900000 0.900000 0.900000 
neurons (num_inputs, activation_function, activation_steepness)=(0, 0, 0.00000000000000000000e+00) (0, 0, 0.00000000000000000000e+00) (0, 0, 0.00000000000000000000e+00) (0, 0, 0.00000000000000000000e+00) (4, 5, 5.00000000000000000000e-01) (4, 5, 5.00000000000000000000e-01) (4, 5, 5.00000000000000000000e-01) (4, 5, 5.00000000000000000000e-01) (4, 5, 5.00000000000000000000e-01) (4, 5, 5.00000000000000000000e-01) (4, 5, 5.00000000000000000000e-01) (4, 5, 5.00000000000000000000e-01) (4, 5, 5.00000000000000000000e-01) (4, 5, 5.00000000000000000000e-01) (0, 5, 0.00000000000000000000e+00) (11, 5, 5.00000000000000000000e-01) (11, 5, 5.00000000000000000000e-01) (11, 5, 5.00000000000000000000e-01) (0, 5, 0.00000000000000000000e+00) 
connections (connected_to_neuron, weight)=(0, 1.03485002517700195312e+01) (1, 1.93351101875305175781e+00) (2, -1.26381766796112060547e+00) (3, 3.96942567825317382812e+00) (0, -7.79679918289184570312e+00) (1, -9.01986896991729736328e-01) (2, 8.34756660461425781250e+00) (3, -9.75549507141113281250e+00) (0, 6.90283775329589843750e+00) (1, -2.66019248962402343750e+00) (2, -4.57200574874877929688e+00) (3, -1.19520759582519531250e+01) (0, -7.10043144226074218750e+00) (1, 3.85411500930786132812e+00) (2, 5.12708044052124023438e+00) (3, 1.37048225402832031250e+01) (0, 4.27934789657592773438e+00) (1, 5.94234824180603027344e-01) (2, 5.63254737854003906250e+00) (3, 6.17107677459716796875e+00) (0, -8.04887962341308593750e+00) (1, -1.82521498203277587891e+00) (2, 8.48879432678222656250e+00) (3, -1.01298570632934570312e+01) (0, -4.97527694702148437500e+00) (1, 3.10441470146179199219e+00) (2, 4.35467433929443359375e+00) (3, 9.47989082336425781250e+00) (0, 6.44211797043681144714e-03) (1, -7.64846920967102050781e-01) (2, 1.70053735375404357910e-01) (3, 2.09808111190795898438e+00) (0, -8.15726375579833984375e+00) (1, -9.28769171237945556641e-01) (2, 8.31642341613769531250e+00) (3, -1.02144670486450195312e+01) (0, 7.39108657836914062500e+00) (1, -3.47005724906921386719e+00) (2, -5.20598220825195312500e+00) (3, -1.33942584991455078125e+01) (4, -2.42003351449966430664e-02) (5, 7.00316071510314941406e-01) (6, -1.41828775405883789062e-01) (7, 2.85635972023010253906e+00) (8, 2.58029699325561523438e-01) (9, -1.67492222785949707031e+00) (10, -2.82630801200866699219e+00) (11, -6.91131210327148437500e+00) (12, 9.47818219661712646484e-01) (13, -2.30610156059265136719e+00) (14, 2.55560255050659179688e+00) (4, -1.97907054424285888672e+00) (5, 6.46597003936767578125e+00) (6, -3.39871025085449218750e+00) (7, 1.81265443563461303711e-01) (8, 1.55963587760925292969e+00) (9, 4.78785657882690429688e+00) (10, 8.28822803497314453125e+00) (11, 6.80609464645385742188e-01) (12, 4.08989191055297851562e+00) (13, -1.06177103519439697266e+00) (14, 1.93518567085266113281e+00) (4, -2.16662750244140625000e+01) (5, 4.12604446411132812500e+01) (6, -2.68472290039062500000e+01) (7, 3.05345706939697265625e+01) (8, 2.18968582153320312500e+01) (9, 4.78301467895507812500e+01) (10, 1.28610019683837890625e+01) (11, 5.37183570861816406250e+00) (12, 4.71322631835937500000e+01) (13, -2.98252487182617187500e+01) (14, 3.15975284576416015625e+01) 
