FANN_FLO_2.1
num_layers=3
learning_rate=0.100000
connection_rate=1.000000
network_type=0
learning_momentum=0.000000
training_algorithm=1
train_error_function=1
train_stop_function=0
cascade_output_change_fraction=0.010000
quickprop_decay=-0.000100
quickprop_mu=1.750000
rprop_increase_factor=1.200000
rprop_decrease_factor=0.500000
rprop_delta_min=0.000000
rprop_delta_max=50.000000
rprop_delta_zero=0.100000
cascade_output_stagnation_epochs=12
cascade_candidate_change_fraction=0.010000
cascade_candidate_stagnation_epochs=12
cascade_max_out_epochs=150
cascade_min_out_epochs=50
cascade_max_cand_epochs=150
cascade_min_cand_epochs=50
cascade_num_candidate_groups=2
bit_fail_limit=3.49999994039535522461e-01
cascade_candidate_limit=1.00000000000000000000e+03
cascade_weight_multiplier=4.00000005960464477539e-01
cascade_activation_functions_count=10
cascade_activation_functions=3 5 7 8 10 11 14 15 16 17 
cascade_activation_steepnesses_count=4
cascade_activation_steepnesses=2.50000000000000000000e-01 5.00000000000000000000e-01 7.50000000000000000000e-01 1.00000000000000000000e+00 
layer_sizes=4 11 4 
scale_included=1
scale_mean_in=0.216063 0.081698 -0.074958 
scale_deviation_in=0.014159 0.019053 0.012342 
scale_new_min_in=-0.900000 -0.900000 -0.900000 
scale_factor_in=0.900000 0.900000 0.900000 
scale_mean_out=-1.202705 0.999584 -1.948494 
scale_deviation_out=0.096337 0.403331 0.912639 
scale_new_min_out=-0.900000 -0.900000 -0.900000 
scale_factor_out=0.900000 0.900000 0.900000 
neurons (num_inputs, activation_function, activation_steepness)=(0, 0, 0.00000000000000000000e+00) (0, 0, 0.00000000000000000000e+00) (0, 0, 0.00000000000000000000e+00) (0, 0, 0.00000000000000000000e+00) (4, 5, 5.00000000000000000000e-01) (4, 5, 5.00000000000000000000e-01) (4, 5, 5.00000000000000000000e-01) (4, 5, 5.00000000000000000000e-01) (4, 5, 5.00000000000000000000e-01) (4, 5, 5.00000000000000000000e-01) (4, 5, 5.00000000000000000000e-01) (4, 5, 5.00000000000000000000e-01) (4, 5, 5.00000000000000000000e-01) (4, 5, 5.00000000000000000000e-01) (0, 5, 0.00000000000000000000e+00) (11, 5, 5.00000000000000000000e-01) (11, 5, 5.00000000000000000000e-01) (11, 5, 5.00000000000000000000e-01) (0, 5, 0.00000000000000000000e+00) 
connections (connected_to_neuron, weight)=(0, -1.46124050021171569824e-01) (1, 1.65206715464591979980e-01) (2, -1.33057367801666259766e+00) (3, -1.69275355339050292969e+00) (0, -2.51338630914688110352e-01) (1, -4.75302845239639282227e-01) (2, -1.10182404518127441406e+00) (3, -1.70982432365417480469e+00) (0, -6.01859629154205322266e-01) (1, 5.86075246334075927734e-01) (2, 4.97719675302505493164e-01) (3, -1.46349430084228515625e+00) (0, -2.12465286254882812500e+00) (1, -9.99760150909423828125e-01) (2, -3.35890829563140869141e-01) (3, -2.52275019884109497070e-01) (0, 2.96153038740158081055e-01) (1, 1.13594996929168701172e+00) (2, -4.56726282835006713867e-01) (3, 8.01285386085510253906e-01) (0, -1.58296525478363037109e+00) (1, -6.97963833808898925781e-01) (2, 9.63357031345367431641e-01) (3, -2.20766448974609375000e+00) (0, 7.34276354312896728516e-01) (1, 1.90349444746971130371e-02) (2, 2.42811605334281921387e-01) (3, -7.11622610688209533691e-02) (0, 5.82598507404327392578e-01) (1, -2.28093719482421875000e+00) (2, 2.13371366262435913086e-02) (3, -3.23966526985168457031e+00) (0, 2.13661289215087890625e+00) (1, 9.32164013385772705078e-01) (2, 7.64681756496429443359e-01) (3, -2.27542459964752197266e-01) (0, 6.29340946674346923828e-01) (1, -1.88004505634307861328e+00) (2, 6.61600902676582336426e-02) (3, 2.66130828857421875000e+00) (4, 1.03945052623748779297e+00) (5, -1.19567751884460449219e+00) (6, 1.73881757259368896484e+00) (7, 4.06123340129852294922e-01) (8, 6.48679673671722412109e-01) (9, -4.96613532304763793945e-01) (10, -1.45066070556640625000e+00) (11, -2.37655663490295410156e+00) (12, 8.09285938739776611328e-01) (13, -2.42570757865905761719e+00) (14, 2.78235822916030883789e-01) (4, -2.40478920936584472656e+00) (5, -1.35448443889617919922e+00) (6, 2.53072202205657958984e-01) (7, 1.87341225147247314453e+00) (8, -1.66942155361175537109e+00) (9, 2.74639344215393066406e+00) (10, -1.30798017978668212891e+00) (11, -1.06269979476928710938e+00) (12, -1.75089490413665771484e+00) (13, 7.81701266765594482422e-01) (14, 1.78987756371498107910e-01) (4, -2.53301948308944702148e-01) (5, -3.03829580545425415039e-01) (6, 4.17449504137039184570e-01) (7, 1.94562244415283203125e+00) (8, -2.53294855356216430664e-01) (9, -2.71501600742340087891e-01) (10, -8.40272724628448486328e-01) (11, 3.19253802299499511719e-02) (12, 1.05316948890686035156e+00) (13, 4.17761921882629394531e-01) (14, -1.55585661530494689941e-01) 
