FANN_FLO_2.1
num_layers=3
learning_rate=0.100000
connection_rate=1.000000
network_type=0
learning_momentum=0.000000
training_algorithm=1
train_error_function=1
train_stop_function=0
cascade_output_change_fraction=0.010000
quickprop_decay=-0.000100
quickprop_mu=1.750000
rprop_increase_factor=1.200000
rprop_decrease_factor=0.500000
rprop_delta_min=0.000000
rprop_delta_max=50.000000
rprop_delta_zero=0.100000
cascade_output_stagnation_epochs=12
cascade_candidate_change_fraction=0.010000
cascade_candidate_stagnation_epochs=12
cascade_max_out_epochs=150
cascade_min_out_epochs=50
cascade_max_cand_epochs=150
cascade_min_cand_epochs=50
cascade_num_candidate_groups=2
bit_fail_limit=3.49999994039535522461e-01
cascade_candidate_limit=1.00000000000000000000e+03
cascade_weight_multiplier=4.00000005960464477539e-01
cascade_activation_functions_count=10
cascade_activation_functions=3 5 7 8 10 11 14 15 16 17 
cascade_activation_steepnesses_count=4
cascade_activation_steepnesses=2.50000000000000000000e-01 5.00000000000000000000e-01 7.50000000000000000000e-01 1.00000000000000000000e+00 
layer_sizes=4 4 4 
scale_included=1
scale_mean_in=0.049489 0.035497 0.033310 
scale_deviation_in=0.014960 0.017536 0.010289 
scale_new_min_in=-0.900000 -0.900000 -0.900000 
scale_factor_in=0.900000 0.900000 0.900000 
scale_mean_out=-0.962120 4.237569 0.254576 
scale_deviation_out=0.279604 0.416687 0.155398 
scale_new_min_out=-0.900000 -0.900000 -0.900000 
scale_factor_out=0.900000 0.900000 0.900000 
neurons (num_inputs, activation_function, activation_steepness)=(0, 0, 0.00000000000000000000e+00) (0, 0, 0.00000000000000000000e+00) (0, 0, 0.00000000000000000000e+00) (0, 0, 0.00000000000000000000e+00) (4, 5, 5.00000000000000000000e-01) (4, 5, 5.00000000000000000000e-01) (4, 5, 5.00000000000000000000e-01) (0, 5, 0.00000000000000000000e+00) (4, 5, 5.00000000000000000000e-01) (4, 5, 5.00000000000000000000e-01) (4, 5, 5.00000000000000000000e-01) (0, 5, 0.00000000000000000000e+00) 
connections (connected_to_neuron, weight)=(0, 8.66072654724121093750e-01) (1, -4.26955074071884155273e-01) (2, -6.57235682010650634766e-01) (3, 1.12058877944946289062e+00) (0, 1.35764954611659049988e-02) (1, 1.03564035892486572266e+00) (2, -6.06610596179962158203e-01) (3, 1.06536066532135009766e+00) (0, -8.57919752597808837891e-01) (1, -7.45129585266113281250e-01) (2, -2.50581681728363037109e-01) (3, 4.38238233327865600586e-01) (4, -5.18652486801147460938e+00) (5, 5.48710012435913085938e+00) (6, 2.52456635236740112305e-01) (7, 2.28117629885673522949e-02) (4, 2.03023529052734375000e+00) (5, 2.42174077033996582031e+00) (6, 8.42798042297363281250e+00) (7, -3.58426952362060546875e+00) (4, 4.94431114196777343750e+00) (5, 5.60568904876708984375e+00) (6, 8.59390449523925781250e+00) (7, -5.94168519973754882812e+00) 
