FANN_FLO_2.1
num_layers=3
learning_rate=0.100000
connection_rate=1.000000
network_type=0
learning_momentum=0.000000
training_algorithm=1
train_error_function=1
train_stop_function=0
cascade_output_change_fraction=0.010000
quickprop_decay=-0.000100
quickprop_mu=1.750000
rprop_increase_factor=1.200000
rprop_decrease_factor=0.500000
rprop_delta_min=0.000000
rprop_delta_max=50.000000
rprop_delta_zero=0.100000
cascade_output_stagnation_epochs=12
cascade_candidate_change_fraction=0.010000
cascade_candidate_stagnation_epochs=12
cascade_max_out_epochs=150
cascade_min_out_epochs=50
cascade_max_cand_epochs=150
cascade_min_cand_epochs=50
cascade_num_candidate_groups=2
bit_fail_limit=3.49999994039535522461e-01
cascade_candidate_limit=1.00000000000000000000e+03
cascade_weight_multiplier=4.00000005960464477539e-01
cascade_activation_functions_count=10
cascade_activation_functions=3 5 7 8 10 11 14 15 16 17 
cascade_activation_steepnesses_count=4
cascade_activation_steepnesses=2.50000000000000000000e-01 5.00000000000000000000e-01 7.50000000000000000000e-01 1.00000000000000000000e+00 
layer_sizes=4 4 4 
scale_included=1
scale_mean_in=-0.004175 0.201167 0.024160 
scale_deviation_in=0.014580 0.010686 0.013043 
scale_new_min_in=-0.900000 -0.900000 -0.900000 
scale_factor_in=0.900000 0.900000 0.900000 
scale_mean_out=0.020643 1.597323 -1.634114 
scale_deviation_out=0.072630 0.215960 0.307178 
scale_new_min_out=-0.900000 -0.900000 -0.900000 
scale_factor_out=0.900000 0.900000 0.900000 
neurons (num_inputs, activation_function, activation_steepness)=(0, 0, 0.00000000000000000000e+00) (0, 0, 0.00000000000000000000e+00) (0, 0, 0.00000000000000000000e+00) (0, 0, 0.00000000000000000000e+00) (4, 5, 5.00000000000000000000e-01) (4, 5, 5.00000000000000000000e-01) (4, 5, 5.00000000000000000000e-01) (0, 5, 0.00000000000000000000e+00) (4, 5, 5.00000000000000000000e-01) (4, 5, 5.00000000000000000000e-01) (4, 5, 5.00000000000000000000e-01) (0, 5, 0.00000000000000000000e+00) 
connections (connected_to_neuron, weight)=(0, -2.85564184188842773438e-01) (1, -7.76410460472106933594e-01) (2, 4.27121788263320922852e-01) (3, 3.99653732776641845703e-01) (0, -7.13559687137603759766e-01) (1, -5.57905137538909912109e-01) (2, -3.58900099992752075195e-01) (3, 1.48980498313903808594e-01) (0, 6.82287275791168212891e-01) (1, -6.56510233879089355469e-01) (2, -2.34841808676719665527e-01) (3, 2.26562112569808959961e-01) (4, 1.12150537967681884766e+00) (5, 4.26535511016845703125e+00) (6, -4.76357460021972656250e+00) (7, 2.00491352006793022156e-03) (4, 4.04547929763793945312e+00) (5, 1.41638731956481933594e+00) (6, 3.40517330169677734375e+00) (7, -9.83603537082672119141e-01) (4, 1.25707924365997314453e+00) (5, 3.83561015129089355469e+00) (6, 4.74819755554199218750e+00) (7, -6.84622764587402343750e-01) 
