FANN_FLO_2.1
num_layers=3
learning_rate=0.100000
connection_rate=1.000000
network_type=0
learning_momentum=0.000000
training_algorithm=1
train_error_function=1
train_stop_function=0
cascade_output_change_fraction=0.010000
quickprop_decay=-0.000100
quickprop_mu=1.750000
rprop_increase_factor=1.200000
rprop_decrease_factor=0.500000
rprop_delta_min=0.000000
rprop_delta_max=50.000000
rprop_delta_zero=0.100000
cascade_output_stagnation_epochs=12
cascade_candidate_change_fraction=0.010000
cascade_candidate_stagnation_epochs=12
cascade_max_out_epochs=150
cascade_min_out_epochs=50
cascade_max_cand_epochs=150
cascade_min_cand_epochs=50
cascade_num_candidate_groups=2
bit_fail_limit=3.49999994039535522461e-01
cascade_candidate_limit=1.00000000000000000000e+03
cascade_weight_multiplier=4.00000005960464477539e-01
cascade_activation_functions_count=10
cascade_activation_functions=3 5 7 8 10 11 14 15 16 17 
cascade_activation_steepnesses_count=4
cascade_activation_steepnesses=2.50000000000000000000e-01 5.00000000000000000000e-01 7.50000000000000000000e-01 1.00000000000000000000e+00 
layer_sizes=4 6 4 
scale_included=1
scale_mean_in=0.055018 0.072320 -0.021428 
scale_deviation_in=0.012957 0.009961 0.014092 
scale_new_min_in=-0.900000 -0.900000 -0.900000 
scale_factor_in=0.900000 0.900000 0.900000 
scale_mean_out=-0.648939 3.150883 0.328139 
scale_deviation_out=0.166258 0.383932 0.141132 
scale_new_min_out=-0.900000 -0.900000 -0.900000 
scale_factor_out=0.900000 0.900000 0.900000 
neurons (num_inputs, activation_function, activation_steepness)=(0, 0, 0.00000000000000000000e+00) (0, 0, 0.00000000000000000000e+00) (0, 0, 0.00000000000000000000e+00) (0, 0, 0.00000000000000000000e+00) (4, 5, 5.00000000000000000000e-01) (4, 5, 5.00000000000000000000e-01) (4, 5, 5.00000000000000000000e-01) (4, 5, 5.00000000000000000000e-01) (4, 5, 5.00000000000000000000e-01) (0, 5, 0.00000000000000000000e+00) (6, 5, 5.00000000000000000000e-01) (6, 5, 5.00000000000000000000e-01) (6, 5, 5.00000000000000000000e-01) (0, 5, 0.00000000000000000000e+00) 
connections (connected_to_neuron, weight)=(0, -3.65239679813385009766e-01) (1, -4.79265779256820678711e-01) (2, 2.38002133369445800781e+00) (3, 1.76654601097106933594e+00) (0, -1.20493900775909423828e+00) (1, -2.24282145500183105469e-01) (2, 4.23543363809585571289e-01) (3, -2.27191105484962463379e-01) (0, -3.44701498746871948242e-01) (1, -1.48239302635192871094e+00) (2, -1.30436688661575317383e-01) (3, -1.68824508786201477051e-01) (0, -7.01056003570556640625e-01) (1, 9.50151123106479644775e-03) (2, -1.00917375087738037109e+00) (3, 9.45930406451225280762e-02) (0, -2.39062452316284179688e+00) (1, -1.02638673782348632812e+00) (2, -9.10455361008644104004e-02) (3, -6.79637268185615539551e-02) (4, 2.06318229436874389648e-01) (5, 2.65851902961730957031e+00) (6, -2.71134376525878906250e+00) (7, 1.65603780746459960938e+00) (8, 4.99110043048858642578e-01) (9, -7.01260045170783996582e-02) (4, 3.16063523292541503906e+00) (5, 1.33788371086120605469e+00) (6, 2.10638642311096191406e+00) (7, -1.32086718082427978516e+00) (8, 1.77120411396026611328e+00) (9, -1.25254666805267333984e+00) (4, 2.62344145774841308594e+00) (5, 6.64531052112579345703e-01) (6, 3.55859112739562988281e+00) (7, 2.16237020492553710938e+00) (8, 1.59862196445465087891e+00) (9, -1.00367653369903564453e+00) 
