FANN_FLO_2.1
num_layers=3
learning_rate=0.100000
connection_rate=1.000000
network_type=0
learning_momentum=0.000000
training_algorithm=1
train_error_function=1
train_stop_function=0
cascade_output_change_fraction=0.010000
quickprop_decay=-0.000100
quickprop_mu=1.750000
rprop_increase_factor=1.200000
rprop_decrease_factor=0.500000
rprop_delta_min=0.000000
rprop_delta_max=50.000000
rprop_delta_zero=0.100000
cascade_output_stagnation_epochs=12
cascade_candidate_change_fraction=0.010000
cascade_candidate_stagnation_epochs=12
cascade_max_out_epochs=150
cascade_min_out_epochs=50
cascade_max_cand_epochs=150
cascade_min_cand_epochs=50
cascade_num_candidate_groups=2
bit_fail_limit=3.49999994039535522461e-01
cascade_candidate_limit=1.00000000000000000000e+03
cascade_weight_multiplier=4.00000005960464477539e-01
cascade_activation_functions_count=10
cascade_activation_functions=3 5 7 8 10 11 14 15 16 17 
cascade_activation_steepnesses_count=4
cascade_activation_steepnesses=2.50000000000000000000e-01 5.00000000000000000000e-01 7.50000000000000000000e-01 1.00000000000000000000e+00 
layer_sizes=4 6 4 
scale_included=1
scale_mean_in=0.097736 -0.004931 0.117709 
scale_deviation_in=0.014603 0.017277 0.013295 
scale_new_min_in=-0.900000 -0.900000 -0.900000 
scale_factor_in=0.900000 0.900000 0.900000 
scale_mean_out=-1.621004 2.807532 -1.179182 
scale_deviation_out=0.178947 0.211054 0.262318 
scale_new_min_out=-0.900000 -0.900000 -0.900000 
scale_factor_out=0.900000 0.900000 0.900000 
neurons (num_inputs, activation_function, activation_steepness)=(0, 0, 0.00000000000000000000e+00) (0, 0, 0.00000000000000000000e+00) (0, 0, 0.00000000000000000000e+00) (0, 0, 0.00000000000000000000e+00) (4, 5, 5.00000000000000000000e-01) (4, 5, 5.00000000000000000000e-01) (4, 5, 5.00000000000000000000e-01) (4, 5, 5.00000000000000000000e-01) (4, 5, 5.00000000000000000000e-01) (0, 5, 0.00000000000000000000e+00) (6, 5, 5.00000000000000000000e-01) (6, 5, 5.00000000000000000000e-01) (6, 5, 5.00000000000000000000e-01) (0, 5, 0.00000000000000000000e+00) 
connections (connected_to_neuron, weight)=(0, -7.49800503253936767578e-01) (1, -1.52781796455383300781e+00) (2, 3.41037631034851074219e-01) (3, 5.51923811435699462891e-01) (0, 6.99896454811096191406e-01) (1, 2.67013221979141235352e-01) (2, 1.90831029415130615234e+00) (3, 1.73284113407135009766e-02) (0, -1.47196590900421142578e+00) (1, 2.87378907203674316406e-01) (2, -9.23932731151580810547e-01) (3, 1.56877592206001281738e-01) (0, -8.09544384479522705078e-01) (1, 1.19020748138427734375e+00) (2, 5.72816021740436553955e-02) (3, -5.03956675529479980469e-01) (0, 3.14211934804916381836e-01) (1, 1.61315381526947021484e+00) (2, 1.31990268826484680176e-01) (3, -2.11766406893730163574e-01) (4, -1.35673487186431884766e+00) (5, 3.11915576457977294922e-01) (6, 4.99146848917007446289e-01) (7, 9.99764800071716308594e-01) (8, 1.86072456836700439453e+00) (9, 6.12498104572296142578e-01) (4, 2.79149353504180908203e-01) (5, -1.17560195922851562500e+00) (6, 1.99695718288421630859e+00) (7, 8.68519783020019531250e-01) (8, -4.10460799932479858398e-01) (9, -3.61192412674427032471e-02) (4, -1.26071169972419738770e-01) (5, -2.35003185272216796875e+00) (6, 1.14007747173309326172e+00) (7, -7.62876272201538085938e-02) (8, 2.39695116877555847168e-01) (9, 5.12582845985889434814e-02) 
