FANN_FLO_2.1
num_layers=3
learning_rate=0.100000
connection_rate=1.000000
network_type=0
learning_momentum=0.000000
training_algorithm=1
train_error_function=1
train_stop_function=0
cascade_output_change_fraction=0.010000
quickprop_decay=-0.000100
quickprop_mu=1.750000
rprop_increase_factor=1.200000
rprop_decrease_factor=0.500000
rprop_delta_min=0.000000
rprop_delta_max=50.000000
rprop_delta_zero=0.100000
cascade_output_stagnation_epochs=12
cascade_candidate_change_fraction=0.010000
cascade_candidate_stagnation_epochs=12
cascade_max_out_epochs=150
cascade_min_out_epochs=50
cascade_max_cand_epochs=150
cascade_min_cand_epochs=50
cascade_num_candidate_groups=2
bit_fail_limit=3.49999994039535522461e-01
cascade_candidate_limit=1.00000000000000000000e+03
cascade_weight_multiplier=4.00000005960464477539e-01
cascade_activation_functions_count=10
cascade_activation_functions=3 5 7 8 10 11 14 15 16 17 
cascade_activation_steepnesses_count=4
cascade_activation_steepnesses=2.50000000000000000000e-01 5.00000000000000000000e-01 7.50000000000000000000e-01 1.00000000000000000000e+00 
layer_sizes=4 11 4 
scale_included=1
scale_mean_in=0.046675 0.175273 -0.020632 
scale_deviation_in=0.014738 0.017400 0.013246 
scale_new_min_in=-0.900000 -0.900000 -0.900000 
scale_factor_in=0.900000 0.900000 0.900000 
scale_mean_out=-0.260886 1.691054 -1.091987 
scale_deviation_out=0.082917 0.243150 0.318999 
scale_new_min_out=-0.900000 -0.900000 -0.900000 
scale_factor_out=0.900000 0.900000 0.900000 
neurons (num_inputs, activation_function, activation_steepness)=(0, 0, 0.00000000000000000000e+00) (0, 0, 0.00000000000000000000e+00) (0, 0, 0.00000000000000000000e+00) (0, 0, 0.00000000000000000000e+00) (4, 5, 5.00000000000000000000e-01) (4, 5, 5.00000000000000000000e-01) (4, 5, 5.00000000000000000000e-01) (4, 5, 5.00000000000000000000e-01) (4, 5, 5.00000000000000000000e-01) (4, 5, 5.00000000000000000000e-01) (4, 5, 5.00000000000000000000e-01) (4, 5, 5.00000000000000000000e-01) (4, 5, 5.00000000000000000000e-01) (4, 5, 5.00000000000000000000e-01) (0, 5, 0.00000000000000000000e+00) (11, 5, 5.00000000000000000000e-01) (11, 5, 5.00000000000000000000e-01) (11, 5, 5.00000000000000000000e-01) (0, 5, 0.00000000000000000000e+00) 
connections (connected_to_neuron, weight)=(0, -6.90577030181884765625e-01) (1, 6.88071697950363159180e-02) (2, -2.55687773227691650391e-01) (3, 2.26284712553024291992e-01) (0, -1.30669128894805908203e+00) (1, -2.49986052513122558594e-01) (2, -1.49161145091056823730e-01) (3, -1.68840795755386352539e-01) (0, -9.95976388454437255859e-01) (1, -1.40782654285430908203e-01) (2, 5.83005249500274658203e-01) (3, -2.98466533422470092773e-01) (0, -3.83530855178833007812e-01) (1, -8.32210779190063476562e-01) (2, -4.03980582952499389648e-01) (3, 9.02410596609115600586e-02) (0, 2.39863574504852294922e-01) (1, -9.51580345630645751953e-01) (2, 3.00792902708053588867e-01) (3, 7.04648315906524658203e-01) (0, -2.79354304075241088867e-01) (1, -1.32343137264251708984e+00) (2, -2.96074897050857543945e-01) (3, 2.10362792015075683594e-01) (0, 8.95943641662597656250e-01) (1, -8.96847426891326904297e-01) (2, -1.57257933169603347778e-02) (3, 5.80056160688400268555e-02) (0, -1.26606702804565429688e-01) (1, 1.27755963802337646484e+00) (2, -8.20326730608940124512e-02) (3, -7.29294791817665100098e-02) (0, 2.48768314719200134277e-01) (1, 1.18381464481353759766e+00) (2, -9.88144516944885253906e-01) (3, 5.80534636974334716797e-01) (0, -9.08122777938842773438e-01) (1, 6.03855252265930175781e-02) (2, -4.77244555950164794922e-01) (3, 8.72364863753318786621e-02) (4, -8.57952982187271118164e-02) (5, 1.67766010761260986328e+00) (6, 1.06441998481750488281e+00) (7, -1.12397648394107818604e-01) (8, -7.01888084411621093750e-01) (9, -3.45503628253936767578e-01) (10, -3.00508648157119750977e-01) (11, 4.66358661651611328125e-01) (12, -2.07453444600105285645e-02) (13, 7.26550579071044921875e-01) (14, 4.91878360509872436523e-01) (4, 2.97274321317672729492e-01) (5, 2.42193073034286499023e-01) (6, 8.15757572650909423828e-01) (7, -1.92161574959754943848e-01) (8, 2.83397376537322998047e-01) (9, 7.72818505764007568359e-01) (10, 5.49569845199584960938e-01) (11, -1.16025900840759277344e+00) (12, -1.24091875553131103516e+00) (13, -1.95284374058246612549e-02) (14, 2.05306008458137512207e-01) (4, 5.19574105739593505859e-01) (5, -3.94869059324264526367e-01) (6, 3.20351928472518920898e-01) (7, 9.95266795158386230469e-01) (8, 1.23226654529571533203e+00) (9, 1.17402911186218261719e+00) (10, -3.86482059955596923828e-01) (11, -1.08990371227264404297e+00) (12, -5.45267939567565917969e-01) (13, -2.35059753060340881348e-01) (14, -3.96608650684356689453e-01) 
