FANN_FLO_2.1
num_layers=3
learning_rate=0.100000
connection_rate=1.000000
network_type=0
learning_momentum=0.000000
training_algorithm=1
train_error_function=1
train_stop_function=0
cascade_output_change_fraction=0.010000
quickprop_decay=-0.000100
quickprop_mu=1.750000
rprop_increase_factor=1.200000
rprop_decrease_factor=0.500000
rprop_delta_min=0.000000
rprop_delta_max=50.000000
rprop_delta_zero=0.100000
cascade_output_stagnation_epochs=12
cascade_candidate_change_fraction=0.010000
cascade_candidate_stagnation_epochs=12
cascade_max_out_epochs=150
cascade_min_out_epochs=50
cascade_max_cand_epochs=150
cascade_min_cand_epochs=50
cascade_num_candidate_groups=2
bit_fail_limit=3.49999994039535522461e-01
cascade_candidate_limit=1.00000000000000000000e+03
cascade_weight_multiplier=4.00000005960464477539e-01
cascade_activation_functions_count=10
cascade_activation_functions=3 5 7 8 10 11 14 15 16 17 
cascade_activation_steepnesses_count=4
cascade_activation_steepnesses=2.50000000000000000000e-01 5.00000000000000000000e-01 7.50000000000000000000e-01 1.00000000000000000000e+00 
layer_sizes=4 11 4 
scale_included=1
scale_mean_in=0.138145 0.157987 0.023014 
scale_deviation_in=0.010368 0.009127 0.012754 
scale_new_min_in=-0.900000 -0.900000 -0.900000 
scale_factor_in=0.900000 0.900000 0.900000 
scale_mean_out=-0.718338 1.426199 -1.870642 
scale_deviation_out=0.054700 0.183593 0.265444 
scale_new_min_out=-0.900000 -0.900000 -0.900000 
scale_factor_out=0.900000 0.900000 0.900000 
neurons (num_inputs, activation_function, activation_steepness)=(0, 0, 0.00000000000000000000e+00) (0, 0, 0.00000000000000000000e+00) (0, 0, 0.00000000000000000000e+00) (0, 0, 0.00000000000000000000e+00) (4, 5, 5.00000000000000000000e-01) (4, 5, 5.00000000000000000000e-01) (4, 5, 5.00000000000000000000e-01) (4, 5, 5.00000000000000000000e-01) (4, 5, 5.00000000000000000000e-01) (4, 5, 5.00000000000000000000e-01) (4, 5, 5.00000000000000000000e-01) (4, 5, 5.00000000000000000000e-01) (4, 5, 5.00000000000000000000e-01) (4, 5, 5.00000000000000000000e-01) (0, 5, 0.00000000000000000000e+00) (11, 5, 5.00000000000000000000e-01) (11, 5, 5.00000000000000000000e-01) (11, 5, 5.00000000000000000000e-01) (0, 5, 0.00000000000000000000e+00) 
connections (connected_to_neuron, weight)=(0, -1.03071379661560058594e+00) (1, 1.74214951694011688232e-02) (2, 5.91293752193450927734e-01) (3, 7.41207361221313476562e-01) (0, 1.28473711013793945312e+00) (1, -6.02262973785400390625e-01) (2, 5.57439029216766357422e-01) (3, -5.76841771602630615234e-01) (0, -4.00959283113479614258e-01) (1, 4.10384088754653930664e-01) (2, 9.28176939487457275391e-01) (3, -2.91162222623825073242e-01) (0, 1.09604883193969726562e+00) (1, 1.09629118442535400391e+00) (2, -3.06742399930953979492e-01) (3, 6.65235221385955810547e-01) (0, 3.39916706085205078125e-01) (1, 7.03332722187042236328e-01) (2, 1.06256701052188873291e-01) (3, -3.03693115711212158203e-01) (0, -3.01765322685241699219e-01) (1, 3.27190160751342773438e-01) (2, 1.02996313571929931641e+00) (3, -5.58652341365814208984e-01) (0, -1.55146107077598571777e-01) (1, 1.15326845645904541016e+00) (2, 6.85927271842956542969e-01) (3, 5.24750590324401855469e-01) (0, -3.33167076110839843750e-01) (1, -1.24249064922332763672e+00) (2, 1.85469165444374084473e-02) (3, 5.09935081005096435547e-01) (0, -1.76189231872558593750e+00) (1, -1.13519704341888427734e+00) (2, -4.37681496143341064453e-01) (3, -1.52217313647270202637e-01) (0, 8.52937102317810058594e-01) (1, -5.62701642513275146484e-01) (2, -8.16757023334503173828e-01) (3, 5.66375076770782470703e-01) (4, -2.29305759072303771973e-01) (5, -1.71323156356811523438e+00) (6, 5.89629635214805603027e-02) (7, 3.40535581111907958984e-01) (8, 4.57278043031692504883e-01) (9, 5.75885921716690063477e-03) (10, 1.06860482692718505859e+00) (11, -1.03189218044281005859e+00) (12, 1.30703651905059814453e+00) (13, -1.04616034030914306641e+00) (14, 3.41815454885363578796e-03) (4, 1.21906387805938720703e+00) (5, -1.12366944551467895508e-01) (6, -6.61474168300628662109e-02) (7, -1.34206819534301757812e+00) (8, -9.87074375152587890625e-01) (9, -1.51004746556282043457e-01) (10, -1.02744257450103759766e+00) (11, 1.21157228946685791016e+00) (12, 1.48062026500701904297e+00) (13, -5.33974707126617431641e-01) (14, 2.05307573080062866211e-01) (4, 4.71763879060745239258e-01) (5, -5.33104240894317626953e-01) (6, -5.44441998004913330078e-01) (7, -1.20248973369598388672e+00) (8, -3.60344558954238891602e-01) (9, -7.20493793487548828125e-01) (10, -1.84071570634841918945e-01) (11, 8.34890007972717285156e-01) (12, 2.27335810661315917969e+00) (13, 5.76825976371765136719e-01) (14, -4.06238250434398651123e-02) 
