FANN_FLO_2.1
num_layers=3
learning_rate=0.100000
connection_rate=1.000000
network_type=0
learning_momentum=0.000000
training_algorithm=1
train_error_function=1
train_stop_function=0
cascade_output_change_fraction=0.010000
quickprop_decay=-0.000100
quickprop_mu=1.750000
rprop_increase_factor=1.200000
rprop_decrease_factor=0.500000
rprop_delta_min=0.000000
rprop_delta_max=50.000000
rprop_delta_zero=0.100000
cascade_output_stagnation_epochs=12
cascade_candidate_change_fraction=0.010000
cascade_candidate_stagnation_epochs=12
cascade_max_out_epochs=150
cascade_min_out_epochs=50
cascade_max_cand_epochs=150
cascade_min_cand_epochs=50
cascade_num_candidate_groups=2
bit_fail_limit=3.49999994039535522461e-01
cascade_candidate_limit=1.00000000000000000000e+03
cascade_weight_multiplier=4.00000005960464477539e-01
cascade_activation_functions_count=10
cascade_activation_functions=3 5 7 8 10 11 14 15 16 17 
cascade_activation_steepnesses_count=4
cascade_activation_steepnesses=2.50000000000000000000e-01 5.00000000000000000000e-01 7.50000000000000000000e-01 1.00000000000000000000e+00 
layer_sizes=4 11 4 
scale_included=1
scale_mean_in=0.177340 0.037058 0.098804 
scale_deviation_in=0.002333 0.009377 0.003107 
scale_new_min_in=-0.900000 -0.900000 -0.900000 
scale_factor_in=0.900000 0.900000 0.900000 
scale_mean_out=-1.365191 1.678302 -2.190985 
scale_deviation_out=0.050912 0.092077 0.144692 
scale_new_min_out=-0.900000 -0.900000 -0.900000 
scale_factor_out=0.900000 0.900000 0.900000 
neurons (num_inputs, activation_function, activation_steepness)=(0, 0, 0.00000000000000000000e+00) (0, 0, 0.00000000000000000000e+00) (0, 0, 0.00000000000000000000e+00) (0, 0, 0.00000000000000000000e+00) (4, 5, 5.00000000000000000000e-01) (4, 5, 5.00000000000000000000e-01) (4, 5, 5.00000000000000000000e-01) (4, 5, 5.00000000000000000000e-01) (4, 5, 5.00000000000000000000e-01) (4, 5, 5.00000000000000000000e-01) (4, 5, 5.00000000000000000000e-01) (4, 5, 5.00000000000000000000e-01) (4, 5, 5.00000000000000000000e-01) (4, 5, 5.00000000000000000000e-01) (0, 5, 0.00000000000000000000e+00) (11, 5, 5.00000000000000000000e-01) (11, 5, 5.00000000000000000000e-01) (11, 5, 5.00000000000000000000e-01) (0, 5, 0.00000000000000000000e+00) 
connections (connected_to_neuron, weight)=(0, -1.48133277893066406250e+00) (1, -1.51299023628234863281e+00) (2, -1.44041633605957031250e+00) (3, 1.11446268856525421143e-01) (0, -9.11360263824462890625e-01) (1, 1.02378237247467041016e+00) (2, 2.71853655576705932617e-01) (3, -5.35355925559997558594e-01) (0, 4.45643007755279541016e-01) (1, 4.42654103040695190430e-01) (2, -9.01815772056579589844e-01) (3, 1.26499205827713012695e-01) (0, -5.59657990932464599609e-01) (1, 1.00408709049224853516e+00) (2, -7.06382155418395996094e-01) (3, 3.17617714405059814453e-01) (0, 4.62034672498703002930e-01) (1, 1.53212046623229980469e+00) (2, 4.22189831733703613281e-01) (3, 5.66477030515670776367e-02) (0, 1.41766481101512908936e-02) (1, 1.98333561420440673828e-01) (2, -8.00110280513763427734e-01) (3, 1.06165599822998046875e+00) (0, 1.86342909932136535645e-01) (1, 7.06512153148651123047e-01) (2, -1.52906343340873718262e-01) (3, 4.58455860614776611328e-01) (0, 1.14358770847320556641e+00) (1, 6.94492638111114501953e-01) (2, 1.09708106517791748047e+00) (3, 6.32629156112670898438e-01) (0, -2.89805442094802856445e-01) (1, -2.36535683274269104004e-01) (2, -5.78245818614959716797e-01) (3, 6.79843574762344360352e-02) (0, 5.08735120296478271484e-01) (1, -1.77225217223167419434e-01) (2, 7.11197793483734130859e-01) (3, -3.20939779281616210938e-01) (4, -7.73637712001800537109e-01) (5, 1.42381656169891357422e+00) (6, 9.98805522918701171875e-01) (7, 1.25667572021484375000e+00) (8, 1.40251469612121582031e+00) (9, -4.13266539573669433594e-01) (10, 4.25368100404739379883e-01) (11, -9.17922914028167724609e-01) (12, -4.12795841693878173828e-01) (13, 3.89668285846710205078e-01) (14, 4.60235983133316040039e-01) (4, 1.90230178833007812500e+00) (5, 1.01528845727443695068e-01) (6, -7.65278697013854980469e-01) (7, 1.80731505155563354492e-01) (8, -1.29758000373840332031e+00) (9, 4.32254552841186523438e-01) (10, 4.68385487794876098633e-01) (11, -1.52573502063751220703e+00) (12, 2.73202717304229736328e-01) (13, -4.77058470249176025391e-01) (14, 2.69033253192901611328e-01) (4, 1.63808333873748779297e+00) (5, 4.07815836369991302490e-02) (6, 7.54837036132812500000e-01) (7, 8.35666954517364501953e-01) (8, -1.10540819168090820312e+00) (9, -2.26226262748241424561e-02) (10, -1.08496296405792236328e+00) (11, -1.59856379032135009766e+00) (12, 7.52883791923522949219e-01) (13, -1.35002568364143371582e-01) (14, 6.82191312313079833984e-01) 
