FANN_FLO_2.1
num_layers=3
learning_rate=0.100000
connection_rate=1.000000
network_type=0
learning_momentum=0.000000
training_algorithm=1
train_error_function=1
train_stop_function=0
cascade_output_change_fraction=0.010000
quickprop_decay=-0.000100
quickprop_mu=1.750000
rprop_increase_factor=1.200000
rprop_decrease_factor=0.500000
rprop_delta_min=0.000000
rprop_delta_max=50.000000
rprop_delta_zero=0.100000
cascade_output_stagnation_epochs=12
cascade_candidate_change_fraction=0.010000
cascade_candidate_stagnation_epochs=12
cascade_max_out_epochs=150
cascade_min_out_epochs=50
cascade_max_cand_epochs=150
cascade_min_cand_epochs=50
cascade_num_candidate_groups=2
bit_fail_limit=3.49999994039535522461e-01
cascade_candidate_limit=1.00000000000000000000e+03
cascade_weight_multiplier=4.00000005960464477539e-01
cascade_activation_functions_count=10
cascade_activation_functions=3 5 7 8 10 11 14 15 16 17 
cascade_activation_steepnesses_count=4
cascade_activation_steepnesses=2.50000000000000000000e-01 5.00000000000000000000e-01 7.50000000000000000000e-01 1.00000000000000000000e+00 
layer_sizes=4 11 4 
scale_included=1
scale_mean_in=0.046617 0.113941 0.117030 
scale_deviation_in=0.014617 0.016911 0.013046 
scale_new_min_in=-0.900000 -0.900000 -0.900000 
scale_factor_in=0.900000 0.900000 0.900000 
scale_mean_out=-0.390180 2.497446 -1.426227 
scale_deviation_out=0.123878 0.256333 0.329165 
scale_new_min_out=-0.900000 -0.900000 -0.900000 
scale_factor_out=0.900000 0.900000 0.900000 
neurons (num_inputs, activation_function, activation_steepness)=(0, 0, 0.00000000000000000000e+00) (0, 0, 0.00000000000000000000e+00) (0, 0, 0.00000000000000000000e+00) (0, 0, 0.00000000000000000000e+00) (4, 5, 5.00000000000000000000e-01) (4, 5, 5.00000000000000000000e-01) (4, 5, 5.00000000000000000000e-01) (4, 5, 5.00000000000000000000e-01) (4, 5, 5.00000000000000000000e-01) (4, 5, 5.00000000000000000000e-01) (4, 5, 5.00000000000000000000e-01) (4, 5, 5.00000000000000000000e-01) (4, 5, 5.00000000000000000000e-01) (4, 5, 5.00000000000000000000e-01) (0, 5, 0.00000000000000000000e+00) (11, 5, 5.00000000000000000000e-01) (11, 5, 5.00000000000000000000e-01) (11, 5, 5.00000000000000000000e-01) (0, 5, 0.00000000000000000000e+00) 
connections (connected_to_neuron, weight)=(0, 1.05864085257053375244e-01) (1, -1.31683051586151123047e+00) (2, -1.18929529190063476562e+00) (3, -4.13431733846664428711e-01) (0, 4.25851762294769287109e-01) (1, 1.35977101325988769531e+00) (2, 3.36157828569412231445e-01) (3, -1.39973312616348266602e-01) (0, 4.55536276102066040039e-01) (1, 6.90624296665191650391e-01) (2, 3.55769038200378417969e-01) (3, 3.94282162189483642578e-01) (0, 4.59150373935699462891e-01) (1, -8.69862914085388183594e-01) (2, 2.28421226143836975098e-01) (3, 2.80014604330062866211e-01) (0, 9.75568890571594238281e-01) (1, -4.67984110116958618164e-01) (2, 2.89639562368392944336e-01) (3, -6.27116188406944274902e-02) (0, -1.03403401374816894531e+00) (1, 2.74172693490982055664e-01) (2, 1.32606339454650878906e+00) (3, -5.78619420528411865234e-01) (0, 2.28229090571403503418e-01) (1, 2.38871216773986816406e-01) (2, -4.54987794160842895508e-01) (3, -6.87629640102386474609e-01) (0, 2.70984232425689697266e-01) (1, -1.11717712879180908203e+00) (2, 1.42152726650238037109e-01) (3, 1.83274984359741210938e-01) (0, -9.38047230243682861328e-01) (1, -6.89646065235137939453e-01) (2, -9.74569141864776611328e-01) (3, 5.73062539100646972656e-01) (0, -1.71479654312133789062e+00) (1, 5.02402067184448242188e-01) (2, -5.91218471527099609375e-01) (3, -7.43802338838577270508e-02) (4, -5.88696956634521484375e-01) (5, 6.41490876674652099609e-01) (6, -4.06504660844802856445e-01) (7, -9.02031123638153076172e-01) (8, -3.85870814323425292969e-01) (9, 1.05479526519775390625e+00) (10, -4.55953687429428100586e-01) (11, -7.60742649435997009277e-02) (12, 9.19057965278625488281e-01) (13, 1.83786213397979736328e+00) (14, 1.13340072333812713623e-01) (4, 1.23910093307495117188e+00) (5, -1.63589501380920410156e+00) (6, -7.99923777580261230469e-01) (7, 8.77858817577362060547e-01) (8, -5.53808987140655517578e-01) (9, -5.84070503711700439453e-01) (10, -2.42462515830993652344e-01) (11, 2.28826761245727539062e-01) (12, 2.37086221575736999512e-01) (13, 7.01701462268829345703e-01) (14, -8.99158418178558349609e-03) (4, 1.41853320598602294922e+00) (5, -3.11905592679977416992e-01) (6, -3.41724306344985961914e-01) (7, -4.52984064817428588867e-01) (8, 1.02262429893016815186e-01) (9, -9.04894709587097167969e-01) (10, 5.74599504470825195312e-01) (11, 5.61127305030822753906e-01) (12, 1.75700831413269042969e+00) (13, 3.58314901590347290039e-01) (14, 5.73443286120891571045e-02) 
