FANN_FLO_2.1
num_layers=3
learning_rate=0.100000
connection_rate=1.000000
network_type=0
learning_momentum=0.000000
training_algorithm=1
train_error_function=1
train_stop_function=0
cascade_output_change_fraction=0.010000
quickprop_decay=-0.000100
quickprop_mu=1.750000
rprop_increase_factor=1.200000
rprop_decrease_factor=0.500000
rprop_delta_min=0.000000
rprop_delta_max=50.000000
rprop_delta_zero=0.100000
cascade_output_stagnation_epochs=12
cascade_candidate_change_fraction=0.010000
cascade_candidate_stagnation_epochs=12
cascade_max_out_epochs=150
cascade_min_out_epochs=50
cascade_max_cand_epochs=150
cascade_min_cand_epochs=50
cascade_num_candidate_groups=2
bit_fail_limit=3.49999994039535522461e-01
cascade_candidate_limit=1.00000000000000000000e+03
cascade_weight_multiplier=4.00000005960464477539e-01
cascade_activation_functions_count=10
cascade_activation_functions=3 5 7 8 10 11 14 15 16 17 
cascade_activation_steepnesses_count=4
cascade_activation_steepnesses=2.50000000000000000000e-01 5.00000000000000000000e-01 7.50000000000000000000e-01 1.00000000000000000000e+00 
layer_sizes=4 11 4 
scale_included=1
scale_mean_in=0.046177 -0.005243 0.154200 
scale_deviation_in=0.014660 0.017339 0.007757 
scale_new_min_in=-0.900000 -0.900000 -0.900000 
scale_factor_in=0.900000 0.900000 0.900000 
scale_mean_out=-1.676765 2.783543 -1.752659 
scale_deviation_out=0.389656 0.189060 0.264907 
scale_new_min_out=-0.900000 -0.900000 -0.900000 
scale_factor_out=0.900000 0.900000 0.900000 
neurons (num_inputs, activation_function, activation_steepness)=(0, 0, 0.00000000000000000000e+00) (0, 0, 0.00000000000000000000e+00) (0, 0, 0.00000000000000000000e+00) (0, 0, 0.00000000000000000000e+00) (4, 5, 5.00000000000000000000e-01) (4, 5, 5.00000000000000000000e-01) (4, 5, 5.00000000000000000000e-01) (4, 5, 5.00000000000000000000e-01) (4, 5, 5.00000000000000000000e-01) (4, 5, 5.00000000000000000000e-01) (4, 5, 5.00000000000000000000e-01) (4, 5, 5.00000000000000000000e-01) (4, 5, 5.00000000000000000000e-01) (4, 5, 5.00000000000000000000e-01) (0, 5, 0.00000000000000000000e+00) (11, 5, 5.00000000000000000000e-01) (11, 5, 5.00000000000000000000e-01) (11, 5, 5.00000000000000000000e-01) (0, 5, 0.00000000000000000000e+00) 
connections (connected_to_neuron, weight)=(0, 1.11101555824279785156e+00) (1, 1.11068069934844970703e+00) (2, -1.38243362307548522949e-01) (3, 8.12650859355926513672e-01) (0, -3.37389022111892700195e-01) (1, -1.88215702772140502930e-01) (2, -1.34926044940948486328e+00) (3, 2.75861043483018875122e-02) (0, 9.75953042507171630859e-01) (1, -1.54716357588768005371e-01) (2, 8.06424915790557861328e-01) (3, -6.13870382308959960938e-01) (0, -4.09157305955886840820e-01) (1, -1.05008625984191894531e+00) (2, -5.17281413078308105469e-01) (3, 2.42011144757270812988e-01) (0, 7.46961057186126708984e-01) (1, -6.70343756675720214844e-01) (2, 6.00785434246063232422e-01) (3, 5.22000610828399658203e-01) (0, -6.17978811264038085938e-01) (1, 6.88222169876098632812e-01) (2, 6.93413376808166503906e-01) (3, 6.14978492259979248047e-01) (0, 5.75133681297302246094e-01) (1, -4.53564733266830444336e-01) (2, 6.75196170806884765625e-01) (3, -3.03698599338531494141e-01) (0, 8.11542809009552001953e-01) (1, 2.65284061431884765625e-01) (2, 6.27149462699890136719e-01) (3, 7.37626254558563232422e-01) (0, -2.77664780616760253906e-01) (1, 1.46715509891510009766e+00) (2, 5.92827260494232177734e-01) (3, -6.82610392570495605469e-01) (0, -1.69793799519538879395e-01) (1, -1.09425282478332519531e+00) (2, 1.27215862274169921875e+00) (3, -2.84818708896636962891e-01) (4, 1.10325407981872558594e+00) (5, -1.76794454455375671387e-01) (6, -1.92065909504890441895e-01) (7, -1.31698966026306152344e+00) (8, -6.58223628997802734375e-01) (9, 3.75540286302566528320e-01) (10, 3.21494311094284057617e-01) (11, -1.89887851476669311523e-01) (12, 1.83705127239227294922e+00) (13, -1.39272546768188476562e+00) (14, 2.52606481313705444336e-01) (4, -6.04299128055572509766e-01) (5, 1.64003109931945800781e+00) (6, -8.93882215023040771484e-01) (7, 1.11770856380462646484e+00) (8, -6.82835876941680908203e-01) (9, 3.86238634586334228516e-01) (10, -6.59954428672790527344e-01) (11, -1.34869113564491271973e-01) (12, 6.79416507482528686523e-02) (13, -1.32965445518493652344e+00) (14, -1.77138656377792358398e-01) (4, 1.49550452828407287598e-01) (5, 1.69879496097564697266e+00) (6, -1.00035108625888824463e-01) (7, -1.94196820259094238281e-01) (8, -9.80372905731201171875e-01) (9, -1.32777154445648193359e+00) (10, -5.86914479732513427734e-01) (11, -4.91076946258544921875e-01) (12, -1.06604218482971191406e+00) (13, -1.44222497940063476562e+00) (14, 4.38729971647262573242e-01) 
