FANN_FLO_2.1
num_layers=3
learning_rate=0.100000
connection_rate=1.000000
network_type=0
learning_momentum=0.000000
training_algorithm=1
train_error_function=1
train_stop_function=0
cascade_output_change_fraction=0.010000
quickprop_decay=-0.000100
quickprop_mu=1.750000
rprop_increase_factor=1.200000
rprop_decrease_factor=0.500000
rprop_delta_min=0.000000
rprop_delta_max=50.000000
rprop_delta_zero=0.100000
cascade_output_stagnation_epochs=12
cascade_candidate_change_fraction=0.010000
cascade_candidate_stagnation_epochs=12
cascade_max_out_epochs=150
cascade_min_out_epochs=50
cascade_max_cand_epochs=150
cascade_min_cand_epochs=50
cascade_num_candidate_groups=2
bit_fail_limit=3.49999994039535522461e-01
cascade_candidate_limit=1.00000000000000000000e+03
cascade_weight_multiplier=4.00000005960464477539e-01
cascade_activation_functions_count=10
cascade_activation_functions=3 5 7 8 10 11 14 15 16 17 
cascade_activation_steepnesses_count=4
cascade_activation_steepnesses=2.50000000000000000000e-01 5.00000000000000000000e-01 7.50000000000000000000e-01 1.00000000000000000000e+00 
layer_sizes=4 6 4 
scale_included=1
scale_mean_in=0.061323 0.013323 -0.167675 
scale_deviation_in=0.018871 0.017694 0.013052 
scale_new_min_in=-0.900000 -0.900000 -0.900000 
scale_factor_in=0.900000 0.900000 0.900000 
scale_mean_out=-1.360373 0.210524 -1.306503 
scale_deviation_out=0.290794 0.191975 0.274416 
scale_new_min_out=-0.900000 -0.900000 -0.900000 
scale_factor_out=0.900000 0.900000 0.900000 
neurons (num_inputs, activation_function, activation_steepness)=(0, 0, 0.00000000000000000000e+00) (0, 0, 0.00000000000000000000e+00) (0, 0, 0.00000000000000000000e+00) (0, 0, 0.00000000000000000000e+00) (4, 5, 5.00000000000000000000e-01) (4, 5, 5.00000000000000000000e-01) (4, 5, 5.00000000000000000000e-01) (4, 5, 5.00000000000000000000e-01) (4, 5, 5.00000000000000000000e-01) (0, 5, 0.00000000000000000000e+00) (6, 5, 5.00000000000000000000e-01) (6, 5, 5.00000000000000000000e-01) (6, 5, 5.00000000000000000000e-01) (0, 5, 0.00000000000000000000e+00) 
connections (connected_to_neuron, weight)=(0, -1.32238888740539550781e+00) (1, 1.23900008201599121094e+00) (2, 1.22278541326522827148e-01) (3, -8.65482866764068603516e-01) (0, 2.28362649679183959961e-01) (1, -1.82827487587928771973e-01) (2, -1.59943389892578125000e+00) (3, -6.34410321712493896484e-01) (0, 3.05615663528442382812e-01) (1, -5.43025434017181396484e-01) (2, -8.12276184558868408203e-01) (3, -1.04258157312870025635e-01) (0, -1.79539903998374938965e-01) (1, 9.48720395565032958984e-01) (2, -1.17838418483734130859e+00) (3, 7.78774768114089965820e-02) (0, 1.33462929725646972656e+00) (1, 1.27705299854278564453e+00) (2, 4.68866884708404541016e-01) (3, 6.48119509220123291016e-01) (4, 2.39242172241210937500e+00) (5, -6.88313484191894531250e-01) (6, -8.19480419158935546875e-01) (7, 2.20386219024658203125e+00) (8, 1.75725960731506347656e+00) (9, 1.61507874727249145508e-01) (4, -5.90082287788391113281e-01) (5, -2.53773450851440429688e+00) (6, -2.79840469360351562500e-01) (7, -1.78195452690124511719e+00) (8, 2.21550536155700683594e+00) (9, -1.16205942630767822266e+00) (4, 9.61573302745819091797e-01) (5, -2.01658892631530761719e+00) (6, -9.81650829315185546875e-01) (7, -2.07684922218322753906e+00) (8, -2.84342676401138305664e-01) (9, -6.31253123283386230469e-02) 
