FANN_FLO_2.1
num_layers=3
learning_rate=0.100000
connection_rate=1.000000
network_type=0
learning_momentum=0.000000
training_algorithm=1
train_error_function=1
train_stop_function=0
cascade_output_change_fraction=0.010000
quickprop_decay=-0.000100
quickprop_mu=1.750000
rprop_increase_factor=1.200000
rprop_decrease_factor=0.500000
rprop_delta_min=0.000000
rprop_delta_max=50.000000
rprop_delta_zero=0.100000
cascade_output_stagnation_epochs=12
cascade_candidate_change_fraction=0.010000
cascade_candidate_stagnation_epochs=12
cascade_max_out_epochs=150
cascade_min_out_epochs=50
cascade_max_cand_epochs=150
cascade_min_cand_epochs=50
cascade_num_candidate_groups=2
bit_fail_limit=3.49999994039535522461e-01
cascade_candidate_limit=1.00000000000000000000e+03
cascade_weight_multiplier=4.00000005960464477539e-01
cascade_activation_functions_count=10
cascade_activation_functions=3 5 7 8 10 11 14 15 16 17 
cascade_activation_steepnesses_count=4
cascade_activation_steepnesses=2.50000000000000000000e-01 5.00000000000000000000e-01 7.50000000000000000000e-01 1.00000000000000000000e+00 
layer_sizes=4 6 4 
scale_included=1
scale_mean_in=0.139298 0.015267 -0.038507 
scale_deviation_in=0.015544 0.018133 0.012016 
scale_new_min_in=-0.900000 -0.900000 -0.900000 
scale_factor_in=0.900000 0.900000 0.900000 
scale_mean_out=-1.460708 2.035362 -0.498923 
scale_deviation_out=0.132180 0.136542 0.195269 
scale_new_min_out=-0.900000 -0.900000 -0.900000 
scale_factor_out=0.900000 0.900000 0.900000 
neurons (num_inputs, activation_function, activation_steepness)=(0, 0, 0.00000000000000000000e+00) (0, 0, 0.00000000000000000000e+00) (0, 0, 0.00000000000000000000e+00) (0, 0, 0.00000000000000000000e+00) (4, 5, 5.00000000000000000000e-01) (4, 5, 5.00000000000000000000e-01) (4, 5, 5.00000000000000000000e-01) (4, 5, 5.00000000000000000000e-01) (4, 5, 5.00000000000000000000e-01) (0, 5, 0.00000000000000000000e+00) (6, 5, 5.00000000000000000000e-01) (6, 5, 5.00000000000000000000e-01) (6, 5, 5.00000000000000000000e-01) (0, 5, 0.00000000000000000000e+00) 
connections (connected_to_neuron, weight)=(0, 1.12619650363922119141e+00) (1, 8.86937201023101806641e-01) (2, -7.48738050460815429688e-01) (3, -3.90465617179870605469e-01) (0, -5.97084403038024902344e-01) (1, -5.84741793572902679443e-02) (2, -1.03608834743499755859e+00) (3, 5.33077001571655273438e-01) (0, -5.09339928627014160156e-01) (1, 9.48462486267089843750e-01) (2, -2.62272834777832031250e-01) (3, -8.20195954293012619019e-03) (0, -1.13367664813995361328e+00) (1, 7.34382987022399902344e-01) (2, 1.15801692008972167969e+00) (3, 1.27398371696472167969e-01) (0, -1.01129341125488281250e+00) (1, -8.56891334056854248047e-01) (2, 6.26798689365386962891e-01) (3, -5.53120672702789306641e-02) (4, 1.04752743244171142578e+00) (5, 1.84082031250000000000e-01) (6, 2.14477920532226562500e+00) (7, 2.65394449234008789062e+00) (8, -2.24687266349792480469e+00) (9, -6.32217228412628173828e-02) (4, -1.92442417144775390625e+00) (5, -1.78538635373115539551e-01) (6, 2.56257534027099609375e-01) (7, 3.18440699577331542969e+00) (8, 2.17884612083435058594e+00) (9, -4.59837675094604492188e-01) (4, -1.50474226474761962891e+00) (5, 2.24975991249084472656e+00) (6, 1.89626741409301757812e+00) (7, 1.15844988822937011719e+00) (8, 2.41424632072448730469e+00) (9, -6.75617456436157226562e-01) 
