FANN_FLO_2.1
num_layers=3
learning_rate=0.100000
connection_rate=1.000000
network_type=0
learning_momentum=0.000000
training_algorithm=1
train_error_function=1
train_stop_function=0
cascade_output_change_fraction=0.010000
quickprop_decay=-0.000100
quickprop_mu=1.750000
rprop_increase_factor=1.200000
rprop_decrease_factor=0.500000
rprop_delta_min=0.000000
rprop_delta_max=50.000000
rprop_delta_zero=0.100000
cascade_output_stagnation_epochs=12
cascade_candidate_change_fraction=0.010000
cascade_candidate_stagnation_epochs=12
cascade_max_out_epochs=150
cascade_min_out_epochs=50
cascade_max_cand_epochs=150
cascade_min_cand_epochs=50
cascade_num_candidate_groups=2
bit_fail_limit=3.49999994039535522461e-01
cascade_candidate_limit=1.00000000000000000000e+03
cascade_weight_multiplier=4.00000005960464477539e-01
cascade_activation_functions_count=10
cascade_activation_functions=3 5 7 8 10 11 14 15 16 17 
cascade_activation_steepnesses_count=4
cascade_activation_steepnesses=2.50000000000000000000e-01 5.00000000000000000000e-01 7.50000000000000000000e-01 1.00000000000000000000e+00 
layer_sizes=4 6 4 
scale_included=1
scale_mean_in=0.197443 0.013827 0.058515 
scale_deviation_in=0.014969 0.018148 0.013021 
scale_new_min_in=-0.900000 -0.900000 -0.900000 
scale_factor_in=0.900000 0.900000 0.900000 
scale_mean_out=-1.500203 1.551253 -2.081966 
scale_deviation_out=0.092756 0.413115 0.594998 
scale_new_min_out=-0.900000 -0.900000 -0.900000 
scale_factor_out=0.900000 0.900000 0.900000 
neurons (num_inputs, activation_function, activation_steepness)=(0, 0, 0.00000000000000000000e+00) (0, 0, 0.00000000000000000000e+00) (0, 0, 0.00000000000000000000e+00) (0, 0, 0.00000000000000000000e+00) (4, 5, 5.00000000000000000000e-01) (4, 5, 5.00000000000000000000e-01) (4, 5, 5.00000000000000000000e-01) (4, 5, 5.00000000000000000000e-01) (4, 5, 5.00000000000000000000e-01) (0, 5, 0.00000000000000000000e+00) (6, 5, 5.00000000000000000000e-01) (6, 5, 5.00000000000000000000e-01) (6, 5, 5.00000000000000000000e-01) (0, 5, 0.00000000000000000000e+00) 
connections (connected_to_neuron, weight)=(0, 2.18893885612487792969e+00) (1, 1.85833677649497985840e-01) (2, 1.13869583606719970703e+00) (3, -3.55649620294570922852e-01) (0, 6.77098274230957031250e-01) (1, -3.72228884696960449219e+00) (2, 5.51645383238792419434e-02) (3, 4.25926637649536132812e+00) (0, 6.10256791114807128906e-01) (1, 2.10771009325981140137e-01) (2, -3.07917147874832153320e-01) (3, -4.38663482666015625000e-01) (0, -3.16247940063476562500e-01) (1, -5.08026838302612304688e-01) (2, -1.52629196643829345703e-01) (3, -7.06600248813629150391e-01) (0, -1.55324265360832214355e-01) (1, 2.75536227226257324219e+00) (2, -3.29908654093742370605e-02) (3, 2.96100640296936035156e+00) (4, -3.74559938907623291016e-01) (5, -5.04624795913696289062e+00) (6, 5.37207759916782379150e-02) (7, -2.42182493209838867188e+00) (8, 3.39458870887756347656e+00) (9, 1.01598799228668212891e+00) (4, -3.00944042205810546875e+00) (5, 7.59871080517768859863e-02) (6, -3.48486042022705078125e+00) (7, 1.75485998392105102539e-01) (8, 6.55144214630126953125e-01) (9, -9.22087192535400390625e-01) (4, -3.35685348510742187500e+00) (5, -1.46917417645454406738e-01) (6, -1.51022493839263916016e+00) (7, 2.53487324714660644531e+00) (8, 1.17613911628723144531e+00) (9, 1.32329717278480529785e-01) 
