FANN_FLO_2.1
num_layers=3
learning_rate=0.100000
connection_rate=1.000000
network_type=0
learning_momentum=0.000000
training_algorithm=1
train_error_function=1
train_stop_function=0
cascade_output_change_fraction=0.010000
quickprop_decay=-0.000100
quickprop_mu=1.750000
rprop_increase_factor=1.200000
rprop_decrease_factor=0.500000
rprop_delta_min=0.000000
rprop_delta_max=50.000000
rprop_delta_zero=0.100000
cascade_output_stagnation_epochs=12
cascade_candidate_change_fraction=0.010000
cascade_candidate_stagnation_epochs=12
cascade_max_out_epochs=150
cascade_min_out_epochs=50
cascade_max_cand_epochs=150
cascade_min_cand_epochs=50
cascade_num_candidate_groups=2
bit_fail_limit=3.49999994039535522461e-01
cascade_candidate_limit=1.00000000000000000000e+03
cascade_weight_multiplier=4.00000005960464477539e-01
cascade_activation_functions_count=10
cascade_activation_functions=3 5 7 8 10 11 14 15 16 17 
cascade_activation_steepnesses_count=4
cascade_activation_steepnesses=2.50000000000000000000e-01 5.00000000000000000000e-01 7.50000000000000000000e-01 1.00000000000000000000e+00 
layer_sizes=4 6 4 
scale_included=1
scale_mean_in=0.174049 0.069780 0.094972 
scale_deviation_in=0.007371 0.015723 0.008943 
scale_new_min_in=-0.900000 -0.900000 -0.900000 
scale_factor_in=0.900000 0.900000 0.900000 
scale_mean_out=-1.190499 1.486872 -2.492978 
scale_deviation_out=0.082980 0.247194 0.377331 
scale_new_min_out=-0.900000 -0.900000 -0.900000 
scale_factor_out=0.900000 0.900000 0.900000 
neurons (num_inputs, activation_function, activation_steepness)=(0, 0, 0.00000000000000000000e+00) (0, 0, 0.00000000000000000000e+00) (0, 0, 0.00000000000000000000e+00) (0, 0, 0.00000000000000000000e+00) (4, 5, 5.00000000000000000000e-01) (4, 5, 5.00000000000000000000e-01) (4, 5, 5.00000000000000000000e-01) (4, 5, 5.00000000000000000000e-01) (4, 5, 5.00000000000000000000e-01) (0, 5, 0.00000000000000000000e+00) (6, 5, 5.00000000000000000000e-01) (6, 5, 5.00000000000000000000e-01) (6, 5, 5.00000000000000000000e-01) (0, 5, 0.00000000000000000000e+00) 
connections (connected_to_neuron, weight)=(0, -7.19404888153076171875e+00) (1, -6.45560407638549804688e+00) (2, -7.29193782806396484375e+00) (3, -7.35695266723632812500e+00) (0, -2.34198594093322753906e+00) (1, -1.74460753798484802246e-01) (2, -1.94711279869079589844e+00) (3, -1.63361346721649169922e+00) (0, 4.45845037698745727539e-01) (1, 1.14328849315643310547e+00) (2, 3.61444979906082153320e-01) (3, 1.94169566035270690918e-01) (0, 1.55218943953514099121e-01) (1, 6.09450340270996093750e-01) (2, 6.15068733692169189453e-01) (3, 1.30379879474639892578e+00) (0, -7.89379775524139404297e-01) (1, 2.87348031997680664062e-01) (2, -6.95107221603393554688e-01) (3, -2.15783810615539550781e+00) (4, -5.80981910228729248047e-01) (5, 2.05224990844726562500e+00) (6, 3.94267678260803222656e+00) (7, 3.17846655845642089844e+00) (8, 3.12714958190917968750e+00) (9, 1.01004445552825927734e+00) (4, 8.57036018371582031250e+00) (5, 1.09468245506286621094e+00) (6, -8.08986783027648925781e-01) (7, 3.22045016288757324219e+00) (8, -3.66211462020874023438e+00) (9, 4.19695234298706054688e+00) (4, 7.69277572631835937500e+00) (5, 8.33741486072540283203e-01) (6, 4.85312610864639282227e-01) (7, 3.07653576135635375977e-01) (8, -2.78139257431030273438e+00) (9, 5.36786174774169921875e+00) 
