FANN_FLO_2.1
num_layers=4
learning_rate=0.100000
connection_rate=1.000000
network_type=0
learning_momentum=0.000000
training_algorithm=1
train_error_function=1
train_stop_function=0
cascade_output_change_fraction=0.010000
quickprop_decay=-0.000100
quickprop_mu=1.750000
rprop_increase_factor=1.200000
rprop_decrease_factor=0.500000
rprop_delta_min=0.000000
rprop_delta_max=50.000000
rprop_delta_zero=0.100000
cascade_output_stagnation_epochs=12
cascade_candidate_change_fraction=0.010000
cascade_candidate_stagnation_epochs=12
cascade_max_out_epochs=150
cascade_min_out_epochs=50
cascade_max_cand_epochs=150
cascade_min_cand_epochs=50
cascade_num_candidate_groups=2
bit_fail_limit=3.49999994039535522461e-01
cascade_candidate_limit=1.00000000000000000000e+03
cascade_weight_multiplier=4.00000005960464477539e-01
cascade_activation_functions_count=10
cascade_activation_functions=3 5 7 8 10 11 14 15 16 17 
cascade_activation_steepnesses_count=4
cascade_activation_steepnesses=2.50000000000000000000e-01 5.00000000000000000000e-01 7.50000000000000000000e-01 1.00000000000000000000e+00 
layer_sizes=4 11 11 4 
scale_included=1
scale_mean_in=0.177888 0.127689 0.015893 
scale_deviation_in=0.002618 0.003498 0.009371 
scale_new_min_in=-0.900000 -0.900000 -0.900000 
scale_factor_in=0.900000 0.900000 0.900000 
scale_mean_out=-0.948253 1.197579 -2.153649 
scale_deviation_out=0.016503 0.093840 0.145029 
scale_new_min_out=-0.900000 -0.900000 -0.900000 
scale_factor_out=0.900000 0.900000 0.900000 
neurons (num_inputs, activation_function, activation_steepness)=(0, 0, 0.00000000000000000000e+00) (0, 0, 0.00000000000000000000e+00) (0, 0, 0.00000000000000000000e+00) (0, 0, 0.00000000000000000000e+00) (4, 5, 5.00000000000000000000e-01) (4, 5, 5.00000000000000000000e-01) (4, 5, 5.00000000000000000000e-01) (4, 5, 5.00000000000000000000e-01) (4, 5, 5.00000000000000000000e-01) (4, 5, 5.00000000000000000000e-01) (4, 5, 5.00000000000000000000e-01) (4, 5, 5.00000000000000000000e-01) (4, 5, 5.00000000000000000000e-01) (4, 5, 5.00000000000000000000e-01) (0, 5, 0.00000000000000000000e+00) (11, 5, 5.00000000000000000000e-01) (11, 5, 5.00000000000000000000e-01) (11, 5, 5.00000000000000000000e-01) (11, 5, 5.00000000000000000000e-01) (11, 5, 5.00000000000000000000e-01) (11, 5, 5.00000000000000000000e-01) (11, 5, 5.00000000000000000000e-01) (11, 5, 5.00000000000000000000e-01) (11, 5, 5.00000000000000000000e-01) (11, 5, 5.00000000000000000000e-01) (0, 5, 0.00000000000000000000e+00) (11, 5, 5.00000000000000000000e-01) (11, 5, 5.00000000000000000000e-01) (11, 5, 5.00000000000000000000e-01) (0, 5, 0.00000000000000000000e+00) 
connections (connected_to_neuron, weight)=(0, 3.27331519126892089844e+00) (1, 3.39952206611633300781e+00) (2, 6.52965188026428222656e-01) (3, -4.33739376068115234375e+00) (0, -2.38112163543701171875e+00) (1, -1.86371827125549316406e+00) (2, -2.60548591613769531250e+00) (3, 1.53667008876800537109e+00) (0, -2.18439197540283203125e+00) (1, -5.51064759492874145508e-02) (2, -1.14515650272369384766e+00) (3, 2.06468939781188964844e+00) (0, 5.99427521228790283203e-01) (1, 1.44291555881500244141e+00) (2, -1.20618784427642822266e+00) (3, -6.21741235256195068359e-01) (0, -2.79973578453063964844e+00) (1, -4.43493008613586425781e-01) (2, -2.05646681785583496094e+00) (3, 8.61653506755828857422e-01) (0, 3.82817268371582031250e-01) (1, -4.26077097654342651367e-01) (2, -9.00824308395385742188e-01) (3, -5.40539443492889404297e-01) (0, -1.40526843070983886719e+00) (1, -8.74977707862854003906e-02) (2, -4.20307874679565429688e-01) (3, -8.06658029556274414062e-01) (0, 4.01377558708190917969e-01) (1, 3.21849107742309570312e+00) (2, 4.87055748701095581055e-01) (3, -3.25673985481262207031e+00) (0, 3.76575422286987304688e+00) (1, 3.53276491165161132812e+00) (2, 1.94730651378631591797e+00) (3, 4.48050546646118164062e+00) (0, 1.60232663154602050781e-01) (1, -2.33114767074584960938e+00) (2, -2.06387996673583984375e+00) (3, 2.07229089736938476562e+00) (4, 7.12104678153991699219e-01) (5, 4.13998812437057495117e-02) (6, -3.85301262140274047852e-02) (7, -6.70935690402984619141e-01) (8, 1.27924811840057373047e+00) (9, -2.40805417299270629883e-01) (10, 1.46307158470153808594e+00) (11, 1.49431139230728149414e-01) (12, -4.65750265121459960938e+00) (13, 1.45259273052215576172e+00) (14, -1.51350569725036621094e+00) (4, 5.68237686157226562500e+00) (5, -4.56099319458007812500e+00) (6, -2.20540595054626464844e+00) (7, 1.38594877719879150391e+00) (8, -2.56981635093688964844e+00) (9, 2.59471416473388671875e-01) (10, -8.16231012344360351562e-01) (11, 3.01955127716064453125e+00) (12, 1.73821866512298583984e+00) (13, -2.38953614234924316406e+00) (14, -7.58836388587951660156e-01) (4, -5.41765749454498291016e-01) (5, 9.12001013755798339844e-01) (6, -1.54632782936096191406e+00) (7, -4.87069487571716308594e-01) (8, 2.22208257764577865601e-02) (9, -9.46766614913940429688e-01) (10, -4.52658265829086303711e-01) (11, -8.48523616790771484375e-01) (12, -1.26422560214996337891e+00) (13, -8.48060250282287597656e-01) (14, -1.07320332527160644531e+00) (4, 1.46845722198486328125e+00) (5, -8.08745101094245910645e-02) (6, -4.57283198833465576172e-01) (7, 6.73965930938720703125e-01) (8, -9.41770613193511962891e-01) (9, 4.15407121181488037109e-01) (10, 1.53675806522369384766e+00) (11, 7.24173009395599365234e-01) (12, 1.57141804695129394531e+00) (13, -1.00928914546966552734e+00) (14, 3.77224385738372802734e-01) (4, 4.66161537170410156250e+00) (5, -2.94156312942504882812e+00) (6, -1.61952555179595947266e+00) (7, 1.40192663669586181641e+00) (8, -2.07849001884460449219e+00) (9, -1.00042127072811126709e-01) (10, -1.91975131630897521973e-01) (11, 1.89696872234344482422e+00) (12, 1.13887655735015869141e+00) (13, -2.26354336738586425781e+00) (14, -3.41690778732299804688e-01) (4, 5.19494637846946716309e-02) (5, 2.77401208877563476562e-01) (6, -1.44117975234985351562e+00) (7, 5.22974312305450439453e-01) (8, -1.75932025909423828125e+00) (9, -3.54358643293380737305e-01) (10, -8.88704121112823486328e-01) (11, -2.46393513679504394531e+00) (12, 2.62139630317687988281e+00) (13, 4.93154197931289672852e-01) (14, 1.18005104362964630127e-01) (4, 2.99787372350692749023e-01) (5, 3.61299842596054077148e-01) (6, -9.98442888259887695312e-01) (7, -4.57188934087753295898e-01) (8, 5.50743401050567626953e-01) (9, 1.53330266475677490234e+00) (10, -4.05063152313232421875e-01) (11, 2.65802085399627685547e-01) (12, -6.22070670127868652344e-01) (13, 1.26795184612274169922e+00) (14, -1.49707424640655517578e+00) (4, -1.37317121028900146484e+00) (5, 1.13993775844573974609e+00) (6, 7.74999439716339111328e-01) (7, 8.73759388923645019531e-01) (8, -2.61970967054367065430e-01) (9, -1.59221470355987548828e+00) (10, 9.89928901195526123047e-01) (11, -6.94291710853576660156e-01) (12, -5.13256788253784179688e-01) (13, 8.45544785261154174805e-02) (14, 2.21487551927566528320e-01) (4, 3.25188577175140380859e-01) (5, 5.26859879493713378906e-01) (6, -7.95214176177978515625e-01) (7, 1.39394855499267578125e+00) (8, 1.11977028846740722656e+00) (9, -1.27183437347412109375e+00) (10, 1.26282155513763427734e+00) (11, 2.18695330619812011719e+00) (12, -7.63202250003814697266e-01) (13, -2.76360464096069335938e+00) (14, -6.32329523563385009766e-01) (4, 6.96293711662292480469e-01) (5, -5.37063181400299072266e-01) (6, 4.14719223976135253906e-01) (7, 1.74850726127624511719e+00) (8, -1.44084298610687255859e+00) (9, 7.08481788635253906250e-01) (10, -1.02245604991912841797e+00) (11, -6.38386726379394531250e-01) (12, 5.53732490539550781250e+00) (13, -1.04458677768707275391e+00) (14, 2.83410072326660156250e+00) (15, -1.11625874042510986328e+00) (16, -1.49146378040313720703e+00) (17, -3.59727692604064941406e+00) (18, 2.14762926101684570312e+00) (19, 1.76433885097503662109e+00) (20, -4.11895895004272460938e+00) (21, -4.31311511993408203125e+00) (22, 2.49580478668212890625e+00) (23, 5.06698369979858398438e+00) (24, 2.57442295551300048828e-01) (25, 1.77671301364898681641e+00) (15, 4.89527797698974609375e+00) (16, -1.05464124679565429688e+01) (17, 4.26220321655273437500e+00) (18, -2.78878617286682128906e+00) (19, -6.92548465728759765625e+00) (20, -1.39236938953399658203e+00) (21, -2.00716927647590637207e-01) (22, 2.26440119743347167969e+00) (23, 4.69783425331115722656e-01) (24, -8.04391002655029296875e+00) (25, -3.81575703620910644531e+00) (15, 6.92190551757812500000e+00) (16, -9.11515522003173828125e+00) (17, -2.26558536291122436523e-01) (18, -3.51403188705444335938e+00) (19, -6.65934801101684570312e+00) (20, -4.70332431793212890625e+00) (21, 2.00951814651489257812e+00) (22, 1.07731151580810546875e+00) (23, -1.65672910213470458984e+00) (24, -6.78929185867309570312e+00) (25, -1.26663219928741455078e+00) 
