FANN_FLO_2.1
num_layers=4
learning_rate=0.100000
connection_rate=1.000000
network_type=0
learning_momentum=0.000000
training_algorithm=1
train_error_function=1
train_stop_function=0
cascade_output_change_fraction=0.010000
quickprop_decay=-0.000100
quickprop_mu=1.750000
rprop_increase_factor=1.200000
rprop_decrease_factor=0.500000
rprop_delta_min=0.000000
rprop_delta_max=50.000000
rprop_delta_zero=0.100000
cascade_output_stagnation_epochs=12
cascade_candidate_change_fraction=0.010000
cascade_candidate_stagnation_epochs=12
cascade_max_out_epochs=150
cascade_min_out_epochs=50
cascade_max_cand_epochs=150
cascade_min_cand_epochs=50
cascade_num_candidate_groups=2
bit_fail_limit=3.49999994039535522461e-01
cascade_candidate_limit=1.00000000000000000000e+03
cascade_weight_multiplier=4.00000005960464477539e-01
cascade_activation_functions_count=10
cascade_activation_functions=3 5 7 8 10 11 14 15 16 17 
cascade_activation_steepnesses_count=4
cascade_activation_steepnesses=2.50000000000000000000e-01 5.00000000000000000000e-01 7.50000000000000000000e-01 1.00000000000000000000e+00 
layer_sizes=4 11 11 4 
scale_included=1
scale_mean_in=0.144424 -0.026146 0.113567 
scale_deviation_in=0.013535 0.017018 0.012043 
scale_new_min_in=-0.900000 -0.900000 -0.900000 
scale_factor_in=0.900000 0.900000 0.900000 
scale_mean_out=-1.749421 2.182572 -1.705126 
scale_deviation_out=0.116295 0.219362 0.306848 
scale_new_min_out=-0.900000 -0.900000 -0.900000 
scale_factor_out=0.900000 0.900000 0.900000 
neurons (num_inputs, activation_function, activation_steepness)=(0, 0, 0.00000000000000000000e+00) (0, 0, 0.00000000000000000000e+00) (0, 0, 0.00000000000000000000e+00) (0, 0, 0.00000000000000000000e+00) (4, 5, 5.00000000000000000000e-01) (4, 5, 5.00000000000000000000e-01) (4, 5, 5.00000000000000000000e-01) (4, 5, 5.00000000000000000000e-01) (4, 5, 5.00000000000000000000e-01) (4, 5, 5.00000000000000000000e-01) (4, 5, 5.00000000000000000000e-01) (4, 5, 5.00000000000000000000e-01) (4, 5, 5.00000000000000000000e-01) (4, 5, 5.00000000000000000000e-01) (0, 5, 0.00000000000000000000e+00) (11, 5, 5.00000000000000000000e-01) (11, 5, 5.00000000000000000000e-01) (11, 5, 5.00000000000000000000e-01) (11, 5, 5.00000000000000000000e-01) (11, 5, 5.00000000000000000000e-01) (11, 5, 5.00000000000000000000e-01) (11, 5, 5.00000000000000000000e-01) (11, 5, 5.00000000000000000000e-01) (11, 5, 5.00000000000000000000e-01) (11, 5, 5.00000000000000000000e-01) (0, 5, 0.00000000000000000000e+00) (11, 5, 5.00000000000000000000e-01) (11, 5, 5.00000000000000000000e-01) (11, 5, 5.00000000000000000000e-01) (0, 5, 0.00000000000000000000e+00) 
connections (connected_to_neuron, weight)=(0, 6.28018975257873535156e-01) (1, -9.89758551120758056641e-01) (2, -1.17753066122531890869e-01) (3, 6.56742811203002929688e-01) (0, 6.51626408100128173828e-01) (1, -1.52147412300109863281e-01) (2, 3.36552470922470092773e-01) (3, 3.64069640636444091797e-02) (0, -4.52726125717163085938e-01) (1, -4.47434693574905395508e-01) (2, -1.42227411270141601562e-01) (3, -6.78044676780700683594e-01) (0, 7.32156276702880859375e-01) (1, -4.29552882909774780273e-01) (2, 4.17201548814773559570e-01) (3, 7.47264304663985967636e-04) (0, -1.02784991264343261719e+00) (1, 9.03224587440490722656e-01) (2, -5.28390049934387207031e-01) (3, 1.06531572341918945312e+00) (0, -5.30545413494110107422e-01) (1, -1.93921133875846862793e-01) (2, -6.77254617214202880859e-01) (3, 5.87247371673583984375e-01) (0, -3.27359259128570556641e-01) (1, 5.38360297679901123047e-01) (2, 8.85125696659088134766e-01) (3, -2.83014386892318725586e-01) (0, 5.08158266544342041016e-01) (1, 6.67440652847290039062e-01) (2, -6.85772478580474853516e-01) (3, 7.18622386455535888672e-01) (0, 6.01364433765411376953e-01) (1, 6.26276791095733642578e-01) (2, -9.73813012242317199707e-02) (3, 1.50788083672523498535e-01) (0, -7.73478627204895019531e-01) (1, -3.80106568336486816406e-01) (2, -4.13538008928298950195e-01) (3, 7.54144936800003051758e-02) (4, 3.48084390163421630859e-01) (5, -1.10245978832244873047e+00) (6, 1.00989654660224914551e-01) (7, -1.12114556133747100830e-01) (8, 6.38433843851089477539e-02) (9, -2.65256404876708984375e-01) (10, 7.84878313541412353516e-01) (11, -3.90336364507675170898e-01) (12, -1.25452673435211181641e+00) (13, 1.22452270984649658203e+00) (14, 8.69674324989318847656e-01) (4, 1.34677231311798095703e-01) (5, -3.74228268861770629883e-01) (6, -2.08592146635055541992e-01) (7, -7.02029705047607421875e-01) (8, 1.07680010795593261719e+00) (9, 1.09396100044250488281e+00) (10, -2.88037955760955810547e-01) (11, 8.49842131137847900391e-01) (12, 3.31463605165481567383e-01) (13, -4.10696744918823242188e-01) (14, -7.70508944988250732422e-01) (4, -1.63754016160964965820e-01) (5, -1.07375156879425048828e+00) (6, 4.43813413381576538086e-01) (7, 2.11004018783569335938e-01) (8, 4.37363773584365844727e-01) (9, 6.57594025135040283203e-01) (10, 6.79648339748382568359e-01) (11, 1.01904428005218505859e+00) (12, -8.14597666263580322266e-01) (13, 7.60437101125717163086e-02) (14, -8.69295597076416015625e-01) (4, -1.93623349070549011230e-01) (5, -1.06159269809722900391e+00) (6, -2.62833952903747558594e-01) (7, 6.05869591236114501953e-01) (8, 9.16605472564697265625e-01) (9, 5.69141268730163574219e-01) (10, 1.10218489170074462891e+00) (11, 7.79540061950683593750e-01) (12, 5.47179698944091796875e-01) (13, -1.01186014711856842041e-01) (14, -4.53586548566818237305e-01) (4, -1.06475198268890380859e+00) (5, 9.89401698112487792969e-01) (6, -9.03366088867187500000e-01) (7, -8.30536603927612304688e-01) (8, -9.90949511528015136719e-01) (9, -8.27961146831512451172e-01) (10, 8.05434525012969970703e-01) (11, -2.50183194875717163086e-01) (12, -3.47617059946060180664e-01) (13, -9.08876657485961914062e-01) (14, 1.00214377045631408691e-01) (4, 1.25717520713806152344e+00) (5, 9.69755172729492187500e-01) (6, 9.40431356430053710938e-01) (7, 7.01938331127166748047e-01) (8, 5.58033406734466552734e-01) (9, 9.54565584659576416016e-01) (10, 4.29197162389755249023e-01) (11, -1.18102148175239562988e-01) (12, -7.85006165504455566406e-01) (13, 3.10781039297580718994e-02) (14, -3.79401952028274536133e-01) (4, 5.98218850791454315186e-02) (5, 7.52363540232181549072e-03) (6, -4.96790945529937744141e-01) (7, -2.72153228521347045898e-01) (8, -7.43611991405487060547e-01) (9, -7.75660336017608642578e-01) (10, 7.40913569927215576172e-01) (11, 7.71775603294372558594e-01) (12, 7.75540024042129516602e-02) (13, -1.01703560352325439453e+00) (14, 4.68276709318161010742e-01) (4, 1.83985993266105651855e-01) (5, -9.66538190841674804688e-01) (6, 7.58123874664306640625e-01) (7, 3.26588302850723266602e-01) (8, 8.92615854740142822266e-01) (9, -2.86719858646392822266e-01) (10, 7.67841041088104248047e-01) (11, -5.78899383544921875000e-01) (12, 4.45268660783767700195e-01) (13, 8.29068839550018310547e-01) (14, -7.71652936935424804688e-01) (4, 1.11459627747535705566e-01) (5, 6.48274540901184082031e-01) (6, 7.57869124412536621094e-01) (7, 4.70105886459350585938e-01) (8, -1.30534797906875610352e-01) (9, -7.93379485607147216797e-01) (10, 7.17666625976562500000e-01) (11, -8.07040214538574218750e-01) (12, 2.56808936595916748047e-01) (13, -9.59805130958557128906e-01) (14, 1.58946871757507324219e-01) (4, 9.19390380382537841797e-01) (5, -1.42567247152328491211e-01) (6, 9.00903463363647460938e-01) (7, 1.02030694484710693359e+00) (8, -2.32379198074340820312e-01) (9, 4.48383808135986328125e-01) (10, -9.68053340911865234375e-02) (11, -4.69916731119155883789e-01) (12, -2.43097826838493347168e-01) (13, -7.23125278949737548828e-01) (14, 2.08773210644721984863e-01) (15, -7.28356778621673583984e-01) (16, 1.19428014755249023438e+00) (17, -3.15285921096801757812e-01) (18, 1.15938174724578857422e+00) (19, 1.38183271884918212891e+00) (20, -1.46506106853485107422e+00) (21, 9.72926914691925048828e-01) (22, -2.72696197032928466797e-01) (23, -2.24412843585014343262e-01) (24, -1.70581746101379394531e+00) (25, -1.54349645599722862244e-02) (15, 1.06763958930969238281e+00) (16, 1.10547339916229248047e+00) (17, 2.15740728378295898438e+00) (18, 9.54832434654235839844e-01) (19, -8.19916486740112304688e-01) (20, -7.32054591178894042969e-01) (21, -1.49834680557250976562e+00) (22, 8.90222430229187011719e-01) (23, -4.64175254106521606445e-01) (24, -1.52861312031745910645e-01) (25, 3.24896037578582763672e-01) (15, 9.08003270626068115234e-01) (16, 1.71397304534912109375e+00) (17, 6.48722529411315917969e-01) (18, 2.21261993050575256348e-01) (19, -1.62675213813781738281e+00) (20, 3.45969706773757934570e-01) (21, -4.29795801639556884766e-01) (22, 1.05941288173198699951e-01) (23, -1.88191950321197509766e+00) (24, -1.31565546989440917969e+00) (25, -9.54991698265075683594e-01) 
