FANN_FLO_2.1
num_layers=4
learning_rate=0.100000
connection_rate=1.000000
network_type=0
learning_momentum=0.000000
training_algorithm=1
train_error_function=1
train_stop_function=0
cascade_output_change_fraction=0.010000
quickprop_decay=-0.000100
quickprop_mu=1.750000
rprop_increase_factor=1.200000
rprop_decrease_factor=0.500000
rprop_delta_min=0.000000
rprop_delta_max=50.000000
rprop_delta_zero=0.100000
cascade_output_stagnation_epochs=12
cascade_candidate_change_fraction=0.010000
cascade_candidate_stagnation_epochs=12
cascade_max_out_epochs=150
cascade_min_out_epochs=50
cascade_max_cand_epochs=150
cascade_min_cand_epochs=50
cascade_num_candidate_groups=2
bit_fail_limit=3.49999994039535522461e-01
cascade_candidate_limit=1.00000000000000000000e+03
cascade_weight_multiplier=4.00000005960464477539e-01
cascade_activation_functions_count=10
cascade_activation_functions=3 5 7 8 10 11 14 15 16 17 
cascade_activation_steepnesses_count=4
cascade_activation_steepnesses=2.50000000000000000000e-01 5.00000000000000000000e-01 7.50000000000000000000e-01 1.00000000000000000000e+00 
layer_sizes=4 11 11 4 
scale_included=1
scale_mean_in=0.097666 0.093048 0.071797 
scale_deviation_in=0.014640 0.017309 0.013320 
scale_new_min_in=-0.900000 -0.900000 -0.900000 
scale_factor_in=0.900000 0.900000 0.900000 
scale_mean_out=-0.811989 2.612508 -0.885704 
scale_deviation_out=0.119046 0.231438 0.244535 
scale_new_min_out=-0.900000 -0.900000 -0.900000 
scale_factor_out=0.900000 0.900000 0.900000 
neurons (num_inputs, activation_function, activation_steepness)=(0, 0, 0.00000000000000000000e+00) (0, 0, 0.00000000000000000000e+00) (0, 0, 0.00000000000000000000e+00) (0, 0, 0.00000000000000000000e+00) (4, 5, 5.00000000000000000000e-01) (4, 5, 5.00000000000000000000e-01) (4, 5, 5.00000000000000000000e-01) (4, 5, 5.00000000000000000000e-01) (4, 5, 5.00000000000000000000e-01) (4, 5, 5.00000000000000000000e-01) (4, 5, 5.00000000000000000000e-01) (4, 5, 5.00000000000000000000e-01) (4, 5, 5.00000000000000000000e-01) (4, 5, 5.00000000000000000000e-01) (0, 5, 0.00000000000000000000e+00) (11, 5, 5.00000000000000000000e-01) (11, 5, 5.00000000000000000000e-01) (11, 5, 5.00000000000000000000e-01) (11, 5, 5.00000000000000000000e-01) (11, 5, 5.00000000000000000000e-01) (11, 5, 5.00000000000000000000e-01) (11, 5, 5.00000000000000000000e-01) (11, 5, 5.00000000000000000000e-01) (11, 5, 5.00000000000000000000e-01) (11, 5, 5.00000000000000000000e-01) (0, 5, 0.00000000000000000000e+00) (11, 5, 5.00000000000000000000e-01) (11, 5, 5.00000000000000000000e-01) (11, 5, 5.00000000000000000000e-01) (0, 5, 0.00000000000000000000e+00) 
connections (connected_to_neuron, weight)=(0, -2.36576104164123535156e+00) (1, -2.75876593589782714844e+00) (2, -2.13452863693237304688e+00) (3, 4.98422908782958984375e+00) (0, -2.87420773506164550781e+00) (1, -2.06345415115356445312e+00) (2, -2.08208799362182617188e+00) (3, -4.80224275588989257812e+00) (0, 2.71619391441345214844e+00) (1, 2.45391979813575744629e-01) (2, 4.56833630800247192383e-01) (3, 1.64095342159271240234e+00) (0, -4.17190790176391601562e-01) (1, -1.64025330543518066406e+00) (2, -2.54214435815811157227e-01) (3, -5.83221673965454101562e-01) (0, -2.92146229743957519531e+00) (1, -4.15794819593429565430e-01) (2, -1.37220180034637451172e+00) (3, 3.24134540557861328125e+00) (0, 1.93963989615440368652e-01) (1, -3.37213611602783203125e+00) (2, -8.89907121658325195312e-01) (3, -2.55316042900085449219e+00) (0, 1.18842816352844238281e+00) (1, -2.01107233762741088867e-01) (2, -3.21255058050155639648e-01) (3, -1.64906516671180725098e-01) (0, 1.66193032264709472656e+00) (1, -8.15701112151145935059e-02) (2, 1.15951442718505859375e+00) (3, 1.38404691219329833984e+00) (0, -3.26491981744766235352e-01) (1, 2.59773516654968261719e+00) (2, 6.73404395580291748047e-01) (3, -5.68612396717071533203e-01) (0, -1.87813803553581237793e-01) (1, -2.54120397567749023438e+00) (2, 1.85374692082405090332e-01) (3, 8.70889365673065185547e-01) (4, 2.67428588867187500000e+00) (5, -1.13435041904449462891e+00) (6, 4.87672835588455200195e-01) (7, 1.48499941825866699219e+00) (8, 3.13067603111267089844e+00) (9, 6.67852938175201416016e-01) (10, -9.42253291606903076172e-01) (11, 3.98974210023880004883e-01) (12, -1.70211827754974365234e+00) (13, 1.38099706172943115234e+00) (14, 3.28425109386444091797e-01) (4, -1.10696721076965332031e+00) (5, -1.29821789264678955078e+00) (6, 1.51888549327850341797e+00) (7, 8.65545570850372314453e-01) (8, -1.34511208534240722656e+00) (9, 1.46627497673034667969e+00) (10, 1.28619945049285888672e+00) (11, -7.66608655452728271484e-01) (12, 8.58474910259246826172e-01) (13, -2.28806599974632263184e-01) (14, -4.01178300380706787109e-01) (4, -3.73657584190368652344e-01) (5, 1.72206258773803710938e+00) (6, -7.90691137313842773438e-01) (7, -1.12221980094909667969e+00) (8, 1.26354837417602539062e+00) (9, 2.33405470848083496094e+00) (10, -1.85761606693267822266e+00) (11, -1.13442683219909667969e+00) (12, 1.01153433322906494141e+00) (13, -3.92609000205993652344e-01) (14, 6.26480653882026672363e-02) (4, 1.65083777904510498047e+00) (5, 9.72277343273162841797e-01) (6, 3.00889194011688232422e-01) (7, -2.90159791707992553711e-01) (8, 9.71624255180358886719e-01) (9, -9.19595599174499511719e-01) (10, 9.23654556274414062500e-01) (11, -9.44763183593750000000e-01) (12, -3.82453978061676025391e-01) (13, -3.78777652978897094727e-01) (14, -5.65628945827484130859e-01) (4, 3.10132145881652832031e-01) (5, 1.67669987678527832031e+00) (6, -2.81768321990966796875e-01) (7, 1.05847978591918945312e+00) (8, -1.19157361984252929688e+00) (9, 8.87263536453247070312e-01) (10, 1.13298225402832031250e+00) (11, -1.13394498825073242188e-01) (12, -5.66198468208312988281e-01) (13, 1.21341264247894287109e+00) (14, -3.58829617500305175781e-01) (4, 1.41500651836395263672e-01) (5, 4.73854207992553710938e+00) (6, -2.24637222290039062500e+00) (7, 7.74547994136810302734e-01) (8, -9.42225277423858642578e-01) (9, 2.61835718154907226562e+00) (10, -1.25024032592773437500e+00) (11, -1.31028032302856445312e+00) (12, -2.49058461189270019531e+00) (13, 1.74485409259796142578e+00) (14, -2.48145985603332519531e+00) (4, -2.51878023147583007812e-01) (5, -3.87574553489685058594e+00) (6, 2.12010908126831054688e+00) (7, -1.33401930332183837891e+00) (8, 1.26489472389221191406e+00) (9, -2.33928823471069335938e+00) (10, -6.35301709175109863281e-01) (11, 2.39401316642761230469e+00) (12, 1.36191618442535400391e+00) (13, -1.22931134700775146484e+00) (14, 1.28073501586914062500e+00) (4, 2.03555870056152343750e+00) (5, -7.52407371997833251953e-01) (6, 1.89359247684478759766e+00) (7, 1.60927748680114746094e+00) (8, 1.74221205711364746094e+00) (9, 1.60831689834594726562e+00) (10, 5.80326795578002929688e-01) (11, 7.20581889152526855469e-01) (12, -8.02830994129180908203e-01) (13, 8.59746932983398437500e-01) (14, -1.87441959977149963379e-01) (4, 4.40559196472167968750e+00) (5, -7.54768252372741699219e-01) (6, -9.59834218025207519531e-01) (7, 2.18624785542488098145e-01) (8, 2.60456728935241699219e+00) (9, -1.11618161201477050781e+00) (10, -2.53845512866973876953e-01) (11, -1.44406402111053466797e+00) (12, -1.81966388225555419922e+00) (13, 2.35391855239868164062e+00) (14, 7.96338915824890136719e-01) (4, 3.48391127586364746094e+00) (5, -1.83016851544380187988e-01) (6, -1.27672207355499267578e+00) (7, -1.51882603764533996582e-01) (8, 2.23167061805725097656e+00) (9, -2.54055881500244140625e+00) (10, 5.68846583366394042969e-01) (11, -1.45174312591552734375e+00) (12, -1.48782968521118164062e+00) (13, 2.27576708793640136719e+00) (14, 4.54041570425033569336e-01) (15, -1.57746577262878417969e+00) (16, -2.59660649299621582031e+00) (17, 3.46827673912048339844e+00) (18, 9.26648318767547607422e-01) (19, -3.51667833328247070312e+00) (20, 3.27338486909866333008e-01) (21, 9.24049437046051025391e-01) (22, -4.21682453155517578125e+00) (23, 5.90544104576110839844e-01) (24, 2.14288020133972167969e+00) (25, -2.74837404489517211914e-01) (15, 6.25548124313354492188e+00) (16, -4.20581960678100585938e+00) (17, 3.93583631515502929688e+00) (18, -4.99791353940963745117e-01) (19, 3.90649342536926269531e+00) (20, 9.40061473846435546875e+00) (21, -5.81735944747924804688e+00) (22, 3.55326342582702636719e+00) (23, 5.17472362518310546875e+00) (24, 4.24804353713989257812e+00) (25, 2.19884276390075683594e-01) (15, 4.41188669204711914062e+00) (16, -2.32765460014343261719e+00) (17, 4.16800689697265625000e+00) (18, 4.07973432540893554688e+00) (19, 4.51645946502685546875e+00) (20, 6.88634395599365234375e+00) (21, -9.28693771362304687500e+00) (22, 3.95936107635498046875e+00) (23, 7.66295814514160156250e+00) (24, 6.50765371322631835938e+00) (25, -2.07840633392333984375e+00) 
