FANN_FLO_2.1
num_layers=4
learning_rate=0.100000
connection_rate=1.000000
network_type=0
learning_momentum=0.000000
training_algorithm=1
train_error_function=1
train_stop_function=0
cascade_output_change_fraction=0.010000
quickprop_decay=-0.000100
quickprop_mu=1.750000
rprop_increase_factor=1.200000
rprop_decrease_factor=0.500000
rprop_delta_min=0.000000
rprop_delta_max=50.000000
rprop_delta_zero=0.100000
cascade_output_stagnation_epochs=12
cascade_candidate_change_fraction=0.010000
cascade_candidate_stagnation_epochs=12
cascade_max_out_epochs=150
cascade_min_out_epochs=50
cascade_max_cand_epochs=150
cascade_min_cand_epochs=50
cascade_num_candidate_groups=2
bit_fail_limit=3.49999994039535522461e-01
cascade_candidate_limit=1.00000000000000000000e+03
cascade_weight_multiplier=4.00000005960464477539e-01
cascade_activation_functions_count=10
cascade_activation_functions=3 5 7 8 10 11 14 15 16 17 
cascade_activation_steepnesses_count=4
cascade_activation_steepnesses=2.50000000000000000000e-01 5.00000000000000000000e-01 7.50000000000000000000e-01 1.00000000000000000000e+00 
layer_sizes=4 11 11 4 
scale_included=1
scale_mean_in=0.090055 0.192044 0.022107 
scale_deviation_in=0.012203 0.006167 0.012716 
scale_new_min_in=-0.900000 -0.900000 -0.900000 
scale_factor_in=0.900000 0.900000 0.900000 
scale_mean_out=-0.437921 1.374085 -1.939446 
scale_deviation_out=0.057325 0.161332 0.240464 
scale_new_min_out=-0.900000 -0.900000 -0.900000 
scale_factor_out=0.900000 0.900000 0.900000 
neurons (num_inputs, activation_function, activation_steepness)=(0, 0, 0.00000000000000000000e+00) (0, 0, 0.00000000000000000000e+00) (0, 0, 0.00000000000000000000e+00) (0, 0, 0.00000000000000000000e+00) (4, 5, 5.00000000000000000000e-01) (4, 5, 5.00000000000000000000e-01) (4, 5, 5.00000000000000000000e-01) (4, 5, 5.00000000000000000000e-01) (4, 5, 5.00000000000000000000e-01) (4, 5, 5.00000000000000000000e-01) (4, 5, 5.00000000000000000000e-01) (4, 5, 5.00000000000000000000e-01) (4, 5, 5.00000000000000000000e-01) (4, 5, 5.00000000000000000000e-01) (0, 5, 0.00000000000000000000e+00) (11, 5, 5.00000000000000000000e-01) (11, 5, 5.00000000000000000000e-01) (11, 5, 5.00000000000000000000e-01) (11, 5, 5.00000000000000000000e-01) (11, 5, 5.00000000000000000000e-01) (11, 5, 5.00000000000000000000e-01) (11, 5, 5.00000000000000000000e-01) (11, 5, 5.00000000000000000000e-01) (11, 5, 5.00000000000000000000e-01) (11, 5, 5.00000000000000000000e-01) (0, 5, 0.00000000000000000000e+00) (11, 5, 5.00000000000000000000e-01) (11, 5, 5.00000000000000000000e-01) (11, 5, 5.00000000000000000000e-01) (0, 5, 0.00000000000000000000e+00) 
connections (connected_to_neuron, weight)=(0, -8.61058592796325683594e-01) (1, -4.46740686893463134766e-01) (2, -7.36496523022651672363e-02) (3, -6.34503006935119628906e-01) (0, 1.93542107939720153809e-01) (1, -1.62175878882408142090e-01) (2, 2.89030820131301879883e-01) (3, 7.55086064338684082031e-01) (0, 1.14158809185028076172e+00) (1, 1.81793913245201110840e-01) (2, 6.23215436935424804688e-01) (3, -1.27481794357299804688e+00) (0, 7.16507792472839355469e-01) (1, -9.31210722774267196655e-03) (2, -7.93012380599975585938e-01) (3, -1.18478369712829589844e+00) (0, -1.41650319099426269531e+00) (1, -1.40225541591644287109e+00) (2, -1.06159043312072753906e+00) (3, 1.80926322937011718750e+00) (0, -2.51352787017822265625e-01) (1, -5.96147596836090087891e-01) (2, -7.17071175575256347656e-01) (3, 1.08580783009529113770e-01) (0, 7.43155926465988159180e-02) (1, 8.47579181194305419922e-01) (2, 1.62041738629341125488e-01) (3, 2.47628957033157348633e-01) (0, 9.39759314060211181641e-01) (1, -6.28682255744934082031e-01) (2, -4.29342150688171386719e-01) (3, 1.20140373706817626953e+00) (0, 1.52476772665977478027e-01) (1, 5.40093660354614257812e-01) (2, -9.38807845115661621094e-01) (3, -7.93232321739196777344e-01) (0, -4.00871962308883666992e-01) (1, 3.93435269594192504883e-01) (2, -4.00557249784469604492e-01) (3, -2.49253436923027038574e-01) (4, -3.66530150175094604492e-01) (5, 6.39233946800231933594e-01) (6, -9.04897212982177734375e-01) (7, 6.01137280464172363281e-01) (8, -6.44608139991760253906e-01) (9, -6.40588819980621337891e-01) (10, -1.03712832927703857422e+00) (11, -5.05301475524902343750e-01) (12, -6.58224284648895263672e-01) (13, -3.54639798402786254883e-01) (14, -9.80989158153533935547e-01) (4, -4.20003116130828857422e-01) (5, 6.41678750514984130859e-01) (6, -1.28827691078186035156e-01) (7, 8.05348575115203857422e-01) (8, -8.61292302608489990234e-01) (9, -9.81989562511444091797e-01) (10, 4.65830683708190917969e-01) (11, 3.64494949579238891602e-01) (12, -5.39631128311157226562e-01) (13, 5.71801811456680297852e-02) (14, 1.44887769222259521484e+00) (4, -1.17277109622955322266e+00) (5, 1.43713578581809997559e-01) (6, 8.37335467338562011719e-01) (7, -1.42777442932128906250e-01) (8, 4.93805974721908569336e-01) (9, -1.32908797264099121094e+00) (10, 1.37636676430702209473e-01) (11, 6.62966549396514892578e-01) (12, 1.14332544803619384766e+00) (13, -5.27519583702087402344e-02) (14, 1.02889478206634521484e+00) (4, 1.42234027385711669922e+00) (5, -3.23368221521377563477e-01) (6, 4.23429340124130249023e-01) (7, -1.18883311748504638672e+00) (8, -5.99086396396160125732e-02) (9, -1.17657589912414550781e+00) (10, 1.05494096875190734863e-01) (11, 2.42110177874565124512e-01) (12, -5.76102912425994873047e-01) (13, 7.98420071601867675781e-01) (14, -1.00528895854949951172e-02) (4, 4.82685156166553497314e-02) (5, 5.02870559692382812500e-01) (6, 5.40026128292083740234e-01) (7, 1.17208324372768402100e-01) (8, -3.27602624893188476562e-01) (9, -1.84558987617492675781e-01) (10, 9.13642108440399169922e-01) (11, -8.12970638275146484375e-01) (12, 4.18654680252075195312e-01) (13, 9.85936403274536132812e-01) (14, 7.36652433872222900391e-01) (4, -7.57583439350128173828e-01) (5, -1.86622098088264465332e-01) (6, 8.17070603370666503906e-01) (7, 2.04555824398994445801e-01) (8, 8.87413397431373596191e-02) (9, -5.34533783793449401855e-02) (10, -4.16387498378753662109e-01) (11, -3.61649602651596069336e-01) (12, -4.95129406452178955078e-01) (13, -9.02680993080139160156e-01) (14, 3.20118397474288940430e-01) (4, 1.19561362266540527344e+00) (5, -2.88361757993698120117e-01) (6, -1.11600637435913085938e+00) (7, -1.25404596328735351562e+00) (8, 7.95332491397857666016e-01) (9, -7.41871953010559082031e-01) (10, -6.15927875041961669922e-01) (11, 5.56188166141510009766e-01) (12, 4.07364308834075927734e-01) (13, 1.72559186816215515137e-01) (14, 7.18132108449935913086e-02) (4, 4.22894716262817382812e-01) (5, -5.31077206134796142578e-01) (6, -1.77910935878753662109e+00) (7, -1.03774011135101318359e+00) (8, 2.22271680831909179688e+00) (9, 1.73500925302505493164e-01) (10, 4.27805632352828979492e-02) (11, 1.07851004600524902344e+00) (12, -1.34709215164184570312e+00) (13, -7.23368048667907714844e-01) (14, -8.65086495876312255859e-01) (4, 1.28933966159820556641e-01) (5, 3.51260155439376831055e-01) (6, 4.39781159162521362305e-01) (7, -5.28140068054199218750e-01) (8, 1.46703159809112548828e+00) (9, 1.43786442279815673828e+00) (10, -2.57553130388259887695e-01) (11, -1.05509899556636810303e-01) (12, -5.00393748283386230469e-01) (13, -1.39283239841461181641e-01) (14, -1.03320591151714324951e-01) (4, 3.05305063724517822266e-01) (5, -8.45800898969173431396e-03) (6, -3.38191062211990356445e-01) (7, 4.97959226369857788086e-01) (8, -1.27095684409141540527e-01) (9, -1.43257713317871093750e+00) (10, 4.58991914987564086914e-01) (11, -8.03676247596740722656e-01) (12, 7.15543568134307861328e-01) (13, -6.65300548076629638672e-01) (14, 3.82737219333648681641e-01) (15, -4.25094187259674072266e-01) (16, -8.75792086124420166016e-01) (17, -1.29407370090484619141e+00) (18, 1.74329364299774169922e+00) (19, 1.69966590404510498047e+00) (20, -1.93888413906097412109e+00) (21, 2.16566228866577148438e+00) (22, 1.01513004302978515625e+00) (23, -1.09865152835845947266e+00) (24, 9.47265028953552246094e-01) (25, -1.31768554449081420898e-01) (15, 1.13966941833496093750e+00) (16, -1.81001648306846618652e-01) (17, -1.78582477569580078125e+00) (18, 1.57323575019836425781e+00) (19, -9.80609595775604248047e-01) (20, -3.50542627274990081787e-02) (21, 6.51694059371948242188e-01) (22, 2.29687023162841796875e+00) (23, 1.90360164642333984375e+00) (24, -9.26104128360748291016e-01) (25, -1.42066001892089843750e+00) (15, -3.50567340850830078125e-01) (16, -1.92026424407958984375e+00) (17, -1.97927820682525634766e+00) (18, -5.49484610557556152344e-01) (19, -7.78304338455200195312e-01) (20, -6.62670850753784179688e-01) (21, 7.46597826480865478516e-01) (22, 2.03867721557617187500e+00) (23, 1.15429258346557617188e+00) (24, -1.21280038356781005859e+00) (25, -5.54476559162139892578e-01) 
