FANN_FLO_2.1
num_layers=3
learning_rate=0.100000
connection_rate=1.000000
network_type=0
learning_momentum=0.000000
training_algorithm=1
train_error_function=1
train_stop_function=0
cascade_output_change_fraction=0.010000
quickprop_decay=-0.000100
quickprop_mu=1.750000
rprop_increase_factor=1.200000
rprop_decrease_factor=0.500000
rprop_delta_min=0.000000
rprop_delta_max=50.000000
rprop_delta_zero=0.100000
cascade_output_stagnation_epochs=12
cascade_candidate_change_fraction=0.010000
cascade_candidate_stagnation_epochs=12
cascade_max_out_epochs=150
cascade_min_out_epochs=50
cascade_max_cand_epochs=150
cascade_min_cand_epochs=50
cascade_num_candidate_groups=2
bit_fail_limit=3.49999994039535522461e-01
cascade_candidate_limit=1.00000000000000000000e+03
cascade_weight_multiplier=4.00000005960464477539e-01
cascade_activation_functions_count=10
cascade_activation_functions=3 5 7 8 10 11 14 15 16 17 
cascade_activation_steepnesses_count=4
cascade_activation_steepnesses=2.50000000000000000000e-01 5.00000000000000000000e-01 7.50000000000000000000e-01 1.00000000000000000000e+00 
layer_sizes=4 6 4 
scale_included=1
scale_mean_in=0.120506 0.118394 0.091941 
scale_deviation_in=0.016284 0.017744 0.014077 
scale_new_min_in=-0.900000 -0.900000 -0.900000 
scale_factor_in=0.900000 0.900000 0.900000 
scale_mean_out=-0.795048 1.983601 -1.731350 
scale_deviation_out=0.109836 0.246577 0.331724 
scale_new_min_out=-0.900000 -0.900000 -0.900000 
scale_factor_out=0.900000 0.900000 0.900000 
neurons (num_inputs, activation_function, activation_steepness)=(0, 0, 0.00000000000000000000e+00) (0, 0, 0.00000000000000000000e+00) (0, 0, 0.00000000000000000000e+00) (0, 0, 0.00000000000000000000e+00) (4, 5, 5.00000000000000000000e-01) (4, 5, 5.00000000000000000000e-01) (4, 5, 5.00000000000000000000e-01) (4, 5, 5.00000000000000000000e-01) (4, 5, 5.00000000000000000000e-01) (0, 5, 0.00000000000000000000e+00) (6, 5, 5.00000000000000000000e-01) (6, 5, 5.00000000000000000000e-01) (6, 5, 5.00000000000000000000e-01) (0, 5, 0.00000000000000000000e+00) 
connections (connected_to_neuron, weight)=(0, 8.99388134479522705078e-01) (1, 1.34048748016357421875e+00) (2, 9.90600168704986572266e-01) (3, -1.78429818153381347656e+00) (0, 7.23513662815093994141e-01) (1, -3.62748652696609497070e-01) (2, 5.18643975257873535156e-01) (3, -8.35621714591979980469e-01) (0, -4.57856267690658569336e-01) (1, -7.22875833511352539062e-01) (2, 9.24075603485107421875e-01) (3, 6.73219561576843261719e-01) (0, -5.35354614257812500000e-01) (1, -4.45125222206115722656e-01) (2, -4.63334172964096069336e-01) (3, -4.82839792966842651367e-01) (0, -3.45799744129180908203e-01) (1, 6.16496264934539794922e-01) (2, 4.84677076339721679688e-01) (3, -1.74949586391448974609e-01) (4, 8.78491520881652832031e-01) (5, -3.42350792884826660156e+00) (6, -7.27207958698272705078e-01) (7, 1.39120543003082275391e+00) (8, 4.65604352951049804688e+00) (9, 1.48639366030693054199e-01) (4, -3.62086629867553710938e+00) (5, -1.77340817451477050781e+00) (6, 2.65289783477783203125e+00) (7, 4.16471290588378906250e+00) (8, -8.48088204860687255859e-01) (9, -2.51105690002441406250e+00) (4, -2.75741100311279296875e+00) (5, -3.21933722496032714844e+00) (6, 1.31610023975372314453e+00) (7, 4.86166286468505859375e+00) (8, -2.92727017402648925781e+00) (9, -1.97026979923248291016e+00) 
