FANN_FLO_2.1
num_layers=3
learning_rate=0.100000
connection_rate=1.000000
network_type=0
learning_momentum=0.000000
training_algorithm=1
train_error_function=1
train_stop_function=0
cascade_output_change_fraction=0.010000
quickprop_decay=-0.000100
quickprop_mu=1.750000
rprop_increase_factor=1.200000
rprop_decrease_factor=0.500000
rprop_delta_min=0.000000
rprop_delta_max=50.000000
rprop_delta_zero=0.100000
cascade_output_stagnation_epochs=12
cascade_candidate_change_fraction=0.010000
cascade_candidate_stagnation_epochs=12
cascade_max_out_epochs=150
cascade_min_out_epochs=50
cascade_max_cand_epochs=150
cascade_min_cand_epochs=50
cascade_num_candidate_groups=2
bit_fail_limit=3.49999994039535522461e-01
cascade_candidate_limit=1.00000000000000000000e+03
cascade_weight_multiplier=4.00000005960464477539e-01
cascade_activation_functions_count=10
cascade_activation_functions=3 5 7 8 10 11 14 15 16 17 
cascade_activation_steepnesses_count=4
cascade_activation_steepnesses=2.50000000000000000000e-01 5.00000000000000000000e-01 7.50000000000000000000e-01 1.00000000000000000000e+00 
layer_sizes=4 6 4 
scale_included=1
scale_mean_in=0.002172 0.114096 0.140327 
scale_deviation_in=0.018058 0.014472 0.007394 
scale_new_min_in=-0.900000 -0.900000 -0.900000 
scale_factor_in=0.900000 0.900000 0.900000 
scale_mean_out=-0.018828 2.326300 -1.858589 
scale_deviation_out=0.159614 0.207784 0.260583 
scale_new_min_out=-0.900000 -0.900000 -0.900000 
scale_factor_out=0.900000 0.900000 0.900000 
neurons (num_inputs, activation_function, activation_steepness)=(0, 0, 0.00000000000000000000e+00) (0, 0, 0.00000000000000000000e+00) (0, 0, 0.00000000000000000000e+00) (0, 0, 0.00000000000000000000e+00) (4, 5, 5.00000000000000000000e-01) (4, 5, 5.00000000000000000000e-01) (4, 5, 5.00000000000000000000e-01) (4, 5, 5.00000000000000000000e-01) (4, 5, 5.00000000000000000000e-01) (0, 5, 0.00000000000000000000e+00) (6, 5, 5.00000000000000000000e-01) (6, 5, 5.00000000000000000000e-01) (6, 5, 5.00000000000000000000e-01) (0, 5, 0.00000000000000000000e+00) 
connections (connected_to_neuron, weight)=(0, 5.15743531286716461182e-02) (1, 9.47390675544738769531e-01) (2, 1.02019536495208740234e+00) (3, 1.04637682437896728516e+00) (0, 4.70394780859351158142e-03) (1, -9.81342375278472900391e-01) (2, 5.75319945812225341797e-01) (3, 7.43784129619598388672e-01) (0, 9.48877632617950439453e-01) (1, -1.10287569463253021240e-01) (2, -3.23210030794143676758e-01) (3, 3.70426505804061889648e-01) (0, 5.80452717840671539307e-02) (1, -1.71825015544891357422e+00) (2, -1.50795459747314453125e+00) (3, 1.72716069221496582031e+00) (0, -1.03955733776092529297e+00) (1, -3.16861242055892944336e-01) (2, -5.29239952564239501953e-01) (3, 4.13692653179168701172e-01) (4, -8.94814953207969665527e-02) (5, -4.59566831588745117188e-01) (6, -4.48455810546875000000e+00) (7, 2.59057562798261642456e-02) (8, 2.29253458976745605469e+00) (9, 4.98611867427825927734e-01) (4, -2.55852365493774414062e+00) (5, 1.91979765892028808594e+00) (6, 8.32667589187622070312e-01) (7, 2.62283825874328613281e+00) (8, 9.76069867610931396484e-01) (9, -1.10131132602691650391e+00) (4, -1.99789130687713623047e+00) (5, -7.72083625197410583496e-02) (6, 1.52015018463134765625e+00) (7, 3.59633588790893554688e+00) (8, 1.64057850837707519531e+00) (9, -1.52221488952636718750e+00) 
