FANN_FLO_2.1
num_layers=3
learning_rate=0.100000
connection_rate=1.000000
network_type=0
learning_momentum=0.000000
training_algorithm=1
train_error_function=1
train_stop_function=0
cascade_output_change_fraction=0.010000
quickprop_decay=-0.000100
quickprop_mu=1.750000
rprop_increase_factor=1.200000
rprop_decrease_factor=0.500000
rprop_delta_min=0.000000
rprop_delta_max=50.000000
rprop_delta_zero=0.100000
cascade_output_stagnation_epochs=12
cascade_candidate_change_fraction=0.010000
cascade_candidate_stagnation_epochs=12
cascade_max_out_epochs=150
cascade_min_out_epochs=50
cascade_max_cand_epochs=150
cascade_min_cand_epochs=50
cascade_num_candidate_groups=2
bit_fail_limit=3.49999994039535522461e-01
cascade_candidate_limit=1.00000000000000000000e+03
cascade_weight_multiplier=4.00000005960464477539e-01
cascade_activation_functions_count=10
cascade_activation_functions=3 5 7 8 10 11 14 15 16 17 
cascade_activation_steepnesses_count=4
cascade_activation_steepnesses=2.50000000000000000000e-01 5.00000000000000000000e-01 7.50000000000000000000e-01 1.00000000000000000000e+00 
layer_sizes=4 6 4 
scale_included=1
scale_mean_in=0.197060 -0.002566 -0.039099 
scale_deviation_in=0.014850 0.018694 0.013671 
scale_new_min_in=-1.000000 -1.000000 -1.000000 
scale_factor_in=1.000000 1.000000 1.000000 
scale_mean_out=-1.583848 1.320242 -1.467559 
scale_deviation_out=0.095241 0.253336 0.372524 
scale_new_min_out=-1.000000 -1.000000 -1.000000 
scale_factor_out=1.000000 1.000000 1.000000 
neurons (num_inputs, activation_function, activation_steepness)=(0, 0, 0.00000000000000000000e+00) (0, 0, 0.00000000000000000000e+00) (0, 0, 0.00000000000000000000e+00) (0, 0, 0.00000000000000000000e+00) (4, 5, 5.00000000000000000000e-01) (4, 5, 5.00000000000000000000e-01) (4, 5, 5.00000000000000000000e-01) (4, 5, 5.00000000000000000000e-01) (4, 5, 5.00000000000000000000e-01) (0, 5, 0.00000000000000000000e+00) (6, 5, 5.00000000000000000000e-01) (6, 5, 5.00000000000000000000e-01) (6, 5, 5.00000000000000000000e-01) (0, 5, 0.00000000000000000000e+00) 
connections (connected_to_neuron, weight)=(0, 2.11415624618530273438e+00) (1, -7.80362010002136230469e-01) (2, -2.64123529195785522461e-01) (3, -3.06390547752380371094e+00) (0, -1.06932318210601806641e+00) (1, 8.48454475402832031250e-01) (2, 2.20274567604064941406e-01) (3, -1.61742544174194335938e+00) (0, 1.05215442180633544922e+00) (1, 9.81723904609680175781e-01) (2, 1.60031840205192565918e-01) (3, -1.97711288928985595703e+00) (0, 2.57691949605941772461e-01) (1, 1.09232306480407714844e-01) (2, -6.00661337375640869141e-01) (3, 9.66084003448486328125e-02) (0, -9.45473849773406982422e-01) (1, -1.43765223026275634766e+00) (2, -1.24227598309516906738e-01) (3, -2.40890359878540039062e+00) (4, -1.80003845691680908203e+00) (5, 3.67156672477722167969e+00) (6, 3.03778934478759765625e+00) (7, 1.85322296619415283203e+00) (8, -4.45758533477783203125e+00) (9, -6.63321733474731445312e-01) (4, -3.65087246894836425781e+00) (5, 1.76295816898345947266e+00) (6, -2.06347370147705078125e+00) (7, -4.54720497131347656250e+00) (8, 2.06811726093292236328e-01) (9, -2.70713591575622558594e+00) (4, -4.10450077056884765625e+00) (5, 2.52716469764709472656e+00) (6, -2.99415183067321777344e+00) (7, -9.13487434387207031250e-01) (8, 8.72776806354522705078e-01) (9, -2.95071887969970703125e+00) 
