FANN_FLO_2.1
num_layers=4
learning_rate=0.100000
connection_rate=1.000000
network_type=0
learning_momentum=0.000000
training_algorithm=1
train_error_function=1
train_stop_function=0
cascade_output_change_fraction=0.010000
quickprop_decay=-0.000100
quickprop_mu=1.750000
rprop_increase_factor=1.200000
rprop_decrease_factor=0.500000
rprop_delta_min=0.000000
rprop_delta_max=50.000000
rprop_delta_zero=0.100000
cascade_output_stagnation_epochs=12
cascade_candidate_change_fraction=0.010000
cascade_candidate_stagnation_epochs=12
cascade_max_out_epochs=150
cascade_min_out_epochs=50
cascade_max_cand_epochs=150
cascade_min_cand_epochs=50
cascade_num_candidate_groups=2
bit_fail_limit=3.49999994039535522461e-01
cascade_candidate_limit=1.00000000000000000000e+03
cascade_weight_multiplier=4.00000005960464477539e-01
cascade_activation_functions_count=10
cascade_activation_functions=3 5 7 8 10 11 14 15 16 17 
cascade_activation_steepnesses_count=4
cascade_activation_steepnesses=2.50000000000000000000e-01 5.00000000000000000000e-01 7.50000000000000000000e-01 1.00000000000000000000e+00 
layer_sizes=4 11 11 4 
scale_included=1
scale_mean_in=0.189601 0.047950 0.070552 
scale_deviation_in=0.013556 0.024783 0.015727 
scale_new_min_in=-0.900000 -0.900000 -0.900000 
scale_factor_in=0.900000 0.900000 0.900000 
scale_mean_out=-1.320517 1.623956 -2.048651 
scale_deviation_out=0.134012 0.324225 0.770018 
scale_new_min_out=-0.900000 -0.900000 -0.900000 
scale_factor_out=0.900000 0.900000 0.900000 
neurons (num_inputs, activation_function, activation_steepness)=(0, 0, 0.00000000000000000000e+00) (0, 0, 0.00000000000000000000e+00) (0, 0, 0.00000000000000000000e+00) (0, 0, 0.00000000000000000000e+00) (4, 5, 5.00000000000000000000e-01) (4, 5, 5.00000000000000000000e-01) (4, 5, 5.00000000000000000000e-01) (4, 5, 5.00000000000000000000e-01) (4, 5, 5.00000000000000000000e-01) (4, 5, 5.00000000000000000000e-01) (4, 5, 5.00000000000000000000e-01) (4, 5, 5.00000000000000000000e-01) (4, 5, 5.00000000000000000000e-01) (4, 5, 5.00000000000000000000e-01) (0, 5, 0.00000000000000000000e+00) (11, 5, 5.00000000000000000000e-01) (11, 5, 5.00000000000000000000e-01) (11, 5, 5.00000000000000000000e-01) (11, 5, 5.00000000000000000000e-01) (11, 5, 5.00000000000000000000e-01) (11, 5, 5.00000000000000000000e-01) (11, 5, 5.00000000000000000000e-01) (11, 5, 5.00000000000000000000e-01) (11, 5, 5.00000000000000000000e-01) (11, 5, 5.00000000000000000000e-01) (0, 5, 0.00000000000000000000e+00) (11, 5, 5.00000000000000000000e-01) (11, 5, 5.00000000000000000000e-01) (11, 5, 5.00000000000000000000e-01) (0, 5, 0.00000000000000000000e+00) 
connections (connected_to_neuron, weight)=(0, -2.56171369552612304688e+00) (1, -1.03418970108032226562e+00) (2, -3.25815629959106445312e+00) (3, 4.13036555051803588867e-01) (0, 1.41413068771362304688e+00) (1, 2.61955738067626953125e+00) (2, 1.61853921413421630859e+00) (3, 1.91157031059265136719e+00) (0, -1.73167753219604492188e+00) (1, -1.69878154993057250977e-01) (2, -1.86182498931884765625e+00) (3, 6.87603652477264404297e-01) (0, 6.92569792270660400391e-01) (1, -1.45714366436004638672e+00) (2, 4.62345093488693237305e-01) (3, -1.18882882595062255859e+00) (0, 1.26195549964904785156e+00) (1, 7.44207143783569335938e-01) (2, -3.10398310422897338867e-01) (3, -4.25098687410354614258e-01) (0, 5.62901139259338378906e-01) (1, -2.50293326377868652344e+00) (2, 4.36579942703247070312e-01) (3, -2.62080287933349609375e+00) (0, 5.82573592662811279297e-01) (1, -4.14596223831176757812e+00) (2, -1.57729625701904296875e-01) (3, 4.76086330413818359375e+00) (0, -5.77184617519378662109e-01) (1, -2.55849547684192657471e-02) (2, 1.34140372276306152344e+00) (3, 1.28934299945831298828e+00) (0, 8.26167702674865722656e-01) (1, -8.15670549869537353516e-01) (2, -8.54580342769622802734e-01) (3, 1.46580958366394042969e+00) (0, -1.55516624450683593750e+00) (1, -6.23820841312408447266e-01) (2, -1.25252962112426757812e+00) (3, -2.40053009986877441406e+00) (4, 3.12641084194183349609e-01) (5, -1.41828584671020507812e+00) (6, 6.99173092842102050781e-01) (7, -5.32729685306549072266e-01) (8, -6.41085088253021240234e-01) (9, -6.66678369045257568359e-01) (10, -2.75378537178039550781e+00) (11, -2.13366627693176269531e-01) (12, 3.82844090461730957031e-01) (13, 6.51817560195922851562e-01) (14, 1.53495445847511291504e-01) (4, 3.85691486299037933350e-02) (5, 2.75008797645568847656e+00) (6, 3.76734316349029541016e-01) (7, -1.78985750675201416016e+00) (8, -5.04197478294372558594e-01) (9, -2.82870864868164062500e+00) (10, 5.52583277225494384766e-01) (11, -3.30440968275070190430e-01) (12, 2.54686683416366577148e-01) (13, -3.93975168466567993164e-01) (14, 5.26106238365173339844e-01) (4, 4.60394978523254394531e-01) (5, 9.30734634399414062500e-01) (6, 6.48462474346160888672e-01) (7, 1.68228596448898315430e-01) (8, 5.69130122661590576172e-01) (9, 8.41063499450683593750e-01) (10, -1.73597037792205810547e+00) (11, -1.29385307431221008301e-01) (12, -8.30378234386444091797e-01) (13, 2.51097381114959716797e-01) (14, -1.90516235306859016418e-03) (4, 1.11255466938018798828e+00) (5, 2.28960323333740234375e+00) (6, 1.23508326709270477295e-01) (7, -2.14316320419311523438e+00) (8, 7.44990527629852294922e-01) (9, -2.26393175125122070312e+00) (10, 8.63232910633087158203e-01) (11, 6.78279221057891845703e-01) (12, -9.65279340744018554688e-01) (13, -6.60982966423034667969e-01) (14, 6.50690972805023193359e-01) (4, -3.25738638639450073242e-01) (5, 9.60203111171722412109e-01) (6, 6.87516927719116210938e-01) (7, 1.44080296158790588379e-01) (8, 3.99678230285644531250e-01) (9, -4.88771557807922363281e-01) (10, -9.50874030590057373047e-01) (11, 1.88021987676620483398e-01) (12, -7.98714309930801391602e-02) (13, -3.92267584800720214844e-01) (14, 2.15348042547702789307e-02) (4, -8.16866040229797363281e-01) (5, -1.21411943435668945312e+00) (6, -8.46677660942077636719e-01) (7, -8.76842677593231201172e-01) (8, -6.58118486404418945312e-01) (9, 1.29514262080192565918e-01) (10, 7.45331525802612304688e-01) (11, -5.71915924549102783203e-01) (12, 2.63870090246200561523e-01) (13, 5.09550154209136962891e-01) (14, 1.72526872158050537109e+00) (4, 3.29380154609680175781e+00) (5, -9.09575581550598144531e-01) (6, 1.92769515514373779297e+00) (7, -1.36234804987907409668e-01) (8, -1.43027400970458984375e+00) (9, -1.02710950374603271484e+00) (10, 1.54154455661773681641e+00) (11, 1.15102505683898925781e+00) (12, 4.50522720813751220703e-01) (13, 3.67629647254943847656e+00) (14, -2.56807923316955566406e+00) (4, 5.15172243118286132812e-01) (5, -9.35356736183166503906e-01) (6, -1.60920965671539306641e+00) (7, 3.31856608390808105469e-01) (8, -2.37468689680099487305e-01) (9, -3.90475690364837646484e-01) (10, 4.69371747970581054688e+00) (11, 4.31484520435333251953e-01) (12, 1.24092423915863037109e+00) (13, -7.61699914932250976562e-01) (14, 5.01571714878082275391e-01) (4, 1.08811032772064208984e+00) (5, -6.49755597114562988281e-01) (6, -5.55259764194488525391e-01) (7, 5.47985196113586425781e-01) (8, 9.72661972045898437500e-01) (9, 3.37477236986160278320e-01) (10, -5.86740255355834960938e-01) (11, -8.55627775192260742188e-01) (12, -1.54598116874694824219e+00) (13, 4.71889376640319824219e-02) (14, -1.33726406097412109375e+00) (4, -2.06589892506599426270e-01) (5, 6.49776399135589599609e-01) (6, 1.38263118267059326172e+00) (7, 4.56864982843399047852e-01) (8, 1.60476297140121459961e-01) (9, 6.57274067401885986328e-01) (10, 1.53103530406951904297e+00) (11, -3.67570012807846069336e-01) (12, 1.04994252324104309082e-01) (13, 4.17690277099609375000e-01) (14, -7.75599122047424316406e-01) (15, 2.81354951858520507812e+00) (16, 5.18943500518798828125e+00) (17, 1.76948392391204833984e+00) (18, 3.97242760658264160156e+00) (19, 2.99474549293518066406e+00) (20, -1.14243447780609130859e+00) (21, -6.28433302044868469238e-02) (22, -6.45385503768920898438e+00) (23, -1.50756835937500000000e-01) (24, -1.62564003467559814453e+00) (25, 9.60315406322479248047e-01) (15, 1.90823209285736083984e+00) (16, 1.25796258449554443359e+00) (17, -1.04576051235198974609e+00) (18, -8.26284229755401611328e-01) (19, -4.64794248342514038086e-01) (20, 2.66964530944824218750e+00) (21, 8.09207820892333984375e+00) (22, 2.22705408930778503418e-01) (23, -3.02758884429931640625e+00) (24, -1.98023796081542968750e+00) (25, 2.68350052833557128906e+00) (15, 8.52983355522155761719e-01) (16, 2.98061966896057128906e-01) (17, 1.70874714851379394531e-01) (18, -3.51183533668518066406e-01) (19, 6.10349953174591064453e-01) (20, 1.10317349433898925781e+00) (21, 4.17456656694412231445e-01) (22, 1.93732529878616333008e-01) (23, -1.98712900280952453613e-01) (24, 4.15320813655853271484e-01) (25, -1.09673939645290374756e-01) 
