FANN_FLO_2.1
num_layers=4
learning_rate=0.100000
connection_rate=1.000000
network_type=0
learning_momentum=0.000000
training_algorithm=1
train_error_function=1
train_stop_function=0
cascade_output_change_fraction=0.010000
quickprop_decay=-0.000100
quickprop_mu=1.750000
rprop_increase_factor=1.200000
rprop_decrease_factor=0.500000
rprop_delta_min=0.000000
rprop_delta_max=50.000000
rprop_delta_zero=0.100000
cascade_output_stagnation_epochs=12
cascade_candidate_change_fraction=0.010000
cascade_candidate_stagnation_epochs=12
cascade_max_out_epochs=150
cascade_min_out_epochs=50
cascade_max_cand_epochs=150
cascade_min_cand_epochs=50
cascade_num_candidate_groups=2
bit_fail_limit=3.49999994039535522461e-01
cascade_candidate_limit=1.00000000000000000000e+03
cascade_weight_multiplier=4.00000005960464477539e-01
cascade_activation_functions_count=10
cascade_activation_functions=3 5 7 8 10 11 14 15 16 17 
cascade_activation_steepnesses_count=4
cascade_activation_steepnesses=2.50000000000000000000e-01 5.00000000000000000000e-01 7.50000000000000000000e-01 1.00000000000000000000e+00 
layer_sizes=4 11 11 4 
scale_included=1
scale_mean_in=0.181370 0.116960 -0.146049 
scale_deviation_in=0.010878 0.015510 0.014625 
scale_new_min_in=-0.900000 -0.900000 -0.900000 
scale_factor_in=0.900000 0.900000 0.900000 
scale_mean_out=-0.988290 0.434068 -2.755520 
scale_deviation_out=0.074748 0.290778 0.456425 
scale_new_min_out=-0.900000 -0.900000 -0.900000 
scale_factor_out=0.900000 0.900000 0.900000 
neurons (num_inputs, activation_function, activation_steepness)=(0, 0, 0.00000000000000000000e+00) (0, 0, 0.00000000000000000000e+00) (0, 0, 0.00000000000000000000e+00) (0, 0, 0.00000000000000000000e+00) (4, 5, 5.00000000000000000000e-01) (4, 5, 5.00000000000000000000e-01) (4, 5, 5.00000000000000000000e-01) (4, 5, 5.00000000000000000000e-01) (4, 5, 5.00000000000000000000e-01) (4, 5, 5.00000000000000000000e-01) (4, 5, 5.00000000000000000000e-01) (4, 5, 5.00000000000000000000e-01) (4, 5, 5.00000000000000000000e-01) (4, 5, 5.00000000000000000000e-01) (0, 5, 0.00000000000000000000e+00) (11, 5, 5.00000000000000000000e-01) (11, 5, 5.00000000000000000000e-01) (11, 5, 5.00000000000000000000e-01) (11, 5, 5.00000000000000000000e-01) (11, 5, 5.00000000000000000000e-01) (11, 5, 5.00000000000000000000e-01) (11, 5, 5.00000000000000000000e-01) (11, 5, 5.00000000000000000000e-01) (11, 5, 5.00000000000000000000e-01) (11, 5, 5.00000000000000000000e-01) (0, 5, 0.00000000000000000000e+00) (11, 5, 5.00000000000000000000e-01) (11, 5, 5.00000000000000000000e-01) (11, 5, 5.00000000000000000000e-01) (0, 5, 0.00000000000000000000e+00) 
connections (connected_to_neuron, weight)=(0, -6.99570178985595703125e+00) (1, -6.64167594909667968750e+00) (2, 9.79411792755126953125e+00) (3, -1.00665569305419921875e+01) (0, 6.59775686264038085938e+00) (1, 6.54934978485107421875e+00) (2, -5.20057392120361328125e+00) (3, 4.98230028152465820312e+00) (0, 4.39787769317626953125e+00) (1, -1.38407039642333984375e+00) (2, -2.34459352493286132812e+00) (3, -2.50167459249496459961e-01) (0, 1.93565547466278076172e+00) (1, -5.79821228981018066406e-01) (2, -1.61625504493713378906e+00) (3, -1.13826789855957031250e+01) (0, 5.34044361114501953125e+00) (1, -9.63915061950683593750e+00) (2, 4.25010538101196289062e+00) (3, 3.59770083427429199219e+00) (0, -2.63894653320312500000e+00) (1, 3.70452213287353515625e+00) (2, 8.96036243438720703125e+00) (3, 3.99096155166625976562e+00) (0, 3.05587172508239746094e+00) (1, -1.65641713142395019531e+00) (2, -2.39675045013427734375e+00) (3, -1.15509433746337890625e+01) (0, 2.10552573204040527344e+00) (1, -1.84160983562469482422e+00) (2, -8.29528522491455078125e+00) (3, -4.25799131393432617188e+00) (0, 7.71100378036499023438e+00) (1, 7.22155475616455078125e+00) (2, -1.12224512100219726562e+01) (3, 1.15761833190917968750e+01) (0, -7.66649961471557617188e+00) (1, 1.44732046127319335938e+01) (2, 3.00465852022171020508e-01) (3, -1.41117849349975585938e+01) (4, -6.05186700820922851562e+00) (5, 2.30689930915832519531e+00) (6, 2.16025042533874511719e+00) (7, 1.13639335632324218750e+01) (8, -8.01045989990234375000e+00) (9, -5.51834869384765625000e+00) (10, 1.06069784164428710938e+01) (11, 5.00476169586181640625e+00) (12, 1.18247909545898437500e+01) (13, 1.18219928741455078125e+01) (14, -1.03667631149291992188e+01) (4, -1.03882465362548828125e+01) (5, 3.79932069778442382812e+00) (6, -6.05940437316894531250e+00) (7, 1.97310400009155273438e+00) (8, -7.85980415344238281250e+00) (9, 6.71567380428314208984e-01) (10, 9.55833494663238525391e-01) (11, 5.74526965618133544922e-01) (12, 2.20236511230468750000e+01) (13, 1.39202814102172851562e+01) (14, -2.76619553565979003906e+00) (4, 1.12656545639038085938e+01) (5, -4.70567226409912109375e+00) (6, -8.41826629638671875000e+00) (7, -3.40315341949462890625e+00) (8, -6.70654177665710449219e-01) (9, 8.64643955230712890625e+00) (10, -4.93242502212524414062e+00) (11, -1.16187131404876708984e+00) (12, -2.12044563293457031250e+01) (13, 2.29201221466064453125e+00) (14, 4.81365394592285156250e+00) (4, -7.95073747634887695312e+00) (5, 7.61192607879638671875e+00) (6, 3.90718030929565429688e+00) (7, 1.35264501571655273438e+01) (8, -9.48602390289306640625e+00) (9, -9.25135421752929687500e+00) (10, 1.24216661453247070312e+01) (11, 7.36885213851928710938e+00) (12, 1.01110467910766601562e+01) (13, 1.40999374389648437500e+01) (14, -1.39408674240112304688e+01) (4, -8.21476936340332031250e+00) (5, 9.19886493682861328125e+00) (6, 2.92814135551452636719e+00) (7, 2.05401635169982910156e+00) (8, -3.40527486801147460938e+00) (9, -5.66745233535766601562e+00) (10, 4.09800052642822265625e+00) (11, 6.01800203323364257812e+00) (12, 1.47833271026611328125e+01) (13, 2.45757007598876953125e+00) (14, -2.33486509323120117188e+00) (4, -2.05726947784423828125e+01) (5, 1.20632705688476562500e+01) (6, 3.24965405464172363281e+00) (7, 6.84082794189453125000e+00) (8, -1.11429471969604492188e+01) (9, -6.09453344345092773438e+00) (10, 6.01535415649414062500e+00) (11, 7.73353528976440429688e+00) (12, 2.96586685180664062500e+01) (13, 1.03622922897338867188e+01) (14, -5.87753105163574218750e+00) (4, -1.89564228057861328125e+01) (5, 1.07047023773193359375e+01) (6, 1.51075577735900878906e+00) (7, 5.89288759231567382812e+00) (8, -1.10730676651000976562e+01) (9, -5.73216247558593750000e+00) (10, 6.44383192062377929688e+00) (11, 5.99432134628295898438e+00) (12, 2.83874759674072265625e+01) (13, 1.09309759140014648438e+01) (14, -6.02639436721801757812e+00) (4, -2.25178027153015136719e+00) (5, -3.38228774070739746094e+00) (6, 5.59644460678100585938e+00) (7, 7.69262886047363281250e+00) (8, 4.93883943557739257812e+00) (9, -6.59847438335418701172e-01) (10, 7.02496147155761718750e+00) (11, -5.16778230667114257812e-01) (12, 1.24382791519165039062e+01) (13, 1.70354259014129638672e+00) (14, -7.71453428268432617188e+00) (4, -9.78186035156250000000e+00) (5, 7.47660970687866210938e+00) (6, 8.47309684753417968750e+00) (7, 1.42880134582519531250e+01) (8, -4.87224197387695312500e+00) (9, -1.00015993118286132812e+01) (10, 1.42008314132690429688e+01) (11, 8.60929107666015625000e+00) (12, 1.11295909881591796875e+01) (13, 1.38402318954467773438e+01) (14, -1.52020521163940429688e+01) (4, 2.42693826556205749512e-01) (5, -3.93501567840576171875e+00) (6, 4.63003301620483398438e+00) (7, -1.08418483734130859375e+01) (8, 1.41042175292968750000e+01) (9, 5.49901723861694335938e+00) (10, -1.09900569915771484375e+01) (11, -5.83743810653686523438e+00) (12, -6.94069004058837890625e+00) (13, -1.16658687591552734375e+01) (14, 1.08257303237915039062e+01) (15, 1.28807282447814941406e+00) (16, 7.44057559967041015625e+00) (17, 7.42322158813476562500e+00) (18, 1.14132452011108398438e+00) (19, -5.58958053588867187500e-01) (20, -8.00285786390304565430e-02) (21, 1.10541558265686035156e+00) (22, -8.11319923400878906250e+00) (23, -2.34198284149169921875e+00) (24, -9.34514236450195312500e+00) (25, 1.21669697761535644531e+00) (15, -4.65454196929931640625e+00) (16, -4.42198181152343750000e+00) (17, 9.07628631591796875000e+00) (18, -7.29455041885375976562e+00) (19, -1.23364915847778320312e+01) (20, -6.83663749694824218750e+00) (21, -5.97809791564941406250e+00) (22, -3.25687551498413085938e+00) (23, -7.18400430679321289062e+00) (24, 7.34966135025024414062e+00) (25, 8.43449783325195312500e+00) (15, -3.06976299285888671875e+01) (16, -3.51958160400390625000e+01) (17, 3.44432449340820312500e+01) (18, -3.12671031951904296875e+01) (19, -2.68652076721191406250e+01) (20, -4.37397956848144531250e+01) (21, -4.25003967285156250000e+01) (22, -2.86955680847167968750e+01) (23, -3.31755828857421875000e+01) (24, 2.46944637298583984375e+01) (25, 3.38322067260742187500e+01) 
