FANN_FLO_2.1
num_layers=4
learning_rate=0.100000
connection_rate=1.000000
network_type=0
learning_momentum=0.000000
training_algorithm=1
train_error_function=1
train_stop_function=0
cascade_output_change_fraction=0.010000
quickprop_decay=-0.000100
quickprop_mu=1.750000
rprop_increase_factor=1.200000
rprop_decrease_factor=0.500000
rprop_delta_min=0.000000
rprop_delta_max=50.000000
rprop_delta_zero=0.100000
cascade_output_stagnation_epochs=12
cascade_candidate_change_fraction=0.010000
cascade_candidate_stagnation_epochs=12
cascade_max_out_epochs=150
cascade_min_out_epochs=50
cascade_max_cand_epochs=150
cascade_min_cand_epochs=50
cascade_num_candidate_groups=2
bit_fail_limit=3.49999994039535522461e-01
cascade_candidate_limit=1.00000000000000000000e+03
cascade_weight_multiplier=4.00000005960464477539e-01
cascade_activation_functions_count=10
cascade_activation_functions=3 5 7 8 10 11 14 15 16 17 
cascade_activation_steepnesses_count=4
cascade_activation_steepnesses=2.50000000000000000000e-01 5.00000000000000000000e-01 7.50000000000000000000e-01 1.00000000000000000000e+00 
layer_sizes=4 11 11 4 
scale_included=1
scale_mean_in=0.176644 0.111149 0.058813 
scale_deviation_in=0.007933 0.012019 0.010240 
scale_new_min_in=-0.900000 -0.900000 -0.900000 
scale_factor_in=0.900000 0.900000 0.900000 
scale_mean_out=-1.006996 1.442942 -2.027777 
scale_deviation_out=0.058526 0.249575 0.680365 
scale_new_min_out=-0.900000 -0.900000 -0.900000 
scale_factor_out=0.900000 0.900000 0.900000 
neurons (num_inputs, activation_function, activation_steepness)=(0, 0, 0.00000000000000000000e+00) (0, 0, 0.00000000000000000000e+00) (0, 0, 0.00000000000000000000e+00) (0, 0, 0.00000000000000000000e+00) (4, 5, 5.00000000000000000000e-01) (4, 5, 5.00000000000000000000e-01) (4, 5, 5.00000000000000000000e-01) (4, 5, 5.00000000000000000000e-01) (4, 5, 5.00000000000000000000e-01) (4, 5, 5.00000000000000000000e-01) (4, 5, 5.00000000000000000000e-01) (4, 5, 5.00000000000000000000e-01) (4, 5, 5.00000000000000000000e-01) (4, 5, 5.00000000000000000000e-01) (0, 5, 0.00000000000000000000e+00) (11, 5, 5.00000000000000000000e-01) (11, 5, 5.00000000000000000000e-01) (11, 5, 5.00000000000000000000e-01) (11, 5, 5.00000000000000000000e-01) (11, 5, 5.00000000000000000000e-01) (11, 5, 5.00000000000000000000e-01) (11, 5, 5.00000000000000000000e-01) (11, 5, 5.00000000000000000000e-01) (11, 5, 5.00000000000000000000e-01) (11, 5, 5.00000000000000000000e-01) (0, 5, 0.00000000000000000000e+00) (11, 5, 5.00000000000000000000e-01) (11, 5, 5.00000000000000000000e-01) (11, 5, 5.00000000000000000000e-01) (0, 5, 0.00000000000000000000e+00) 
connections (connected_to_neuron, weight)=(0, -5.99287271499633789062e+00) (1, -5.76267004013061523438e+00) (2, -6.24110269546508789062e+00) (3, -5.41025114059448242188e+00) (0, 6.04226887226104736328e-01) (1, -1.00368225574493408203e+00) (2, 6.40621840953826904297e-01) (3, -1.91014662384986877441e-01) (0, -3.94535101950168609619e-02) (1, -6.37184202671051025391e-01) (2, 2.00062721967697143555e-01) (3, -9.90399062633514404297e-01) (0, -1.08378517627716064453e+00) (1, -1.04971230030059814453e+00) (2, -8.95923554897308349609e-01) (3, -2.11381649971008300781e+00) (0, -1.34595465660095214844e+00) (1, 4.01361036300659179688e+00) (2, 2.23841831088066101074e-01) (3, -4.95074319839477539062e+00) (0, -8.22706580162048339844e-01) (1, -9.13125455379486083984e-01) (2, 2.37067604064941406250e+00) (3, 2.82163023948669433594e-01) (0, -1.91027212142944335938e+00) (1, -1.16294002532958984375e+00) (2, -1.76162683963775634766e+00) (3, -5.64604938030242919922e-01) (0, -1.69343495368957519531e+00) (1, 1.95984601974487304688e+00) (2, 4.58544135093688964844e-01) (3, -3.34025192260742187500e+00) (0, -1.68419766426086425781e+00) (1, 2.68112373352050781250e+00) (2, -2.25503310561180114746e-01) (3, 4.37077426910400390625e+00) (0, -1.78642714023590087891e+00) (1, -6.61466777324676513672e-01) (2, -1.17188203334808349609e+00) (3, 5.71030616760253906250e-01) (4, 1.94390153884887695312e+00) (5, -3.40460091829299926758e-02) (6, 4.22340601682662963867e-01) (7, -5.41133821010589599609e-01) (8, -1.64826348423957824707e-01) (9, -3.48140895366668701172e-01) (10, -5.63354715704917907715e-02) (11, -1.57622158527374267578e+00) (12, -1.64957940578460693359e+00) (13, -1.83361068367958068848e-01) (14, -1.56144455075263977051e-01) (4, 2.80098032951354980469e+00) (5, -3.53425443172454833984e-01) (6, -1.41016852855682373047e+00) (7, -2.28849244117736816406e+00) (8, 7.15204775333404541016e-01) (9, 4.43116962909698486328e-01) (10, -1.77960026264190673828e+00) (11, 1.59479286521673202515e-02) (12, 1.13674306869506835938e+00) (13, -8.80431652069091796875e-01) (14, 1.80671167373657226562e+00) (4, 2.99912810325622558594e+00) (5, -7.32261419296264648438e-01) (6, 1.26214444637298583984e-01) (7, -6.02341949939727783203e-01) (8, -2.24241566658020019531e+00) (9, 2.91621357202529907227e-01) (10, -1.33581292629241943359e+00) (11, 3.08248043060302734375e-01) (12, -2.31514143943786621094e+00) (13, 1.27379357814788818359e+00) (14, 7.57389187812805175781e-01) (4, 9.71975266933441162109e-01) (5, -1.29459035396575927734e+00) (6, -1.28970491886138916016e+00) (7, 1.03841710090637207031e+00) (8, 2.56384825706481933594e+00) (9, -1.46596074104309082031e+00) (10, 1.27591162919998168945e-01) (11, 2.48117828369140625000e+00) (12, 1.00678943097591400146e-01) (13, -2.35233888030052185059e-01) (14, -4.53968316316604614258e-01) (4, 2.60210800170898437500e+00) (5, -4.79604512453079223633e-01) (6, 1.10214626789093017578e+00) (7, -4.55925971269607543945e-01) (8, -1.68788957595825195312e+00) (9, -1.71799764037132263184e-01) (10, -7.05018520355224609375e-01) (11, -7.39847242832183837891e-01) (12, -1.82906687259674072266e-01) (13, 3.32073494791984558105e-02) (14, 6.67948484420776367188e-01) (4, 4.99933958053588867188e-01) (5, 2.26012182235717773438e+00) (6, 6.95524275302886962891e-01) (7, 9.21105980873107910156e-01) (8, -1.23116695880889892578e+00) (9, -3.57597619295120239258e-01) (10, -5.81247389316558837891e-01) (11, 3.32160383462905883789e-01) (12, -3.56779575347900390625e+00) (13, -2.09361410140991210938e+00) (14, -1.95896673202514648438e+00) (4, 8.43773007392883300781e-01) (5, 9.63816523551940917969e-01) (6, 5.27487218379974365234e-01) (7, -2.25465521216392517090e-01) (8, -2.81323957443237304688e+00) (9, 4.31667536497116088867e-01) (10, -1.84493231773376464844e+00) (11, -2.91509723663330078125e+00) (12, 9.69656109809875488281e-01) (13, -4.32328581809997558594e-01) (14, 1.39623498916625976562e+00) (4, 3.32171559333801269531e+00) (5, -8.13726305961608886719e-01) (6, -1.28870224952697753906e+00) (7, -1.06422066688537597656e+00) (8, 2.42712450027465820312e+00) (9, -1.86147727072238922119e-02) (10, 4.29223090410232543945e-01) (11, 4.15768235921859741211e-01) (12, 3.95037889480590820312e-01) (13, 5.15021979808807373047e-01) (14, 6.09741568565368652344e-01) (4, 4.22320508956909179688e+00) (5, 8.56730043888092041016e-01) (6, -2.05435797572135925293e-01) (7, -6.25785470008850097656e-01) (8, -1.40110111236572265625e+00) (9, 9.96798202395439147949e-02) (10, 3.80744069814682006836e-01) (11, -1.86982471495866775513e-02) (12, 1.52039676904678344727e-01) (13, 1.96859169006347656250e+00) (14, -3.26000154018402099609e-01) (4, -4.93693923950195312500e+00) (5, -3.74852061271667480469e-01) (6, -3.39792132377624511719e-01) (7, 7.57148861885070800781e-01) (8, -2.03737378120422363281e+00) (9, 1.49667949881404638290e-03) (10, -2.12754219770431518555e-01) (11, -6.12590909004211425781e-01) (12, -2.70523023605346679688e+00) (13, -6.97362542152404785156e-01) (14, -1.78417503833770751953e+00) (15, -3.52647948265075683594e+00) (16, 2.36313033103942871094e+00) (17, -4.41293954849243164062e+00) (18, 5.59782886505126953125e+00) (19, -2.20290303230285644531e+00) (20, -8.14069747924804687500e+00) (21, -6.81855344772338867188e+00) (22, 3.09422302246093750000e+00) (23, -1.32550895214080810547e+00) (24, -4.67145919799804687500e+00) (25, 3.44355583190917968750e+00) (15, 1.96169650554656982422e+00) (16, 5.46961021423339843750e+00) (17, 5.80399084091186523438e+00) (18, -2.17207384109497070312e+00) (19, 6.21386480331420898438e+00) (20, -3.79311394691467285156e+00) (21, 5.06949996948242187500e+00) (22, 6.49497461318969726562e+00) (23, 5.78550815582275390625e+00) (24, -7.54013776779174804688e+00) (25, 4.71120643615722656250e+00) (15, 2.29361727833747863770e-01) (16, 1.54213917255401611328e+00) (17, -7.17664778232574462891e-01) (18, -1.09483766555786132812e+00) (19, -7.55832195281982421875e-01) (20, 5.16374289989471435547e-01) (21, -1.35810589790344238281e+00) (22, 1.29938912391662597656e+00) (23, 2.00236868858337402344e+00) (24, 2.31365990638732910156e+00) (25, 2.49028980731964111328e-01) 
