FANN_FLO_2.1
num_layers=3
learning_rate=0.100000
connection_rate=1.000000
network_type=0
learning_momentum=0.000000
training_algorithm=1
train_error_function=1
train_stop_function=0
cascade_output_change_fraction=0.010000
quickprop_decay=-0.000100
quickprop_mu=1.750000
rprop_increase_factor=1.200000
rprop_decrease_factor=0.500000
rprop_delta_min=0.000000
rprop_delta_max=50.000000
rprop_delta_zero=0.100000
cascade_output_stagnation_epochs=12
cascade_candidate_change_fraction=0.010000
cascade_candidate_stagnation_epochs=12
cascade_max_out_epochs=150
cascade_min_out_epochs=50
cascade_max_cand_epochs=150
cascade_min_cand_epochs=50
cascade_num_candidate_groups=2
bit_fail_limit=3.49999994039535522461e-01
cascade_candidate_limit=1.00000000000000000000e+03
cascade_weight_multiplier=4.00000005960464477539e-01
cascade_activation_functions_count=10
cascade_activation_functions=3 5 7 8 10 11 14 15 16 17 
cascade_activation_steepnesses_count=4
cascade_activation_steepnesses=2.50000000000000000000e-01 5.00000000000000000000e-01 7.50000000000000000000e-01 1.00000000000000000000e+00 
layer_sizes=4 6 4 
scale_included=1
scale_mean_in=0.194577 -0.002549 -0.039124 
scale_deviation_in=0.018564 0.018658 0.013629 
scale_new_min_in=-1.000000 -1.000000 -1.000000 
scale_factor_in=1.000000 1.000000 1.000000 
scale_mean_out=-1.583941 1.349391 -1.423414 
scale_deviation_out=0.097019 0.284608 0.417270 
scale_new_min_out=-1.000000 -1.000000 -1.000000 
scale_factor_out=1.000000 1.000000 1.000000 
neurons (num_inputs, activation_function, activation_steepness)=(0, 0, 0.00000000000000000000e+00) (0, 0, 0.00000000000000000000e+00) (0, 0, 0.00000000000000000000e+00) (0, 0, 0.00000000000000000000e+00) (4, 5, 5.00000000000000000000e-01) (4, 5, 5.00000000000000000000e-01) (4, 5, 5.00000000000000000000e-01) (4, 5, 5.00000000000000000000e-01) (4, 5, 5.00000000000000000000e-01) (0, 5, 0.00000000000000000000e+00) (6, 5, 5.00000000000000000000e-01) (6, 5, 5.00000000000000000000e-01) (6, 5, 5.00000000000000000000e-01) (0, 5, 0.00000000000000000000e+00) 
connections (connected_to_neuron, weight)=(0, -4.12825226783752441406e-01) (1, 1.35147857666015625000e+00) (2, -6.67640492320060729980e-02) (3, 6.14544928073883056641e-01) (0, -1.20689988136291503906e+00) (1, -2.88606464862823486328e-01) (2, 6.96578681468963623047e-01) (3, 4.75924998521804809570e-01) (0, 1.01096832752227783203e+00) (1, 4.03200417757034301758e-01) (2, -2.26872116327285766602e-01) (3, 4.53355878591537475586e-01) (0, -6.37457907199859619141e-01) (1, 1.29122662544250488281e+00) (2, -9.06277447938919067383e-02) (3, -8.27212810516357421875e-01) (0, 6.44488275051116943359e-01) (1, 9.12898480892181396484e-01) (2, 7.68494546413421630859e-01) (3, -3.70767861604690551758e-01) (4, 2.34921526908874511719e+00) (5, -6.93040847778320312500e-01) (6, 9.07418668270111083984e-01) (7, 2.13953542709350585938e+00) (8, 1.33888685703277587891e+00) (9, 2.37669661641120910645e-01) (4, 9.67192828655242919922e-01) (5, 3.34460043907165527344e+00) (6, -1.89157962799072265625e+00) (7, 5.90229809284210205078e-01) (8, 7.73233547806739807129e-02) (9, -1.08633510768413543701e-01) (4, 1.30936610698699951172e+00) (5, 2.39447498321533203125e+00) (6, -2.10964131355285644531e+00) (7, 1.30746364593505859375e+00) (8, -1.65401864051818847656e+00) (9, 1.48792982101440429688e-01) 
