FANN_FLO_2.1
num_layers=3
learning_rate=0.100000
connection_rate=1.000000
network_type=0
learning_momentum=0.000000
training_algorithm=1
train_error_function=1
train_stop_function=0
cascade_output_change_fraction=0.010000
quickprop_decay=-0.000100
quickprop_mu=1.750000
rprop_increase_factor=1.200000
rprop_decrease_factor=0.500000
rprop_delta_min=0.000000
rprop_delta_max=50.000000
rprop_delta_zero=0.100000
cascade_output_stagnation_epochs=12
cascade_candidate_change_fraction=0.010000
cascade_candidate_stagnation_epochs=12
cascade_max_out_epochs=150
cascade_min_out_epochs=50
cascade_max_cand_epochs=150
cascade_min_cand_epochs=50
cascade_num_candidate_groups=2
bit_fail_limit=3.49999994039535522461e-01
cascade_candidate_limit=1.00000000000000000000e+03
cascade_weight_multiplier=4.00000005960464477539e-01
cascade_activation_functions_count=10
cascade_activation_functions=3 5 7 8 10 11 14 15 16 17 
cascade_activation_steepnesses_count=4
cascade_activation_steepnesses=2.50000000000000000000e-01 5.00000000000000000000e-01 7.50000000000000000000e-01 1.00000000000000000000e+00 
layer_sizes=4 6 4 
scale_included=1
scale_mean_in=0.194577 -0.002549 -0.039124 
scale_deviation_in=0.018564 0.018658 0.013629 
scale_new_min_in=-1.000000 -1.000000 -1.000000 
scale_factor_in=1.000000 1.000000 1.000000 
scale_mean_out=-1.583941 1.349391 -1.423414 
scale_deviation_out=0.097019 0.284608 0.417270 
scale_new_min_out=-1.000000 -1.000000 -1.000000 
scale_factor_out=1.000000 1.000000 1.000000 
neurons (num_inputs, activation_function, activation_steepness)=(0, 0, 0.00000000000000000000e+00) (0, 0, 0.00000000000000000000e+00) (0, 0, 0.00000000000000000000e+00) (0, 0, 0.00000000000000000000e+00) (4, 5, 5.00000000000000000000e-01) (4, 5, 5.00000000000000000000e-01) (4, 5, 5.00000000000000000000e-01) (4, 5, 5.00000000000000000000e-01) (4, 5, 5.00000000000000000000e-01) (0, 5, 0.00000000000000000000e+00) (6, 5, 5.00000000000000000000e-01) (6, 5, 5.00000000000000000000e-01) (6, 5, 5.00000000000000000000e-01) (0, 5, 0.00000000000000000000e+00) 
connections (connected_to_neuron, weight)=(0, 1.08900547027587890625e+00) (1, -3.75174582004547119141e-02) (2, -4.54259663820266723633e-01) (3, 5.29072761535644531250e-01) (0, -1.45330178737640380859e+00) (1, -2.90540784597396850586e-01) (2, -3.57496142387390136719e-02) (3, 5.38026511669158935547e-01) (0, 1.09098601341247558594e+00) (1, -3.77353966236114501953e-01) (2, -6.98864400386810302734e-01) (3, -2.51470208168029785156e-01) (0, -6.23131513595581054688e-01) (1, 8.40972542762756347656e-01) (2, -6.29506289958953857422e-01) (3, -5.68688631057739257812e-01) (0, 2.20002308487892150879e-01) (1, 1.74784803390502929688e+00) (2, 6.00899420678615570068e-02) (3, 2.27247655391693115234e-01) (4, -2.11250651627779006958e-02) (5, -2.82004207372665405273e-01) (6, -4.79179978370666503906e-01) (7, 9.24601793289184570312e-01) (8, 3.60163140296936035156e+00) (9, -1.20428837835788726807e-01) (4, -1.83605194091796875000e+00) (5, 1.29961407184600830078e+00) (6, -2.62922716140747070312e+00) (7, -3.85697722434997558594e-01) (8, -2.61502146720886230469e-01) (9, 2.57056355476379394531e-02) (4, -2.00190424919128417969e+00) (5, 2.32069325447082519531e+00) (6, -8.71639132499694824219e-01) (7, 1.11478924751281738281e+00) (8, -3.11098545789718627930e-01) (9, 4.72644716501235961914e-01) 
