FANN_FLO_2.1
num_layers=3
learning_rate=0.100000
connection_rate=1.000000
network_type=0
learning_momentum=0.000000
training_algorithm=1
train_error_function=1
train_stop_function=0
cascade_output_change_fraction=0.010000
quickprop_decay=-0.000100
quickprop_mu=1.750000
rprop_increase_factor=1.200000
rprop_decrease_factor=0.500000
rprop_delta_min=0.000000
rprop_delta_max=50.000000
rprop_delta_zero=0.100000
cascade_output_stagnation_epochs=12
cascade_candidate_change_fraction=0.010000
cascade_candidate_stagnation_epochs=12
cascade_max_out_epochs=150
cascade_min_out_epochs=50
cascade_max_cand_epochs=150
cascade_min_cand_epochs=50
cascade_num_candidate_groups=2
bit_fail_limit=3.49999994039535522461e-01
cascade_candidate_limit=1.00000000000000000000e+03
cascade_weight_multiplier=4.00000005960464477539e-01
cascade_activation_functions_count=10
cascade_activation_functions=3 5 7 8 10 11 14 15 16 17 
cascade_activation_steepnesses_count=4
cascade_activation_steepnesses=2.50000000000000000000e-01 5.00000000000000000000e-01 7.50000000000000000000e-01 1.00000000000000000000e+00 
layer_sizes=4 6 4 
scale_included=1
scale_mean_in=0.197100 -0.002573 -0.039100 
scale_deviation_in=0.014810 0.018678 0.013633 
scale_new_min_in=-1.000000 -1.000000 -1.000000 
scale_factor_in=1.000000 1.000000 1.000000 
scale_mean_out=-1.583851 1.319719 -1.468488 
scale_deviation_out=0.095152 0.253756 0.372725 
scale_new_min_out=-1.000000 -1.000000 -1.000000 
scale_factor_out=1.000000 1.000000 1.000000 
neurons (num_inputs, activation_function, activation_steepness)=(0, 0, 0.00000000000000000000e+00) (0, 0, 0.00000000000000000000e+00) (0, 0, 0.00000000000000000000e+00) (0, 0, 0.00000000000000000000e+00) (4, 5, 5.00000000000000000000e-01) (4, 5, 5.00000000000000000000e-01) (4, 5, 5.00000000000000000000e-01) (4, 5, 5.00000000000000000000e-01) (4, 5, 5.00000000000000000000e-01) (0, 5, 0.00000000000000000000e+00) (6, 5, 5.00000000000000000000e-01) (6, 5, 5.00000000000000000000e-01) (6, 5, 5.00000000000000000000e-01) (0, 5, 0.00000000000000000000e+00) 
connections (connected_to_neuron, weight)=(0, -1.04812681674957275391e+00) (1, -2.16098368167877197266e-01) (2, 7.31024026870727539062e-01) (3, 5.75524330139160156250e-01) (0, -1.24221956729888916016e+00) (1, -7.32367157936096191406e-01) (2, -6.87131404876708984375e-01) (3, -6.05543673038482666016e-01) (0, 1.09250235557556152344e+00) (1, 1.04282498359680175781e+00) (2, -4.28834289312362670898e-01) (3, -2.82283663749694824219e-01) (0, -1.47563517093658447266e+00) (1, 1.54347911477088928223e-01) (2, 4.24897402524948120117e-01) (3, -7.69580900669097900391e-02) (0, -1.02036619186401367188e+00) (1, 1.71371722221374511719e+00) (2, 2.68893659114837646484e-01) (3, -1.46126314997673034668e-01) (4, -1.60913825035095214844e-01) (5, -3.86000066995620727539e-01) (6, 1.56001472473144531250e+00) (7, -4.80643771588802337646e-02) (8, 2.37625265121459960938e+00) (9, 2.44557663798332214355e-01) (4, 1.15237355232238769531e+00) (5, 1.11047364771366119385e-01) (6, -1.04853057861328125000e+00) (7, 1.42342507839202880859e+00) (8, 8.73393237590789794922e-01) (9, -1.10837228596210479736e-01) (4, 6.86397433280944824219e-01) (5, 8.51994872093200683594e-01) (6, -1.28437733650207519531e+00) (7, 1.10074901580810546875e+00) (8, 1.12745964527130126953e+00) (9, 9.59765985608100891113e-02) 
