FANN_FLO_2.1
num_layers=3
learning_rate=0.100000
connection_rate=1.000000
network_type=0
learning_momentum=0.000000
training_algorithm=1
train_error_function=1
train_stop_function=0
cascade_output_change_fraction=0.010000
quickprop_decay=-0.000100
quickprop_mu=1.750000
rprop_increase_factor=1.200000
rprop_decrease_factor=0.500000
rprop_delta_min=0.000000
rprop_delta_max=50.000000
rprop_delta_zero=0.100000
cascade_output_stagnation_epochs=12
cascade_candidate_change_fraction=0.010000
cascade_candidate_stagnation_epochs=12
cascade_max_out_epochs=150
cascade_min_out_epochs=50
cascade_max_cand_epochs=150
cascade_min_cand_epochs=50
cascade_num_candidate_groups=2
bit_fail_limit=3.49999994039535522461e-01
cascade_candidate_limit=1.00000000000000000000e+03
cascade_weight_multiplier=4.00000005960464477539e-01
cascade_activation_functions_count=10
cascade_activation_functions=3 5 7 8 10 11 14 15 16 17 
cascade_activation_steepnesses_count=4
cascade_activation_steepnesses=2.50000000000000000000e-01 5.00000000000000000000e-01 7.50000000000000000000e-01 1.00000000000000000000e+00 
layer_sizes=4 6 4 
scale_included=1
scale_mean_in=0.197056 -0.002547 -0.039073 
scale_deviation_in=0.014806 0.018664 0.013614 
scale_new_min_in=-1.000000 -1.000000 -1.000000 
scale_factor_in=1.000000 1.000000 1.000000 
scale_mean_out=-1.583715 1.320682 -1.467214 
scale_deviation_out=0.095109 0.253659 0.372563 
scale_new_min_out=-1.000000 -1.000000 -1.000000 
scale_factor_out=1.000000 1.000000 1.000000 
neurons (num_inputs, activation_function, activation_steepness)=(0, 0, 0.00000000000000000000e+00) (0, 0, 0.00000000000000000000e+00) (0, 0, 0.00000000000000000000e+00) (0, 0, 0.00000000000000000000e+00) (4, 5, 5.00000000000000000000e-01) (4, 5, 5.00000000000000000000e-01) (4, 5, 5.00000000000000000000e-01) (4, 5, 5.00000000000000000000e-01) (4, 5, 5.00000000000000000000e-01) (0, 5, 0.00000000000000000000e+00) (6, 5, 5.00000000000000000000e-01) (6, 5, 5.00000000000000000000e-01) (6, 5, 5.00000000000000000000e-01) (0, 5, 0.00000000000000000000e+00) 
connections (connected_to_neuron, weight)=(0, -1.05528748035430908203e+00) (1, -1.63240239024162292480e-01) (2, 7.09847629070281982422e-01) (3, 2.41085320711135864258e-01) (0, -6.12135052680969238281e-01) (1, 8.15633833408355712891e-02) (2, 3.35092991590499877930e-01) (3, 7.97438681125640869141e-01) (0, 1.73195207118988037109e+00) (1, 1.99904993176460266113e-01) (2, -7.29122102260589599609e-01) (3, 2.52681430429220199585e-02) (0, 1.23753726482391357422e+00) (1, 1.86326831579208374023e-01) (2, 5.98602235317230224609e-01) (3, 3.75269979238510131836e-01) (0, -4.11456167697906494141e-01) (1, 2.06383109092712402344e+00) (2, 5.56039772927761077881e-02) (3, 1.03808790445327758789e-01) (4, -2.97834187746047973633e-01) (5, 8.67902711033821105957e-02) (6, 1.81608110666275024414e-01) (7, 4.06415939331054687500e-01) (8, 2.65860128402709960938e+00) (9, -1.34488373994827270508e-01) (4, 1.08741676807403564453e+00) (5, 5.78656673431396484375e-01) (6, -2.20375943183898925781e+00) (7, -7.26292431354522705078e-02) (8, 5.25676906108856201172e-01) (9, -1.49137586355209350586e-01) (4, 9.15188372135162353516e-01) (5, 4.10018086433410644531e-01) (6, -1.73338770866394042969e+00) (7, -1.58075320720672607422e+00) (8, 2.47859567403793334961e-01) (9, 2.52868801355361938477e-01) 
