FANN_FLO_2.1
num_layers=4
learning_rate=0.100000
connection_rate=1.000000
network_type=0
learning_momentum=0.000000
training_algorithm=1
train_error_function=1
train_stop_function=0
cascade_output_change_fraction=0.010000
quickprop_decay=-0.000100
quickprop_mu=1.750000
rprop_increase_factor=1.200000
rprop_decrease_factor=0.500000
rprop_delta_min=0.000000
rprop_delta_max=50.000000
rprop_delta_zero=0.100000
cascade_output_stagnation_epochs=12
cascade_candidate_change_fraction=0.010000
cascade_candidate_stagnation_epochs=12
cascade_max_out_epochs=150
cascade_min_out_epochs=50
cascade_max_cand_epochs=150
cascade_min_cand_epochs=50
cascade_num_candidate_groups=2
bit_fail_limit=3.49999994039535522461e-01
cascade_candidate_limit=1.00000000000000000000e+03
cascade_weight_multiplier=4.00000005960464477539e-01
cascade_activation_functions_count=10
cascade_activation_functions=3 5 7 8 10 11 14 15 16 17 
cascade_activation_steepnesses_count=4
cascade_activation_steepnesses=2.50000000000000000000e-01 5.00000000000000000000e-01 7.50000000000000000000e-01 1.00000000000000000000e+00 
layer_sizes=4 11 11 4 
scale_included=1
scale_mean_in=0.068542 0.075661 -0.172797 
scale_deviation_in=0.001928 0.002234 0.010897 
scale_new_min_in=-0.900000 -0.900000 -0.900000 
scale_factor_in=0.900000 0.900000 0.900000 
scale_mean_out=-0.735948 0.222218 -1.606752 
scale_deviation_out=0.013009 0.192087 0.253714 
scale_new_min_out=-0.900000 -0.900000 -0.900000 
scale_factor_out=0.900000 0.900000 0.900000 
neurons (num_inputs, activation_function, activation_steepness)=(0, 0, 0.00000000000000000000e+00) (0, 0, 0.00000000000000000000e+00) (0, 0, 0.00000000000000000000e+00) (0, 0, 0.00000000000000000000e+00) (4, 5, 5.00000000000000000000e-01) (4, 5, 5.00000000000000000000e-01) (4, 5, 5.00000000000000000000e-01) (4, 5, 5.00000000000000000000e-01) (4, 5, 5.00000000000000000000e-01) (4, 5, 5.00000000000000000000e-01) (4, 5, 5.00000000000000000000e-01) (4, 5, 5.00000000000000000000e-01) (4, 5, 5.00000000000000000000e-01) (4, 5, 5.00000000000000000000e-01) (0, 5, 0.00000000000000000000e+00) (11, 5, 5.00000000000000000000e-01) (11, 5, 5.00000000000000000000e-01) (11, 5, 5.00000000000000000000e-01) (11, 5, 5.00000000000000000000e-01) (11, 5, 5.00000000000000000000e-01) (11, 5, 5.00000000000000000000e-01) (11, 5, 5.00000000000000000000e-01) (11, 5, 5.00000000000000000000e-01) (11, 5, 5.00000000000000000000e-01) (11, 5, 5.00000000000000000000e-01) (0, 5, 0.00000000000000000000e+00) (11, 5, 5.00000000000000000000e-01) (11, 5, 5.00000000000000000000e-01) (11, 5, 5.00000000000000000000e-01) (0, 5, 0.00000000000000000000e+00) 
connections (connected_to_neuron, weight)=(0, 3.30043546855449676514e-02) (1, 2.62383103370666503906e-01) (2, -2.78645813465118408203e-01) (3, -7.51503527164459228516e-01) (0, 1.14615118503570556641e+00) (1, 9.16494652628898620605e-02) (2, 8.90810191631317138672e-01) (3, 7.94939756393432617188e-01) (0, -1.01879492402076721191e-01) (1, 3.77296566963195800781e-01) (2, -8.77561926841735839844e-01) (3, -5.66944241523742675781e-01) (0, -3.54183942079544067383e-01) (1, -5.24147808551788330078e-01) (2, 8.19692015647888183594e-01) (3, -2.08735033869743347168e-01) (0, -1.56455039978027343750e-01) (1, -4.25701767206192016602e-01) (2, 1.25959861278533935547e+00) (3, -5.59381306171417236328e-01) (0, -7.34055161476135253906e-01) (1, 5.61272203922271728516e-01) (2, 8.26431334018707275391e-01) (3, 1.12132050096988677979e-01) (0, -6.15055382251739501953e-01) (1, 1.52781188488006591797e+00) (2, 2.87738114595413208008e-01) (3, -2.69280225038528442383e-01) (0, 2.39057242870330810547e-01) (1, 6.98093920946121215820e-02) (2, 1.50135803222656250000e+00) (3, 1.90229546278715133667e-02) (0, -1.16278743743896484375e+00) (1, 1.72529295086860656738e-01) (2, 3.51749271154403686523e-01) (3, 2.64247238636016845703e-01) (0, -2.99777746200561523438e-01) (1, 1.47312507033348083496e-01) (2, 6.40030860900878906250e-01) (3, 3.47883075475692749023e-01) (4, 8.89248430728912353516e-01) (5, -9.02426123619079589844e-01) (6, 1.05478286743164062500e+00) (7, -7.56391584873199462891e-01) (8, -8.90449509024620056152e-02) (9, 8.73527348041534423828e-01) (10, 1.04718953371047973633e-01) (11, 4.35117155313491821289e-01) (12, -2.10916832089424133301e-01) (13, -1.38535097241401672363e-01) (14, 5.81010162830352783203e-01) (4, -9.51237007975578308105e-02) (5, -8.41077089309692382812e-01) (6, 2.55370974540710449219e-01) (7, -1.24039506912231445312e+00) (8, 4.14870619773864746094e-01) (9, -1.17247179150581359863e-01) (10, 3.64369809627532958984e-01) (11, -9.87339794635772705078e-01) (12, -3.19684624671936035156e-01) (13, -5.76907694339752197266e-01) (14, -5.20032405853271484375e-01) (4, 7.00457751750946044922e-01) (5, -8.08118879795074462891e-01) (6, 2.22752302885055541992e-01) (7, -1.58660560846328735352e-01) (8, -1.10919117927551269531e+00) (9, 8.97305667400360107422e-01) (10, 1.45027220249176025391e+00) (11, 1.35253697633743286133e-01) (12, 4.30142760276794433594e-01) (13, 8.92452120780944824219e-01) (14, 5.52551269531250000000e-01) (4, 1.12642392516136169434e-01) (5, -1.13404929637908935547e+00) (6, -2.87325233221054077148e-01) (7, -2.36522227525711059570e-01) (8, -1.48122087121009826660e-01) (9, -6.66151821613311767578e-01) (10, 5.22131800651550292969e-01) (11, 5.33345043659210205078e-01) (12, 1.00538206100463867188e+00) (13, -6.41390442848205566406e-01) (14, -9.89146351814270019531e-01) (4, -3.26008461415767669678e-02) (5, -8.76559317111968994141e-01) (6, 1.00189244747161865234e+00) (7, 7.31741607189178466797e-01) (8, 3.96807521581649780273e-01) (9, -7.76204168796539306641e-01) (10, -2.94345378875732421875e-01) (11, -1.19102811813354492188e+00) (12, -4.71941858530044555664e-01) (13, -8.23792874813079833984e-01) (14, -1.38003975152969360352e-01) (4, 4.93162304162979125977e-01) (5, 3.32895129919052124023e-01) (6, -2.48699858784675598145e-01) (7, -1.23578840866684913635e-02) (8, 1.21998734772205352783e-01) (9, -9.78197872638702392578e-01) (10, -1.09901809692382812500e+00) (11, 1.05617903172969818115e-01) (12, -1.21754407882690429688e+00) (13, 1.87500104308128356934e-01) (14, 6.39230534434318542480e-02) (4, -3.34621220827102661133e-01) (5, -7.21899449825286865234e-01) (6, 8.32710564136505126953e-01) (7, -1.12325742840766906738e-01) (8, 5.06248593330383300781e-01) (9, 6.25302910804748535156e-01) (10, -2.55030393600463867188e-01) (11, 9.72726345062255859375e-01) (12, 5.88793456554412841797e-01) (13, 7.47937023639678955078e-01) (14, -7.54184186458587646484e-01) (4, 6.19643807411193847656e-01) (5, 5.09226977825164794922e-01) (6, 1.07828211784362792969e+00) (7, 4.42843168973922729492e-01) (8, -1.01374459266662597656e+00) (9, -1.08732175827026367188e+00) (10, -6.40008747577667236328e-01) (11, -7.47057318687438964844e-01) (12, -3.19058299064636230469e-01) (13, 5.17889201641082763672e-01) (14, 5.26062250137329101562e-01) (4, 6.19561672210693359375e-01) (5, 4.95463749393820762634e-03) (6, -2.35869109630584716797e-01) (7, 8.07096242904663085938e-01) (8, -1.52494549751281738281e-01) (9, 5.23561060428619384766e-01) (10, -1.18249917030334472656e+00) (11, -6.59453988075256347656e-01) (12, -4.77916717529296875000e-01) (13, -3.93528312444686889648e-01) (14, -4.76258963346481323242e-01) (4, -1.54333367943763732910e-01) (5, 4.73113089799880981445e-01) (6, 9.60054636001586914062e-01) (7, -9.16319549083709716797e-01) (8, -8.85439753532409667969e-01) (9, 2.26341187953948974609e-01) (10, -1.04038524627685546875e+00) (11, -1.11193358898162841797e+00) (12, 3.98715734481811523438e-01) (13, 2.59443372488021850586e-01) (14, 4.86148059368133544922e-01) (15, 7.94980943202972412109e-01) (16, 4.99764353036880493164e-01) (17, 1.88079524040222167969e+00) (18, 9.42829549312591552734e-01) (19, 4.21138137578964233398e-01) (20, -1.46292936801910400391e+00) (21, 5.19423699006438255310e-03) (22, -1.91163405776023864746e-01) (23, -7.39011585712432861328e-01) (24, -7.97624588012695312500e-01) (25, 6.06612861156463623047e-01) (15, -2.52635389566421508789e-01) (16, -1.41813933849334716797e+00) (17, -5.56821227073669433594e-02) (18, -4.47789043188095092773e-01) (19, -1.46017992496490478516e+00) (20, 1.06932230293750762939e-01) (21, 6.85453474521636962891e-01) (22, -5.06110906600952148438e-01) (23, 2.88542509078979492188e-01) (24, -1.01328694820404052734e+00) (25, -4.25204664468765258789e-01) (15, -1.88716188073158264160e-01) (16, -8.81343126296997070312e-01) (17, -5.87571561336517333984e-01) (18, -1.79728001356124877930e-01) (19, -6.40415549278259277344e-01) (20, -4.19080674648284912109e-01) (21, 7.99938738346099853516e-02) (22, -1.33096504211425781250e+00) (23, -3.31564605236053466797e-01) (24, -1.45637285709381103516e+00) (25, 2.62653112411499023438e-01) 
