FANN_FLO_2.1
num_layers=4
learning_rate=0.100000
connection_rate=1.000000
network_type=0
learning_momentum=0.000000
training_algorithm=1
train_error_function=1
train_stop_function=0
cascade_output_change_fraction=0.010000
quickprop_decay=-0.000100
quickprop_mu=1.750000
rprop_increase_factor=1.200000
rprop_decrease_factor=0.500000
rprop_delta_min=0.000000
rprop_delta_max=50.000000
rprop_delta_zero=0.100000
cascade_output_stagnation_epochs=12
cascade_candidate_change_fraction=0.010000
cascade_candidate_stagnation_epochs=12
cascade_max_out_epochs=150
cascade_min_out_epochs=50
cascade_max_cand_epochs=150
cascade_min_cand_epochs=50
cascade_num_candidate_groups=2
bit_fail_limit=3.49999994039535522461e-01
cascade_candidate_limit=1.00000000000000000000e+03
cascade_weight_multiplier=4.00000005960464477539e-01
cascade_activation_functions_count=10
cascade_activation_functions=3 5 7 8 10 11 14 15 16 17 
cascade_activation_steepnesses_count=4
cascade_activation_steepnesses=2.50000000000000000000e-01 5.00000000000000000000e-01 7.50000000000000000000e-01 1.00000000000000000000e+00 
layer_sizes=4 11 11 4 
scale_included=1
scale_mean_in=0.118019 0.128319 -0.139321 
scale_deviation_in=0.004151 0.004819 0.009850 
scale_new_min_in=-0.900000 -0.900000 -0.900000 
scale_factor_in=0.900000 0.900000 0.900000 
scale_mean_out=-0.743573 0.344634 -2.114444 
scale_deviation_out=0.019782 0.253729 0.356492 
scale_new_min_out=-0.900000 -0.900000 -0.900000 
scale_factor_out=0.900000 0.900000 0.900000 
neurons (num_inputs, activation_function, activation_steepness)=(0, 0, 0.00000000000000000000e+00) (0, 0, 0.00000000000000000000e+00) (0, 0, 0.00000000000000000000e+00) (0, 0, 0.00000000000000000000e+00) (4, 5, 5.00000000000000000000e-01) (4, 5, 5.00000000000000000000e-01) (4, 5, 5.00000000000000000000e-01) (4, 5, 5.00000000000000000000e-01) (4, 5, 5.00000000000000000000e-01) (4, 5, 5.00000000000000000000e-01) (4, 5, 5.00000000000000000000e-01) (4, 5, 5.00000000000000000000e-01) (4, 5, 5.00000000000000000000e-01) (4, 5, 5.00000000000000000000e-01) (0, 5, 0.00000000000000000000e+00) (11, 5, 5.00000000000000000000e-01) (11, 5, 5.00000000000000000000e-01) (11, 5, 5.00000000000000000000e-01) (11, 5, 5.00000000000000000000e-01) (11, 5, 5.00000000000000000000e-01) (11, 5, 5.00000000000000000000e-01) (11, 5, 5.00000000000000000000e-01) (11, 5, 5.00000000000000000000e-01) (11, 5, 5.00000000000000000000e-01) (11, 5, 5.00000000000000000000e-01) (0, 5, 0.00000000000000000000e+00) (11, 5, 5.00000000000000000000e-01) (11, 5, 5.00000000000000000000e-01) (11, 5, 5.00000000000000000000e-01) (0, 5, 0.00000000000000000000e+00) 
connections (connected_to_neuron, weight)=(0, 1.80958569049835205078e+00) (1, 9.17448222637176513672e-01) (2, -2.48116326332092285156e+00) (3, -2.43580293655395507812e+00) (0, 5.51218152046203613281e-01) (1, -4.92350757122039794922e-01) (2, -4.80136871337890625000e-01) (3, -5.85765421390533447266e-01) (0, -4.27577674388885498047e-01) (1, -5.80448210239410400391e-01) (2, 1.02542734146118164062e+00) (3, 9.98659491539001464844e-01) (0, 4.79232758283615112305e-01) (1, -2.57316291332244873047e-01) (2, 1.68460595607757568359e+00) (3, 1.55868458747863769531e+00) (0, -4.48439538478851318359e-01) (1, 1.03249871730804443359e+00) (2, -8.73098015785217285156e-01) (3, 1.37444138526916503906e-01) (0, -8.36977601051330566406e-01) (1, 2.17002779245376586914e-01) (2, -9.50875952839851379395e-02) (3, -4.94879305362701416016e-01) (0, -5.80810129642486572266e-01) (1, -4.05644148588180541992e-01) (2, 1.34556621313095092773e-01) (3, 9.07709717750549316406e-01) (0, 8.30285847187042236328e-01) (1, 5.29841244220733642578e-01) (2, 3.53236913681030273438e-01) (3, -9.71838086843490600586e-02) (0, -5.43793082237243652344e-01) (1, 2.73698717355728149414e-01) (2, 2.86687791347503662109e-01) (3, -1.12457193434238433838e-01) (0, -9.50463414192199707031e-02) (1, -4.89653795957565307617e-01) (2, 9.62723016738891601562e-01) (3, -2.96039134263992309570e-01) (4, -3.89182615280151367188e+00) (5, -5.22862136363983154297e-01) (6, 1.68390870094299316406e+00) (7, 2.49336910247802734375e+00) (8, -1.66387772560119628906e+00) (9, -9.57441031932830810547e-02) (10, 1.09517872333526611328e+00) (11, -1.18840262293815612793e-01) (12, -4.10823971033096313477e-01) (13, 1.56681025028228759766e+00) (14, 9.65099453926086425781e-01) (4, 2.11945828050374984741e-02) (5, -1.31325399875640869141e+00) (6, 2.62024641036987304688e-01) (7, 1.77420780062675476074e-01) (8, 7.67595708370208740234e-01) (9, 4.10906374454498291016e-01) (10, 9.55912709236145019531e-01) (11, -1.10272741317749023438e+00) (12, 3.38516741991043090820e-01) (13, -6.66653066873550415039e-02) (14, 3.91070321202278137207e-02) (4, -1.08326125144958496094e+00) (5, 1.02915322780609130859e+00) (6, 1.65862157940864562988e-01) (7, 5.27293503284454345703e-01) (8, -7.10777699947357177734e-01) (9, 7.19895839691162109375e-01) (10, 5.65250217914581298828e-01) (11, -7.20255136489868164062e-01) (12, -8.82968008518218994141e-01) (13, 9.74893927574157714844e-01) (14, 4.06401246786117553711e-01) (4, 1.38555407524108886719e-01) (5, 1.14298653602600097656e+00) (6, 8.01743686199188232422e-01) (7, -6.21342957019805908203e-01) (8, 6.15681409835815429688e-01) (9, -5.17372488975524902344e-01) (10, 4.82269197702407836914e-01) (11, 1.17068057879805564880e-02) (12, -3.10102105140686035156e-01) (13, -6.66042983531951904297e-01) (14, 7.65603244304656982422e-01) (4, -8.30930769443511962891e-02) (5, 1.45635044574737548828e+00) (6, -2.98681020736694335938e-01) (7, 7.11958765983581542969e-01) (8, 8.76349210739135742188e-01) (9, -7.52217113971710205078e-01) (10, -3.57214659452438354492e-02) (11, 1.26152262091636657715e-01) (12, 2.75759398937225341797e-01) (13, -2.75151640176773071289e-01) (14, 5.75096189975738525391e-01) (4, -5.52066981792449951172e-01) (5, -1.12529277801513671875e+00) (6, 1.66573718190193176270e-01) (7, -7.00427666306495666504e-02) (8, 1.44554090499877929688e+00) (9, 8.97246062755584716797e-01) (10, -1.13268509507179260254e-01) (11, 7.77593672275543212891e-01) (12, 4.86194372177124023438e-01) (13, -1.11416649818420410156e+00) (14, 9.58863973617553710938e-01) (4, -1.94557815790176391602e-01) (5, -6.97888672351837158203e-01) (6, -2.50200986862182617188e-01) (7, 9.45188328623771667480e-02) (8, -7.99142062664031982422e-01) (9, -1.31022989749908447266e-01) (10, -6.47142231464385986328e-01) (11, -5.61459541320800781250e-01) (12, 1.36529803276062011719e+00) (13, 3.46046030521392822266e-01) (14, -9.08127903938293457031e-01) (4, -1.20603215694427490234e+00) (5, 6.15451037883758544922e-02) (6, -8.03626596927642822266e-01) (7, -2.65447348356246948242e-01) (8, 1.54317963123321533203e+00) (9, 6.90929651260375976562e-01) (10, -5.01214861869812011719e-01) (11, -6.25827684998512268066e-02) (12, 3.25068265199661254883e-01) (13, -2.55831092596054077148e-01) (14, 5.46523153781890869141e-01) (4, -7.49481469392776489258e-02) (5, -1.16321623325347900391e+00) (6, -1.22215643525123596191e-01) (7, -3.11392396688461303711e-01) (8, -1.84626013040542602539e-01) (9, -9.97145324945449829102e-02) (10, 3.59873563051223754883e-01) (11, 3.87550979852676391602e-01) (12, -4.74854290485382080078e-01) (13, 1.21232223510742187500e+00) (14, -9.61674034595489501953e-01) (4, 3.93771439790725708008e-01) (5, 7.08316385746002197266e-01) (6, -1.01872988045215606689e-01) (7, 1.75927862524986267090e-01) (8, 4.05364036560058593750e-01) (9, 2.58656233549118041992e-01) (10, 2.60389149188995361328e-01) (11, -8.71144533157348632812e-01) (12, -1.33634996414184570312e+00) (13, -8.71314480900764465332e-02) (14, 4.04854387044906616211e-01) (15, -5.32055258750915527344e-01) (16, 1.27568984031677246094e+00) (17, -1.09348869323730468750e+00) (18, -9.74949121475219726562e-01) (19, -1.01109564304351806641e+00) (20, 2.41005253791809082031e+00) (21, 1.75639581680297851562e+00) (22, 2.11330270767211914062e+00) (23, 1.64082735776901245117e-01) (24, -1.08461236953735351562e+00) (25, -3.10500860214233398438e-02) (15, 2.75323486328125000000e+00) (16, 7.10958898067474365234e-01) (17, -1.39434570446610450745e-02) (18, -1.55002140998840332031e+00) (19, -9.53579425811767578125e-01) (20, -5.98595440387725830078e-01) (21, 9.01036679744720458984e-01) (22, -1.13971209526062011719e+00) (23, 5.17852365970611572266e-01) (24, -1.69385552406311035156e+00) (25, 2.39087585359811782837e-02) (15, 3.07406497001647949219e+00) (16, 1.48305678367614746094e+00) (17, -2.94341832399368286133e-01) (18, -7.96391606330871582031e-01) (19, -9.57111954689025878906e-01) (20, -8.40929269790649414062e-01) (21, 1.39853119850158691406e+00) (22, -1.33355796337127685547e+00) (23, 1.47832417488098144531e+00) (24, -4.79652047157287597656e-01) (25, 3.01748383790254592896e-02) 
