FANN_FLO_2.1
num_layers=4
learning_rate=0.100000
connection_rate=1.000000
network_type=0
learning_momentum=0.000000
training_algorithm=1
train_error_function=1
train_stop_function=0
cascade_output_change_fraction=0.010000
quickprop_decay=-0.000100
quickprop_mu=1.750000
rprop_increase_factor=1.200000
rprop_decrease_factor=0.500000
rprop_delta_min=0.000000
rprop_delta_max=50.000000
rprop_delta_zero=0.100000
cascade_output_stagnation_epochs=12
cascade_candidate_change_fraction=0.010000
cascade_candidate_stagnation_epochs=12
cascade_max_out_epochs=150
cascade_min_out_epochs=50
cascade_max_cand_epochs=150
cascade_min_cand_epochs=50
cascade_num_candidate_groups=2
bit_fail_limit=3.49999994039535522461e-01
cascade_candidate_limit=1.00000000000000000000e+03
cascade_weight_multiplier=4.00000005960464477539e-01
cascade_activation_functions_count=10
cascade_activation_functions=3 5 7 8 10 11 14 15 16 17 
cascade_activation_steepnesses_count=4
cascade_activation_steepnesses=2.50000000000000000000e-01 5.00000000000000000000e-01 7.50000000000000000000e-01 1.00000000000000000000e+00 
layer_sizes=4 11 11 4 
scale_included=1
scale_mean_in=0.141526 0.043943 -0.164388 
scale_deviation_in=0.011462 0.014170 0.006974 
scale_new_min_in=-0.900000 -0.900000 -0.900000 
scale_factor_in=0.900000 0.900000 0.900000 
scale_mean_out=-1.269872 0.129451 -2.140642 
scale_deviation_out=0.096558 0.156075 0.269033 
scale_new_min_out=-0.900000 -0.900000 -0.900000 
scale_factor_out=0.900000 0.900000 0.900000 
neurons (num_inputs, activation_function, activation_steepness)=(0, 0, 0.00000000000000000000e+00) (0, 0, 0.00000000000000000000e+00) (0, 0, 0.00000000000000000000e+00) (0, 0, 0.00000000000000000000e+00) (4, 5, 5.00000000000000000000e-01) (4, 5, 5.00000000000000000000e-01) (4, 5, 5.00000000000000000000e-01) (4, 5, 5.00000000000000000000e-01) (4, 5, 5.00000000000000000000e-01) (4, 5, 5.00000000000000000000e-01) (4, 5, 5.00000000000000000000e-01) (4, 5, 5.00000000000000000000e-01) (4, 5, 5.00000000000000000000e-01) (4, 5, 5.00000000000000000000e-01) (0, 5, 0.00000000000000000000e+00) (11, 5, 5.00000000000000000000e-01) (11, 5, 5.00000000000000000000e-01) (11, 5, 5.00000000000000000000e-01) (11, 5, 5.00000000000000000000e-01) (11, 5, 5.00000000000000000000e-01) (11, 5, 5.00000000000000000000e-01) (11, 5, 5.00000000000000000000e-01) (11, 5, 5.00000000000000000000e-01) (11, 5, 5.00000000000000000000e-01) (11, 5, 5.00000000000000000000e-01) (0, 5, 0.00000000000000000000e+00) (11, 5, 5.00000000000000000000e-01) (11, 5, 5.00000000000000000000e-01) (11, 5, 5.00000000000000000000e-01) (0, 5, 0.00000000000000000000e+00) 
connections (connected_to_neuron, weight)=(0, -9.42710041999816894531e-01) (1, -1.71802863478660583496e-01) (2, -6.32189512252807617188e-01) (3, 1.20807953178882598877e-01) (0, 1.19876945018768310547e+00) (1, 1.43453568220138549805e-01) (2, -1.55220031738281250000e-02) (3, -9.79859650135040283203e-01) (0, 3.98816585540771484375e-01) (1, -2.23874360322952270508e-01) (2, -3.56837481260299682617e-01) (3, -5.39959907531738281250e-01) (0, 1.06494712829589843750e+00) (1, 5.83559870719909667969e-01) (2, -1.02632141113281250000e+00) (3, 1.12995281815528869629e-01) (0, 8.42529118061065673828e-01) (1, -7.86552071571350097656e-01) (2, 7.85544574260711669922e-01) (3, -2.64042437076568603516e-01) (0, -4.12997186183929443359e-01) (1, -2.75678455829620361328e-01) (2, 2.81440436840057373047e-01) (3, -4.84514445066452026367e-01) (0, 1.33583664894104003906e+00) (1, -2.05674663186073303223e-01) (2, 5.79229950904846191406e-01) (3, 1.11466419696807861328e+00) (0, 3.57032977044582366943e-02) (1, -1.12569916248321533203e+00) (2, 4.90022331476211547852e-01) (3, 7.03793525695800781250e-01) (0, 3.65268774330615997314e-02) (1, 1.17652201652526855469e+00) (2, 6.44252538681030273438e-01) (3, 4.77093309164047241211e-01) (0, -1.38425445556640625000e+00) (1, -3.07315468788146972656e-01) (2, 1.21460747718811035156e+00) (3, 3.53492051362991333008e-01) (4, 9.08468306064605712891e-01) (5, 1.47788763046264648438e-01) (6, 5.48125922679901123047e-01) (7, 1.16314828395843505859e+00) (8, -2.88118392229080200195e-01) (9, -1.00233960151672363281e+00) (10, 7.40434043109416961670e-03) (11, -5.42627394199371337891e-01) (12, -5.89003801345825195312e-01) (13, -2.83305227756500244141e-01) (14, 7.53567159175872802734e-01) (4, 7.07018673419952392578e-01) (5, 6.72839105129241943359e-01) (6, -5.54353594779968261719e-01) (7, -1.01174950599670410156e+00) (8, 5.53063154220581054688e-01) (9, 7.48379588127136230469e-01) (10, 3.34751188755035400391e-01) (11, 1.41778752207756042480e-01) (12, -1.53177708387374877930e-01) (13, 1.12293088436126708984e+00) (14, -1.51896715164184570312e-01) (4, 8.49256098270416259766e-01) (5, 1.11647255718708038330e-01) (6, 4.57570292055606842041e-02) (7, 1.01514732837677001953e+00) (8, -6.49709045886993408203e-01) (9, 2.30932280421257019043e-01) (10, -2.26974263787269592285e-01) (11, -8.04040849208831787109e-01) (12, -6.48965779691934585571e-03) (13, -1.77708193659782409668e-01) (14, 7.28039801120758056641e-01) (4, -1.13225018978118896484e+00) (5, -5.43521761894226074219e-01) (6, -7.22352027893066406250e-01) (7, -8.77136588096618652344e-01) (8, 7.48060464859008789062e-01) (9, -9.60616543889045715332e-02) (10, -2.02381670475006103516e-01) (11, -2.44185358285903930664e-01) (12, -2.04340010881423950195e-01) (13, -7.40777969360351562500e-01) (14, -3.14702987670898437500e-01) (4, -1.52639271691441535950e-02) (5, -8.74553799629211425781e-01) (6, -5.62636911869049072266e-01) (7, -6.71379327774047851562e-01) (8, 8.13535153865814208984e-01) (9, 8.87919545173645019531e-01) (10, 4.60037618875503540039e-01) (11, 8.11187744140625000000e-01) (12, -2.48840712010860443115e-02) (13, 5.57237386703491210938e-01) (14, -4.68348443508148193359e-01) (4, -8.95803928375244140625e-01) (5, 7.22573280334472656250e-01) (6, 9.36200320720672607422e-01) (7, 1.14572989940643310547e+00) (8, 8.04440259933471679688e-01) (9, -6.55699312686920166016e-01) (10, -1.39935040473937988281e+00) (11, -9.74278926849365234375e-01) (12, 7.80225455760955810547e-01) (13, -1.53990662097930908203e+00) (14, -4.33062374591827392578e-01) (4, -7.81638503074645996094e-01) (5, -2.26881518959999084473e-01) (6, -8.14823582768440246582e-02) (7, 7.09586679935455322266e-01) (8, -1.23700968921184539795e-01) (9, 5.00200152397155761719e-01) (10, 7.00466930866241455078e-01) (11, -1.59784972667694091797e-01) (12, -1.36090111732482910156e+00) (13, -9.14852142333984375000e-01) (14, 1.00639857351779937744e-01) (4, -5.36709606647491455078e-01) (5, 6.67150318622589111328e-02) (6, 3.38121764361858367920e-02) (7, -9.51102972030639648438e-01) (8, -5.85877478122711181641e-01) (9, -5.21406114101409912109e-01) (10, -3.43556590378284454346e-02) (11, -1.29299426078796386719e+00) (12, 8.90377163887023925781e-01) (13, 4.50116366147994995117e-01) (14, -1.50771513581275939941e-01) (4, 3.84871274232864379883e-01) (5, -9.46624040603637695312e-01) (6, 4.83274683356285095215e-02) (7, 4.08940613269805908203e-02) (8, -4.01104599237442016602e-01) (9, 7.16390192508697509766e-01) (10, 6.24832570552825927734e-01) (11, -1.76518429070711135864e-02) (12, 3.26360493898391723633e-01) (13, 1.57421803474426269531e+00) (14, 1.93312212824821472168e-01) (4, 7.08080947399139404297e-01) (5, 2.34182581305503845215e-01) (6, 9.56658661365509033203e-01) (7, 1.44930317997932434082e-01) (8, 1.69864541385322809219e-03) (9, 4.20631356537342071533e-02) (10, 1.34742796421051025391e-01) (11, 7.64808654785156250000e-01) (12, -1.38194370269775390625e+00) (13, 3.51406604051589965820e-01) (14, -1.16884395480155944824e-01) (15, 1.63959681987762451172e-01) (16, -1.56845420598983764648e-01) (17, 1.17133319377899169922e+00) (18, 6.77800551056861877441e-03) (19, -7.59813308715820312500e-01) (20, 6.27793610095977783203e-01) (21, -7.12912797927856445312e-01) (22, 2.30800533294677734375e+00) (23, 8.67264211177825927734e-01) (24, -1.52423393726348876953e+00) (25, -1.54904827475547790527e-01) (15, -1.66735589504241943359e+00) (16, -4.52641062438488006592e-02) (17, -4.49460357427597045898e-01) (18, 1.07335722446441650391e+00) (19, 1.71069192886352539062e+00) (20, -2.03951668739318847656e+00) (21, -5.96948742866516113281e-01) (22, 8.06985139846801757812e-01) (23, 1.24765622615814208984e+00) (24, -6.48080825805664062500e-01) (25, -5.17059087753295898438e-01) (15, -3.03798139095306396484e-01) (16, 1.34645390510559082031e+00) (17, -6.21327757835388183594e-01) (18, -7.61864602565765380859e-01) (19, 7.04040408134460449219e-01) (20, -1.74970579147338867188e+00) (21, -1.41386759281158447266e+00) (22, 1.88342884182929992676e-01) (23, 1.30247533321380615234e+00) (24, 1.40799611806869506836e-01) (25, -8.83441805839538574219e-01) 
