FANN_FLO_2.1
num_layers=3
learning_rate=0.100000
connection_rate=1.000000
network_type=0
learning_momentum=0.000000
training_algorithm=1
train_error_function=1
train_stop_function=0
cascade_output_change_fraction=0.010000
quickprop_decay=-0.000100
quickprop_mu=1.750000
rprop_increase_factor=1.200000
rprop_decrease_factor=0.500000
rprop_delta_min=0.000000
rprop_delta_max=50.000000
rprop_delta_zero=0.100000
cascade_output_stagnation_epochs=12
cascade_candidate_change_fraction=0.010000
cascade_candidate_stagnation_epochs=12
cascade_max_out_epochs=150
cascade_min_out_epochs=50
cascade_max_cand_epochs=150
cascade_min_cand_epochs=50
cascade_num_candidate_groups=2
bit_fail_limit=3.49999994039535522461e-01
cascade_candidate_limit=1.00000000000000000000e+03
cascade_weight_multiplier=4.00000005960464477539e-01
cascade_activation_functions_count=10
cascade_activation_functions=3 5 7 8 10 11 14 15 16 17 
cascade_activation_steepnesses_count=4
cascade_activation_steepnesses=2.50000000000000000000e-01 5.00000000000000000000e-01 7.50000000000000000000e-01 1.00000000000000000000e+00 
layer_sizes=4 4 4 
scale_included=1
scale_mean_in=0.148804 0.032849 0.071611 
scale_deviation_in=0.014586 0.017336 0.013345 
scale_new_min_in=-0.900000 -0.900000 -0.900000 
scale_factor_in=0.900000 0.900000 0.900000 
scale_mean_out=-1.354518 2.359622 -1.117711 
scale_deviation_out=0.113252 0.218764 0.268711 
scale_new_min_out=-0.900000 -0.900000 -0.900000 
scale_factor_out=0.900000 0.900000 0.900000 
neurons (num_inputs, activation_function, activation_steepness)=(0, 0, 0.00000000000000000000e+00) (0, 0, 0.00000000000000000000e+00) (0, 0, 0.00000000000000000000e+00) (0, 0, 0.00000000000000000000e+00) (4, 5, 5.00000000000000000000e-01) (4, 5, 5.00000000000000000000e-01) (4, 5, 5.00000000000000000000e-01) (0, 5, 0.00000000000000000000e+00) (4, 5, 5.00000000000000000000e-01) (4, 5, 5.00000000000000000000e-01) (4, 5, 5.00000000000000000000e-01) (0, 5, 0.00000000000000000000e+00) 
connections (connected_to_neuron, weight)=(0, -1.35375666618347167969e+00) (1, 4.76152487099170684814e-02) (2, 1.02452233433723449707e-01) (3, 2.04542204737663269043e-01) (0, -3.84815990924835205078e-01) (1, -5.04165112972259521484e-01) (2, -1.14523875713348388672e+00) (3, 2.67661839723587036133e-01) (0, -1.08276940882205963135e-02) (1, -1.26319015026092529297e+00) (2, 1.90628871321678161621e-01) (3, -1.07021607458591461182e-01) (4, 1.22736835479736328125e+00) (5, -7.76304602622985839844e-01) (6, -4.69015932083129882812e+00) (7, -2.44602739810943603516e-01) (4, 4.14776897430419921875e+00) (5, 1.48383378982543945312e+00) (6, 9.99022543430328369141e-01) (7, -4.56611782312393188477e-01) (4, 2.81875753402709960938e+00) (5, 3.45127916336059570312e+00) (6, -2.03676804900169372559e-01) (7, -5.28041303157806396484e-01) 
