FANN_FLO_2.1
num_layers=3
learning_rate=0.100000
connection_rate=1.000000
network_type=0
learning_momentum=0.000000
training_algorithm=1
train_error_function=1
train_stop_function=0
cascade_output_change_fraction=0.010000
quickprop_decay=-0.000100
quickprop_mu=1.750000
rprop_increase_factor=1.200000
rprop_decrease_factor=0.500000
rprop_delta_min=0.000000
rprop_delta_max=50.000000
rprop_delta_zero=0.100000
cascade_output_stagnation_epochs=12
cascade_candidate_change_fraction=0.010000
cascade_candidate_stagnation_epochs=12
cascade_max_out_epochs=150
cascade_min_out_epochs=50
cascade_max_cand_epochs=150
cascade_min_cand_epochs=50
cascade_num_candidate_groups=2
bit_fail_limit=3.49999994039535522461e-01
cascade_candidate_limit=1.00000000000000000000e+03
cascade_weight_multiplier=4.00000005960464477539e-01
cascade_activation_functions_count=10
cascade_activation_functions=3 5 7 8 10 11 14 15 16 17 
cascade_activation_steepnesses_count=4
cascade_activation_steepnesses=2.50000000000000000000e-01 5.00000000000000000000e-01 7.50000000000000000000e-01 1.00000000000000000000e+00 
layer_sizes=4 4 4 
scale_included=1
scale_mean_in=0.125844 0.184755 -0.020148 
scale_deviation_in=0.001819 0.001284 0.011663 
scale_new_min_in=-0.900000 -0.900000 -0.900000 
scale_factor_in=0.900000 0.900000 0.900000 
scale_mean_out=-0.597951 0.928185 -2.266873 
scale_deviation_out=0.009064 0.086480 0.088325 
scale_new_min_out=-0.900000 -0.900000 -0.900000 
scale_factor_out=0.900000 0.900000 0.900000 
neurons (num_inputs, activation_function, activation_steepness)=(0, 0, 0.00000000000000000000e+00) (0, 0, 0.00000000000000000000e+00) (0, 0, 0.00000000000000000000e+00) (0, 0, 0.00000000000000000000e+00) (4, 5, 5.00000000000000000000e-01) (4, 5, 5.00000000000000000000e-01) (4, 5, 5.00000000000000000000e-01) (0, 5, 0.00000000000000000000e+00) (4, 5, 5.00000000000000000000e-01) (4, 5, 5.00000000000000000000e-01) (4, 5, 5.00000000000000000000e-01) (0, 5, 0.00000000000000000000e+00) 
connections (connected_to_neuron, weight)=(0, 8.73124063014984130859e-01) (1, 8.87934088706970214844e-01) (2, 8.45764517784118652344e-01) (3, -1.04406809806823730469e+00) (0, -4.53691989183425903320e-01) (1, -4.25344854593276977539e-01) (2, 1.27238225936889648438e+00) (3, 1.09261572360992431641e+00) (0, 4.94359582662582397461e-01) (1, -3.92755448818206787109e-01) (2, -3.79774421453475952148e-02) (3, 3.52058976888656616211e-01) (4, -1.22189891338348388672e+00) (5, 5.49672722816467285156e-01) (6, -7.51448535919189453125e+00) (7, 5.71494638919830322266e-01) (4, -3.10361623764038085938e+00) (5, 7.26592350006103515625e+00) (6, 5.37411093711853027344e-01) (7, -4.18440389633178710938e+00) (4, -7.47755765914916992188e+00) (5, 6.30068349838256835938e+00) (6, 5.80878376960754394531e-01) (7, -5.35834693908691406250e+00) 
