FANN_FLO_2.1
num_layers=3
learning_rate=0.100000
connection_rate=1.000000
network_type=0
learning_momentum=0.000000
training_algorithm=1
train_error_function=1
train_stop_function=0
cascade_output_change_fraction=0.010000
quickprop_decay=-0.000100
quickprop_mu=1.750000
rprop_increase_factor=1.200000
rprop_decrease_factor=0.500000
rprop_delta_min=0.000000
rprop_delta_max=50.000000
rprop_delta_zero=0.100000
cascade_output_stagnation_epochs=12
cascade_candidate_change_fraction=0.010000
cascade_candidate_stagnation_epochs=12
cascade_max_out_epochs=150
cascade_min_out_epochs=50
cascade_max_cand_epochs=150
cascade_min_cand_epochs=50
cascade_num_candidate_groups=2
bit_fail_limit=3.49999994039535522461e-01
cascade_candidate_limit=1.00000000000000000000e+03
cascade_weight_multiplier=4.00000005960464477539e-01
cascade_activation_functions_count=10
cascade_activation_functions=3 5 7 8 10 11 14 15 16 17 
cascade_activation_steepnesses_count=4
cascade_activation_steepnesses=2.50000000000000000000e-01 5.00000000000000000000e-01 7.50000000000000000000e-01 1.00000000000000000000e+00 
layer_sizes=4 4 4 
scale_included=1
scale_mean_in=0.049260 -0.029176 0.034343 
scale_deviation_in=0.015014 0.017613 0.009572 
scale_new_min_in=-0.900000 -0.900000 -0.900000 
scale_factor_in=0.900000 0.900000 0.900000 
scale_mean_out=-2.088784 4.317313 0.263574 
scale_deviation_out=0.302534 0.407635 0.152109 
scale_new_min_out=-0.900000 -0.900000 -0.900000 
scale_factor_out=0.900000 0.900000 0.900000 
neurons (num_inputs, activation_function, activation_steepness)=(0, 0, 0.00000000000000000000e+00) (0, 0, 0.00000000000000000000e+00) (0, 0, 0.00000000000000000000e+00) (0, 0, 0.00000000000000000000e+00) (4, 5, 5.00000000000000000000e-01) (4, 5, 5.00000000000000000000e-01) (4, 5, 5.00000000000000000000e-01) (0, 5, 0.00000000000000000000e+00) (4, 5, 5.00000000000000000000e-01) (4, 5, 5.00000000000000000000e-01) (4, 5, 5.00000000000000000000e-01) (0, 5, 0.00000000000000000000e+00) 
connections (connected_to_neuron, weight)=(0, 8.80469202995300292969e-01) (1, -6.30611300468444824219e-01) (2, 2.81320035457611083984e-01) (3, -3.49847793579101562500e-01) (0, -1.11093521118164062500e-01) (1, 1.18593823909759521484e+00) (2, 4.62730318307876586914e-01) (3, -1.16851401329040527344e+00) (0, -9.07888233661651611328e-01) (1, -3.22774797677993774414e-01) (2, 7.11906909942626953125e-01) (3, -1.01600873470306396484e+00) (4, 7.96268284320831298828e-01) (5, 6.28751802444458007812e+00) (6, -4.16132068634033203125e+00) (7, 1.27306544780731201172e+00) (4, -8.51825904846191406250e+00) (5, -2.05491876602172851562e+00) (6, -2.12560057640075683594e+00) (7, -3.13279724121093750000e+00) (4, -8.96707057952880859375e+00) (5, -4.93392658233642578125e+00) (6, -5.34600543975830078125e+00) (7, -5.50473690032958984375e+00) 
