FANN_FLO_2.1
num_layers=3
learning_rate=0.100000
connection_rate=1.000000
network_type=0
learning_momentum=0.000000
training_algorithm=1
train_error_function=1
train_stop_function=0
cascade_output_change_fraction=0.010000
quickprop_decay=-0.000100
quickprop_mu=1.750000
rprop_increase_factor=1.200000
rprop_decrease_factor=0.500000
rprop_delta_min=0.000000
rprop_delta_max=50.000000
rprop_delta_zero=0.100000
cascade_output_stagnation_epochs=12
cascade_candidate_change_fraction=0.010000
cascade_candidate_stagnation_epochs=12
cascade_max_out_epochs=150
cascade_min_out_epochs=50
cascade_max_cand_epochs=150
cascade_min_cand_epochs=50
cascade_num_candidate_groups=2
bit_fail_limit=3.49999994039535522461e-01
cascade_candidate_limit=1.00000000000000000000e+03
cascade_weight_multiplier=4.00000005960464477539e-01
cascade_activation_functions_count=10
cascade_activation_functions=3 5 7 8 10 11 14 15 16 17 
cascade_activation_steepnesses_count=4
cascade_activation_steepnesses=2.50000000000000000000e-01 5.00000000000000000000e-01 7.50000000000000000000e-01 1.00000000000000000000e+00 
layer_sizes=4 4 4 
scale_included=1
scale_mean_in=-0.004293 0.033032 0.071660 
scale_deviation_in=0.014700 0.017421 0.013289 
scale_new_min_in=-0.900000 -0.900000 -0.900000 
scale_factor_in=0.900000 0.900000 0.900000 
scale_mean_out=0.128549 4.010120 -0.253577 
scale_deviation_out=0.552921 0.267063 0.190014 
scale_new_min_out=-0.900000 -0.900000 -0.900000 
scale_factor_out=0.900000 0.900000 0.900000 
neurons (num_inputs, activation_function, activation_steepness)=(0, 0, 0.00000000000000000000e+00) (0, 0, 0.00000000000000000000e+00) (0, 0, 0.00000000000000000000e+00) (0, 0, 0.00000000000000000000e+00) (4, 5, 5.00000000000000000000e-01) (4, 5, 5.00000000000000000000e-01) (4, 5, 5.00000000000000000000e-01) (0, 5, 0.00000000000000000000e+00) (4, 5, 5.00000000000000000000e-01) (4, 5, 5.00000000000000000000e-01) (4, 5, 5.00000000000000000000e-01) (0, 5, 0.00000000000000000000e+00) 
connections (connected_to_neuron, weight)=(0, -8.87863099575042724609e-01) (1, -1.43297743797302246094e+00) (2, 1.59040331840515136719e-01) (3, -1.95722544193267822266e+00) (0, 9.12916541099548339844e-01) (1, -1.20851814746856689453e+00) (2, 1.79406374692916870117e-01) (3, -1.80649578571319580078e+00) (0, 4.98021952807903289795e-02) (1, -5.19657373428344726562e-01) (2, -6.36140286922454833984e-01) (3, -2.82428801059722900391e-01) (4, 7.22943544387817382812e+00) (5, -6.38607072830200195312e+00) (6, -4.05020080506801605225e-02) (7, 7.85226821899414062500e-01) (4, -1.48305833339691162109e-01) (5, 8.56589302420616149902e-02) (6, 7.27610254287719726562e+00) (7, 8.17571282386779785156e-01) (4, -2.95164179801940917969e+00) (5, -3.73555874824523925781e+00) (6, 8.93313694000244140625e+00) (7, -2.77856159210205078125e+00) 
