FANN_FLO_2.1
num_layers=3
learning_rate=0.100000
connection_rate=1.000000
network_type=0
learning_momentum=0.000000
training_algorithm=1
train_error_function=1
train_stop_function=0
cascade_output_change_fraction=0.010000
quickprop_decay=-0.000100
quickprop_mu=1.750000
rprop_increase_factor=1.200000
rprop_decrease_factor=0.500000
rprop_delta_min=0.000000
rprop_delta_max=50.000000
rprop_delta_zero=0.100000
cascade_output_stagnation_epochs=12
cascade_candidate_change_fraction=0.010000
cascade_candidate_stagnation_epochs=12
cascade_max_out_epochs=150
cascade_min_out_epochs=50
cascade_max_cand_epochs=150
cascade_min_cand_epochs=50
cascade_num_candidate_groups=2
bit_fail_limit=3.49999994039535522461e-01
cascade_candidate_limit=1.00000000000000000000e+03
cascade_weight_multiplier=4.00000005960464477539e-01
cascade_activation_functions_count=10
cascade_activation_functions=3 5 7 8 10 11 14 15 16 17 
cascade_activation_steepnesses_count=4
cascade_activation_steepnesses=2.50000000000000000000e-01 5.00000000000000000000e-01 7.50000000000000000000e-01 1.00000000000000000000e+00 
layer_sizes=4 4 4 
scale_included=1
scale_mean_in=-0.004429 0.153033 0.025690 
scale_deviation_in=0.014733 0.017358 0.013324 
scale_new_min_in=-0.900000 -0.900000 -0.900000 
scale_factor_in=0.900000 0.900000 0.900000 
scale_mean_out=0.029038 2.338585 -0.740502 
scale_deviation_out=0.097517 0.253576 0.264147 
scale_new_min_out=-0.900000 -0.900000 -0.900000 
scale_factor_out=0.900000 0.900000 0.900000 
neurons (num_inputs, activation_function, activation_steepness)=(0, 0, 0.00000000000000000000e+00) (0, 0, 0.00000000000000000000e+00) (0, 0, 0.00000000000000000000e+00) (0, 0, 0.00000000000000000000e+00) (4, 5, 5.00000000000000000000e-01) (4, 5, 5.00000000000000000000e-01) (4, 5, 5.00000000000000000000e-01) (0, 5, 0.00000000000000000000e+00) (4, 5, 5.00000000000000000000e-01) (4, 5, 5.00000000000000000000e-01) (4, 5, 5.00000000000000000000e-01) (0, 5, 0.00000000000000000000e+00) 
connections (connected_to_neuron, weight)=(0, -3.92283767461776733398e-01) (1, 1.22569715976715087891e+00) (2, -1.07799112796783447266e+00) (3, -2.24160358309745788574e-01) (0, 1.21998704969882965088e-01) (1, -2.20088505744934082031e+00) (2, -6.19694292545318603516e-01) (3, 1.81383714079856872559e-01) (0, 2.13602375984191894531e+00) (1, 3.02609413862228393555e-01) (2, -1.25680997967720031738e-01) (3, 1.88307520002126693726e-02) (4, 4.71656799316406250000e-01) (5, -9.29276719689369201660e-02) (6, -3.21148657798767089844e+00) (7, 6.54010623693466186523e-02) (4, -2.05170941352844238281e+00) (5, 2.09075689315795898438e+00) (6, -4.37909543514251708984e-01) (7, -3.54685425758361816406e-01) (4, -6.56539872288703918457e-02) (5, 3.05707311630249023438e+00) (6, -1.13657154142856597900e-01) (7, -1.52486622333526611328e-01) 
